tree
version=v3
num_class=1
num_tree_per_iteration=1
label_index=0
max_feature_idx=525
objective=regression
feature_names=feature0 feature1 feature2 feature3 feature4 feature5 feature6 feature7 feature8 feature9 feature10 feature11 feature12 feature13 feature14 feature15 feature16 feature17 feature18 feature19 feature20 feature21 feature22 feature23 feature24 feature25 feature26 feature27 feature28 feature29 feature30 feature31 feature32 feature33 feature34 feature35 feature36 feature37 feature38 feature39 feature40 feature41 feature42 feature43 feature44 feature45 feature46 feature47 feature48 feature49 feature50 feature51 feature52 feature53 feature54 feature55 feature56 feature57 feature58 feature59 feature60 feature61 feature62 feature63 feature64 feature65 feature66 feature67 feature68 feature69 feature70 feature71 feature72 feature73 feature74 feature75 feature76 feature77 feature78 feature79 feature80 feature81 feature82 feature83 feature84 feature85 feature86 feature87 feature88 feature89 feature90 feature91 feature92 feature93 feature94 feature95 feature96 feature97 feature98 feature99 feature100 feature101 feature102 feature103 feature104 feature105 feature106 feature107 feature108 feature109 feature110 feature111 feature112 feature113 feature114 feature115 feature116 feature117 feature118 feature119 feature120 feature121 feature122 feature123 feature124 feature125 feature126 feature127 feature128 feature129 feature130 feature131 feature132 feature133 feature134 feature135 feature136 feature137 feature138 feature139 feature140 feature141 feature142 feature143 feature144 feature145 feature146 feature147 feature148 feature149 feature150 feature151 feature152 feature153 feature154 feature155 feature156 feature157 feature158 feature159 feature160 feature161 feature162 feature163 feature164 feature165 feature166 feature167 feature168 feature169 feature170 feature171 feature172 feature173 feature174 feature175 feature176 feature177 feature178 feature179 feature180 feature181 feature182 feature183 feature184 feature185 feature186 feature187 feature188 feature189 feature190 feature191 feature192 feature193 feature194 feature195 feature196 feature197 feature198 feature199 feature200 feature201 feature202 feature203 feature204 feature205 feature206 feature207 feature208 feature209 feature210 feature211 feature212 feature213 feature214 feature215 feature216 feature217 feature218 feature219 feature220 feature221 feature222 feature223 feature224 feature225 feature226 feature227 feature228 feature229 feature230 feature231 feature232 feature233 feature234 feature235 feature236 feature237 feature238 feature239 feature240 feature241 feature242 feature243 feature244 feature245 feature246 feature247 feature248 feature249 feature250 feature251 feature252 feature253 feature254 feature255 feature256 feature257 feature258 feature259 feature260 feature261 feature262 feature263 feature264 feature265 feature266 feature267 feature268 feature269 feature270 feature271 feature272 feature273 feature274 feature275 feature276 feature277 feature278 feature279 feature280 feature281 feature282 feature283 feature284 feature285 feature286 feature287 feature288 feature289 feature290 feature291 feature292 feature293 feature294 feature295 feature296 feature297 feature298 feature299 feature300 feature301 feature302 feature303 feature304 feature305 feature306 feature307 feature308 feature309 feature310 feature311 feature312 feature313 feature314 feature315 feature316 feature317 feature318 feature319 feature320 feature321 feature322 feature323 feature324 feature325 feature326 feature327 feature328 feature329 feature330 feature331 feature332 feature333 feature334 feature335 feature336 feature337 feature338 feature339 feature340 feature341 feature342 feature343 feature344 feature345 feature346 feature347 feature348 feature349 feature350 feature351 feature352 feature353 feature354 feature355 feature356 feature357 feature358 feature359 feature360 feature361 feature362 feature363 feature364 feature365 feature366 feature367 feature368 feature369 feature370 feature371 feature372 feature373 feature374 feature375 feature376 feature377 feature378 feature379 feature380 feature381 feature382 feature383 feature384 feature385 feature386 feature387 feature388 feature389 feature390 feature391 feature392 feature393 feature394 feature395 feature396 feature397 feature398 feature399 feature400 feature401 feature402 feature403 feature404 feature405 feature406 feature407 feature408 feature409 feature410 feature411 feature412 feature413 feature414 feature415 feature416 feature417 feature418 feature419 feature420 feature421 feature422 feature423 feature424 feature425 feature426 feature427 feature428 feature429 feature430 feature431 feature432 feature433 feature434 feature435 feature436 feature437 feature438 feature439 feature440 feature441 feature442 feature443 feature444 feature445 feature446 feature447 feature448 feature449 feature450 feature451 feature452 feature453 feature454 feature455 feature456 feature457 feature458 feature459 feature460 feature461 feature462 feature463 feature464 feature465 feature466 feature467 feature468 feature469 feature470 feature471 feature472 feature473 feature474 feature475 feature476 feature477 feature478 feature479 feature480 feature481 feature482 feature483 feature484 feature485 feature486 feature487 feature488 feature489 feature490 feature491 feature492 feature493 feature494 feature495 feature496 feature497 feature498 feature499 feature500 feature501 feature502 feature503 feature504 feature505 feature506 feature507 feature508 feature509 feature510 feature511 feature512 feature513 feature514 feature515 feature516 feature517 feature518 feature519 feature520 feature521 feature522 feature523 feature524 feature525
feature_infos=[0:1] [0:100] [0:1] [4.7300000000000004:3170] [0.024:0.56200000000000006] [-64.299999999999997:48.450000000000003] [0.46600000000000003:99.799999999999997] [0.032300000000000002:78.299999999999997] none none none none none none [0:1] none [0:1] none [0:1] none none none none none none none none none none none none none none none none [0:1] none none none none none none [0:1] none none none none none none none none [0:1] none [0:1] none none none none none none none none none none none none none none none none none none none none none none none none none none none none none none none none none none none none none none none none none none none none none none none none none none none none none none none none none none none none none none none none none none none none none none none none none none none none none none none none none none none none none none none none none none none none none none none none none none none none none none none none none none none none none none none none none none none none none none none none none none none none none none none none none none none none none none none none none none none none none none none none none none none none none [0:1] none none none none none none none none none none none none none none none none none none none none none none none none none none none none none none none none none none none none none none none none none none none none none none none none none none none none none none none none none none none none none none none none none none none none none none none none none none none none none none none none none none none none none [0:1] [0:1] none none none none none none none none none none none [0:1] none [0:1] none none none none none none none none none none none none none none none none none none none none none none none none none none none none none none none none none none none none none none none none none none none none none none none none none none none none none none none none none none none none none none none none none none none none none none none none none none none none none none none none none [0:1] none none none none none none none none none none none none none none none none none none none none none none none none none none none none none none none none none none none none none none none none none none none none none none none none none [0:1] none none [0:1] none none none none none [0:1] none none [0:1] none none none none none none none none none none none none none none none [0:1] none [0:1] none none none none none none none none none none none none none none none none none none none none none none none none none none none none none none none none none none none none none none none none none none none none none none none none none none none none none none none none none [0:1] [0:1]
tree_sizes=537 547 647 631 627 722 624 567 637 572 658 654 656 662 631 642 639 639 665 661 668 661 656 618 574 618 648 558 646 665 662 659 666 668 646 665 561 646 668 670 650 659 667 663 668 757 672 648 729 671 661 726 742 733 732 649 673 670 731 673 570 756 660 663 671 568 673 661 751 675 672 760 657 671 664 757 768 667 587 678 665 664 671 661 648 731 666 744 639 738 665 650 547 648 647 671 679 637 662 672 749 762 671 758 660 676 681 676 665 582 668 664

Tree=0
num_leaves=5
num_cat=0
split_feature=289 5 3 5
split_gain=4.52356 0.937173 0.900226 0.129855
threshold=1.0000000180025095e-35 -12.475 137.32500000000002 -12.475
decision_type=2 10 8 8
left_child=2 3 -1 -2
right_child=1 -3 -4 -5
leaf_value=0.025851180950800575 0.010382372046241888 0.015271236740730026 0.017569354942866735 0.0078141128485474526
leaf_weight=27 37 33 21 34
leaf_count=27 37 33 21 34
internal_value=0 0.011094 0.0222279 0.0091525
internal_weight=0 104 48 71
internal_count=152 104 48 71
is_linear=0
shrinkage=0.03


Tree=1
num_leaves=5
num_cat=0
split_feature=289 5 5 16
split_gain=6.28322 0.76478 0.485984 0.0751485
threshold=1.0000000180025095e-35 -12.475 -12.475 1.0000000180025095e-35
decision_type=2 10 10 2
left_child=1 -1 3 -2
right_child=2 -3 -4 -5
leaf_value=0.018962174051187254 0.0093864423168056148 0.026000419603660702 0.012833561910316347 0.0074990893817550048
leaf_weight=33 34 24 30 43
leaf_count=33 34 24 30 43
internal_value=0 0.0219256 0.00959446 0.00833247
internal_weight=0 57 107 77
internal_count=164 57 107 77
is_linear=0
shrinkage=0.03


Tree=2
num_leaves=6
num_cat=0
split_feature=289 4 5 439 5
split_gain=3.65509 1.46523 1.12087 0.999069 0.197675
threshold=1.0000000180025095e-35 0.27850000000000008 -28.449999999999999 1.0000000180025095e-35 -28.449999999999999
decision_type=2 8 10 2 8
left_child=1 -1 4 -4 -2
right_child=2 -3 3 -5 -6
leaf_value=0.025913806110620496 0.010011241402743119 0.016107890256098472 0.0086891513178125029 0.017236485840403475 0.0062653907644562423
leaf_weight=24 21 32 20 32 32
leaf_count=24 21 32 20 32 32
internal_value=0 0.0203104 0.0108198 0.013949 0.0077496
internal_weight=0 56 105 52 53
internal_count=161 56 105 52 53
is_linear=0
shrinkage=0.03


Tree=3
num_leaves=6
num_cat=0
split_feature=290 4 5 3 5
split_gain=3.62582 1.31764 1.07594 0.257621 0.135783
threshold=1.0000000180025095e-35 0.21800000000000003 -12.475 81.15000000000002 16.700000000000003
decision_type=2 8 10 10 8
left_child=1 2 -1 -3 -5
right_child=-2 3 -4 4 -6
leaf_value=0.010598804410547018 0.022410919814503615 0.011415489575486968 0.020020339475013315 0.0067137790261767799 0.0098167183724316692
leaf_weight=20 35 33 24 30 22
leaf_count=20 35 33 24 30 22
internal_value=0 0.0115237 0.0157378 0.00934226 0.00802656
internal_weight=0 129 44 85 52
internal_count=164 129 44 85 52
is_linear=0
shrinkage=0.03


Tree=4
num_leaves=6
num_cat=0
split_feature=5 289 448 5 6
split_gain=2.51116 0.893098 0.232687 0.196707 0.183494
threshold=-12.475 1.0000000180025095e-35 1.0000000180025095e-35 -12.475 58.675000000000004
decision_type=10 2 2 8 10
left_child=1 -1 -3 -4 -2
right_child=4 2 3 -5 -6
leaf_value=0.015069028984902326 0.017647675118409097 0.0070605673582758753 0.012644052226906238 0.0088685832642174008 0.021538463681936262
leaf_weight=38 20 25 23 27 24
leaf_count=38 20 25 23 27 24
internal_value=0 0.0113221 0.00942372 0.0106053 0.0197699
internal_weight=0 113 75 50 44
internal_count=157 113 75 50 44
is_linear=0
shrinkage=0.03


Tree=5
num_leaves=7
num_cat=0
split_feature=289 436 5 4 5 3
split_gain=4.22645 1.68073 1.02841 0.670333 0.372783 0.0539475
threshold=1.0000000180025095e-35 1.0000000180025095e-35 -12.475 1.0000000180025095e-35 -28.449999999999999 81.15000000000002
decision_type=2 2 10 10 8 10
left_child=1 3 4 -1 -2 -6
right_child=2 -3 -4 -5 5 -7
leaf_value=0.011875374385155738 0.011096487334929406 0.026420315321534871 0.013991847170982509 0.019311936344020068 0.0072900788843010857 0.005426618771884462
leaf_weight=20 20 20 32 24 27 29
leaf_count=20 20 20 32 24 27 29
internal_value=0 0.0192094 0.0094803 0.0159317 0.00758071 0.00632507
internal_weight=0 64 108 44 76 56
internal_count=172 64 108 44 76 56
is_linear=0
shrinkage=0.03


Tree=6
num_leaves=6
num_cat=0
split_feature=289 3 5 5 6
split_gain=4.11724 1.55825 0.602261 0.215916 0.0489137
threshold=1.0000000180025095e-35 137.32500000000002 -12.475 -12.475 58.675000000000004
decision_type=2 8 10 8 10
left_child=1 -1 3 4 -2
right_child=2 -3 -4 -5 -6
leaf_value=0.022503611757286955 0.0097593874521553509 0.012166706536497388 0.012193147404119371 0.0055306730246310679 0.0076612375387921927
leaf_weight=35 20 21 30 37 20
leaf_count=35 20 21 30 37 20
internal_value=0 0.0186273 0.00858731 0.00718243 0.00871031
internal_weight=0 56 107 77 40
internal_count=163 56 107 77 40
is_linear=0
shrinkage=0.03


Tree=7
num_leaves=5
num_cat=0
split_feature=289 439 5 5
split_gain=2.523 0.864433 0.486239 0.214935
threshold=1.0000000180025095e-35 1.0000000180025095e-35 -28.449999999999999 -28.449999999999999
decision_type=2 2 10 10
left_child=3 -2 -3 -1
right_child=1 2 -4 -5
leaf_value=0.014158584603667259 0.0048658778246592829 0.0080114238652367921 0.0132412378618028 0.017800639913550444
leaf_weight=25 37 32 32 35
leaf_count=25 37 32 32 35
internal_value=0 0.00851607 0.0106263 0.0162831
internal_weight=0 101 64 60
internal_count=161 101 64 60
is_linear=0
shrinkage=0.03


Tree=8
num_leaves=6
num_cat=0
split_feature=5 4 6 448 1
split_gain=1.8953 1.18185 0.412652 0.374758 0.219579
threshold=-28.449999999999999 1.0000000180025095e-35 1.0000000180025095e-35 1.0000000180025095e-35 inf
decision_type=10 10 10 2 8
left_child=3 -2 -3 -1 -5
right_child=1 2 -4 4 -6
leaf_value=0.0039983636619789252 0.0081691151411960958 0.013006036966531114 0.018249342067965437 0.0061889717127831482 0.0098887038197634468
leaf_weight=21 23 22 35 22 42
leaf_count=21 23 22 35 22 42
internal_value=0 0.0139094 0.0162256 0.00747587 0.00861692
internal_weight=0 80 57 85 64
internal_count=165 80 57 85 64
is_linear=0
shrinkage=0.03


Tree=9
num_leaves=5
num_cat=0
split_feature=290 6 5 3
split_gain=2.53153 0.383864 0.532307 0.169902
threshold=1.0000000180025095e-35 1.0000000180025095e-35 -1.0000000180025095e-35 105.28500000000001
decision_type=2 10 8 8
left_child=1 3 -3 -1
right_child=-2 2 -4 -5
leaf_value=0.010218433011728135 0.018725663400884416 0.0090862461102419866 0.015448137716855853 0.0069969549082310456
leaf_weight=23 37 29 20 41
leaf_count=23 37 29 20 41
internal_value=0 0.00968463 0.0116829 0.00815467
internal_weight=0 113 49 64
internal_count=150 113 49 64
is_linear=0
shrinkage=0.03


Tree=10
num_leaves=6
num_cat=0
split_feature=290 439 4 16 16
split_gain=2.4746 0.981965 1.02694 0.175509 0.128086
threshold=1.0000000180025095e-35 1.0000000180025095e-35 0.27850000000000008 1.0000000180025095e-35 1.0000000180025095e-35
decision_type=2 2 8 2 2
left_child=1 4 -3 -4 -1
right_child=-2 2 3 -5 -6
leaf_value=0.008022107404656708 0.018657863338753074 0.015567874607037414 0.0066846963856369256 0.010432713333031404 0.004922679737210273
leaf_weight=20 33 33 22 23 30
leaf_count=20 33 33 22 23 30
internal_value=0 0.00944436 0.0115481 0.00860035 0.00616245
internal_weight=0 128 78 45 50
internal_count=161 128 78 45 50
is_linear=0
shrinkage=0.03


Tree=11
num_leaves=6
num_cat=0
split_feature=448 3 4 3 4
split_gain=1.96628 1.30374 0.361938 0.176809 0.0319968
threshold=1.0000000180025095e-35 137.32500000000002 1.0000000180025095e-35 81.15000000000002 1.0000000180025095e-35
decision_type=2 8 10 10 10
left_child=4 3 -3 -2 -1
right_child=1 2 -4 -5 -6
leaf_value=0.0035616799852932275 0.017252899780869482 0.0067879709080526868 0.011514144811034202 0.013759210424032062 0.0051813519772674361
leaf_weight=23 22 35 25 32 21
leaf_count=23 22 35 25 32 21
internal_value=0 0.0118008 0.00875721 0.0151826 0.00433471
internal_weight=0 114 60 54 44
internal_count=158 114 60 54 44
is_linear=0
shrinkage=0.03


Tree=12
num_leaves=6
num_cat=0
split_feature=290 439 4 5 3
split_gain=3.37597 0.787153 0.715177 0.127207 0.052455
threshold=1.0000000180025095e-35 1.0000000180025095e-35 0.27850000000000008 -1.0000000180025095e-35 81.15000000000002
decision_type=2 2 8 8 10
left_child=1 3 -3 -1 -4
right_child=-2 2 4 -5 -6
leaf_value=0.0063450620765797792 0.017850139473135081 0.012916379992521423 0.0083196328500551829 0.003287330853939056 0.0063037404019493032
leaf_weight=24 39 34 21 25 26
leaf_count=24 39 34 21 25 26
internal_value=0 0.00778639 0.00960206 0.004785 0.00720446
internal_weight=0 130 81 49 47
internal_count=169 130 81 49 47
is_linear=0
shrinkage=0.03


Tree=13
num_leaves=6
num_cat=0
split_feature=290 6 436 448 5
split_gain=2.55264 0.561259 0.274926 0.485323 0.244524
threshold=1.0000000180025095e-35 80.915000000000006 1.0000000180025095e-35 1.0000000180025095e-35 -1.0000000180025095e-35
decision_type=2 10 2 2 8
left_child=1 2 3 -1 -5
right_child=-2 -3 -4 4 -6
leaf_value=0.0049919812983716836 0.017016735247258715 0.0118483743401101 0.0040201265417525297 0.0077134738610104914 0.012296793518587945
leaf_weight=32 36 26 23 22 20
leaf_count=32 36 26 23 22 20
internal_value=0 0.00793412 0.00688493 0.00777535 0.00989601
internal_weight=0 123 97 74 42
internal_count=159 123 97 74 42
is_linear=0
shrinkage=0.03


Tree=14
num_leaves=6
num_cat=0
split_feature=289 5 5 1 16
split_gain=1.77374 1.14195 0.300446 0.233318 0.0162867
threshold=1.0000000180025095e-35 -12.475 -12.475 21.500000000000004 1.0000000180025095e-35
decision_type=2 10 10 8 2
left_child=1 -1 3 -2 -5
right_child=2 -3 -4 4 -6
leaf_value=0.010890178346853645 0.0039512487401423806 0.019565693817355415 0.0099137784436877287 0.0082582721780383277 0.0071520947534590949
leaf_weight=36 22 22 35 23 25
leaf_count=36 22 22 35 23 25
internal_value=0 0.0141809 0.00764431 0.00650957 0.00768214
internal_weight=0 58 105 70 48
internal_count=163 58 105 70 48
is_linear=0
shrinkage=0.03


Tree=15
num_leaves=6
num_cat=0
split_feature=4 203 439 1 525
split_gain=1.77186 0.743198 0.396827 0.280438 0.262541
threshold=0.27850000000000008 1.0000000180025095e-35 1.0000000180025095e-35 inf 1.0000000180025095e-35
decision_type=8 2 2 8 2
left_child=1 -1 -3 -2 -5
right_child=3 2 -4 4 -6
leaf_value=0.016810013886008942 0.0031676121325128607 0.0069586263676839214 0.012552610165625809 0.0085317365052954598 0.0047653448167106803
leaf_weight=21 27 21 25 36 31
leaf_count=21 27 21 25 36 31
internal_value=0 0.0121337 0.00999883 0.00574887 0.00678908
internal_weight=0 67 46 94 67
internal_count=161 67 46 94 67
is_linear=0
shrinkage=0.03


Tree=16
num_leaves=6
num_cat=0
split_feature=289 5 4 6 5
split_gain=2.23032 0.96272 0.651725 0.211043 0.00678071
threshold=1.0000000180025095e-35 -12.475 0.21800000000000003 90.515000000000015 16.700000000000003
decision_type=2 10 8 8 8
left_child=1 -1 -2 -4 -5
right_child=2 -3 3 4 -6
leaf_value=0.0099606954276953864 0.0093781595105039209 0.017452437072419204 0.0064615436123105991 0.0027982535352202831 0.0035214986326172946
leaf_weight=38 35 26 29 20 28
leaf_count=38 35 26 29 20 28
internal_value=0 0.0130042 0.00598382 0.00444093 0.00322015
internal_weight=0 64 112 77 48
internal_count=176 64 112 77 48
is_linear=0
shrinkage=0.03


Tree=17
num_leaves=6
num_cat=0
split_feature=5 4 290 1 4
split_gain=1.85202 0.748761 0.477922 0.355363 0.12999
threshold=-12.475 0.21800000000000003 1.0000000180025095e-35 1.0000000180025095e-35 1.0000000180025095e-35
decision_type=10 8 2 8 10
left_child=2 -2 3 -1 -5
right_child=1 -3 -4 4 -6
leaf_value=0.0024458231707103549 0.017729071099311114 0.01067097209574234 0.010623041917569935 0.0082772867512539965 0.0053901459395885466
leaf_weight=21 24 31 24 32 25
leaf_count=21 24 31 24 32 25
internal_value=0 0.0137509 0.006921 0.00578191 0.007011
internal_weight=0 55 102 78 57
internal_count=157 55 102 78 57
is_linear=0
shrinkage=0.03


Tree=18
num_leaves=6
num_cat=0
split_feature=5 448 386 439 3
split_gain=2.19858 0.726692 0.417739 0.347054 0.144859
threshold=1.0000000180025095e-35 1.0000000180025095e-35 1.0000000180025095e-35 1.0000000180025095e-35 137.32500000000002
decision_type=10 2 2 2 8
left_child=1 -1 -3 -4 -5
right_child=-2 2 3 4 -6
leaf_value=0.0037272346952011352 0.016408975527075858 0.011916733940060322 0.0049977425299584863 0.010980991433773721 0.0076309790404943305
leaf_weight=37 29 26 30 21 26
leaf_count=37 29 26 30 21 26
internal_value=0 0.00733344 0.00862887 0.00751868 0.00912779
internal_weight=0 140 103 77 47
internal_count=169 140 103 77 47
is_linear=0
shrinkage=0.03


Tree=19
num_leaves=6
num_cat=0
split_feature=290 464 439 4 3
split_gain=1.96566 0.551395 0.525767 0.317478 0.0414527
threshold=1.0000000180025095e-35 1.0000000180025095e-35 1.0000000180025095e-35 0.27850000000000008 81.15000000000002
decision_type=2 2 2 8 10
left_child=1 2 -1 -4 -5
right_child=-2 -3 3 4 -6
leaf_value=0.0030573110599574202 0.014831009768124204 0.011272671994354043 0.010365099838894345 0.0071433085921453312 0.0053679688766213318
leaf_weight=37 35 21 23 20 29
leaf_count=37 35 21 23 20 29
internal_value=0 0.00682139 0.00596381 0.00745742 0.0060926
internal_weight=0 130 109 72 49
internal_count=165 130 109 72 49
is_linear=0
shrinkage=0.03


Tree=20
num_leaves=6
num_cat=0
split_feature=5 464 448 439 5
split_gain=1.51823 1.09583 0.479005 0.392279 0.27491
threshold=1.0000000180025095e-35 1.0000000180025095e-35 1.0000000180025095e-35 1.0000000180025095e-35 -1.0000000180025095e-35
decision_type=10 2 2 2 8
left_child=1 2 -1 -4 -5
right_child=-2 -3 3 4 -6
leaf_value=0.0025016750817303543 0.014787070873193442 0.013228637907654045 0.0043287979179363256 0.010398470240420309 0.0058914121424978863
leaf_weight=32 25 20 34 29 21
leaf_count=32 25 20 34 29 21
internal_value=0 0.00674324 0.00562507 0.00681493 0.00850551
internal_weight=0 136 116 84 50
internal_count=161 136 116 84 50
is_linear=0
shrinkage=0.03


Tree=21
num_leaves=6
num_cat=0
split_feature=289 3 6 2 525
split_gain=2.17561 0.679243 0.496408 0.23099 0.112658
threshold=1.0000000180025095e-35 137.32500000000002 1.0000000180025095e-35 1.0000000180025095e-35 1.0000000180025095e-35
decision_type=2 8 10 8 2
left_child=1 -1 4 -4 -2
right_child=2 -3 3 -5 -6
leaf_value=0.016902782133018428 0.0022240089401020669 0.0096750626340508464 0.0090369428135454646 0.0049270575866103171 0.0049117906384170051
leaf_weight=22 32 25 32 20 25
leaf_count=22 32 25 32 20 25
internal_value=0 0.0130583 0.00533657 0.00745622 0.00340286
internal_weight=0 47 109 52 57
internal_count=156 47 109 52 57
is_linear=0
shrinkage=0.03


Tree=22
num_leaves=6
num_cat=0
split_feature=290 464 448 5 16
split_gain=1.92884 0.606359 0.485497 0.238335 0.0289022
threshold=1.0000000180025095e-35 1.0000000180025095e-35 1.0000000180025095e-35 -12.475 1.0000000180025095e-35
decision_type=2 2 2 8 2
left_child=1 2 -1 -4 -5
right_child=-2 -3 3 4 -6
leaf_value=0.0020729286517445489 0.013331334049311966 0.010371551634743809 0.0039565334916114806 0.0068899618328103545 0.0084293197095394127
leaf_weight=38 39 21 25 23 21
leaf_count=38 39 21 25 23 21
internal_value=0 0.00571072 0.00479598 0.00629563 0.00762466
internal_weight=0 128 107 69 44
internal_count=167 128 107 69 44
is_linear=0
shrinkage=0.03


Tree=23
num_leaves=6
num_cat=0
split_feature=289 5 5 4 5
split_gain=2.02602 0.439567 0.242305 0.306497 0.0555433
threshold=1.0000000180025095e-35 -12.475 inf 1.0000000180025095e-35 -12.475
decision_type=2 10 8 10 10
left_child=1 -1 3 -2 -5
right_child=2 -3 -4 4 -6
leaf_value=0.0097182224839925755 0.0027033589567456925 0.014997668489178812 0.0026007294043533459 0.0061100194868273453 0.0081581602283668786
leaf_weight=40 21 22 33 26 22
leaf_count=40 21 22 33 26 22
internal_value=0 0.0115916 0.00471505 0.00572624 0.00704875
internal_weight=0 62 102 69 48
internal_count=164 62 102 69 48
is_linear=0
shrinkage=0.03


Tree=24
num_leaves=5
num_cat=0
split_feature=290 4 525 3
split_gain=1.91517 0.280615 0.275331 0.0466997
threshold=1.0000000180025095e-35 0.21800000000000003 1.0000000180025095e-35 105.28500000000001
decision_type=2 8 2 10
left_child=1 -1 3 -3
right_child=-2 2 -4 -5
leaf_value=0.0078578761347422484 0.013652210152746799 0.007463041374343447 0.0028808624443818669 0.0054374792486695306
leaf_weight=38 36 20 38 21
leaf_count=38 36 20 38 21
internal_value=0 0.00573949 0.00472051 0.00642556
internal_weight=0 117 79 41
internal_count=153 117 79 41
is_linear=0
shrinkage=0.03


Tree=25
num_leaves=6
num_cat=0
split_feature=289 5 5 5 5
split_gain=1.71292 0.64334 0.603111 0.187357 0.0003804
threshold=1.0000000180025095e-35 -12.475 -12.475 -12.475 -28.449999999999999
decision_type=2 10 10 8 10
left_child=2 3 -1 4 -2
right_child=1 -3 -4 -5 -6
leaf_value=0.0089370295845649459 0.0047489569263998417 0.0086470822344023382 0.015349613445895638 0.0018645624161752708 0.0049278513406929769
leaf_weight=33 20 31 22 34 23
leaf_count=33 20 31 22 34 23
internal_value=0 0.00499791 0.0115021 0.00352876 0.00484464
internal_weight=0 108 55 77 43
internal_count=163 108 55 77 43
is_linear=0
shrinkage=0.03


Tree=26
num_leaves=6
num_cat=0
split_feature=289 5 439 4 3
split_gain=1.08297 1.14186 0.337605 0.426428 0.0484851
threshold=1.0000000180025095e-35 -12.475 1.0000000180025095e-35 1.0000000180025095e-35 105.28500000000001
decision_type=2 10 2 10 8
left_child=1 -1 4 -4 -2
right_child=2 -3 3 -5 -6
leaf_value=0.006633088791476829 0.0015699917091322796 0.015618950106203558 0.0032244717278000377 0.0082119534837935739 0.0036339110127264571
leaf_weight=35 21 20 27 36 20
leaf_count=35 21 20 27 36 20
internal_value=0 0.00990067 0.00469557 0.00607446 0.00257678
internal_weight=0 55 104 63 41
internal_count=159 55 104 63 41
is_linear=0
shrinkage=0.03


Tree=27
num_leaves=5
num_cat=0
split_feature=386 6 2 3
split_gain=0.994236 0.668363 0.345178 0.0685583
threshold=1.0000000180025095e-35 1.0000000180025095e-35 inf 188.25000000000003
decision_type=2 10 8 8
left_child=-1 3 -3 -2
right_child=1 2 -4 -5
leaf_value=0.012127116609966225 0.0025030234521678228 0.0096409812684242532 0.0055054401674800935 0.0045857793610543018
leaf_weight=27 33 39 34 25
leaf_count=27 33 39 34 25
internal_value=0 0.00580479 0.00771484 0.00340076
internal_weight=0 131 73 58
internal_count=158 131 73 58
is_linear=0
shrinkage=0.03


Tree=28
num_leaves=6
num_cat=0
split_feature=289 3 4 16 5
split_gain=0.992563 0.910564 0.413919 0.171296 0.109689
threshold=1.0000000180025095e-35 137.32500000000002 0.27850000000000008 1.0000000180025095e-35 -12.475
decision_type=2 8 8 2 10
left_child=1 -1 4 -4 -2
right_child=2 -3 3 -5 -6
leaf_value=0.012349817262842289 0.0048984594189471773 0.0048140458126241957 0.0039441572469208512 0.00079039487702351429 0.0077481103716418153
leaf_weight=31 31 27 31 31 20
leaf_count=31 31 27 31 31 20
internal_value=0 0.00884179 0.00401403 0.00236728 0.00601597
internal_weight=0 58 113 62 51
internal_count=171 58 113 62 51
is_linear=0
shrinkage=0.03


Tree=29
num_leaves=6
num_cat=0
split_feature=18 464 3 4 289
split_gain=1.3882 0.603072 0.310967 0.414753 0.51446
threshold=1.0000000180025095e-35 1.0000000180025095e-35 81.15000000000002 1.0000000180025095e-35 1.0000000180025095e-35
decision_type=2 2 10 10 2
left_child=1 2 -1 -4 -5
right_child=-2 -3 3 4 -6
leaf_value=0.0061227483742942023 0.013014676421880721 0.0090200707532465448 0.00012480764679851072 0.0082900084331631648 0.0021923519688954742
leaf_weight=39 21 25 31 20 33
leaf_count=39 21 25 31 20 33
internal_value=0 0.00477234 0.00390898 0.00288115 0.00449335
internal_weight=0 148 123 84 53
internal_count=169 148 123 84 53
is_linear=0
shrinkage=0.03


Tree=30
num_leaves=6
num_cat=0
split_feature=5 448 4 3 439
split_gain=2.05246 0.538121 0.467598 0.291511 0.128818
threshold=1.0000000180025095e-35 1.0000000180025095e-35 0.21800000000000003 81.15000000000002 1.0000000180025095e-35
decision_type=10 2 8 10 2
left_child=1 -1 -3 -4 -5
right_child=-2 2 3 4 -6
leaf_value=0.001140443051001057 0.013859563766236533 0.0089247316878754649 0.0062936748588856839 0.00092512711416929965 0.0042480037175118921
leaf_weight=35 24 26 35 21 21
leaf_count=35 24 26 35 21 21
internal_value=0 0.00435415 0.00544619 0.00427162 0.00258657
internal_weight=0 138 103 77 42
internal_count=162 138 103 77 42
is_linear=0
shrinkage=0.03


Tree=31
num_leaves=6
num_cat=0
split_feature=5 289 6 4 3
split_gain=0.521182 0.349688 0.18139 0.178208 0.289899
threshold=1.0000000180025095e-35 1.0000000180025095e-35 1.0000000180025095e-35 0.21800000000000003 81.15000000000002
decision_type=10 2 10 8 10
left_child=1 2 -1 -3 -5
right_child=-2 3 -4 4 -6
leaf_value=0.004442401445754196 0.0089122813625726847 0.0050808733127688842 0.0082987920141645837 0.004514255036796944 0.00033221147874636309
leaf_weight=23 24 26 21 26 35
leaf_count=23 24 26 21 26 35
internal_value=0 0.00410344 0.00628295 0.00300116 0.00211472
internal_weight=0 131 44 87 61
internal_count=155 131 44 87 61
is_linear=0
shrinkage=0.03


Tree=32
num_leaves=6
num_cat=0
split_feature=289 6 4 439 4
split_gain=0.724321 0.321595 0.244821 0.155763 0.0941875
threshold=1.0000000180025095e-35 80.915000000000006 1.0000000180025095e-35 1.0000000180025095e-35 1.0000000180025095e-35
decision_type=2 10 10 2 10
left_child=2 3 -1 -2 -5
right_child=1 -3 -4 4 -6
leaf_value=0.006254693328148939 0.00094533433555625372 0.0068666173405945293 0.010032895721318521 0.0027510867659002541 0.0053027965808692176
leaf_weight=33 24 25 29 30 23
leaf_count=33 24 25 29 30 23
internal_value=0 0.0039103 0.00802192 0.00295045 0.00385843
internal_weight=0 102 62 77 53
internal_count=164 102 62 77 53
is_linear=0
shrinkage=0.03


Tree=33
num_leaves=6
num_cat=0
split_feature=5 464 3 289 525
split_gain=1.35336 0.551813 0.354144 0.202807 0.101761
threshold=1.0000000180025095e-35 1.0000000180025095e-35 137.32500000000002 1.0000000180025095e-35 1.0000000180025095e-35
decision_type=10 2 10 2 2
left_child=1 2 3 -1 -5
right_child=-2 -3 -4 4 -6
leaf_value=0.0068678813986480236 0.011791139290854335 0.008361290330358314 0.00094056806369760147 0.0021463904934577067 0.0046913559170019244
leaf_weight=23 25 24 37 26 31
leaf_count=23 25 24 37 26 31
internal_value=0 0.00421753 0.00336753 0.00448999 0.00353049
internal_weight=0 141 117 80 57
internal_count=166 141 117 80 57
is_linear=0
shrinkage=0.03


Tree=34
num_leaves=6
num_cat=0
split_feature=5 289 5 4 2
split_gain=1.24155 0.673953 0.219778 0.163089 0.0763498
threshold=1.0000000180025095e-35 1.0000000180025095e-35 -28.449999999999999 1.0000000180025095e-35 inf
decision_type=10 2 8 10 8
left_child=1 3 -3 -1 -4
right_child=-2 2 4 -5 -6
leaf_value=0.0054871725856971273 0.011152590084820984 0.0052642237714358737 0.0025688751230283249 0.0090905580623075362 0.00051437620487478043
leaf_weight=26 27 21 41 20 27
leaf_count=26 27 21 41 20 27
internal_value=0 0.00410547 0.00258158 0.00705386 0.00175312
internal_weight=0 135 89 46 68
internal_count=162 135 89 46 68
is_linear=0
shrinkage=0.03


Tree=35
num_leaves=6
num_cat=0
split_feature=290 16 439 4 4
split_gain=1.38995 0.21221 0.370816 0.152233 0.0496042
threshold=1.0000000180025095e-35 1.0000000180025095e-35 1.0000000180025095e-35 0.27850000000000008 1.0000000180025095e-35
decision_type=2 2 2 8 10
left_child=1 4 -3 -4 -1
right_child=-2 2 3 -5 -6
leaf_value=0.0038238256857518783 0.00975699030215273 6.5813756694919182e-05 0.0058760846294981916 0.0023468585773794488 0.0055759411344591244
leaf_weight=33 37 38 22 22 26
leaf_count=33 37 38 22 22 26
internal_value=0 0.00322388 0.00223665 0.00411147 0.00459594
internal_weight=0 141 82 44 59
internal_count=178 141 82 44 59
is_linear=0
shrinkage=0.03


Tree=36
num_leaves=5
num_cat=0
split_feature=289 5 439 4
split_gain=1.28689 0.757085 0.394552 0.443654
threshold=1.0000000180025095e-35 -12.475 1.0000000180025095e-35 0.27850000000000008
decision_type=2 10 2 8
left_child=1 -1 -2 -4
right_child=2 -3 3 -5
leaf_value=0.0055274910614004028 6.4915804541669788e-05 0.012772280861224446 0.0069089356354541239 0.0018217168573755769
leaf_weight=34 36 21 27 36
leaf_count=34 36 21 27 36
internal_value=0 0.00829368 0.0025703 0.00400195
internal_weight=0 55 99 63
internal_count=154 55 99 63
is_linear=0
shrinkage=0.03


Tree=37
num_leaves=6
num_cat=0
split_feature=35 4 5 3 5
split_gain=0.606274 0.812201 0.636649 0.206838 0.0639598
threshold=1.0000000180025095e-35 0.21800000000000003 -12.475 137.32500000000002 -1.0000000180025095e-35
decision_type=2 8 10 10 8
left_child=-1 2 -2 4 -3
right_child=1 3 -4 -5 -6
leaf_value=0.0090058235477449167 0.0041116123424061301 0.0047053892802796328 0.010847789291292428 0.00057483108960749464 0.0026946252254503112
leaf_weight=27 28 24 23 34 35
leaf_count=27 28 24 23 34 35
internal_value=0 0.00410701 0.0071495 0.00243855 0.00351256
internal_weight=0 144 51 93 59
internal_count=171 144 51 93 59
is_linear=0
shrinkage=0.03


Tree=38
num_leaves=6
num_cat=0
split_feature=18 464 448 3 6
split_gain=1.05934 0.979135 0.359295 0.287736 0.247187
threshold=1.0000000180025095e-35 1.0000000180025095e-35 1.0000000180025095e-35 137.32500000000002 1.0000000180025095e-35
decision_type=2 2 2 10 10
left_child=1 2 -1 4 -4
right_child=-2 -3 3 -5 -6
leaf_value=-0.00057839738376274264 0.010512545651290565 0.008790041022205158 0.0056819626195607955 0.00014186376197771592 0.0017727232718607411
leaf_weight=34 20 23 37 22 24
leaf_count=34 20 23 37 22 24
internal_value=0 0.00313146 0.00201909 0.00308312 0.0041439
internal_weight=0 140 117 83 61
internal_count=160 140 117 83 61
is_linear=0
shrinkage=0.03


Tree=39
num_leaves=6
num_cat=0
split_feature=5 448 16 439 0
split_gain=0.919019 0.512953 0.51653 0.51804 0.274718
threshold=1.0000000180025095e-35 1.0000000180025095e-35 1.0000000180025095e-35 1.0000000180025095e-35 1.0000000180025095e-35
decision_type=10 2 2 2 8
left_child=1 -1 4 -4 -3
right_child=-2 2 3 -5 -6
leaf_value=0.00029190354175322381 0.0095224330796358659 0.0046532524516806001 0.0005556551750319508 0.0057058647799567552 0.0096256379680708052
leaf_weight=36 26 20 39 32 20
leaf_count=36 26 20 39 32 20
internal_value=0 0.0034037 0.00441294 0.00287688 0.00713945
internal_weight=0 147 111 71 40
internal_count=173 147 111 71 40
is_linear=0
shrinkage=0.03


Tree=40
num_leaves=6
num_cat=0
split_feature=289 3 6 2 436
split_gain=0.815223 0.797027 0.456923 0.568696 0.119144
threshold=1.0000000180025095e-35 137.32500000000002 1.0000000180025095e-35 inf 1.0000000180025095e-35
decision_type=2 10 10 8 2
left_child=1 -1 4 -4 -2
right_child=2 -3 3 -5 -6
leaf_value=0.010061766663832322 0.0019696514029055832 0.0026689813578767434 0.0069568613795815285 0.00067797254846664145 -0.00091826985217630856
leaf_weight=35 36 21 37 20 20
leaf_count=35 36 21 37 20 20
internal_value=0 0.00728947 0.00286288 0.00475374 0.000938251
internal_weight=0 56 113 57 56
internal_count=169 56 113 57 56
is_linear=0
shrinkage=0.03


Tree=41
num_leaves=6
num_cat=0
split_feature=6 464 4 16 3
split_gain=0.791215 0.502964 0.646808 0.173795 0.0118467
threshold=1.0000000180025095e-35 1.0000000180025095e-35 0.27850000000000008 1.0000000180025095e-35 137.32500000000002
decision_type=10 2 8 2 8
left_child=3 2 -2 -1 -5
right_child=1 -3 -4 4 -6
leaf_value=0.0035355506048483005 0.007600538943767208 0.010317473477683961 0.0012736318157448505 0.0011296938934727855 0.00013136329734697938
leaf_weight=34 33 20 26 23 20
leaf_count=34 33 20 26 23 20
internal_value=0 0.0062061 0.00481241 0.00193271 0.000665354
internal_weight=0 79 59 77 43
internal_count=156 79 59 77 43
is_linear=0
shrinkage=0.03


Tree=42
num_leaves=6
num_cat=0
split_feature=290 5 3 448 3
split_gain=1.5889 0.25535 0.24106 0.0690764 0.00307761
threshold=1.0000000180025095e-35 1.0000000180025095e-35 81.15000000000002 1.0000000180025095e-35 1.0000000180025095e-35
decision_type=2 10 10 2 10
left_child=1 2 4 -4 -1
right_child=-2 -3 3 -5 -6
leaf_value=0.0040717705395072693 0.010765442015422929 0.0060827175349644994 0.00025079468300995918 0.0022470850834193134 0.0045806127754242521
leaf_weight=20 31 23 26 39 23
leaf_count=20 31 23 26 39 23
internal_value=0 0.00321259 0.00260136 0.00144857 0.00434394
internal_weight=0 131 108 65 43
internal_count=162 131 108 65 43
is_linear=0
shrinkage=0.03


Tree=43
num_leaves=6
num_cat=0
split_feature=290 14 1 4 3
split_gain=0.948343 0.158887 0.233989 0.260459 0.0937801
threshold=1.0000000180025095e-35 1.0000000180025095e-35 8.0000000000000018 0.12350000000000001 105.28500000000001
decision_type=2 2 8 10 10
left_child=1 2 -1 4 -4
right_child=-2 -3 3 -5 -6
leaf_value=0.0053487324980752808 0.0083441273782115712 0.0050851255510416292 0.0019223912539441258 -0.00043918728828430177 0.0043919517092406747
leaf_weight=21 39 27 31 30 25
leaf_count=21 39 27 31 30 25
internal_value=0 0.00302865 0.00250973 0.00181648 0.00302487
internal_weight=0 134 107 86 56
internal_count=173 134 107 86 56
is_linear=0
shrinkage=0.03


Tree=44
num_leaves=6
num_cat=0
split_feature=35 5 1 7 289
split_gain=0.804419 0.285815 0.156075 0.233889 0.0797939
threshold=1.0000000180025095e-35 1.0000000180025095e-35 21.500000000000004 0.059900000000000002 1.0000000180025095e-35
decision_type=2 10 8 10 2
left_child=-1 2 -2 4 -4
right_child=1 -3 3 -5 -6
leaf_value=0.0082358294874429697 -9.9815476268272967e-05 0.0056099093572369646 0.0049127980507328176 -0.00024094356477937916 0.002643016453467957
leaf_weight=25 29 21 20 22 46
leaf_count=25 29 21 20 22 46
internal_value=0 0.0023873 0.00180888 0.00243789 0.00333083
internal_weight=0 138 117 88 66
internal_count=163 138 117 88 66
is_linear=0
shrinkage=0.03


Tree=45
num_leaves=7
num_cat=0
split_feature=18 464 4 3 6 6
split_gain=0.924095 0.549888 0.498164 0.44801 0.0339065 0.000672557
threshold=1.0000000180025095e-35 1.0000000180025095e-35 0.27850000000000008 81.15000000000002 1.0000000180025095e-35 1.0000000180025095e-35
decision_type=2 2 8 10 10 10
left_child=1 2 4 -4 -1 -5
right_child=-2 -3 3 5 -6 -7
leaf_value=0.0044040900166146457 0.010583417813060806 0.0079813253717577973 0.004221235547214746 -0.00063026447611098935 0.0059538353731234863 -0.00039824902624114537
leaf_weight=24 20 23 30 22 27 23
leaf_count=24 20 23 30 22 27 23
internal_value=0 0.00371566 0.00293701 0.00138149 0.00522454 -0.000511679
internal_weight=0 149 126 75 51 45
internal_count=169 149 126 75 51 45
is_linear=0
shrinkage=0.03


Tree=46
num_leaves=6
num_cat=0
split_feature=448 6 289 3 525
split_gain=0.442465 0.531175 0.791947 0.482782 0.0025354
threshold=1.0000000180025095e-35 1.0000000180025095e-35 1.0000000180025095e-35 105.28500000000001 1.0000000180025095e-35
decision_type=2 10 2 8 2
left_child=4 2 -2 -3 -1
right_child=1 3 -4 -5 -6
leaf_value=0.00022745174355804919 0.0064731946409396501 0.0093910069810226558 -0.00061572489832100027 0.0039277027712858008 0.00070513958178344187
leaf_weight=20 23 24 37 37 20
leaf_count=20 23 24 37 37 20
internal_value=0 0.00410587 0.00210169 0.0060772 0.000466296
internal_weight=0 121 60 61 40
internal_count=161 121 60 61 40
is_linear=0
shrinkage=0.03


Tree=47
num_leaves=6
num_cat=0
split_feature=5 289 4 2 16
split_gain=0.709152 0.425811 0.449527 0.180111 0.119993
threshold=1.0000000180025095e-35 1.0000000180025095e-35 0.27850000000000008 inf 1.0000000180025095e-35
decision_type=10 2 8 8 2
left_child=1 2 -1 4 -3
right_child=-2 3 -4 -5 -6
leaf_value=0.0079473841157076622 0.0076379839277693198 0.0038878685202110891 0.0021840260987137927 -0.00065901407069759446 0.0010275681418451396
leaf_weight=21 28 22 29 32 33
leaf_count=21 28 22 29 32 33
internal_value=0 0.00239844 0.00460464 0.00113051 0.00217169
internal_weight=0 137 50 87 55
internal_count=165 137 50 87 55
is_linear=0
shrinkage=0.03


Tree=48
num_leaves=7
num_cat=0
split_feature=35 4 525 1 16 6
split_gain=0.744297 0.391595 0.332566 0.205565 0.336462 0.0498153
threshold=1.0000000180025095e-35 0.27850000000000008 1.0000000180025095e-35 inf 1.0000000180025095e-35 90.515000000000015
decision_type=2 8 2 8 2 8
left_child=-1 2 5 -3 -5 -2
right_child=1 3 -4 4 -6 -7
leaf_value=0.0082729952558293005 0.0016102032786743205 -0.0010015148415158572 0.006862854806499348 0.0052416632058364995 0.00048729490875769907 0.0036789198406040665
leaf_weight=24 22 26 27 21 37 20
leaf_count=24 22 26 27 21 37 20
internal_value=0 0.00259062 0.00426522 0.00121506 0.0022087 0.00259531
internal_weight=0 153 69 84 58 42
internal_count=177 153 69 84 58 42
is_linear=0
shrinkage=0.03


Tree=49
num_leaves=6
num_cat=0
split_feature=290 439 2 6 2
split_gain=1.36768 0.226767 0.297212 0.115454 0.0741612
threshold=1.0000000180025095e-35 1.0000000180025095e-35 1.0000000180025095e-35 1.0000000180025095e-35 1.0000000180025095e-35
decision_type=2 2 8 10 8
left_child=1 4 3 -3 -1
right_child=-2 2 -4 -5 -6
leaf_value=3.5371966660022736e-05 0.0093439026600257921 0.0031571937315165994 0.00088460935227986832 0.0058599850417919118 0.002378515544347465
leaf_weight=31 33 25 27 33 20
leaf_count=31 33 25 27 33 20
internal_value=0 0.00253574 0.00348463 0.00469499 0.000954252
internal_weight=0 136 85 58 51
internal_count=169 136 85 58 51
is_linear=0
shrinkage=0.03


Tree=50
num_leaves=6
num_cat=0
split_feature=5 289 3 4 3
split_gain=0.651163 0.194915 0.300911 0.0916579 0.0623807
threshold=1.0000000180025095e-35 1.0000000180025095e-35 137.32500000000002 0.17050000000000004 188.25000000000003
decision_type=10 2 8 10 8
left_child=1 2 -1 4 -3
right_child=-2 3 -4 -5 -6
leaf_value=0.0064258290482684969 0.0077284972183406346 -5.0537780974991614e-05 0.0012841221424085753 0.0026706516684874169 0.001837025753294046
leaf_weight=20 21 40 21 31 26
leaf_count=20 21 40 21 31 26
internal_value=0 0.00205808 0.00379227 0.00132507 0.000693048
internal_weight=0 138 41 97 66
internal_count=159 138 41 97 66
is_linear=0
shrinkage=0.03


Tree=51
num_leaves=7
num_cat=0
split_feature=18 4 2 436 5 5
split_gain=1.23382 0.343753 0.33496 0.208294 0.147258 0.017514
threshold=1.0000000180025095e-35 0.17050000000000004 1.0000000180025095e-35 1.0000000180025095e-35 -12.475 -12.475
decision_type=2 10 8 2 10 8
left_child=1 2 3 5 -3 -1
right_child=-2 4 -4 -5 -6 -7
leaf_value=0.0014185848045162857 0.0094738024260316578 0.0023904793606036238 0.003073497117923883 -0.0026825514703989026 0.0057868344699963927 0.0001919603049331768
leaf_weight=20 21 27 36 25 20 22
leaf_count=20 21 27 36 25 20 22
internal_value=0 0.00170971 0.000739582 -0.000514462 0.00383574 0.000776067
internal_weight=0 150 103 67 47 42
internal_count=171 150 103 67 47 42
is_linear=0
shrinkage=0.03


Tree=52
num_leaves=7
num_cat=0
split_feature=4 525 448 439 5 525
split_gain=0.556855 0.43636 0.311595 0.22321 0.0167465 0.0051519
threshold=0.27850000000000008 1.0000000180025095e-35 1.0000000180025095e-35 1.0000000180025095e-35 -12.475 1.0000000180025095e-35
decision_type=8 2 2 2 10 2
left_child=1 4 -2 -4 -1 -5
right_child=2 -3 3 5 -6 -7
leaf_value=0.0013971914565190672 -0.0019525324503192676 0.0067530337278731162 -0.00035502005501517227 0.0027752039262559265 0.0026248661186546087 0.0034479827526956797
leaf_weight=20 30 31 28 20 20 21
leaf_count=20 30 31 28 20 20 21
internal_value=0 0.00408148 0.000599951 0.00170973 0.00201103 0.0031198
internal_weight=0 71 99 69 40 41
internal_count=170 71 99 69 40 41
is_linear=0
shrinkage=0.03


Tree=53
num_leaves=7
num_cat=0
split_feature=5 4 1 16 439 5
split_gain=1.48966 0.44225 0.257257 0.385434 0.304387 0.205724
threshold=1.0000000180025095e-35 0.21800000000000003 inf 1.0000000180025095e-35 1.0000000180025095e-35 -28.449999999999999
decision_type=10 8 8 2 2 10
left_child=1 5 -3 -4 -5 -1
right_child=-2 2 3 4 -6 -7
leaf_value=0.0017291303657527479 0.0097020821256393729 -0.0022880309188945424 0.0043495544993683048 -0.0026747658675187265 0.0020551874410011804 0.0058803603798151015
leaf_weight=21 22 27 23 25 24 22
leaf_count=21 22 27 23 25 24 22
internal_value=0 0.00131266 0.000209275 0.00114577 -0.000358054 0.00385302
internal_weight=0 142 99 72 49 43
internal_count=164 142 99 72 49 43
is_linear=0
shrinkage=0.03


Tree=54
num_leaves=7
num_cat=0
split_feature=290 4 1 3 3 4
split_gain=0.866018 0.155716 0.262153 0.149518 0.109257 0.00796604
threshold=1.0000000180025095e-35 0.17050000000000004 inf 188.25000000000003 105.28500000000001 1.0000000180025095e-35
decision_type=2 10 8 8 10 10
left_child=1 2 -1 5 -3 -4
right_child=-2 4 3 -5 -6 -7
leaf_value=-0.0025507011206354945 0.0065635200973381009 0.0042935289787128569 0.00064366203536999158 0.0031444758535004577 0.0012298457364721053 -0.00018359567038714886
leaf_weight=20 34 20 22 26 22 20
leaf_count=20 34 20 22 26 22 20
internal_value=0 0.00118583 0.000468534 0.00135654 0.00268874 0.00024973
internal_weight=0 130 88 68 42 42
internal_count=164 130 88 68 42 42
is_linear=0
shrinkage=0.03


Tree=55
num_leaves=6
num_cat=0
split_feature=6 7 1 16 5
split_gain=0.454502 0.261227 0.267536 0.261557 0.180206
threshold=80.915000000000006 1.0000000180025095e-35 21.500000000000004 1.0000000180025095e-35 -12.475
decision_type=10 10 8 2 10
left_child=1 2 -1 -4 -5
right_child=-2 -3 3 4 -6
leaf_value=-0.00066008848836645478 0.0058373908046633 -0.0013335379119962453 0.0051173975282619074 0.0030321310074941719 -0.00059796245943289251
leaf_weight=24 26 24 31 32 20
leaf_count=24 26 24 31 32 20
internal_value=0 0.00149512 0.00212959 0.00293624 0.00163594
internal_weight=0 131 107 83 52
internal_count=157 131 107 83 52
is_linear=0
shrinkage=0.03


Tree=56
num_leaves=6
num_cat=0
split_feature=289 0 6 439 3
split_gain=0.684516 0.524283 0.217449 0.247628 0.0655187
threshold=1.0000000180025095e-35 1.0000000180025095e-35 1.0000000180025095e-35 1.0000000180025095e-35 105.28500000000001
decision_type=2 8 10 2 10
left_child=1 -1 4 -4 -2
right_child=2 -3 3 -5 -6
leaf_value=0.0025536399904012796 0.00059413066536590864 0.0082889455205832525 -0.00012241012131033294 0.0038769794804485221 -0.0015038781079264091
leaf_weight=32 37 26 22 38 21
leaf_count=32 37 26 22 38 21
internal_value=0 0.00512464 0.00114435 0.00241054 -0.000165493
internal_weight=0 58 118 60 58
internal_count=176 58 118 60 58
is_linear=0
shrinkage=0.03


Tree=57
num_leaves=6
num_cat=0
split_feature=35 386 6 4 3
split_gain=0.417703 0.42893 0.25969 0.211336 0.0288432
threshold=1.0000000180025095e-35 1.0000000180025095e-35 1.0000000180025095e-35 0.21800000000000003 105.28500000000001
decision_type=2 2 10 8 10
left_child=-1 -2 4 -4 -3
right_child=1 2 3 -5 -6
leaf_value=0.0056832117587327959 0.0049404837372712795 -0.00025756887160241601 0.0040190425728752199 0.00029423436992962295 -0.0016333716418012044
leaf_weight=24 25 32 26 29 24
leaf_count=24 25 32 26 29 24
internal_value=0 0.00139042 0.000590854 0.00205505 -0.000847199
internal_weight=0 136 111 55 56
internal_count=160 136 111 55 56
is_linear=0
shrinkage=0.03


Tree=58
num_leaves=7
num_cat=0
split_feature=35 4 6 1 16 4
split_gain=0.533151 0.626486 0.465407 0.356792 0.193674 0.0251491
threshold=1.0000000180025095e-35 0.27850000000000008 80.915000000000006 inf 1.0000000180025095e-35 0.17050000000000004
decision_type=2 8 10 8 2 10
left_child=-1 2 5 -3 -5 -2
right_child=1 3 -4 4 -6 -7
leaf_value=0.0061155359832836039 0.0012720899031098401 -0.0033779095157818947 0.0075792602127185086 0.0032474643821743402 -0.00045837857248261568 0.0027585393029730767
leaf_weight=28 21 23 20 22 30 20
leaf_count=28 21 23 20 22 30 20
internal_value=0 0.00156964 0.00382738 -0.000266654 0.00110948 0.00199719
internal_weight=0 136 61 75 52 41
internal_count=164 136 61 75 52 41
is_linear=0
shrinkage=0.03


Tree=59
num_leaves=6
num_cat=0
split_feature=289 3 3 439 4
split_gain=0.637355 0.992274 0.306064 0.0788379 0.0771815
threshold=1.0000000180025095e-35 137.32500000000002 188.25000000000003 1.0000000180025095e-35 1.0000000180025095e-35
decision_type=2 10 10 2 10
left_child=1 -1 3 -2 -5
right_child=2 -3 -4 4 -6
leaf_value=0.0077011836785193834 -0.0013173077156534419 5.3677441409000979e-05 0.0040458240481093524 -0.00047451801165672284 0.0018188133062794804
leaf_weight=37 30 26 20 28 25
leaf_count=37 30 26 20 28 25
internal_value=0 0.00454507 0.000714379 -8.83784e-05 0.000607242
internal_weight=0 63 103 83 53
internal_count=166 63 103 83 53
is_linear=0
shrinkage=0.03


Tree=60
num_leaves=5
num_cat=0
split_feature=289 3 3 4
split_gain=0.468667 0.74407 0.162405 0.132436
threshold=1.0000000180025095e-35 137.32500000000002 81.15000000000002 0.27850000000000008
decision_type=2 8 10 8
left_child=1 -1 -2 -4
right_child=2 -3 3 -5
leaf_value=0.0073664023804902922 0.0026636232464359358 0.00088426783680915831 0.0014434399756674584 -0.0011388261544264175
leaf_weight=34 39 30 39 33
leaf_count=34 39 30 39 33
internal_value=0 0.0043279 0.00110445 0.000259901
internal_weight=0 64 111 72
internal_count=175 64 111 72
is_linear=0
shrinkage=0.03


Tree=61
num_leaves=7
num_cat=0
split_feature=4 525 3 439 4 525
split_gain=0.313161 0.551276 0.301187 0.142952 0.00590029 0.000982279
threshold=0.27850000000000008 1.0000000180025095e-35 105.28500000000001 1.0000000180025095e-35 0.17050000000000004 1.0000000180025095e-35
decision_type=8 2 10 2 10 2
left_child=1 4 3 -2 -1 -4
right_child=2 -3 5 -5 -6 -7
leaf_value=0.0013052131015468726 0.0046745765749365087 0.0070373802335130416 -0.00058845452296183158 0.0013282495043757888 0.002000015797834335 -0.00087592547340318563
leaf_weight=22 20 28 23 27 22 20
leaf_count=22 20 28 23 27 22 20
internal_value=0 0.00374669 0.00109224 0.00275222 0.00165261 -0.000722162
internal_weight=0 72 90 47 44 43
internal_count=162 72 90 47 44 43
is_linear=0
shrinkage=0.03


Tree=62
num_leaves=6
num_cat=0
split_feature=290 3 3 6 16
split_gain=0.355821 0.424213 0.415749 0.0726117 0.0659492
threshold=1.0000000180025095e-35 188.25000000000003 81.15000000000002 90.515000000000015 1.0000000180025095e-35
decision_type=2 8 10 8 2
left_child=1 2 -1 -4 -3
right_child=-2 4 3 -5 -6
leaf_value=0.003049699791635458 0.0048819004483520983 0.0046011406213045114 -0.00069014424077150501 -0.0029467455149278978 0.002289889478590339
leaf_weight=26 30 25 33 21 20
leaf_count=26 30 25 33 21 20
internal_value=0 0.0012437 -6.70528e-05 -0.00156771 0.00357392
internal_weight=0 125 80 54 45
internal_count=155 125 80 54 45
is_linear=0
shrinkage=0.03


Tree=63
num_leaves=6
num_cat=0
split_feature=289 3 439 4 3
split_gain=0.909134 0.44976 0.384224 0.467101 0.0109564
threshold=1.0000000180025095e-35 105.28500000000001 1.0000000180025095e-35 0.27850000000000008 105.28500000000001
decision_type=2 10 2 8 10
left_child=1 -1 4 -4 -2
right_child=2 -3 3 -5 -6
leaf_value=0.0082638020692393181 -0.0020136670525307239 0.0030550172851252608 0.0053851154458243395 6.5759610957824268e-05 -0.001065887115629656
leaf_weight=25 23 37 24 39 21
leaf_count=25 23 37 24 39 21
internal_value=0 0.00515533 0.000589808 0.00209218 -0.00156132
internal_weight=0 62 107 63 44
internal_count=169 62 107 63 44
is_linear=0
shrinkage=0.03


Tree=64
num_leaves=6
num_cat=0
split_feature=18 35 4 3 439
split_gain=0.508075 0.348248 0.253498 0.336055 0.159773
threshold=1.0000000180025095e-35 1.0000000180025095e-35 0.17050000000000004 81.15000000000002 1.0000000180025095e-35
decision_type=2 2 10 10 2
left_child=1 -1 3 -3 -5
right_child=-2 2 -4 4 -6
leaf_value=0.0049021427506314857 0.0062222504277120935 0.0023708096945718408 0.0028452611974595734 -0.0032445662053158645 -5.5652869594914294e-05
leaf_weight=21 22 31 36 26 31
leaf_count=21 22 31 36 26 31
internal_value=0 0.00132956 0.000724521 -0.000143055 -0.00151024
internal_weight=0 145 124 88 57
internal_count=167 145 124 88 57
is_linear=0
shrinkage=0.03


Tree=65
num_leaves=5
num_cat=0
split_feature=3 4 4 3
split_gain=0.32892 0.585835 0.182826 0.0845088
threshold=105.28500000000001 0.21800000000000003 0.12350000000000001 137.32500000000002
decision_type=8 8 10 10
left_child=2 -2 -1 -3
right_child=1 3 -4 -5
leaf_value=0.0027639147876611639 0.0053071955614723268 0.0011631265547322599 0.006140608727518055 -0.00083763579378443725
leaf_weight=31 27 38 27 38
leaf_count=31 27 38 27 38
internal_value=0 0.00151129 0.00433582 0.000162745
internal_weight=0 103 58 76
internal_count=161 103 58 76
is_linear=0
shrinkage=0.03


Tree=66
num_leaves=6
num_cat=0
split_feature=5 448 14 436 4
split_gain=0.425881 0.268106 0.229237 0.172515 0.0995579
threshold=1.0000000180025095e-35 1.0000000180025095e-35 1.0000000180025095e-35 1.0000000180025095e-35 0.27850000000000008
decision_type=10 2 2 2 8
left_child=1 -1 3 4 -3
right_child=-2 2 -4 -5 -6
leaf_value=-0.0010819373621294894 0.0053290372470823615 0.0036079008679371326 0.0047228839887040004 -0.00080666052034268014 0.0010155735309235752
leaf_weight=36 26 24 21 26 30
leaf_count=36 26 24 21 26 30
internal_value=0 0.00114098 0.00193331 0.00120105 0.00216772
internal_weight=0 137 101 80 54
internal_count=163 137 101 80 54
is_linear=0
shrinkage=0.03


Tree=67
num_leaves=6
num_cat=0
split_feature=5 3 5 3 525
split_gain=0.81714 0.352377 0.33737 0.107679 0.0652496
threshold=1.0000000180025095e-35 137.32500000000002 -28.449999999999999 188.25000000000003 1.0000000180025095e-35
decision_type=10 8 10 10 2
left_child=1 2 -1 4 -3
right_child=-2 3 -4 -5 -6
leaf_value=0.000896443439862476 0.0070270448572073985 0.0014532685900727907 0.0051280561778694394 -0.002092712918030364 -0.00080753184948116532
leaf_weight=39 26 27 30 21 20
leaf_count=39 26 27 30 21 20
internal_value=0 0.00122587 0.00273628 -0.000306755 0.000491226
internal_weight=0 137 69 68 47
internal_count=163 137 69 68 47
is_linear=0
shrinkage=0.03


Tree=68
num_leaves=7
num_cat=0
split_feature=5 14 439 3 6 6
split_gain=0.813156 0.376342 0.244059 0.316765 0.292549 0.11963
threshold=1.0000000180025095e-35 1.0000000180025095e-35 1.0000000180025095e-35 105.28500000000001 1.0000000180025095e-35 58.675000000000004
decision_type=10 2 2 8 10 10
left_child=1 2 4 -4 -1 -5
right_child=-2 -3 3 5 -6 -7
leaf_value=-0.0033706716596371617 0.0077756626052515841 0.0045781323386888421 0.005041978849098086 0.0018368355619410672 0.0012741355372306246 -0.0012243770956993103
leaf_weight=23 21 28 20 27 26 20
leaf_count=23 21 28 20 27 26 20
internal_value=0 0.0014565 0.000703006 0.0018798 -0.00090608 0.000534192
internal_weight=0 144 116 67 49 47
internal_count=165 144 116 67 49 47
is_linear=0
shrinkage=0.03


Tree=69
num_leaves=6
num_cat=0
split_feature=289 302 439 4 6
split_gain=0.425948 0.284628 0.263048 0.389577 0.00172228
threshold=1.0000000180025095e-35 1.0000000180025095e-35 1.0000000180025095e-35 0.27850000000000008 1.0000000180025095e-35
decision_type=2 2 2 8 10
left_child=1 -1 -2 -4 -5
right_child=2 -3 3 4 -6
leaf_value=0.0020604171941522509 -0.0012405780581041025 0.0063326257500797506 0.0046481966806782614 0.00019708924261587006 -0.00019190244271885605
leaf_weight=32 39 25 27 21 20
leaf_count=32 39 25 27 21 20
internal_value=0 0.00393419 0.000723548 0.00185003 7.3372e-06
internal_weight=0 57 107 68 41
internal_count=164 57 107 68 41
is_linear=0
shrinkage=0.03


Tree=70
num_leaves=6
num_cat=0
split_feature=5 14 436 448 3
split_gain=0.48662 0.386534 0.172717 0.246007 0.0804057
threshold=1.0000000180025095e-35 1.0000000180025095e-35 1.0000000180025095e-35 1.0000000180025095e-35 137.32500000000002
decision_type=10 2 2 2 8
left_child=1 2 3 -1 -5
right_child=-2 -3 -4 4 -6
leaf_value=-0.00095223845344864658 0.0061291538877412677 0.0047253118993507487 -0.0013140227728789407 0.0037988165304064752 0.0015281300464994273
leaf_weight=27 24 27 28 25 32
leaf_count=27 24 27 28 25 32
internal_value=0 0.00150324 0.000726496 0.00140667 0.00252405
internal_weight=0 139 112 84 57
internal_count=163 139 112 84 57
is_linear=0
shrinkage=0.03


Tree=71
num_leaves=7
num_cat=0
split_feature=35 6 289 6 439 7
split_gain=0.416563 0.234291 0.280602 0.0672406 0.071762 0.000327271
threshold=1.0000000180025095e-35 80.915000000000006 1.0000000180025095e-35 80.915000000000006 1.0000000180025095e-35 1.0000000180025095e-35
decision_type=2 8 2 10 2 10
left_child=-1 5 -3 4 -4 -2
right_child=1 2 3 -5 -6 -7
leaf_value=0.005456762434914708 -0.0002396399705097652 0.0044912866908399492 -0.0006292955228127539 0.0025887845030520109 0.0017427911313081328 -0.00040105805173516274
leaf_weight=28 26 34 24 20 22 20
leaf_count=28 26 34 24 20 22 20
internal_value=0 0.0014621 0.00227718 0.00113658 0.000505181 -0.000309822
internal_weight=0 146 100 66 46 46
internal_count=174 146 100 66 46 46
is_linear=0
shrinkage=0.03


Tree=72
num_leaves=6
num_cat=0
split_feature=4 525 3 5 6
split_gain=0.321569 0.80304 0.231948 0.41629 0.0779851
threshold=0.27850000000000008 1.0000000180025095e-35 137.32500000000002 -28.449999999999999 58.675000000000004
decision_type=8 2 10 10 10
left_child=1 4 3 -2 -1
right_child=2 -3 -4 -5 -6
leaf_value=-0.00031936474610120056 0.00029710776564415269 0.0071895318382303227 -0.0011256557653541676 0.0055764158740639683 0.0022066204232925714
leaf_weight=22 41 32 32 20 22
leaf_count=22 41 32 32 20 22
internal_value=0 0.00357348 0.00094289 0.00202803 0.000943628
internal_weight=0 76 93 61 44
internal_count=169 76 93 61 44
is_linear=0
shrinkage=0.03


Tree=73
num_leaves=6
num_cat=0
split_feature=6 436 448 6 525
split_gain=0.314814 0.175734 0.282273 0.197529 0.00353353
threshold=80.915000000000006 1.0000000180025095e-35 1.0000000180025095e-35 58.675000000000004 1.0000000180025095e-35
decision_type=10 2 2 10 2
left_child=1 2 -1 4 -4
right_child=-2 -3 3 -5 -6
leaf_value=-0.0017714243465713384 0.0037630825625875816 -0.001958434032941503 0.0030312666719380234 -0.00055944745490231311 0.00251647075638175
leaf_weight=29 26 28 28 23 21
leaf_count=29 26 28 28 23 21
internal_value=0 0.000144547 0.000727552 0.00173408 0.00281064
internal_weight=0 129 101 72 49
internal_count=155 129 101 72 49
is_linear=0
shrinkage=0.03


Tree=74
num_leaves=6
num_cat=0
split_feature=4 525 203 448 6
split_gain=0.597415 0.479627 0.424048 0.208491 0.18327
threshold=0.21800000000000003 1.0000000180025095e-35 1.0000000180025095e-35 1.0000000180025095e-35 90.515000000000015
decision_type=8 2 2 2 8
left_child=1 -1 -2 -4 -5
right_child=2 -3 3 4 -6
leaf_value=0.0015764889814730348 -0.0033413220522925256 0.0074506736174225806 -0.0010374452689171044 0.0042425470704050821 0.00084960540774964581
leaf_weight=29 24 22 27 23 38
leaf_count=29 24 22 27 23 38
internal_value=0 0.00411045 0.0001934 0.00115742 0.00212891
internal_weight=0 51 112 88 61
internal_count=163 51 112 88 61
is_linear=0
shrinkage=0.03


Tree=75
num_leaves=7
num_cat=0
split_feature=464 18 3 51 3 3
split_gain=0.561618 0.329788 0.154277 0.395884 0.187787 0.00817426
threshold=1.0000000180025095e-35 1.0000000180025095e-35 137.32500000000002 1.0000000180025095e-35 105.28500000000001 188.25000000000003
decision_type=2 2 10 2 8 10
left_child=1 2 3 -1 -5 -4
right_child=-2 -3 5 4 -6 -7
leaf_value=0.0046470981942755831 0.0062785880444571375 0.0044926731688901779 -0.0015783724276947654 -0.0016708191817980894 0.0016086762417107819 -0.00073092508781701321
leaf_weight=21 20 20 21 33 30 20
leaf_count=21 20 20 21 33 30 20
internal_value=0 0.000915872 0.000343584 0.00107991 -0.000109155 -0.00116498
internal_weight=0 145 125 84 63 41
internal_count=165 145 125 84 63 41
is_linear=0
shrinkage=0.03


Tree=76
num_leaves=7
num_cat=0
split_feature=18 464 525 2 448 289
split_gain=0.797053 0.53494 0.216945 0.322031 0.260245 0.000164665
threshold=1.0000000180025095e-35 1.0000000180025095e-35 1.0000000180025095e-35 1.0000000180025095e-35 1.0000000180025095e-35 1.0000000180025095e-35
decision_type=2 2 2 8 2 2
left_child=1 2 3 -1 -4 -6
right_child=-2 -3 4 -5 5 -7
leaf_value=-0.0027325629603640153 0.0072192093733465289 0.0050824215506081998 -0.0012872013384052975 0.0014868372833977143 0.0027874113328289238 0.0026697112984307432
leaf_weight=41 20 23 22 27 20 23
leaf_count=41 20 23 22 27 20 23
internal_value=0 0.000857938 0.000127389 -0.00105721 0.00136666 0.00272446
internal_weight=0 156 133 68 65 43
internal_count=176 156 133 68 65 43
is_linear=0
shrinkage=0.03


Tree=77
num_leaves=6
num_cat=0
split_feature=289 3 6 16 6
split_gain=0.268461 0.612056 0.307882 0.0832192 0.028807
threshold=1.0000000180025095e-35 137.32500000000002 1.0000000180025095e-35 1.0000000180025095e-35 80.915000000000006
decision_type=2 8 10 2 10
left_child=1 -1 3 -2 -4
right_child=2 -3 4 -5 -6
leaf_value=0.0062282765659037974 -0.0020465890814860663 2.2400982884897126e-06 0.0017889620542751047 0.00033135974815545174 0.0032479336871100322
leaf_weight=30 27 27 29 26 21
leaf_count=30 27 27 29 26 21
internal_value=0 0.0032791 0.000713048 -0.000880048 0.00240173
internal_weight=0 57 103 53 50
internal_count=160 57 103 53 50
is_linear=0
shrinkage=0.03


Tree=78
num_leaves=5
num_cat=0
split_feature=35 16 439 439
split_gain=0.486177 0.268047 0.318434 0.240335
threshold=1.0000000180025095e-35 1.0000000180025095e-35 1.0000000180025095e-35 1.0000000180025095e-35
decision_type=2 2 2 2
left_child=-1 3 -3 -2
right_child=1 2 -4 -5
leaf_value=0.0049745284533128141 0.004501803394153037 -0.002623104829782326 0.0012356957108176385 0.00054227272961036984
leaf_weight=26 22 38 39 37
leaf_count=26 22 38 39 37
internal_value=0 0.000497191 -0.000668647 0.00201871
internal_weight=0 136 77 59
internal_count=162 136 77 59
is_linear=0
shrinkage=0.03


Tree=79
num_leaves=6
num_cat=0
split_feature=5 464 290 14 4
split_gain=0.435859 0.277073 0.141913 0.110014 0.0795755
threshold=1.0000000180025095e-35 1.0000000180025095e-35 1.0000000180025095e-35 1.0000000180025095e-35 0.12350000000000001
decision_type=10 2 2 2 10
left_child=1 2 3 4 -1
right_child=-2 -3 -4 -5 -6
leaf_value=0.00081542314818272229 0.0046356280380859963 0.0038822523280978198 -0.0022414751797914501 0.0022929992852732538 -0.0012596529969094513
leaf_weight=39 30 20 20 24 29
leaf_count=39 30 20 20 24 29
internal_value=0 0.00062969 4.88754e-05 0.000546778 -6.95358e-05
internal_weight=0 132 112 92 68
internal_count=162 132 112 92 68
is_linear=0
shrinkage=0.03


Tree=80
num_leaves=6
num_cat=0
split_feature=289 3 3 6 5
split_gain=0.449175 0.472712 0.165508 0.0815414 0.284456
threshold=1.0000000180025095e-35 137.32500000000002 188.25000000000003 58.675000000000004 -1.0000000180025095e-35
decision_type=2 10 8 10 8
left_child=1 -1 3 4 -2
right_child=2 -3 -4 -5 -6
leaf_value=0.0059184245583310258 0.0024655372069941625 3.9050079882144926e-05 0.0020624048989266153 -0.0013987258373079105 -0.0022548825982958076
leaf_weight=32 27 20 35 39 20
leaf_count=32 27 20 35 39 20
internal_value=0 0.00365713 0.000323188 -0.000384633 0.000456848
internal_weight=0 52 121 86 47
internal_count=173 52 121 86 47
is_linear=0
shrinkage=0.03


Tree=81
num_leaves=6
num_cat=0
split_feature=3 290 439 4 5
split_gain=0.342766 0.490492 0.359603 0.292739 0.156137
threshold=137.32500000000002 1.0000000180025095e-35 1.0000000180025095e-35 1.0000000180025095e-35 16.700000000000003
decision_type=10 2 2 10 8
left_child=1 2 -1 -2 -4
right_child=3 -3 4 -5 -6
leaf_value=-0.00091003447983946113 -0.003062708516960771 0.006424291575835509 0.0015331899933153181 0.001469400435754355 0.0051222389414906505
leaf_weight=35 23 22 24 29 20
leaf_count=35 23 22 24 29 20
internal_value=0 0.00246262 0.00135937 -0.000535186 0.00316458
internal_weight=0 101 79 52 44
internal_count=153 101 79 52 44
is_linear=0
shrinkage=0.03


Tree=82
num_leaves=6
num_cat=0
split_feature=5 7 51 2 3
split_gain=0.647319 0.162263 0.265382 0.174678 0.0483764
threshold=1.0000000180025095e-35 16.405000000000005 1.0000000180025095e-35 1.0000000180025095e-35 105.28500000000001
decision_type=10 8 2 8 10
left_child=1 -1 -3 4 -4
right_child=-2 2 3 -5 -6
leaf_value=-0.0017664619570132345 0.0052041763253509992 0.0034222264381368523 0.0019507830914074513 -0.0017704533576663282 0.00012204492720775307
leaf_weight=36 25 23 23 37 30
leaf_count=36 25 23 23 37 30
internal_value=0 -1.24754e-05 0.000546317 -0.000188638 0.000915648
internal_weight=0 149 113 90 53
internal_count=174 149 113 90 53
is_linear=0
shrinkage=0.03


Tree=83
num_leaves=6
num_cat=0
split_feature=5 4 3 6 3
split_gain=0.463006 0.274859 0.236119 0.315579 0.201189
threshold=1.0000000180025095e-35 0.17050000000000004 81.15000000000002 80.915000000000006 137.32500000000002
decision_type=10 10 10 8 10
left_child=1 2 -1 -4 -3
right_child=-2 4 3 -5 -6
leaf_value=0.0015476566122036757 0.0046381777421467835 0.0044748170673847201 0.00083497903229476042 -0.0033205086176626773 0.00027054546307772397
leaf_weight=34 27 21 29 38 20
leaf_count=34 27 21 29 38 20
internal_value=0 0.000352376 -0.000488561 -0.00152186 0.00242395
internal_weight=0 142 101 67 41
internal_count=169 142 101 67 41
is_linear=0
shrinkage=0.03


Tree=84
num_leaves=6
num_cat=0
split_feature=5 6 6 2 3
split_gain=0.47428 0.329906 0.112214 0.133463 0.0564887
threshold=-12.475 58.675000000000004 58.675000000000004 1.0000000180025095e-35 188.25000000000003
decision_type=10 10 10 8 8
left_child=2 -2 4 -4 -1
right_child=1 -3 3 -5 -6
leaf_value=-0.00024967727717012167 0.00091266820565439179 0.0057393089309334755 -0.0030578909441828727 0.00032821234292350706 0.0015294555828260289
leaf_weight=36 26 25 22 20 29
leaf_count=36 26 25 22 20 29
internal_value=0 0.00327867 -0.000236855 -0.00144546 0.00054409
internal_weight=0 51 107 42 65
internal_count=158 51 107 42 65
is_linear=0
shrinkage=0.03


Tree=85
num_leaves=7
num_cat=0
split_feature=304 289 3 2 436 5
split_gain=0.925966 1.02932 0.634632 0.28057 0.380895 0.359906
threshold=1.0000000180025095e-35 1.0000000180025095e-35 137.32500000000002 inf 1.0000000180025095e-35 16.700000000000003
decision_type=2 2 8 8 2 8
left_child=1 2 -1 4 5 -3
right_child=-2 3 -4 -5 -6 -7
leaf_value=0.0090791432494702548 -0.005074405673425644 0.000551477591523445 0.0020316703455603639 -0.0019125020799126374 -0.0018366275215521454 0.0056399880620566275
leaf_weight=23 20 29 23 37 24 22
leaf_count=23 20 29 23 37 24 22
internal_value=0 0.00177709 0.00555541 0.000225276 0.00127991 0.00274652
internal_weight=0 158 46 112 75 51
internal_count=178 158 46 112 75 51
is_linear=0
shrinkage=0.03


Tree=86
num_leaves=6
num_cat=0
split_feature=4 35 7 3 439
split_gain=0.593649 0.382659 0.285206 0.0728741 0.000309554
threshold=0.21800000000000003 1.0000000180025095e-35 16.405000000000005 105.28500000000001 1.0000000180025095e-35
decision_type=8 2 8 10 2
left_child=4 -2 -3 -4 -1
right_child=1 2 3 -5 -6
leaf_value=0.0035270277517182487 0.0031053520704153923 -0.0043175104684196408 0.00058576346619520331 -0.0013349783923695213 0.003677205060608685
leaf_weight=21 24 20 40 32 30
leaf_count=21 24 20 40 32 30
internal_value=0 -0.000268194 -0.00114825 -0.0002679 0.00361537
internal_weight=0 116 92 72 51
internal_count=167 116 92 72 51
is_linear=0
shrinkage=0.03


Tree=87
num_leaves=7
num_cat=0
split_feature=5 4 3 7 2 439
split_gain=0.392405 0.376375 0.215199 0.121598 0.0629167 0.0254394
threshold=-12.475 0.21800000000000003 81.15000000000002 1.0000000180025095e-35 1.0000000180025095e-35 1.0000000180025095e-35
decision_type=10 8 10 10 8 2
left_child=2 -2 5 4 -4 -1
right_child=1 -3 3 -5 -6 -7
leaf_value=0.00045511520334652492 0.0056311211432330307 0.00083234932579982432 0.00066902324234516437 -0.0031994195951318199 -0.0015750402623139646 0.0018364020104386976
leaf_weight=21 24 38 22 22 23 28
leaf_count=21 24 38 22 22 23 28
internal_value=0 0.00268994 -0.000266534 -0.00137156 -0.000477943 0.00124442
internal_weight=0 62 116 67 45 49
internal_count=178 62 116 67 45 49
is_linear=0
shrinkage=0.03


Tree=88
num_leaves=6
num_cat=0
split_feature=290 5 1 5 525
split_gain=0.489361 0.172591 0.149273 0.0580947 0.0196254
threshold=1.0000000180025095e-35 16.700000000000003 inf -12.475 1.0000000180025095e-35
decision_type=2 8 8 10 2
left_child=1 2 -1 -4 -3
right_child=-2 4 3 -5 -6
leaf_value=0.0016188622402260079 0.0042421461111651019 0.0011595094345253089 -0.00052148772411913212 -0.002556333825316118 0.0023192573763662948
leaf_weight=20 39 29 28 23 24
leaf_count=20 39 29 28 23 24
internal_value=0 0.000389257 -0.000577748 -0.00143916 0.00168468
internal_weight=0 124 71 51 53
internal_count=163 124 71 51 53
is_linear=0
shrinkage=0.03


Tree=89
num_leaves=7
num_cat=0
split_feature=5 3 16 4 5 16
split_gain=0.366648 0.19365 0.142286 0.128421 0.0651051 0.0377813
threshold=-12.475 81.15000000000002 1.0000000180025095e-35 0.21800000000000003 -28.449999999999999 1.0000000180025095e-35
decision_type=10 10 2 8 10 2
left_child=1 2 -1 -2 5 -3
right_child=3 4 -4 -5 -6 -7
leaf_value=0.003495067194428133 0.0049071818344295021 -0.0022246346792773059 0.00033539749007543615 0.0019731388774154512 0.00055782154551707206 -0.00046463617855416873
leaf_weight=23 25 23 29 29 24 21
leaf_count=23 25 23 29 29 24 21
internal_value=0 0.000354807 0.00173294 0.00333149 -0.000699062 -0.00138464
internal_weight=0 120 52 54 68 44
internal_count=174 120 52 54 68 44
is_linear=0
shrinkage=0.03


Tree=90
num_leaves=6
num_cat=0
split_feature=5 290 3 1 2
split_gain=0.362881 0.553603 0.145371 0.0952327 0.0514908
threshold=-28.449999999999999 1.0000000180025095e-35 105.28500000000001 21.500000000000004 1.0000000180025095e-35
decision_type=10 2 10 8 8
left_child=3 2 -2 -1 -5
right_child=1 -3 -4 4 -6
leaf_value=-0.0017239587545590175 0.0026308082956820722 0.0059858226740302943 -0.00062959406172012676 -0.0004082662984728813 0.0013640023760497569
leaf_weight=31 20 26 32 36 25
leaf_count=31 20 26 32 36 25
internal_value=0 0.00241155 0.000624407 -0.000370003 0.000318073
internal_weight=0 78 52 92 61
internal_count=170 78 52 92 61
is_linear=0
shrinkage=0.03


Tree=91
num_leaves=6
num_cat=0
split_feature=289 3 2 436 448
split_gain=0.465406 0.611075 0.2937 0.2575 0.0923575
threshold=1.0000000180025095e-35 137.32500000000002 inf 1.0000000180025095e-35 1.0000000180025095e-35
decision_type=2 10 8 2 2
left_child=1 -1 3 4 -2
right_child=2 -3 -4 -5 -6
leaf_value=0.0061464914999197458 0.0012469609710387885 -0.00036214554437901823 -0.0016550517395119862 -0.0012435672562569379 0.0038409741412033325
leaf_weight=37 21 20 37 20 30
leaf_count=37 21 20 37 20 30
internal_value=0 0.00386276 0.000512103 0.00164147 0.00277285
internal_weight=0 57 108 71 51
internal_count=165 57 108 71 51
is_linear=0
shrinkage=0.03


Tree=92
num_leaves=5
num_cat=0
split_feature=448 5 1 2
split_gain=0.235947 0.2059 0.32066 0.0353801
threshold=1.0000000180025095e-35 -12.475 inf 1.0000000180025095e-35
decision_type=2 10 8 8
left_child=-1 2 -2 -4
right_child=1 -3 3 -5
leaf_value=-0.0010219417855987557 -0.0020417173705995083 0.0034647944639436901 0.0012817554169430815 0.0027636485110069139
leaf_weight=40 25 38 29 29
leaf_count=40 25 38 29 29
internal_value=0 0.00163583 0.000798479 0.0020227
internal_weight=0 121 83 58
internal_count=161 121 83 58
is_linear=0
shrinkage=0.03


Tree=93
num_leaves=6
num_cat=0
split_feature=289 16 6 5 3
split_gain=0.304209 0.427964 0.295705 0.21337 0.286408
threshold=1.0000000180025095e-35 1.0000000180025095e-35 90.515000000000015 -12.475 188.25000000000003
decision_type=2 2 8 8 8
left_child=1 -1 -2 -4 -5
right_child=2 -3 3 4 -6
leaf_value=0.0062184147440129895 0.0020117769594519184 0.00074507345755894967 0.0011765138751694132 -0.004795834079091235 0.00011289819376543164
leaf_weight=20 39 36 21 23 20
leaf_count=20 39 36 21 23 20
internal_value=0 0.00269984 -4.73799e-05 -0.00130218 -0.0025127
internal_weight=0 56 103 64 43
internal_count=159 56 103 64 43
is_linear=0
shrinkage=0.03


Tree=94
num_leaves=6
num_cat=0
split_feature=5 289 0 7 5
split_gain=0.552682 0.214139 0.188046 0.113299 0.0507144
threshold=-12.475 1.0000000180025095e-35 1.0000000180025095e-35 1.0000000180025095e-35 -12.475
decision_type=10 2 10 10 8
left_child=2 -2 3 4 -1
right_child=1 -3 -4 -5 -6
leaf_value=0.0011687621026067062 0.0061133831729966908 0.0021836609740813191 0.0026463472961040678 -0.0020586543146520852 -0.00050738321617245681
leaf_weight=32 24 26 24 25 33
leaf_count=32 24 26 24 25 33
internal_value=0 0.00406993 0.000286866 -0.000342329 0.000317796
internal_weight=0 50 114 90 65
internal_count=164 50 114 90 65
is_linear=0
shrinkage=0.03


Tree=95
num_leaves=6
num_cat=0
split_feature=3 5 386 6 16
split_gain=0.442955 0.244784 0.132251 0.11412 0.0409916
threshold=81.15000000000002 1.0000000180025095e-35 1.0000000180025095e-35 58.675000000000004 1.0000000180025095e-35
decision_type=8 10 2 10 2
left_child=-1 2 -2 4 -4
right_child=1 -3 3 -5 -6
leaf_value=0.0040242141468583474 -0.0029216545745730403 0.002572001362591982 -0.00022403026465326546 -0.0014968795261934007 0.0014164245088889808
leaf_weight=28 20 25 26 38 29
leaf_count=28 20 25 26 38 29
internal_value=0 -0.000114224 -0.000708522 -0.00023258 0.000640937
internal_weight=0 138 113 93 55
internal_count=166 138 113 93 55
is_linear=0
shrinkage=0.03


Tree=96
num_leaves=6
num_cat=0
split_feature=35 6 439 289 5
split_gain=0.481057 0.32218 0.18756 0.104618 0.0515314
threshold=1.0000000180025095e-35 80.915000000000006 1.0000000180025095e-35 1.0000000180025095e-35 -1.0000000180025095e-35
decision_type=2 10 2 2 8
left_child=-1 2 3 -2 -4
right_child=1 -3 4 -5 -6
leaf_value=0.0039319837764547816 -0.00063182966517550602 0.0029227695958283931 0.00086434536865232761 -0.0033568939323595256 -0.00089877552408725015
leaf_weight=29 21 23 37 32 25
leaf_count=29 21 23 37 32 25
internal_value=0 -0.000318507 -0.000966762 -0.00227715 0.00015341
internal_weight=0 138 115 53 62
internal_count=167 138 115 53 62
is_linear=0
shrinkage=0.03


Tree=97
num_leaves=6
num_cat=0
split_feature=7 5 51 439 5
split_gain=0.611356 0.188513 0.190171 0.337397 0.0364426
threshold=4.1750000000000007 inf 1.0000000180025095e-35 1.0000000180025095e-35 -12.475
decision_type=8 8 2 2 10
left_child=-1 2 -2 -4 -5
right_child=1 -3 3 4 -6
leaf_value=-0.0046925232085314661 0.0038910445350814945 -0.00096758100802877124 -0.0022887647054765535 0.0014013528190035785 0.0030676597950514404
leaf_weight=22 22 42 23 27 21
leaf_count=22 22 42 23 27 21
internal_value=0 0.000700595 0.00145397 0.000698814 0.00213036
internal_weight=0 135 93 71 48
internal_count=157 135 93 71 48
is_linear=0
shrinkage=0.03


Tree=98
num_leaves=6
num_cat=0
split_feature=5 3 4 4 2
split_gain=0.243914 0.193817 0.181202 0.0968037 0.0678053
threshold=-28.449999999999999 105.28500000000001 0.27850000000000008 0.12350000000000001 1.0000000180025095e-35
decision_type=10 10 8 10 8
left_child=2 -2 -1 -3 -4
right_child=1 3 4 -5 -6
leaf_value=0.0014487104036885758 0.0031673566500345866 0.0015223030311664423 -0.00083628310137154414 -0.0011495629094703042 -0.0029189604544080793
leaf_weight=23 36 26 34 23 24
leaf_count=23 36 26 34 23 24
internal_value=0 0.00149606 -0.000804547 0.000268162 -0.00169808
internal_weight=0 85 81 49 58
internal_count=166 85 81 49 58
is_linear=0
shrinkage=0.03


Tree=99
num_leaves=6
num_cat=0
split_feature=464 18 7 6 2
split_gain=0.365408 0.415373 0.172376 0.191459 0.0874885
threshold=1.0000000180025095e-35 1.0000000180025095e-35 4.1750000000000007 58.675000000000004 1.0000000180025095e-35
decision_type=2 2 8 10 8
left_child=1 2 -1 4 -4
right_child=-2 -3 3 -5 -6
leaf_value=-0.0033967167245490208 0.0037044085074216127 0.0036475452833942003 -0.00033326627588585797 -0.0022472505843192758 0.0019518343772739173
leaf_weight=21 25 21 38 33 25
leaf_count=21 25 21 38 33 25
internal_value=0 -0.000237392 -0.000934689 -0.00039612 0.00057352
internal_weight=0 138 117 96 63
internal_count=163 138 117 96 63
is_linear=0
shrinkage=0.03


Tree=100
num_leaves=7
num_cat=0
split_feature=53 439 3 3 5 6
split_gain=0.280045 0.188207 0.221379 0.145327 0.24405 0.0225067
threshold=1.0000000180025095e-35 1.0000000180025095e-35 137.32500000000002 105.28500000000001 16.700000000000003 58.675000000000004
decision_type=2 2 8 8 8 10
left_child=1 2 -1 -3 5 -5
right_child=-2 3 -4 4 -6 -7
leaf_value=-0.0025959993898868557 0.0043162460401654241 0.0033308206770569083 0.0010798317602642908 -0.00012823817637664349 0.0027878251752077505 -0.0015187537557212636
leaf_weight=30 20 25 29 22 29 20
leaf_count=30 20 25 29 22 29 20
internal_value=0 0.000544234 -0.000789235 0.00136376 0.000671135 -0.000790388
internal_weight=0 155 59 96 71 42
internal_count=175 155 59 96 71 42
is_linear=0
shrinkage=0.03


Tree=101
num_leaves=7
num_cat=0
split_feature=3 464 525 6 439 6
split_gain=0.443046 0.154413 0.202336 0.107973 0.101581 0.000120309
threshold=81.15000000000002 1.0000000180025095e-35 1.0000000180025095e-35 58.675000000000004 1.0000000180025095e-35 1.0000000180025095e-35
decision_type=10 2 2 10 2 10
left_child=4 2 5 -4 -1 -2
right_child=1 -3 3 -5 -6 -7
leaf_value=0.0014492809637026353 -0.0029157448697369544 0.0015516414599759238 -0.0013680756376759911 0.0016393304298565324 0.0043663104375549922 -0.0028116881735622879
leaf_weight=22 20 21 22 21 21 20
leaf_count=22 20 21 22 21 21 20
internal_value=0 -0.000746499 -0.00132796 0.000100658 0.00287388 -0.00286372
internal_weight=0 104 83 43 43 40
internal_count=147 104 83 43 43 40
is_linear=0
shrinkage=0.03


Tree=102
num_leaves=6
num_cat=0
split_feature=3 302 5 439 525
split_gain=0.346416 0.135751 0.0903524 0.0455151 0.0082413
threshold=81.15000000000002 1.0000000180025095e-35 16.700000000000003 1.0000000180025095e-35 1.0000000180025095e-35
decision_type=8 2 8 2 2
left_child=-1 -2 3 -3 -4
right_child=1 2 4 -5 -6
leaf_value=0.0036111399903893471 -0.0015229000499675748 0.0011653307494707405 0.0013609745353460312 -0.00056695784520639412 0.0021918433558728015
leaf_weight=33 32 20 22 43 21
leaf_count=33 32 20 22 43 21
internal_value=0 0.0001896 0.000706581 -1.7025e-05 0.00176675
internal_weight=0 138 106 63 43
internal_count=171 138 106 63 43
is_linear=0
shrinkage=0.03


Tree=103
num_leaves=7
num_cat=0
split_feature=5 3 7 5 6 16
split_gain=0.297826 0.361816 0.137001 0.131577 0.137841 0.0528172
threshold=1.0000000180025095e-35 81.15000000000002 0.059900000000000002 -1.0000000180025095e-35 58.675000000000004 1.0000000180025095e-35
decision_type=10 10 10 8 10 2
left_child=1 5 3 4 -3 -1
right_child=-2 2 -4 -5 -6 -7
leaf_value=0.0038043856392614541 0.0037901662372880514 -0.00047641026374714617 -0.0024807635207588856 -0.0019961637391575746 0.0025116178279859015 0.0016964157844093911
leaf_weight=20 27 33 26 21 24 23
leaf_count=20 27 33 26 21 24 23
internal_value=0 0.000362199 -0.000594827 3.38186e-05 0.000781707 0.00267687
internal_weight=0 147 104 78 57 43
internal_count=174 147 104 78 57 43
is_linear=0
shrinkage=0.03


Tree=104
num_leaves=6
num_cat=0
split_feature=290 5 5 3 5
split_gain=0.32065 0.222785 0.0620545 0.0511829 0.00445165
threshold=1.0000000180025095e-35 16.700000000000003 -12.475 1.0000000180025095e-35 -28.449999999999999
decision_type=2 8 10 10 10
left_child=1 2 4 -3 -1
right_child=-2 3 -4 -5 -6
leaf_value=8.5343367315363129e-05 0.0035665582792059848 0.00045732411090284583 -0.0019429939197143538 0.0023806352024389938 -0.0005151424776704516
leaf_weight=25 31 20 30 33 20
leaf_count=25 31 20 30 33 20
internal_value=0 0.000166003 -0.000886121 0.00165486 -0.000181539
internal_weight=0 128 75 53 45
internal_count=159 128 75 53 45
is_linear=0
shrinkage=0.03


Tree=105
num_leaves=6
num_cat=0
split_feature=5 3 5 203 448
split_gain=0.548916 0.347395 0.209134 0.138645 0.025198
threshold=1.0000000180025095e-35 105.28500000000001 -1.0000000180025095e-35 1.0000000180025095e-35 1.0000000180025095e-35
decision_type=10 10 8 2 2
left_child=1 2 -1 -3 -5
right_child=-2 3 -4 4 -6
leaf_value=0.0035445693109725268 0.0053435983828135896 -0.0030485430121421813 0.00018302561792855461 -0.0011785264802165328 0.00017096631453817032
leaf_weight=31 21 25 36 20 33
leaf_count=31 21 25 36 20 33
internal_value=0 0.000153989 0.00173837 -0.00120695 -0.000338276
internal_weight=0 145 67 78 53
internal_count=166 145 67 78 53
is_linear=0
shrinkage=0.03


Tree=106
num_leaves=6
num_cat=0
split_feature=289 2 525 439 439
split_gain=0.308113 0.28433 0.323937 0.249819 0.100008
threshold=1.0000000180025095e-35 1.0000000180025095e-35 1.0000000180025095e-35 1.0000000180025095e-35 1.0000000180025095e-35
decision_type=2 8 2 2 2
left_child=3 2 -2 -1 -3
right_child=1 4 -4 -5 -6
leaf_value=0.005025239362466064 -0.00091203007865452059 -0.00060229520208667962 0.0031508296825499696 0.00098834488326935365 -0.0035334352653642949
leaf_weight=22 38 20 33 37 22
leaf_count=22 38 20 33 37 22
internal_value=0 -0.000181073 0.000976341 0.00249363 -0.00213765
internal_weight=0 113 71 59 42
internal_count=172 113 71 59 42
is_linear=0
shrinkage=0.03


Tree=107
num_leaves=6
num_cat=0
split_feature=464 5 3 5 2
split_gain=0.211013 0.189852 0.227922 0.136198 0.0313014
threshold=1.0000000180025095e-35 1.0000000180025095e-35 81.15000000000002 -28.449999999999999 1.0000000180025095e-35
decision_type=2 10 10 10 8
left_child=1 2 4 -4 -1
right_child=-2 -3 3 -5 -6
leaf_value=-7.7127532660961151e-05 0.0025308335950830949 0.0020513016785579648 -0.00078575656342153662 -0.0033795952662559491 0.0014744391076436097
leaf_weight=25 24 22 38 35 22
leaf_count=25 24 22 38 35 22
internal_value=0 -0.000510609 -0.000980293 -0.00202938 0.000649138
internal_weight=0 142 120 73 47
internal_count=166 142 120 73 47
is_linear=0
shrinkage=0.03


Tree=108
num_leaves=6
num_cat=0
split_feature=5 5 3 1 16
split_gain=0.40313 0.13943 0.251559 0.175544 0.111299
threshold=1.0000000180025095e-35 -28.449999999999999 137.32500000000002 21.500000000000004 1.0000000180025095e-35
decision_type=10 10 10 8 2
left_child=1 3 -3 -1 -5
right_child=-2 2 -4 4 -6
leaf_value=-0.0032613980761729178 0.0036545559970868956 0.0025553631307857652 -0.0015855226133261685 0.0014824585776243892 -0.0013651623618789017
leaf_weight=25 27 31 23 21 30
leaf_count=25 27 31 23 21 30
internal_value=0 -0.000373915 0.000791653 -0.00120208 -0.000192613
internal_weight=0 130 54 76 51
internal_count=157 130 54 76 51
is_linear=0
shrinkage=0.03


Tree=109
num_leaves=5
num_cat=0
split_feature=4 525 525 3
split_gain=0.259441 0.558059 0.257821 0.129928
threshold=0.27850000000000008 1.0000000180025095e-35 1.0000000180025095e-35 105.28500000000001
decision_type=8 2 2 10
left_child=1 -1 3 -2
right_child=2 -3 -4 -5
leaf_value=-0.00024964621045148454 0.0026923068367048272 0.0051605110893433448 -0.0018997070271455283 -0.00049794217874296002
leaf_weight=37 27 32 42 20
leaf_count=37 27 32 42 20
internal_value=0 0.00225941 -0.000191621 0.00133475
internal_weight=0 69 89 47
internal_count=158 69 89 47
is_linear=0
shrinkage=0.03


Tree=110
num_leaves=6
num_cat=0
split_feature=3 4 525 2 5
split_gain=0.281514 0.167962 0.437344 0.202312 0.144053
threshold=81.15000000000002 0.27850000000000008 1.0000000180025095e-35 1.0000000180025095e-35 -1.0000000180025095e-35
decision_type=8 8 2 8 8
left_child=-1 2 -2 4 -3
right_child=1 3 -4 -5 -6
leaf_value=0.0029313130190389025 -0.0013394113653339445 -0.0022913677848991937 0.0041987191346873134 -0.0037956594218584625 0.0010181653840017728
leaf_weight=27 33 20 21 22 29
leaf_count=27 33 20 21 22 29
internal_value=0 -0.00044666 0.000814306 -0.00140571 -0.000332664
internal_weight=0 125 54 71 49
internal_count=152 125 54 71 49
is_linear=0
shrinkage=0.03


Tree=111
num_leaves=6
num_cat=0
split_feature=448 3 386 3 5
split_gain=0.231415 0.443264 0.146878 0.132627 0.095134
threshold=1.0000000180025095e-35 81.15000000000002 1.0000000180025095e-35 137.32500000000002 -28.449999999999999
decision_type=2 8 2 8 10
left_child=3 -2 -3 -1 -4
right_child=1 2 4 -5 -6
leaf_value=-0.0025131199459164318 0.005507333052598617 0.0027573597326409067 0.0012131210192737559 0.00065177318435207074 -0.0010847487971734474
leaf_weight=22 22 24 31 26 34
leaf_count=22 22 24 31 26 34
internal_value=0 0.00169426 0.000751707 -0.000798803 1.11583e-05
internal_weight=0 111 89 48 65
internal_count=159 111 89 48 65
is_linear=0
shrinkage=0.03


end of trees

feature_importances:
feature5=100
feature3=84
feature4=63
feature6=46
feature289=40
feature439=37
feature16=23
feature448=22
feature525=22
feature2=21
feature290=20
feature1=15
feature464=14
feature7=10
feature35=10
feature436=9
feature18=8
feature14=5
feature386=5
feature0=3
feature51=3
feature203=3
feature302=2
feature53=1
feature304=1

parameters:
[boosting: gbdt]
[objective: regression]
[metric: rmse]
[tree_learner: serial]
[device_type: cpu]
[data: ]
[valid: ]
[num_iterations: 2000]
[learning_rate: 0.03]
[num_leaves: 12]
[num_threads: 12]
[deterministic: 0]
[force_col_wise: 0]
[force_row_wise: 0]
[histogram_pool_size: -1]
[max_depth: 5]
[min_data_in_leaf: 20]
[min_sum_hessian_in_leaf: 0.001]
[bagging_fraction: 0.7]
[pos_bagging_fraction: 1]
[neg_bagging_fraction: 1]
[bagging_freq: 1]
[bagging_seed: 400]
[feature_fraction: 0.7]
[feature_fraction_bynode: 1]
[feature_fraction_seed: 30056]
[extra_trees: 0]
[extra_seed: 12879]
[early_stopping_round: 300]
[first_metric_only: 0]
[max_delta_step: 0]
[lambda_l1: 0]
[lambda_l2: 0]
[linear_lambda: 0]
[min_gain_to_split: 0]
[drop_rate: 0.1]
[max_drop: 50]
[skip_drop: 0.5]
[xgboost_dart_mode: 0]
[uniform_drop: 0]
[drop_seed: 17869]
[top_rate: 0.2]
[other_rate: 0.1]
[min_data_per_group: 100]
[max_cat_threshold: 32]
[cat_l2: 10]
[cat_smooth: 10]
[max_cat_to_onehot: 4]
[top_k: 20]
[monotone_constraints: ]
[monotone_constraints_method: basic]
[monotone_penalty: 0]
[feature_contri: ]
[forcedsplits_filename: ]
[refit_decay_rate: 0.9]
[cegb_tradeoff: 1]
[cegb_penalty_split: 0]
[cegb_penalty_feature_lazy: ]
[cegb_penalty_feature_coupled: ]
[path_smooth: 0]
[interaction_constraints: ]
[verbosity: -1]
[saved_feature_importance_type: 0]
[linear_tree: 0]
[max_bin: 7]
[max_bin_by_feature: ]
[min_data_in_bin: 3]
[bin_construct_sample_cnt: 200000]
[data_random_seed: 175]
[is_enable_sparse: 1]
[enable_bundle: 1]
[use_missing: 1]
[zero_as_missing: 0]
[feature_pre_filter: 1]
[pre_partition: 0]
[two_round: 0]
[header: 0]
[label_column: ]
[weight_column: ]
[group_column: ]
[ignore_column: ]
[categorical_feature: ]
[forcedbins_filename: ]
[precise_float_parser: 0]
[objective_seed: 16083]
[num_class: 1]
[is_unbalance: 0]
[scale_pos_weight: 1]
[sigmoid: 1]
[boost_from_average: 0]
[reg_sqrt: 0]
[alpha: 0.9]
[fair_c: 1]
[poisson_max_delta_step: 0.7]
[tweedie_variance_power: 1.5]
[lambdarank_truncation_level: 30]
[lambdarank_norm: 1]
[label_gain: ]
[eval_at: ]
[multi_error_top_k: 1]
[auc_mu_weights: ]
[num_machines: 1]
[local_listen_port: 12400]
[time_out: 120]
[machine_list_filename: ]
[machines: ]
[gpu_platform_id: -1]
[gpu_device_id: -1]
[gpu_use_dp: 0]
[num_gpu: 1]

end of parameters

pandas_categorical:[]
