tree
version=v3
num_class=1
num_tree_per_iteration=1
label_index=0
max_feature_idx=525
objective=regression
feature_names=feature0 feature1 feature2 feature3 feature4 feature5 feature6 feature7 feature8 feature9 feature10 feature11 feature12 feature13 feature14 feature15 feature16 feature17 feature18 feature19 feature20 feature21 feature22 feature23 feature24 feature25 feature26 feature27 feature28 feature29 feature30 feature31 feature32 feature33 feature34 feature35 feature36 feature37 feature38 feature39 feature40 feature41 feature42 feature43 feature44 feature45 feature46 feature47 feature48 feature49 feature50 feature51 feature52 feature53 feature54 feature55 feature56 feature57 feature58 feature59 feature60 feature61 feature62 feature63 feature64 feature65 feature66 feature67 feature68 feature69 feature70 feature71 feature72 feature73 feature74 feature75 feature76 feature77 feature78 feature79 feature80 feature81 feature82 feature83 feature84 feature85 feature86 feature87 feature88 feature89 feature90 feature91 feature92 feature93 feature94 feature95 feature96 feature97 feature98 feature99 feature100 feature101 feature102 feature103 feature104 feature105 feature106 feature107 feature108 feature109 feature110 feature111 feature112 feature113 feature114 feature115 feature116 feature117 feature118 feature119 feature120 feature121 feature122 feature123 feature124 feature125 feature126 feature127 feature128 feature129 feature130 feature131 feature132 feature133 feature134 feature135 feature136 feature137 feature138 feature139 feature140 feature141 feature142 feature143 feature144 feature145 feature146 feature147 feature148 feature149 feature150 feature151 feature152 feature153 feature154 feature155 feature156 feature157 feature158 feature159 feature160 feature161 feature162 feature163 feature164 feature165 feature166 feature167 feature168 feature169 feature170 feature171 feature172 feature173 feature174 feature175 feature176 feature177 feature178 feature179 feature180 feature181 feature182 feature183 feature184 feature185 feature186 feature187 feature188 feature189 feature190 feature191 feature192 feature193 feature194 feature195 feature196 feature197 feature198 feature199 feature200 feature201 feature202 feature203 feature204 feature205 feature206 feature207 feature208 feature209 feature210 feature211 feature212 feature213 feature214 feature215 feature216 feature217 feature218 feature219 feature220 feature221 feature222 feature223 feature224 feature225 feature226 feature227 feature228 feature229 feature230 feature231 feature232 feature233 feature234 feature235 feature236 feature237 feature238 feature239 feature240 feature241 feature242 feature243 feature244 feature245 feature246 feature247 feature248 feature249 feature250 feature251 feature252 feature253 feature254 feature255 feature256 feature257 feature258 feature259 feature260 feature261 feature262 feature263 feature264 feature265 feature266 feature267 feature268 feature269 feature270 feature271 feature272 feature273 feature274 feature275 feature276 feature277 feature278 feature279 feature280 feature281 feature282 feature283 feature284 feature285 feature286 feature287 feature288 feature289 feature290 feature291 feature292 feature293 feature294 feature295 feature296 feature297 feature298 feature299 feature300 feature301 feature302 feature303 feature304 feature305 feature306 feature307 feature308 feature309 feature310 feature311 feature312 feature313 feature314 feature315 feature316 feature317 feature318 feature319 feature320 feature321 feature322 feature323 feature324 feature325 feature326 feature327 feature328 feature329 feature330 feature331 feature332 feature333 feature334 feature335 feature336 feature337 feature338 feature339 feature340 feature341 feature342 feature343 feature344 feature345 feature346 feature347 feature348 feature349 feature350 feature351 feature352 feature353 feature354 feature355 feature356 feature357 feature358 feature359 feature360 feature361 feature362 feature363 feature364 feature365 feature366 feature367 feature368 feature369 feature370 feature371 feature372 feature373 feature374 feature375 feature376 feature377 feature378 feature379 feature380 feature381 feature382 feature383 feature384 feature385 feature386 feature387 feature388 feature389 feature390 feature391 feature392 feature393 feature394 feature395 feature396 feature397 feature398 feature399 feature400 feature401 feature402 feature403 feature404 feature405 feature406 feature407 feature408 feature409 feature410 feature411 feature412 feature413 feature414 feature415 feature416 feature417 feature418 feature419 feature420 feature421 feature422 feature423 feature424 feature425 feature426 feature427 feature428 feature429 feature430 feature431 feature432 feature433 feature434 feature435 feature436 feature437 feature438 feature439 feature440 feature441 feature442 feature443 feature444 feature445 feature446 feature447 feature448 feature449 feature450 feature451 feature452 feature453 feature454 feature455 feature456 feature457 feature458 feature459 feature460 feature461 feature462 feature463 feature464 feature465 feature466 feature467 feature468 feature469 feature470 feature471 feature472 feature473 feature474 feature475 feature476 feature477 feature478 feature479 feature480 feature481 feature482 feature483 feature484 feature485 feature486 feature487 feature488 feature489 feature490 feature491 feature492 feature493 feature494 feature495 feature496 feature497 feature498 feature499 feature500 feature501 feature502 feature503 feature504 feature505 feature506 feature507 feature508 feature509 feature510 feature511 feature512 feature513 feature514 feature515 feature516 feature517 feature518 feature519 feature520 feature521 feature522 feature523 feature524 feature525
feature_infos=[0:1] [0:100] [0:1] [4.7300000000000004:3170] [0.024:0.83999999999999997] [-64.099999999999994:48.450000000000003] [0.46600000000000003:99.799999999999997] [0.032300000000000002:78.299999999999997] none none none none none none [0:1] none [0:1] none [0:1] none none none none none none none none none none none none none none none none [0:1] none none none none none none [0:1] none none none none none none none none [0:1] none [0:1] none none none none none none none none none none none none none none none none none none none none none none none none none none none none none none none none none none none none none none none none none none none none none none none none none none none none none none none none none none none none none none none none none none none none none none none none none none none none none none none none none none none none none none none none none none none none none none none none none none none none none none none none none none none none none none none none none none none none none none none none none none none none none none none none none none none none none none none none none none none none none none none none none none none none none [0:1] none none none none none none none none none none none none none none none none none none none none none none none none none none none none none none none none none none none none none none none none none none none none none none none none none none none none none none none none none none none none none none none none none none none none none none none none none none none none none none none none none none none none none [0:1] [0:1] none none none none none none none none none none none [0:1] none [0:1] none none none none none none none none none none none none none none none none none none none none none none none none none none none none none none none none none none none none none none none none none none none none none none none none none none none none none none none none none none none none none none none none none none none none none none none none none none none none none none none none none [0:1] none none none none none none none none none none none none none none none none none none none none none none none none none none none none none none none none none none none none none none none none none none none none none none none none none [0:1] none none [0:1] none none none none none [0:1] none none [0:1] none none none none none none none none none none none none none none none [0:1] none [0:1] none none none none none none none none none none none none none none none none none none none none none none none none none none none none none none none none none none none none none none none none none none none none none none none none none none none none none none none none none none [0:1]
tree_sizes=566 649 642 646 659 722 637 658 656 656 659 579 747 644 657 648 743 663 662 643 567 576 634 557 664 650 667 662 654 729 658 656 574 660 663 734 647 642 654 642 657 657 749 661 655 672 668 660 751 640 667 673 664 750 666 664 751 671 667 728 671 674 667 675

Tree=0
num_leaves=5
num_cat=0
split_feature=290 4 439 3
split_gain=4.98878 1.40327 0.717278 0.370688
threshold=1.0000000180025095e-35 0.27750000000000008 1.0000000180025095e-35 81.15000000000002
decision_type=2 8 2 10
left_child=1 2 -1 -3
right_child=-2 3 -4 -5
leaf_value=0.012310520384747248 0.025095761967556817 0.011149484300230807 0.019357341699875318 0.0065263901940650409
leaf_weight=26 35 37 26 27
leaf_count=26 35 37 26 27
internal_value=0 0.0121733 0.0158339 0.00919912
internal_weight=0 116 52 64
internal_count=151 116 52 64
is_linear=0
shrinkage=0.03


Tree=1
num_leaves=6
num_cat=0
split_feature=289 3 436 2 3
split_gain=4.39349 1.53614 0.269581 0.49294 0.0932404
threshold=1.0000000180025095e-35 145.35000000000002 1.0000000180025095e-35 1.0000000180025095e-35 106.65500000000002
decision_type=2 8 2 8 10
left_child=1 -1 3 4 -2
right_child=2 -3 -4 -5 -6
leaf_value=0.025315225417244024 0.014454124775593696 0.015550678305584809 0.0077546807550825181 0.0082022645318460072 0.011722290414300831
leaf_weight=29 23 29 30 31 22
leaf_count=29 23 29 30 31 22
internal_value=0 0.020433 0.0101627 0.0111132 0.0131186
internal_weight=0 58 106 76 45
internal_count=164 58 106 76 45
is_linear=0
shrinkage=0.03


Tree=2
num_leaves=6
num_cat=0
split_feature=289 3 5 6 5
split_gain=2.72292 1.22404 1.10053 0.825455 0.18284
threshold=1.0000000180025095e-35 145.35000000000002 -24.199999999999996 1.0000000180025095e-35 -24.199999999999996
decision_type=2 8 10 10 8
left_child=1 -1 4 -4 -2
right_child=2 -3 3 -5 -6
leaf_value=0.02410096934566704 0.010377323832362889 0.01513671358854606 0.010201335277940546 0.018269362194836138 0.0069573277447317885
leaf_weight=26 24 29 21 25 34
leaf_count=26 24 29 21 25 34
internal_value=0 0.0193744 0.0111208 0.0145861 0.0083725
internal_weight=0 55 104 46 58
internal_count=159 55 104 46 58
is_linear=0
shrinkage=0.03


Tree=3
num_leaves=6
num_cat=0
split_feature=289 3 4 5 3
split_gain=3.68843 1.81401 0.718623 0.286306 0.0158678
threshold=1.0000000180025095e-35 145.35000000000002 0.21100000000000002 -24.199999999999996 81.15000000000002
decision_type=2 8 8 10 10
left_child=1 -1 -2 4 -4
right_child=2 -3 3 -5 -6
leaf_value=0.025243136840827688 0.013223063395573543 0.014330314184571135 0.0070773742599994872 0.010356848210096359 0.0058823426286689932
leaf_weight=26 39 29 20 30 20
leaf_count=26 39 29 20 30 20
internal_value=0 0.0194891 0.00995963 0.00814143 0.00647986
internal_weight=0 55 109 70 40
internal_count=164 55 109 70 40
is_linear=0
shrinkage=0.03


Tree=4
num_leaves=6
num_cat=0
split_feature=290 5 448 439 3
split_gain=4.64172 1.47396 0.304927 0.193737 0.0503531
threshold=1.0000000180025095e-35 1.0000000180025095e-35 1.0000000180025095e-35 1.0000000180025095e-35 106.65500000000002
decision_type=2 10 2 2 10
left_child=1 2 -1 -4 -5
right_child=-2 -3 3 4 -6
leaf_value=0.0070605253614485263 0.024217632417717287 0.018514878451824188 0.009185649115164337 0.01320586076721416 0.011102558478713035
leaf_weight=27 31 21 37 21 20
leaf_count=27 31 21 37 21 20
internal_value=0 0.0112594 0.00980836 0.0107595 0.0121799
internal_weight=0 126 105 78 41
internal_count=157 126 105 78 41
is_linear=0
shrinkage=0.03


Tree=5
num_leaves=7
num_cat=0
split_feature=289 4 4 439 1 16
split_gain=3.0196 1.258 1.05718 0.821712 0.184205 0.0911658
threshold=1.0000000180025095e-35 1.0000000180025095e-35 0.27750000000000008 1.0000000180025095e-35 inf 1.0000000180025095e-35
decision_type=2 10 8 2 8 2
left_child=1 -1 3 -2 -4 -6
right_child=2 -3 4 -5 5 -7
leaf_value=0.01369522054519119 0.0081449558289552262 0.022782989350649027 0.0045356867725162625 0.015725961702485237 0.0093095198415473774 0.0065109535069204864
leaf_weight=29 22 26 21 31 22 20
leaf_count=29 22 26 21 31 22 20
internal_value=0 0.0179913 0.00945665 0.0125791 0.00682981 0.00797687
internal_weight=0 55 116 53 63 42
internal_count=171 55 116 53 63 42
is_linear=0
shrinkage=0.03


Tree=6
num_leaves=6
num_cat=0
split_feature=290 439 3 6 5
split_gain=3.75346 0.711179 0.806096 0.259463 0.0993607
threshold=1.0000000180025095e-35 1.0000000180025095e-35 106.65500000000002 1.0000000180025095e-35 inf
decision_type=2 2 8 10 8
left_child=1 3 -3 -1 -4
right_child=-2 2 4 -5 -6
leaf_value=0.0061994992297841238 0.021044278639907901 0.017233175449073313 0.011474546268582344 0.010357175523584538 0.0086833491952116176
leaf_weight=35 38 21 24 22 22
leaf_count=35 38 21 24 22 22
internal_value=0 0.0102674 0.012363 0.00780422 0.0101396
internal_weight=0 124 67 57 46
internal_count=162 124 67 57 46
is_linear=0
shrinkage=0.03


Tree=7
num_leaves=6
num_cat=0
split_feature=5 289 302 525 525
split_gain=2.80703 1.4005 0.646265 0.214554 0.0442269
threshold=-24.199999999999996 1.0000000180025095e-35 1.0000000180025095e-35 1.0000000180025095e-35 1.0000000180025095e-35
decision_type=10 2 2 2 2
left_child=2 -2 -1 -4 -3
right_child=1 4 3 -5 -6
leaf_value=0.013387514926227076 0.020986845162942219 0.014067021725433212 0.0056534694543701001 0.0092974119934325031 0.01214225655040619
leaf_weight=21 38 21 33 26 22
leaf_count=21 38 21 33 26 22
internal_value=0 0.0167906 0.00886794 0.00725927 0.0130823
internal_weight=0 81 80 59 43
internal_count=161 81 80 59 43
is_linear=0
shrinkage=0.03


Tree=8
num_leaves=6
num_cat=0
split_feature=289 4 4 439 525
split_gain=2.50581 1.23994 0.565155 0.462057 0.389737
threshold=1.0000000180025095e-35 0.27750000000000008 0.27750000000000008 1.0000000180025095e-35 1.0000000180025095e-35
decision_type=2 8 8 2 2
left_child=1 -1 3 -2 -4
right_child=2 -3 4 -5 -6
leaf_value=0.022048851871490478 0.0083361838304478186 0.012931902640005414 0.0098953999675667047 0.014030055309934862 0.0049148542935689606
leaf_weight=25 23 29 26 29 31
leaf_count=25 23 29 26 29 31
internal_value=0 0.0171527 0.00924995 0.0115116 0.00718668
internal_weight=0 54 109 52 57
internal_count=163 54 109 52 57
is_linear=0
shrinkage=0.03


Tree=9
num_leaves=6
num_cat=0
split_feature=289 5 436 2 448
split_gain=2.86091 0.661942 0.285014 0.272048 0.237356
threshold=1.0000000180025095e-35 16.700000000000003 1.0000000180025095e-35 1.0000000180025095e-35 1.0000000180025095e-35
decision_type=2 8 2 8 2
left_child=1 -1 3 4 -2
right_child=2 -3 -4 -5 -6
leaf_value=0.019417261313046177 0.0082579275699598432 0.012416901965159922 0.0055967324628727506 0.0065605513505637642 0.012768452460212366
leaf_weight=31 21 20 32 25 21
leaf_count=31 21 20 32 25 21
internal_value=0 0.016672 0.00792589 0.00903832 0.0105132
internal_weight=0 51 99 67 42
internal_count=150 51 99 67 42
is_linear=0
shrinkage=0.03


Tree=10
num_leaves=6
num_cat=0
split_feature=51 6 3 439 525
split_gain=0.974518 0.568551 0.228514 0.0860374 0.0171616
threshold=1.0000000180025095e-35 72.750000000000014 106.65500000000002 1.0000000180025095e-35 1.0000000180025095e-35
decision_type=2 8 10 2 2
left_child=-1 -2 3 -3 -4
right_child=1 2 4 -5 -6
leaf_value=0.015325468409961709 0.014101551721846177 0.008738031016795763 0.007721741384826601 0.01099899578670209 0.006507517295804891
leaf_weight=36 22 28 20 33 22
leaf_count=36 22 28 20 33 22
internal_value=0 0.00972373 0.00878866 0.00996118 0.00708572
internal_weight=0 125 103 61 42
internal_count=161 125 103 61 42
is_linear=0
shrinkage=0.03


Tree=11
num_leaves=5
num_cat=0
split_feature=51 439 2 525
split_gain=2.16573 0.455071 0.170491 0.144276
threshold=1.0000000180025095e-35 1.0000000180025095e-35 1.0000000180025095e-35 1.0000000180025095e-35
decision_type=2 2 8 2
left_child=-1 2 -2 -3
right_child=1 3 -4 -5
leaf_value=0.016099011702279217 0.0044750281287865203 0.010896232190048869 0.0079852813873440009 0.008041873768903314
leaf_weight=38 33 34 20 30
leaf_count=38 33 34 20 30
internal_value=0 0.00785564 0.00579965 0.00955825
internal_weight=0 117 53 64
internal_count=155 117 53 64
is_linear=0
shrinkage=0.03


Tree=12
num_leaves=7
num_cat=0
split_feature=290 6 4 439 16 4
split_gain=2.94617 0.718559 0.686033 0.424486 0.239471 0.0426248
threshold=1.0000000180025095e-35 81.515000000000015 1.0000000180025095e-35 1.0000000180025095e-35 1.0000000180025095e-35 0.27750000000000008
decision_type=2 10 10 2 2 8
left_child=1 3 -2 5 -5 -1
right_child=2 -3 -4 4 -6 -7
leaf_value=0.0059055410921573636 0.013577639074064791 0.012660942193534638 0.021341201450143541 0.0071481886840510092 0.011040745311230419 0.0040118566608947255
leaf_weight=20 20 27 21 33 25 23
leaf_count=20 20 27 21 33 25 23
internal_value=0 0.00831358 0.0175541 0.00715141 0.00882601 0.00489264
internal_weight=0 128 41 101 58 43
internal_count=169 128 41 101 58 43
is_linear=0
shrinkage=0.03


Tree=13
num_leaves=6
num_cat=0
split_feature=289 3 4 3 6
split_gain=2.6767 1.02155 0.402163 0.320551 0.157187
threshold=1.0000000180025095e-35 145.35000000000002 0.27750000000000008 81.15000000000002 81.515000000000015
decision_type=2 8 8 10 8
left_child=1 -1 4 -4 -2
right_child=2 -3 3 -5 -6
leaf_value=0.019090719438832379 0.0071081767743453378 0.010815527985803782 0.0075784559887833881 0.0031552602212619164 0.010617162952096098
leaf_weight=29 20 25 30 29 27
leaf_count=29 20 25 30 29 27
internal_value=0 0.0152596 0.00705361 0.00540434 0.00912398
internal_weight=0 54 106 59 47
internal_count=160 54 106 59 47
is_linear=0
shrinkage=0.03


Tree=14
num_leaves=6
num_cat=0
split_feature=289 3 6 5 439
split_gain=2.85334 1.11529 0.51099 0.947874 0.162625
threshold=1.0000000180025095e-35 145.35000000000002 1.0000000180025095e-35 -24.199999999999996 1.0000000180025095e-35
decision_type=2 8 10 10 2
left_child=1 -1 4 -4 -2
right_child=2 -3 3 -5 -6
leaf_value=0.018667702292723042 0.0029005892761051655 0.0098356625683267002 0.0042168053425848482 0.012276708947109251 0.0061339220346417278
leaf_weight=31 28 22 24 29 28
leaf_count=31 28 22 24 29 28
internal_value=0 0.0150016 0.00651554 0.00862694 0.00451726
internal_weight=0 53 109 53 56
internal_count=162 53 109 53 56
is_linear=0
shrinkage=0.03


Tree=15
num_leaves=6
num_cat=0
split_feature=203 3 5 2 6
split_gain=1.68035 1.19218 0.124431 0.140198 0.0153106
threshold=1.0000000180025095e-35 81.15000000000002 -24.199999999999996 1.0000000180025095e-35 62.100000000000009
decision_type=2 8 10 8 10
left_child=4 -2 3 -3 -1
right_child=1 2 -4 -5 -6
leaf_value=0.014832708929199726 0.012681107338931824 0.00598935223929584 0.0068567506792149629 0.0029474689677357674 0.013658846374601125
leaf_weight=20 27 30 37 25 20
leaf_count=20 27 30 37 25 20
internal_value=0 0.00713829 0.0055116 0.00460668 0.0142458
internal_weight=0 119 92 55 40
internal_count=159 119 92 55 40
is_linear=0
shrinkage=0.03


Tree=16
num_leaves=7
num_cat=0
split_feature=51 5 5 439 6 5
split_gain=1.61728 1.15577 0.481085 0.138795 0.0697018 0.0209085
threshold=1.0000000180025095e-35 1.0000000180025095e-35 -11.949999999999998 1.0000000180025095e-35 81.515000000000015 -24.199999999999996
decision_type=2 10 8 2 8 10
left_child=5 2 4 -4 -2 -1
right_child=1 -3 3 -5 -6 -7
leaf_value=0.013977613359689712 0.0074794429501052941 0.014554620707407593 0.0035740728724387386 0.0063495963789960913 0.0097238896219906494 0.015332957930201832
leaf_weight=20 20 20 31 34 33 21
leaf_count=20 20 20 31 34 33 21
internal_value=0 0.00788589 0.00675559 0.00502589 0.00887693 0.0146718
internal_weight=0 138 118 65 53 41
internal_count=179 138 118 65 53 41
is_linear=0
shrinkage=0.03


Tree=17
num_leaves=6
num_cat=0
split_feature=290 4 439 16 439
split_gain=3.10528 0.425453 0.319849 0.204369 0.104197
threshold=1.0000000180025095e-35 0.21100000000000002 1.0000000180025095e-35 1.0000000180025095e-35 1.0000000180025095e-35
decision_type=2 8 2 2 2
left_child=1 -1 -3 -4 -2
right_child=4 2 3 -5 -6
leaf_value=0.0089198494690603432 0.017480769652873276 0.0025801019692012379 0.0043188662314787504 0.008425015226239339 0.014418454997241497
leaf_weight=35 20 31 20 24 20
leaf_count=35 20 31 20 24 20
internal_value=0 0.00618869 0.00491414 0.00655858 0.0159496
internal_weight=0 110 75 44 40
internal_count=150 110 75 44 40
is_linear=0
shrinkage=0.03


Tree=18
num_leaves=6
num_cat=0
split_feature=290 4 3 4 525
split_gain=1.67612 0.314735 0.453177 0.140429 0.00115776
threshold=1.0000000180025095e-35 0.17050000000000004 81.15000000000002 1.0000000180025095e-35 1.0000000180025095e-35
decision_type=2 10 10 10 2
left_child=1 2 4 -4 -1
right_child=-2 -3 3 -5 -6
leaf_value=0.0082805237201973806 0.013931781452541288 0.0090223278926569034 0.0024482115616814956 0.0056021085404790935 0.0079684290250398859
leaf_weight=20 38 40 27 24 23
leaf_count=20 38 40 27 24 23
internal_value=0 0.00679351 0.00584507 0.0039324 0.00811359
internal_weight=0 134 94 51 43
internal_count=172 134 94 51 43
is_linear=0
shrinkage=0.03


Tree=19
num_leaves=6
num_cat=0
split_feature=289 436 5 1 439
split_gain=1.64683 0.464083 0.447565 0.385793 0.169327
threshold=1.0000000180025095e-35 1.0000000180025095e-35 -11.949999999999998 inf 1.0000000180025095e-35
decision_type=2 2 10 8 2
left_child=1 -1 3 -2 -5
right_child=2 -3 -4 4 -6
leaf_value=0.01042999214982908 0.0015538053762117799 0.015905086926438591 0.0093942588002517303 0.0046722071777497015 0.0079714938919642001
leaf_weight=38 21 22 29 28 28
leaf_count=38 21 22 29 28 28
internal_value=0 0.0124375 0.0062178 0.00502147 0.00632185
internal_weight=0 60 106 77 56
internal_count=166 60 106 77 56
is_linear=0
shrinkage=0.03


Tree=20
num_leaves=5
num_cat=0
split_feature=290 5 3 3
split_gain=2.58595 0.584505 0.37309 0.177191
threshold=1.0000000180025095e-35 -24.199999999999996 81.15000000000002 106.65500000000002
decision_type=2 10 10 10
left_child=1 2 -1 -3
right_child=-2 3 -4 -5
leaf_value=0.0065133528154304567 0.015371518223703761 0.010694706815464252 0.0020234895936934458 0.0072189047573589377
leaf_weight=36 37 22 31 33
leaf_count=36 37 22 31 33
internal_value=0 0.00631735 0.00443595 0.00860923
internal_weight=0 122 67 55
internal_count=159 122 67 55
is_linear=0
shrinkage=0.03


Tree=21
num_leaves=5
num_cat=0
split_feature=4 525 448 525
split_gain=1.23504 0.842169 0.439448 0.453994
threshold=0.27750000000000008 1.0000000180025095e-35 1.0000000180025095e-35 1.0000000180025095e-35
decision_type=8 2 2 2
left_child=1 -1 -2 -4
right_child=2 -3 3 -5
leaf_value=0.0073557358050114797 0.0011467680053985011 0.014183726578244361 0.0082253917749039833 0.0032689556445733739
leaf_weight=37 21 29 39 29
leaf_count=37 21 29 39 29
internal_value=0 0.0103559 0.00494014 0.00611162
internal_weight=0 66 89 68
internal_count=155 66 89 68
is_linear=0
shrinkage=0.03


Tree=22
num_leaves=6
num_cat=0
split_feature=290 6 4 1 5
split_gain=1.15921 0.514378 0.312317 0.182284 0.178019
threshold=1.0000000180025095e-35 81.515000000000015 0.27750000000000008 inf 16.700000000000003
decision_type=2 10 8 8 8
left_child=1 3 -2 -1 -5
right_child=2 -3 -4 4 -6
leaf_value=0.0027830404785345307 0.014541363582015037 0.0098027852181201951 0.0093615137590942043 0.0044135908066080167 0.0073835048673893599
leaf_weight=24 20 26 22 39 34
leaf_count=24 20 26 22 39 34
internal_value=0 0.00605557 0.0118281 0.00505116 0.00579684
internal_weight=0 123 42 97 73
internal_count=165 123 42 97 73
is_linear=0
shrinkage=0.03


Tree=23
num_leaves=5
num_cat=0
split_feature=289 4 1 439
split_gain=1.11811 0.537344 0.335342 0.603472
threshold=1.0000000180025095e-35 0.27750000000000008 inf 1.0000000180025095e-35
decision_type=2 8 8 2
left_child=1 -1 -2 -4
right_child=2 -3 3 -5
leaf_value=0.014402285493561066 0.0031667063909868198 0.0085393341329387008 0.0041005925007349909 0.0094163376992801202
leaf_weight=24 31 34 37 40
leaf_count=24 31 34 37 40
internal_value=0 0.0109654 0.00580133 0.00686202
internal_weight=0 58 108 77
internal_count=166 58 108 77
is_linear=0
shrinkage=0.03


Tree=24
num_leaves=6
num_cat=0
split_feature=5 448 0 4 439
split_gain=0.854397 0.861484 0.832308 0.357691 0.231677
threshold=1.0000000180025095e-35 1.0000000180025095e-35 1.0000000180025095e-35 0.21100000000000002 1.0000000180025095e-35
decision_type=10 2 10 8 2
left_child=1 -1 3 -3 -5
right_child=-2 2 -4 4 -6
leaf_value=0.0010890827493535147 0.012015082358848303 0.0086928045164261555 0.011514780632403146 0.0019016888586338607 0.0059891655639960212
leaf_weight=27 24 21 28 24 26
leaf_count=27 24 21 28 24 26
internal_value=0 0.0058391 0.00713456 0.00540715 0.00402718
internal_weight=0 126 99 71 50
internal_count=150 126 99 71 50
is_linear=0
shrinkage=0.03


Tree=25
num_leaves=6
num_cat=0
split_feature=289 3 5 3 6
split_gain=1.82255 1.03397 0.652547 0.100766 0.0597285
threshold=1.0000000180025095e-35 145.35000000000002 -11.949999999999998 188.25000000000003 62.100000000000009
decision_type=2 8 10 8 10
left_child=1 -1 3 4 -2
right_child=2 -3 -4 -5 -6
leaf_value=0.014873340561647306 0.0034575055910112417 0.0071087937031326619 0.0085809409598420761 0.0047224046856164936 0.0013181091065052896
leaf_weight=33 23 29 28 25 24
leaf_count=33 23 29 28 25 24
internal_value=0 0.0112415 0.00469484 0.00318357 0.00236505
internal_weight=0 62 100 72 47
internal_count=162 62 100 72 47
is_linear=0
shrinkage=0.03


Tree=26
num_leaves=6
num_cat=0
split_feature=5 386 0 6 5
split_gain=1.49365 0.458672 0.351887 0.336996 0.152003
threshold=1.0000000180025095e-35 1.0000000180025095e-35 1.0000000180025095e-35 62.100000000000009 -1.0000000180025095e-35
decision_type=10 2 10 10 8
left_child=1 -1 3 4 -3
right_child=-2 2 -4 -5 -6
leaf_value=0.0083783404879710262 0.013494967367732896 0.0069400952160358423 0.0076009601330303631 0.00088805219612549992 0.0034894603984301081
leaf_weight=34 24 20 23 30 27
leaf_count=34 24 20 23 30 27
internal_value=0 0.00536824 0.00434481 0.00337219 0.00495782
internal_weight=0 134 100 77 47
internal_count=158 134 100 77 47
is_linear=0
shrinkage=0.03


Tree=27
num_leaves=6
num_cat=0
split_feature=51 35 5 6 2
split_gain=1.1911 1.11407 0.204709 0.22049 0.0980014
threshold=1.0000000180025095e-35 1.0000000180025095e-35 -24.199999999999996 90.885000000000005 1.0000000180025095e-35
decision_type=2 2 10 8 8
left_child=-1 -2 4 -4 -3
right_child=1 2 3 -5 -6
leaf_value=0.0097137285396456715 0.0094740148293583279 0.0019569800199721668 0.0059097820723296272 0.0017005091028477182 -0.00061270864500494843
leaf_weight=36 23 34 21 24 22
leaf_count=36 23 34 21 24 22
internal_value=0 0.00351514 0.00215817 0.00366484 0.000947459
internal_weight=0 124 101 45 56
internal_count=160 124 101 45 56
is_linear=0
shrinkage=0.03


Tree=28
num_leaves=6
num_cat=0
split_feature=3 448 3 6 6
split_gain=0.708505 0.225368 0.409341 0.239566 0.074261
threshold=106.65500000000002 1.0000000180025095e-35 145.35000000000002 90.885000000000005 1.0000000180025095e-35
decision_type=8 2 8 8 10
left_child=4 -2 -3 -4 -1
right_child=1 2 3 -5 -6
leaf_value=0.0085122606494769572 0.0026888594784858551 0.0089886002322851575 0.0072299745976924894 0.0031349048150392869 0.010648602100296152
leaf_weight=32 22 29 20 36 27
leaf_count=32 22 29 20 36 27
internal_value=0 0.00539514 0.00609559 0.00459743 0.00948991
internal_weight=0 107 85 56 59
internal_count=166 107 85 56 59
is_linear=0
shrinkage=0.03


Tree=29
num_leaves=7
num_cat=0
split_feature=290 3 6 5 3 3
split_gain=1.16228 1.48203 0.510155 0.289462 0.265197 0.170887
threshold=1.0000000180025095e-35 145.35000000000002 90.885000000000005 -11.949999999999998 188.25000000000003 81.15000000000002
decision_type=2 8 8 10 8 10
left_child=2 -2 3 -1 5 -4
right_child=1 -3 4 -5 -6 -7
leaf_value=0.004889987904578447 0.015375411465318629 0.004209204453974962 0.0036963937310501935 0.0097321399915963405 0.0050438695502068309 3.7680347838128606e-05
leaf_weight=25 23 20 20 20 35 27
leaf_count=25 23 20 20 20 35 27
internal_value=0 0.0101818 0.00447538 0.00704206 0.00306684 0.00159458
internal_weight=0 43 127 45 82 47
internal_count=170 43 127 45 82 47
is_linear=0
shrinkage=0.03


Tree=30
num_leaves=6
num_cat=0
split_feature=5 289 3 3 525
split_gain=1.43788 0.951391 0.939825 0.157828 0.101164
threshold=1.0000000180025095e-35 1.0000000180025095e-35 145.35000000000002 81.15000000000002 1.0000000180025095e-35
decision_type=10 2 8 10 2
left_child=1 2 -1 -3 -5
right_child=-2 3 -4 4 -6
leaf_value=0.012641028801546147 0.012554584198559706 0.0046380754897836591 0.0041546144918538632 0.0033482269831519159 0.0007745415730667965
leaf_weight=23 26 34 24 27 28
leaf_count=23 26 34 24 27 28
internal_value=0 0.00485469 0.00830754 0.00303128 0.00203799
internal_weight=0 136 47 89 55
internal_count=162 136 47 89 55
is_linear=0
shrinkage=0.03


Tree=31
num_leaves=6
num_cat=0
split_feature=5 1 3 439 436
split_gain=1.88126 0.416564 0.365402 0.148215 0.129267
threshold=1.0000000180025095e-35 21.500000000000004 145.35000000000002 1.0000000180025095e-35 1.0000000180025095e-35
decision_type=10 8 8 2 2
left_child=1 -1 4 -4 -3
right_child=-2 2 3 -5 -6
leaf_value=0.001871345619050165 0.013916896161010854 0.0060369219398126008 0.0019383113219848145 0.005424251238416348 0.008985466679315204
leaf_weight=36 23 32 23 21 23
leaf_count=36 23 32 23 21 23
internal_value=0 0.00463486 0.00563977 0.00360206 0.00726995
internal_weight=0 135 99 44 55
internal_count=158 135 99 44 55
is_linear=0
shrinkage=0.03


Tree=32
num_leaves=5
num_cat=0
split_feature=5 448 4 3
split_gain=1.34973 0.489982 0.358595 0.613441
threshold=1.0000000180025095e-35 1.0000000180025095e-35 0.21100000000000002 81.15000000000002
decision_type=10 2 8 10
left_child=1 -1 -3 -4
right_child=-2 2 3 -5
leaf_value=0.0010002818477473088 0.012252572598663391 0.0081789135662538402 0.0071652714421066473 0.0018372987290253726
leaf_weight=28 24 31 37 41
leaf_count=28 24 31 37 41
internal_value=0 0.00454014 0.00544946 0.00436467
internal_weight=0 137 109 78
internal_count=161 137 109 78
is_linear=0
shrinkage=0.03


Tree=33
num_leaves=6
num_cat=0
split_feature=51 439 4 3 16
split_gain=1.38582 0.593388 0.671887 0.260054 0.206674
threshold=1.0000000180025095e-35 1.0000000180025095e-35 0.27750000000000008 145.35000000000002 1.0000000180025095e-35
decision_type=2 2 8 8 2
left_child=-1 3 -3 -2 -4
right_child=1 2 4 -5 -6
leaf_value=0.010845729682164696 1.1846055838696915e-05 0.0092753820824013518 0.0015485662628303874 0.0043372609821910211 0.0057622579753515302
leaf_weight=39 29 33 22 22 20
leaf_count=39 29 33 22 22 20
internal_value=0 0.00437432 0.00607202 0.00187771 0.00355509
internal_weight=0 126 75 51 42
internal_count=165 126 75 51 42
is_linear=0
shrinkage=0.03


Tree=34
num_leaves=6
num_cat=0
split_feature=290 439 1 4 525
split_gain=1.04081 0.549909 0.359387 0.0776587 0.0687599
threshold=1.0000000180025095e-35 1.0000000180025095e-35 5.5000000000000009 0.27750000000000008 1.0000000180025095e-35
decision_type=2 2 8 8 2
left_child=1 4 -3 -4 -1
right_child=-2 2 3 -5 -6
leaf_value=0.00041965941680246029 0.0096761312697229793 0.0023203987358137966 0.0083623633930540592 0.0059692476496386992 0.0026464619387227754
leaf_weight=24 38 20 23 26 26
leaf_count=24 38 20 23 26 26
internal_value=0 0.0039733 0.00570932 0.00709255 0.0015776
internal_weight=0 119 69 49 50
internal_count=157 119 69 49 50
is_linear=0
shrinkage=0.03


Tree=35
num_leaves=7
num_cat=0
split_feature=4 3 1 5 6 16
split_gain=1.45612 0.608368 0.571575 0.512066 0.349381 0.0588053
threshold=0.27750000000000008 145.35000000000002 84.000000000000014 -24.199999999999996 72.750000000000014 1.0000000180025095e-35
decision_type=8 10 8 10 10 2
left_child=2 3 -1 5 -4 -2
right_child=1 -3 4 -5 -6 -7
leaf_value=0.012756491047995431 0.0040960090393200518 0.00014539422538991159 0.0051600224936798134 0.0086052975761280823 0.0099587113249369631 0.0018230222005929265
leaf_weight=21 20 39 36 22 22 21
leaf_count=21 20 39 36 22 22 21
internal_value=0 0.0030901 0.00851568 0.00491302 0.00698021 0.0029318
internal_weight=0 102 79 63 58 41
internal_count=181 102 79 63 58 41
is_linear=0
shrinkage=0.03


Tree=36
num_leaves=6
num_cat=0
split_feature=289 6 5 2 439
split_gain=1.12986 0.614879 0.272822 0.187923 0.364795
threshold=1.0000000180025095e-35 81.515000000000015 inf 1.0000000180025095e-35 1.0000000180025095e-35
decision_type=2 10 8 8 2
left_child=2 3 -1 4 -2
right_child=1 -3 -4 -5 -6
leaf_value=0.010197979784993963 0.00026240679235862833 0.0073520342598203565 0.0057575338350143281 -0.00056009114852973395 0.0049864291808297554
leaf_weight=33 28 24 20 21 31
leaf_count=33 28 24 20 21 31
internal_value=0 0.00314052 0.00852234 0.00187706 0.00274452
internal_weight=0 104 53 80 59
internal_count=157 104 53 80 59
is_linear=0
shrinkage=0.03


Tree=37
num_leaves=6
num_cat=0
split_feature=5 289 1 3 0
split_gain=1.03862 0.435676 0.301013 0.163865 0.096625
threshold=1.0000000180025095e-35 1.0000000180025095e-35 inf 81.15000000000002 1.0000000180025095e-35
decision_type=10 2 8 10 8
left_child=1 4 -3 -4 -1
right_child=-2 2 3 -5 -6
leaf_value=0.0052019887105764252 0.010456470104141366 0.00046217404906788179 0.0058990336395800111 0.002808201105309356 0.0080531469807028772
leaf_weight=23 27 31 26 38 20
leaf_count=23 27 31 26 38 20
internal_value=0 0.00402263 0.00288857 0.00406385 0.00652811
internal_weight=0 138 95 64 43
internal_count=165 138 95 64 43
is_linear=0
shrinkage=0.03


Tree=38
num_leaves=6
num_cat=0
split_feature=289 3 3 5 3
split_gain=0.520124 0.459375 0.266297 0.209077 0.0354354
threshold=1.0000000180025095e-35 145.35000000000002 81.15000000000002 -24.199999999999996 188.25000000000003
decision_type=2 8 8 10 8
left_child=1 -1 -2 4 -4
right_child=2 -3 3 -5 -6
leaf_value=0.0093476118126677148 0.0056127815365791317 0.0039098774249954468 -0.00021648008243313856 0.0038395944339307867 0.0015063925112851642
leaf_weight=27 25 29 21 33 22
leaf_count=27 25 29 21 33 22
internal_value=0 0.00653164 0.00292694 0.00204344 0.00066499
internal_weight=0 56 101 76 43
internal_count=157 56 101 76 43
is_linear=0
shrinkage=0.03


Tree=39
num_leaves=6
num_cat=0
split_feature=289 3 436 5 6
split_gain=0.69429 0.775969 0.378425 0.261095 0.0568902
threshold=1.0000000180025095e-35 106.65500000000002 1.0000000180025095e-35 inf 81.515000000000015
decision_type=2 10 2 8 8
left_child=1 -1 3 4 -2
right_child=2 -3 -4 -5 -6
leaf_value=0.010291369355815861 0.0038402046980336307 0.0035909704576645579 -0.0001896043043703802 0.0015174591932445765 0.0059200169480052483
leaf_weight=28 20 35 31 30 29
leaf_count=28 20 35 31 30 29
internal_value=0 0.00656893 0.00261937 0.00372162 0.00507111
internal_weight=0 63 110 79 49
internal_count=173 63 110 79 49
is_linear=0
shrinkage=0.03


Tree=40
num_leaves=6
num_cat=0
split_feature=289 3 3 3 525
split_gain=0.958498 0.426887 0.174357 0.175374 0.165802
threshold=1.0000000180025095e-35 145.35000000000002 81.15000000000002 188.25000000000003 1.0000000180025095e-35
decision_type=2 8 8 8 2
left_child=1 -1 -2 4 -4
right_child=2 -3 3 -5 -6
leaf_value=0.0099340453685275356 0.0049979498059573501 0.0048296525040641431 0.0030347747965715822 0.0035940843572009455 -0.0004472134635034308
leaf_weight=29 22 30 20 37 32
leaf_count=29 22 30 20 37 32
internal_value=0 0.00733859 0.00260649 0.00201535 0.000892013
internal_weight=0 59 111 89 52
internal_count=170 59 111 89 52
is_linear=0
shrinkage=0.03


Tree=41
num_leaves=6
num_cat=0
split_feature=304 289 3 3 6
split_gain=1.56096 2.44434 0.507912 0.179272 0.12885
threshold=1.0000000180025095e-35 1.0000000180025095e-35 106.65500000000002 106.65500000000002 1.0000000180025095e-35
decision_type=2 2 8 10 10
left_child=1 3 -3 -1 -4
right_child=-2 2 4 -5 -6
leaf_value=0.014239212430547923 -0.0028973272279836236 0.0063367280229660013 0.00035467928468153393 0.010270548443576055 0.003115607670333702
leaf_weight=20 20 35 29 21 32
leaf_count=20 20 35 29 21 32
internal_value=0 0.00607472 0.00345594 0.0122065 0.00180304
internal_weight=0 137 96 41 61
internal_count=157 137 96 41 61
is_linear=0
shrinkage=0.03


Tree=42
num_leaves=7
num_cat=0
split_feature=5 448 5 6 439 6
split_gain=0.671612 0.694701 0.177665 0.157734 0.127502 0.125281
threshold=1.0000000180025095e-35 1.0000000180025095e-35 -24.199999999999996 62.100000000000009 1.0000000180025095e-35 90.885000000000005
decision_type=10 2 10 10 2 8
left_child=1 -1 3 4 -3 -4
right_child=-2 2 5 -5 -6 -7
leaf_value=-0.00059591454705373653 0.0087972258153604342 0.0027874001834009374 0.007504995604572089 0.0012925532158697022 0.0059882840118370946 0.0042584630800411106
leaf_weight=31 24 21 23 20 24 20
leaf_count=31 24 21 23 20 24 20
internal_value=0 0.00336271 0.00449898 0.00350931 0.00449454 0.00599498
internal_weight=0 139 108 65 45 43
internal_count=163 139 108 65 45 43
is_linear=0
shrinkage=0.03


Tree=43
num_leaves=6
num_cat=0
split_feature=289 4 4 6 525
split_gain=1.60987 0.873915 0.249551 0.0380457 0.029696
threshold=1.0000000180025095e-35 0.21100000000000002 0.21100000000000002 62.100000000000009 1.0000000180025095e-35
decision_type=2 8 8 10 2
left_child=2 -2 -1 4 -3
right_child=1 3 -4 -5 -6
leaf_value=0.010928543218012367 0.0059254666239333649 5.228289519436657e-05 0.0067197806356125512 -0.00056341179111041133 0.0015446623359457589
leaf_weight=21 36 24 32 30 24
leaf_count=21 36 24 32 30 24
internal_value=0 0.00205913 0.0083874 0.000274671 0.000798473
internal_weight=0 114 53 78 48
internal_count=167 114 53 78 48
is_linear=0
shrinkage=0.03


Tree=44
num_leaves=6
num_cat=0
split_feature=289 3 6 4 3
split_gain=0.891633 0.805238 0.245116 0.318476 0.0294527
threshold=1.0000000180025095e-35 145.35000000000002 1.0000000180025095e-35 0.21100000000000002 81.15000000000002
decision_type=2 8 10 8 10
left_child=1 -1 4 -4 -2
right_child=2 -3 3 -5 -6
leaf_value=0.010497273139655589 0.0015658942982554435 0.0035464274961850605 0.006280870766937733 0.0016603843730488984 7.834819995838663e-05
leaf_weight=30 25 30 25 29 23
leaf_count=30 25 30 25 29 23
internal_value=0 0.00702185 0.00241296 0.0037995 0.000853112
internal_weight=0 60 102 54 48
internal_count=162 60 102 54 48
is_linear=0
shrinkage=0.03


Tree=45
num_leaves=6
num_cat=0
split_feature=289 0 439 16 525
split_gain=0.681884 0.490222 0.263636 0.330197 0.0761526
threshold=1.0000000180025095e-35 1.0000000180025095e-35 1.0000000180025095e-35 1.0000000180025095e-35 1.0000000180025095e-35
decision_type=2 8 2 2 2
left_child=1 -1 4 -4 -2
right_child=2 -3 3 -5 -6
leaf_value=0.0033528189784847199 0.0017617722765470925 0.0087762211356312032 0.0010216165775071 0.0054950877676971932 -0.00049295915656590028
leaf_weight=30 26 30 27 33 28
leaf_count=30 26 30 27 33 28
internal_value=0 0.00606452 0.00211338 0.00348203 0.000592652
internal_weight=0 60 114 60 54
internal_count=174 60 114 60 54
is_linear=0
shrinkage=0.03


Tree=46
num_leaves=6
num_cat=0
split_feature=18 4 289 5 16
split_gain=1.23384 0.426387 0.834689 0.20954 0.153504
threshold=1.0000000180025095e-35 0.21100000000000002 1.0000000180025095e-35 -1.0000000180025095e-35 1.0000000180025095e-35
decision_type=2 8 2 8 2
left_child=1 2 -1 -3 -5
right_child=-2 3 -4 4 -6
leaf_value=0.0089953567888587712 0.010019136606249958 -0.00099014326890132262 0.00090931927992237945 0.00013291590212010423 0.0033676146848818224
leaf_weight=20 20 35 27 23 31
leaf_count=20 20 35 27 23 31
internal_value=0 0.00203865 0.00435019 0.000817956 0.00198987
internal_weight=0 136 47 89 54
internal_count=156 136 47 89 54
is_linear=0
shrinkage=0.03


Tree=47
num_leaves=6
num_cat=0
split_feature=289 439 5 3 3
split_gain=0.456714 0.521571 0.270903 0.222034 0.0740378
threshold=1.0000000180025095e-35 1.0000000180025095e-35 16.700000000000003 145.35000000000002 145.35000000000002
decision_type=2 2 8 8 8
left_child=3 4 -3 -1 -2
right_child=1 2 -4 -5 -6
leaf_value=0.0080455882661044607 -0.00065262933779093948 0.0027574834408172007 0.0066783766473286202 0.0043243930833493996 0.0017556115435436368
leaf_weight=27 27 35 29 31 20
leaf_count=27 27 35 29 31 20
internal_value=0 0.00277186 0.00453414 0.00605667 0.000372154
internal_weight=0 111 64 58 47
internal_count=169 111 64 58 47
is_linear=0
shrinkage=0.03


Tree=48
num_leaves=7
num_cat=0
split_feature=289 3 6 439 16 4
split_gain=0.447016 0.779588 0.409406 0.23894 0.207014 0.0152356
threshold=1.0000000180025095e-35 145.35000000000002 81.515000000000015 1.0000000180025095e-35 1.0000000180025095e-35 0.27750000000000008
decision_type=2 8 10 2 2 8
left_child=1 -1 3 5 -5 -2
right_child=2 -3 -4 4 -6 -7
leaf_value=0.0084858907193973137 -0.00032903065625578166 0.0015879364004358649 0.0050215811726565546 0.00028971175959503109 0.0045068666020097225 -0.0014859911799430846
leaf_weight=29 20 30 26 22 20 21
leaf_count=29 20 30 26 22 20 21
internal_value=0 0.00497846 0.00173657 0.000707525 0.00229788 -0.00092162
internal_weight=0 59 109 83 42 41
internal_count=168 59 109 83 42 41
is_linear=0
shrinkage=0.03


Tree=49
num_leaves=6
num_cat=0
split_feature=53 464 1 3 5
split_gain=0.848717 0.641 0.379322 0.334205 0.369961
threshold=1.0000000180025095e-35 1.0000000180025095e-35 inf 81.15000000000002 16.700000000000003
decision_type=2 2 8 10 8
left_child=1 2 -1 -4 -5
right_child=-2 -3 3 4 -6
leaf_value=-2.0670906773635318e-05 0.010046543285250663 0.0080810884523974807 0.0060682863301851526 0.00064385172426409561 0.0056410866267979148
leaf_weight=35 20 23 33 40 20
leaf_count=35 20 23 33 40 20
internal_value=0 0.00347001 0.00264145 0.00364333 0.0023096
internal_weight=0 151 128 93 60
internal_count=171 151 128 93 60
is_linear=0
shrinkage=0.03


Tree=50
num_leaves=6
num_cat=0
split_feature=289 4 3 448 439
split_gain=0.646265 0.498223 0.383765 0.170054 0.240244
threshold=1.0000000180025095e-35 0.21100000000000002 106.65500000000002 1.0000000180025095e-35 1.0000000180025095e-35
decision_type=2 8 10 2 2
left_child=2 -2 -1 -3 -5
right_child=1 3 -4 4 -6
leaf_value=0.0092151649474081655 0.0049279011156712028 -0.0016423532260315759 0.0040680397287360393 -0.00049484288087114686 0.0037958412428143553
leaf_weight=22 37 21 32 24 23
leaf_count=22 37 21 32 24 23
internal_value=0 0.00212639 0.00616502 0.00060204 0.00160485
internal_weight=0 105 54 68 47
internal_count=159 105 54 68 47
is_linear=0
shrinkage=0.03


Tree=51
num_leaves=6
num_cat=0
split_feature=448 35 0 16 439
split_gain=0.522257 0.37413 0.302067 0.140939 0.241705
threshold=1.0000000180025095e-35 1.0000000180025095e-35 1.0000000180025095e-35 1.0000000180025095e-35 1.0000000180025095e-35
decision_type=2 2 8 2 2
left_child=-1 -2 3 -3 -5
right_child=1 2 -4 4 -6
leaf_value=0.00049602683486514967 0.0081577485801764341 0.00086130515546896142 0.0058527065668732108 0.0012519478611648083 0.0056177448257803912
leaf_weight=38 21 26 41 21 25
leaf_count=38 21 26 41 21 25
internal_value=0 0.00448061 0.00379725 0.00262678 0.00362466
internal_weight=0 134 113 72 46
internal_count=172 134 113 72 46
is_linear=0
shrinkage=0.03


Tree=52
num_leaves=6
num_cat=0
split_feature=5 289 3 6 439
split_gain=0.902065 0.321135 0.511531 0.312605 0.360886
threshold=1.0000000180025095e-35 1.0000000180025095e-35 145.35000000000002 62.100000000000009 1.0000000180025095e-35
decision_type=10 2 8 10 2
left_child=1 2 -1 4 -3
right_child=-2 3 -4 -5 -6
leaf_value=0.007318177946771566 0.0087582341069355595 -0.00024179830554534089 0.001176252142126348 -0.00080481259444994578 0.0046352556450680515
leaf_weight=26 24 22 23 35 36
leaf_count=26 24 22 23 35 36
internal_value=0 0.00246977 0.00443523 0.00143421 0.00278534
internal_weight=0 142 49 93 58
internal_count=166 142 49 93 58
is_linear=0
shrinkage=0.03


Tree=53
num_leaves=7
num_cat=0
split_feature=4 5 0 525 6 16
split_gain=0.510607 0.454539 0.349837 0.315722 0.106564 0.0325682
threshold=0.21100000000000002 16.700000000000003 1.0000000180025095e-35 1.0000000180025095e-35 62.100000000000009 1.0000000180025095e-35
decision_type=8 8 8 2 10 2
left_child=3 4 5 -1 -2 -3
right_child=1 2 -4 -5 -6 -7
leaf_value=0.0021210840177433247 -0.003088272429071367 -2.2410479374229908e-05 0.0055434820559722448 0.0065478796409121874 -0.00015030243191868067 0.0016896458780101965
leaf_weight=29 20 20 22 29 25 20
leaf_count=29 20 20 22 29 25 20
internal_value=0 0.00083905 0.00250486 0.00433448 -0.00145607 0.000833618
internal_weight=0 107 62 58 45 40
internal_count=165 107 62 58 45 40
is_linear=0
shrinkage=0.03


Tree=54
num_leaves=6
num_cat=0
split_feature=5 436 0 4 16
split_gain=0.770886 0.308608 0.205542 0.253619 0.00778396
threshold=-11.949999999999998 1.0000000180025095e-35 1.0000000180025095e-35 0.27750000000000008 1.0000000180025095e-35
decision_type=10 2 8 8 2
left_child=2 -2 3 -1 -5
right_child=1 -3 -4 4 -6
leaf_value=0.0034261131297264776 0.0045714038753738775 0.0094610465344573767 0.0043801201109228468 0.00047332977517866175 -0.00026806598212569951
leaf_weight=35 26 21 29 26 25
leaf_count=35 26 21 29 26 25
internal_value=0 0.00675614 0.00219602 0.00145952 0.0001099
internal_weight=0 47 115 86 51
internal_count=162 47 115 86 51
is_linear=0
shrinkage=0.03


Tree=55
num_leaves=6
num_cat=0
split_feature=3 7 289 6 16
split_gain=0.438297 0.260168 0.26927 0.146682 0.030456
threshold=81.15000000000002 0.058350000000000006 1.0000000180025095e-35 72.750000000000014 1.0000000180025095e-35
decision_type=8 10 2 10 2
left_child=-1 2 -2 4 -4
right_child=1 -3 3 -5 -6
leaf_value=0.0063210183002341252 0.0046984769371696388 -0.00062984773745903601 -0.00015017394178911395 0.0036991799147799609 0.0013936902768909932
leaf_weight=26 39 26 23 20 23
leaf_count=26 39 26 23 20 23
internal_value=0 0.00205686 0.00272214 0.00155431 0.000621758
internal_weight=0 131 105 66 46
internal_count=157 131 105 66 46
is_linear=0
shrinkage=0.03


Tree=56
num_leaves=7
num_cat=0
split_feature=5 4 3 525 16 439
split_gain=0.612327 0.580808 1.01193 0.386903 0.1749 0.0225977
threshold=1.0000000180025095e-35 0.21100000000000002 106.65500000000002 1.0000000180025095e-35 1.0000000180025095e-35 1.0000000180025095e-35
decision_type=10 8 10 2 2 2
left_child=1 3 4 -1 -3 -4
right_child=-2 2 5 -5 -6 -7
leaf_value=0.0022018507370376024 0.0072093648546271852 0.0057711980085481292 -0.0030734234170189923 0.0074840545167143523 0.0023383103584980265 -0.00172587540873792
leaf_weight=24 27 22 21 26 34 24
leaf_count=24 27 22 21 26 34 24
internal_value=0 0.00230421 0.000995109 0.0049486 0.00368694 -0.00235473
internal_weight=0 151 101 50 56 45
internal_count=178 151 101 50 56 45
is_linear=0
shrinkage=0.03


Tree=57
num_leaves=6
num_cat=0
split_feature=4 525 35 5 525
split_gain=0.829138 0.617073 0.547295 0.141946 0.00596844
threshold=0.21100000000000002 1.0000000180025095e-35 1.0000000180025095e-35 -1.0000000180025095e-35 1.0000000180025095e-35
decision_type=8 2 2 8 2
left_child=1 -1 -2 -4 -5
right_child=2 -3 3 4 -6
leaf_value=0.0032818699859443207 0.0061113252080976961 0.0095488665353220242 -0.00090587177094729498 0.0013359156299021936 0.0020006388109177352
leaf_weight=31 20 26 34 31 20
leaf_count=31 20 26 34 31 20
internal_value=0 0.0061405 0.00164622 0.000595606 0.00159659
internal_weight=0 57 105 85 51
internal_count=162 57 105 85 51
is_linear=0
shrinkage=0.03


Tree=58
num_leaves=6
num_cat=0
split_feature=5 4 525 5 0
split_gain=1.15884 0.852976 0.458941 0.237067 0.0872799
threshold=1.0000000180025095e-35 0.27750000000000008 1.0000000180025095e-35 -1.0000000180025095e-35 1.0000000180025095e-35
decision_type=10 8 2 8 8
left_child=1 2 -1 -3 -5
right_child=-2 3 -4 4 -6
leaf_value=0.002359244992258027 0.0091440450847148896 -0.0024251040501985697 0.0076184667759974095 7.9584829509258268e-05 0.0025068042008206249
leaf_weight=32 25 24 28 30 24
leaf_count=32 25 24 28 30 24
internal_value=0 0.00212436 0.00481355 5.57481e-05 0.00115835
internal_weight=0 138 60 78 54
internal_count=163 138 60 78 54
is_linear=0
shrinkage=0.03


Tree=59
num_leaves=7
num_cat=0
split_feature=18 448 4 1 6 6
split_gain=0.67502 0.487223 0.401623 0.113411 0.0618086 0.00376483
threshold=1.0000000180025095e-35 1.0000000180025095e-35 0.21100000000000002 inf 90.885000000000005 90.885000000000005
decision_type=2 2 8 8 8 8
left_child=1 -1 5 -4 -5 -3
right_child=-2 2 3 4 -6 -7
leaf_value=-0.0016537349520843814 0.0073070742455976353 0.0045688194762915366 -0.0007038403329040322 0.0031658784060605931 0.0010712882695952429 0.005143942944705486
leaf_weight=33 21 20 21 21 32 21
leaf_count=33 21 20 21 21 32 21
internal_value=0 0.00155953 0.00248159 0.00116195 0.00190122 0.00486339
internal_weight=0 148 115 74 53 41
internal_count=169 148 115 74 53 41
is_linear=0
shrinkage=0.03


Tree=60
num_leaves=6
num_cat=0
split_feature=290 6 5 439 16
split_gain=0.800197 0.238517 0.173534 0.252842 0.0129953
threshold=1.0000000180025095e-35 81.515000000000015 16.700000000000003 1.0000000180025095e-35 1.0000000180025095e-35
decision_type=2 10 8 2 2
left_child=1 2 3 -1 -4
right_child=-2 -3 4 -5 -6
leaf_value=-0.0032992630470544096 0.005297110232671624 0.0029182218376976937 0.00059894632082432505 0.00066461166865857584 0.0016083750268444418
leaf_weight=30 38 26 24 28 22
leaf_count=30 38 26 24 28 22
internal_value=0 0.000348184 -0.000294325 -0.00138567 0.00108172
internal_weight=0 130 104 58 46
internal_count=168 130 104 58 46
is_linear=0
shrinkage=0.03


Tree=61
num_leaves=6
num_cat=0
split_feature=448 0 4 289 439
split_gain=0.434109 0.325308 0.222113 0.200553 0.00970998
threshold=1.0000000180025095e-35 1.0000000180025095e-35 0.27750000000000008 1.0000000180025095e-35 1.0000000180025095e-35
decision_type=2 8 8 2 2
left_child=-1 2 -2 -3 -4
right_child=1 3 4 -5 -6
leaf_value=-0.0009733594072839387 0.0031832459128390135 0.0066759834519546967 -0.00042662330344319342 0.0025683554895222184 0.00047720454268805363
leaf_weight=39 39 23 20 20 23
leaf_count=39 39 23 20 20 23
internal_value=0 0.00265204 0.00154378 0.00476546 5.68195e-05
internal_weight=0 125 82 43 43
internal_count=164 125 82 43 43
is_linear=0
shrinkage=0.03


Tree=62
num_leaves=6
num_cat=0
split_feature=4 525 6 0 525
split_gain=0.585615 0.527147 0.36786 0.183402 0.0136666
threshold=0.21100000000000002 1.0000000180025095e-35 90.885000000000005 1.0000000180025095e-35 1.0000000180025095e-35
decision_type=8 2 8 8 2
left_child=1 -1 -2 4 -4
right_child=2 -3 3 -5 -6
leaf_value=0.0017001869251253082 0.0034592043608051514 0.007993419726743646 -0.0020058531531443199 0.0015369057344893613 -0.00097117851208895442
leaf_weight=25 31 23 27 27 20
leaf_count=25 31 23 27 27 20
internal_value=0 0.00471569 0.000715716 -0.000433583 -0.00156557
internal_weight=0 48 105 74 47
internal_count=153 48 105 74 47
is_linear=0
shrinkage=0.03


Tree=63
num_leaves=6
num_cat=0
split_feature=35 4 16 439 525
split_gain=0.508231 0.442346 0.126085 0.479181 0.0303579
threshold=1.0000000180025095e-35 0.21100000000000002 1.0000000180025095e-35 1.0000000180025095e-35 1.0000000180025095e-35
decision_type=2 8 2 2 2
left_child=-1 -2 4 -4 -3
right_child=1 2 3 -5 -6
leaf_value=0.0060956714954227206 0.0039044579280576161 0.0019642350091957131 -0.0031892347923712806 0.0025622699634087359 0.00043064266044114314
leaf_weight=22 39 26 32 22 21
leaf_count=22 39 26 32 22 21
internal_value=0 0.00119073 0.000142852 -0.000846029 0.00127901
internal_weight=0 140 101 54 47
internal_count=162 140 101 54 47
is_linear=0
shrinkage=0.03


end of trees

feature_importances:
feature3=49
feature5=42
feature4=35
feature6=31
feature439=30
feature289=29
feature525=21
feature16=15
feature290=11
feature448=11
feature0=10
feature1=10
feature2=6
feature436=6
feature51=5
feature35=4
feature18=2
feature7=1
feature53=1
feature203=1
feature302=1
feature304=1
feature386=1
feature464=1

parameters:
[boosting: gbdt]
[objective: regression]
[metric: rmse]
[tree_learner: serial]
[device_type: cpu]
[data: ]
[valid: ]
[num_iterations: 2000]
[learning_rate: 0.03]
[num_leaves: 12]
[num_threads: 12]
[deterministic: 0]
[force_col_wise: 0]
[force_row_wise: 0]
[histogram_pool_size: -1]
[max_depth: 5]
[min_data_in_leaf: 20]
[min_sum_hessian_in_leaf: 0.001]
[bagging_fraction: 0.7]
[pos_bagging_fraction: 1]
[neg_bagging_fraction: 1]
[bagging_freq: 1]
[bagging_seed: 400]
[feature_fraction: 0.7]
[feature_fraction_bynode: 1]
[feature_fraction_seed: 30056]
[extra_trees: 0]
[extra_seed: 12879]
[early_stopping_round: 300]
[first_metric_only: 0]
[max_delta_step: 0]
[lambda_l1: 0]
[lambda_l2: 0]
[linear_lambda: 0]
[min_gain_to_split: 0]
[drop_rate: 0.1]
[max_drop: 50]
[skip_drop: 0.5]
[xgboost_dart_mode: 0]
[uniform_drop: 0]
[drop_seed: 17869]
[top_rate: 0.2]
[other_rate: 0.1]
[min_data_per_group: 100]
[max_cat_threshold: 32]
[cat_l2: 10]
[cat_smooth: 10]
[max_cat_to_onehot: 4]
[top_k: 20]
[monotone_constraints: ]
[monotone_constraints_method: basic]
[monotone_penalty: 0]
[feature_contri: ]
[forcedsplits_filename: ]
[refit_decay_rate: 0.9]
[cegb_tradeoff: 1]
[cegb_penalty_split: 0]
[cegb_penalty_feature_lazy: ]
[cegb_penalty_feature_coupled: ]
[path_smooth: 0]
[interaction_constraints: ]
[verbosity: -1]
[saved_feature_importance_type: 0]
[linear_tree: 0]
[max_bin: 7]
[max_bin_by_feature: ]
[min_data_in_bin: 3]
[bin_construct_sample_cnt: 200000]
[data_random_seed: 175]
[is_enable_sparse: 1]
[enable_bundle: 1]
[use_missing: 1]
[zero_as_missing: 0]
[feature_pre_filter: 1]
[pre_partition: 0]
[two_round: 0]
[header: 0]
[label_column: ]
[weight_column: ]
[group_column: ]
[ignore_column: ]
[categorical_feature: ]
[forcedbins_filename: ]
[precise_float_parser: 0]
[objective_seed: 16083]
[num_class: 1]
[is_unbalance: 0]
[scale_pos_weight: 1]
[sigmoid: 1]
[boost_from_average: 0]
[reg_sqrt: 0]
[alpha: 0.9]
[fair_c: 1]
[poisson_max_delta_step: 0.7]
[tweedie_variance_power: 1.5]
[lambdarank_truncation_level: 30]
[lambdarank_norm: 1]
[label_gain: ]
[eval_at: ]
[multi_error_top_k: 1]
[auc_mu_weights: ]
[num_machines: 1]
[local_listen_port: 12400]
[time_out: 120]
[machine_list_filename: ]
[machines: ]
[gpu_platform_id: -1]
[gpu_device_id: -1]
[gpu_use_dp: 0]
[num_gpu: 1]

end of parameters

pandas_categorical:[]
