tree
version=v3
num_class=1
num_tree_per_iteration=1
label_index=0
max_feature_idx=525
objective=regression
feature_names=feature0 feature1 feature2 feature3 feature4 feature5 feature6 feature7 feature8 feature9 feature10 feature11 feature12 feature13 feature14 feature15 feature16 feature17 feature18 feature19 feature20 feature21 feature22 feature23 feature24 feature25 feature26 feature27 feature28 feature29 feature30 feature31 feature32 feature33 feature34 feature35 feature36 feature37 feature38 feature39 feature40 feature41 feature42 feature43 feature44 feature45 feature46 feature47 feature48 feature49 feature50 feature51 feature52 feature53 feature54 feature55 feature56 feature57 feature58 feature59 feature60 feature61 feature62 feature63 feature64 feature65 feature66 feature67 feature68 feature69 feature70 feature71 feature72 feature73 feature74 feature75 feature76 feature77 feature78 feature79 feature80 feature81 feature82 feature83 feature84 feature85 feature86 feature87 feature88 feature89 feature90 feature91 feature92 feature93 feature94 feature95 feature96 feature97 feature98 feature99 feature100 feature101 feature102 feature103 feature104 feature105 feature106 feature107 feature108 feature109 feature110 feature111 feature112 feature113 feature114 feature115 feature116 feature117 feature118 feature119 feature120 feature121 feature122 feature123 feature124 feature125 feature126 feature127 feature128 feature129 feature130 feature131 feature132 feature133 feature134 feature135 feature136 feature137 feature138 feature139 feature140 feature141 feature142 feature143 feature144 feature145 feature146 feature147 feature148 feature149 feature150 feature151 feature152 feature153 feature154 feature155 feature156 feature157 feature158 feature159 feature160 feature161 feature162 feature163 feature164 feature165 feature166 feature167 feature168 feature169 feature170 feature171 feature172 feature173 feature174 feature175 feature176 feature177 feature178 feature179 feature180 feature181 feature182 feature183 feature184 feature185 feature186 feature187 feature188 feature189 feature190 feature191 feature192 feature193 feature194 feature195 feature196 feature197 feature198 feature199 feature200 feature201 feature202 feature203 feature204 feature205 feature206 feature207 feature208 feature209 feature210 feature211 feature212 feature213 feature214 feature215 feature216 feature217 feature218 feature219 feature220 feature221 feature222 feature223 feature224 feature225 feature226 feature227 feature228 feature229 feature230 feature231 feature232 feature233 feature234 feature235 feature236 feature237 feature238 feature239 feature240 feature241 feature242 feature243 feature244 feature245 feature246 feature247 feature248 feature249 feature250 feature251 feature252 feature253 feature254 feature255 feature256 feature257 feature258 feature259 feature260 feature261 feature262 feature263 feature264 feature265 feature266 feature267 feature268 feature269 feature270 feature271 feature272 feature273 feature274 feature275 feature276 feature277 feature278 feature279 feature280 feature281 feature282 feature283 feature284 feature285 feature286 feature287 feature288 feature289 feature290 feature291 feature292 feature293 feature294 feature295 feature296 feature297 feature298 feature299 feature300 feature301 feature302 feature303 feature304 feature305 feature306 feature307 feature308 feature309 feature310 feature311 feature312 feature313 feature314 feature315 feature316 feature317 feature318 feature319 feature320 feature321 feature322 feature323 feature324 feature325 feature326 feature327 feature328 feature329 feature330 feature331 feature332 feature333 feature334 feature335 feature336 feature337 feature338 feature339 feature340 feature341 feature342 feature343 feature344 feature345 feature346 feature347 feature348 feature349 feature350 feature351 feature352 feature353 feature354 feature355 feature356 feature357 feature358 feature359 feature360 feature361 feature362 feature363 feature364 feature365 feature366 feature367 feature368 feature369 feature370 feature371 feature372 feature373 feature374 feature375 feature376 feature377 feature378 feature379 feature380 feature381 feature382 feature383 feature384 feature385 feature386 feature387 feature388 feature389 feature390 feature391 feature392 feature393 feature394 feature395 feature396 feature397 feature398 feature399 feature400 feature401 feature402 feature403 feature404 feature405 feature406 feature407 feature408 feature409 feature410 feature411 feature412 feature413 feature414 feature415 feature416 feature417 feature418 feature419 feature420 feature421 feature422 feature423 feature424 feature425 feature426 feature427 feature428 feature429 feature430 feature431 feature432 feature433 feature434 feature435 feature436 feature437 feature438 feature439 feature440 feature441 feature442 feature443 feature444 feature445 feature446 feature447 feature448 feature449 feature450 feature451 feature452 feature453 feature454 feature455 feature456 feature457 feature458 feature459 feature460 feature461 feature462 feature463 feature464 feature465 feature466 feature467 feature468 feature469 feature470 feature471 feature472 feature473 feature474 feature475 feature476 feature477 feature478 feature479 feature480 feature481 feature482 feature483 feature484 feature485 feature486 feature487 feature488 feature489 feature490 feature491 feature492 feature493 feature494 feature495 feature496 feature497 feature498 feature499 feature500 feature501 feature502 feature503 feature504 feature505 feature506 feature507 feature508 feature509 feature510 feature511 feature512 feature513 feature514 feature515 feature516 feature517 feature518 feature519 feature520 feature521 feature522 feature523 feature524 feature525
feature_infos=[0:1] [0:100] [0:1] [4.7300000000000004:3170] [0.024:0.83999999999999997] [-64.299999999999997:48.450000000000003] [0.46600000000000003:99.799999999999997] [0.032300000000000002:78.299999999999997] none none none none none none [0:1] none [0:1] none [0:1] none none none none none none none none none none none none none none none none [0:1] none none none none none none [0:1] none none none none none none none none [0:1] none [0:1] none none none none none none none none none none none none none none none none none none none none none none none none none none none none none none none none none none none none none none none none none none none none none none none none none none none none none none none none none none none none none none none none none none none none none none none none none none none none none none none none none none none none none none none none none none none none none none none none none none none none none none none none none none none none none none none none none none none none none none none none none none none none none none none none none none none none none none none none none none none none none none none none none none none none none [0:1] none none none none none none none none none none none none none none none none none none none none none none none none none none none none none none none none none none none none none none none none none none none none none none none none none none none none none none none none none none none none none none none none none none none none none none none none none none none none none none none none none none none none none [0:1] [0:1] none none none none none none none none none none none [0:1] none [0:1] none none none none none none none none none none none none none none none none none none none none none none none none none none none none none none none none none none none none none none none none none none none none none none none none none none none none none none none none none none none none none none none none none none none none none none none none none none none none none none none none none [0:1] none none none none none none none none none none none none none none none none none none none none none none none none none none none none none none none none none none none none none none none none none none none none none none none none none [0:1] none none [0:1] none none none none none [0:1] none none [0:1] none none none none none none none none none none none none none none none [0:1] none [0:1] none none none none none none none none none none none none none none none none none none none none none none none none none none none none none none none none none none none none none none none none none none none none none none none none none none none none none none none none none [0:1] [0:1]
tree_sizes=564 649 633 573 640 743 655 740 635 579 662 638 715 635 642 639 629 665 664 731 660 657 656 620 657 558 641 640 658 635 579 570 645 743 554 741 576 580 654 668 664 580 572 669 654 650 662 641 731 650 658 664 757 735 745 638 755 748 647 670 645 664 667 664 674 667 757 756 664 735 673 756 745 671 746 651 675 666 666 586 750 651 668 748 649 738 755 752 565 653 653 757 761 671 669 663 750 749 671 762 676 580 756 658 575 752 677 666 673 660 558 667 771 678 679 758 669 669 676 674 676 670 681 676 655 669 676 671 672

Tree=0
num_leaves=5
num_cat=0
split_feature=290 5 3 2
split_gain=7.3655 0.35989 0.325082 0.0278513
threshold=1.0000000180025095e-35 -12.734999999999998 81.15000000000002 1.0000000180025095e-35
decision_type=2 10 10 8
left_child=1 2 -1 -4
right_child=-2 -3 3 -5
leaf_value=0.011772320468265277 0.02643176836272081 0.01344052495913846 0.0087052334201606837 0.007158403577283025
leaf_weight=39 36 35 22 20
leaf_count=39 36 35 22 20
internal_value=0 0.0108985 0.00980005 0.00796865
internal_weight=0 116 81 42
internal_count=152 116 81 42
is_linear=0
shrinkage=0.03


Tree=1
num_leaves=6
num_cat=0
split_feature=289 5 5 448 1
split_gain=6.31239 1.3435 0.853996 0.202204 0.245546
threshold=1.0000000180025095e-35 -28.649999999999995 -12.734999999999998 1.0000000180025095e-35 21.500000000000004
decision_type=2 10 10 2 8
left_child=1 -1 3 -2 -5
right_child=2 -3 -4 4 -6
leaf_value=0.017144777365028858 0.0066831804929382123 0.026998641907491468 0.014922757395092518 0.0073374399763997643 0.011463254127097693
leaf_weight=20 23 33 31 20 37
leaf_count=20 23 33 31 20 37
internal_value=0 0.0232802 0.0106956 0.00905753 0.0100156
internal_weight=0 53 111 80 57
internal_count=164 53 111 80 57
is_linear=0
shrinkage=0.03


Tree=2
num_leaves=6
num_cat=0
split_feature=289 5 4 448 5
split_gain=3.81938 1.93178 1.10497 0.594256 0.269446
threshold=1.0000000180025095e-35 -28.649999999999995 0.21200000000000002 1.0000000180025095e-35 inf
decision_type=2 10 8 2 8
left_child=1 -1 -2 -4 -5
right_child=2 -3 3 4 -6
leaf_value=0.015301249357871711 0.014942535048084599 0.026310369716240806 0.0045848877169191839 0.013025142911821604 0.0083103471164940861
leaf_weight=32 35 26 24 20 24
leaf_count=32 35 26 24 20 24
internal_value=0 0.0202364 0.0106114 0.00838218 0.0104534
internal_weight=0 58 103 68 44
internal_count=161 58 103 68 44
is_linear=0
shrinkage=0.03


Tree=3
num_leaves=5
num_cat=0
split_feature=290 5 448 525
split_gain=5.02453 1.07205 0.434565 0.115932
threshold=1.0000000180025095e-35 -12.734999999999998 1.0000000180025095e-35 1.0000000180025095e-35
decision_type=2 10 2 2
left_child=1 2 -1 -4
right_child=-2 -3 3 -5
leaf_value=0.0055999819398857651 0.023527223133326818 0.015066177745986925 0.011461792349970589 0.0089366700467653562
leaf_weight=24 36 38 36 30
leaf_count=24 36 38 36 30
internal_value=0 0.0108409 0.00905694 0.010314
internal_weight=0 128 90 66
internal_count=164 128 90 66
is_linear=0
shrinkage=0.03


Tree=4
num_leaves=6
num_cat=0
split_feature=289 5 3 5 3
split_gain=4.099 1.1913 0.603929 0.281154 0.163922
threshold=1.0000000180025095e-35 -28.649999999999995 81.15000000000002 -12.734999999999998 175.33000000000001
decision_type=2 10 8 10 8
left_child=1 -1 -2 4 -4
right_child=2 -3 3 -5 -6
leaf_value=0.01627117538721197 0.014841096237301826 0.025562373464522153 0.0062393462682043066 0.011602019127458334 0.0093824683431739681
leaf_weight=27 20 23 28 27 32
leaf_count=27 20 23 28 27 32
internal_value=0 0.0205451 0.0101403 0.00905971 0.00791568
internal_weight=0 50 107 87 60
internal_count=157 50 107 87 60
is_linear=0
shrinkage=0.03


Tree=5
num_leaves=7
num_cat=0
split_feature=290 5 436 448 4 3
split_gain=5.39656 0.989983 0.297061 0.244412 0.0834113 0.0216459
threshold=1.0000000180025095e-35 -12.734999999999998 1.0000000180025095e-35 1.0000000180025095e-35 1.0000000180025095e-35 103.30000000000001
decision_type=2 10 2 2 10 10
left_child=1 2 3 -1 -2 -5
right_child=4 -3 -4 5 -6 -7
leaf_value=0.0067941198416519907 0.021138936538249255 0.014133949628908578 0.0051477151808794587 0.0099432796619034237 0.023846015759876795 0.011217423602938651
leaf_weight=24 20 38 20 28 21 21
leaf_count=24 20 38 20 28 21 21
internal_value=0 0.0100541 0.008387 0.00927447 0.0225255 0.0104893
internal_weight=0 131 93 73 41 49
internal_count=172 131 93 73 41 49
is_linear=0
shrinkage=0.03


Tree=6
num_leaves=6
num_cat=0
split_feature=289 3 5 448 439
split_gain=3.45183 1.0742 0.962841 0.219441 0.470985
threshold=1.0000000180025095e-35 134.25000000000003 -12.734999999999998 1.0000000180025095e-35 1.0000000180025095e-35
decision_type=2 8 10 2 2
left_child=1 -1 3 -2 -5
right_child=2 -3 -4 4 -6
leaf_value=0.022661626646295188 0.0051481924753636124 0.014423581578865132 0.013663503871212014 0.0053438922805203633 0.011257185954600572
leaf_weight=28 25 29 32 22 27
leaf_count=28 25 29 32 22 27
internal_value=0 0.0184703 0.00931553 0.00743533 0.00860224
internal_weight=0 57 106 74 49
internal_count=163 57 106 74 49
is_linear=0
shrinkage=0.03


Tree=7
num_leaves=7
num_cat=0
split_feature=289 5 439 5 5 5
split_gain=4.39842 1.5422 0.586595 0.954358 0.182341 0.0315617
threshold=1.0000000180025095e-35 -28.649999999999995 1.0000000180025095e-35 -12.734999999999998 -1.0000000180025095e-35 -12.734999999999998
decision_type=2 10 2 10 8 8
left_child=1 -1 4 5 -2 -4
right_child=2 -3 3 -5 -6 -7
leaf_value=0.013529534760117531 0.0076861432888968417 0.023697148777287579 0.0085717082279734309 0.015741846257820723 0.0037779433572930946 0.0069580661337822671
leaf_weight=25 22 29 24 20 21 20
leaf_count=25 22 29 24 20 21 20
internal_value=0 0.0189899 0.00848739 0.0103081 0.00577749 0.00783823
internal_weight=0 54 107 64 43 44
internal_count=161 54 107 64 43 44
is_linear=0
shrinkage=0.03


Tree=8
num_leaves=6
num_cat=0
split_feature=290 4 1 5 0
split_gain=2.32629 0.551771 0.546663 0.268129 0.141142
threshold=1.0000000180025095e-35 0.27600000000000008 inf -12.734999999999998 1.0000000180025095e-35
decision_type=2 8 8 10 8
left_child=1 3 -3 -1 -4
right_child=-2 2 4 -5 -6
leaf_value=0.0089634472530867367 0.016974122006661041 0.0026885368460789322 0.0073183176740456157 0.01328470119042322 0.010494399104383774
leaf_weight=28 39 20 34 24 20
leaf_count=28 39 20 34 24 20
internal_value=0 0.00858961 0.00692543 0.0109579 0.00849464
internal_weight=0 126 74 52 54
internal_count=165 126 74 52 54
is_linear=0
shrinkage=0.03


Tree=9
num_leaves=5
num_cat=0
split_feature=290 5 448 525
split_gain=3.40303 0.608947 0.270458 0.0239818
threshold=1.0000000180025095e-35 -12.734999999999998 1.0000000180025095e-35 1.0000000180025095e-35
decision_type=2 10 2 2
left_child=1 2 -1 -4
right_child=-2 -3 3 -5
leaf_value=0.0050712215320461171 0.020222101288245004 0.012483554062648462 0.0095581356156617392 0.0082949787529651067
leaf_weight=22 34 39 31 24
leaf_count=22 34 39 31 24
internal_value=0 0.00942937 0.00788245 0.00900694
internal_weight=0 116 77 55
internal_count=150 116 77 55
is_linear=0
shrinkage=0.03


Tree=10
num_leaves=6
num_cat=0
split_feature=290 4 525 439 4
split_gain=3.59667 0.727237 0.392196 0.257399 0.0816207
threshold=1.0000000180025095e-35 0.21200000000000002 1.0000000180025095e-35 1.0000000180025095e-35 1.0000000180025095e-35
decision_type=2 8 2 2 10
left_child=1 3 -3 -1 -2
right_child=4 2 -4 -5 -6
leaf_value=0.010604863278567789 0.018697427988052368 0.0099108220145783642 0.0056886101787677031 0.015360318180173634 0.021407752633094787
leaf_weight=21 20 44 36 20 20
leaf_count=21 20 44 36 20 20
internal_value=0 0.00967582 0.00801083 0.0129246 0.0200526
internal_weight=0 121 80 41 40
internal_count=161 121 80 41 40
is_linear=0
shrinkage=0.03


Tree=11
num_leaves=6
num_cat=0
split_feature=4 35 1 439 525
split_gain=1.66785 1.28644 0.33035 0.19528 0.118712
threshold=0.21200000000000002 1.0000000180025095e-35 inf 1.0000000180025095e-35 1.0000000180025095e-35
decision_type=8 2 8 2 2
left_child=4 -2 -3 -4 -1
right_child=1 2 3 -5 -6
leaf_value=0.013508976164460182 0.014866899608501365 0.0041738730162614954 0.0061690247670880384 0.0096525964853353789 0.016530567431314425
leaf_weight=25 21 32 28 30 22
leaf_count=25 21 32 28 30 22
internal_value=0 0.0081809 0.00662083 0.00797087 0.0149233
internal_weight=0 111 90 58 47
internal_count=158 111 90 58 47
is_linear=0
shrinkage=0.03


Tree=12
num_leaves=7
num_cat=0
split_feature=290 3 1 5 6 4
split_gain=3.75909 0.667907 0.30858 0.449645 0.145393 0.0260482
threshold=1.0000000180025095e-35 81.15000000000002 inf 19.405000000000005 1.0000000180025095e-35 0.21200000000000002
decision_type=2 8 8 8 10 8
left_child=1 -1 -3 5 -2 -4
right_child=4 2 3 -5 -6 -7
leaf_value=0.012481755205036069 0.016883843702796313 0.0042742250544520527 0.0067603997158055948 0.010694562487981535 0.020457890957593917 0.0052832529813583414
leaf_weight=26 21 26 22 33 20 21
leaf_count=26 21 26 22 33 20 21
internal_value=0 0.00818948 0.00709537 0.0080605 0.0186273 0.006039
internal_weight=0 128 102 76 41 43
internal_count=169 128 102 76 41 43
is_linear=0
shrinkage=0.03


Tree=13
num_leaves=6
num_cat=0
split_feature=290 4 448 5 3
split_gain=1.36702 0.603671 0.5247 0.226599 0.0812428
threshold=1.0000000180025095e-35 0.21200000000000002 1.0000000180025095e-35 inf 103.30000000000001
decision_type=2 8 2 8 10
left_child=1 4 -3 -4 -1
right_child=-2 2 3 -5 -6
leaf_value=0.012890119347721338 0.015099673725136025 0.0034191630112007259 0.01069743848620699 0.0068997446087098891 0.010186076425015926
leaf_weight=20 37 25 26 31 20
leaf_count=20 37 25 26 31 20
internal_value=0 0.00851663 0.00704274 0.00863203 0.0115381
internal_weight=0 122 82 57 40
internal_count=159 122 82 57 40
is_linear=0
shrinkage=0.03


Tree=14
num_leaves=6
num_cat=0
split_feature=289 436 1 5 16
split_gain=1.90937 1.25522 0.381806 0.245203 0.0178274
threshold=1.0000000180025095e-35 1.0000000180025095e-35 inf -12.734999999999998 1.0000000180025095e-35
decision_type=2 2 8 10 2
left_child=1 -1 -2 4 -4
right_child=2 -3 3 -5 -6
leaf_value=0.010258105738903395 0.0038733377903827203 0.019838713416829704 0.0074462234531529241 0.010266504255580783 0.0063645946903852745
leaf_weight=32 27 20 24 28 32
leaf_count=32 27 20 24 28 32
internal_value=0 0.013943 0.00697674 0.00797427 0.00682815
internal_weight=0 52 111 84 56
internal_count=163 52 111 84 56
is_linear=0
shrinkage=0.03


Tree=15
num_leaves=6
num_cat=0
split_feature=290 4 5 1 439
split_gain=1.62395 0.780042 0.580461 0.311624 0.279062
threshold=1.0000000180025095e-35 0.27600000000000008 -12.734999999999998 inf 1.0000000180025095e-35
decision_type=2 8 10 8 2
left_child=1 2 -1 -3 -5
right_child=-2 3 -4 4 -6
leaf_value=0.0078137062478344874 0.015079654730283297 0.0031467504342634297 0.014483111189759295 0.0047069054070327963 0.0091575695393839845
leaf_weight=24 39 22 23 21 32
leaf_count=24 39 22 23 21 32
internal_value=0 0.00804718 0.0110775 0.00614821 0.0073941
internal_weight=0 122 47 75 53
internal_count=161 122 47 75 53
is_linear=0
shrinkage=0.03


Tree=16
num_leaves=6
num_cat=0
split_feature=289 4 4 2 6
split_gain=2.17779 1.38032 0.633575 0.182901 0.377999
threshold=1.0000000180025095e-35 0.27600000000000008 0.21200000000000002 inf 90.25500000000001
decision_type=2 8 8 8 8
left_child=1 -1 -2 4 -4
right_child=2 -3 3 -5 -6
leaf_value=0.019674338319084862 0.010115665484165006 0.010084670106281659 0.0094535122598920548 0.0033362832986589138 0.0043623510817331927
leaf_weight=22 34 35 21 29 35
leaf_count=22 34 35 21 29 35
internal_value=0 0.0137859 0.00665455 0.0052701 0.00627154
internal_weight=0 57 119 85 56
internal_count=176 57 119 85 56
is_linear=0
shrinkage=0.03


Tree=17
num_leaves=6
num_cat=0
split_feature=290 4 439 439 525
split_gain=2.92325 0.702043 0.386552 0.161218 0.0801459
threshold=1.0000000180025095e-35 0.12850000000000003 1.0000000180025095e-35 1.0000000180025095e-35 1.0000000180025095e-35
decision_type=2 10 2 2 2
left_child=1 3 -3 -1 -5
right_child=-2 2 -4 4 -6
leaf_value=0.0073529553421489572 0.016983158253133294 0.007040786567427541 0.012289674673229455 0.0054010771827485695 0.00290926973468491
leaf_weight=23 36 23 28 26 21
leaf_count=23 36 23 28 26 21
internal_value=0 0.00724537 0.00992253 0.00529487 0.00428772
internal_weight=0 121 51 70 47
internal_count=157 121 51 70 47
is_linear=0
shrinkage=0.03


Tree=18
num_leaves=6
num_cat=0
split_feature=53 448 35 4 525
split_gain=2.60742 0.974052 0.478399 0.561526 0.0979005
threshold=1.0000000180025095e-35 1.0000000180025095e-35 1.0000000180025095e-35 0.27600000000000008 1.0000000180025095e-35
decision_type=2 2 2 8 2
left_child=1 -1 -3 -4 -5
right_child=-2 2 3 4 -6
leaf_value=0.0038646857898968919 0.019474518097937106 0.01345553662095751 0.011246554944160821 0.0075262439027428624 0.0048914702012288298
leaf_weight=39 20 21 37 30 22
leaf_count=39 20 21 37 30 22
internal_value=0 0.00793833 0.00938262 0.0084216 0.00641153
internal_weight=0 149 110 89 52
internal_count=169 149 110 89 52
is_linear=0
shrinkage=0.03


Tree=19
num_leaves=7
num_cat=0
split_feature=290 2 4 439 439 6
split_gain=1.61116 0.205833 0.396724 0.153473 0.117109 0.093553
threshold=1.0000000180025095e-35 inf 0.17550000000000002 1.0000000180025095e-35 1.0000000180025095e-35 1.0000000180025095e-35
decision_type=2 8 10 2 2 10
left_child=1 2 3 -1 -2 -3
right_child=4 5 -4 -5 -6 -7
leaf_value=0.0047163797485048013 0.015299549873918294 0.0064761210309807211 0.010719274540270607 0.0078027906313795472 0.012091919295489787 0.0035744375037029385
leaf_weight=29 20 20 26 29 21 20
leaf_count=29 20 20 26 29 21 20
internal_value=0 0.00679652 0.00763997 0.00625959 0.0136566 0.00502528
internal_weight=0 124 84 58 41 40
internal_count=165 124 84 58 41 40
is_linear=0
shrinkage=0.03


Tree=20
num_leaves=6
num_cat=0
split_feature=289 5 6 5 525
split_gain=1.64233 1.57561 0.578574 0.425415 0.156972
threshold=1.0000000180025095e-35 -28.649999999999995 1.0000000180025095e-35 -12.734999999999998 1.0000000180025095e-35
decision_type=2 10 10 10 2
left_child=1 -1 4 -4 -2
right_child=2 -3 3 -5 -6
leaf_value=0.0075370985748512403 0.0017621090805724909 0.017898870000243188 0.0059417749087636662 0.011164993850271339 0.0051644624364025034
leaf_weight=28 23 25 36 23 26
leaf_count=28 23 25 36 23 26
internal_value=0 0.0124247 0.00597688 0.00797795 0.00356744
internal_weight=0 53 108 59 49
internal_count=161 53 108 59 49
is_linear=0
shrinkage=0.03


Tree=21
num_leaves=6
num_cat=0
split_feature=386 448 3 16 3
split_gain=1.68214 0.357081 0.344279 0.421389 0.172153
threshold=1.0000000180025095e-35 1.0000000180025095e-35 81.15000000000002 1.0000000180025095e-35 134.25000000000003
decision_type=2 2 8 2 10
left_child=-1 -2 -3 -4 -5
right_child=1 2 3 4 -6
leaf_value=0.014052667466983679 0.0036745497286319729 0.010507775475906037 0.0031887233432812186 0.0062170928864824504 0.010062807222828268
leaf_weight=31 35 22 26 22 20
leaf_count=31 35 22 26 22 20
internal_value=0 0.00624575 0.00724567 0.00619028 0.00804839
internal_weight=0 125 90 68 42
internal_count=156 125 90 68 42
is_linear=0
shrinkage=0.03


Tree=22
num_leaves=6
num_cat=0
split_feature=290 4 6 16 5
split_gain=1.22011 0.349885 0.326329 0.0502366 0.00404021
threshold=1.0000000180025095e-35 0.21200000000000002 72.52000000000001 1.0000000180025095e-35 19.405000000000005
decision_type=2 8 10 2 8
left_child=1 -1 3 -3 -5
right_child=-2 2 -4 4 -6
leaf_value=0.0080629316608134948 0.011754480876888219 0.0045922327895039838 0.0012810849042143673 0.0059508433914743364 0.006533857110239889
leaf_weight=39 39 26 20 20 23
leaf_count=39 39 26 20 20 23
internal_value=0 0.00569351 0.00465523 0.00563324 0.00626269
internal_weight=0 128 89 69 43
internal_count=167 128 89 69 43
is_linear=0
shrinkage=0.03


Tree=23
num_leaves=6
num_cat=0
split_feature=289 5 4 1 5
split_gain=2.46158 0.98095 0.928653 0.175573 0.011042
threshold=1.0000000180025095e-35 -28.649999999999995 0.27600000000000008 inf inf
decision_type=2 10 8 8 8
left_child=1 -1 -2 -4 -5
right_child=2 -3 3 4 -6
leaf_value=0.0091769295752601471 0.0088468878587889595 0.016914616968996567 0.00081533235098634436 0.0036698162612239164 0.0046315572135658426
leaf_weight=30 41 29 21 21 22
leaf_count=30 41 29 21 21 22
internal_value=0 0.0129802 0.00532195 0.00306379 0.00416187
internal_weight=0 59 105 64 43
internal_count=164 59 105 64 43
is_linear=0
shrinkage=0.03


Tree=24
num_leaves=6
num_cat=0
split_feature=290 4 3 448 3
split_gain=1.14179 0.429202 0.359415 0.213438 0.00599701
threshold=1.0000000180025095e-35 0.27600000000000008 103.30000000000001 1.0000000180025095e-35 175.33000000000001
decision_type=2 8 10 2 8
left_child=1 2 -1 -3 -5
right_child=-2 3 -4 4 -6
leaf_value=0.011062880276469515 0.011945771911979786 0.0018671513432689773 0.0057135818504656733 0.0050845073168165975 0.0057416107624769204
leaf_weight=20 35 22 26 25 25
leaf_count=20 35 22 26 25 25
internal_value=0 0.00577577 0.00803936 0.00432959 0.00541306
internal_weight=0 118 46 72 50
internal_count=153 118 46 72 50
is_linear=0
shrinkage=0.03


Tree=25
num_leaves=5
num_cat=0
split_feature=290 5 1 439
split_gain=1.57508 0.281393 0.147936 0.266158
threshold=1.0000000180025095e-35 -12.734999999999998 inf 1.0000000180025095e-35
decision_type=2 10 8 2
left_child=1 2 -1 -4
right_child=-2 -3 3 -5
leaf_value=0.0028567681385255938 0.012934328822249716 0.0078506828751415004 0.0035095673907198943 0.007295034946873784
leaf_weight=27 33 36 32 35
leaf_count=27 33 36 32 35
internal_value=0 0.00559531 0.00473154 0.00548705
internal_weight=0 130 94 67
internal_count=163 130 94 67
is_linear=0
shrinkage=0.03


Tree=26
num_leaves=6
num_cat=0
split_feature=4 289 439 0 5
split_gain=1.73205 0.889853 0.581792 0.294979 0.0661248
threshold=0.27600000000000008 1.0000000180025095e-35 1.0000000180025095e-35 1.0000000180025095e-35 inf
decision_type=8 2 2 8 8
left_child=1 -1 -3 4 -2
right_child=3 2 -4 -5 -6
leaf_value=0.015204595497250558 0.0040793394100748833 0.0043092552814632647 0.010914890510146507 0.0067592175754493675 0.0019985706652680944
leaf_weight=25 27 20 30 29 28
leaf_count=25 27 20 30 29 28
internal_value=0 0.0105833 0.00827264 0.00431095 0.00302004
internal_weight=0 75 50 84 55
internal_count=159 75 50 84 55
is_linear=0
shrinkage=0.03


Tree=27
num_leaves=6
num_cat=0
split_feature=51 35 6 1 3
split_gain=0.802122 0.376622 0.386914 0.119769 0.101599
threshold=1.0000000180025095e-35 1.0000000180025095e-35 81.300000000000026 inf 134.25000000000003
decision_type=2 2 10 8 8
left_child=-1 -2 3 -3 -5
right_child=1 2 -4 4 -6
leaf_value=0.010673768185079098 0.0091339865353490621 0.0018093291665850714 0.0079736167366616425 0.0031438707367384008 0.0056995285353852003
leaf_weight=34 21 22 25 28 28
leaf_count=34 21 22 25 28 28
internal_value=0 0.00547238 0.00472583 0.00368488 0.0044217
internal_weight=0 124 103 78 56
internal_count=158 124 103 78 56
is_linear=0
shrinkage=0.03


Tree=28
num_leaves=6
num_cat=0
split_feature=290 3 4 448 3
split_gain=1.76901 0.332639 0.195121 0.154555 0.0885233
threshold=1.0000000180025095e-35 81.15000000000002 0.17550000000000002 1.0000000180025095e-35 175.33000000000001
decision_type=2 8 10 2 8
left_child=1 -1 3 -3 -5
right_child=-2 2 -4 4 -6
leaf_value=0.0081569854076951748 0.012523787742063992 0.0016017531778197735 0.0063843911294316057 0.0032682352328673005 0.0057928501809015867
leaf_weight=27 38 24 32 25 25
leaf_count=27 38 24 32 25 25
internal_value=0 0.00518427 0.00442707 0.00358067 0.00453054
internal_weight=0 133 106 74 50
internal_count=171 133 106 74 50
is_linear=0
shrinkage=0.03


Tree=29
num_leaves=6
num_cat=0
split_feature=289 5 3 2 5
split_gain=0.922152 0.566567 0.358655 0.329812 0.361795
threshold=1.0000000180025095e-35 -28.649999999999995 81.15000000000002 inf 19.405000000000005
decision_type=2 10 8 8 8
left_child=1 -1 -2 4 -4
right_child=2 -3 3 -5 -6
leaf_value=0.0062149698939174408 0.0077713204003785818 0.012004424278335325 0.0025937685333192345 0.00094053697539493448 0.0074287965701436264
leaf_weight=32 22 29 30 30 26
leaf_count=32 22 29 30 30 26
internal_value=0 0.00896733 0.00435321 0.00347881 0.0048386
internal_weight=0 61 108 86 56
internal_count=169 61 108 86 56
is_linear=0
shrinkage=0.03


Tree=30
num_leaves=5
num_cat=0
split_feature=5 448 4 525
split_gain=1.29986 0.667808 0.66474 0.420106
threshold=1.0000000180025095e-35 1.0000000180025095e-35 0.27600000000000008 1.0000000180025095e-35
decision_type=10 2 8 2
left_child=1 -1 -3 -4
right_child=-2 2 3 -5
leaf_value=0.0014563046885388239 0.012600894412607887 0.0095407794578932226 0.0066907053452450781 0.0019263288354681382
leaf_weight=35 24 36 36 31
leaf_count=35 24 36 36 31
internal_value=0 0.00503638 0.00625291 0.00448629
internal_weight=0 138 103 67
internal_count=162 138 103 67
is_linear=0
shrinkage=0.03


Tree=31
num_leaves=5
num_cat=0
split_feature=290 5 6 5
split_gain=0.939737 0.321821 0.197911 0.108351
threshold=1.0000000180025095e-35 -12.734999999999998 57.805000000000007 -12.734999999999998
decision_type=2 10 10 8
left_child=1 2 3 -1
right_child=-2 -3 -4 -5
leaf_value=0.0067812025334153857 0.010591023750257098 0.0074759512239446248 0.0019103476140075006 0.0040554372516593759
leaf_weight=21 37 36 26 35
leaf_count=21 37 36 26 35
internal_value=0 0.00511143 0.00407335 0.0050776
internal_weight=0 118 82 56
internal_count=155 118 82 56
is_linear=0
shrinkage=0.03


Tree=32
num_leaves=6
num_cat=0
split_feature=289 5 5 439 4
split_gain=0.805525 0.543189 0.328237 0.137246 0.147581
threshold=1.0000000180025095e-35 -28.649999999999995 inf 1.0000000180025095e-35 0.12850000000000003
decision_type=2 10 8 2 10
left_child=1 -1 3 -2 -5
right_child=2 -3 -4 4 -6
leaf_value=0.0051531423289667474 0.0027624057892011479 0.010890783481299876 0.00095173027585534478 0.0038544685450261052 0.0072913715395737768
leaf_weight=33 25 27 34 23 22
leaf_count=33 25 27 34 23 22
internal_value=0 0.00773508 0.00337002 0.00454462 0.00553473
internal_weight=0 60 104 70 45
internal_count=164 60 104 70 45
is_linear=0
shrinkage=0.03


Tree=33
num_leaves=7
num_cat=0
split_feature=5 3 289 4 6 16
split_gain=0.796023 0.516935 0.391204 0.510795 0.13068 0.0348813
threshold=1.0000000180025095e-35 81.15000000000002 1.0000000180025095e-35 0.27600000000000008 72.52000000000001 1.0000000180025095e-35
decision_type=10 8 2 8 10 2
left_child=1 -1 3 -3 5 -4
right_child=-2 2 4 -5 -6 -7
leaf_value=0.0086543667529310492 0.01012058486714959 0.0088817662373185148 0.0022718128893110486 0.0026253719185478984 0.00024527073245156898 0.0038436772441491482
leaf_weight=21 25 23 27 24 22 24
leaf_count=21 25 23 27 24 22 24
internal_value=0 0.00431216 0.00355227 0.00568701 0.00217785 0.00301151
internal_weight=0 141 120 47 73 51
internal_count=166 141 120 47 73 51
is_linear=0
shrinkage=0.03


Tree=34
num_leaves=5
num_cat=0
split_feature=289 5 5 4
split_gain=0.633803 0.33831 0.306088 0.181604
threshold=1.0000000180025095e-35 -28.649999999999995 inf 0.17550000000000002
decision_type=2 10 8 10
left_child=1 -1 3 -2
right_child=2 -3 -4 -5
leaf_value=0.005632719026709144 0.0034944724287981023 0.010313876250293105 0.0014319012391691406 0.0065991409989073872
leaf_weight=33 39 24 36 30
leaf_count=33 39 24 36 30
internal_value=0 0.00760373 0.00367435 0.00484433
internal_weight=0 57 105 69
internal_count=162 57 105 69
is_linear=0
shrinkage=0.03


Tree=35
num_leaves=7
num_cat=0
split_feature=53 6 436 1 4 525
split_gain=1.26593 0.407097 0.35757 0.251174 0.161383 0.011812
threshold=1.0000000180025095e-35 90.25500000000001 1.0000000180025095e-35 21.500000000000004 0.12850000000000003 1.0000000180025095e-35
decision_type=2 8 2 8 10 2
left_child=1 4 3 -3 -1 -5
right_child=-2 2 -4 5 -6 -7
leaf_value=0.0041793530004528854 0.012096617761999369 0.001098789117881097 -0.0002237776055932045 0.0045413762882129619 0.0072811093773149571 0.0054632205862937301
leaf_weight=26 20 20 25 22 36 29
leaf_count=26 20 20 25 22 36 29
internal_value=0 0.00408549 0.00286172 0.00394816 0.00598037 0.00506556
internal_weight=0 158 96 71 62 51
internal_count=178 158 96 71 62 51
is_linear=0
shrinkage=0.03


Tree=36
num_leaves=5
num_cat=0
split_feature=289 5 439 2
split_gain=0.936004 0.461749 0.250678 0.294577
threshold=1.0000000180025095e-35 -12.734999999999998 1.0000000180025095e-35 1.0000000180025095e-35
decision_type=2 10 2 8
left_child=1 -1 -2 -4
right_child=2 -3 3 -5
leaf_value=0.0060588739243547405 0.0012799365220493391 0.011690470146015286 0.0059657955134140425 0.0014677119352854789
leaf_weight=38 38 20 38 20
leaf_count=38 38 20 38 20
internal_value=0 0.0080008 0.00317388 0.00441473
internal_weight=0 58 96 58
internal_count=154 58 96 58
is_linear=0
shrinkage=0.03


Tree=37
num_leaves=5
num_cat=0
split_feature=448 5 439 4
split_gain=0.698766 0.633788 0.479098 0.419905
threshold=1.0000000180025095e-35 -12.734999999999998 1.0000000180025095e-35 1.0000000180025095e-35
decision_type=2 10 2 10
left_child=-1 2 -2 -4
right_child=1 -3 3 -5
leaf_value=0.0012470345241017639 0.0016558844479066983 0.0089821925773643525 0.003584964850853229 0.0087355449717558386
leaf_weight=40 35 39 29 28
leaf_count=40 35 39 29 28
internal_value=0 0.00577726 0.00441864 0.00611507
internal_weight=0 131 92 57
internal_count=171 131 92 57
is_linear=0
shrinkage=0.03


Tree=38
num_leaves=6
num_cat=0
split_feature=3 6 4 5 3
split_gain=0.719223 0.469986 0.442733 0.240508 0.000696619
threshold=103.30000000000001 1.0000000180025095e-35 0.21200000000000002 19.405000000000005 103.30000000000001
decision_type=8 10 8 8 10
left_child=1 -1 -2 -4 -5
right_child=2 -3 3 4 -6
leaf_value=0.0048363739023766211 0.0059190745981918137 0.010428264918737112 -0.00058347915872358357 0.0029239611191531783 0.0031594639532268043
leaf_weight=31 33 24 26 26 20
leaf_count=31 33 24 26 26 20
internal_value=0 0.00727647 0.00304163 0.0017228 0.00302635
internal_weight=0 55 105 72 46
internal_count=160 55 105 72 46
is_linear=0
shrinkage=0.03


Tree=39
num_leaves=6
num_cat=0
split_feature=5 448 4 525 4
split_gain=0.979163 0.479943 0.422739 0.205454 0.198205
threshold=1.0000000180025095e-35 1.0000000180025095e-35 0.27600000000000008 1.0000000180025095e-35 0.17550000000000002
decision_type=10 2 8 2 10
left_child=1 -1 4 -4 -3
right_child=-2 2 3 -5 -6
leaf_value=0.00057726288868768794 0.0098486844930224682 0.0049159162033349281 0.0043563747893724785 0.00089546923239070637 0.0088693828268774904
leaf_weight=37 26 25 38 26 21
leaf_count=37 26 25 38 26 21
internal_value=0 0.00353291 0.00452709 0.00295038 0.00672076
internal_weight=0 147 110 64 46
internal_count=173 147 110 64 46
is_linear=0
shrinkage=0.03


Tree=40
num_leaves=6
num_cat=0
split_feature=448 289 3 439 3
split_gain=0.970057 0.787405 0.851376 0.587566 0.536502
threshold=1.0000000180025095e-35 1.0000000180025095e-35 134.25000000000003 1.0000000180025095e-35 81.15000000000002
decision_type=2 2 8 2 10
left_child=-1 2 -2 -3 -5
right_child=1 3 -4 4 -6
leaf_value=-0.00023084624455525324 0.011183002472765022 0.00046020066714845596 0.0032439057491719723 0.0092486395435407761 0.0025302966384460096
leaf_weight=39 31 36 20 20 23
leaf_count=39 31 36 20 20 23
internal_value=0 0.00516375 0.00806963 0.00328781 0.00565511
internal_weight=0 130 51 79 43
internal_count=169 130 51 79 43
is_linear=0
shrinkage=0.03


Tree=41
num_leaves=5
num_cat=0
split_feature=386 6 436 2
split_gain=0.734552 0.503246 0.285216 0.322415
threshold=1.0000000180025095e-35 81.300000000000026 1.0000000180025095e-35 1.0000000180025095e-35
decision_type=2 10 2 8
left_child=-1 2 3 -2
right_child=1 -3 -4 -5
leaf_value=0.0084541582159938337 0.004849795361685498 0.0066099020003551438 -0.00087892502014126097 0.00083167253527790305
leaf_weight=31 41 31 21 32
leaf_count=31 41 31 21 32
internal_value=0 0.00329524 0.0022021 0.00308843
internal_weight=0 125 94 73
internal_count=156 125 94 73
is_linear=0
shrinkage=0.03


Tree=42
num_leaves=5
num_cat=0
split_feature=386 5 3 3
split_gain=1.05126 0.362571 0.179918 0.154957
threshold=1.0000000180025095e-35 -12.734999999999998 175.33000000000001 81.15000000000002
decision_type=2 10 10 10
left_child=-1 2 3 -2
right_child=1 -3 -4 -5
leaf_value=0.0097219944165812585 0.0029690672048344842 0.0058653288219855824 0.0048626004784600814 0.00032758951187133789
leaf_weight=27 41 35 20 39
leaf_count=27 41 35 20 39
internal_value=0 0.00323738 0.0023176 0.00168135
internal_weight=0 135 100 80
internal_count=162 135 100 80
is_linear=0
shrinkage=0.03


Tree=43
num_leaves=6
num_cat=0
split_feature=5 448 290 436 3
split_gain=1.08794 0.487561 0.476833 0.155269 0.0835626
threshold=1.0000000180025095e-35 1.0000000180025095e-35 1.0000000180025095e-35 1.0000000180025095e-35 134.25000000000003
decision_type=10 2 2 2 8
left_child=1 -1 3 4 -3
right_child=-2 2 -4 -5 -6
leaf_value=7.0566566234144061e-05 0.010121282137545715 0.0052101041965017265 0.0071812139614485203 0.0010001029695073762 0.0028231706007764757
leaf_weight=36 23 22 32 27 33
leaf_count=36 23 22 32 27 33
internal_value=0 0.00311419 0.00407534 0.00286329 0.00377794
internal_weight=0 150 114 82 55
internal_count=173 150 114 82 55
is_linear=0
shrinkage=0.03


Tree=44
num_leaves=6
num_cat=0
split_feature=3 289 3 5 3
split_gain=0.716341 0.370042 0.227162 0.153689 0.139166
threshold=81.15000000000002 1.0000000180025095e-35 175.33000000000001 19.405000000000005 103.30000000000001
decision_type=8 2 10 8 10
left_child=-1 4 3 -3 -2
right_child=1 2 -4 -5 -6
leaf_value=0.0082723859428531585 0.0067786984877394778 -0.00081641201670522442 0.0044577923831529915 0.0021564483434400135 0.0036357248332933522
leaf_weight=27 21 29 20 34 32
leaf_count=27 21 29 20 34 32
internal_value=0 0.00292276 0.00167228 0.000787989 0.00488105
internal_weight=0 136 83 63 53
internal_count=163 136 83 63 53
is_linear=0
shrinkage=0.03


Tree=45
num_leaves=6
num_cat=0
split_feature=289 3 3 6 3
split_gain=0.759735 0.458699 0.337871 0.317313 0.157068
threshold=1.0000000180025095e-35 134.25000000000003 81.15000000000002 81.300000000000026 175.33000000000001
decision_type=2 8 8 10 8
left_child=1 -1 -2 4 -4
right_child=2 -3 3 -5 -6
leaf_value=0.0096471869795081693 0.0055132520070299501 0.0043191488307308063 -0.0009208111607414835 0.0046475871639664879 0.002084549565534589
leaf_weight=26 25 33 34 22 29
leaf_count=26 25 33 34 22 29
internal_value=0 0.0066671 0.00244748 0.00154578 0.000462609
internal_weight=0 59 110 85 63
internal_count=169 59 110 85 63
is_linear=0
shrinkage=0.03


Tree=46
num_leaves=6
num_cat=0
split_feature=304 289 3 5 3
split_gain=0.66662 0.949978 0.128136 0.18441 0.0735314
threshold=1.0000000180025095e-35 1.0000000180025095e-35 81.15000000000002 19.405000000000005 134.25000000000003
decision_type=2 2 10 8 10
left_child=1 -1 -3 4 -4
right_child=-2 2 3 -5 -6
leaf_value=0.0081421130101251259 -0.0020788731537759305 0.0038135952263365722 -0.00061278215326044869 0.0039829519457582913 0.0017158725293568121
leaf_weight=34 20 37 23 21 26
leaf_count=34 20 37 23 21 26
internal_value=0 0.00377373 0.00238564 0.00163087 0.000622831
internal_weight=0 141 107 70 49
internal_count=161 141 107 70 49
is_linear=0
shrinkage=0.03


Tree=47
num_leaves=6
num_cat=0
split_feature=289 3 4 2 3
split_gain=0.854866 0.711924 0.19679 0.149707 0.272654
threshold=1.0000000180025095e-35 134.25000000000003 0.21200000000000002 inf 103.30000000000001
decision_type=2 10 8 8 10
left_child=1 -1 -2 4 -4
right_child=2 -3 3 -5 -6
leaf_value=0.0093168708453462874 0.0040811142993957862 0.0025261978511116469 0.0041848803953164152 -0.00076598777454346418 -4.0326501641954694e-05
leaf_weight=33 28 24 27 25 28
leaf_count=33 28 24 27 25 28
internal_value=0 0.00645764 0.00191652 0.00115891 0.00203387
internal_weight=0 57 108 80 55
internal_count=165 57 108 80 55
is_linear=0
shrinkage=0.03


Tree=48
num_leaves=7
num_cat=0
split_feature=4 525 1 289 6 16
split_gain=0.283706 0.270424 0.236134 0.209427 0.136095 0.0937323
threshold=0.27600000000000008 1.0000000180025095e-35 inf 1.0000000180025095e-35 90.25500000000001 1.0000000180025095e-35
decision_type=8 2 8 2 8 2
left_child=1 4 -2 -4 -1 -5
right_child=2 -3 3 5 -6 -7
leaf_value=0.004519821516587399 -0.00016378456207790545 0.0063521241463604383 0.0050505841875448819 0.0029338493752716615 0.0011360787936364827 9.6164217218756663e-05
leaf_weight=20 35 32 25 22 23 20
leaf_count=20 35 32 25 22 23 20
internal_value=0 0.00426392 0.00183333 0.00287661 0.00270991 0.00158257
internal_weight=0 75 102 67 43 42
internal_count=177 75 102 67 43 42
is_linear=0
shrinkage=0.03


Tree=49
num_leaves=6
num_cat=0
split_feature=289 436 2 439 6
split_gain=0.580225 0.427204 0.188969 0.272378 0.0748968
threshold=1.0000000180025095e-35 1.0000000180025095e-35 inf 1.0000000180025095e-35 57.805000000000007
decision_type=2 2 8 2 10
left_child=1 -1 3 -2 -5
right_child=2 -3 -4 4 -6
leaf_value=0.0042602426343521958 0.0010213056486099957 0.0095392567681317989 0.00068208350909545134 0.0058345647084598355 0.0034562154444442556
leaf_weight=37 28 22 34 26 22
leaf_count=37 28 22 34 26 22
internal_value=0 0.00622869 0.00254112 0.00337279 0.00474449
internal_weight=0 59 110 76 48
internal_count=169 59 110 76 48
is_linear=0
shrinkage=0.03


Tree=50
num_leaves=6
num_cat=0
split_feature=1 289 3 436 5
split_gain=0.515288 0.397979 0.44389 0.152137 0.316738
threshold=21.500000000000004 1.0000000180025095e-35 134.25000000000003 1.0000000180025095e-35 19.405000000000005
decision_type=8 2 8 2 8
left_child=-1 2 -2 4 -3
right_child=1 3 -4 -5 -6
leaf_value=-0.00039945238638514031 0.0092858082836028179 0.0015031567225987845 0.0031105226439169858 0.00025483980242695125 0.0059862976164921471
leaf_weight=36 20 37 22 21 23
leaf_count=36 20 37 22 21 23
internal_value=0 0.00368131 0.00605113 0.00245251 0.00322169
internal_weight=0 123 42 81 60
internal_count=159 123 42 81 60
is_linear=0
shrinkage=0.03


Tree=51
num_leaves=6
num_cat=0
split_feature=5 448 4 525 6
split_gain=0.751996 0.558297 0.633889 0.338523 0.122046
threshold=1.0000000180025095e-35 1.0000000180025095e-35 0.21200000000000002 1.0000000180025095e-35 90.25500000000001
decision_type=10 2 8 2 8
left_child=1 -1 -3 4 -4
right_child=-2 2 3 -5 -6
leaf_value=-0.0008189717141558995 0.0085734637454152104 0.0067831264955124683 0.0053013155744411049 -0.00051043719894463017 0.0022329326149442097
leaf_weight=37 20 35 20 31 28
leaf_count=37 20 35 20 31 28
internal_value=0 0.002383 0.00342223 0.00193323 0.00351143
internal_weight=0 151 114 79 48
internal_count=171 151 114 79 48
is_linear=0
shrinkage=0.03


Tree=52
num_leaves=7
num_cat=0
split_feature=448 289 439 3 525 525
split_gain=0.454519 0.576454 0.299601 0.293218 0.245488 0.142765
threshold=1.0000000180025095e-35 1.0000000180025095e-35 1.0000000180025095e-35 134.25000000000003 1.0000000180025095e-35 1.0000000180025095e-35
decision_type=2 2 2 8 2 2
left_child=5 3 -3 -2 -4 -1
right_child=1 2 4 -5 -6 -7
leaf_value=-0.0015207608948860851 0.0089060422624258877 0.00020855826485369886 0.001969590487603385 0.0040029589885047503 0.0063905217256397008 0.0018662972611491568
leaf_weight=21 23 35 26 21 20 24
leaf_count=21 23 35 26 21 20 24
internal_value=0 0.00380176 0.00230024 0.00656593 0.00389173 0.00028567
internal_weight=0 125 81 44 46 45
internal_count=170 125 81 44 46 45
is_linear=0
shrinkage=0.03


Tree=53
num_leaves=7
num_cat=0
split_feature=53 35 4 525 1 525
split_gain=0.658454 0.665818 0.806429 0.434807 0.231621 0.0252996
threshold=1.0000000180025095e-35 1.0000000180025095e-35 0.27600000000000008 1.0000000180025095e-35 inf 1.0000000180025095e-35
decision_type=2 2 8 2 8 2
left_child=1 -1 3 -3 -4 -6
right_child=-2 2 4 -5 5 -7
leaf_value=0.0076003046757118263 0.0086055981824174517 0.0025455191412142343 -0.00212492024526 0.0083370854621753095 0.0020088966368981029 0.00058588325638662681
leaf_weight=22 20 28 29 20 23 22
leaf_count=22 20 28 29 20 23 22
internal_value=0 0.00279649 0.00193023 0.00495867 -3.41707e-05 0.0013132
internal_weight=0 144 122 48 74 45
internal_count=164 144 122 48 74 45
is_linear=0
shrinkage=0.03


Tree=54
num_leaves=7
num_cat=0
split_feature=290 3 4 4 525 3
split_gain=1.05147 0.324527 0.21419 0.138963 0.0626089 0.0561363
threshold=1.0000000180025095e-35 175.33000000000001 0.17550000000000002 0.27600000000000008 1.0000000180025095e-35 175.33000000000001
decision_type=2 8 8 8 2 10
left_child=1 2 -1 -4 -5 -3
right_child=-2 5 3 4 -6 -7
leaf_value=-0.0020139520574064757 0.0074665105298440072 0.0026725676101209089 0.0032838412829796254 0.0015716857253573835 -0.00077365752309560771 0.0048410530501444421
leaf_weight=22 35 22 23 20 21 21
leaf_count=22 35 22 23 20 21 21
internal_value=0 0.00160362 0.000539632 0.00141743 0.000370412 0.0037316
internal_weight=0 129 86 64 41 43
internal_count=164 129 86 64 41 43
is_linear=0
shrinkage=0.03


Tree=55
num_leaves=6
num_cat=0
split_feature=289 5 2 6 5
split_gain=0.564027 0.193044 0.151627 0.314939 0.089964
threshold=1.0000000180025095e-35 -28.649999999999995 inf 90.25500000000001 19.405000000000005
decision_type=2 10 8 8 8
left_child=1 -1 3 -2 -5
right_child=2 -3 -4 4 -6
leaf_value=0.0040152793897029297 0.005479187419017156 0.0075470758243463927 0.00048497816547751429 -6.4907263149507346e-05 0.0027464941386133434
leaf_weight=26 27 30 33 21 20
leaf_count=26 27 30 33 21 20
internal_value=0 0.00590731 0.00215356 0.00296331 0.00130651
internal_weight=0 56 101 68 41
internal_count=157 56 101 68 41
is_linear=0
shrinkage=0.03


Tree=56
num_leaves=7
num_cat=0
split_feature=448 3 4 4 439 525
split_gain=0.652152 0.645188 0.344508 0.289925 0.289227 0.167552
threshold=1.0000000180025095e-35 103.30000000000001 0.21200000000000002 1.0000000180025095e-35 1.0000000180025095e-35 1.0000000180025095e-35
decision_type=2 8 8 10 2 2
left_child=3 4 -3 -1 -2 -4
right_child=1 2 5 -5 -6 -7
leaf_value=-0.0024973648235849712 0.0042916242059852392 0.0050951896871215306 0.0024807767090415807 0.0022161364997737112 0.0090673539698123938 -0.00089869089424610138
leaf_weight=23 21 29 31 24 25 23
leaf_count=23 21 29 31 24 25 23
internal_value=0 0.00403723 0.00245777 -9.04705e-05 0.00688713 0.00104137
internal_weight=0 129 83 47 46 54
internal_count=176 129 83 47 46 54
is_linear=0
shrinkage=0.03


Tree=57
num_leaves=7
num_cat=0
split_feature=18 7 3 6 448 525
split_gain=0.5184 0.273257 0.316861 0.163197 0.143675 0.198127
threshold=1.0000000180025095e-35 4.9400000000000013 103.30000000000001 1.0000000180025095e-35 1.0000000180025095e-35 1.0000000180025095e-35
decision_type=2 8 8 10 2 2
left_child=1 -1 3 -3 -4 -6
right_child=-2 2 4 -5 5 -7
leaf_value=-0.0014510725456586277 0.006673448059175695 0.0024716779894827469 -0.00087350045912899072 0.0062582322070375085 0.0037844407284865155 8.0866719094606541e-05
leaf_weight=22 21 21 24 20 26 26
leaf_count=22 21 21 24 20 26 26
internal_value=0 0.0016164 0.0021932 0.00431878 0.0010465 0.00193265
internal_weight=0 139 117 41 76 52
internal_count=160 139 117 41 76 52
is_linear=0
shrinkage=0.03


Tree=58
num_leaves=6
num_cat=0
split_feature=5 1 289 436 4
split_gain=0.683846 0.365811 0.359109 0.265883 0.21601
threshold=-12.734999999999998 inf 1.0000000180025095e-35 1.0000000180025095e-35 1.0000000180025095e-35
decision_type=10 8 2 2 10
left_child=1 -1 -3 -2 -4
right_child=3 2 4 -5 -6
leaf_value=-0.00055070489973706356 0.0041816691935062412 0.0064290280267596239 0.003872570166630404 0.0086511080099128009 0.0002644572968711145
leaf_weight=34 25 22 28 23 32
leaf_count=34 25 22 28 23 32
internal_value=0 0.0020656 0.00315041 0.00632328 0.00194824
internal_weight=0 116 82 48 60
internal_count=164 116 82 48 60
is_linear=0
shrinkage=0.03


Tree=59
num_leaves=6
num_cat=0
split_feature=304 289 439 3 4
split_gain=0.62118 0.958061 0.318857 0.542764 0.0847531
threshold=1.0000000180025095e-35 1.0000000180025095e-35 1.0000000180025095e-35 103.30000000000001 0.27600000000000008
decision_type=2 2 2 8 8
left_child=1 -1 -3 -4 -5
right_child=-2 2 3 4 -6
leaf_value=0.0072769487136974927 -0.0026086510894820091 -0.00054064664559868669 0.0067503253031860697 0.0025188821048608848 -2.3250476390655552e-06
leaf_weight=36 20 39 22 21 28
leaf_count=36 20 39 22 21 28
internal_value=0 0.00302893 0.00163867 0.00283575 0.00107819
internal_weight=0 146 110 71 49
internal_count=166 146 110 71 49
is_linear=0
shrinkage=0.03


Tree=60
num_leaves=6
num_cat=0
split_feature=5 4 1 289 525
split_gain=1.01237 0.521555 0.546462 0.447659 0.129134
threshold=1.0000000180025095e-35 0.27600000000000008 inf 1.0000000180025095e-35 1.0000000180025095e-35
decision_type=10 8 8 2 2
left_child=1 3 -3 -1 -4
right_child=-2 2 4 -5 -6
leaf_value=0.007906124783679842 0.0082675979203648033 -0.0030615253653377295 0.0032835959425816931 0.00214928446487794 0.00072450361081532067
leaf_weight=20 27 26 36 31 35
leaf_count=20 27 26 36 31 35
internal_value=0 0.0019508 0.000659458 0.00440687 0.00202207
internal_weight=0 148 97 51 71
internal_count=175 148 97 51 71
is_linear=0
shrinkage=0.03


Tree=61
num_leaves=6
num_cat=0
split_feature=464 7 3 4 439
split_gain=0.343956 0.400335 0.235193 0.237232 0.0158865
threshold=1.0000000180025095e-35 4.9400000000000013 81.15000000000002 0.27600000000000008 1.0000000180025095e-35
decision_type=2 8 10 8 2
left_child=1 -1 -3 4 -4
right_child=-2 2 3 -5 -6
leaf_value=-0.0031033963859081267 0.0046454741143388675 0.0034672970114361548 0.0015267796568911183 -0.0011864030393897681 0.0026803635912282125
leaf_weight=20 25 37 22 37 21
leaf_count=20 25 37 22 37 21
internal_value=0 0.000818992 0.00148949 0.000574748 0.00209016
internal_weight=0 137 117 80 43
internal_count=162 137 117 80 43
is_linear=0
shrinkage=0.03


Tree=62
num_leaves=6
num_cat=0
split_feature=6 289 436 16 3
split_gain=0.265866 0.0950465 0.196981 0.111988 0.0856172
threshold=81.300000000000026 1.0000000180025095e-35 1.0000000180025095e-35 1.0000000180025095e-35 134.25000000000003
decision_type=10 2 2 2 8
left_child=1 4 3 -3 -1
right_child=-2 2 -4 -5 -6
leaf_value=0.0036340843620044842 0.0041867512134327123 -1.3829752301367429e-05 -0.002060859822202474 0.0026976254534233231 0.0010586271027568728
leaf_weight=21 33 26 20 29 26
leaf_count=21 33 26 20 29 26
internal_value=0 0.00115159 0.000488725 0.00141585 0.00220936
internal_weight=0 122 75 55 47
internal_count=155 122 75 55 47
is_linear=0
shrinkage=0.03


Tree=63
num_leaves=6
num_cat=0
split_feature=439 4 3 4 448
split_gain=0.426317 0.670708 0.295041 0.261469 0.145531
threshold=1.0000000180025095e-35 0.27600000000000008 134.25000000000003 0.12850000000000003 1.0000000180025095e-35
decision_type=2 8 10 10 2
left_child=3 2 -2 -1 -3
right_child=1 4 -4 -5 -6
leaf_value=0.001603753286628769 0.0080639158748090252 -0.00096010809075897151 0.0031302687360439448 -0.002121560669504106 0.0021485443019562144
leaf_weight=39 24 23 20 30 33
leaf_count=39 24 23 20 30 33
internal_value=0 0.00304959 0.00582135 -1.59484e-05 0.000871776
internal_weight=0 100 44 69 56
internal_count=169 100 44 69 56
is_linear=0
shrinkage=0.03


Tree=64
num_leaves=6
num_cat=0
split_feature=304 289 4 5 525
split_gain=0.464298 0.654725 0.155132 0.0914924 0.0465701
threshold=1.0000000180025095e-35 1.0000000180025095e-35 0.27600000000000008 -12.734999999999998 1.0000000180025095e-35
decision_type=2 2 8 8 2
left_child=1 -1 3 -3 -4
right_child=-2 2 4 -5 -6
leaf_value=0.0058313131425529715 -0.0025433572810953076 0.0010767296740785241 0.00093359520273475808 0.0037627737676458697 -0.00067204020690877695
leaf_weight=32 23 25 29 21 37
leaf_count=32 23 25 29 21 37
internal_value=0 0.00204686 0.000965583 0.00230297 3.34663e-05
internal_weight=0 144 112 46 66
internal_count=167 144 112 46 66
is_linear=0
shrinkage=0.03


Tree=65
num_leaves=6
num_cat=0
split_feature=18 4 525 525 3
split_gain=0.403886 0.328087 0.345476 0.261512 0.0793062
threshold=1.0000000180025095e-35 0.12850000000000003 1.0000000180025095e-35 1.0000000180025095e-35 81.15000000000002
decision_type=2 10 2 2 10
left_child=1 3 -3 4 -1
right_child=-2 2 -4 -5 -6
leaf_value=0.0029929861266698153 0.0060070139914751054 0.0013048058809516461 0.0057926915582412709 -0.0019663958922028543 0.00049221416674554341
leaf_weight=21 21 38 26 30 25
leaf_count=21 21 38 26 30 25
internal_value=0 0.00154542 0.00312801 0.000212713 0.00163387
internal_weight=0 140 64 76 46
internal_count=161 140 64 76 46
is_linear=0
shrinkage=0.03


Tree=66
num_leaves=7
num_cat=0
split_feature=464 3 448 439 4 5
split_gain=0.419256 0.261179 0.17146 0.140608 0.106295 0.185215
threshold=1.0000000180025095e-35 81.15000000000002 1.0000000180025095e-35 1.0000000180025095e-35 0.21200000000000002 -1.0000000180025095e-35
decision_type=2 10 2 2 8 8
left_child=1 3 -3 -1 -4 -6
right_child=-2 2 4 -5 5 -7
leaf_value=0.00078970414852457384 0.0053278337711734434 -0.0021412623956712194 0.0022400075644254682 0.0040901996772019908 -0.0022351855285731811 0.0017036908052184365
leaf_weight=21 21 27 25 26 21 22
leaf_count=21 21 27 25 26 21 22
internal_value=0 0.00078632 -0.000118648 0.00261551 0.000684448 -0.000219946
internal_weight=0 142 95 47 68 43
internal_count=163 142 95 47 68 43
is_linear=0
shrinkage=0.03


Tree=67
num_leaves=7
num_cat=0
split_feature=464 53 3 6 525 5
split_gain=0.249562 0.229715 0.140439 0.342147 0.171997 0.136944
threshold=1.0000000180025095e-35 1.0000000180025095e-35 81.15000000000002 81.300000000000026 1.0000000180025095e-35 -12.734999999999998
decision_type=2 2 10 10 2 8
left_child=1 2 4 5 -1 -4
right_child=-2 -3 3 -5 -6 -7
leaf_value=0.0037472808999674655 0.0042146855795552251 0.0038461866402732473 0.00015108525418959881 0.0029100169667175837 -9.2329309721078188e-05 -0.0029041470253780002
leaf_weight=21 25 21 23 21 21 31
leaf_count=21 25 21 23 21 21 31
internal_value=0 0.000957106 0.000438553 -0.000339243 0.00182748 -0.00160284
internal_weight=0 138 117 75 42 54
internal_count=163 138 117 75 42 54
is_linear=0
shrinkage=0.03


Tree=68
num_leaves=6
num_cat=0
split_feature=18 7 3 525 4
split_gain=0.507825 0.264295 0.18188 0.0910103 0.0640776
threshold=1.0000000180025095e-35 4.9400000000000013 103.30000000000001 1.0000000180025095e-35 0.12850000000000003
decision_type=2 8 8 2 10
left_child=1 -1 4 -4 -3
right_child=-2 2 3 -5 -6
leaf_value=-0.0024588767173034805 0.0057528587300330397 0.0016578479137803828 0.0013082548268986017 -0.00068217579776851036 0.004030542216729373
leaf_weight=21 20 21 44 39 20
leaf_count=21 20 21 44 39 20
internal_value=0 0.000653432 0.00118052 0.000372992 0.00281526
internal_weight=0 145 124 83 41
internal_count=165 145 124 83 41
is_linear=0
shrinkage=0.03


Tree=69
num_leaves=7
num_cat=0
split_feature=4 289 439 1 5 525
split_gain=0.33089 0.363563 0.482293 0.22758 0.0595034 0.0129258
threshold=0.27600000000000008 1.0000000180025095e-35 1.0000000180025095e-35 inf -1.0000000180025095e-35 1.0000000180025095e-35
decision_type=8 2 2 8 8 2
left_child=1 -1 -3 -2 -5 -6
right_child=3 2 -4 4 5 -7
leaf_value=0.006423906756807928 -0.0013080376395955683 -0.0015009327861480414 0.004855157976800745 0.0030129891927936111 0.00053088284230657984 0.0015834632662257977
leaf_weight=23 35 21 22 21 21 21
leaf_count=23 35 21 22 21 21 21
internal_value=0 0.00337945 0.00175102 0.000631558 0.00170911 0.00105717
internal_weight=0 66 43 98 63 42
internal_count=164 66 43 98 63 42
is_linear=0
shrinkage=0.03


Tree=70
num_leaves=6
num_cat=0
split_feature=304 290 6 436 448
split_gain=0.825635 0.976577 0.197209 0.169845 0.14037
threshold=1.0000000180025095e-35 1.0000000180025095e-35 81.300000000000026 1.0000000180025095e-35 1.0000000180025095e-35
decision_type=2 2 10 2 2
left_child=1 2 3 4 -1
right_child=-2 -3 -4 -5 -6
leaf_value=0.00047187123861577775 -0.0032735546585172413 0.008616136296477634 0.0042846210343906507 -0.00072808966631642891 0.0032858221050208578
leaf_weight=27 21 24 26 26 39
leaf_count=27 21 24 26 26 39
internal_value=0 0.00309961 0.00197761 0.00132562 0.00213466
internal_weight=0 142 118 92 66
internal_count=163 142 118 92 66
is_linear=0
shrinkage=0.03


Tree=71
num_leaves=7
num_cat=0
split_feature=289 3 6 448 436 2
split_gain=0.349949 0.262121 0.188179 0.0535039 0.0983586 0.122063
threshold=1.0000000180025095e-35 103.30000000000001 72.52000000000001 1.0000000180025095e-35 1.0000000180025095e-35 1.0000000180025095e-35
decision_type=2 8 8 2 2 8
left_child=1 -1 -2 -4 5 -5
right_child=2 -3 3 4 -6 -7
leaf_value=0.0061301979962736361 0.0029909937300676985 0.0019059383811858982 -0.001219370259075529 0.0028676839465541499 -0.0011172306161373853 -0.00040708241611719129
leaf_weight=20 22 39 27 21 25 20
leaf_count=20 22 39 27 21 25 20
internal_value=0 0.00333789 0.000495894 -9.43446e-05 0.000365893 0.00127024
internal_weight=0 59 115 93 66 41
internal_count=174 59 115 93 66 41
is_linear=0
shrinkage=0.03


Tree=72
num_leaves=7
num_cat=0
split_feature=18 7 3 439 6 3
split_gain=0.462936 0.2676 0.313541 0.349828 0.0600093 0.0503664
threshold=1.0000000180025095e-35 4.9400000000000013 103.30000000000001 1.0000000180025095e-35 90.25500000000001 134.25000000000003
decision_type=2 8 8 2 8 10
left_child=1 -1 3 -3 -4 -6
right_child=-2 2 4 -5 5 -7
leaf_value=-0.0018335514619946479 0.0058588226828724145 0.0012017103049904107 0.0016107391480069894 0.0065248727893922479 0.00075864194892346856 -0.001091312427396098
leaf_weight=25 20 25 26 20 27 26
leaf_count=25 20 25 26 20 27 26
internal_value=0 0.000997918 0.00156878 0.00356756 0.000430233 -0.000148883
internal_weight=0 149 124 45 79 53
internal_count=169 149 124 45 79 53
is_linear=0
shrinkage=0.03


Tree=73
num_leaves=6
num_cat=0
split_feature=1 289 6 6 16
split_gain=0.368673 0.505649 0.0385291 0.0253024 1.57411e-06
threshold=21.500000000000004 1.0000000180025095e-35 1.0000000180025095e-35 90.25500000000001 1.0000000180025095e-35
decision_type=8 2 10 8 2
left_child=-1 2 -2 -3 -5
right_child=1 3 -4 4 -6
leaf_value=-0.0014478225551727343 0.0035222519747912882 -0.00053084984887391334 0.0052818231736975058 0.00068107334812256423 0.00066984875937518861
leaf_weight=41 24 24 21 22 23
leaf_count=41 24 24 21 22 23
internal_value=0 0.00186932 0.00434339 0.000255793 0.000675336
internal_weight=0 114 45 69 45
internal_count=155 114 45 69 45
is_linear=0
shrinkage=0.03


Tree=74
num_leaves=7
num_cat=0
split_feature=7 3 4 5 448 525
split_gain=0.427322 0.449638 0.344221 0.110166 0.0929589 0.125559
threshold=4.9400000000000013 103.30000000000001 0.21200000000000002 -12.734999999999998 1.0000000180025095e-35 1.0000000180025095e-35
decision_type=8 8 8 10 2 2
left_child=-1 3 -3 -2 -4 -6
right_child=1 2 4 -5 5 -7
leaf_value=-0.0023304250705987214 0.00350071411539355 0.0041423702477994895 -0.0015068089073091478 0.006545110339298844 0.002120504415594041 -0.00086333020950074904
leaf_weight=20 23 27 21 20 30 22
leaf_count=20 23 27 21 20 30 22
internal_value=0 0.00235134 0.00124823 0.00491671 0.000177793 0.000858113
internal_weight=0 143 100 43 73 52
internal_count=163 143 100 43 73 52
is_linear=0
shrinkage=0.03


Tree=75
num_leaves=6
num_cat=0
split_feature=304 51 5 1 3
split_gain=0.486691 0.907414 0.261256 0.213069 0.0741687
threshold=1.0000000180025095e-35 1.0000000180025095e-35 -12.734999999999998 inf 175.33000000000001
decision_type=2 2 10 8 8
left_child=1 -1 3 -3 -5
right_child=-2 2 -4 4 -6
leaf_value=0.0071611053738384863 -0.0028010329138487577 -0.0025717834562861493 0.0031003034130359691 6.0076150111854071e-05 0.0021871143842115996
leaf_weight=26 21 21 36 36 25
leaf_count=26 21 21 36 36 25
internal_value=0 0.00208773 0.000969865 3.45506e-05 0.000931813
internal_weight=0 144 118 82 61
internal_count=165 144 118 82 61
is_linear=0
shrinkage=0.03


Tree=76
num_leaves=6
num_cat=0
split_feature=18 464 448 6 289
split_gain=0.285359 0.322739 0.337952 0.0615417 0.117746
threshold=1.0000000180025095e-35 1.0000000180025095e-35 1.0000000180025095e-35 81.300000000000026 1.0000000180025095e-35
decision_type=2 2 2 10 2
left_child=1 2 -1 4 -4
right_child=-2 -3 3 -5 -6
leaf_value=-0.0019852668752428143 0.0052129142470657827 0.0045302398301661009 0.0025648752034313099 0.0030047582968583575 0.00021428622665222395
leaf_weight=30 20 25 34 23 44
leaf_count=30 20 25 34 23 44
internal_value=0 0.00140668 0.000810579 0.00164103 0.0012389
internal_weight=0 156 131 101 78
internal_count=176 156 131 101 78
is_linear=0
shrinkage=0.03


Tree=77
num_leaves=6
num_cat=0
split_feature=3 289 4 16 3
split_gain=0.353084 0.553249 0.251831 0.125642 0.0189454
threshold=134.25000000000003 1.0000000180025095e-35 1.0000000180025095e-35 1.0000000180025095e-35 134.25000000000003
decision_type=8 2 10 2 10
left_child=1 -1 4 -3 -2
right_child=2 3 -4 -5 -6
leaf_value=0.0063687206669871153 -0.00070392295146699661 -0.00050822588361122396 0.0021649554185569288 0.0024186279976063153 -0.001963677769526839
leaf_weight=29 22 22 33 33 21
leaf_count=29 22 22 33 33 21
internal_value=0 0.00301579 0.000193684 0.00124789 -0.00131915
internal_weight=0 84 76 55 43
internal_count=160 84 76 55 43
is_linear=0
shrinkage=0.03


Tree=78
num_leaves=6
num_cat=0
split_feature=3 5 4 16 289
split_gain=0.2574 0.286034 0.247433 0.0610375 0.053352
threshold=81.15000000000002 1.0000000180025095e-35 0.21200000000000002 1.0000000180025095e-35 1.0000000180025095e-35
decision_type=10 10 8 2 2
left_child=3 2 -2 -1 -4
right_child=1 -3 4 -5 -6
leaf_value=0.0038497784699905997 0.0011977563497538751 0.0032217307575047012 -0.0029417459361255165 0.0016394816671052705 -0.0010920977742171088
leaf_weight=22 39 21 25 23 32
leaf_count=22 39 21 25 23 32
internal_value=0 5.02399e-05 -0.000643524 0.00272007 -0.00190335
internal_weight=0 117 96 45 57
internal_count=162 117 96 45 57
is_linear=0
shrinkage=0.03


Tree=79
num_leaves=5
num_cat=0
split_feature=290 0 4 6
split_gain=0.469463 0.127808 0.345495 0.0955136
threshold=1.0000000180025095e-35 1.0000000180025095e-35 0.27600000000000008 1.0000000180025095e-35
decision_type=2 10 8 10
left_child=1 2 -1 -4
right_child=-2 -3 3 -5
leaf_value=0.0033978051958944307 0.0041868513922851819 -0.0015052170787006615 0.00045124469281629072 -0.0019790840714494027
leaf_weight=33 39 25 43 22
leaf_count=33 39 25 43 22
internal_value=0 0.000409438 0.00089787 -0.000371328
internal_weight=0 123 98 65
internal_count=162 123 98 65
is_linear=0
shrinkage=0.03


Tree=80
num_leaves=7
num_cat=0
split_feature=5 6 4 3 4 525
split_gain=0.418855 0.321318 0.366101 0.132255 0.00742473 0.00334455
threshold=1.0000000180025095e-35 81.300000000000026 0.27600000000000008 81.15000000000002 0.27600000000000008 1.0000000180025095e-35
decision_type=10 8 8 10 8 2
left_child=1 4 -3 5 -1 -4
right_child=-2 2 3 -5 -6 -7
leaf_value=-0.0013924128768433418 0.0044907705051203568 0.0039876450502197257 0.0014337398453980036 -0.0014345478321072355 -0.0021901630091347864 0.0009032885039923712
leaf_weight=21 27 32 23 29 21 20
leaf_count=21 27 32 23 29 21 20
internal_value=0 0.000423359 0.00131774 0.00013111 -0.00179129 0.00118702
internal_weight=0 146 104 72 42 43
internal_count=173 146 104 72 42 43
is_linear=0
shrinkage=0.03


Tree=81
num_leaves=6
num_cat=0
split_feature=4 1 525 5 525
split_gain=0.354201 0.510365 0.341652 0.18374 0.319633
threshold=0.17550000000000002 inf 1.0000000180025095e-35 -1.0000000180025095e-35 1.0000000180025095e-35
decision_type=10 8 2 8 2
left_child=1 -1 -2 -3 -5
right_child=2 3 -4 4 -6
leaf_value=-0.0027602867891878954 0.0014907928885748753 0.00036404836552018032 0.0065704646991947471 0.0058024998297068206 0.00056233223708113654
leaf_weight=28 26 35 22 22 20
leaf_count=28 26 35 22 22 20
internal_value=0 0.000708146 0.00381898 0.00196939 0.00330718
internal_weight=0 105 48 77 42
internal_count=153 105 48 77 42
is_linear=0
shrinkage=0.03


Tree=82
num_leaves=6
num_cat=0
split_feature=3 5 302 2 525
split_gain=0.348271 0.192994 0.077129 0.0632459 0.106071
threshold=103.30000000000001 -28.649999999999995 1.0000000180025095e-35 1.0000000180025095e-35 1.0000000180025095e-35
decision_type=8 10 2 8 2
left_child=1 -1 -2 4 -4
right_child=2 -3 3 -5 -6
leaf_value=0.0013343138390220701 -0.00092108035604630053 0.0048770322821914186 0.00021447506219405551 -0.00018140406517142598 0.00282743437629607
leaf_weight=25 29 31 29 33 27
leaf_count=25 29 31 29 33 27
internal_value=0 0.00329546 0.000422566 0.000860384 0.00147429
internal_weight=0 56 118 89 56
internal_count=174 56 118 89 56
is_linear=0
shrinkage=0.03


Tree=83
num_leaves=7
num_cat=0
split_feature=5 436 4 0 3 5
split_gain=0.684383 0.249726 0.209151 0.13412 0.0583285 0.0133327
threshold=-12.734999999999998 1.0000000180025095e-35 0.27600000000000008 1.0000000180025095e-35 103.30000000000001 -28.649999999999995
decision_type=10 2 8 8 10 8
left_child=2 -2 5 4 -4 -1
right_child=1 -3 3 -5 -6 -7
leaf_value=0.0025500746791949492 0.0022627507049876906 0.0063820405097471337 -0.0026695892702264246 0.001020079952561193 -0.00059904777640476818 0.0014546565008349715
leaf_weight=20 26 27 24 27 25 20
leaf_count=20 26 27 24 27 25 20
internal_value=0 0.00436126 0.000246469 -0.000677687 -0.00161319 0.00200237
internal_weight=0 53 116 76 49 40
internal_count=169 53 116 76 49 40
is_linear=0
shrinkage=0.03


Tree=84
num_leaves=6
num_cat=0
split_feature=289 3 2 5 6
split_gain=0.236244 0.501034 0.163101 0.0945806 0.0138284
threshold=1.0000000180025095e-35 103.30000000000001 inf 19.405000000000005 57.805000000000007
decision_type=2 10 8 8 10
left_child=1 -1 3 4 -2
right_child=2 -3 -4 -5 -6
leaf_value=0.0053173802875913674 -0.00095827383200891981 -0.00039080448869255281 -0.0021709675406073703 0.0017453811155451883 0.00013167515338864178
leaf_weight=25 22 31 29 31 20
leaf_count=25 22 31 29 31 20
internal_value=0 0.00215749 -0.000267645 0.00048847 -0.000439251
internal_weight=0 56 102 73 42
internal_count=158 56 102 73 42
is_linear=0
shrinkage=0.03


Tree=85
num_leaves=7
num_cat=0
split_feature=304 289 5 4 2 6
split_gain=0.450092 1.15758 1.00953 0.15503 0.145991 0.0555054
threshold=1.0000000180025095e-35 1.0000000180025095e-35 -28.649999999999995 0.21200000000000002 inf 1.0000000180025095e-35
decision_type=2 2 10 8 8 10
left_child=1 2 -1 -3 5 -5
right_child=-2 3 -4 4 -6 -7
leaf_value=0.00088690169854089619 -0.0033844111436046658 0.0013901596464902946 0.010082778754559429 -0.0008138405765977598 -0.0027811085142625067 0.0012132738019572571
leaf_weight=21 20 38 22 31 26 20
leaf_count=21 20 38 22 31 26 20
internal_value=0 0.0013924 0.00559177 -0.000177794 -0.00095159 -1.88938e-05
internal_weight=0 158 43 115 77 51
internal_count=178 158 43 115 77 51
is_linear=0
shrinkage=0.03


Tree=86
num_leaves=7
num_cat=0
split_feature=4 35 3 439 3 16
split_gain=0.194741 0.305273 0.171687 0.140142 0.0702431 0.041499
threshold=0.21200000000000002 1.0000000180025095e-35 103.30000000000001 1.0000000180025095e-35 134.25000000000003 1.0000000180025095e-35
decision_type=8 2 10 2 10 2
left_child=4 -2 5 -4 -1 -3
right_child=1 2 3 -5 -6 -7
leaf_value=0.0014906006782419152 0.003594146379386075 0.0015129258649955902 -0.0036778026670217512 -0.00038980455316569922 0.0038363152351230381 -0.0001871067238971591
leaf_weight=27 20 28 20 28 20 24
leaf_count=27 20 28 20 28 20 24
internal_value=0 0.000210698 -0.000465992 -0.0017598 0.00248878 0.000728295
internal_weight=0 120 100 48 47 52
internal_count=167 120 100 48 47 52
is_linear=0
shrinkage=0.03


Tree=87
num_leaves=7
num_cat=0
split_feature=4 525 525 5 3 5
split_gain=0.308036 0.400027 0.32781 0.134649 0.0989119 0.000614918
threshold=0.27600000000000008 1.0000000180025095e-35 1.0000000180025095e-35 19.405000000000005 81.15000000000002 -12.734999999999998
decision_type=8 2 2 8 10 8
left_child=1 5 3 -2 -4 -1
right_child=2 -3 4 -5 -6 -7
leaf_value=8.1005891785025587e-05 0.0029978826987140067 0.0046607436745067718 -0.00068462299369275565 4.8746162976481415e-05 -0.0035151471890509127 0.00031625601276755329
leaf_weight=20 22 33 20 38 25 20
leaf_count=20 22 33 20 38 25 20
internal_value=0 0.00221575 -0.000321575 0.0011301 -0.00225714 0.000198631
internal_weight=0 73 105 60 45 40
internal_count=178 73 105 60 45 40
is_linear=0
shrinkage=0.03


Tree=88
num_leaves=5
num_cat=0
split_feature=5 289 1 439
split_gain=0.364039 0.333766 0.127829 0.193186
threshold=-12.734999999999998 1.0000000180025095e-35 inf 1.0000000180025095e-35
decision_type=10 2 8 2
left_child=2 -2 -1 -4
right_child=1 -3 3 -5
leaf_value=-0.001207323377020657 0.0059103031994891348 0.0012606869595633311 -0.00099639191188746019 0.0022413503558396598
leaf_weight=36 24 33 27 43
leaf_count=36 24 33 27 43
internal_value=0 0.00321842 0.000245395 0.000992507
internal_weight=0 57 106 70
internal_count=163 57 106 70
is_linear=0
shrinkage=0.03


Tree=89
num_leaves=6
num_cat=0
split_feature=35 4 525 1 16
split_gain=0.252273 0.484741 0.52192 0.189107 0.201026
threshold=1.0000000180025095e-35 0.21200000000000002 1.0000000180025095e-35 inf 1.0000000180025095e-35
decision_type=2 8 2 8 2
left_child=-1 2 -2 -3 -5
right_child=1 3 -4 4 -6
leaf_value=0.0040231387117611516 0.00048078970259262462 -0.0023079933337867256 0.0066306078867257937 0.0023783299960196016 -0.00094679110179034373
leaf_weight=28 27 30 23 30 36
leaf_count=28 27 30 23 30 36
internal_value=0 0.000914458 0.00330971 -0.000333066 0.000564628
internal_weight=0 146 50 96 66
internal_count=174 146 50 96 66
is_linear=0
shrinkage=0.03


Tree=90
num_leaves=6
num_cat=0
split_feature=5 4 4 1 525
split_gain=0.28551 0.228336 0.183205 0.260831 0.0764645
threshold=1.0000000180025095e-35 0.21200000000000002 0.12850000000000003 inf 1.0000000180025095e-35
decision_type=10 10 10 8 2
left_child=1 2 3 -1 -5
right_child=-2 -3 -4 4 -6
leaf_value=-0.0025374973812498725 0.0038320049821314482 -0.0025092494089039973 0.0026428404275793582 0.0018074770562532471 -0.00029756774716079232
leaf_weight=26 22 24 32 41 25
leaf_count=26 22 24 32 41 25
internal_value=0 0.000169198 0.000687607 7.52645e-06 0.00101011
internal_weight=0 148 124 92 66
internal_count=170 148 124 92 66
is_linear=0
shrinkage=0.03


Tree=91
num_leaves=7
num_cat=0
split_feature=18 4 448 3 439 3
split_gain=0.648461 0.320042 0.142887 0.120417 0.0711899 0.0681098
threshold=1.0000000180025095e-35 0.17550000000000002 1.0000000180025095e-35 103.30000000000001 1.0000000180025095e-35 134.25000000000003
decision_type=2 10 2 8 2 10
left_child=1 2 -1 -4 -5 -3
right_child=-2 5 3 4 -6 -7
leaf_value=-0.0026954605539018907 0.0056444219211963086 0.0034210505184124815 -0.0018185587137937544 0.0019014092185534537 -0.00043425126244192537 0.0010604101963690481
leaf_weight=27 22 22 25 24 23 22
leaf_count=27 22 22 25 24 23 22
internal_value=0 0.000111866 -0.000834297 -0.00013636 0.000758426 0.00224073
internal_weight=0 143 99 72 47 44
internal_count=165 143 99 72 47 44
is_linear=0
shrinkage=0.03


Tree=92
num_leaves=7
num_cat=0
split_feature=5 4 2 6 0 6
split_gain=0.431796 0.110839 0.195557 0.184241 0.0813405 0.0174887
threshold=1.0000000180025095e-35 0.17550000000000002 1.0000000180025095e-35 1.0000000180025095e-35 1.0000000180025095e-35 1.0000000180025095e-35
decision_type=10 8 8 10 10 10
left_child=1 -1 4 -4 5 -3
right_child=-2 2 3 -5 -6 -7
leaf_value=-0.0018426446774339473 0.0044705183873884379 0.00024453971534967424 0.0006590907565421528 -0.0030875615171057037 0.0030236019981517031 0.0014300110736595734
leaf_weight=22 24 24 27 21 22 21
leaf_count=22 24 24 27 21 22 21
internal_value=0 0.000108299 0.000481523 -0.00098007 0.00152863 0.00079776
internal_weight=0 137 115 48 67 45
internal_count=161 137 115 48 67 45
is_linear=0
shrinkage=0.03


Tree=93
num_leaves=6
num_cat=0
split_feature=289 3 439 4 4
split_gain=0.370202 0.315406 0.131254 0.233644 0.108274
threshold=1.0000000180025095e-35 103.30000000000001 1.0000000180025095e-35 1.0000000180025095e-35 0.12850000000000003
decision_type=2 10 2 10 10
left_child=1 -1 4 -4 -2
right_child=2 -3 3 -5 -6
leaf_value=0.0056100603053346274 0.00027360024057667364 0.00088340443765951525 -0.0010878719248134513 0.0025776003529523112 -0.0026702407179602784
leaf_weight=24 22 27 29 34 23
leaf_count=24 22 27 29 34 23
internal_value=0 0.00310771 6.42403e-06 0.000890319 -0.00123103
internal_weight=0 51 108 63 45
internal_count=159 51 108 63 45
is_linear=0
shrinkage=0.03


Tree=94
num_leaves=6
num_cat=0
split_feature=304 51 5 5 3
split_gain=0.355796 0.764102 0.297686 0.0890174 0.0741707
threshold=1.0000000180025095e-35 1.0000000180025095e-35 -12.734999999999998 -28.649999999999995 103.30000000000001
decision_type=2 2 10 8 10
left_child=1 -1 3 -3 -5
right_child=-2 2 -4 4 -6
leaf_value=0.006517055334057659 -0.0031031136866658923 0.0010230331923812628 0.0025346424547689301 -0.0021607034643356866 -0.00017135849462882163
leaf_weight=20 21 20 35 37 31
leaf_count=20 21 20 35 37 31
internal_value=0 0.00107871 0.000194431 -0.000736335 -0.0012538
internal_weight=0 143 123 88 68
internal_count=164 143 123 88 68
is_linear=0
shrinkage=0.03


Tree=95
num_leaves=6
num_cat=0
split_feature=5 7 4 3 5
split_gain=0.627618 0.267914 0.156585 0.131697 0.0914064
threshold=1.0000000180025095e-35 0.059900000000000002 0.21200000000000002 81.15000000000002 -12.734999999999998
decision_type=10 10 8 10 8
left_child=1 2 -1 -4 -5
right_child=-2 -3 3 4 -6
leaf_value=0.0028329286962616605 0.0055975943360477686 -0.002376836136728525 0.0016428100711737687 0.00077265341224847352 -0.0019483605070039628
leaf_weight=32 25 25 39 20 25
leaf_count=32 25 25 39 20 25
internal_value=0 0.000440046 0.00104713 0.000366829 -0.000739021
internal_weight=0 141 116 84 45
internal_count=166 141 116 84 45
is_linear=0
shrinkage=0.03


Tree=96
num_leaves=7
num_cat=0
split_feature=7 3 203 3 16 4
split_gain=0.437152 0.548715 0.309269 0.100706 0.0694831 0.0472284
threshold=4.9400000000000013 81.15000000000002 1.0000000180025095e-35 175.33000000000001 1.0000000180025095e-35 0.21200000000000002
decision_type=8 8 2 8 2 8
left_child=-1 -2 -3 5 -5 -4
right_child=1 2 3 4 -6 -7
leaf_value=-0.0031526761849156831 0.0056360691931078453 0.0032893041914714306 -0.0023412293342075174 -0.00037575424959262208 0.0018681274182365639 -0.00035222244978120384
leaf_weight=22 23 29 21 27 23 22
leaf_count=22 23 29 21 27 23 22
internal_value=0 0.0013857 0.000584399 -0.000259066 0.000656431 -0.0013236
internal_weight=0 145 122 93 50 43
internal_count=167 145 122 93 50 43
is_linear=0
shrinkage=0.03


Tree=97
num_leaves=7
num_cat=0
split_feature=7 5 6 5 0 16
split_gain=0.246851 0.263063 0.0960256 0.0837762 0.0922949 0.0176641
threshold=4.9400000000000013 -12.734999999999998 90.25500000000001 -28.649999999999995 1.0000000180025095e-35 1.0000000180025095e-35
decision_type=8 10 8 8 8 2
left_child=-1 3 -3 -2 5 -5
right_child=1 2 -4 4 -6 -7
leaf_value=-0.0018480926524847745 0.0021050499980337918 0.0045315281359944492 0.0018188763227637694 -0.0016182644662912935 0.0013622528949781554 -0.0003725031254413937
leaf_weight=25 20 24 23 20 24 21
leaf_count=25 20 24 23 20 24 21
internal_value=0 0.00140302 0.00320406 0.000407144 -0.000115289 -0.000980192
internal_weight=0 132 47 85 65 41
internal_count=157 132 47 85 65 41
is_linear=0
shrinkage=0.03


Tree=98
num_leaves=6
num_cat=0
split_feature=304 51 4 5 525
split_gain=0.41987 0.535122 0.114263 0.159807 0.0905053
threshold=1.0000000180025095e-35 1.0000000180025095e-35 0.17550000000000002 -12.734999999999998 1.0000000180025095e-35
decision_type=2 2 10 10 2
left_child=1 -1 3 4 -3
right_child=-2 2 -4 -5 -6
leaf_value=0.0052139191329479209 -0.0031348412660216645 0.0014101100340485572 -0.0010317478429022876 0.00344274649489671 -0.00080127075059159146
leaf_weight=27 21 36 31 20 31
leaf_count=27 21 36 31 20 31
internal_value=0 0.00140394 0.000532164 0.00108942 0.000386934
internal_weight=0 145 118 87 67
internal_count=166 145 118 87 67
is_linear=0
shrinkage=0.03


Tree=99
num_leaves=7
num_cat=0
split_feature=304 289 439 2 4 6
split_gain=0.390262 0.623477 0.101174 0.187129 0.176219 0.0211898
threshold=1.0000000180025095e-35 1.0000000180025095e-35 1.0000000180025095e-35 1.0000000180025095e-35 0.12850000000000003 1.0000000180025095e-35
decision_type=2 2 2 8 10 10
left_child=1 5 3 -3 -4 -1
right_child=-2 2 4 -5 -6 -7
leaf_value=0.0056016924817647255 -0.0026624660414527167 -0.002673489763168618 7.5936517188031414e-05 0.0013812183229518788 0.0034029650917648761 0.0042372588338912467
leaf_weight=21 20 20 38 21 23 20
leaf_count=21 20 20 38 21 23 20
internal_value=0 0.00181168 0.00055578 -0.000596688 0.00133039 0.00493612
internal_weight=0 143 102 41 61 41
internal_count=163 143 102 41 61 41
is_linear=0
shrinkage=0.03


Tree=100
num_leaves=6
num_cat=0
split_feature=289 436 439 16 5
split_gain=0.405126 0.40279 0.202837 0.281217 0.193588
threshold=1.0000000180025095e-35 1.0000000180025095e-35 1.0000000180025095e-35 1.0000000180025095e-35 -1.0000000180025095e-35
decision_type=2 2 2 2 8
left_child=1 -1 4 -4 -2
right_child=2 -3 3 -5 -6
leaf_value=0.001292349837753431 0.00038555783400725981 0.0064182984871281818 -0.0010706493897097451 0.0028699999334863744 -0.0034055472893471063
leaf_weight=37 27 22 28 39 22
leaf_count=37 27 22 28 39 22
internal_value=0 0.00320372 0.000150343 0.00122316 -0.00131657
internal_weight=0 59 116 67 49
internal_count=175 59 116 67 49
is_linear=0
shrinkage=0.03


Tree=101
num_leaves=5
num_cat=0
split_feature=3 0 5 3
split_gain=0.259388 0.269926 0.149662 0.0546773
threshold=81.15000000000002 1.0000000180025095e-35 -28.649999999999995 1.0000000180025095e-35
decision_type=10 8 10 10
left_child=3 2 -2 -1
right_child=1 -3 -4 -5
leaf_value=0.00094377162924502039 -0.0010106127596968277 -0.002823476703850099 0.0018922660954957527 0.0030143260199110952
leaf_weight=24 33 37 31 22
leaf_count=24 33 37 31 22
internal_value=0 -0.000783749 0.000395469 0.00193404
internal_weight=0 101 64 46
internal_count=147 101 64 46
is_linear=0
shrinkage=0.03


Tree=102
num_leaves=7
num_cat=0
split_feature=3 436 439 3 525 5
split_gain=0.169463 0.143235 0.13663 0.0799879 0.013836 0.00119772
threshold=103.30000000000001 1.0000000180025095e-35 1.0000000180025095e-35 175.33000000000001 1.0000000180025095e-35 -12.734999999999998
decision_type=8 2 2 8 2 8
left_child=2 3 -1 5 -5 -2
right_child=1 -3 -4 4 -6 -7
leaf_value=0.00087084194127884178 -0.0013988289306871592 0.0020964565327871712 0.0038888948493533662 9.9168925080448384e-05 0.0011535995287288512 -0.001074440337717533
leaf_weight=27 21 31 27 24 21 20
leaf_count=27 21 31 27 24 21 20
internal_value=0 0.000348133 0.00237987 -0.000282076 0.000591237 -0.00124059
internal_weight=0 117 54 86 45 41
internal_count=171 117 54 86 45 41
is_linear=0
shrinkage=0.03


Tree=103
num_leaves=6
num_cat=0
split_feature=6 5 302 2 436
split_gain=0.328901 0.207686 0.253302 0.240667 0.0866942
threshold=81.300000000000026 1.0000000180025095e-35 1.0000000180025095e-35 inf 1.0000000180025095e-35
decision_type=10 10 2 8 2
left_child=1 2 -1 4 -4
right_child=-2 -3 3 -5 -6
leaf_value=-0.0027047789723221812 0.0035101828033164621 0.0029368235006586472 0.0025990941772893578 -0.0016208505321463401 0.00028277327485669117
leaf_weight=31 31 20 33 33 26
leaf_count=31 31 20 33 33 26
internal_value=0 0.000101556 -0.000359463 0.000430806 0.00157834
internal_weight=0 143 123 92 59
internal_count=174 143 123 92 59
is_linear=0
shrinkage=0.03


Tree=104
num_leaves=5
num_cat=0
split_feature=1 7 3 4
split_gain=0.269709 0.717366 0.436295 0.108252
threshold=84.000000000000014 1.0000000180025095e-35 103.30000000000001 0.27600000000000008
decision_type=8 10 8 8
left_child=-1 2 -2 -4
right_child=1 -3 3 -5
leaf_value=0.0027823594665656293 0.0037403629806690981 -0.0047284452104941008 -0.0022057521290012767 0.0004541417722357437
leaf_weight=39 35 24 21 40
leaf_count=39 35 24 21 40
internal_value=0 -8.93759e-05 0.00107039 -0.000461559
internal_weight=0 120 96 61
internal_count=159 120 96 61
is_linear=0
shrinkage=0.03


Tree=105
num_leaves=7
num_cat=0
split_feature=7 3 51 525 3 3
split_gain=0.293147 0.329589 0.426013 0.113213 0.0756181 0.029016
threshold=4.9400000000000013 81.15000000000002 1.0000000180025095e-35 1.0000000180025095e-35 134.25000000000003 103.30000000000001
decision_type=8 8 2 2 10 10
left_child=-1 -2 -3 5 -5 -4
right_child=1 2 3 4 -6 -7
leaf_value=-0.0026957055096599185 0.0044022627860646358 0.0038193993352783413 0.001408371251891367 -0.0026733178898692127 -0.00031579219561535862 -9.9248874208165543e-05
leaf_weight=22 22 26 20 25 24 27
leaf_count=22 22 26 20 25 24 27
internal_value=0 0.00102243 0.000412952 -0.000509628 -0.00151861 0.000542292
internal_weight=0 144 122 96 49 47
internal_count=166 144 122 96 49 47
is_linear=0
shrinkage=0.03


Tree=106
num_leaves=6
num_cat=0
split_feature=289 6 436 439 16
split_gain=0.446396 0.123674 0.116983 0.0479608 0.0466832
threshold=1.0000000180025095e-35 81.300000000000026 1.0000000180025095e-35 1.0000000180025095e-35 1.0000000180025095e-35
decision_type=2 10 2 2 2
left_child=2 3 -1 -2 -5
right_child=1 -3 -4 4 -6
leaf_value=0.001705598939054956 -0.0017766708510650975 0.0015171730259190435 0.0044446136996797898 -0.001179148870488179 0.00060954108252190056
leaf_weight=36 37 23 23 29 24
leaf_count=36 37 23 23 29 24
internal_value=0 -0.00044609 0.00277335 -0.000947813 -0.000369176
internal_weight=0 113 59 90 53
internal_count=172 113 59 90 53
is_linear=0
shrinkage=0.03


Tree=107
num_leaves=6
num_cat=0
split_feature=289 3 5 3 3
split_gain=0.276004 0.35085 0.273108 0.114634 0.0357019
threshold=1.0000000180025095e-35 103.30000000000001 -1.0000000180025095e-35 103.30000000000001 134.25000000000003
decision_type=2 10 8 10 8
left_child=1 -1 3 -2 -4
right_child=2 -3 4 -5 -6
leaf_value=0.0044904832852383451 0.0026798301036469636 -0.00022337812697514889 -0.0030794427857141603 -0.00012614911029997625 -0.0014767824627202133
leaf_weight=27 20 30 22 38 29
leaf_count=27 20 30 22 38 29
internal_value=0 0.0020095 -0.000566711 0.00084143 -0.00216813
internal_weight=0 57 109 58 51
internal_count=166 57 109 58 51
is_linear=0
shrinkage=0.03


Tree=108
num_leaves=6
num_cat=0
split_feature=18 1 16 289 6
split_gain=0.315077 0.180401 0.336338 0.137206 0.083398
threshold=1.0000000180025095e-35 21.500000000000004 1.0000000180025095e-35 1.0000000180025095e-35 57.805000000000007
decision_type=2 8 2 2 10
left_child=1 -1 -3 -4 -5
right_child=-2 2 3 4 -6
leaf_value=-0.0020062210841902662 0.0038831301117315891 0.0033610667060646744 0.0010723474175380221 -0.003018971619196236 -0.00044219712341705768
leaf_weight=35 20 27 29 20 26
leaf_count=35 20 27 29 20 26
internal_value=0 -0.000147791 0.000489905 -0.000543713 -0.00156253
internal_weight=0 137 102 75 46
internal_count=157 137 102 75 46
is_linear=0
shrinkage=0.03


Tree=109
num_leaves=6
num_cat=0
split_feature=1 3 7 3 6
split_gain=0.272995 0.177125 0.237505 0.224619 0.00775474
threshold=1.0000000180025095e-35 134.25000000000003 18.840000000000003 103.30000000000001 81.300000000000026
decision_type=10 10 8 8 8
left_child=1 2 -1 -4 -3
right_child=-2 4 3 -5 -6
leaf_value=-0.00080874535388180183 -0.002391265408897942 0.00014049297873862087 0.0046755096628476166 0.0012431493261829019 -0.00064525303072654288
leaf_weight=21 22 20 32 37 26
leaf_count=21 22 20 32 37 26
internal_value=0 0.00121075 0.00198477 0.00283497 -0.000303624
internal_weight=0 136 90 69 46
internal_count=158 136 90 69 46
is_linear=0
shrinkage=0.03


Tree=110
num_leaves=5
num_cat=0
split_feature=5 3 0 6
split_gain=0.269146 0.278883 0.233245 0.143116
threshold=inf 103.30000000000001 1.0000000180025095e-35 57.805000000000007
decision_type=8 10 8 10
left_child=1 -1 -2 -3
right_child=2 3 -4 -5
leaf_value=0.0039750338600654349 -0.0022979825420770795 -0.00077754451893270011 0.001831914852373302 0.0021066608393448404
leaf_weight=38 32 30 20 32
leaf_count=38 32 30 20 32
internal_value=0 0.00195138 -0.00070956 0.000711078
internal_weight=0 100 52 62
internal_count=152 100 52 62
is_linear=0
shrinkage=0.03


Tree=111
num_leaves=6
num_cat=0
split_feature=35 6 6 2 5
split_gain=0.463314 0.0896701 0.118372 0.208575 0.0145322
threshold=1.0000000180025095e-35 81.300000000000026 72.52000000000001 1.0000000180025095e-35 -12.734999999999998
decision_type=2 10 8 8 10
left_child=-1 2 -2 4 -4
right_child=1 -3 3 -5 -6
leaf_value=0.0045558903933219288 0.0013808023902587593 0.0014997819935282071 -0.00158666304019945 0.0012620252184569836 -0.0025574036671415618
leaf_weight=23 25 27 35 26 23
leaf_count=23 25 27 35 26 23
internal_value=0 -4.79902e-05 -0.000431383 -0.000970724 -0.00197161
internal_weight=0 136 109 84 58
internal_count=159 136 109 84 58
is_linear=0
shrinkage=0.03


Tree=112
num_leaves=7
num_cat=0
split_feature=5 0 289 439 4 16
split_gain=0.291309 0.214637 0.108563 0.121761 0.0926563 0.0770054
threshold=1.0000000180025095e-35 1.0000000180025095e-35 1.0000000180025095e-35 1.0000000180025095e-35 0.27600000000000008 1.0000000180025095e-35
decision_type=10 10 2 2 8 2
left_child=1 2 -1 -4 -3 -5
right_child=-2 4 3 5 -6 -7
leaf_value=0.00060659882426261906 0.0036402184077139409 0.0031065142527222631 -0.0030854344078605728 -0.0019047737130895258 0.00036695935428142547 0.00064051637061588145
leaf_weight=30 21 20 28 20 25 23
leaf_count=30 21 20 28 20 25 23
internal_value=0 -0.000138723 -0.000906513 -0.00154586 0.00158454 -0.000543339
internal_weight=0 146 101 71 45 43
internal_count=167 146 101 71 45 43
is_linear=0
shrinkage=0.03


Tree=113
num_leaves=6
num_cat=0
split_feature=439 16 448 525 5
split_gain=0.187151 0.380177 0.0748178 0.119732 0.0456499
threshold=1.0000000180025095e-35 1.0000000180025095e-35 1.0000000180025095e-35 1.0000000180025095e-35 -28.649999999999995
decision_type=2 2 2 2 10
left_child=1 -1 -2 -4 -3
right_child=2 4 3 -5 -6
leaf_value=0.0022749735903926194 -0.00010109009745065122 -0.0013003735723240034 0.00078508482862483045 0.0036254254703155971 -0.0031653371370500985
leaf_weight=24 24 21 34 22 27
leaf_count=24 24 21 34 22 27
internal_value=0 -0.000807953 0.00130033 0.00190093 -0.00234942
internal_weight=0 72 80 56 48
internal_count=152 72 80 56 48
is_linear=0
shrinkage=0.03


Tree=114
num_leaves=6
num_cat=0
split_feature=6 3 51 439 6
split_gain=0.237252 0.158342 0.157104 0.198195 0.0692224
threshold=81.300000000000026 1.0000000180025095e-35 1.0000000180025095e-35 1.0000000180025095e-35 1.0000000180025095e-35
decision_type=10 10 2 2 10
left_child=1 -1 -3 -4 -5
right_child=-2 2 3 4 -6
leaf_value=0.0021451699627297264 0.0026805166798012873 0.0012851021625101566 -0.0031057203656939024 -0.0012512419105041772 0.0010272841295227407
leaf_weight=21 31 27 34 24 24
leaf_count=21 31 27 34 24 24
internal_value=0 -0.000240178 -0.000699741 -0.00135329 -0.000111979
internal_weight=0 130 109 82 48
internal_count=161 130 109 82 48
is_linear=0
shrinkage=0.03


Tree=115
num_leaves=7
num_cat=0
split_feature=448 290 5 3 4 3
split_gain=0.333491 0.173935 0.267537 0.0919374 0.0468396 1.25891e-05
threshold=1.0000000180025095e-35 1.0000000180025095e-35 19.405000000000005 103.30000000000001 1.0000000180025095e-35 81.15000000000002
decision_type=2 2 8 10 10 10
left_child=4 2 3 -2 -1 -4
right_child=1 -3 5 -5 -6 -7
leaf_value=-0.0031399352425201372 -0.0026356878288788721 0.0027592760002748532 0.0019203330301072288 -9.7962259314954267e-06 -0.0011591329252613441 0.001952877248637378
leaf_weight=22 24 33 23 24 21 20
leaf_count=22 24 33 23 24 21 20
internal_value=0 0.000893465 0.000216853 -0.00132274 -0.00217257 0.00193547
internal_weight=0 124 91 48 43 43
internal_count=167 124 91 48 43 43
is_linear=0
shrinkage=0.03


Tree=116
num_leaves=6
num_cat=0
split_feature=304 3 7 5 3
split_gain=0.416097 0.173535 0.0877742 0.212562 0.0791252
threshold=1.0000000180025095e-35 81.15000000000002 0.059900000000000002 -1.0000000180025095e-35 81.15000000000002
decision_type=2 8 10 8 10
left_child=1 -1 3 -3 -5
right_child=-2 2 -4 4 -6
leaf_value=0.0030729165237396955 -0.0038177332822233435 0.0023043222012763312 -0.001437518253390278 0.0007426125614438206 -0.0015684375409036875
leaf_weight=25 20 42 21 24 30
leaf_count=25 20 42 21 24 30
internal_value=0 0.000804128 0.000319344 0.000703657 -0.000541304
internal_weight=0 142 117 96 54
internal_count=162 142 117 96 54
is_linear=0
shrinkage=0.03


Tree=117
num_leaves=6
num_cat=0
split_feature=304 289 5 6 5
split_gain=0.430862 0.323135 0.388653 0.190974 0.106518
threshold=1.0000000180025095e-35 1.0000000180025095e-35 -28.649999999999995 90.25500000000001 -1.0000000180025095e-35
decision_type=2 2 10 8 8
left_child=1 2 -1 -3 -5
right_child=-2 3 -4 4 -6
leaf_value=0.00080373113124590858 -0.0033120611230177538 0.0019489701903657986 0.0065219065267592665 0.00097850962675043521 -0.0016837873530427092
leaf_weight=23 21 40 20 21 38
leaf_count=23 21 40 20 21 38
internal_value=0 0.00129188 0.00346335 0.000348723 -0.00073619
internal_weight=0 142 43 99 59
internal_count=163 142 43 99 59
is_linear=0
shrinkage=0.03


Tree=118
num_leaves=6
num_cat=0
split_feature=18 302 4 5 6
split_gain=0.37675 0.220744 0.172152 0.297595 0.0764561
threshold=1.0000000180025095e-35 1.0000000180025095e-35 0.12850000000000003 -12.734999999999998 1.0000000180025095e-35
decision_type=2 2 10 10 10
left_child=1 -1 4 -4 -3
right_child=-2 2 3 -5 -6
leaf_value=-0.0019288983105404955 0.0044610223090276119 0.00050003101738790672 -0.00022355888970196244 0.0045518802563943288 -0.0017777080128767659
leaf_weight=37 20 36 24 23 21
leaf_count=37 20 36 24 23 21
internal_value=0 6.11904e-05 0.000769203 0.00211336 -0.000339136
internal_weight=0 141 104 47 57
internal_count=161 141 104 47 57
is_linear=0
shrinkage=0.03


Tree=119
num_leaves=6
num_cat=0
split_feature=53 6 3 525 3
split_gain=0.103835 0.146379 0.124506 0.0354897 0.0160123
threshold=1.0000000180025095e-35 81.300000000000026 175.33000000000001 1.0000000180025095e-35 103.30000000000001
decision_type=2 10 8 2 10
left_child=1 2 3 4 -1
right_child=-2 -3 -4 -5 -6
leaf_value=-0.0012142048138193784 0.0022105187181891365 0.0018566670697182416 0.00089291277782697432 -0.0019322896006462328 -1.3745083473622799e-05
leaf_weight=20 22 30 38 34 20
leaf_count=20 22 30 38 34 20
internal_value=0 -4.40948e-06 -0.000502912 -0.00121969 -0.000613975
internal_weight=0 142 112 74 40
internal_count=164 142 112 74 40
is_linear=0
shrinkage=0.03


Tree=120
num_leaves=6
num_cat=0
split_feature=304 3 2 525 6
split_gain=0.226506 0.217108 0.0913435 0.102547 0.0876806
threshold=1.0000000180025095e-35 103.30000000000001 1.0000000180025095e-35 1.0000000180025095e-35 1.0000000180025095e-35
decision_type=2 8 8 2 10
left_child=1 4 3 -3 -1
right_child=-2 2 -4 -5 -6
leaf_value=0.00065565032715147195 -0.0030801404201026474 -0.0010386369710848216 -0.0018967074645502913 0.0015161376005898299 0.0033340575114231218
leaf_weight=22 21 31 31 26 22
leaf_count=22 21 31 31 26 22
internal_value=0 0.000274223 -0.000586092 0.000126699 0.00199485
internal_weight=0 132 88 57 44
internal_count=153 132 88 57 44
is_linear=0
shrinkage=0.03


Tree=121
num_leaves=6
num_cat=0
split_feature=18 448 525 3 4
split_gain=0.32998 0.174453 0.163818 0.418768 0.0746189
threshold=1.0000000180025095e-35 1.0000000180025095e-35 1.0000000180025095e-35 134.25000000000003 0.27600000000000008
decision_type=2 2 2 8 8
left_child=1 -1 4 -4 -3
right_child=-2 2 3 -5 -6
leaf_value=-0.0013665717810924564 0.0045004507659801409 -0.001042764929256269 0.0053865665116940029 -0.00061143324617296459 0.0010350307460342135
leaf_weight=35 21 28 22 20 35
leaf_count=35 21 28 22 20 35
internal_value=0 0.000467675 0.00107909 0.00253038 0.000111566
internal_weight=0 140 105 42 63
internal_count=161 140 105 42 63
is_linear=0
shrinkage=0.03


Tree=122
num_leaves=6
num_cat=0
split_feature=304 51 5 4 5
split_gain=0.778912 0.670561 0.169561 0.0457578 0.0837668
threshold=1.0000000180025095e-35 1.0000000180025095e-35 1.0000000180025095e-35 0.17550000000000002 -1.0000000180025095e-35
decision_type=2 2 10 10 8
left_child=1 -1 3 4 -3
right_child=-2 2 -4 -5 -6
leaf_value=0.0057034401086947092 -0.0049725296390242873 -0.0019145161461912924 0.0027234808507968079 0.00085225512381069933 0.00027092998259161646
leaf_weight=26 20 27 22 26 38
leaf_count=26 20 27 22 26 38
internal_value=0 0.00135948 0.000359988 -0.000211406 -0.000636871
internal_weight=0 139 113 91 65
internal_count=159 139 113 91 65
is_linear=0
shrinkage=0.03


Tree=123
num_leaves=6
num_cat=0
split_feature=304 289 5 16 5
split_gain=0.269753 0.848077 0.082453 0.161275 0.109849
threshold=1.0000000180025095e-35 1.0000000180025095e-35 19.405000000000005 1.0000000180025095e-35 -12.734999999999998
decision_type=2 2 8 2 10
left_child=1 -1 4 -4 -3
right_child=-2 2 3 -5 -6
leaf_value=0.0052184189735756566 -0.0024176660692319277 9.1630700044333932e-05 -0.00067734291660599406 0.0028280279998268397 -0.0025657574509802676
leaf_weight=36 21 42 27 21 21
leaf_count=36 21 42 27 21 21
internal_value=0 0.00121722 -8.04693e-05 0.000856257 -0.000794165
internal_weight=0 147 111 48 63
internal_count=168 147 111 48 63
is_linear=0
shrinkage=0.03


Tree=124
num_leaves=6
num_cat=0
split_feature=7 3 6 3 3
split_gain=0.148857 0.159224 0.133368 0.0876868 0.0807832
threshold=4.9400000000000013 81.15000000000002 90.25500000000001 134.25000000000003 134.25000000000003
decision_type=8 10 8 10 10
left_child=-1 -2 4 -4 -3
right_child=1 2 3 -5 -6
leaf_value=-0.0013572754959750456 0.0027657330436518463 -0.0020225331805912511 0.0029474877991268167 0.00040454961216220491 0.00055102832736852374
leaf_weight=24 41 21 23 26 23
leaf_count=24 41 21 23 26 23
internal_value=0 0.00120825 0.000521623 0.00159817 -0.000677262
internal_weight=0 134 93 49 44
internal_count=158 134 93 49 44
is_linear=0
shrinkage=0.03


Tree=125
num_leaves=6
num_cat=0
split_feature=5 4 525 3 6
split_gain=0.313958 0.246495 0.448077 0.193896 0.0898648
threshold=1.0000000180025095e-35 0.21200000000000002 1.0000000180025095e-35 81.15000000000002 81.300000000000026
decision_type=10 8 2 10 8
left_child=1 2 -1 -3 -5
right_child=-2 3 -4 4 -6
leaf_value=-0.00019916786953968848 0.0044558272161521022 0.0014501130692025817 0.0059406099273764989 -0.0028185874647460875 -0.00033417758250020834
leaf_weight=23 24 44 20 20 38
leaf_count=23 24 44 20 20 38
internal_value=0 0.000751488 0.00265654 -5.16228e-05 -0.00119087
internal_weight=0 145 43 102 58
internal_count=169 145 43 102 58
is_linear=0
shrinkage=0.03


Tree=126
num_leaves=6
num_cat=0
split_feature=7 35 51 5 4
split_gain=0.0933681 0.114869 0.0673295 0.0866522 0.0273755
threshold=1.0000000180025095e-35 1.0000000180025095e-35 1.0000000180025095e-35 -12.734999999999998 0.27600000000000008
decision_type=10 2 2 10 8
left_child=1 -1 -3 4 -4
right_child=-2 2 3 -5 -6
leaf_value=-0.0018983139705669601 -0.0016501764636486769 0.001942325521633029 0.0016574585060589015 -0.0014063258665492353 0.00033227662952180871
leaf_weight=20 30 25 20 23 47
leaf_count=20 30 25 20 23 47
internal_value=0 0.000200093 0.000565033 0.000182452 0.000727853
internal_weight=0 135 115 90 67
internal_count=165 135 115 90 67
is_linear=0
shrinkage=0.03


Tree=127
num_leaves=6
num_cat=0
split_feature=18 4 439 525 3
split_gain=0.326757 0.112204 0.22094 0.180769 0.0668246
threshold=1.0000000180025095e-35 0.27600000000000008 1.0000000180025095e-35 1.0000000180025095e-35 81.15000000000002
decision_type=2 8 2 2 10
left_child=1 2 -1 4 -3
right_child=-2 3 -4 -5 -6
leaf_value=-0.00074856247486812728 0.0039628240306046787 0.0016826968613479819 0.0029004872264340518 -0.0020147459509854133 -0.00049968925243972439
leaf_weight=28 24 28 32 39 23
leaf_count=28 24 28 32 39 23
internal_value=0 0.000192689 0.0011976 -0.000477249 0.000698484
internal_weight=0 150 60 90 51
internal_count=174 150 60 90 51
is_linear=0
shrinkage=0.03


Tree=128
num_leaves=6
num_cat=0
split_feature=6 289 3 439 16
split_gain=0.277254 0.151717 0.436092 0.180347 0.311381
threshold=81.300000000000026 1.0000000180025095e-35 134.25000000000003 1.0000000180025095e-35 1.0000000180025095e-35
decision_type=10 2 10 2 2
left_child=1 2 -1 -3 -5
right_child=-2 3 -4 4 -6
leaf_value=0.0036025618794606998 0.0025501816698483056 -0.0026651685945689677 -0.0023407888915389775 -0.0025275201101745055 0.0023661519024521108
leaf_weight=25 35 40 20 22 25
leaf_count=25 35 40 20 22 25
internal_value=0 -0.000453107 0.000961073 -0.00118458 7.54969e-05
internal_weight=0 132 45 87 47
internal_count=167 132 45 87 47
is_linear=0
shrinkage=0.03


end of trees

feature_importances:
feature3=98
feature5=97
feature4=78
feature6=49
feature289=49
feature525=44
feature439=37
feature448=30
feature1=25
feature290=21
feature16=20
feature2=18
feature436=16
feature7=14
feature304=14
feature18=10
feature0=9
feature35=8
feature51=8
feature53=5
feature464=4
feature302=3
feature386=3
feature203=1

parameters:
[boosting: gbdt]
[objective: regression]
[metric: rmse]
[tree_learner: serial]
[device_type: cpu]
[data: ]
[valid: ]
[num_iterations: 2000]
[learning_rate: 0.03]
[num_leaves: 12]
[num_threads: 12]
[deterministic: 0]
[force_col_wise: 0]
[force_row_wise: 0]
[histogram_pool_size: -1]
[max_depth: 5]
[min_data_in_leaf: 20]
[min_sum_hessian_in_leaf: 0.001]
[bagging_fraction: 0.7]
[pos_bagging_fraction: 1]
[neg_bagging_fraction: 1]
[bagging_freq: 1]
[bagging_seed: 400]
[feature_fraction: 0.7]
[feature_fraction_bynode: 1]
[feature_fraction_seed: 30056]
[extra_trees: 0]
[extra_seed: 12879]
[early_stopping_round: 300]
[first_metric_only: 0]
[max_delta_step: 0]
[lambda_l1: 0]
[lambda_l2: 0]
[linear_lambda: 0]
[min_gain_to_split: 0]
[drop_rate: 0.1]
[max_drop: 50]
[skip_drop: 0.5]
[xgboost_dart_mode: 0]
[uniform_drop: 0]
[drop_seed: 17869]
[top_rate: 0.2]
[other_rate: 0.1]
[min_data_per_group: 100]
[max_cat_threshold: 32]
[cat_l2: 10]
[cat_smooth: 10]
[max_cat_to_onehot: 4]
[top_k: 20]
[monotone_constraints: ]
[monotone_constraints_method: basic]
[monotone_penalty: 0]
[feature_contri: ]
[forcedsplits_filename: ]
[refit_decay_rate: 0.9]
[cegb_tradeoff: 1]
[cegb_penalty_split: 0]
[cegb_penalty_feature_lazy: ]
[cegb_penalty_feature_coupled: ]
[path_smooth: 0]
[interaction_constraints: ]
[verbosity: -1]
[saved_feature_importance_type: 0]
[linear_tree: 0]
[max_bin: 7]
[max_bin_by_feature: ]
[min_data_in_bin: 3]
[bin_construct_sample_cnt: 200000]
[data_random_seed: 175]
[is_enable_sparse: 1]
[enable_bundle: 1]
[use_missing: 1]
[zero_as_missing: 0]
[feature_pre_filter: 1]
[pre_partition: 0]
[two_round: 0]
[header: 0]
[label_column: ]
[weight_column: ]
[group_column: ]
[ignore_column: ]
[categorical_feature: ]
[forcedbins_filename: ]
[precise_float_parser: 0]
[objective_seed: 16083]
[num_class: 1]
[is_unbalance: 0]
[scale_pos_weight: 1]
[sigmoid: 1]
[boost_from_average: 0]
[reg_sqrt: 0]
[alpha: 0.9]
[fair_c: 1]
[poisson_max_delta_step: 0.7]
[tweedie_variance_power: 1.5]
[lambdarank_truncation_level: 30]
[lambdarank_norm: 1]
[label_gain: ]
[eval_at: ]
[multi_error_top_k: 1]
[auc_mu_weights: ]
[num_machines: 1]
[local_listen_port: 12400]
[time_out: 120]
[machine_list_filename: ]
[machines: ]
[gpu_platform_id: -1]
[gpu_device_id: -1]
[gpu_use_dp: 0]
[num_gpu: 1]

end of parameters

pandas_categorical:[]
