tree
version=v3
num_class=1
num_tree_per_iteration=1
label_index=0
max_feature_idx=525
objective=regression
feature_names=feature0 feature1 feature2 feature3 feature4 feature5 feature6 feature7 feature8 feature9 feature10 feature11 feature12 feature13 feature14 feature15 feature16 feature17 feature18 feature19 feature20 feature21 feature22 feature23 feature24 feature25 feature26 feature27 feature28 feature29 feature30 feature31 feature32 feature33 feature34 feature35 feature36 feature37 feature38 feature39 feature40 feature41 feature42 feature43 feature44 feature45 feature46 feature47 feature48 feature49 feature50 feature51 feature52 feature53 feature54 feature55 feature56 feature57 feature58 feature59 feature60 feature61 feature62 feature63 feature64 feature65 feature66 feature67 feature68 feature69 feature70 feature71 feature72 feature73 feature74 feature75 feature76 feature77 feature78 feature79 feature80 feature81 feature82 feature83 feature84 feature85 feature86 feature87 feature88 feature89 feature90 feature91 feature92 feature93 feature94 feature95 feature96 feature97 feature98 feature99 feature100 feature101 feature102 feature103 feature104 feature105 feature106 feature107 feature108 feature109 feature110 feature111 feature112 feature113 feature114 feature115 feature116 feature117 feature118 feature119 feature120 feature121 feature122 feature123 feature124 feature125 feature126 feature127 feature128 feature129 feature130 feature131 feature132 feature133 feature134 feature135 feature136 feature137 feature138 feature139 feature140 feature141 feature142 feature143 feature144 feature145 feature146 feature147 feature148 feature149 feature150 feature151 feature152 feature153 feature154 feature155 feature156 feature157 feature158 feature159 feature160 feature161 feature162 feature163 feature164 feature165 feature166 feature167 feature168 feature169 feature170 feature171 feature172 feature173 feature174 feature175 feature176 feature177 feature178 feature179 feature180 feature181 feature182 feature183 feature184 feature185 feature186 feature187 feature188 feature189 feature190 feature191 feature192 feature193 feature194 feature195 feature196 feature197 feature198 feature199 feature200 feature201 feature202 feature203 feature204 feature205 feature206 feature207 feature208 feature209 feature210 feature211 feature212 feature213 feature214 feature215 feature216 feature217 feature218 feature219 feature220 feature221 feature222 feature223 feature224 feature225 feature226 feature227 feature228 feature229 feature230 feature231 feature232 feature233 feature234 feature235 feature236 feature237 feature238 feature239 feature240 feature241 feature242 feature243 feature244 feature245 feature246 feature247 feature248 feature249 feature250 feature251 feature252 feature253 feature254 feature255 feature256 feature257 feature258 feature259 feature260 feature261 feature262 feature263 feature264 feature265 feature266 feature267 feature268 feature269 feature270 feature271 feature272 feature273 feature274 feature275 feature276 feature277 feature278 feature279 feature280 feature281 feature282 feature283 feature284 feature285 feature286 feature287 feature288 feature289 feature290 feature291 feature292 feature293 feature294 feature295 feature296 feature297 feature298 feature299 feature300 feature301 feature302 feature303 feature304 feature305 feature306 feature307 feature308 feature309 feature310 feature311 feature312 feature313 feature314 feature315 feature316 feature317 feature318 feature319 feature320 feature321 feature322 feature323 feature324 feature325 feature326 feature327 feature328 feature329 feature330 feature331 feature332 feature333 feature334 feature335 feature336 feature337 feature338 feature339 feature340 feature341 feature342 feature343 feature344 feature345 feature346 feature347 feature348 feature349 feature350 feature351 feature352 feature353 feature354 feature355 feature356 feature357 feature358 feature359 feature360 feature361 feature362 feature363 feature364 feature365 feature366 feature367 feature368 feature369 feature370 feature371 feature372 feature373 feature374 feature375 feature376 feature377 feature378 feature379 feature380 feature381 feature382 feature383 feature384 feature385 feature386 feature387 feature388 feature389 feature390 feature391 feature392 feature393 feature394 feature395 feature396 feature397 feature398 feature399 feature400 feature401 feature402 feature403 feature404 feature405 feature406 feature407 feature408 feature409 feature410 feature411 feature412 feature413 feature414 feature415 feature416 feature417 feature418 feature419 feature420 feature421 feature422 feature423 feature424 feature425 feature426 feature427 feature428 feature429 feature430 feature431 feature432 feature433 feature434 feature435 feature436 feature437 feature438 feature439 feature440 feature441 feature442 feature443 feature444 feature445 feature446 feature447 feature448 feature449 feature450 feature451 feature452 feature453 feature454 feature455 feature456 feature457 feature458 feature459 feature460 feature461 feature462 feature463 feature464 feature465 feature466 feature467 feature468 feature469 feature470 feature471 feature472 feature473 feature474 feature475 feature476 feature477 feature478 feature479 feature480 feature481 feature482 feature483 feature484 feature485 feature486 feature487 feature488 feature489 feature490 feature491 feature492 feature493 feature494 feature495 feature496 feature497 feature498 feature499 feature500 feature501 feature502 feature503 feature504 feature505 feature506 feature507 feature508 feature509 feature510 feature511 feature512 feature513 feature514 feature515 feature516 feature517 feature518 feature519 feature520 feature521 feature522 feature523 feature524 feature525
feature_infos=[0:1] [0:100] [0:1] [4.7300000000000004:3170] [0.024:0.83999999999999997] [-64.299999999999997:48.450000000000003] [0.46600000000000003:99.799999999999997] [0.032300000000000002:78.299999999999997] none none none none none none [0:1] none [0:1] none [0:1] none none none none none none none none none none none none none none none none [0:1] none none none none none none none none none none none none none none none [0:1] none [0:1] none none none none none none none none none none none none none none none none none none none none none none none none none none none none none none none none none none none none none none none none none none none none none none none none none none none none none none none none none none none none none none none none none none none none none none none none none none none none none none none none none none none none none none none none none none none none none none none none none none none none none none none none none none none none none none none none none none none none none none none none none none none none none none none none none none none none none none none none none none none none none none none none none none none none none [0:1] none none none none none none none none none none none none none none none none none none none none none none none none none none none none none none none none none none none none none none none none none none none none none none none none none none none none none none none none none none none none none none none none none none none none none none none none none none none none none none none none none none none none none [0:1] [0:1] none none none none none none none none none none none [0:1] none [0:1] none none none none none none none none none none none none none none none none none none none none none none none none none none none none none none none none none none none none none none none none none none none none none none none none none none none none none none none none none none none none none none none none none none none none none none none none none none none none none none none none none [0:1] none none none none none none none none none none none none none none none none none none none none none none none none none none none none none none none none none none none none none none none none none none none none none none none none none [0:1] none none [0:1] none none none none none [0:1] none none [0:1] none none none none none none none none none none none none none none none [0:1] none [0:1] none none none none none none none none none none none none none none none none none none none none none none none none none none none none none none none none none none none none none none none none none none none none none none none none none none none none none none none none none [0:1] [0:1]
tree_sizes=645 657 712 654 654 736 655 633 651 653 661 641 645 637 648 651 738 663 733 659 652 647 730 749 584 620 660 654 667 748 649 573 638 638 556 827 655 654 571 745 664 636 652 751 655 650 665 754 730 662 645 673 747 641 660 666 747 671 651 667 750 746 580 669 671 656 663 583 750 680 665 657 672 582 749 647 674 749 664 589

Tree=0
num_leaves=6
num_cat=0
split_feature=289 4 4 5 3
split_gain=4.94458 1.15514 1.09203 0.341448 0.267108
threshold=1.0000000180025095e-35 0.27600000000000008 1.0000000180025095e-35 -14.694999999999999 81.15000000000002
decision_type=2 8 10 8 10
left_child=2 3 -1 -2 -3
right_child=1 4 -4 -5 -6
leaf_value=0.017463013455271723 0.011527590528130531 0.0098394235353916875 0.026422039300203322 0.017004691043070386 0.005868528690789976
leaf_weight=24 20 30 25 21 31
leaf_count=24 20 30 25 21 31
internal_value=0 0.0104388 0.0220339 0.0143329 0.00782143
internal_weight=0 102 49 41 61
internal_count=151 102 49 41 61
is_linear=0
shrinkage=0.03


Tree=1
num_leaves=6
num_cat=0
split_feature=289 3 436 448 16
split_gain=5.22014 0.783753 0.494768 0.552506 0.528005
threshold=1.0000000180025095e-35 137.85000000000002 1.0000000180025095e-35 1.0000000180025095e-35 1.0000000180025095e-35
decision_type=2 8 2 2 2
left_child=1 -1 3 -2 -5
right_child=2 -3 -4 4 -6
leaf_value=0.024863163181420029 0.0082925200428475027 0.017826443623219217 0.0064722286026924845 0.010262861488200723 0.016492500593885778
leaf_weight=29 33 28 25 25 24
leaf_count=29 33 28 25 25 24
internal_value=0 0.0214065 0.0101668 0.0112932 0.0133141
internal_weight=0 57 107 82 49
internal_count=164 57 107 82 49
is_linear=0
shrinkage=0.03


Tree=2
num_leaves=7
num_cat=0
split_feature=289 304 3 1 439 3
split_gain=4.56379 1.45252 1.25557 0.697636 0.452443 0.147851
threshold=1.0000000180025095e-35 1.0000000180025095e-35 137.85000000000002 inf 1.0000000180025095e-35 105.28500000000001
decision_type=2 2 8 8 2 10
left_child=1 2 -1 -2 -5 -6
right_child=3 -3 -4 4 5 -7
leaf_value=0.028718247115612029 0.0056161515950225293 0.013938120621341196 0.018767837861180303 0.0084812849427824116 0.01529836502458368 0.011694233170710503
leaf_weight=21 24 22 25 26 21 20
leaf_count=21 24 22 25 26 21 20
internal_value=0 0.0202782 0.0233104 0.010005 0.0115771 0.0135403
internal_weight=0 68 46 91 67 41
internal_count=159 68 46 91 67 41
is_linear=0
shrinkage=0.03


Tree=3
num_leaves=6
num_cat=0
split_feature=290 4 4 448 439
split_gain=2.93801 1.16098 0.770794 0.257189 0.41875
threshold=1.0000000180025095e-35 0.27600000000000008 0.17050000000000004 1.0000000180025095e-35 1.0000000180025095e-35
decision_type=2 8 10 2 2
left_child=1 2 -1 -3 -5
right_child=-2 3 -4 4 -6
leaf_value=0.010387516677703545 0.020176333825330479 0.0055201060946897728 0.018072975110262634 0.0065386991716849686 0.011629437573084777
leaf_weight=23 37 21 24 26 33
leaf_count=23 37 21 24 26 33
internal_value=0 0.0105698 0.014312 0.00837125 0.00938606
internal_weight=0 127 47 80 59
internal_count=164 127 47 80 59
is_linear=0
shrinkage=0.03


Tree=4
num_leaves=6
num_cat=0
split_feature=289 5 5 439 3
split_gain=4.25986 1.80845 1.4558 0.0981942 0.0426383
threshold=1.0000000180025095e-35 -14.694999999999999 -29.064999999999994 1.0000000180025095e-35 105.28500000000001
decision_type=2 10 10 2 10
left_child=2 3 -1 -2 -5
right_child=1 -3 -4 4 -6
leaf_value=0.015987615324481723 0.0057455774076068059 0.015885755029176513 0.025949093155238939 0.0090486954864380607 0.0072150284774601453
leaf_weight=31 26 31 23 21 25
leaf_count=31 26 31 23 21 25
internal_value=0 0.00982759 0.0202305 0.00721921 0.00805214
internal_weight=0 103 54 72 46
internal_count=157 103 54 72 46
is_linear=0
shrinkage=0.03


Tree=5
num_leaves=7
num_cat=0
split_feature=289 304 4 4 5 448
split_gain=4.97965 2.3451 1.42534 0.586095 0.574691 0.0938929
threshold=1.0000000180025095e-35 1.0000000180025095e-35 0.27600000000000008 0.27600000000000008 -14.694999999999999 1.0000000180025095e-35
decision_type=2 2 8 8 10 2
left_child=1 3 4 -1 -2 -4
right_child=2 -3 5 -5 -6 -7
leaf_value=0.027542758856130681 0.010849797882671866 0.012053199125719921 0.0050134614389389758 0.020693617673082781 0.017508122725412249 0.0075376060574005041
leaf_weight=23 28 21 21 22 20 36
leaf_count=23 28 21 21 22 20 36
internal_value=0 0.0203312 0.00981517 0.0241943 0.0136241 0.00660766
internal_weight=0 66 105 45 48 57
internal_count=171 66 105 45 48 57
is_linear=0
shrinkage=0.03


Tree=6
num_leaves=6
num_cat=0
split_feature=5 51 16 4 3
split_gain=1.50455 1.18246 0.386587 0.553456 0.0871937
threshold=1.0000000180025095e-35 1.0000000180025095e-35 1.0000000180025095e-35 0.21100000000000002 81.15000000000002
decision_type=10 2 2 8 10
left_child=1 -1 4 -4 -3
right_child=-2 2 3 -5 -6
leaf_value=0.016121648009866475 0.019724798059981802 0.0089574610864760224 0.015135258487002416 0.0091843370262246864 0.0062236450940170987
leaf_weight=36 23 21 22 39 21
leaf_count=36 23 21 22 39 21
internal_value=0 0.0114413 0.00980552 0.0113306 0.00759055
internal_weight=0 139 103 61 42
internal_count=162 139 103 61 42
is_linear=0
shrinkage=0.03


Tree=7
num_leaves=6
num_cat=0
split_feature=289 304 5 5 439
split_gain=4.1008 1.97918 1.88399 0.513925 0.207117
threshold=1.0000000180025095e-35 1.0000000180025095e-35 -29.064999999999994 inf 1.0000000180025095e-35
decision_type=2 2 10 8 2
left_child=1 2 -1 4 -2
right_child=3 -3 -4 -5 -6
leaf_value=0.01549611129797995 0.0083876647152006621 0.010807029739022254 0.028085836444212042 0.0060039256540806709 0.011942119260396187
leaf_weight=20 25 20 23 37 36
leaf_count=20 25 20 23 37 36
internal_value=0 0.0186038 0.0222302 0.0087934 0.0104854
internal_weight=0 63 43 98 61
internal_count=161 63 43 98 61
is_linear=0
shrinkage=0.03


Tree=8
num_leaves=6
num_cat=0
split_feature=289 4 4 4 16
split_gain=3.68989 1.23341 0.609054 0.131302 0.0668996
threshold=1.0000000180025095e-35 0.27600000000000008 0.21100000000000002 0.17050000000000004 1.0000000180025095e-35
decision_type=2 8 8 10 2
left_child=2 3 -1 -2 -3
right_child=1 4 -4 -5 -6
leaf_value=0.021672778853348323 0.010156442135986354 0.0061736596740782253 0.015306673338146585 0.013241023722550142 0.0040559762738773542
leaf_weight=21 27 25 38 23 29
leaf_count=21 27 25 38 23 29
internal_value=0 0.00818012 0.0175726 0.0115753 0.00503639
internal_weight=0 104 59 50 54
internal_count=163 104 59 50 54
is_linear=0
shrinkage=0.03


Tree=9
num_leaves=6
num_cat=0
split_feature=290 1 439 5 525
split_gain=4.3514 0.395596 0.393491 0.196662 0.1857
threshold=1.0000000180025095e-35 21.500000000000004 1.0000000180025095e-35 16.700000000000003 1.0000000180025095e-35
decision_type=2 8 2 8 2
left_child=1 -1 4 -4 -3
right_child=-2 2 3 -5 -6
leaf_value=0.0043059899924661627 0.019557166343125012 0.0087091347944224257 0.0089487151128964295 0.012819603782679354 0.0046699466077344751
leaf_weight=22 39 20 27 21 21
leaf_count=22 39 20 27 21 21
internal_value=0 0.0079082 0.00879864 0.0106422 0.00664028
internal_weight=0 111 89 48 41
internal_count=150 111 89 48 41
is_linear=0
shrinkage=0.03


Tree=10
num_leaves=6
num_cat=0
split_feature=289 439 436 448 3
split_gain=2.35016 0.739217 0.394112 0.409837 0.618334
threshold=1.0000000180025095e-35 1.0000000180025095e-35 1.0000000180025095e-35 1.0000000180025095e-35 137.85000000000002
decision_type=2 2 2 2 8
left_child=1 -1 3 -2 -5
right_child=2 -3 -4 4 -6
leaf_value=0.019512256683582176 0.0066026453032261793 0.012837600568454946 0.0052733174684600759 0.01462774662004449 0.0078178239276167003
leaf_weight=28 27 32 26 24 24
leaf_count=28 27 32 26 24 24
internal_value=0 0.0159524 0.00845615 0.00955953 0.0112228
internal_weight=0 60 101 75 48
internal_count=161 60 101 75 48
is_linear=0
shrinkage=0.03


Tree=11
num_leaves=6
num_cat=0
split_feature=290 289 6 1 439
split_gain=2.37859 0.321417 0.344774 0.111213 0.297653
threshold=1.0000000180025095e-35 1.0000000180025095e-35 90.25500000000001 inf 1.0000000180025095e-35
decision_type=2 2 8 8 2
left_child=1 -1 -3 -4 -5
right_child=-2 2 3 4 -6
leaf_value=0.012053206517760243 0.01733023968084078 0.010329320325915303 0.0047599786324426536 0.0048694159230217339 0.0099832180554845495
leaf_weight=21 38 35 20 20 21
leaf_count=21 38 35 20 20 21
internal_value=0 0.00869127 0.00795585 0.00659402 0.00748868
internal_weight=0 117 96 61 41
internal_count=155 117 96 61 41
is_linear=0
shrinkage=0.03


Tree=12
num_leaves=6
num_cat=0
split_feature=290 3 4 4 3
split_gain=3.10743 1.61992 0.463475 0.416584 0.261346
threshold=1.0000000180025095e-35 137.85000000000002 0.27600000000000008 0.17050000000000004 81.15000000000002
decision_type=2 8 8 10 10
left_child=2 -2 3 -1 -4
right_child=1 -3 4 -5 -6
leaf_value=0.0071622388250113496 0.022538415054264276 0.011151683579029684 0.0080697985071884956 0.012756712648272514 0.0045513435325732357
leaf_weight=23 23 22 38 25 38
leaf_count=23 23 22 38 25 38
internal_value=0 0.0169716 0.00776817 0.010076 0.00631057
internal_weight=0 45 124 48 76
internal_count=169 45 124 48 76
is_linear=0
shrinkage=0.03


Tree=13
num_leaves=6
num_cat=0
split_feature=289 5 4 2 5
split_gain=3.2016 1.54258 0.834469 0.504657 0.0616981
threshold=1.0000000180025095e-35 -29.064999999999994 0.21100000000000002 1.0000000180025095e-35 inf
decision_type=2 10 8 8 8
left_child=1 -1 -2 4 -4
right_child=2 -3 3 -5 -6
leaf_value=0.010347418492659927 0.010148812860031338 0.020050533853214363 0.0049180991774086238 0.00038704416062682864 0.0070964340269565572
leaf_weight=30 34 29 22 20 25
leaf_count=30 34 29 22 20 25
internal_value=0 0.0151167 0.00632089 0.00437836 0.00607679
internal_weight=0 59 101 67 47
internal_count=160 59 101 67 47
is_linear=0
shrinkage=0.03


Tree=14
num_leaves=6
num_cat=0
split_feature=53 439 3 5 6
split_gain=1.72546 0.635049 0.670309 0.38488 0.318576
threshold=1.0000000180025095e-35 1.0000000180025095e-35 81.15000000000002 -29.064999999999994 70.750000000000014
decision_type=2 2 8 10 10
left_child=1 4 -3 -4 -1
right_child=-2 2 3 -5 -6
leaf_value=0.0036520179028489762 0.01674413932973276 0.013893431512557942 0.0056964333241128103 0.010526138686885435 0.0083259074163756202
leaf_weight=35 23 23 33 27 21
leaf_count=35 23 23 33 27 21
internal_value=0 0.00787339 0.009539 0.0078698 0.00540473
internal_weight=0 139 83 60 56
internal_count=162 139 83 60 56
is_linear=0
shrinkage=0.03


Tree=15
num_leaves=6
num_cat=0
split_feature=289 3 5 448 3
split_gain=2.94539 1.1739 0.323555 0.183292 0.0452224
threshold=1.0000000180025095e-35 105.28500000000001 -14.694999999999999 1.0000000180025095e-35 185.91000000000003
decision_type=2 10 10 2 8
left_child=1 -1 3 -2 -5
right_child=2 -3 -4 4 -6
leaf_value=0.019503301521763203 0.002845056259718079 0.010888925182233963 0.0086110624345019458 0.0051583794593811029 0.0070722795417532324
leaf_weight=24 26 35 29 25 20
leaf_count=24 26 35 29 25 20
internal_value=0 0.0143931 0.00594097 0.00485037 0.006009
internal_weight=0 59 100 71 45
internal_count=159 59 100 71 45
is_linear=0
shrinkage=0.03


Tree=16
num_leaves=7
num_cat=0
split_feature=289 304 5 5 1 6
split_gain=2.57249 1.51475 1.19416 0.532386 0.160778 0.217463
threshold=1.0000000180025095e-35 1.0000000180025095e-35 -29.064999999999994 -14.694999999999999 1.0000000180025095e-35 58.150000000000013
decision_type=2 2 10 10 8 10
left_child=1 2 -1 4 -2 -6
right_child=3 -3 -4 -5 5 -7
leaf_value=0.011578251714152948 0.0026455738335581761 0.007128262602324997 0.021282268327474593 0.0092026378572560279 0.0073525130358194149 0.003398615733853408
leaf_weight=21 21 21 25 39 31 21
leaf_count=21 21 21 25 39 31 21
internal_value=0 0.0138044 0.0168522 0.00637285 0.00486104 0.00575575
internal_weight=0 67 46 112 73 52
internal_count=179 67 46 112 73 52
is_linear=0
shrinkage=0.03


Tree=17
num_leaves=6
num_cat=0
split_feature=290 439 4 4 5
split_gain=2.60152 0.309899 0.250077 0.141343 0.0303923
threshold=1.0000000180025095e-35 1.0000000180025095e-35 1.0000000180025095e-35 0.11600000000000001 -1.0000000180025095e-35
decision_type=2 2 10 10 8
left_child=1 4 -3 -2 -1
right_child=3 2 -4 -5 -6
leaf_value=0.0050858342377468942 0.013430241720912896 0.0061738571055632609 0.010012699168000835 0.016878608431667087 0.0034517644079668183
leaf_weight=20 23 42 24 20 21
leaf_count=20 23 42 24 20 21
internal_value=0 0.00629729 0.0075698 0.0150341 0.00424887
internal_weight=0 107 66 43 41
internal_count=150 107 66 43 41
is_linear=0
shrinkage=0.03


Tree=18
num_leaves=7
num_cat=0
split_feature=4 5 289 2 5 5
split_gain=1.6552 1.09784 0.481654 0.342187 0.207748 0.0669611
threshold=0.21100000000000002 -14.694999999999999 1.0000000180025095e-35 1.0000000180025095e-35 16.700000000000003 16.700000000000003
decision_type=8 10 2 8 8 8
left_child=1 -1 4 5 -2 -4
right_child=2 -3 3 -5 -6 -7
leaf_value=0.0088519997572681555 0.0062945738557027651 0.017483109427349906 0.0046794125681044532 0.0016542197624221443 0.010380407965609005 0.0070778643746267668
leaf_weight=36 24 21 20 28 21 22
leaf_count=36 24 21 20 28 21 22
internal_value=0 0.0120319 0.00577981 0.00422313 0.0082013 0.00593574
internal_weight=0 57 115 70 45 42
internal_count=172 57 115 70 45 42
is_linear=0
shrinkage=0.03


Tree=19
num_leaves=6
num_cat=0
split_feature=289 4 5 448 525
split_gain=1.92981 0.75721 0.51813 0.27085 0.0382139
threshold=1.0000000180025095e-35 0.27600000000000008 -14.694999999999999 1.0000000180025095e-35 1.0000000180025095e-35
decision_type=2 8 10 2 2
left_child=1 -1 3 -2 -5
right_child=2 -3 -4 4 -6
leaf_value=0.016999994780529628 0.0020143569493666288 0.010006378077301441 0.0091001713660831055 0.0064982916485389749 0.0047937167845666408
leaf_weight=22 26 38 31 29 20
leaf_count=22 26 38 31 29 20
internal_value=0 0.0125707 0.00583777 0.00448931 0.00580255
internal_weight=0 60 106 75 49
internal_count=166 60 106 75 49
is_linear=0
shrinkage=0.03


Tree=20
num_leaves=6
num_cat=0
split_feature=289 3 439 5 3
split_gain=2.63846 1.63153 0.502282 0.345243 0.0756269
threshold=1.0000000180025095e-35 137.85000000000002 1.0000000180025095e-35 -29.064999999999994 137.85000000000002
decision_type=2 8 2 10 8
left_child=1 -1 4 -4 -2
right_child=2 -3 3 -5 -6
leaf_value=0.018418319944292307 0.0020578399395570161 0.0085242922408506269 0.0053038428537547583 0.010131252516293899 0.0045328707723529078
leaf_weight=30 25 30 30 24 20
leaf_count=30 25 30 30 24 20
internal_value=0 0.0134713 0.00549867 0.00744936 0.00315785
internal_weight=0 60 99 54 45
internal_count=159 60 99 54 45
is_linear=0
shrinkage=0.03


Tree=21
num_leaves=6
num_cat=0
split_feature=5 4 7 3 6
split_gain=1.36607 0.971252 0.256816 0.357817 0.112009
threshold=1.0000000180025095e-35 0.21100000000000002 1.0000000180025095e-35 137.85000000000002 90.25500000000001
decision_type=10 8 10 8 8
left_child=1 4 3 -3 -1
right_child=-2 2 -4 -5 -6
leaf_value=0.0087640318635385482 0.014131203185766935 0.00844745818823576 0.0017205171862151474 0.0039529741050633171 0.01190104004368186
leaf_weight=21 25 25 20 44 20
leaf_count=21 25 25 20 44 20
internal_value=0 0.00647379 0.00471379 0.00558141 0.0102943
internal_weight=0 130 89 69 41
internal_count=155 130 89 69 41
is_linear=0
shrinkage=0.03


Tree=22
num_leaves=7
num_cat=0
split_feature=4 289 5 2 6 3
split_gain=1.82027 1.08287 0.682514 0.518678 0.315739 0.0224595
threshold=0.27600000000000008 1.0000000180025095e-35 -14.694999999999999 1.0000000180025095e-35 90.25500000000001 185.91000000000003
decision_type=8 2 10 8 8 8
left_child=1 -1 -3 4 -2 -6
right_child=3 2 -4 -5 5 -7
leaf_value=0.016159189179539679 0.0089389107399620114 0.0053199496673187237 0.012631829269928856 0.0012581727979057986 0.0038978374865837394 0.0052868925830857321
leaf_weight=25 24 27 20 27 20 22
leaf_count=25 24 27 20 27 20 22
internal_value=0 0.0111147 0.00843139 0.004761 0.00619397 0.00462544
internal_weight=0 72 47 93 66 42
internal_count=165 72 47 93 66 42
is_linear=0
shrinkage=0.03


Tree=23
num_leaves=7
num_cat=0
split_feature=4 289 439 0 2 525
split_gain=1.46226 0.555099 0.979673 0.544558 0.111977 0.00848359
threshold=0.27600000000000008 1.0000000180025095e-35 1.0000000180025095e-35 1.0000000180025095e-35 1.0000000180025095e-35 1.0000000180025095e-35
decision_type=8 2 2 8 8 2
left_child=1 -1 -3 4 5 -2
right_child=3 2 -4 -5 -6 -7
leaf_value=0.014428868722915648 0.0039204090700617851 0.0038833411401137711 0.012714935229876293 0.0081818835916655022 0.0016034885871922598 0.0047837423393502828
leaf_weight=25 21 20 26 34 20 20
leaf_count=25 21 20 26 34 20 20
internal_value=0 0.0108307 0.00887511 0.00513955 0.00344382 0.00434155
internal_weight=0 71 46 95 61 41
internal_count=166 71 46 95 61 41
is_linear=0
shrinkage=0.03


Tree=24
num_leaves=5
num_cat=0
split_feature=5 448 51 439
split_gain=0.701941 0.664948 0.543552 0.214642
threshold=1.0000000180025095e-35 1.0000000180025095e-35 1.0000000180025095e-35 1.0000000180025095e-35
decision_type=10 2 2 2
left_child=1 -1 -3 -4
right_child=-2 2 3 -5
leaf_value=0.0028602408897131682 0.012747522037137637 0.011242251661182803 0.0043375923989340658 0.0078485129347869321
leaf_weight=28 22 33 25 42
leaf_count=28 22 33 25 42
internal_value=0 0.00694655 0.00809072 0.00653847
internal_weight=0 128 100 67
internal_count=150 128 100 67
is_linear=0
shrinkage=0.03


Tree=25
num_leaves=6
num_cat=0
split_feature=290 4 1 6 5
split_gain=1.60134 0.466613 0.361874 0.228432 0.113331
threshold=1.0000000180025095e-35 0.27600000000000008 inf 70.750000000000014 inf
decision_type=2 8 8 10 8
left_child=1 3 -3 -1 -4
right_child=-2 2 4 -5 -6
leaf_value=0.0049506358903917405 0.011489050587289967 3.5136205285949546e-05 0.0029462328403315041 0.0093249793157779738 0.0056733800041547508
leaf_weight=22 40 23 24 21 32
leaf_count=22 40 23 24 21 32
internal_value=0 0.00457217 0.00320337 0.00708694 0.0045046
internal_weight=0 122 79 43 56
internal_count=162 122 79 43 56
is_linear=0
shrinkage=0.03


Tree=26
num_leaves=6
num_cat=0
split_feature=289 3 439 448 5
split_gain=1.68798 0.659857 0.277155 0.461744 0.0226895
threshold=1.0000000180025095e-35 137.85000000000002 1.0000000180025095e-35 1.0000000180025095e-35 16.700000000000003
decision_type=2 8 2 2 8
left_child=1 -1 -2 -4 -5
right_child=2 -3 3 4 -6
leaf_value=0.013140498213397222 0.0018069367597835432 0.0066356299102306362 0.0014187653941501463 0.0075643088934676988 0.0061697426707749917
leaf_weight=32 38 25 21 21 21
leaf_count=32 38 25 21 21 21
internal_value=0 0.0102875 0.00383042 0.00505094 0.00686703
internal_weight=0 57 101 63 42
internal_count=158 57 101 63 42
is_linear=0
shrinkage=0.03


Tree=27
num_leaves=6
num_cat=0
split_feature=289 4 4 4 3
split_gain=1.433 0.677323 0.335113 0.176718 0.0852946
threshold=1.0000000180025095e-35 1.0000000180025095e-35 0.27600000000000008 0.17050000000000004 81.15000000000002
decision_type=2 10 8 10 10
left_child=1 -1 3 -2 -4
right_child=2 -3 4 -5 -6
leaf_value=0.0060391846157867328 0.0036017652215170008 0.012369277225225232 0.0031170760188251731 0.0074937105621211229 0.00079285791531826053
leaf_weight=29 21 32 30 21 27
leaf_count=29 21 32 30 21 27
internal_value=0 0.00935989 0.00351439 0.00554774 0.00201613
internal_weight=0 61 99 42 57
internal_count=160 61 99 42 57
is_linear=0
shrinkage=0.03


Tree=28
num_leaves=6
num_cat=0
split_feature=289 304 436 448 3
split_gain=0.804621 1.18292 0.264617 0.283041 0.0794156
threshold=1.0000000180025095e-35 1.0000000180025095e-35 1.0000000180025095e-35 1.0000000180025095e-35 137.85000000000002
decision_type=2 2 2 2 8
left_child=1 -1 3 -2 -5
right_child=2 -3 -4 4 -6
leaf_value=0.011867545268498361 0.0032414839633565862 0.0029318090993911026 0.0019774917184582188 0.0082715683423780963 0.0057911402214309553
leaf_weight=40 32 20 27 21 26
leaf_count=40 32 20 27 21 26
internal_value=0 0.00888897 0.00454144 0.00541772 0.00689942
internal_weight=0 60 106 79 47
internal_count=166 60 106 79 47
is_linear=0
shrinkage=0.03


Tree=29
num_leaves=7
num_cat=0
split_feature=5 289 525 0 439 3
split_gain=1.48412 0.462619 0.279418 0.323075 0.204161 0.0137604
threshold=-14.694999999999999 1.0000000180025095e-35 1.0000000180025095e-35 1.0000000180025095e-35 1.0000000180025095e-35 137.85000000000002
decision_type=10 2 2 8 2 8
left_child=2 -2 3 5 -4 -1
right_child=1 -3 4 -5 -6 -7
leaf_value=0.0037272077166874496 0.013898895843220608 0.0081319747084090781 0.00073791509494185441 0.0088917348291724912 0.0044234692443522712 0.0048008271446451541
leaf_weight=21 21 31 24 20 31 22
leaf_count=21 21 31 24 20 31 22
internal_value=0 0.0104609 0.00437764 0.00574165 0.00281523 0.0042765
internal_weight=0 52 118 63 55 43
internal_count=170 52 118 63 55 43
is_linear=0
shrinkage=0.03


Tree=30
num_leaves=6
num_cat=0
split_feature=5 289 3 1 5
split_gain=1.40367 0.933142 0.554644 0.111165 0.0715358
threshold=-14.694999999999999 1.0000000180025095e-35 81.15000000000002 21.500000000000004 -14.694999999999999
decision_type=10 2 8 8 8
left_child=2 -2 -1 -4 -5
right_child=1 -3 3 4 -6
leaf_value=0.0087483698866245418 0.015177776478230952 0.0071516546112979995 0.0018982072344756332 0.0032403178952517919 0.0053821010526269673
leaf_weight=22 22 32 29 32 25
leaf_count=22 22 32 29 32 25
internal_value=0 0.0104216 0.00449773 0.00341036 0.0041797
internal_weight=0 54 108 86 57
internal_count=162 54 108 86 57
is_linear=0
shrinkage=0.03


Tree=31
num_leaves=5
num_cat=0
split_feature=290 5 439 3
split_gain=1.07658 0.45732 0.208868 0.168066
threshold=1.0000000180025095e-35 -14.694999999999999 1.0000000180025095e-35 81.15000000000002
decision_type=2 10 2 10
left_child=1 2 -1 -4
right_child=-2 -3 3 -5
leaf_value=0.0012711386710148433 0.010563961121746722 0.0073317605754159186 0.0063814669325137916 0.0030802304172622306
leaf_weight=29 34 37 23 35
leaf_count=29 34 37 23 35
internal_value=0 0.00453806 0.00334994 0.00438934
internal_weight=0 124 87 58
internal_count=158 124 87 58
is_linear=0
shrinkage=0.03


Tree=32
num_leaves=6
num_cat=0
split_feature=289 3 4 4 1
split_gain=1.01272 0.702446 0.465536 0.152013 0.109191
threshold=1.0000000180025095e-35 137.85000000000002 0.27600000000000008 0.17050000000000004 inf
decision_type=2 10 8 10 8
left_child=1 -1 3 -2 -4
right_child=2 -3 4 -5 -6
leaf_value=0.011064025255715629 0.0041739847923495943 0.0044380993884988122 0.00012714953542771666 0.0078284966745413836 0.0027829045866076883
leaf_weight=36 21 24 22 20 38
leaf_count=36 21 24 22 20 38
internal_value=0 0.00841365 0.00349278 0.00595667 0.00180913
internal_weight=0 60 101 41 60
internal_count=161 60 101 41 60
is_linear=0
shrinkage=0.03


Tree=33
num_leaves=6
num_cat=0
split_feature=289 3 436 2 3
split_gain=1.26049 1.33029 0.321191 0.296836 0.0276272
threshold=1.0000000180025095e-35 105.28500000000001 1.0000000180025095e-35 inf 81.15000000000002
decision_type=2 10 2 8 10
left_child=1 -1 3 4 -2
right_child=2 -3 -4 -5 -6
leaf_value=0.0143173905974254 0.006547240384854376 0.0051991111851142097 0.00050334666321689904 0.0017954395628637736 0.0051258885824790922
leaf_weight=24 20 36 26 27 32
leaf_count=24 20 36 26 27 32
internal_value=0 0.00884642 0.00339559 0.00434747 0.00567256
internal_weight=0 60 105 79 52
internal_count=165 60 105 79 52
is_linear=0
shrinkage=0.03


Tree=34
num_leaves=5
num_cat=0
split_feature=4 289 1 289
split_gain=1.20584 0.440319 0.347465 0.22271
threshold=0.27600000000000008 1.0000000180025095e-35 inf 1.0000000180025095e-35
decision_type=8 2 8 2
left_child=1 -1 -2 -4
right_child=2 -3 3 -5
leaf_value=0.010930621917692144 0.00010636422247625886 0.0059726274346834727 0.0060839281146440449 0.0024344137595856889
leaf_weight=28 30 38 27 34
leaf_count=28 30 38 27 34
internal_value=0 0.00807602 0.00274975 0.00404977
internal_weight=0 66 91 61
internal_count=157 66 91 61
is_linear=0
shrinkage=0.03


Tree=35
num_leaves=8
num_cat=0
split_feature=5 3 51 448 4 525 4
split_gain=1.336 0.934301 0.442563 0.173843 0.222275 0.160307 0.0384536
threshold=-14.694999999999999 137.85000000000002 1.0000000180025095e-35 1.0000000180025095e-35 0.27600000000000008 1.0000000180025095e-35 0.21100000000000002
decision_type=10 10 2 2 8 2 8
left_child=2 6 -1 -4 -5 -6 -2
right_child=1 -3 3 4 5 -7 -8
leaf_value=0.0070690793470878678 0.011003085074946285 0.0042362914497921745 0.00083881059051330736 0.0062558576362207532 0.0042666994806911263 0.00055986387588615925 0.012863415308296679
leaf_weight=28 20 22 29 20 21 21 20
leaf_count=28 20 22 29 20 21 21 20
internal_value=0 0.00920207 0.00377088 0.00275605 0.00365282 0.00241328 0.0119333
internal_weight=0 62 119 91 62 42 40
internal_count=181 62 119 91 62 42 40
is_linear=0
shrinkage=0.03


Tree=36
num_leaves=6
num_cat=0
split_feature=4 5 5 0 5
split_gain=1.3422 0.255599 0.226737 0.412514 0.0437096
threshold=0.21100000000000002 -14.694999999999999 -1.0000000180025095e-35 1.0000000180025095e-35 -14.694999999999999
decision_type=8 10 8 8 10
left_child=1 -1 4 -4 -2
right_child=2 -3 3 -5 -6
leaf_value=0.0072305965430006901 0.00080822422329721781 0.011639033358951565 0.0021176544267853554 0.0072265582144260404 0.002605380223748008
leaf_weight=29 29 20 33 25 21
leaf_count=29 29 20 33 25 21
internal_value=0 0.00902996 0.0030435 0.00431977 0.00156303
internal_weight=0 49 108 58 50
internal_count=157 49 108 58 50
is_linear=0
shrinkage=0.03


Tree=37
num_leaves=6
num_cat=0
split_feature=53 1 6 3 5
split_gain=0.93108 0.387478 0.300097 0.0961279 0.124904
threshold=1.0000000180025095e-35 21.500000000000004 80.38000000000001 137.85000000000002 -1.0000000180025095e-35
decision_type=2 8 10 10 8
left_child=1 -1 3 4 -3
right_child=-2 2 -4 -5 -6
leaf_value=0.0014927169147025173 0.011096123278141022 0.0062461930535862159 0.0078257090939829743 0.0026717415964230893 0.0034107337043517167
leaf_weight=36 20 29 27 26 27
leaf_count=36 20 29 27 26 27
internal_value=0 0.00419122 0.00508247 0.0041792 0.0048791
internal_weight=0 145 109 82 56
internal_count=165 145 109 82 56
is_linear=0
shrinkage=0.03


Tree=38
num_leaves=5
num_cat=0
split_feature=290 5 1 3
split_gain=1.07887 0.218594 0.0411763 0.0441696
threshold=1.0000000180025095e-35 -14.694999999999999 21.500000000000004 137.85000000000002
decision_type=2 10 8 8
left_child=1 2 -1 -4
right_child=-2 -3 3 -5
leaf_value=0.0014898650161921977 0.0090498532729632233 0.0052182048089945542 0.0039704708196222783 0.0021878551226109265
leaf_weight=26 41 39 22 29
leaf_count=26 41 39 22 29
internal_value=0 0.00338832 0.00246149 0.00295683
internal_weight=0 116 77 51
internal_count=157 116 77 51
is_linear=0
shrinkage=0.03


Tree=39
num_leaves=7
num_cat=0
split_feature=289 3 439 16 3 6
split_gain=1.32714 0.872415 0.220293 0.171048 0.0598176 0.0240539
threshold=1.0000000180025095e-35 105.28500000000001 1.0000000180025095e-35 1.0000000180025095e-35 105.28500000000001 90.25500000000001
decision_type=2 8 2 2 8 8
left_child=1 -1 4 -4 -2 -3
right_child=2 5 3 -5 -6 -7
leaf_value=0.012663220800054463 -0.00036046643927693366 0.0047716747139665214 0.0020794636092614383 0.0051813095418037844 0.0019320006775004523 0.0061592124025944776
leaf_weight=23 20 22 32 32 21 23
leaf_count=23 20 22 32 32 21 23
internal_value=0 0.00791019 0.00253055 0.00363039 0.000813724 0.00548086
internal_weight=0 68 105 64 41 45
internal_count=173 68 105 64 41 45
is_linear=0
shrinkage=0.03


Tree=40
num_leaves=6
num_cat=0
split_feature=302 439 16 3 3
split_gain=0.785656 0.285608 0.380895 0.154792 0.0248871
threshold=1.0000000180025095e-35 1.0000000180025095e-35 1.0000000180025095e-35 137.85000000000002 137.85000000000002
decision_type=2 2 2 8 8
left_child=-1 4 -3 -4 -2
right_child=1 2 3 -5 -6
leaf_value=0.0075587641852549641 0.00016448520272970197 0.0013957205573872974 0.0069202584427382266 0.0035130041443543242 0.0015653880938355411
leaf_weight=39 25 36 28 21 21
leaf_count=39 25 36 28 21 21
internal_value=0 0.00270818 0.00373866 0.00546001 0.000804028
internal_weight=0 131 85 49 46
internal_count=170 131 85 49 46
is_linear=0
shrinkage=0.03


Tree=41
num_leaves=6
num_cat=0
split_feature=5 289 6 1 3
split_gain=0.869471 0.684096 0.369702 0.250252 0.0413919
threshold=-29.064999999999994 1.0000000180025095e-35 90.25500000000001 inf 81.15000000000002
decision_type=10 2 8 8 10
left_child=3 -2 -3 -1 -5
right_child=1 2 -4 4 -6
leaf_value=-0.00032333209107701595 0.0095563518469901493 0.0066518579050898552 0.0012678074756298553 0.0042120524428901265 0.0024501244325074367
leaf_weight=26 37 24 22 24 24
leaf_count=26 37 24 22 24 24
internal_value=0 0.00651953 0.00407688 0.0020471 0.00333109
internal_weight=0 83 46 74 48
internal_count=157 83 46 74 48
is_linear=0
shrinkage=0.03


Tree=42
num_leaves=6
num_cat=0
split_feature=5 3 3 302 3
split_gain=0.830432 0.469846 0.314627 0.217025 0.315435
threshold=-14.694999999999999 81.15000000000002 105.28500000000001 1.0000000180025095e-35 185.91000000000003
decision_type=10 8 10 2 8
left_child=1 -1 -2 -3 -5
right_child=2 3 -4 4 -6
leaf_value=0.0068955497550112861 0.010176817384887148 0.0042634129875715673 0.0053021853152089397 -0.0008855294573974485 0.0032080589159158989
leaf_weight=21 22 26 26 36 32
leaf_count=21 22 26 26 36 32
internal_value=0 0.00283856 0.00753639 0.00193221 0.00104087
internal_weight=0 115 48 94 68
internal_count=163 115 48 94 68
is_linear=0
shrinkage=0.03


Tree=43
num_leaves=7
num_cat=0
split_feature=290 4 6 5 436 525
split_gain=0.801701 0.563195 0.230167 0.164869 0.110249 0.00282472
threshold=1.0000000180025095e-35 0.27600000000000008 58.150000000000013 -14.694999999999999 1.0000000180025095e-35 1.0000000180025095e-35
decision_type=2 8 10 10 2 2
left_child=1 3 5 -1 -2 -3
right_child=4 2 -4 -5 -6 -7
leaf_value=0.0041937669888676074 0.0067265036945109782 0.0027081680269195481 -0.00061504766335710879 0.0076418921654112636 0.0097720341905951497 0.0031645789635671383
leaf_weight=26 23 26 25 24 20 23
leaf_count=26 23 26 25 24 20 23
internal_value=0 0.00338923 0.00172732 0.00584887 0.00814303 0.0029224
internal_weight=0 124 74 50 43 49
internal_count=167 124 74 50 43 49
is_linear=0
shrinkage=0.03


Tree=44
num_leaves=6
num_cat=0
split_feature=289 3 6 439 3
split_gain=1.14607 0.99834 0.226167 0.136518 0.0987229
threshold=1.0000000180025095e-35 137.85000000000002 80.38000000000001 1.0000000180025095e-35 137.85000000000002
decision_type=2 8 10 2 8
left_child=1 -1 3 -2 -5
right_child=2 -3 -4 4 -6
leaf_value=0.01127193420007825 -0.00024034353334392454 0.0036542911230571917 0.0048351987073494288 0.0037883355452314666 0.0010901139240461187
leaf_weight=30 29 32 22 23 26
leaf_count=30 29 32 22 23 26
internal_value=0 0.00734025 0.00214879 0.00139109 0.00235663
internal_weight=0 62 100 78 49
internal_count=162 62 100 78 49
is_linear=0
shrinkage=0.03


Tree=45
num_leaves=6
num_cat=0
split_feature=5 3 290 3 6
split_gain=0.505959 0.48788 0.234852 0.174179 0.027262
threshold=-14.694999999999999 137.85000000000002 1.0000000180025095e-35 81.15000000000002 90.25500000000001
decision_type=10 10 2 10 8
left_child=2 -2 3 -1 -5
right_child=1 -3 -4 4 -6
leaf_value=0.0034311400601504051 0.00845625834665387 0.0028147982057734307 0.0050279303415514086 -0.00013458509399788454 0.0014318052681628612
leaf_weight=41 37 22 34 20 20
leaf_count=41 37 22 34 20 20
internal_value=0 0.00635266 0.0029354 0.00205705 0.00064861
internal_weight=0 59 115 81 40
internal_count=174 59 115 81 40
is_linear=0
shrinkage=0.03


Tree=46
num_leaves=6
num_cat=0
split_feature=4 290 5 525 439
split_gain=0.909884 0.753423 0.644397 0.270488 0.253931
threshold=0.27600000000000008 1.0000000180025095e-35 -1.0000000180025095e-35 1.0000000180025095e-35 1.0000000180025095e-35
decision_type=8 2 8 2 2
left_child=1 4 -2 -4 -1
right_child=2 -3 3 -5 -6
leaf_value=0.0014774625290218473 -0.0020064186745308221 0.01065402852371335 0.0052490702665020381 0.00095521477941909558 0.0058414972167728195
leaf_weight=21 31 22 31 23 28
leaf_count=21 31 22 31 23 28
internal_value=0 0.00604193 0.00144108 0.00342021 0.0039712
internal_weight=0 71 85 54 49
internal_count=156 71 85 54 49
is_linear=0
shrinkage=0.03


Tree=47
num_leaves=7
num_cat=0
split_feature=5 289 5 436 6 16
split_gain=0.761568 0.338228 0.267667 0.170181 0.261064 0.148597
threshold=1.0000000180025095e-35 1.0000000180025095e-35 -29.064999999999994 1.0000000180025095e-35 70.750000000000014 1.0000000180025095e-35
decision_type=10 2 10 2 10 2
left_child=1 2 -1 4 5 -3
right_child=-2 3 -4 -5 -6 -7
leaf_value=0.0026428779968691446 0.0085584933107549482 0.0017105211303493453 0.0069142838684922974 -0.00082827125675976276 -0.00043645041235520137 0.0050517976479604832
leaf_weight=31 22 23 23 22 23 25
leaf_count=31 22 23 23 22 23 25
internal_value=0 0.0025737 0.00446218 0.00147717 0.00219153 0.00345077
internal_weight=0 147 54 93 71 48
internal_count=169 147 54 93 71 48
is_linear=0
shrinkage=0.03


Tree=48
num_leaves=7
num_cat=0
split_feature=290 4 4 1 439 4
split_gain=0.870587 0.286106 0.354216 0.181503 0.107887 0.0166935
threshold=1.0000000180025095e-35 0.27600000000000008 0.17050000000000004 inf 1.0000000180025095e-35 0.27600000000000008
decision_type=2 8 10 8 2 8
left_child=1 2 -1 -3 -5 -2
right_child=5 3 -4 4 -6 -7
leaf_value=0.00088568336161022837 0.0072627826730604283 -0.0014727960704476572 0.0061051079116528854 9.642641193100384e-07 0.0027682807311066424 0.0060892363933380692
leaf_weight=22 24 24 25 21 32 20
leaf_count=22 24 24 25 21 32 20
internal_value=0 0.00181751 0.00366197 0.000691664 0.0016718 0.00672935
internal_weight=0 124 47 77 53 44
internal_count=168 124 47 77 53 44
is_linear=0
shrinkage=0.03


Tree=49
num_leaves=6
num_cat=0
split_feature=5 289 448 4 0
split_gain=1.01384 0.560642 0.409203 0.252603 0.288332
threshold=-14.694999999999999 1.0000000180025095e-35 1.0000000180025095e-35 0.21100000000000002 1.0000000180025095e-35
decision_type=10 2 2 8 8
left_child=2 -2 -1 -4 -5
right_child=1 -3 3 4 -6
leaf_value=-0.00079982136770223198 0.010773212957382202 0.0047772849765829045 0.005899758338928222 0.00080986703697003806 0.0050656251892265249
leaf_weight=26 25 32 27 38 23
leaf_count=26 25 32 27 38 23
internal_value=0 0.00740708 0.00250686 0.00348384 0.0024145
internal_weight=0 57 114 88 61
internal_count=171 57 114 88 61
is_linear=0
shrinkage=0.03


Tree=50
num_leaves=6
num_cat=0
split_feature=3 51 439 4 4
split_gain=0.599784 0.98433 0.462009 0.418536 0.240674
threshold=137.85000000000002 1.0000000180025095e-35 1.0000000180025095e-35 inf 1.0000000180025095e-35
decision_type=10 2 2 8 10
left_child=1 -1 -3 -2 -4
right_child=3 2 4 -5 -6
leaf_value=0.0099485132624597648 0.002986835626857903 0.00027184984893264137 0.0027013589674606919 -0.0019661286080788288 0.0073554574870504435
leaf_weight=23 34 34 20 28 20
leaf_count=23 34 34 20 28 20
internal_value=0 0.00452778 0.00284296 0.000750013 0.00502841
internal_weight=0 97 74 62 40
internal_count=159 97 74 62 40
is_linear=0
shrinkage=0.03


Tree=51
num_leaves=6
num_cat=0
split_feature=18 289 16 16 525
split_gain=0.361951 0.139429 0.190996 0.175364 0.000835135
threshold=1.0000000180025095e-35 1.0000000180025095e-35 1.0000000180025095e-35 1.0000000180025095e-35 1.0000000180025095e-35
decision_type=2 2 2 2 2
left_child=1 3 -3 -1 -4
right_child=-2 2 4 -5 -6
leaf_value=0.0057397994762286549 0.0065210228719349422 -0.00037757639400660991 0.002420862577534441 0.0022846197301092056 0.00264153065667911
leaf_weight=20 21 30 29 39 33
leaf_count=20 21 30 29 39 33
internal_value=0 0.00231751 0.00158748 0.00345587 0.00253831
internal_weight=0 151 92 59 62
internal_count=172 151 92 59 62
is_linear=0
shrinkage=0.03


Tree=52
num_leaves=7
num_cat=0
split_feature=290 3 439 448 3 3
split_gain=1.04214 0.822447 0.264034 0.320075 0.256874 0.0163572
threshold=1.0000000180025095e-35 137.85000000000002 1.0000000180025095e-35 1.0000000180025095e-35 81.15000000000002 81.15000000000002
decision_type=2 8 2 2 10 10
left_child=2 -2 5 -4 -5 -1
right_child=1 -3 3 4 -6 -7
leaf_value=0.00080346645880490539 0.011906230014050379 0.0034057675089154923 0.00053149869793961781 0.0069273194040976125 0.0026594495330937206 -0.00035820068093016743
leaf_weight=20 20 21 29 22 30 24
leaf_count=20 20 21 29 22 30 24
internal_value=0 0.00755233 0.00204056 0.00305677 0.00446509 0.00016983
internal_weight=0 41 125 81 52 44
internal_count=166 41 125 81 52 44
is_linear=0
shrinkage=0.03


Tree=53
num_leaves=6
num_cat=0
split_feature=4 6 525 1 5
split_gain=0.654524 0.485773 0.810699 0.399768 0.358616
threshold=0.27600000000000008 80.38000000000001 1.0000000180025095e-35 inf -1.0000000180025095e-35
decision_type=8 8 2 8 8
left_child=1 -1 -3 -2 -5
right_child=3 2 -4 4 -6
leaf_value=0.0013289235739968716 -0.0019945176636740084 0.0027465310437685768 0.011005132298916578 -0.00052219265554514192 0.0039755412434729241
leaf_weight=25 31 23 20 27 39
leaf_count=25 31 23 20 27 39
internal_value=0 0.00465435 0.00658774 0.000815638 0.00213556
internal_weight=0 68 43 97 66
internal_count=165 68 43 97 66
is_linear=0
shrinkage=0.03


Tree=54
num_leaves=6
num_cat=0
split_feature=289 5 436 1 5
split_gain=0.638126 0.68527 0.278016 0.135149 0.0730921
threshold=1.0000000180025095e-35 -14.694999999999999 1.0000000180025095e-35 21.500000000000004 -14.694999999999999
decision_type=2 10 2 8 8
left_child=1 -1 3 -2 -5
right_child=2 -3 -4 4 -6
leaf_value=0.0029405326706667739 0.00066329765796231525 0.0096610604260455469 -0.0011949629820417612 0.0019287230367107052 0.0042064918615869829
leaf_weight=36 26 22 25 21 32
leaf_count=36 26 22 25 21 32
internal_value=0 0.0054897 0.00156233 0.00243489 0.00330398
internal_weight=0 58 104 79 53
internal_count=162 58 104 79 53
is_linear=0
shrinkage=0.03


Tree=55
num_leaves=6
num_cat=0
split_feature=53 35 7 6 3
split_gain=0.383165 0.467046 0.248416 0.235051 0.223046
threshold=1.0000000180025095e-35 1.0000000180025095e-35 1.0000000180025095e-35 70.750000000000014 137.85000000000002
decision_type=2 2 10 10 8
left_child=1 -1 3 4 -3
right_child=-2 2 -4 -5 -6
leaf_value=0.0058434701660139993 0.0062838652878999708 0.0029741989396926427 -0.0015071433429749538 0.0043634072029090018 -0.00059196358436326452
leaf_weight=22 20 27 26 24 38
leaf_count=22 20 27 26 24 38
internal_value=0 0.00183869 0.00107256 0.00182619 0.000889365
internal_weight=0 137 115 89 65
internal_count=157 137 115 89 65
is_linear=0
shrinkage=0.03


Tree=56
num_leaves=7
num_cat=0
split_feature=4 3 436 525 2 4
split_gain=1.20719 0.429997 0.520549 0.398008 0.13735 0.037288
threshold=0.27600000000000008 137.85000000000002 1.0000000180025095e-35 1.0000000180025095e-35 1.0000000180025095e-35 0.17050000000000004
decision_type=8 10 2 2 8 10
left_child=3 2 4 5 -2 -1
right_child=1 -3 -4 -5 -6 -7
leaf_value=0.0041270846875850111 0.0013999512266367673 -0.0024563401448540389 0.0057343683885410423 0.0074618627966112011 -0.0019355117138475178 0.0023171079777447243
leaf_weight=20 25 34 20 38 20 21
leaf_count=20 25 34 20 38 20 21
internal_value=0 0.000277377 0.00170732 0.00525002 -8.24767e-05 0.00320002
internal_weight=0 99 65 79 45 41
internal_count=178 99 65 79 45 41
is_linear=0
shrinkage=0.03


Tree=57
num_leaves=6
num_cat=0
split_feature=304 386 5 6 16
split_gain=0.627847 1.36185 0.178757 0.184875 0.0120967
threshold=1.0000000180025095e-35 1.0000000180025095e-35 1.0000000180025095e-35 58.150000000000013 1.0000000180025095e-35
decision_type=2 2 10 10 2
left_child=1 -1 3 4 -3
right_child=-2 2 -4 -5 -6
leaf_value=0.010751344501040875 -0.0020607469869511467 0.0023248646757565439 0.0048169684390138301 8.9151413507155465e-05 0.0031572161242365837
leaf_weight=20 21 30 21 37 33
leaf_count=20 21 30 21 37 33
internal_value=0 0.0034994 0.00230074 0.00177233 0.00276086
internal_weight=0 141 121 100 63
internal_count=162 141 121 100 63
is_linear=0
shrinkage=0.03


Tree=58
num_leaves=6
num_cat=0
split_feature=5 4 1 439 525
split_gain=0.356336 0.530157 0.317103 0.307253 0.249245
threshold=1.0000000180025095e-35 0.21100000000000002 inf 1.0000000180025095e-35 1.0000000180025095e-35
decision_type=10 8 8 2 2
left_child=1 4 -3 -4 -1
right_child=-2 2 3 -5 -6
leaf_value=0.0023841876940685325 0.0060982267633080478 -0.0019518097643289834 -0.00035898213100153952 0.0037666824709793384 0.0067624491289924749
leaf_weight=25 20 31 32 33 22
leaf_count=25 20 31 32 33 22
internal_value=0 0.00182298 0.000544864 0.00173559 0.00443359
internal_weight=0 143 96 65 47
internal_count=163 143 96 65 47
is_linear=0
shrinkage=0.03


Tree=59
num_leaves=6
num_cat=0
split_feature=290 4 525 5 2
split_gain=0.77756 0.219151 0.323053 0.304229 0.144593
threshold=1.0000000180025095e-35 0.11600000000000001 1.0000000180025095e-35 -29.064999999999994 1.0000000180025095e-35
decision_type=2 10 2 10 8
left_child=1 3 -3 4 -1
right_child=-2 2 -4 -5 -6
leaf_value=0.0031654374549231891 0.0063195533475663979 0.0004162696781210028 0.0049183235232339939 -0.0024224461606987143 -0.00017437445931136608
leaf_weight=28 40 26 32 23 20
leaf_count=28 40 26 32 23 20
internal_value=0 0.00153208 0.00290016 0.000414486 0.00177385
internal_weight=0 129 58 71 48
internal_count=169 129 58 71 48
is_linear=0
shrinkage=0.03


Tree=60
num_leaves=7
num_cat=0
split_feature=18 4 6 7 14 5
split_gain=0.776309 0.335843 0.240819 0.20939 0.0840009 0.101416
threshold=1.0000000180025095e-35 0.21100000000000002 58.150000000000013 1.0000000180025095e-35 1.0000000180025095e-35 -14.694999999999999
decision_type=2 8 10 10 2 10
left_child=1 2 -1 4 5 -3
right_child=-2 3 -4 -5 -6 -7
leaf_value=0.0057057206857949495 0.0076657764446413645 0.0029207874802606448 0.0014985571301076562 -0.0020536097245556968 -0.00028340480822537623 0.00024280500970780849
leaf_weight=25 22 35 24 21 21 20
leaf_count=25 22 35 24 21 21 20
internal_value=0 0.00162065 0.00364507 0.000598004 0.00133069 0.00194698
internal_weight=0 146 49 97 76 55
internal_count=168 146 49 97 76 55
is_linear=0
shrinkage=0.03


Tree=61
num_leaves=7
num_cat=0
split_feature=18 4 5 5 439 3
split_gain=0.605971 0.319419 0.321988 0.278975 0.114718 4.42538e-07
threshold=1.0000000180025095e-35 0.21100000000000002 16.700000000000003 -14.694999999999999 1.0000000180025095e-35 185.91000000000003
decision_type=2 8 8 8 2 8
left_child=1 3 4 -1 -3 -4
right_child=-2 2 5 -5 -6 -7
leaf_value=0.0013825841565616428 0.0069818617463377969 -0.0028711227960884567 0.0023786101145669815 0.0060146163454787294 4.3129942139550559e-05 0.0023845972325652839
leaf_weight=25 21 20 20 22 31 25
leaf_count=25 21 20 20 22 31 25
internal_value=0 0.00152439 0.000532309 0.00355077 -0.00109971 0.00238194
internal_weight=0 143 96 47 51 45
internal_count=164 143 96 47 51 45
is_linear=0
shrinkage=0.03


Tree=62
num_leaves=5
num_cat=0
split_feature=4 439 0 6
split_gain=0.498749 0.238278 0.220656 0.181022
threshold=0.27600000000000008 1.0000000180025095e-35 1.0000000180025095e-35 1.0000000180025095e-35
decision_type=8 2 8 10
left_child=1 -1 3 -2
right_child=2 -3 -4 -5
leaf_value=0.0018753935722634195 -0.0017325263289048483 0.0056443468101012211 0.0026814010180532932 0.0016395392659646661
leaf_weight=26 38 36 30 23
leaf_count=26 38 36 30 23
internal_value=0 0.00406382 0.000574895 -0.000461092
internal_weight=0 62 91 61
internal_count=153 62 91 61
is_linear=0
shrinkage=0.03


Tree=63
num_leaves=6
num_cat=0
split_feature=35 4 439 16 439
split_gain=0.585968 0.682683 0.238646 0.0823551 0.21549
threshold=1.0000000180025095e-35 0.27600000000000008 1.0000000180025095e-35 1.0000000180025095e-35 1.0000000180025095e-35
decision_type=2 8 2 2 2
left_child=-1 2 -2 -3 -5
right_child=1 3 -4 4 -6
leaf_value=0.0073049603748534409 0.0023675166964530945 0.0011702053851581045 0.0060919345976435581 -0.0027858364954590794 0.001417438576796225
leaf_weight=21 30 35 32 23 21
leaf_count=21 30 35 32 23 21
internal_value=0 0.00193345 0.0042898 8.41666e-05 -0.000779728
internal_weight=0 141 62 79 44
internal_count=162 141 62 79 44
is_linear=0
shrinkage=0.03


Tree=64
num_leaves=6
num_cat=0
split_feature=5 4 289 5 439
split_gain=1.01507 0.448627 0.581341 0.26299 0.00826908
threshold=1.0000000180025095e-35 0.27600000000000008 1.0000000180025095e-35 -1.0000000180025095e-35 1.0000000180025095e-35
decision_type=10 8 2 8 2
left_child=1 2 -1 -3 -5
right_child=-2 3 -4 4 -6
leaf_value=0.007124602623622525 0.0077989936262369162 -0.0020342936469997103 0.00086596066844375687 0.00090337551452896803 0.0016936402173283007
leaf_weight=22 25 37 34 22 26
leaf_count=22 25 37 34 22 26
internal_value=0 0.00123989 0.00332471 -0.000133647 0.00133144
internal_weight=0 141 56 85 48
internal_count=166 141 56 85 48
is_linear=0
shrinkage=0.03


Tree=65
num_leaves=6
num_cat=0
split_feature=3 1 3 289 6
split_gain=0.603008 0.332259 0.33147 0.625252 0.211383
threshold=81.15000000000002 21.500000000000004 137.85000000000002 1.0000000180025095e-35 1.0000000180025095e-35
decision_type=8 8 10 2 10
left_child=-1 4 3 -3 -2
right_child=1 2 -4 -5 -6
leaf_value=0.0071399622144443639 -0.0018398771366691621 0.0080589195330523777 0.0010923493231989835 0.0019031029154377224 0.0023771967601496726
leaf_weight=28 23 27 38 33 20
leaf_count=28 23 27 38 33 20
internal_value=0 0.00232007 0.00328472 0.00467322 0.000121553
internal_weight=0 141 98 60 43
internal_count=169 141 98 60 43
is_linear=0
shrinkage=0.03


Tree=66
num_leaves=6
num_cat=0
split_feature=53 5 3 4 5
split_gain=0.797323 0.455256 0.225365 0.183276 0.0951386
threshold=1.0000000180025095e-35 1.0000000180025095e-35 81.15000000000002 0.21100000000000002 -29.064999999999994
decision_type=2 10 8 8 10
left_child=1 2 -1 -4 -5
right_child=-2 -3 3 4 -6
leaf_value=0.0037344292839142407 0.0080247192563755176 0.0055282987467944623 0.0024108271161094306 0.00025128677254542708 -0.00221145248087123
leaf_weight=22 21 24 28 48 20
leaf_count=22 21 24 28 48 20
internal_value=0 0.00176178 0.000995706 0.000368082 -0.000473048
internal_weight=0 142 118 96 68
internal_count=163 142 118 96 68
is_linear=0
shrinkage=0.03


Tree=67
num_leaves=5
num_cat=0
split_feature=35 4 525 0
split_gain=0.493876 0.536348 0.331897 0.121263
threshold=1.0000000180025095e-35 0.27600000000000008 1.0000000180025095e-35 1.0000000180025095e-35
decision_type=2 8 2 8
left_child=-1 2 -2 -3
right_child=1 3 -4 -5
leaf_value=0.0059207325322287417 0.0011198625698064764 -0.0017938627926416175 0.0055199375603761933 0.00069128470215946438
leaf_weight=21 36 43 27 30
leaf_count=21 36 43 27 30
internal_value=0 0.000977616 0.00300561 -0.000772569
internal_weight=0 136 63 73
internal_count=157 136 63 73
is_linear=0
shrinkage=0.03


Tree=68
num_leaves=7
num_cat=0
split_feature=289 3 3 2 3 525
split_gain=0.41245 0.345877 0.304923 0.171421 0.107739 0.0118266
threshold=1.0000000180025095e-35 81.15000000000002 137.85000000000002 1.0000000180025095e-35 105.28500000000001 1.0000000180025095e-35
decision_type=2 8 10 8 8 2
left_child=2 -2 4 5 -1 -3
right_child=1 3 -4 -5 -6 -7
leaf_value=0.0064765857495367521 0.0031675881120775424 -0.00014242116908502319 0.00064662544697057455 -0.0027089671930298209 0.003495232357527129 0.00081963768876765078
leaf_weight=20 28 23 24 26 24 23
leaf_count=20 28 23 24 26 24 23
internal_value=0 0.000338353 0.00336671 -0.000761905 0.00485039 0.000338608
internal_weight=0 100 68 72 44 46
internal_count=168 100 68 72 44 46
is_linear=0
shrinkage=0.03


Tree=69
num_leaves=6
num_cat=0
split_feature=304 386 289 439 16
split_gain=0.515812 0.962144 0.229801 0.169158 0.116556
threshold=1.0000000180025095e-35 1.0000000180025095e-35 1.0000000180025095e-35 1.0000000180025095e-35 1.0000000180025095e-35
decision_type=2 2 2 2 2
left_child=1 -1 -3 -4 -5
right_child=-2 2 3 4 -6
leaf_value=0.0086177313812077043 -0.0026233164877630766 0.0041996122335726596 -0.00080154259130358696 0.00024121701121330259 0.0029076607513707129
leaf_weight=20 20 23 35 25 36
leaf_count=20 20 23 35 25 36
internal_value=0 0.00252948 0.00150625 0.000860961 0.00181486
internal_weight=0 139 119 96 61
internal_count=159 139 119 96 61
is_linear=0
shrinkage=0.03


Tree=70
num_leaves=6
num_cat=0
split_feature=5 3 4 439 525
split_gain=0.766504 0.293262 0.344463 0.131861 0.109244
threshold=1.0000000180025095e-35 81.15000000000002 0.21100000000000002 1.0000000180025095e-35 1.0000000180025095e-35
decision_type=10 10 8 2 2
left_child=1 3 -3 -1 -4
right_child=-2 2 4 -5 -6
leaf_value=0.0013648192193359136 0.0068805836956016718 0.0025608614645898343 4.0031975262205707e-05 0.0046955157719228572 -0.002461311865597963
leaf_weight=20 24 35 33 23 30
leaf_count=20 24 35 33 23 30
internal_value=0 0.00108089 0.000174611 0.00314635 -0.00115108
internal_weight=0 141 98 43 63
internal_count=165 141 98 43 63
is_linear=0
shrinkage=0.03


Tree=71
num_leaves=6
num_cat=0
split_feature=5 6 3 6 6
split_gain=0.615459 0.558724 0.115375 0.198808 0.151836
threshold=-14.694999999999999 1.0000000180025095e-35 185.91000000000003 80.38000000000001 70.750000000000014
decision_type=10 10 8 10 8
left_child=2 -2 3 4 -1
right_child=1 -3 -4 -5 -6
leaf_value=0.00096282621512987774 0.0014413964125359882 0.0073826691445096262 0.0018823800637171818 0.0023689270498497145 -0.0022638761784349168
leaf_weight=21 29 28 39 21 35
leaf_count=21 29 28 39 21 35
internal_value=0 0.00435992 0.000552965 -0.000120375 -0.00105386
internal_weight=0 57 116 77 56
internal_count=173 57 116 77 56
is_linear=0
shrinkage=0.03


Tree=72
num_leaves=6
num_cat=0
split_feature=304 289 3 439 4
split_gain=0.393414 0.547916 0.149288 0.160608 0.190055
threshold=1.0000000180025095e-35 1.0000000180025095e-35 185.91000000000003 1.0000000180025095e-35 0.11600000000000001
decision_type=2 2 8 2 10
left_child=1 -1 3 -3 -5
right_child=-2 2 -4 4 -6
leaf_value=0.0043076674395706501 -0.0028305843629641459 -0.0023652233283168499 0.0017994532988273671 -0.0012586306227603927 0.0027011072554159908
leaf_weight=40 24 28 35 24 20
leaf_count=40 24 28 35 24 20
internal_value=0 0.00131208 0.000192239 -0.000589045 0.00054125
internal_weight=0 147 107 72 44
internal_count=171 147 107 72 44
is_linear=0
shrinkage=0.03


Tree=73
num_leaves=5
num_cat=0
split_feature=290 4 525 525
split_gain=0.657583 0.170096 0.171903 0.0936162
threshold=1.0000000180025095e-35 0.27600000000000008 1.0000000180025095e-35 1.0000000180025095e-35
decision_type=2 8 2 2
left_child=1 3 -3 -1
right_child=-2 2 -4 -5
leaf_value=0.0012536297845442525 0.005575791280833073 0.0016758190565742553 -0.0012975197844207287 0.0040895570386201147
leaf_weight=22 40 35 35 20
leaf_count=22 40 35 35 20
internal_value=0 0.00109475 0.00018915 0.00260407
internal_weight=0 112 70 42
internal_count=152 112 70 42
is_linear=0
shrinkage=0.03


Tree=74
num_leaves=7
num_cat=0
split_feature=4 289 439 448 2 3
split_gain=0.350132 0.475286 0.370344 0.290523 0.126729 0.116008
threshold=0.27600000000000008 1.0000000180025095e-35 1.0000000180025095e-35 1.0000000180025095e-35 1.0000000180025095e-35 137.85000000000002
decision_type=8 2 2 2 8 8
left_child=1 -1 -3 -2 5 -5
right_child=3 2 -4 4 -6 -7
leaf_value=0.0064091955162584782 -0.002636504376752545 -0.001804676430299878 0.003581443036802941 0.0037913245372474197 -0.00077085022814571847 0.00092716283750321178
leaf_weight=25 23 20 27 20 21 35
leaf_count=25 23 20 27 20 21 35
internal_value=0 0.00306716 0.00128948 0.000317674 0.0012117 0.00196868
internal_weight=0 72 47 99 76 55
internal_count=171 72 47 99 76 55
is_linear=0
shrinkage=0.03


Tree=75
num_leaves=6
num_cat=0
split_feature=4 4 1 525 525
split_gain=0.267638 0.249923 0.46155 0.595061 0.296666
threshold=0.27600000000000008 0.11600000000000001 inf 1.0000000180025095e-35 1.0000000180025095e-35
decision_type=10 10 8 2 2
left_child=1 2 -1 -4 -3
right_child=-2 4 3 -5 -6
leaf_value=-0.0024087804864922706 -0.0014209064128808677 0.0015231619462032209 0.0052896115428635046 -0.00041806138691402248 0.006299807685613632
leaf_weight=22 20 22 35 31 25
leaf_count=22 20 22 35 31 25
internal_value=0 0.00229769 0.00135436 0.00260873 0.00406393
internal_weight=0 135 88 66 47
internal_count=155 135 88 66 47
is_linear=0
shrinkage=0.03


Tree=76
num_leaves=6
num_cat=0
split_feature=3 290 16 439 6
split_gain=0.35316 0.746575 0.130438 0.270334 0.0889376
threshold=137.85000000000002 1.0000000180025095e-35 1.0000000180025095e-35 1.0000000180025095e-35 1.0000000180025095e-35
decision_type=10 2 2 2 10
left_child=1 2 -1 -4 -2
right_child=4 -3 3 -5 -6
leaf_value=-4.8836825149399896e-05 -0.0016943961035992417 0.007084467924303478 -0.00011950143358924172 0.0043604806021580265 0.00073830424060456845
leaf_weight=35 21 27 22 27 38
leaf_count=35 21 27 22 27 38
internal_value=0 0.00274482 0.00134994 0.00234906 -0.000127572
internal_weight=0 111 84 49 59
internal_count=170 111 84 49 59
is_linear=0
shrinkage=0.03


Tree=77
num_leaves=7
num_cat=0
split_feature=1 6 7 289 5 16
split_gain=0.282684 0.360293 0.569993 0.184717 0.16339 0.055046
threshold=21.500000000000004 80.38000000000001 1.0000000180025095e-35 1.0000000180025095e-35 -29.064999999999994 1.0000000180025095e-35
decision_type=8 10 10 2 10 2
left_child=5 2 3 -2 -5 -1
right_child=1 -3 -4 4 -6 -7
leaf_value=-0.0020565390052354852 0.0041070340168662366 0.005206311668523333 -0.0029487138926982881 0.0028960241217698369 -0.00084628719703427381 -2.7128972578793765e-06
leaf_weight=23 30 22 25 21 21 24
leaf_count=23 30 22 25 21 21 24
internal_value=0 0.00174014 0.000953996 0.0023091 0.00102487 -0.00100778
internal_weight=0 119 97 72 42 47
internal_count=166 119 97 72 42 47
is_linear=0
shrinkage=0.03


Tree=78
num_leaves=6
num_cat=0
split_feature=304 51 5 3 3
split_gain=0.390806 0.835202 0.144573 0.0721702 0.0717223
threshold=1.0000000180025095e-35 1.0000000180025095e-35 16.700000000000003 81.15000000000002 137.85000000000002
decision_type=2 2 8 10 10
left_child=1 -1 4 -4 -3
right_child=-2 2 3 -5 -6
leaf_value=0.006797783473573093 -0.0023174967037048189 -0.00077370172905686654 0.0010425014072097838 0.0033456533432006832 0.0013211187804699875
leaf_weight=28 20 38 24 25 24
leaf_count=28 20 38 24 25 24
internal_value=0 0.00216767 0.000999708 0.00221758 3.71965e-05
internal_weight=0 139 111 49 62
internal_count=159 139 111 49 62
is_linear=0
shrinkage=0.03


Tree=79
num_leaves=5
num_cat=0
split_feature=304 289 5 439
split_gain=0.247375 0.425362 0.157722 0.0814969
threshold=1.0000000180025095e-35 1.0000000180025095e-35 16.700000000000003 1.0000000180025095e-35
decision_type=2 2 8 2
left_child=1 -1 3 -3
right_child=-2 2 -4 -5
leaf_value=0.0040112439706885758 -0.0021456117678566701 -0.0019019571462502844 0.0017761672869688126 0.00030223652021959423
leaf_weight=39 21 26 41 36
leaf_count=39 21 26 41 36
internal_value=0 0.00134289 0.000332548 -0.000622103
internal_weight=0 142 103 62
internal_count=163 142 103 62
is_linear=0
shrinkage=0.03


end of trees

feature_importances:
feature5=61
feature3=60
feature4=56
feature289=41
feature439=34
feature6=24
feature525=19
feature1=18
feature290=16
feature16=13
feature448=13
feature304=10
feature2=9
feature436=8
feature0=6
feature51=5
feature7=4
feature53=4
feature18=3
feature35=3
feature302=2
feature386=2
feature14=1

parameters:
[boosting: gbdt]
[objective: regression]
[metric: rmse]
[tree_learner: serial]
[device_type: cpu]
[data: ]
[valid: ]
[num_iterations: 2000]
[learning_rate: 0.03]
[num_leaves: 12]
[num_threads: 12]
[deterministic: 0]
[force_col_wise: 0]
[force_row_wise: 0]
[histogram_pool_size: -1]
[max_depth: 5]
[min_data_in_leaf: 20]
[min_sum_hessian_in_leaf: 0.001]
[bagging_fraction: 0.7]
[pos_bagging_fraction: 1]
[neg_bagging_fraction: 1]
[bagging_freq: 1]
[bagging_seed: 400]
[feature_fraction: 0.7]
[feature_fraction_bynode: 1]
[feature_fraction_seed: 30056]
[extra_trees: 0]
[extra_seed: 12879]
[early_stopping_round: 300]
[first_metric_only: 0]
[max_delta_step: 0]
[lambda_l1: 0]
[lambda_l2: 0]
[linear_lambda: 0]
[min_gain_to_split: 0]
[drop_rate: 0.1]
[max_drop: 50]
[skip_drop: 0.5]
[xgboost_dart_mode: 0]
[uniform_drop: 0]
[drop_seed: 17869]
[top_rate: 0.2]
[other_rate: 0.1]
[min_data_per_group: 100]
[max_cat_threshold: 32]
[cat_l2: 10]
[cat_smooth: 10]
[max_cat_to_onehot: 4]
[top_k: 20]
[monotone_constraints: ]
[monotone_constraints_method: basic]
[monotone_penalty: 0]
[feature_contri: ]
[forcedsplits_filename: ]
[refit_decay_rate: 0.9]
[cegb_tradeoff: 1]
[cegb_penalty_split: 0]
[cegb_penalty_feature_lazy: ]
[cegb_penalty_feature_coupled: ]
[path_smooth: 0]
[interaction_constraints: ]
[verbosity: -1]
[saved_feature_importance_type: 0]
[linear_tree: 0]
[max_bin: 7]
[max_bin_by_feature: ]
[min_data_in_bin: 3]
[bin_construct_sample_cnt: 200000]
[data_random_seed: 175]
[is_enable_sparse: 1]
[enable_bundle: 1]
[use_missing: 1]
[zero_as_missing: 0]
[feature_pre_filter: 1]
[pre_partition: 0]
[two_round: 0]
[header: 0]
[label_column: ]
[weight_column: ]
[group_column: ]
[ignore_column: ]
[categorical_feature: ]
[forcedbins_filename: ]
[precise_float_parser: 0]
[objective_seed: 16083]
[num_class: 1]
[is_unbalance: 0]
[scale_pos_weight: 1]
[sigmoid: 1]
[boost_from_average: 0]
[reg_sqrt: 0]
[alpha: 0.9]
[fair_c: 1]
[poisson_max_delta_step: 0.7]
[tweedie_variance_power: 1.5]
[lambdarank_truncation_level: 30]
[lambdarank_norm: 1]
[label_gain: ]
[eval_at: ]
[multi_error_top_k: 1]
[auc_mu_weights: ]
[num_machines: 1]
[local_listen_port: 12400]
[time_out: 120]
[machine_list_filename: ]
[machines: ]
[gpu_platform_id: -1]
[gpu_device_id: -1]
[gpu_use_dp: 0]
[num_gpu: 1]

end of parameters

pandas_categorical:[]
