tree
version=v3
num_class=1
num_tree_per_iteration=1
label_index=0
max_feature_idx=525
objective=regression
feature_names=feature0 feature1 feature2 feature3 feature4 feature5 feature6 feature7 feature8 feature9 feature10 feature11 feature12 feature13 feature14 feature15 feature16 feature17 feature18 feature19 feature20 feature21 feature22 feature23 feature24 feature25 feature26 feature27 feature28 feature29 feature30 feature31 feature32 feature33 feature34 feature35 feature36 feature37 feature38 feature39 feature40 feature41 feature42 feature43 feature44 feature45 feature46 feature47 feature48 feature49 feature50 feature51 feature52 feature53 feature54 feature55 feature56 feature57 feature58 feature59 feature60 feature61 feature62 feature63 feature64 feature65 feature66 feature67 feature68 feature69 feature70 feature71 feature72 feature73 feature74 feature75 feature76 feature77 feature78 feature79 feature80 feature81 feature82 feature83 feature84 feature85 feature86 feature87 feature88 feature89 feature90 feature91 feature92 feature93 feature94 feature95 feature96 feature97 feature98 feature99 feature100 feature101 feature102 feature103 feature104 feature105 feature106 feature107 feature108 feature109 feature110 feature111 feature112 feature113 feature114 feature115 feature116 feature117 feature118 feature119 feature120 feature121 feature122 feature123 feature124 feature125 feature126 feature127 feature128 feature129 feature130 feature131 feature132 feature133 feature134 feature135 feature136 feature137 feature138 feature139 feature140 feature141 feature142 feature143 feature144 feature145 feature146 feature147 feature148 feature149 feature150 feature151 feature152 feature153 feature154 feature155 feature156 feature157 feature158 feature159 feature160 feature161 feature162 feature163 feature164 feature165 feature166 feature167 feature168 feature169 feature170 feature171 feature172 feature173 feature174 feature175 feature176 feature177 feature178 feature179 feature180 feature181 feature182 feature183 feature184 feature185 feature186 feature187 feature188 feature189 feature190 feature191 feature192 feature193 feature194 feature195 feature196 feature197 feature198 feature199 feature200 feature201 feature202 feature203 feature204 feature205 feature206 feature207 feature208 feature209 feature210 feature211 feature212 feature213 feature214 feature215 feature216 feature217 feature218 feature219 feature220 feature221 feature222 feature223 feature224 feature225 feature226 feature227 feature228 feature229 feature230 feature231 feature232 feature233 feature234 feature235 feature236 feature237 feature238 feature239 feature240 feature241 feature242 feature243 feature244 feature245 feature246 feature247 feature248 feature249 feature250 feature251 feature252 feature253 feature254 feature255 feature256 feature257 feature258 feature259 feature260 feature261 feature262 feature263 feature264 feature265 feature266 feature267 feature268 feature269 feature270 feature271 feature272 feature273 feature274 feature275 feature276 feature277 feature278 feature279 feature280 feature281 feature282 feature283 feature284 feature285 feature286 feature287 feature288 feature289 feature290 feature291 feature292 feature293 feature294 feature295 feature296 feature297 feature298 feature299 feature300 feature301 feature302 feature303 feature304 feature305 feature306 feature307 feature308 feature309 feature310 feature311 feature312 feature313 feature314 feature315 feature316 feature317 feature318 feature319 feature320 feature321 feature322 feature323 feature324 feature325 feature326 feature327 feature328 feature329 feature330 feature331 feature332 feature333 feature334 feature335 feature336 feature337 feature338 feature339 feature340 feature341 feature342 feature343 feature344 feature345 feature346 feature347 feature348 feature349 feature350 feature351 feature352 feature353 feature354 feature355 feature356 feature357 feature358 feature359 feature360 feature361 feature362 feature363 feature364 feature365 feature366 feature367 feature368 feature369 feature370 feature371 feature372 feature373 feature374 feature375 feature376 feature377 feature378 feature379 feature380 feature381 feature382 feature383 feature384 feature385 feature386 feature387 feature388 feature389 feature390 feature391 feature392 feature393 feature394 feature395 feature396 feature397 feature398 feature399 feature400 feature401 feature402 feature403 feature404 feature405 feature406 feature407 feature408 feature409 feature410 feature411 feature412 feature413 feature414 feature415 feature416 feature417 feature418 feature419 feature420 feature421 feature422 feature423 feature424 feature425 feature426 feature427 feature428 feature429 feature430 feature431 feature432 feature433 feature434 feature435 feature436 feature437 feature438 feature439 feature440 feature441 feature442 feature443 feature444 feature445 feature446 feature447 feature448 feature449 feature450 feature451 feature452 feature453 feature454 feature455 feature456 feature457 feature458 feature459 feature460 feature461 feature462 feature463 feature464 feature465 feature466 feature467 feature468 feature469 feature470 feature471 feature472 feature473 feature474 feature475 feature476 feature477 feature478 feature479 feature480 feature481 feature482 feature483 feature484 feature485 feature486 feature487 feature488 feature489 feature490 feature491 feature492 feature493 feature494 feature495 feature496 feature497 feature498 feature499 feature500 feature501 feature502 feature503 feature504 feature505 feature506 feature507 feature508 feature509 feature510 feature511 feature512 feature513 feature514 feature515 feature516 feature517 feature518 feature519 feature520 feature521 feature522 feature523 feature524 feature525
feature_infos=[0:1] [0:100] [0:1] [4.7300000000000004:3170] [0.012999999999999999:21.920000000000002] [-64.299999999999997:48.450000000000003] [0.57110000000000005:99.799999999999997] [0.0275:78.299999999999997] [0:46] none none none none none [0:1] none [0:1] none [0:1] none none none none none none none none none none none none none none none none [0:1] none none none none none none [0:1] none none none none none none none none [0:1] none [0:1] none none none none none none none none none none none none none none none none none none none none none none none none none none none none none none none none none none none none none none none none none none none none none none none none none none none none none none none none none none none none none none none none none none none none none none none none none none none none none none none none none none none none none none none none none none none none none none none none none none none none none none none none none none none none none none none none none none none none none none none none none none none none none none none none none none none none none none none none none none none none none none none none none none none none none [0:1] none none none none none none none none none none none none none none none none none none none none none none none none none none none none none none none none none none none none none none none none none none none none none none none none none none none none none none none none none none none none none none none none none none none none none none none none none none none none none none none none none none [0:1] none none [0:1] [0:1] none none none none none none none none none none none [0:1] none [0:1] none [0:1] none none none none none none none none none none none none none none none none none none none none none none none none none none none none none none none none none none none none none none none none none none none none none none none none none none none none none none none none none none none none none none none none none none none none none none none none none none none none none none none [0:1] none none none none none none none none none none none none none none none none none none none none none none none none none none none none none none none none none none none none none none none none none none none none none none none none none [0:1] none none [0:1] none none none none none [0:1] none none [0:1] none none none none none none none none none none none none none none none [0:1] none [0:1] none none none none none none none none none none none none none none none none none none none none none none none none none none none none none none none none none none none none none none none none none none none none none none none none none none none none none none none none none [0:1] [0:1]
tree_sizes=971 901 899 1073 893 864 890 991 969 974 998 977 817 891 798 824 747 723 979 987 739 918 966 716 915 896 992 824 829 992 750 750 842 830 916 732 748 997 917 879 986 910 747 831 827 747 733 925 1009 917 894 935 1013 923 995 1022 815 917 904 928 840 879 916 825 748 930 927 1097 911 984 906 1017 762 743 850 934 840 841 815 829

Tree=0
num_leaves=10
num_cat=0
split_feature=289 304 439 448 4 4 1 6 439
split_gain=5.74614 2.93211 3.98814 0.836472 0.82723 0.468775 0.429009 0.657068 0.434562
threshold=1.0000000180025095e-35 1.0000000180025095e-35 1.0000000180025095e-35 1.0000000180025095e-35 0.28400000000000009 0.12600000000000003 inf 80.600000000000009 1.0000000180025095e-35
decision_type=2 2 2 2 8 10 8 8 2
left_child=1 2 -1 5 -4 -2 -5 -8 -9
right_child=3 -3 4 6 -6 -7 7 8 -10
leaf_value=0.035802870467305181 0.0069034672970883547 0.014572494671005628 0.024354941253550349 0.011760016777552664 0.01609379730373621 0.013041010147758892 0.011447202510067395 0.015477457795171968 0.021066770399255412
leaf_weight=24 24 29 24 32 20 21 21 31 21
leaf_count=24 24 29 24 32 20 21 21 31 21
internal_value=0 0.0225594 0.0259656 0.0131897 0.0205999 0.00976765 0.0146563 0.015926 0.0177347
internal_weight=0 97 68 150 44 45 105 73 52
internal_count=247 97 68 150 44 45 105 73 52
is_linear=0
shrinkage=0.03


Tree=1
num_leaves=9
num_cat=0
split_feature=290 304 439 16 4 16 6 4
split_gain=4.47733 1.84517 1.3142 1.15571 1.11466 0.917509 0.915591 0.581075
threshold=1.0000000180025095e-35 1.0000000180025095e-35 1.0000000180025095e-35 1.0000000180025095e-35 0.28400000000000009 1.0000000180025095e-35 58.145000000000003 0.28400000000000009
decision_type=2 2 2 2 8 2 10 8
left_child=2 -2 5 6 -5 -1 -4 -7
right_child=1 -3 3 4 -6 7 -8 -9
leaf_value=0.014290999152165439 0.026271856403664539 0.016575247730043801 0.008400373663753272 0.023486877759652476 0.014789888267405332 0.010874339193105697 0.016457899706438184 0.0044009731810253395
leaf_weight=28 38 33 30 21 36 24 22 26
leaf_count=28 38 33 30 21 36 24 22 26
internal_value=0 0.021765 0.0129161 0.0150435 0.017994 0.00994304 0.0118093 0.00750819
internal_weight=0 71 187 109 57 78 52 50
internal_count=258 71 187 109 57 78 52 50
is_linear=0
shrinkage=0.03


Tree=2
num_leaves=9
num_cat=0
split_feature=290 304 16 6 439 3 3 525
split_gain=5.49989 4.29795 0.869696 2.1589 1.47966 0.677592 0.643582 0.117036
threshold=1.0000000180025095e-35 1.0000000180025095e-35 1.0000000180025095e-35 80.600000000000009 1.0000000180025095e-35 111.80000000000001 151.55000000000004 1.0000000180025095e-35
decision_type=2 2 2 8 2 8 10 2
left_child=2 5 6 -4 -5 -2 7 -1
right_child=1 -3 3 4 -6 -7 -8 -9
leaf_value=0.0069424028322100633 0.033057627484202386 0.013485259031876921 0.0080381679888814686 0.012814057277996213 0.021645965380747312 0.025248445764183999 0.013901514293393119 0.0098475898820190467
leaf_weight=24 20 26 30 31 38 20 32 26
leaf_count=24 20 26 30 31 38 20 32 26
internal_value=0 0.0229809 0.0128643 0.0147568 0.017678 0.029153 0.0105793 0.0084531
internal_weight=0 66 181 99 69 40 82 50
internal_count=247 66 181 99 69 40 82 50
is_linear=0
shrinkage=0.03


Tree=3
num_leaves=11
num_cat=0
split_feature=290 3 439 6 5 439 16 5 5 2
split_gain=4.40709 2.17394 4.30223 1.59727 1.54158 0.565393 0.450457 0.405161 0.306327 0.201911
threshold=1.0000000180025095e-35 151.55000000000004 1.0000000180025095e-35 80.600000000000009 -24.199999999999996 1.0000000180025095e-35 1.0000000180025095e-35 -1.0000000180025095e-35 -24.199999999999996 1.0000000180025095e-35
decision_type=2 8 2 10 10 2 2 8 10 8
left_child=3 2 -2 5 -5 8 9 -8 -1 -7
right_child=1 -3 -4 4 -6 6 7 -9 -10 -11
leaf_value=0.011694493824294928 0.035671655359593303 0.016481834042918034 0.016687944057796684 0.013021271458584005 0.024263615501778465 0.013168809706006536 0.012708593227646567 0.018534296112401146 0.0072952987113967535 0.0090039544114843013
leaf_weight=29 22 37 21 23 21 22 22 21 28 20
leaf_count=29 22 37 21 23 21 22 22 21 28 20
internal_value=0 0.0218131 0.0264005 0.0133927 0.0183869 0.0118451 0.0133953 0.0155537 0.00953349 0.0111855
internal_weight=0 80 43 186 44 142 85 43 57 42
internal_count=266 80 43 186 44 142 85 43 57 42
is_linear=0
shrinkage=0.03


Tree=4
num_leaves=9
num_cat=0
split_feature=289 304 1 3 0 1 3 4
split_gain=4.40157 2.45852 1.8715 2.07431 0.582635 0.308616 0.428725 0.310507
threshold=1.0000000180025095e-35 1.0000000180025095e-35 21.500000000000004 151.55000000000004 1.0000000180025095e-35 1.0000000180025095e-35 111.80000000000001 0.28400000000000009
decision_type=2 2 8 8 8 8 10 8
left_child=1 2 -1 -4 5 -2 7 -7
right_child=4 -3 3 -5 -6 6 -8 -9
leaf_value=0.014099598409608007 0.0094406677549704904 0.011871543883346021 0.030006939433515071 0.018516739472352824 0.0076239016571674834 0.017683183508259908 0.010619360997031133 0.012778515097900078
leaf_weight=20 28 30 31 26 33 21 36 26
leaf_count=20 28 30 31 26 33 21 36 26
internal_value=0 0.0191569 0.0219954 0.0247658 0.0111237 0.0121642 0.013083 0.01497
internal_weight=0 107 77 57 144 111 83 47
internal_count=251 107 77 57 144 111 83 47
is_linear=0
shrinkage=0.03


Tree=5
num_leaves=9
num_cat=0
split_feature=448 4 51 16 2 2 1 436
split_gain=3.56625 1.91346 1.44937 1.39849 1.6699 1.03699 0.719071 0.255675
threshold=1.0000000180025095e-35 0.28400000000000009 1.0000000180025095e-35 1.0000000180025095e-35 inf 1.0000000180025095e-35 inf 1.0000000180025095e-35
decision_type=2 8 2 2 8 8 8 2
left_child=5 3 -3 -2 -5 -1 -4 -8
right_child=1 2 6 4 -6 -7 7 -9
leaf_value=0.011475102667815614 0.015612733253510667 0.018754680412156239 0.007489519238006323 0.018342191568017002 0.029543111641769822 0.0030866016121581193 0.011759847802636416 0.016338292390074848
leaf_weight=36 32 42 24 25 23 21 23 21
leaf_count=36 32 42 24 25 23 21 23 21
internal_value=0 0.0169404 0.014373 0.0204707 0.0237093 0.0083846 0.0116666 0.013945
internal_weight=0 190 110 80 48 57 68 44
internal_count=247 190 110 80 48 57 68 44
is_linear=0
shrinkage=0.03


Tree=6
num_leaves=9
num_cat=0
split_feature=289 1 3 0 16 3 5 3
split_gain=2.4743 1.64793 2.95687 0.876226 0.561701 1.01619 0.499116 0.317733
threshold=1.0000000180025095e-35 21.500000000000004 111.80000000000001 1.0000000180025095e-35 1.0000000180025095e-35 85.295000000000016 -24.199999999999996 111.80000000000001
decision_type=2 8 8 10 2 10 10 10
left_child=1 -1 -3 -4 7 -6 -7 -2
right_child=4 2 3 -5 5 6 -8 -9
leaf_value=0.0113674278041747 0.0077377308935453921 0.028884260738673416 0.019166273681277577 0.011436936016279188 0.017619346235878765 0.006962685691192746 0.013123045950999546 0.011994061685270733
leaf_weight=28 38 23 33 22 30 20 29 27
leaf_count=28 38 23 33 22 30 20 29 27
internal_value=0 0.0176106 0.0198518 0.0160745 0.0115714 0.0132709 0.0106086 0.00950575
internal_weight=0 106 78 55 144 79 49 65
internal_count=250 106 78 55 144 79 49 65
is_linear=0
shrinkage=0.03


Tree=7
num_leaves=10
num_cat=0
split_feature=290 6 439 16 439 5 2 4 436
split_gain=4.16873 1.28697 1.18853 1.59636 1.16868 0.635809 0.460651 0.407413 0.0263359
threshold=1.0000000180025095e-35 90.25500000000001 1.0000000180025095e-35 1.0000000180025095e-35 1.0000000180025095e-35 15.755000000000001 1.0000000180025095e-35 0.12600000000000003 1.0000000180025095e-35
decision_type=2 8 2 2 2 8 8 10 2
left_child=1 2 -1 -4 -2 7 8 -3 -7
right_child=4 5 3 -5 -6 6 -8 -9 -10
leaf_value=0.0093653321284800761 0.023913361483181898 0.0043822213025255631 0.01211665947921574 0.023827412089502269 0.016417594396819672 0.014739851129008457 0.0090041180412638294 0.0099292629071547154 0.013200294725596903
leaf_weight=20 39 22 20 22 36 20 29 26 20
leaf_count=20 39 22 20 22 36 20 29 26 20
internal_value=0 0.0118901 0.0153846 0.0182509 0.0203154 0.0100384 0.0118829 0.00738687 0.0139701
internal_weight=0 179 62 42 75 117 69 48 40
internal_count=254 179 62 42 75 117 69 48 40
is_linear=0
shrinkage=0.03


Tree=8
num_leaves=10
num_cat=0
split_feature=290 5 5 5 4 2 525 14 4
split_gain=3.26573 1.92531 1.61546 1.18136 0.653571 0.652851 0.281909 0.00268709 0.0023706
threshold=1.0000000180025095e-35 1.0000000180025095e-35 -11.295 -11.295 0.28400000000000009 1.0000000180025095e-35 1.0000000180025095e-35 1.0000000180025095e-35 0.17600000000000002
decision_type=2 10 10 8 8 8 2 2 10
left_child=1 3 -2 4 8 6 -5 -7 -1
right_child=2 -3 -4 5 -6 7 -8 -9 -10
leaf_value=0.014085845648311078 0.014026076284702866 0.016736767733579173 0.023325686758576793 0.0066883183446328114 0.007674806809052824 0.0037744126416256896 0.01129048639833927 0.0042498764209449287 0.014547748636454343
leaf_weight=20 40 34 29 23 20 23 25 20 20
leaf_count=20 40 34 29 23 20 23 25 20 20
internal_value=0 0.0102871 0.0179346 0.0088349 0.0121028 0.00668025 0.00908528 0.00399556 0.0143168
internal_weight=0 185 69 151 60 91 48 43 40
internal_count=254 185 69 151 60 91 48 43 40
is_linear=0
shrinkage=0.03


Tree=9
num_leaves=10
num_cat=0
split_feature=289 304 439 448 6 1 3 3 6
split_gain=3.13979 1.17173 1.50955 0.73815 0.689238 0.756189 0.65954 0.192218 0.163589
threshold=1.0000000180025095e-35 1.0000000180025095e-35 1.0000000180025095e-35 1.0000000180025095e-35 80.600000000000009 inf 85.295000000000016 111.80000000000001 1.0000000180025095e-35
decision_type=2 2 2 2 8 8 10 10 10
left_child=1 2 -1 7 -5 -6 -7 -2 -4
right_child=3 -3 8 4 5 6 -8 -9 -10
leaf_value=0.025700984752178191 0.0058441666259684347 0.01259516421938315 0.014930041310191154 0.0079194875201937971 0.0094108286663889887 0.019037076934344241 0.012406141622405912 0.0095628822363656128 0.018435820399419121
leaf_weight=25 22 29 25 24 25 27 27 29 23
leaf_count=25 22 29 25 24 25 27 27 29 23
internal_value=0 0.0176967 0.0197233 0.0109104 0.0123719 0.0137245 0.0157216 0.00795873 0.0166099
internal_weight=0 102 73 154 103 79 54 51 48
internal_count=256 102 73 154 103 79 54 51 48
is_linear=0
shrinkage=0.03


Tree=10
num_leaves=10
num_cat=0
split_feature=289 304 439 4 18 439 3 4 3
split_gain=4.10143 3.50816 4.00011 0.960155 0.626629 0.484825 0.993691 0.242663 0.241011
threshold=1.0000000180025095e-35 1.0000000180025095e-35 1.0000000180025095e-35 0.22500000000000003 1.0000000180025095e-35 1.0000000180025095e-35 111.80000000000001 0.17600000000000002 111.80000000000001
decision_type=2 2 2 8 2 2 8 10 8
left_child=1 2 -1 -4 5 8 -7 -8 -2
right_child=4 -3 3 -5 -6 6 7 -9 -10
leaf_value=0.031370612553187779 0.0040604607257992021 0.0084323630201106423 0.020692717865109442 0.012086376449359315 0.013966196888010018 0.013764123101444805 0.0052579811957132599 0.0095846135532483452 0.0078153413106920189
leaf_weight=21 25 32 20 28 20 34 28 20 40
leaf_count=21 25 32 20 28 20 34 28 20 40
internal_value=0 0.0166425 0.0204501 0.0156724 0.0089841 0.00830627 0.00984019 0.00706074 0.00637116
internal_weight=0 101 69 48 167 147 82 48 65
internal_count=268 101 69 48 167 147 82 48 65
is_linear=0
shrinkage=0.03


Tree=11
num_leaves=10
num_cat=0
split_feature=289 304 439 439 16 3 2 2 3
split_gain=2.24366 1.9208 1.89784 0.798986 1.25904 1.24318 0.625572 0.126275 0.300311
threshold=1.0000000180025095e-35 1.0000000180025095e-35 1.0000000180025095e-35 1.0000000180025095e-35 1.0000000180025095e-35 111.80000000000001 1.0000000180025095e-35 inf 151.55000000000004
decision_type=2 2 2 2 2 10 8 8 8
left_child=1 2 -1 7 -5 -6 -4 8 -2
right_child=3 -3 6 4 5 -7 -8 -9 -10
leaf_value=0.025595802377377238 0.0057427671701253315 0.0091003815072678747 0.010890670847147703 0.0074329978606958941 0.019032631946297791 0.0093429272393272672 0.018052315746798463 0.0051053341749039555 0.010632485865382478
leaf_weight=21 26 31 21 41 26 22 23 22 20
leaf_count=21 26 31 21 41 26 22 23 22 20
internal_value=0 0.0152451 0.0181757 0.00942309 0.0112938 0.0145915 0.0146343 0.00697469 0.00786873
internal_weight=0 96 65 157 89 48 44 68 46
internal_count=253 96 65 157 89 48 44 68 46
is_linear=0
shrinkage=0.03


Tree=12
num_leaves=8
num_cat=0
split_feature=448 304 51 1 7 2 16
split_gain=2.29132 0.887826 1.89255 0.626038 0.619771 0.34577 0.343594
threshold=1.0000000180025095e-35 1.0000000180025095e-35 1.0000000180025095e-35 inf 1.0000000180025095e-35 1.0000000180025095e-35 1.0000000180025095e-35
decision_type=2 2 2 8 10 8 2
left_child=5 2 6 -4 -5 -1 -2
right_child=1 -3 3 4 -6 -7 -8
leaf_value=0.0086151633528061197 0.016633729842890587 0.0086495355659750306 0.0089165274938568465 0.015076054211992483 0.0091478936454015124 0.0039892499653909072 0.021888271265197545
leaf_weight=33 21 31 36 65 21 26 24
leaf_count=33 21 31 36 65 21 26 24
internal_value=0 0.0133122 0.0141777 0.0122381 0.0136285 0.00657663 0.0194362
internal_weight=0 198 167 122 86 59 45
internal_count=257 198 167 122 86 59 45
is_linear=0
shrinkage=0.03


Tree=13
num_leaves=9
num_cat=0
split_feature=290 5 3 1 3 439 6 6
split_gain=1.75088 0.964406 0.922882 0.624631 0.494155 0.436636 0.176141 0.143746
threshold=1.0000000180025095e-35 -11.295 192.10000000000005 21.500000000000004 85.295000000000016 1.0000000180025095e-35 1.0000000180025095e-35 80.600000000000009
decision_type=2 10 10 8 10 2 10 8
left_child=2 6 3 -1 5 -5 -2 -6
right_child=1 -3 -4 4 7 -7 -8 -9
leaf_value=0.0059498925202272155 0.011628834200294121 0.020813422125577925 0.015718657532706855 0.010139188648151632 0.0071324620546343231 0.015538175090287739 0.015383594690991395 0.0099977913333568723
leaf_weight=33 23 25 26 28 26 26 22 40
leaf_count=33 23 25 26 28 26 26 22 40
internal_value=0 0.0160891 0.0104932 0.00960518 0.0106104 0.0127387 0.0134645 0.00886903
internal_weight=0 70 179 153 120 54 45 66
internal_count=249 70 179 153 120 54 45 66
is_linear=0
shrinkage=0.03


Tree=14
num_leaves=8
num_cat=0
split_feature=289 5 3 6 2 6 3
split_gain=1.64288 1.58013 0.920509 1.90848 0.853195 0.397685 0.367219
threshold=1.0000000180025095e-35 -11.295 111.80000000000001 71.345000000000013 1.0000000180025095e-35 90.25500000000001 192.10000000000005
decision_type=2 10 8 10 8 8 8
left_child=1 6 3 -2 5 -4 -1
right_child=2 -3 4 -5 -6 -7 -8
leaf_value=0.012670117699541151 0.0072766817369099169 0.018610845211188536 0.006529069242891497 0.018260451983660459 0.0036283531480003147 0.011490116095678373 0.0080903925685785142
leaf_weight=40 35 37 26 24 40 33 26
leaf_count=40 35 37 26 24 40 33 26
internal_value=0 0.0136481 0.00877847 0.0117447 0.00701075 0.00930389 0.010866
internal_weight=0 103 158 59 99 59 66
internal_count=261 103 158 59 99 59 66
is_linear=0
shrinkage=0.03


Tree=15
num_leaves=8
num_cat=0
split_feature=53 4 4 35 439 4 16
split_gain=1.94593 1.84314 0.7572 1.4493 0.453455 0.421913 0.674878
threshold=1.0000000180025095e-35 0.12600000000000003 0.17600000000000002 1.0000000180025095e-35 1.0000000180025095e-35 0.28400000000000009 1.0000000180025095e-35
decision_type=2 8 10 2 2 10 2
left_child=1 -1 3 -3 -5 6 -4
right_child=-2 2 5 4 -6 -7 -8
leaf_value=0.017537843713966699 0.01780246413203285 0.014734490174800156 0.0096148432822277131 0.0035800792779340299 0.0078431896460143501 0.0078980309837921089 0.016528877793462016
leaf_weight=26 34 20 27 43 47 22 24
leaf_count=26 34 20 27 43 47 22 24
internal_value=0 0.0100636 0.00900171 0.00742966 0.00580637 0.0113706 0.0128685
internal_weight=0 209 183 110 90 73 51
internal_count=243 209 183 110 90 73 51
is_linear=0
shrinkage=0.03


Tree=16
num_leaves=7
num_cat=0
split_feature=53 18 7 525 6 5
split_gain=2.76446 0.696806 0.429847 0.413325 0.970991 0.443695
threshold=1.0000000180025095e-35 1.0000000180025095e-35 0.17700000000000002 1.0000000180025095e-35 71.345000000000013 -1.0000000180025095e-35
decision_type=2 2 10 2 8 8
left_child=1 2 3 4 -1 -5
right_child=-2 -3 -4 5 -6 -7
leaf_value=0.013368077464401721 0.018339372861066034 0.014091242556460201 0.0047247154222780155 0.013913084009337971 0.0065348302489694424 0.0089361174333546494
leaf_weight=24 35 24 22 28 85 38
leaf_count=24 35 24 22 28 85 38
internal_value=0 0.00926501 0.00867704 0.0091739 0.0080394 0.0110476
internal_weight=0 221 197 175 109 66
internal_count=256 221 197 175 109 66
is_linear=0
shrinkage=0.03


Tree=17
num_leaves=7
num_cat=0
split_feature=4 290 3 5 5 3
split_gain=1.57897 2.13464 0.783976 0.730438 0.2382 0.36549
threshold=0.12600000000000003 1.0000000180025095e-35 151.55000000000004 1.0000000180025095e-35 -11.295 151.55000000000004
decision_type=8 2 8 10 10 8
left_child=-1 3 -3 4 5 -2
right_child=1 2 -4 -5 -6 -7
leaf_value=0.016622340774370564 0.0051076494926880845 0.017701054418252572 0.010536436526038286 0.011463361356407404 0.0032664010981097815 0.0084902969818734884
leaf_weight=27 57 27 28 30 20 58
leaf_count=27 57 27 28 30 20 58
internal_value=0 0.00893523 0.0140536 0.0072291 0.00628816 0.00681368
internal_weight=0 220 55 165 135 115
internal_count=247 220 55 165 135 115
is_linear=0
shrinkage=0.03


Tree=18
num_leaves=10
num_cat=0
split_feature=289 6 53 4 1 3 4 16 3
split_gain=1.24261 1.0069 1.16706 0.603892 0.275452 0.615169 0.468559 0.344766 0.00513639
threshold=1.0000000180025095e-35 58.145000000000003 1.0000000180025095e-35 0.28400000000000009 inf 85.295000000000016 0.17600000000000002 1.0000000180025095e-35 1.0000000180025095e-35
decision_type=2 10 2 8 8 10 10 2 10
left_child=1 2 -1 -3 7 8 -7 -2 -6
right_child=4 3 -4 -5 5 6 -8 -9 -10
leaf_value=0.0062336816395131443 0.0032352385879494249 0.019288324020802976 0.014261429716633366 0.012004353100700037 0.011013594503913607 0.0045074506069680579 0.0094774399766878719 0.0084345469729636205 0.011677116860768624
leaf_weight=39 24 20 28 21 21 38 31 22 21
leaf_count=39 24 20 28 21 21 38 31 22 21
internal_value=0 0.0118546 0.00958856 0.0155575 0.00767385 0.00848278 0.00674034 0.00572186 0.0113454
internal_weight=0 108 67 41 157 111 69 46 42
internal_count=265 108 67 41 157 111 69 46 42
is_linear=0
shrinkage=0.03


Tree=19
num_leaves=10
num_cat=0
split_feature=4 51 525 5 5 7 525 5 448
split_gain=1.30598 0.774957 0.464806 0.565515 0.354895 0.260506 0.246886 0.171 0.0833807
threshold=0.28400000000000009 1.0000000180025095e-35 1.0000000180025095e-35 -24.199999999999996 15.755000000000001 1.0000000180025095e-35 1.0000000180025095e-35 -11.295 1.0000000180025095e-35
decision_type=8 2 2 10 8 10 2 10 2
left_child=2 4 7 -4 -2 6 -3 -1 -8
right_child=1 5 3 -5 -6 -7 8 -9 -10
leaf_value=0.011025781806691417 0.0075434193131513894 0.0081719166381905468 0.016869546806682709 0.010060346314151371 0.013127330955384032 0.0025543031641947372 0.006215556607551305 0.0079106502466160678 0.0037358439712876974
leaf_weight=35 20 36 23 21 21 21 23 29 26
leaf_count=35 20 36 23 21 21 21 23 29 26
internal_value=0 0.0069011 0.0112461 0.0136197 0.0104035 0.00554641 0.00628563 0.00961424 0.00489979
internal_weight=0 147 108 44 41 106 85 64 49
internal_count=255 147 108 44 41 106 85 64 49
is_linear=0
shrinkage=0.03


Tree=20
num_leaves=7
num_cat=0
split_feature=290 304 4 4 6 0
split_gain=2.10698 2.90791 1.45025 0.393457 0.247291 0.136142
threshold=1.0000000180025095e-35 1.0000000180025095e-35 0.12600000000000003 0.22500000000000003 80.600000000000009 1.0000000180025095e-35
decision_type=2 2 8 8 8 8
left_child=2 -2 -1 -4 -5 -6
right_child=1 -3 3 4 5 -7
leaf_value=0.015033210997834154 0.019608236698147194 0.0075081487524915813 0.0039402122081505257 0.0054290656512603159 0.00912017700150803 0.0064689382497707133
leaf_weight=23 39 33 31 32 72 23
leaf_count=23 39 33 31 32 72 23
internal_value=0 0.0140624 0.00799491 0.00697035 0.00770999 0.0084783
internal_weight=0 72 181 158 127 95
internal_count=253 72 181 158 127 95
is_linear=0
shrinkage=0.03


Tree=21
num_leaves=9
num_cat=0
split_feature=51 304 439 3 439 5 5 439
split_gain=2.91619 2.36577 2.39308 0.460747 0.569522 1.13536 0.104341 0.0670795
threshold=1.0000000180025095e-35 1.0000000180025095e-35 1.0000000180025095e-35 85.295000000000016 1.0000000180025095e-35 -24.199999999999996 -1.0000000180025095e-35 1.0000000180025095e-35
decision_type=2 2 2 10 2 10 8 2
left_child=1 2 -1 7 6 -6 -5 -2
right_child=3 -3 -4 4 5 -7 -8 -9
leaf_value=0.025909097900614141 0.010339661737013122 0.0069009794605274996 0.01221755650308397 0.0046616470128194327 0.0034691516606306485 0.011029907811719638 0.0019119337599967483 0.0082765302781921783
leaf_weight=20 23 27 27 27 33 39 23 37
leaf_count=20 23 27 27 27 33 39 23 37
internal_value=0 0.0139781 0.0180437 0.00691501 0.00585645 0.00756456 0.00339678 0.0090674
internal_weight=0 74 47 182 122 72 50 60
internal_count=256 74 47 182 122 72 50 60
is_linear=0
shrinkage=0.03


Tree=22
num_leaves=10
num_cat=0
split_feature=289 5 4 5 1 6 16 6 3
split_gain=1.80692 0.973836 1.20881 0.465085 0.211117 0.54934 0.195431 0.0916156 0.0185163
threshold=1.0000000180025095e-35 -11.295 0.28400000000000009 1.0000000180025095e-35 inf 80.600000000000009 1.0000000180025095e-35 1.0000000180025095e-35 151.55000000000004
decision_type=2 10 8 10 8 8 2 10 10
left_child=1 2 -1 4 7 -6 -7 -2 -3
right_child=3 8 -4 -5 5 6 -8 -9 -10
leaf_value=0.013199992792473898 0.001670032329434021 0.01474690722829629 0.005025118902870794 0.0091533925083394224 0.0012884176283010414 0.0087622149672824893 0.0055699833358327545 0.0044754941929131742 0.013471450310200453
leaf_weight=27 22 21 41 26 21 28 45 20 20
leaf_count=27 22 21 41 26 21 28 45 20 20
internal_value=0 0.0104729 0.00827102 0.00547708 0.00477425 0.00556434 0.0067944 0.00300597 0.0141247
internal_weight=0 109 68 162 136 94 73 42 41
internal_count=271 109 68 162 136 94 73 42 41
is_linear=0
shrinkage=0.03


Tree=23
num_leaves=7
num_cat=0
split_feature=448 53 3 14 2 5
split_gain=1.62679 0.673613 0.646576 0.514363 0.183483 0.309298
threshold=1.0000000180025095e-35 1.0000000180025095e-35 111.80000000000001 1.0000000180025095e-35 inf -11.295
decision_type=2 2 10 2 8 8
left_child=2 3 -1 4 5 -2
right_child=1 -3 -4 -5 -6 -7
leaf_value=0.00025605148968419855 0.005628282557363095 0.012804902202792857 0.0064121886679341135 0.0053699761145533272 0.011100768557233685 0.0098318886648863547
leaf_weight=28 23 38 34 39 37 50
leaf_count=28 23 38 34 39 37 50
internal_value=0 0.00923951 0.003632 0.00833022 0.00937976 0.00850746
internal_weight=0 187 62 149 110 73
internal_count=249 187 62 149 110 73
is_linear=0
shrinkage=0.03


Tree=24
num_leaves=9
num_cat=0
split_feature=290 304 5 4 448 2 5 6
split_gain=1.13285 1.06586 0.713711 0.858751 0.815734 0.38841 0.239429 0.100768
threshold=1.0000000180025095e-35 1.0000000180025095e-35 1.0000000180025095e-35 0.17600000000000002 1.0000000180025095e-35 1.0000000180025095e-35 -24.199999999999996 90.25500000000001
decision_type=2 2 10 10 2 8 10 8
left_child=2 7 3 4 -1 -6 -5 -2
right_child=1 -3 -4 6 5 -7 -8 -9
leaf_value=-8.5549485973185959e-05 0.012753705354407429 0.0069749893434345716 0.010836292841740942 0.0071875501592347226 0.004003430965367886 0.0083061924225517683 0.01161357164255936 0.015572613549551794
leaf_weight=27 25 33 32 22 41 35 22 21
leaf_count=27 25 33 32 22 41 35 22 21
internal_value=0 0.0110891 0.00677617 0.00589233 0.00439367 0.00598497 0.00940056 0.0140406
internal_weight=0 79 179 147 103 76 44 46
internal_count=258 79 179 147 103 76 44 46
is_linear=0
shrinkage=0.03


Tree=25
num_leaves=9
num_cat=0
split_feature=5 3 4 436 3 0 5 4
split_gain=1.36234 2.04355 1.38818 0.842747 0.910643 0.484246 0.373966 0.0184551
threshold=1.0000000180025095e-35 85.295000000000016 0.17600000000000002 1.0000000180025095e-35 151.55000000000004 1.0000000180025095e-35 -11.295 0.12600000000000003
decision_type=10 8 10 2 10 8 8 10
left_child=1 -1 -2 4 6 -5 -3 -6
right_child=2 3 -4 5 7 -7 -8 -9
leaf_value=0.013679358065128325 0.017205183168586626 0.0045968648948921604 0.007199744815006852 0.011517761038350208 0.0071635165146511533 0.0060321049336343998 0.00056210310685194341 0.0083788923004811458
leaf_weight=34 26 39 24 28 23 30 44 22
leaf_count=34 26 39 24 28 23 30 44 22
internal_value=0 0.00691666 0.0124026 0.00568047 0.00432115 0.00868035 0.00245796 0.0077577
internal_weight=0 220 50 186 128 58 83 45
internal_count=270 220 50 186 128 58 83 45
is_linear=0
shrinkage=0.03


Tree=26
num_leaves=10
num_cat=0
split_feature=51 304 35 4 306 6 5 6 525
split_gain=2.13734 2.55409 0.909381 0.790818 0.714237 0.347478 0.535801 0.126553 0.11361
threshold=1.0000000180025095e-35 1.0000000180025095e-35 1.0000000180025095e-35 0.28400000000000009 1.0000000180025095e-35 80.600000000000009 -11.295 1.0000000180025095e-35 1.0000000180025095e-35
decision_type=2 2 2 8 2 10 10 10 2
left_child=1 4 -2 5 -1 6 -4 8 -5
right_child=2 -3 3 7 -6 -7 -8 -9 -10
leaf_value=0.018621656436705963 0.011375426679477095 0.0034038344233042811 0.0087886575607782486 0.00054938595418048939 0.011828225165148839 0.010443471451998566 0.0026089883585581957 0.0046332353332804313 0.0034999704058282077
leaf_weight=30 25 22 28 23 26 23 23 27 24
leaf_count=30 25 22 28 23 26 23 23 27 24
internal_value=0 0.012065 0.00608328 0.00518933 0.0154676 0.00738228 0.00600175 0.00299639 0.00205607
internal_weight=0 78 173 148 56 74 51 74 47
internal_count=251 78 173 148 56 74 51 74 47
is_linear=0
shrinkage=0.03


Tree=27
num_leaves=8
num_cat=0
split_feature=53 3 6 6 7 6 16
split_gain=1.1869 0.667862 0.559795 0.458073 0.398624 0.637428 0.683599
threshold=1.0000000180025095e-35 151.55000000000004 80.600000000000009 90.25500000000001 1.0000000180025095e-35 58.145000000000003 1.0000000180025095e-35
decision_type=2 8 10 10 10 10 2
left_child=2 -2 4 -4 5 6 -1
right_child=1 -3 3 -5 -6 -7 -8
leaf_value=0.0032167669126970896 0.01573152495082468 0.0083086834587156756 0.013031435715542598 0.0069763608519797741 0.0021975366140250118 0.010622070290381088 0.0077234083381683936
leaf_weight=54 24 20 22 23 20 30 69
leaf_count=54 24 20 22 23 20 30 69
internal_value=0 0.0123575 0.00695588 0.00993662 0.00618054 0.00670119 0.00574488
internal_weight=0 44 218 45 173 153 123
internal_count=262 44 218 45 173 153 123
is_linear=0
shrinkage=0.03


Tree=28
num_leaves=8
num_cat=0
split_feature=289 4 525 4 0 6 16
split_gain=1.53945 1.26379 1.24996 0.914018 0.399705 0.403366 0.260632
threshold=1.0000000180025095e-35 0.22500000000000003 1.0000000180025095e-35 0.12600000000000003 1.0000000180025095e-35 71.345000000000013 1.0000000180025095e-35
decision_type=2 8 2 8 8 10 2
left_child=1 -1 -3 -2 5 6 -5
right_child=3 2 -4 4 -6 -7 -8
leaf_value=0.014370393013724912 0.011235024234546082 0.011278409783861467 0.0027743572146365684 0.0083743187030022211 0.0016369215085763821 0.0024119161681175746 0.0048594517533022625
leaf_weight=39 21 35 28 37 33 29 39
leaf_count=39 21 35 28 37 33 29 39
internal_value=0 0.0101262 0.00749883 0.0054042 0.0045169 0.00542204 0.00657064
internal_weight=0 102 63 159 138 105 76
internal_count=261 102 63 159 138 105 76
is_linear=0
shrinkage=0.03


Tree=29
num_leaves=10
num_cat=0
split_feature=289 3 2 436 3 5 16 16 5
split_gain=1.35962 0.892279 0.65879 0.66315 0.155471 0.357958 0.194895 0.0989685 0.0153328
threshold=1.0000000180025095e-35 192.10000000000005 inf 1.0000000180025095e-35 111.80000000000001 -1.0000000180025095e-35 1.0000000180025095e-35 1.0000000180025095e-35 -1.0000000180025095e-35
decision_type=2 10 8 2 10 8 2 2 8
left_child=2 4 3 8 5 -2 -7 -6 -1
right_child=1 -3 -4 -5 7 6 -8 -9 -10
leaf_value=0.0062370755374431611 0.0076125556264411325 0.011089532175766571 0.013235348400947472 0.011355992200869049 0.0043736475208045345 0.0014739000509408386 0.0052471535504862131 0.0015591514825990254 0.0050764309082712445
leaf_weight=20 33 21 34 33 23 22 28 22 21
leaf_count=20 33 21 34 33 23 22 28 22 21
internal_value=0 0.00535796 0.00977867 0.00819046 0.00441762 0.00518748 0.00358692 0.00299767 0.0056426
internal_weight=0 149 108 74 128 83 50 45 41
internal_count=257 149 108 74 128 83 50 45 41
is_linear=0
shrinkage=0.03


Tree=30
num_leaves=7
num_cat=0
split_feature=6 53 439 35 7 3
split_gain=1.25595 1.37154 1.35177 0.845672 0.906571 0.522521
threshold=80.600000000000009 1.0000000180025095e-35 1.0000000180025095e-35 1.0000000180025095e-35 1.0000000180025095e-35 151.55000000000004
decision_type=10 2 2 2 10 10
left_child=1 3 -2 -1 5 -5
right_child=2 -3 -4 4 -6 -7
leaf_value=0.0097168337824669743 0.0051609234576639922 0.010641577341981852 0.014976487811654806 0.0029287561666356716 -0.0020643884978135641 0.0068444057975952715
leaf_weight=22 23 36 28 82 23 49
leaf_count=22 23 36 28 82 23 49
internal_value=0 0.00530623 0.0105499 0.00421491 0.00342892 0.00439339
internal_weight=0 212 51 176 154 131
internal_count=263 212 51 176 154 131
is_linear=0
shrinkage=0.03


Tree=31
num_leaves=7
num_cat=0
split_feature=1 448 304 51 1 3
split_gain=0.38153 0.455304 0.330366 0.843842 0.659916 0.17893
threshold=2.6000000000000005 1.0000000180025095e-35 1.0000000180025095e-35 1.0000000180025095e-35 1.0000000180025095e-35 111.80000000000001
decision_type=10 2 2 2 8 10
left_child=1 5 3 -3 -5 -1
right_child=-2 2 -4 4 -6 -7
leaf_value=0.001794980746344663 0.0019431178495287894 0.011612662577946836 0.0039194528090542762 0.002971755665892392 0.0076224366267860829 0.0054582737791497495
leaf_weight=24 20 34 29 38 99 24
leaf_count=24 20 34 29 38 99 24
internal_value=0 0.00625049 0.00688021 0.00738233 0.00633247 0.00362663
internal_weight=0 248 200 171 137 48
internal_count=268 248 200 171 137 48
is_linear=0
shrinkage=0.03


Tree=32
num_leaves=8
num_cat=0
split_feature=53 304 5 7 525 5 439
split_gain=1.08886 1.50805 0.478631 0.318055 0.184753 0.471638 0.337637
threshold=1.0000000180025095e-35 1.0000000180025095e-35 1.0000000180025095e-35 0.058350000000000006 1.0000000180025095e-35 -1.0000000180025095e-35 1.0000000180025095e-35
decision_type=2 2 10 10 2 8 2
left_child=2 -2 3 4 6 -6 -1
right_child=1 -3 -4 -5 5 -7 -8
leaf_value=0.0062979650238176449 0.016373095861868931 0.0047229973096400493 0.0083240461195236998 0.0017152853831648826 0.0086838408453123895 0.0036847697537053716 0.0024667511157384337
leaf_weight=37 20 20 36 30 35 33 47
leaf_count=37 20 20 36 30 35 33 47
internal_value=0 0.010548 0.00516339 0.0045382 0.00509535 0.00625782 0.00415431
internal_weight=0 40 218 182 152 68 84
internal_count=258 40 218 182 152 68 84
is_linear=0
shrinkage=0.03


Tree=33
num_leaves=8
num_cat=0
split_feature=448 1 304 290 3 2 3
split_gain=1.24366 0.988879 1.39746 1.24756 1.14135 0.909188 0.586479
threshold=1.0000000180025095e-35 21.500000000000004 1.0000000180025095e-35 1.0000000180025095e-35 151.55000000000004 1.0000000180025095e-35 85.295000000000016
decision_type=2 8 2 2 8 8 10
left_child=5 4 3 6 -2 -1 -3
right_child=1 2 -4 -5 -6 -7 -8
leaf_value=0.004798911354957601 -0.0012393175633265995 0.010719653065704429 0.0017836965020332071 0.014648514971137047 0.0075671291837675703 -0.0027966325805755332 0.0059196288595419547
leaf_weight=37 26 36 27 30 27 23 63
leaf_count=37 26 36 27 30 27 23 63
internal_value=0 0.00678732 0.00799012 0.00928914 0.00324699 0.00188729 0.00766509
internal_weight=0 209 156 129 53 60 99
internal_count=269 209 156 129 53 60 99
is_linear=0
shrinkage=0.03


Tree=34
num_leaves=9
num_cat=0
split_feature=289 304 439 439 16 3 3 3
split_gain=1.01396 1.19263 1.96541 0.590214 0.906197 0.466457 0.424637 0.408976
threshold=1.0000000180025095e-35 1.0000000180025095e-35 1.0000000180025095e-35 1.0000000180025095e-35 1.0000000180025095e-35 111.80000000000001 151.55000000000004 111.80000000000001
decision_type=2 2 2 2 2 8 10 8
left_child=1 2 -1 7 -5 -6 -4 -2
right_child=3 -3 6 4 5 -7 -8 -9
leaf_value=0.017908922645517369 -0.00054931743329183916 0.0034155952593972602 0.0046957364003174006 0.0026811040346868911 0.012052905151451175 0.0060633485807105895 0.010419169295579195 0.0042796390102931145
leaf_weight=22 27 31 28 39 22 25 20 38
leaf_count=22 27 31 28 39 22 25 20 38
internal_value=0 0.00831429 0.0104837 0.00443116 0.00606175 0.00886697 0.0070805 0.00227376
internal_weight=0 101 70 151 86 47 48 65
internal_count=252 101 70 151 86 47 48 65
is_linear=0
shrinkage=0.03


Tree=35
num_leaves=7
num_cat=0
split_feature=4 35 53 2 3 439
split_gain=1.02507 0.780146 0.959927 0.479393 0.306242 0.287906
threshold=0.12600000000000003 1.0000000180025095e-35 1.0000000180025095e-35 inf 111.80000000000001 1.0000000180025095e-35
decision_type=8 2 2 8 8 2
left_child=-1 -2 3 4 -3 -5
right_child=1 2 -4 5 -6 -7
leaf_value=0.011264478347970751 0.0097204674407088704 0.0024113592115463686 0.0095686007626354687 -0.0013514417825499548 0.0058717398968008462 0.0030569171236711555
leaf_weight=29 31 32 30 20 82 40
leaf_count=29 31 32 30 20 82 40
internal_value=0 0.00528633 0.00461251 0.00375801 0.0049004 0.00158746
internal_weight=0 235 204 174 114 60
internal_count=264 235 204 174 114 60
is_linear=0
shrinkage=0.03


Tree=36
num_leaves=7
num_cat=0
split_feature=6 4 306 4 304 289
split_gain=0.902721 1.48947 0.929371 0.390625 0.25422 0.455755
threshold=80.600000000000009 0.28400000000000009 1.0000000180025095e-35 0.17600000000000002 1.0000000180025095e-35 1.0000000180025095e-35
decision_type=10 8 2 8 2 2
left_child=2 -2 3 -1 5 -5
right_child=1 -3 -4 4 -6 -7
leaf_value=0.001127388944538931 0.012968334140764041 0.0025929873768473044 0.010326801276077394 0.0089187247946392739 0.0020064785196963284 0.0042713278212205882
leaf_weight=36 33 20 23 24 27 91
leaf_count=36 33 20 23 24 27 91
internal_value=0 0.00905311 0.00465183 0.00391855 0.00462616 0.00524122
internal_weight=0 53 201 178 142 115
internal_count=254 53 201 178 142 115
is_linear=0
shrinkage=0.03


Tree=37
num_leaves=10
num_cat=0
split_feature=51 5 6 439 16 525 16 6 6
split_gain=1.75413 1.407 0.631131 0.283978 1.47225 1.20625 0.679179 0.124804 0.0692791
threshold=1.0000000180025095e-35 -11.295 80.600000000000009 1.0000000180025095e-35 1.0000000180025095e-35 1.0000000180025095e-35 1.0000000180025095e-35 1.0000000180025095e-35 1.0000000180025095e-35
decision_type=2 8 8 2 2 2 2 10 10
left_child=1 -1 -3 6 7 -6 -2 -5 -8
right_child=3 2 -4 4 5 -7 8 -9 -10
leaf_value=0.0030916044581681492 0.0064169009350240223 0.0073741719257086518 0.013928973926947667 -0.00025436927874883017 0.0043579477824823697 0.012941934562897167 0.0014532909474589608 0.0027188920642947779 -0.0009015051006218014
leaf_weight=24 25 20 39 27 34 26 22 24 23
leaf_count=24 25 20 39 27 34 26 22 24 23
internal_value=0 0.00921581 0.011707 0.00394865 0.00489231 0.00807768 0.00245229 0.00114481 0.000249729
internal_weight=0 83 59 181 111 60 70 51 45
internal_count=264 83 59 181 111 60 70 51 45
is_linear=0
shrinkage=0.03


Tree=38
num_leaves=9
num_cat=0
split_feature=53 0 4 436 439 6 6 6
split_gain=0.686895 0.818735 0.841557 0.704908 0.635364 0.591097 0.435224 0.155157
threshold=1.0000000180025095e-35 1.0000000180025095e-35 0.28400000000000009 1.0000000180025095e-35 1.0000000180025095e-35 58.145000000000003 58.145000000000003 58.145000000000003
decision_type=2 8 8 2 2 10 10 10
left_child=1 2 4 7 -1 -6 -3 -4
right_child=-2 6 3 -5 5 -7 -8 -9
leaf_value=0.0040449275909923013 0.0090165394859818299 -0.00017578878296682467 0.0034972863284186743 0.0081282997264393725 0.0070166058093309404 0.01397092188750817 0.0052674381472170356 0.0005531022557988762
leaf_weight=20 39 39 49 28 22 22 20 24
leaf_count=20 39 39 49 28 22 22 20 24
internal_value=0 0.00470246 0.00578702 0.00408152 0.0084785 0.0104938 0.00166937 0.00252934
internal_weight=0 224 165 101 64 44 59 73
internal_count=263 224 165 101 64 44 59 73
is_linear=0
shrinkage=0.03


Tree=39
num_leaves=9
num_cat=0
split_feature=4 1 6 5 448 2 1 4
split_gain=1.22607 1.13088 1.47012 0.892748 0.793362 0.577185 0.566313 0.448175
threshold=0.28400000000000009 5.5000000000000009 80.600000000000009 -11.295 1.0000000180025095e-35 1.0000000180025095e-35 inf 0.17600000000000002
decision_type=8 8 10 8 2 8 8 10
left_child=1 -1 7 -2 -5 6 -6 -3
right_child=3 2 -4 4 5 -7 -8 -9
leaf_value=0.0021538761923355714 -0.00074248527073197891 0.0054064783178425077 0.016618019250983541 0.00024987320119345725 0.0014381681126542389 0.010371164290162806 0.0073245411768163501 0.010371318340301512
leaf_weight=21 27 36 22 22 24 26 38 30
leaf_count=21 27 36 22 22 24 26 38 30
internal_value=0 0.00840918 0.00990192 0.00414561 0.00534542 0.00661931 0.00504595 0.00766322
internal_weight=0 109 88 137 110 88 62 66
internal_count=246 109 88 137 110 88 62 66
is_linear=0
shrinkage=0.03


Tree=40
num_leaves=10
num_cat=0
split_feature=448 5 53 3 3 1 439 5 439
split_gain=1.00101 1.0464 0.600088 0.75504 0.736195 0.437787 0.564117 0.267094 0.579812
threshold=1.0000000180025095e-35 -24.199999999999996 1.0000000180025095e-35 151.55000000000004 151.55000000000004 inf 1.0000000180025095e-35 -1.0000000180025095e-35 1.0000000180025095e-35
decision_type=2 10 2 8 8 8 2 8 2
left_child=1 -1 4 -4 5 -2 -7 -6 -9
right_child=2 -3 3 -5 7 6 -8 8 -10
leaf_value=-0.0019653587516457321 0.00032327997355928852 0.0065895491533658722 0.013429245427250861 0.0052845756341703236 0.0049847525945649696 0.0020143377876374871 0.0078321567177772524 0.012738859439268708 0.0063015081037712441
leaf_weight=31 27 22 21 20 26 30 30 20 34
leaf_count=31 27 22 21 20 26 30 30 20 34
internal_value=0 0.00158574 0.00620414 0.00945624 0.00540572 0.00349567 0.00492325 0.0074829 0.00868571
internal_weight=0 53 208 41 167 87 60 80 54
internal_count=261 53 208 41 167 87 60 80 54
is_linear=0
shrinkage=0.03


Tree=41
num_leaves=9
num_cat=0
split_feature=5 289 302 306 5 6 16 3
split_gain=1.04037 0.455979 0.524426 0.515706 0.328882 0.223714 0.351279 0.115222
threshold=15.755000000000001 1.0000000180025095e-35 1.0000000180025095e-35 1.0000000180025095e-35 -11.295 80.600000000000009 1.0000000180025095e-35 151.55000000000004
decision_type=10 2 2 2 10 8 2 8
left_child=1 2 3 7 5 -3 -7 -1
right_child=-2 4 -4 -5 -6 6 -8 -9
leaf_value=0.00063725113661752808 0.010190128450808317 0.0005784895279161308 0.0085217890569141939 0.0073163613490760324 -0.00028828954949858596 0.0017222399404272436 0.0056981132989749311 0.003526786562743718
leaf_weight=27 23 23 28 24 32 36 45 23
leaf_count=27 23 23 28 24 32 36 45 23
internal_value=0 0.00350849 0.00502475 0.00370155 0.00237129 0.00318962 0.00393106 0.00196644
internal_weight=0 238 102 74 136 104 81 50
internal_count=261 238 102 74 136 104 81 50
is_linear=0
shrinkage=0.03


Tree=42
num_leaves=7
num_cat=0
split_feature=6 4 7 304 386 4
split_gain=0.960428 1.42639 0.800749 0.445948 1.22305 0.244948
threshold=80.600000000000009 0.22500000000000003 0.17700000000000002 1.0000000180025095e-35 1.0000000180025095e-35 0.17600000000000002
decision_type=10 8 10 2 2 8
left_child=2 -2 3 4 -1 -6
right_child=1 -3 -4 -5 5 -7
leaf_value=0.01149308609465758 0.013709136137945784 0.0032842813937791755 -0.00059708204939961436 0.0010239171842113138 0.0018118412744253872 0.0051100873444490484
leaf_weight=27 27 21 25 21 25 107
leaf_count=27 27 21 25 21 25 107
internal_value=0 0.00914826 0.00443397 0.00513273 0.0056754 0.00448542
internal_weight=0 48 205 180 159 132
internal_count=253 48 205 180 159 132
is_linear=0
shrinkage=0.03


Tree=43
num_leaves=8
num_cat=0
split_feature=290 304 6 3 5 5 6
split_gain=1.02086 1.24431 0.731656 0.37988 0.474485 0.282484 0.172566
threshold=1.0000000180025095e-35 1.0000000180025095e-35 1.0000000180025095e-35 85.295000000000016 -24.199999999999996 15.755000000000001 71.345000000000013
decision_type=2 2 10 8 8 10 10
left_child=3 2 -2 -1 -5 6 -6
right_child=1 -3 -4 4 5 -7 -8
leaf_value=0.0058245824156696654 0.014433144689960913 0.0027897572665460755 0.0066960427520627325 -0.0014975722696956085 0.0033198015017409785 0.0064600366931408639 0.00055474458062755214
leaf_weight=38 22 32 22 23 74 20 28
leaf_count=38 22 32 22 23 74 20 28
internal_value=0 0.00729098 0.0105646 0.00315458 0.00245486 0.00319999 0.00256077
internal_weight=0 76 44 183 145 122 102
internal_count=259 76 44 183 145 122 102
is_linear=0
shrinkage=0.03


Tree=44
num_leaves=8
num_cat=0
split_feature=8 14 448 304 203 4 0
split_gain=0.485334 0.25639 0.191052 0.281148 0.627178 0.238406 0.0917391
threshold=inf 1.0000000180025095e-35 1.0000000180025095e-35 1.0000000180025095e-35 1.0000000180025095e-35 0.28400000000000009 1.0000000180025095e-35
decision_type=8 2 2 2 2 8 10
left_child=-1 2 5 4 -4 -2 -3
right_child=1 6 3 -5 -6 -7 -8
leaf_value=0.00045205568545497954 0.0059110430846719634 0.004175938172016426 0.010964651443064213 0.0030927951098419725 0.0054798835083885592 0.0015427577360109849 0.0015871696665205738
leaf_weight=24 23 28 24 24 86 22 22
leaf_count=24 23 28 24 24 86 22 22
internal_value=0 0.00493619 0.00546672 0.00603469 0.00667656 0.00377544 0.00303688
internal_weight=0 229 179 134 110 45 50
internal_count=253 229 179 134 110 45 50
is_linear=0
shrinkage=0.03


Tree=45
num_leaves=7
num_cat=0
split_feature=304 290 3 6 3 436
split_gain=1.51926 1.98469 0.56824 0.464017 0.393043 0.633154
threshold=1.0000000180025095e-35 1.0000000180025095e-35 192.10000000000005 90.25500000000001 85.295000000000016 1.0000000180025095e-35
decision_type=2 2 10 8 8 2
left_child=1 2 4 -3 -1 -6
right_child=-2 3 -4 -5 5 -7
leaf_value=0.0064102292084135112 -0.001321821752935648 0.0081559841400012361 0.0083975734726454195 0.014469724661585959 0.0017470544091295725 0.0067050047311931846
leaf_weight=36 33 20 26 22 102 30
leaf_count=36 33 20 26 22 102 30
internal_value=0 0.00555046 0.00427039 0.0114632 0.00363165 0.00287386
internal_weight=0 236 194 42 168 132
internal_count=269 236 194 42 168 132
is_linear=0
shrinkage=0.03


Tree=46
num_leaves=7
num_cat=0
split_feature=53 6 6 6 5 2
split_gain=0.886807 1.08227 0.641422 0.36431 0.393972 0.223339
threshold=1.0000000180025095e-35 80.600000000000009 71.345000000000013 58.145000000000003 -11.295 1.0000000180025095e-35
decision_type=2 10 10 10 8 8
left_child=1 2 3 4 -1 -3
right_child=-2 5 -4 -5 -6 -7
leaf_value=0.0047439952386433585 0.0080721107326847102 0.0050796329077671875 -0.0024679810646921394 0.0060240471968427299 0.00095914232360383303 0.0094049422230039325
leaf_weight=34 35 22 26 24 91 21
leaf_count=34 35 22 26 24 91 21
internal_value=0 0.00292772 0.00187993 0.00263862 0.00198862 0.00719199
internal_weight=0 218 175 149 125 43
internal_count=253 218 175 149 125 43
is_linear=0
shrinkage=0.03


Tree=47
num_leaves=9
num_cat=0
split_feature=5 6 53 0 4 2 448 2
split_gain=1.07538 1.14377 0.77839 0.407602 0.479353 0.540642 0.471283 0.0514373
threshold=1.0000000180025095e-35 58.145000000000003 1.0000000180025095e-35 1.0000000180025095e-35 0.28400000000000009 1.0000000180025095e-35 1.0000000180025095e-35 1.0000000180025095e-35
decision_type=10 10 2 8 8 8 2 8
left_child=2 -2 3 4 5 -1 -6 -5
right_child=1 -3 -4 7 6 -7 -8 -9
leaf_value=0.0031237033171679029 0.0043193989104474894 0.013681412931815113 0.0081066388962790364 0.0015080103786154226 -0.0014539351886404411 0.0090734215970668525 0.0037911417503873335 -0.00059411567822098728
leaf_weight=28 24 23 33 22 21 27 58 20
leaf_count=28 24 23 33 22 21 27 58 20
internal_value=0 0.00890081 0.00387853 0.00308576 0.00389403 0.00604447 0.00239688 0.000506998
internal_weight=0 47 209 176 134 55 79 42
internal_count=256 47 209 176 134 55 79 42
is_linear=0
shrinkage=0.03


Tree=48
num_leaves=10
num_cat=0
split_feature=448 2 6 2 439 16 386 439 3
split_gain=0.704492 0.613582 0.543878 1.52596 1.03873 0.879167 0.869114 0.291883 0.0181189
threshold=1.0000000180025095e-35 1.0000000180025095e-35 90.25500000000001 1.0000000180025095e-35 1.0000000180025095e-35 1.0000000180025095e-35 1.0000000180025095e-35 1.0000000180025095e-35 111.80000000000001
decision_type=2 8 8 8 2 2 2 2 8
left_child=1 -1 3 7 6 -6 -4 -2 -7
right_child=2 -3 4 -5 5 8 -8 -9 -10
leaf_value=0.0040752963521159613 0.002208033305942081 -0.0021905346392569218 0.012308638995978982 0.013750419529533245 -0.0021824737972226636 0.0039964863918721671 0.0045465032252910969 0.0065846520813647655 0.0052581824641674754
leaf_weight=39 24 22 20 24 29 20 37 32 21
leaf_count=39 24 22 20 24 29 20 37 32 21
internal_value=0 0.00181549 0.00548389 0.0074214 0.00426341 0.00181514 0.00727006 0.00470896 0.00464272
internal_weight=0 61 207 80 127 70 57 56 41
internal_count=268 61 207 80 127 70 57 56 41
is_linear=0
shrinkage=0.03


Tree=49
num_leaves=9
num_cat=0
split_feature=4 3 289 3 4 4 3 16
split_gain=0.786473 0.924205 0.618184 0.678233 1.13011 0.55816 0.462565 0.0923575
threshold=0.28400000000000009 1.0000000180025095e-35 1.0000000180025095e-35 111.80000000000001 0.17600000000000002 0.17600000000000002 151.55000000000004 1.0000000180025095e-35
decision_type=10 10 2 10 8 10 10 2
left_child=1 7 3 -3 -5 6 -4 -1
right_child=-2 2 5 4 -6 -7 -8 -9
leaf_value=-0.00090397710778883518 -0.00099464597610326912 0.010846441597302232 0.00074112978065386413 0.010513349777426233 0.0016806718648876993 0.0074849188993943647 0.005915439004159492 0.0019096255378930696
leaf_weight=21 26 31 48 22 32 27 23 21
leaf_count=21 26 31 48 22 32 27 23 21
internal_value=0 0.00451625 0.00543736 0.00730959 0.00527917 0.00381349 0.00241731 0.000502824
internal_weight=0 225 183 85 54 98 71 42
internal_count=251 225 183 85 54 98 71 42
is_linear=0
shrinkage=0.03


Tree=50
num_leaves=9
num_cat=0
split_feature=5 4 3 1 4 3 5 5
split_gain=0.796635 0.64017 0.560955 0.591073 0.17015 0.15149 0.141298 0.0383811
threshold=1.0000000180025095e-35 0.12600000000000003 85.295000000000016 2.6000000000000005 0.28400000000000009 111.80000000000001 -11.295 15.755000000000001
decision_type=10 10 8 8 10 10 8 10
left_child=1 2 -1 -4 5 -3 -5 -2
right_child=7 4 3 6 -6 -7 -8 -9
leaf_value=0.005461564761679619 0.008001393795606087 0.0073662086371332402 0.0046554301329888399 -0.0026212632947135712 0.0023874346101656553 0.0043085750692657063 8.3770338124373829e-05 0.0062083402182906864
leaf_weight=25 22 25 24 24 20 35 63 21
leaf_count=25 22 25 24 24 20 35 63 21
internal_value=0 0.00265436 0.00140174 0.000487365 0.0047838 0.00558259 -0.000662446 0.00712572
internal_weight=0 216 136 111 80 60 87 43
internal_count=259 216 136 111 80 60 87 43
is_linear=0
shrinkage=0.03


Tree=51
num_leaves=9
num_cat=0
split_feature=5 448 304 289 439 5 6 6
split_gain=0.664571 0.677024 0.552345 0.408975 1.20371 0.671011 0.0847823 0.0647605
threshold=1.0000000180025095e-35 1.0000000180025095e-35 1.0000000180025095e-35 1.0000000180025095e-35 1.0000000180025095e-35 -24.199999999999996 90.25500000000001 1.0000000180025095e-35
decision_type=10 2 2 2 2 10 8 10
left_child=1 7 3 4 -3 -5 -2 -1
right_child=6 2 -4 5 -6 -7 -8 -9
leaf_value=0.00076574623933993273 0.0084513561223866409 0.012475065263919531 0.00039035085136336937 0.0054062524153134566 0.0030350880960242884 -0.00017000415031948399 0.0056890377849340432 -0.0014619494290293558
leaf_weight=24 20 20 35 52 31 31 20 23
leaf_count=24 20 20 35 52 31 31 20 23
internal_value=0 0.00286046 0.00374619 0.00462272 0.00673704 0.00332355 0.0070702 -0.000324403
internal_weight=0 216 169 134 51 83 40 47
internal_count=256 216 169 134 51 83 40 47
is_linear=0
shrinkage=0.03


Tree=52
num_leaves=10
num_cat=0
split_feature=290 439 3 436 439 4 3 16 4
split_gain=0.750286 0.953719 0.394545 0.996962 0.665208 0.680325 0.356104 0.230167 0.113933
threshold=1.0000000180025095e-35 1.0000000180025095e-35 151.55000000000004 1.0000000180025095e-35 1.0000000180025095e-35 0.17600000000000002 192.10000000000005 1.0000000180025095e-35 0.22500000000000003
decision_type=2 2 8 2 2 10 10 2 8
left_child=2 -2 4 6 8 -6 7 -4 -1
right_child=1 -3 3 -5 5 -7 -8 -9 -10
leaf_value=-0.0012105861002679114 0.0081530553313744498 0.0016419908358366229 0.001928443889255109 0.0088060305565595617 -0.0002681004239574951 0.0067049352452158923 0.0043718110575256021 -0.0022299825293943284 -0.0043744192812591792
leaf_weight=21 41 40 23 20 34 20 22 25 20
leaf_count=21 41 40 23 20 34 20 22 25 20
internal_value=0 0.00493771 0.00147556 0.00289895 0.00012708 0.00231451 0.00121121 -0.000237403 -0.00275392
internal_weight=0 81 185 90 95 54 70 48 41
internal_count=266 81 185 90 95 54 70 48 41
is_linear=0
shrinkage=0.03


Tree=53
num_leaves=9
num_cat=0
split_feature=4 6 35 53 5 4 439 5
split_gain=1.20461 0.665847 0.658441 0.584331 0.510648 0.698633 0.355937 0.15453
threshold=0.28400000000000009 80.600000000000009 1.0000000180025095e-35 1.0000000180025095e-35 1.0000000180025095e-35 0.17600000000000002 1.0000000180025095e-35 15.755000000000001
decision_type=8 10 2 2 10 10 2 8
left_child=1 4 -2 6 5 -1 -4 -8
right_child=2 -3 3 -5 -6 -7 7 -9
leaf_value=0.0031166234466152008 0.0067260945375476559 0.010285752867814154 -0.0021554594021290538 0.0052972688396339829 0.00078191652047363187 0.0094990463323634238 -0.0004598780300306237 0.002671518829223272
leaf_weight=33 21 25 41 23 22 29 23 37
leaf_count=33 21 25 41 23 22 29 23 37
internal_value=0 0.00598777 0.00181366 0.000981712 0.00470861 0.00610195 -1.03796e-06 0.00147115
internal_weight=0 109 145 124 84 62 101 60
internal_count=254 109 145 124 84 62 101 60
is_linear=0
shrinkage=0.03


Tree=54
num_leaves=10
num_cat=0
split_feature=6 5 51 4 3 16 525 4 439
split_gain=0.505927 0.498541 1.1739 0.591198 0.45324 0.392996 0.348737 0.315992 0.296625
threshold=58.145000000000003 -11.295 1.0000000180025095e-35 0.28400000000000009 111.80000000000001 1.0000000180025095e-35 1.0000000180025095e-35 0.17600000000000002 1.0000000180025095e-35
decision_type=8 10 2 8 8 2 2 10 2
left_child=-1 3 -3 5 -5 -2 -4 -7 -6
right_child=1 2 6 4 8 7 -8 -9 -10
leaf_value=-0.0011841639586620859 0.0011719099139528616 0.0095329126861179239 -0.00069522068497132172 -0.0023878991124885421 0.0038736461736443742 0.0035464754763857593 0.0047096295335463112 0.0086913241344419388 0.00022013522638007998
leaf_weight=27 21 32 22 28 40 21 21 22 40
leaf_count=27 21 32 22 28 40 21 21 22 40
internal_value=0 0.00314108 0.00518214 0.00225108 0.00089713 0.00453586 0.00194436 0.00617872 0.00204689
internal_weight=0 247 75 172 108 64 43 43 80
internal_count=274 247 75 172 108 64 43 43 80
is_linear=0
shrinkage=0.03


Tree=55
num_leaves=10
num_cat=0
split_feature=289 439 304 386 439 16 4 16 4
split_gain=0.955081 0.82301 2.22704 0.606379 0.215823 0.668645 0.619867 0.469861 0.127302
threshold=1.0000000180025095e-35 1.0000000180025095e-35 1.0000000180025095e-35 1.0000000180025095e-35 1.0000000180025095e-35 1.0000000180025095e-35 0.22500000000000003 1.0000000180025095e-35 0.28400000000000009
decision_type=2 2 2 2 2 2 10 2 8
left_child=1 2 -1 -3 5 -2 7 -6 -7
right_child=4 3 -4 -5 6 8 -8 -9 -10
leaf_value=0.016443208293057978 0.005122365941892245 -0.00025076427496969697 0.0027848442229018969 0.0062328140362090355 -0.00070101767405867581 0.0011169305916409939 0.0076352657765150073 0.0042928587874540916 -0.0020168225979432463
leaf_weight=21 28 20 22 37 30 20 25 39 28
leaf_count=21 28 20 22 37 30 20 25 39 28
internal_value=0 0.00632173 0.00945521 0.00395787 0.00262686 0.00143808 0.00358801 0.00212161 -0.000711092
internal_weight=0 100 43 57 170 76 94 69 48
internal_count=270 100 43 57 170 76 94 69 48
is_linear=0
shrinkage=0.03


Tree=56
num_leaves=8
num_cat=0
split_feature=53 51 3 1 3 6 4
split_gain=0.958248 0.429249 0.406281 0.466391 0.369489 0.272684 0.0713353
threshold=1.0000000180025095e-35 1.0000000180025095e-35 151.55000000000004 inf 85.295000000000016 80.600000000000009 1.0000000180025095e-35
decision_type=2 2 10 8 8 8 10
left_child=1 -1 3 -3 -5 -4 -7
right_child=-2 2 5 4 -6 6 -8
leaf_value=-0.00064889130997471513 0.0075936847009829105 -0.001110327310860157 0.0022405224703252315 0.0058275816849033745 0.0016311658505382466 0.0050189406949688086 0.0074944917387329037
leaf_weight=38 35 35 25 28 58 22 20
leaf_count=38 35 35 25 28 58 22 20
internal_value=0 0.0022592 0.00284701 0.00180924 0.00299744 0.00472119 0.00619777
internal_weight=0 226 188 121 86 67 42
internal_count=261 226 188 121 86 67 42
is_linear=0
shrinkage=0.03


Tree=57
num_leaves=9
num_cat=0
split_feature=18 3 436 4 1 6 3 16
split_gain=0.853597 0.503214 0.798509 0.581064 0.667734 0.486457 0.180353 0.0129185
threshold=1.0000000180025095e-35 85.295000000000016 1.0000000180025095e-35 0.17600000000000002 5.5000000000000009 90.25500000000001 111.80000000000001 1.0000000180025095e-35
decision_type=2 8 2 10 8 8 10 2
left_child=1 2 -1 4 -3 7 -6 -5
right_child=-2 3 -4 5 6 -7 -8 -9
leaf_value=0.0081039271607167181 0.0073114521130919459 0.003515843579856058 0.00030400515800075873 0.0023463869215920564 0.00018298937170766293 0.0073077645684991562 -0.0025196539551252495 0.0013234502613544464
leaf_weight=27 30 36 21 20 40 21 50 25
leaf_count=27 30 36 21 20 40 21 50 25
internal_value=0 0.00194406 0.00469146 0.00125721 6.27559e-05 0.00353753 -0.00131848 0.00177809
internal_weight=0 240 48 192 126 66 90 45
internal_count=270 240 48 192 126 66 90 45
is_linear=0
shrinkage=0.03


Tree=58
num_leaves=9
num_cat=0
split_feature=448 3 1 6 439 3 3 439
split_gain=0.636423 0.946959 2.08087 0.874279 0.344732 0.898802 0.663865 0.200207
threshold=1.0000000180025095e-35 85.295000000000016 inf 80.600000000000009 1.0000000180025095e-35 151.55000000000004 151.55000000000004 1.0000000180025095e-35
decision_type=2 10 8 10 2 10 10 2
left_child=7 2 -2 4 5 -3 -6 -1
right_child=1 3 -4 -5 6 -7 -8 -9
leaf_value=-0.0022944971139077096 -0.00041058608517050742 0.0064362687236056305 0.010676861422924467 0.0064897034950554371 -0.0045575635202229027 -0.0015304889827966689 0.0018432141376127089 0.0012054367718826
leaf_weight=24 25 26 39 30 25 25 35 38
leaf_count=24 25 26 39 30 25 25 35 38
internal_value=0 0.00331941 0.00634583 0.00194571 0.000717605 0.002531 -0.000823777 -0.000149376
internal_weight=0 205 64 141 111 51 60 62
internal_count=267 205 64 141 111 51 60 62
is_linear=0
shrinkage=0.03


Tree=59
num_leaves=9
num_cat=0
split_feature=4 6 5 4 7 436 525 448
split_gain=0.951149 0.596856 0.60038 0.583036 0.480665 0.279836 0.441491 0.0605808
threshold=0.28400000000000009 80.600000000000009 1.0000000180025095e-35 0.17600000000000002 1.0000000180025095e-35 1.0000000180025095e-35 1.0000000180025095e-35 1.0000000180025095e-35
decision_type=8 10 10 10 10 2 2 2
left_child=1 2 3 -1 5 6 -2 -8
right_child=4 -3 -4 -5 -6 -7 7 -9
leaf_value=0.0040596853991706127 0.004363763301322857 0.010538788220312978 0.00049754987869943886 0.010142155121202054 -0.0016416095045860856 0.0050535849113948639 0.00095187952090054751 -0.0013831298332661389
leaf_weight=37 36 21 21 23 24 40 20 20
leaf_count=37 36 21 21 23 24 40 20 20
internal_value=0 0.00603177 0.00486329 0.0063913 0.00222297 0.00302253 0.00195356 -0.000215625
internal_weight=0 102 81 60 140 116 76 40
internal_count=242 102 81 60 140 116 76 40
is_linear=0
shrinkage=0.03


Tree=60
num_leaves=8
num_cat=0
split_feature=6 6 35 53 439 525 5
split_gain=0.790963 0.997093 0.375865 0.312946 0.266781 0.41463 0.099065
threshold=80.600000000000009 90.25500000000001 1.0000000180025095e-35 1.0000000180025095e-35 1.0000000180025095e-35 1.0000000180025095e-35 -24.199999999999996
decision_type=10 10 2 2 2 2 10
left_child=2 -2 -1 4 6 -6 -4
right_child=1 -3 3 -5 5 -7 -8
leaf_value=0.0052547746273474052 0.010156455236988571 0.001676729425380472 -0.0015963278613420888 0.0041959834937006233 0.00021196968908257345 0.0044521223535495145 0.00078031708971442034
leaf_weight=26 26 24 38 30 51 35 27
leaf_count=26 26 24 38 30 51 35 27
internal_value=0 0.00608619 0.00188187 0.00139736 0.000841343 0.00193761 -0.000609106
internal_weight=0 50 207 181 151 86 65
internal_count=257 50 207 181 151 86 65
is_linear=0
shrinkage=0.03


Tree=61
num_leaves=9
num_cat=0
split_feature=5 6 439 3 2 3 6 439
split_gain=0.497943 0.328431 1.01762 0.328259 0.312153 0.39294 0.392532 0.156393
threshold=-11.295 58.145000000000003 1.0000000180025095e-35 151.55000000000004 inf 192.10000000000005 58.145000000000003 1.0000000180025095e-35
decision_type=10 10 2 10 8 8 10 2
left_child=4 2 -2 -3 6 -6 7 -1
right_child=1 3 -4 -5 5 -7 -8 -9
leaf_value=0.0010119904628289598 0.007653049110834087 0.0038536693469504828 -0.0016863798589578697 0.0090576467692153519 0.0060082495079206467 0.0012643322451040149 -0.0014101996520735523 0.003868796390700428
leaf_weight=35 21 20 21 24 33 30 37 34
leaf_count=35 21 20 21 24 33 30 37 34
internal_value=0 0.00488089 0.00298333 0.0066922 0.00207683 0.00374924 0.00108284 0.00241969
internal_weight=0 86 42 44 169 63 106 69
internal_count=255 86 42 44 169 63 106 69
is_linear=0
shrinkage=0.03


Tree=62
num_leaves=9
num_cat=0
split_feature=5 6 1 290 6 439 3 3
split_gain=0.584764 1.53921 0.297513 0.281307 0.491193 0.355857 0.565014 0.53192
threshold=1.0000000180025095e-35 58.145000000000003 2.6000000000000005 1.0000000180025095e-35 80.600000000000009 1.0000000180025095e-35 111.80000000000001 111.80000000000001
decision_type=10 10 10 2 8 2 8 8
left_child=2 -2 3 5 -5 6 -1 -7
right_child=1 -3 -4 4 -6 7 -8 -9
leaf_value=-0.0040400981737507705 -0.00080332766420074871 0.010430371864172427 -0.0020343551657755268 0.00011520648820568685 0.0058628515667805909 0.0056184229466857182 0.002042250473002371 0.00044509971347409037
leaf_weight=27 21 23 22 23 32 27 28 53
leaf_count=27 21 23 22 23 32 27 28 53
internal_value=0 0.00506883 0.00126836 0.00165078 0.00345929 0.000913986 -0.00094363 0.0021911
internal_weight=0 44 212 190 55 135 55 80
internal_count=256 44 212 190 55 135 55 80
is_linear=0
shrinkage=0.03


Tree=63
num_leaves=8
num_cat=0
split_feature=5 464 4 51 5 4 14
split_gain=0.716098 0.676282 0.577068 0.894189 0.487647 0.18512 0.143233
threshold=15.755000000000001 1.0000000180025095e-35 0.28400000000000009 1.0000000180025095e-35 -11.295 0.22500000000000003 1.0000000180025095e-35
decision_type=10 2 8 2 8 10 2
left_child=1 2 3 -1 -4 -5 -6
right_child=-2 -3 4 5 6 -7 -8
leaf_value=0.0072943911625770845 0.0073938791932538148 0.0065154305695452617 -0.0039533256274775002 -0.00018214108097661089 0.00032264248773987805 0.0033836441785097121 0.0030083126737736163
leaf_weight=32 25 27 22 38 70 20 24
leaf_count=32 25 27 22 38 70 20 24
internal_value=0 0.00205107 0.00146594 0.00326858 6.73389e-05 0.00104744 0.00100835
internal_weight=0 233 206 90 116 58 94
internal_count=258 233 206 90 116 58 94
is_linear=0
shrinkage=0.03


Tree=64
num_leaves=7
num_cat=0
split_feature=6 7 4 6 290 436
split_gain=0.7269 0.600711 0.527535 0.524101 0.316116 0.60215
threshold=80.600000000000009 1.0000000180025095e-35 0.17600000000000002 90.25500000000001 1.0000000180025095e-35 1.0000000180025095e-35
decision_type=10 10 8 10 2 2
left_child=1 2 -1 -2 5 -4
right_child=3 -3 4 -5 -6 -7
leaf_value=-0.0010206619588742879 0.009038142076814951 -0.0018591468237961332 0.0010372413809210815 0.0023978955298662183 0.0057626461055637753 0.0060296775803435594
leaf_weight=33 23 36 79 20 33 30
leaf_count=33 23 36 79 20 33 30
internal_value=0 0.00167009 0.0023961 0.00594966 0.00319014 0.00241131
internal_weight=0 211 175 43 142 109
internal_count=254 211 175 43 142 109
is_linear=0
shrinkage=0.03


Tree=65
num_leaves=9
num_cat=0
split_feature=3 7 1 525 0 203 436 439
split_gain=0.756314 0.809433 0.447211 0.471382 0.31335 0.472623 0.339717 0.109715
threshold=85.295000000000016 3.8500000000000005 84.000000000000014 1.0000000180025095e-35 1.0000000180025095e-35 1.0000000180025095e-35 1.0000000180025095e-35 1.0000000180025095e-35
decision_type=8 8 8 2 8 2 2 2
left_child=7 -2 3 -3 6 -6 -4 -1
right_child=1 2 4 -5 5 -7 -8 -9
leaf_value=0.0039186291529331356 0.0061103550402017738 0.00056474882939999747 -0.00046160585086909124 0.0063143531505816747 -0.0057605169101485176 0.00034437711015343665 0.003659781687601935 0.0069887286115607071
leaf_weight=20 26 33 72 21 21 25 24 22
leaf_count=20 26 33 72 21 21 25 24 22
internal_value=0 0.00113669 0.000476918 0.00280071 -0.000406777 -0.00244264 0.000568741 0.00552678
internal_weight=0 222 196 54 142 46 96 42
internal_count=264 222 196 54 142 46 96 42
is_linear=0
shrinkage=0.03


Tree=66
num_leaves=9
num_cat=0
split_feature=3 3 290 439 16 439 3 525
split_gain=1.40047 0.530008 0.351115 0.275866 0.26112 0.121407 0.349409 0.00431775
threshold=85.295000000000016 151.55000000000004 1.0000000180025095e-35 1.0000000180025095e-35 1.0000000180025095e-35 1.0000000180025095e-35 192.10000000000005 1.0000000180025095e-35
decision_type=8 10 2 2 2 2 10 2
left_child=7 2 3 -2 -5 -3 -7 -1
right_child=1 5 -4 4 -6 6 -8 -9
leaf_value=0.0066031408737413583 -0.0030601091480639297 0.0012127330918507329 0.002290766769632076 -0.0017251750588417052 0.002812573111483029 0.0011392868460750143 0.0056217835761387556 0.0071866523540977919
leaf_weight=25 40 29 36 25 21 29 34 21
leaf_count=25 40 29 36 25 21 29 34 21
internal_value=0 0.00109975 -0.000196739 -0.00123802 0.000346406 0.00281901 0.00355841 0.00686953
internal_weight=0 214 122 86 46 92 63 46
internal_count=260 214 122 86 46 92 63 46
is_linear=0
shrinkage=0.03


Tree=67
num_leaves=11
num_cat=0
split_feature=4 14 6 5 14 5 439 289 3 439
split_gain=1.34189 0.737166 0.996014 0.435964 0.538963 0.385865 0.378184 0.132598 0.05354 0.047531
threshold=0.28400000000000009 1.0000000180025095e-35 80.600000000000009 1.0000000180025095e-35 1.0000000180025095e-35 -11.295 1.0000000180025095e-35 1.0000000180025095e-35 151.55000000000004 1.0000000180025095e-35
decision_type=8 2 10 10 2 10 2 2 8 2
left_child=1 2 5 4 6 9 7 -2 -8 -1
right_child=3 -3 -4 -5 -6 -7 8 -9 -10 -11
leaf_value=0.0067143446635454891 -0.0013539126531585404 0.00029167272978358793 0.011024922708235681 0.0043206745459299003 0.0036083741141483185 0.00074267272668128664 0.0017231727358635648 -0.0043815431566908954 -0.00026583677631449596 0.0046708324405231646
leaf_weight=20 23 27 25 21 25 22 21 30 29 21
leaf_count=20 23 27 25 21 25 22 21 30 29 21
internal_value=0 0.00462793 0.00595837 0.000314326 -0.000342965 0.00394783 -0.00130203 -0.00306767 0.000569547 0.00566767
internal_weight=0 115 88 149 128 63 103 53 50 41
internal_count=264 115 88 149 128 63 103 53 50 41
is_linear=0
shrinkage=0.03


Tree=68
num_leaves=9
num_cat=0
split_feature=5 6 448 35 4 3 5 5
split_gain=0.670542 0.61753 0.490137 0.527683 0.247357 0.289071 0.192461 0.0797172
threshold=1.0000000180025095e-35 58.145000000000003 1.0000000180025095e-35 1.0000000180025095e-35 0.22500000000000003 151.55000000000004 -24.199999999999996 -11.295
decision_type=10 10 2 2 8 8 10 8
left_child=2 -2 7 -4 6 -6 -5 -1
right_child=1 -3 3 4 5 -7 -8 -9
leaf_value=-0.00046340747270733117 0.0016747111385688185 0.0086530077297772671 0.0062021257113665344 0.00056772322067990904 -0.0016946859340363472 0.0015758032638197098 0.0044505180521971647 -0.0029485412414830465
leaf_weight=21 25 21 20 20 43 56 27 26
leaf_count=21 25 21 20 20 43 56 27 26
internal_value=0 0.00486046 0.000866389 0.00163214 0.00100611 0.000155288 0.00279826 -0.00183816
internal_weight=0 46 213 166 146 99 47 47
internal_count=259 46 213 166 146 99 47 47
is_linear=0
shrinkage=0.03


Tree=69
num_leaves=10
num_cat=0
split_feature=5 1 53 6 0 7 289 5 525
split_gain=0.452427 0.282423 0.245219 0.436426 0.324586 0.232504 0.0941069 0.0340466 0.00178792
threshold=inf 5.5000000000000009 1.0000000180025095e-35 58.145000000000003 1.0000000180025095e-35 0.058350000000000006 1.0000000180025095e-35 -11.295 1.0000000180025095e-35
decision_type=8 8 2 10 8 10 2 10 2
left_child=2 -2 3 4 8 7 -3 -5 -1
right_child=1 6 -4 5 -6 -7 -8 -9 -10
leaf_value=0.0016177948688467342 0.0021358493839701014 -1.184748751776559e-05 0.0050653585106134411 0.005600716900080442 -0.0030590378404303916 0.001026319127286906 -0.0025521319787616711 0.003990119433858328 0.0012619237353646896
leaf_weight=27 27 21 25 21 20 23 35 27 24
leaf_count=27 27 21 25 21 20 23 35 27 24
internal_value=0 -0.000384403 0.00232559 0.00184324 0.000180083 0.00350639 -0.00159953 0.00469476 0.00145033
internal_weight=0 83 167 142 71 71 56 48 51
internal_count=250 83 167 142 71 71 56 48 51
is_linear=0
shrinkage=0.03


Tree=70
num_leaves=9
num_cat=0
split_feature=18 4 2 4 2 436 5 6
split_gain=0.848842 0.805624 0.626314 1.2223 0.17838 0.323392 0.186548 0.0439296
threshold=1.0000000180025095e-35 0.28400000000000009 inf 0.22500000000000003 1.0000000180025095e-35 1.0000000180025095e-35 15.755000000000001 90.25500000000001
decision_type=2 8 8 10 8 2 8 8
left_child=1 2 3 7 5 6 -3 -1
right_child=-2 4 -4 -5 -6 -7 -8 -9
leaf_value=-0.0029344656765460967 0.0064526345941927641 -0.00029460522022822664 0.0061057987893846895 0.0070939764194190499 -0.0026371605119569915 -0.0025389000328798444 0.0034269233477640555 -0.00099179849451915794
leaf_weight=20 26 27 33 20 38 31 22 22
leaf_count=20 26 27 33 20 38 31 22 22
internal_value=0 0.000710714 0.00276697 0.000989849 -0.000944746 -0.000140849 0.00137629 -0.00191688
internal_weight=0 213 95 62 118 80 49 42
internal_count=239 213 95 62 118 80 49 42
is_linear=0
shrinkage=0.03


Tree=71
num_leaves=10
num_cat=0
split_feature=4 7 290 7 53 436 3 3 4
split_gain=0.588515 0.314245 0.862559 0.215155 0.272452 0.407772 0.444002 0.0302153 0.00160159
threshold=0.28400000000000009 18.110000000000003 1.0000000180025095e-35 1.0000000180025095e-35 1.0000000180025095e-35 1.0000000180025095e-35 1.0000000180025095e-35 151.55000000000004 0.17600000000000002
decision_type=8 8 2 10 2 2 10 10 10
left_child=1 -1 7 4 5 6 -2 8 -3
right_child=3 2 -4 -5 -6 -7 -8 -9 -10
leaf_value=0.0063654512675622331 -0.0040319227293133739 6.92597297685487e-05 0.0072137017963597406 -0.0020045571828086394 0.0040433677383091143 0.003400229608222585 0.00097466353678927662 0.0016482196265964635 0.00043977185019424984
leaf_weight=26 25 21 26 24 23 29 44 21 21
leaf_count=26 25 21 26 24 23 29 44 21 21
internal_value=0 0.003464 0.00261639 0.00059022 0.00110489 0.000415243 -0.000839317 0.000719084 0.000254516
internal_weight=0 115 89 145 121 98 69 63 42
internal_count=260 115 89 145 121 98 69 63 42
is_linear=0
shrinkage=0.03


Tree=72
num_leaves=7
num_cat=0
split_feature=448 53 445 464 1 439
split_gain=0.22621 0.325038 0.227661 0.179879 0.178899 0.283428
threshold=1.0000000180025095e-35 1.0000000180025095e-35 1.0000000180025095e-35 1.0000000180025095e-35 84.000000000000014 1.0000000180025095e-35
decision_type=2 2 2 2 8 2
left_child=2 3 -1 4 -2 -6
right_child=1 -3 -4 -5 5 -7
leaf_value=-0.0021458033792889461 -2.9682092808798188e-05 0.0047849475490775971 0.0015602355411143175 -0.001154820978292264 0.00077328885416770999 0.0040799298938637707
leaf_weight=26 32 33 35 20 43 51
leaf_count=26 32 33 35 20 43 51
internal_value=0 0.002096 -1.93876e-05 0.00148823 0.00190776 0.00256732
internal_weight=0 179 61 146 126 94
internal_count=240 179 61 146 126 94
is_linear=0
shrinkage=0.03


Tree=73
num_leaves=7
num_cat=0
split_feature=53 18 5 7 525 16
split_gain=0.711609 0.690457 0.4805 0.358892 0.408693 0.022824
threshold=1.0000000180025095e-35 1.0000000180025095e-35 inf 18.110000000000003 1.0000000180025095e-35 1.0000000180025095e-35
decision_type=2 2 8 8 2 2
left_child=1 2 3 -1 -5 -4
right_child=-2 -3 5 4 -6 -7
leaf_value=0.0044125786225777119 0.0051967841573059559 0.0060231812238011372 -0.0013536750618368385 -0.00096889710518197427 0.0026140345712382424 -0.0025775312281621152
leaf_weight=26 40 21 24 69 49 32
leaf_count=26 40 21 24 69 49 32
internal_value=0 0.000848319 0.000304958 0.00122195 0.00051893 -0.00205302
internal_weight=0 221 200 144 118 56
internal_count=261 221 200 144 118 56
is_linear=0
shrinkage=0.03


Tree=74
num_leaves=8
num_cat=0
split_feature=448 5 53 35 16 439 5
split_gain=0.295237 0.395648 0.334057 0.644951 0.432644 0.831206 0.109627
threshold=1.0000000180025095e-35 15.755000000000001 1.0000000180025095e-35 1.0000000180025095e-35 1.0000000180025095e-35 1.0000000180025095e-35 -1.0000000180025095e-35
decision_type=2 8 2 2 2 2 8
left_child=1 -1 3 -2 6 -6 -5
right_child=2 -3 -4 4 5 -7 -8
leaf_value=-0.0030681531650658981 0.005905915917112277 0.0022734090950052629 0.0049359523396818872 -0.0028103047581056928 -0.00064789297158962913 0.0054756675568703363 -0.00018526131939142942
leaf_weight=26 26 24 31 21 42 38 45
leaf_count=26 26 24 31 21 42 38 45
internal_value=0 -0.000504203 0.00206935 0.0015527 0.000777471 0.0022608 -0.0010205
internal_weight=0 50 203 172 146 80 66
internal_count=253 50 203 172 146 80 66
is_linear=0
shrinkage=0.03


Tree=75
num_leaves=9
num_cat=0
split_feature=306 3 6 436 302 3 3 4
split_gain=0.569454 0.516856 0.840674 0.349832 0.233187 0.421185 0.206476 0.379264
threshold=1.0000000180025095e-35 192.10000000000005 1.0000000180025095e-35 1.0000000180025095e-35 1.0000000180025095e-35 85.295000000000016 1.0000000180025095e-35 0.22500000000000003
decision_type=2 10 10 2 2 10 10 8
left_child=1 3 -3 6 -5 -6 -1 -8
right_child=-2 2 -4 4 5 -7 7 -9
leaf_value=-0.0028703131249428471 0.0066760054528713225 -0.00013667174032889307 0.0082732179634394526 -0.00020803133561275901 0.0067879459947081545 0.00097027926516602748 -0.001820399936155549 0.0019366569324445566
leaf_weight=22 20 20 23 20 21 24 42 57
leaf_count=22 20 20 23 20 21 24 42 57
internal_value=0 0.00139742 0.00436164 0.000712144 0.00248728 0.00368519 -0.00024144 0.000342754
internal_weight=0 229 43 186 65 45 121 99
internal_count=249 229 43 186 65 45 121 99
is_linear=0
shrinkage=0.03


Tree=76
num_leaves=8
num_cat=0
split_feature=304 289 4 439 5 4 5
split_gain=0.810513 0.832284 0.627272 0.221665 0.287856 0.172017 0.12742
threshold=1.0000000180025095e-35 1.0000000180025095e-35 0.22500000000000003 1.0000000180025095e-35 -1.0000000180025095e-35 0.22500000000000003 15.755000000000001
decision_type=2 2 8 2 8 10 8
left_child=1 2 -1 4 -3 6 -5
right_child=-2 3 -4 5 -6 -7 -8
leaf_value=0.0077545133085343346 -0.0031469383167033712 -0.003157680141378258 0.0018958884747208734 -0.00065007974579930298 0.0010338764325715601 0.0036486642460592769 0.002014333449304104
leaf_weight=29 37 29 38 35 30 22 30
leaf_count=29 37 29 38 35 30 22 30
internal_value=0 0.00166346 0.00443171 0.000393092 -0.00102638 0.00135572 0.000579649
internal_weight=0 213 67 146 59 87 65
internal_count=250 213 67 146 59 87 65
is_linear=0
shrinkage=0.03


Tree=77
num_leaves=8
num_cat=0
split_feature=4 286 3 290 0 6 16
split_gain=0.386574 0.386281 0.512292 0.990859 0.386888 0.269449 0.143366
threshold=0.12600000000000003 1.0000000180025095e-35 192.10000000000005 1.0000000180025095e-35 1.0000000180025095e-35 71.345000000000013 1.0000000180025095e-35
decision_type=8 2 8 2 8 10 2
left_child=-1 2 3 5 6 -2 -4
right_child=1 -3 4 -5 -6 -7 -8
leaf_value=0.0052030884682272485 0.001530590523917485 0.0049385654181241991 -0.0016063832731119225 0.0058743552676765471 -0.0047136094155139285 -0.0018025459636534962 0.0016986341940032111
leaf_weight=26 58 24 21 41 20 35 27
leaf_count=26 58 24 21 41 20 35 27
internal_value=0 0.00134034 0.000912825 0.00198906 -0.00120799 0.000276184 0.000252689
internal_weight=0 226 202 134 68 93 48
internal_count=252 226 202 134 68 93 48
is_linear=0
shrinkage=0.03


Tree=78
num_leaves=8
num_cat=0
split_feature=5 289 4 7 6 3 3
split_gain=0.48854 0.77348 0.344479 0.257666 0.202089 0.170464 0.119694
threshold=-11.295 1.0000000180025095e-35 0.12600000000000003 18.110000000000003 71.345000000000013 151.55000000000004 151.55000000000004
decision_type=10 2 8 8 10 8 8
left_child=2 -2 -1 -4 6 -3 -5
right_child=1 5 3 4 -6 -7 -8
leaf_value=0.0047353536050234518 0.0070776233202655258 -0.00069879118885312762 -0.0020222055518792736 0.00040596265632372632 -0.0014879402451749358 0.0029675843819975851 0.0024907524973369777
leaf_weight=21 38 21 27 39 21 25 68
leaf_count=21 38 21 27 39 21 25 68
internal_value=0 0.00391029 0.00112954 0.000641016 0.00120279 0.0012938 0.00173088
internal_weight=0 84 176 155 128 46 107
internal_count=260 84 176 155 128 46 107
is_linear=0
shrinkage=0.03


Tree=79
num_leaves=8
num_cat=0
split_feature=18 4 51 304 0 5 5
split_gain=0.597729 0.451411 0.368439 1.16786 0.530975 0.438736 0.351379
threshold=1.0000000180025095e-35 0.28400000000000009 1.0000000180025095e-35 1.0000000180025095e-35 1.0000000180025095e-35 15.755000000000001 -11.295
decision_type=2 10 2 2 10 8 10
left_child=1 2 3 6 5 -4 -1
right_child=-2 -3 4 -5 -6 -7 -8
leaf_value=0.0047698177405349589 0.007065646105259657 -0.0015415025377072966 -0.0010358399513030524 -0.00044104232436179046 0.0054087574639249524 0.0027942773475147344 0.010073043326423926
leaf_weight=23 25 26 57 28 28 51 22
leaf_count=23 25 26 57 28 28 51 22
internal_value=0 0.00218636 0.00265012 0.00436936 0.00172728 0.000772827 0.00736251
internal_weight=0 235 209 73 136 108 45
internal_count=260 235 209 73 136 108 45
is_linear=0
shrinkage=0.03


end of trees

feature_importances:
feature3=78
feature5=70
feature4=69
feature6=65
feature439=50
feature16=31
feature304=25
feature1=24
feature2=23
feature289=21
feature53=20
feature448=20
feature290=18
feature525=16
feature7=15
feature436=14
feature0=12
feature51=11
feature35=8
feature14=6
feature18=6
feature306=4
feature386=3
feature203=2
feature302=2
feature464=2
feature8=1
feature286=1
feature445=1

parameters:
[boosting: gbdt]
[objective: regression]
[metric: rmse]
[tree_learner: serial]
[device_type: cpu]
[data: ]
[valid: ]
[num_iterations: 2000]
[learning_rate: 0.03]
[num_leaves: 12]
[num_threads: 12]
[deterministic: 0]
[force_col_wise: 0]
[force_row_wise: 0]
[histogram_pool_size: -1]
[max_depth: 5]
[min_data_in_leaf: 20]
[min_sum_hessian_in_leaf: 0.001]
[bagging_fraction: 0.7]
[pos_bagging_fraction: 1]
[neg_bagging_fraction: 1]
[bagging_freq: 1]
[bagging_seed: 400]
[feature_fraction: 0.7]
[feature_fraction_bynode: 1]
[feature_fraction_seed: 30056]
[extra_trees: 0]
[extra_seed: 12879]
[early_stopping_round: 300]
[first_metric_only: 0]
[max_delta_step: 0]
[lambda_l1: 0]
[lambda_l2: 0]
[linear_lambda: 0]
[min_gain_to_split: 0]
[drop_rate: 0.1]
[max_drop: 50]
[skip_drop: 0.5]
[xgboost_dart_mode: 0]
[uniform_drop: 0]
[drop_seed: 17869]
[top_rate: 0.2]
[other_rate: 0.1]
[min_data_per_group: 100]
[max_cat_threshold: 32]
[cat_l2: 10]
[cat_smooth: 10]
[max_cat_to_onehot: 4]
[top_k: 20]
[monotone_constraints: ]
[monotone_constraints_method: basic]
[monotone_penalty: 0]
[feature_contri: ]
[forcedsplits_filename: ]
[refit_decay_rate: 0.9]
[cegb_tradeoff: 1]
[cegb_penalty_split: 0]
[cegb_penalty_feature_lazy: ]
[cegb_penalty_feature_coupled: ]
[path_smooth: 0]
[interaction_constraints: ]
[verbosity: -1]
[saved_feature_importance_type: 0]
[linear_tree: 0]
[max_bin: 7]
[max_bin_by_feature: ]
[min_data_in_bin: 3]
[bin_construct_sample_cnt: 200000]
[data_random_seed: 175]
[is_enable_sparse: 1]
[enable_bundle: 1]
[use_missing: 1]
[zero_as_missing: 0]
[feature_pre_filter: 1]
[pre_partition: 0]
[two_round: 0]
[header: 0]
[label_column: ]
[weight_column: ]
[group_column: ]
[ignore_column: ]
[categorical_feature: ]
[forcedbins_filename: ]
[precise_float_parser: 0]
[objective_seed: 16083]
[num_class: 1]
[is_unbalance: 0]
[scale_pos_weight: 1]
[sigmoid: 1]
[boost_from_average: 0]
[reg_sqrt: 0]
[alpha: 0.9]
[fair_c: 1]
[poisson_max_delta_step: 0.7]
[tweedie_variance_power: 1.5]
[lambdarank_truncation_level: 30]
[lambdarank_norm: 1]
[label_gain: ]
[eval_at: ]
[multi_error_top_k: 1]
[auc_mu_weights: ]
[num_machines: 1]
[local_listen_port: 12400]
[time_out: 120]
[machine_list_filename: ]
[machines: ]
[gpu_platform_id: -1]
[gpu_device_id: -1]
[gpu_use_dp: 0]
[num_gpu: 1]

end of parameters

pandas_categorical:[]
