tree
version=v3
num_class=1
num_tree_per_iteration=1
label_index=0
max_feature_idx=525
objective=regression
feature_names=feature0 feature1 feature2 feature3 feature4 feature5 feature6 feature7 feature8 feature9 feature10 feature11 feature12 feature13 feature14 feature15 feature16 feature17 feature18 feature19 feature20 feature21 feature22 feature23 feature24 feature25 feature26 feature27 feature28 feature29 feature30 feature31 feature32 feature33 feature34 feature35 feature36 feature37 feature38 feature39 feature40 feature41 feature42 feature43 feature44 feature45 feature46 feature47 feature48 feature49 feature50 feature51 feature52 feature53 feature54 feature55 feature56 feature57 feature58 feature59 feature60 feature61 feature62 feature63 feature64 feature65 feature66 feature67 feature68 feature69 feature70 feature71 feature72 feature73 feature74 feature75 feature76 feature77 feature78 feature79 feature80 feature81 feature82 feature83 feature84 feature85 feature86 feature87 feature88 feature89 feature90 feature91 feature92 feature93 feature94 feature95 feature96 feature97 feature98 feature99 feature100 feature101 feature102 feature103 feature104 feature105 feature106 feature107 feature108 feature109 feature110 feature111 feature112 feature113 feature114 feature115 feature116 feature117 feature118 feature119 feature120 feature121 feature122 feature123 feature124 feature125 feature126 feature127 feature128 feature129 feature130 feature131 feature132 feature133 feature134 feature135 feature136 feature137 feature138 feature139 feature140 feature141 feature142 feature143 feature144 feature145 feature146 feature147 feature148 feature149 feature150 feature151 feature152 feature153 feature154 feature155 feature156 feature157 feature158 feature159 feature160 feature161 feature162 feature163 feature164 feature165 feature166 feature167 feature168 feature169 feature170 feature171 feature172 feature173 feature174 feature175 feature176 feature177 feature178 feature179 feature180 feature181 feature182 feature183 feature184 feature185 feature186 feature187 feature188 feature189 feature190 feature191 feature192 feature193 feature194 feature195 feature196 feature197 feature198 feature199 feature200 feature201 feature202 feature203 feature204 feature205 feature206 feature207 feature208 feature209 feature210 feature211 feature212 feature213 feature214 feature215 feature216 feature217 feature218 feature219 feature220 feature221 feature222 feature223 feature224 feature225 feature226 feature227 feature228 feature229 feature230 feature231 feature232 feature233 feature234 feature235 feature236 feature237 feature238 feature239 feature240 feature241 feature242 feature243 feature244 feature245 feature246 feature247 feature248 feature249 feature250 feature251 feature252 feature253 feature254 feature255 feature256 feature257 feature258 feature259 feature260 feature261 feature262 feature263 feature264 feature265 feature266 feature267 feature268 feature269 feature270 feature271 feature272 feature273 feature274 feature275 feature276 feature277 feature278 feature279 feature280 feature281 feature282 feature283 feature284 feature285 feature286 feature287 feature288 feature289 feature290 feature291 feature292 feature293 feature294 feature295 feature296 feature297 feature298 feature299 feature300 feature301 feature302 feature303 feature304 feature305 feature306 feature307 feature308 feature309 feature310 feature311 feature312 feature313 feature314 feature315 feature316 feature317 feature318 feature319 feature320 feature321 feature322 feature323 feature324 feature325 feature326 feature327 feature328 feature329 feature330 feature331 feature332 feature333 feature334 feature335 feature336 feature337 feature338 feature339 feature340 feature341 feature342 feature343 feature344 feature345 feature346 feature347 feature348 feature349 feature350 feature351 feature352 feature353 feature354 feature355 feature356 feature357 feature358 feature359 feature360 feature361 feature362 feature363 feature364 feature365 feature366 feature367 feature368 feature369 feature370 feature371 feature372 feature373 feature374 feature375 feature376 feature377 feature378 feature379 feature380 feature381 feature382 feature383 feature384 feature385 feature386 feature387 feature388 feature389 feature390 feature391 feature392 feature393 feature394 feature395 feature396 feature397 feature398 feature399 feature400 feature401 feature402 feature403 feature404 feature405 feature406 feature407 feature408 feature409 feature410 feature411 feature412 feature413 feature414 feature415 feature416 feature417 feature418 feature419 feature420 feature421 feature422 feature423 feature424 feature425 feature426 feature427 feature428 feature429 feature430 feature431 feature432 feature433 feature434 feature435 feature436 feature437 feature438 feature439 feature440 feature441 feature442 feature443 feature444 feature445 feature446 feature447 feature448 feature449 feature450 feature451 feature452 feature453 feature454 feature455 feature456 feature457 feature458 feature459 feature460 feature461 feature462 feature463 feature464 feature465 feature466 feature467 feature468 feature469 feature470 feature471 feature472 feature473 feature474 feature475 feature476 feature477 feature478 feature479 feature480 feature481 feature482 feature483 feature484 feature485 feature486 feature487 feature488 feature489 feature490 feature491 feature492 feature493 feature494 feature495 feature496 feature497 feature498 feature499 feature500 feature501 feature502 feature503 feature504 feature505 feature506 feature507 feature508 feature509 feature510 feature511 feature512 feature513 feature514 feature515 feature516 feature517 feature518 feature519 feature520 feature521 feature522 feature523 feature524 feature525
feature_infos=[0:1] [0:100] [0:1] [4.7300000000000004:3170] [0.012999999999999999:21.920000000000002] [-64.299999999999997:48.450000000000003] [0.46600000000000003:99.799999999999997] [0.0275:78.299999999999997] [0:46] none none none none none [0:1] none [0:1] none [0:1] none none none none none none none none none none none none none none none none [0:1] none none none none none none [0:1] none none none none none none none none [0:1] none [0:1] none none none none none none none none none none none none none none none none none none none none none none none none none none none none none none none none none none none none none none none none none none none none none none none none none none none none none none none none none none none none none none none none none none none none none none none none none none none none none none none none none none none none none none none none none none none none none none none none none none none none none none none none none none none none none none none none none none none none none none none none none none none none none none none none none none none none none none none none none none none none none none none none none none none none none [0:1] none none none none none none none none none none none none none none none none none none none none none none none none none none none none none none none none none none none none none none none none none none none none none none none none none none none none none none none none none none none none none none none none none none none none none none none none none none none none none none none none none none [0:1] none none [0:1] [0:1] none none none none none none none none none none none [0:1] none [0:1] none [0:1] none none none none none none none none none none none none none none none none none none none none none none none none none none none none none none none none none none none none none none none none none none none none none none none none none none none none none none none none none none none none none none none none none none none none none none none none none none none none none none none [0:1] none none none none none none none none none none none none none none none none none none none none none none none none none none none none none none none none none none none none none none none none none none none none none none none none none [0:1] none none [0:1] [0:1] none none none none [0:1] none none [0:1] none none none none none none none none none none none none none none none [0:1] none [0:1] none none none none none none none none none none none none none none none none none none none none none none none none none none none none none none none none none none none none none none none none none none none none none none none none none none none none none none none none none [0:1] [0:1]
tree_sizes=816 900 978 968 909 898 825 737 963 905 816 819 889 896 982 818 667 742 915 807 910 872 982 893 972 1069 914 812 991 989 976 1007 822 897 831 1001 879 917 830 888 913 995 836 835 931 917 757 928 903 1011 811 739 839 1008 844 757 830 1005 1006 1011 923 829 876 914 850 672 1100 1009 762 1106 765

Tree=0
num_leaves=8
num_cat=0
split_feature=53 35 4 14 439 436 3
split_gain=3.81019 1.62373 1.3016 1.5747 1.88033 0.256635 0.48855
threshold=1.0000000180025095e-35 1.0000000180025095e-35 0.27650000000000008 1.0000000180025095e-35 1.0000000180025095e-35 1.0000000180025095e-35 112.30000000000001
decision_type=2 2 8 2 2 2 10
left_child=1 -1 3 4 -3 6 -4
right_child=-2 2 5 -5 -6 -7 -8
leaf_value=0.022076526753604411 0.02594453859682146 0.013817542190181798 0.0085475235235165144 0.010053228831716944 0.024082214906811714 0.014358626589179038 0.013847912361138854
leaf_weight=30 38 29 34 21 36 30 29
leaf_count=30 38 29 34 21 36 30 29
internal_value=0 0.0156174 0.0145349 0.0171952 0.0195026 0.0120749 0.0109874
internal_weight=0 209 179 86 65 93 63
internal_count=247 209 179 86 65 93 63
is_linear=0
shrinkage=0.03


Tree=1
num_leaves=9
num_cat=0
split_feature=53 4 6 16 448 2 5 6
split_gain=3.10087 1.79992 1.51373 0.626005 0.433551 0.672971 0.413924 0.358324
threshold=1.0000000180025095e-35 0.27650000000000008 80.450000000000017 1.0000000180025095e-35 1.0000000180025095e-35 1.0000000180025095e-35 -23.949999999999996 1.0000000180025095e-35
decision_type=2 8 10 2 2 8 10 10
left_child=1 2 3 -1 -3 6 -6 -5
right_child=-2 4 -4 7 5 -7 -8 -9
leaf_value=0.011620974840223789 0.023780091990892951 0.009451068767274801 0.024448382942513988 0.020284282788634301 0.008927852388296742 0.016336995034755483 0.014429506349377333 0.01498373320326209
leaf_weight=25 37 39 22 22 32 37 20 24
leaf_count=25 37 39 22 22 32 37 20 24
internal_value=0 0.0143964 0.0175726 0.0154421 0.0120886 0.0132444 0.0110439 0.0175188
internal_weight=0 221 93 71 128 89 52 46
internal_count=258 221 93 71 128 89 52 46
is_linear=0
shrinkage=0.03


Tree=2
num_leaves=10
num_cat=0
split_feature=289 304 3 3 4 4 16 3 5
split_gain=3.40224 2.80543 1.64423 0.786294 0.503859 0.432121 0.365529 0.144936 0.0874296
threshold=1.0000000180025095e-35 1.0000000180025095e-35 112.30000000000001 195.40000000000003 0.21950000000000003 0.11600000000000001 1.0000000180025095e-35 84.170000000000016 -23.949999999999996
decision_type=2 2 8 8 10 10 2 10 10
left_child=1 2 -1 4 7 -4 -5 -2 -9
right_child=3 -3 5 6 -6 -7 -8 8 -10
leaf_value=0.030486605484038594 0.012929784703467572 0.013029282750754521 0.017443735823035239 0.014479714100333777 0.015952322335956112 0.023605305366218091 0.019542766926544053 0.0088635363441024861 0.011235803357428974
leaf_weight=24 21 29 20 33 22 21 21 29 27
leaf_count=24 21 29 20 33 22 21 21 29 27
internal_value=0 0.0207884 0.0242502 0.0135367 0.0119483 0.0205997 0.0164487 0.0108043 0.0100073
internal_weight=0 94 65 153 99 41 54 77 56
internal_count=247 94 65 153 99 41 54 77 56
is_linear=0
shrinkage=0.03


Tree=3
num_leaves=10
num_cat=0
split_feature=289 304 439 4 439 2 3 2 5
split_gain=3.17049 3.55696 2.18302 1.46241 1.3575 0.964159 0.753299 0.85754 0.0942744
threshold=1.0000000180025095e-35 1.0000000180025095e-35 1.0000000180025095e-35 0.27650000000000008 1.0000000180025095e-35 inf 195.40000000000003 1.0000000180025095e-35 -23.949999999999996
decision_type=2 2 2 8 2 8 8 8 10
left_child=1 2 -1 4 -2 -4 8 -8 -5
right_child=3 -3 5 6 -6 -7 7 -9 -10
leaf_value=0.031752082769359861 0.011660836758938703 0.012138654968223056 0.015562757788734003 0.006269546920666471 0.02002999350428581 0.024549634882381984 0.016386796742777474 0.0084719403738431117 0.0090219315008393357
leaf_weight=21 33 37 22 24 37 21 28 22 21
leaf_count=21 33 37 22 24 37 21 28 22 21
internal_value=0 0.019543 0.0238237 0.0127943 0.0160845 0.0199517 0.0103699 0.0129043 0.00755399
internal_weight=0 101 64 165 70 43 95 50 45
internal_count=266 101 64 165 70 43 95 50 45
is_linear=0
shrinkage=0.03


Tree=4
num_leaves=9
num_cat=0
split_feature=4 289 304 289 439 4 3 439
split_gain=3.19306 1.5003 1.30052 1.06536 0.985691 0.793146 0.708244 0.354189
threshold=0.27650000000000008 1.0000000180025095e-35 1.0000000180025095e-35 1.0000000180025095e-35 1.0000000180025095e-35 0.17050000000000004 1.0000000180025095e-35 1.0000000180025095e-35
decision_type=8 2 2 2 2 10 10 2
left_child=3 2 -2 -1 -5 -6 -3 -8
right_child=1 6 -4 4 5 -7 7 -9
leaf_value=0.024057207118619132 0.022146105524897576 0.014624617279417091 0.012562970176760035 0.012998514573276042 0.024846105879172683 0.016591504851610143 0.0067219001539051528 0.01116412533766457
leaf_weight=37 25 31 26 25 20 22 30 35
leaf_count=37 25 31 26 25 20 22 30 35
internal_value=0 0.0131024 0.0172606 0.0199713 0.0177149 0.0205223 0.0108934 0.00911387
internal_weight=0 147 51 104 67 42 96 65
internal_count=251 147 51 104 67 42 96 65
is_linear=0
shrinkage=0.03


Tree=5
num_leaves=9
num_cat=0
split_feature=448 53 4 16 2 6 3 16
split_gain=2.96954 2.03606 1.37902 1.93624 1.03321 0.931122 0.384249 0.167884
threshold=1.0000000180025095e-35 1.0000000180025095e-35 0.27650000000000008 1.0000000180025095e-35 1.0000000180025095e-35 80.450000000000017 153.50000000000003 1.0000000180025095e-35
decision_type=2 2 8 2 8 8 8 2
left_child=4 2 3 -2 -1 -5 -4 -8
right_child=1 -3 6 5 -6 -7 7 -9
leaf_value=0.012680839087281908 0.011027398324012757 0.022588710618131842 0.0094040384814143181 0.016967253845347009 0.0046015294551335533 0.025331198716163635 0.015366686597609749 0.011848056966681841
leaf_weight=28 25 38 30 23 29 25 26 23
leaf_count=28 25 38 30 23 29 25 26 23
internal_value=0 0.0163776 0.0148248 0.0177974 0.00857031 0.0213235 0.012078 0.0137151
internal_weight=0 190 152 73 57 48 79 49
internal_count=247 190 152 73 57 48 79 49
is_linear=0
shrinkage=0.03


Tree=6
num_leaves=8
num_cat=0
split_feature=290 5 436 448 436 3 2
split_gain=3.21347 1.4547 0.638029 0.594236 0.423923 0.38072 0.297631
threshold=1.0000000180025095e-35 1.0000000180025095e-35 1.0000000180025095e-35 1.0000000180025095e-35 1.0000000180025095e-35 112.30000000000001 1.0000000180025095e-35
decision_type=2 10 2 2 2 8 8
left_child=1 3 -2 6 5 -5 -1
right_child=2 -3 -4 4 -6 -7 -8
leaf_value=0.01015979547872497 0.01699492322633395 0.017369828004773488 0.023060174675451385 0.016902036007493734 0.0094751436175092279 0.011788380994510494 0.0057828292954299181
leaf_weight=29 37 34 27 20 38 38 27
leaf_count=29 37 34 27 20 38 38 27
internal_value=0 0.0117602 0.0195537 0.0105054 0.0119381 0.0135517 0.00804947
internal_weight=0 186 64 152 96 58 56
internal_count=250 186 64 152 96 58 56
is_linear=0
shrinkage=0.03


Tree=7
num_leaves=7
num_cat=0
split_feature=386 304 5 289 3 3
split_gain=3.08195 2.82148 1.04675 0.724371 0.362655 0.616249
threshold=1.0000000180025095e-35 1.0000000180025095e-35 18.355000000000004 1.0000000180025095e-35 84.170000000000016 153.50000000000003
decision_type=2 2 10 2 8 8
left_child=1 -1 3 -2 -5 -6
right_child=2 -3 -4 4 5 -7
leaf_value=0.024715534089931421 0.014460655877632754 0.011360456104157491 0.017189205349981782 0.012590262823706042 0.0054755507202764201 0.010376122175560642
leaf_weight=35 35 24 25 29 34 72
leaf_count=35 35 24 25 29 34 72
internal_value=0 0.019283 0.0114575 0.0106146 0.00961753 0.00880424
internal_weight=0 59 195 170 135 106
internal_count=254 59 195 170 135 106
is_linear=0
shrinkage=0.03


Tree=8
num_leaves=10
num_cat=0
split_feature=290 304 5 6 4 439 2 3 3
split_gain=2.14523 1.79102 1.1173 1.09798 1.09892 1.43533 0.63531 0.231168 0.183503
threshold=1.0000000180025095e-35 1.0000000180025095e-35 -11.295 59.865000000000002 0.27650000000000008 1.0000000180025095e-35 1.0000000180025095e-35 84.170000000000016 153.50000000000003
decision_type=2 2 8 10 8 2 8 10 8
left_child=3 2 -2 6 5 -5 8 -8 -1
right_child=1 -3 -4 4 -6 -7 7 -9 -10
leaf_value=0.0096770276798104696 0.01597230176918674 0.010786582250957903 0.025667622918668 0.011186189551837743 0.0092452834457159034 0.022068055970594285 0.0086049433857468619 0.0043820338896475731 0.012734926857642437
leaf_weight=33 20 23 23 20 25 24 28 20 38
leaf_count=33 20 23 23 20 25 24 28 20 38
internal_value=0 0.0175438 0.0211582 0.0112571 0.014268 0.0171218 0.00951133 0.0068454 0.0113136
internal_weight=0 66 43 188 69 44 119 48 71
internal_count=254 66 43 188 69 44 119 48 71
is_linear=0
shrinkage=0.03


Tree=9
num_leaves=9
num_cat=0
split_feature=4 290 304 6 290 439 4 3
split_gain=2.5196 1.10849 0.989207 0.902509 0.813928 0.196705 0.79184 0.236162
threshold=0.21950000000000003 1.0000000180025095e-35 1.0000000180025095e-35 80.450000000000017 1.0000000180025095e-35 1.0000000180025095e-35 0.21950000000000003 1.0000000180025095e-35
decision_type=8 2 2 10 2 2 10 10
left_child=3 5 -3 4 -1 7 -7 -2
right_child=1 2 -4 -5 -6 6 -8 -9
leaf_value=0.012422225372089694 0.010411611840776776 0.019147643798395342 0.010526766429841518 0.022520765938929148 0.019468473315238953 0.007896285485642562 0.014639745383709669 0.0065199323929846283
leaf_weight=36 23 23 25 21 25 42 25 36
leaf_count=36 23 23 25 21 25 42 25 36
internal_value=0 0.0107781 0.0146576 0.0171567 0.01531 0.00930018 0.0104125 0.00803703
internal_weight=0 174 48 82 61 126 67 59
internal_count=256 174 48 82 61 126 67 59
is_linear=0
shrinkage=0.03


Tree=10
num_leaves=8
num_cat=0
split_feature=289 304 5 7 5 448 16
split_gain=2.01625 2.77377 1.01484 0.869155 0.270346 0.619185 0.556637
threshold=1.0000000180025095e-35 1.0000000180025095e-35 -11.295 0.16050000000000003 1.0000000180025095e-35 1.0000000180025095e-35 1.0000000180025095e-35
decision_type=2 2 10 10 10 2 2
left_child=1 2 -1 4 5 -2 -7
right_child=3 -3 -4 -5 -6 6 -8
leaf_value=0.016819791752578955 0.00779550003114383 0.0097436107752995708 0.024644411174723733 0.0049466616399586197 0.014597278959725214 0.009883395388522849 0.014612549527155351
leaf_weight=35 37 37 26 20 23 42 48
leaf_count=35 37 37 26 20 23 42 48
internal_value=0 0.0162241 0.0201549 0.0108212 0.0116045 0.0110625 0.0124056
internal_weight=0 98 61 170 150 127 90
internal_count=268 98 61 170 150 127 90
is_linear=0
shrinkage=0.03


Tree=11
num_leaves=8
num_cat=0
split_feature=53 18 4 6 4 1 3
split_gain=2.44111 0.716609 0.484741 0.909847 0.739066 0.412869 0.323408
threshold=1.0000000180025095e-35 1.0000000180025095e-35 0.27650000000000008 80.450000000000017 0.17050000000000004 1.0000000180025095e-35 84.170000000000016
decision_type=2 2 8 10 10 8 10
left_child=1 2 3 4 -1 -4 -7
right_child=-2 -3 5 -5 -6 6 -8
leaf_value=0.006357558139094055 0.01880305620913322 0.015526770814321935 0.011901194621235706 0.017112824363367897 0.012753948141141115 0.0094480137623703248 0.0055591924041877251
leaf_weight=29 39 24 26 21 37 39 38
leaf_count=29 39 24 26 21 37 39 38
internal_value=0 0.0106422 0.0100252 0.011674 0.00994341 0.00863255 0.00752886
internal_weight=0 214 190 87 66 103 77
internal_count=253 214 190 87 66 103 77
is_linear=0
shrinkage=0.03


Tree=12
num_leaves=9
num_cat=0
split_feature=4 51 3 4 6 436 3 5
split_gain=1.14394 0.96544 1.45072 0.417336 0.681016 0.377771 0.394565 0.00596684
threshold=0.11600000000000001 1.0000000180025095e-35 112.30000000000001 0.27650000000000008 71.100000000000009 1.0000000180025095e-35 112.30000000000001 -11.295
decision_type=8 2 8 8 10 2 10 10
left_child=-1 2 -2 4 -3 6 -5 -4
right_child=1 3 7 5 -6 -7 -8 -9
leaf_value=0.016264982955049603 0.019277031158461518 0.014278821919495904 0.010187835212331265 0.0051355498894212802 0.0071320582048169196 0.010795077509246766 0.0093060504768842037 0.009455021646805107
leaf_weight=31 23 28 20 49 21 30 35 20
leaf_count=31 23 28 20 49 21 30 35 20
internal_value=0 0.0101195 0.0132735 0.00890053 0.0112159 0.00790532 0.00687326 0.00982143
internal_weight=0 226 63 163 49 114 84 40
internal_count=257 226 63 163 49 114 84 40
is_linear=0
shrinkage=0.03


Tree=13
num_leaves=9
num_cat=0
split_feature=290 304 3 5 448 7 1 3
split_gain=2.32526 1.70016 0.944891 0.849436 0.842629 0.298724 0.602962 0.207072
threshold=1.0000000180025095e-35 1.0000000180025095e-35 195.40000000000003 -11.295 1.0000000180025095e-35 1.0000000180025095e-35 21.500000000000004 153.50000000000003
decision_type=2 2 10 8 2 10 8 8
left_child=2 3 4 -2 7 6 -6 -1
right_child=1 -3 -4 -5 5 -7 -8 -9
leaf_value=0.0075354359437584534 0.015315692102039147 0.0096608727121644689 0.015067113219863839 0.023398350850213318 0.0070747522822454233 0.0076697957329452037 0.012894059624286146 0.0034193431444212116
leaf_weight=22 22 23 27 25 22 27 59 22
leaf_count=22 22 23 27 25 22 27 59 22
internal_value=0 0.0163443 0.00989551 0.019615 0.00897687 0.0104026 0.0113135 0.00547739
internal_weight=0 70 179 47 152 108 81 44
internal_count=249 70 179 47 152 108 81 44
is_linear=0
shrinkage=0.03


Tree=14
num_leaves=10
num_cat=0
split_feature=289 3 6 6 0 439 4 3 3
split_gain=2.7372 2.66715 1.4562 1.40505 0.745823 0.557249 0.80839 0.307765 0.182082
threshold=1.0000000180025095e-35 112.30000000000001 59.865000000000002 80.450000000000017 1.0000000180025095e-35 1.0000000180025095e-35 0.17050000000000004 84.170000000000016 195.40000000000003
decision_type=2 8 10 10 10 2 10 10 8
left_child=1 -1 4 5 -3 7 8 -2 -7
right_child=3 2 -4 -5 -6 6 -8 -9 -10
leaf_value=0.021738083210181107 0.0071023650425818879 0.011856515700928867 0.017101416406407954 0.014284403314813971 0.0039524168261725985 0.0048160914061591027 0.01332821479300037 0.0026928532187794818 0.0084743752109352494
leaf_weight=33 28 22 25 30 21 25 24 29 24
leaf_count=33 28 22 25 30 21 25 24 29 24
internal_value=0 0.01474 0.0113438 0.00843222 0.00799637 0.00708172 0.00881732 0.00485893 0.0066079
internal_weight=0 101 68 160 43 130 73 57 49
internal_count=261 101 68 160 43 130 73 57 49
is_linear=0
shrinkage=0.03


Tree=15
num_leaves=8
num_cat=0
split_feature=5 6 7 290 304 1 5
split_gain=0.893324 1.17025 1.05953 1.10887 1.5332 0.534795 0.968159
threshold=1.0000000180025095e-35 59.865000000000002 0.16050000000000003 1.0000000180025095e-35 1.0000000180025095e-35 21.500000000000004 -23.949999999999996
decision_type=10 10 10 2 2 8 8
left_child=2 -2 3 5 -5 -1 -7
right_child=1 -3 -4 4 -6 6 -8
leaf_value=0.0065788639155594077 0.010165388378248151 0.020180743443114414 0.0041494885396043011 0.019585270695720934 0.0092519871308468279 0.016503430408026491 0.0091467522011826861
leaf_weight=37 21 21 22 28 24 21 69
leaf_count=37 21 21 22 28 24 21 69
internal_value=0 0.0151731 0.0103624 0.011126 0.0148161 0.00961509 0.0108633
internal_weight=0 42 201 179 52 127 90
internal_count=243 42 201 179 52 127 90
is_linear=0
shrinkage=0.03


Tree=16
num_leaves=6
num_cat=0
split_feature=53 3 436 439 525
split_gain=1.54664 0.766996 1.01073 0.674529 0.344812
threshold=1.0000000180025095e-35 84.170000000000016 1.0000000180025095e-35 1.0000000180025095e-35 1.0000000180025095e-35
decision_type=2 8 2 2 2
left_child=1 -1 3 -3 -5
right_child=-2 2 -4 4 -6
leaf_value=0.013363814182059073 0.015782878951316599 0.0032549625299870964 0.012547641439762499 0.0070552281570345375 0.010510645949667909
leaf_weight=34 38 30 42 71 41
leaf_count=34 38 30 42 71 41
internal_value=0 0.00922421 0.00845928 0.00725005 0.00832016
internal_weight=0 218 184 142 112
internal_count=256 218 184 142 112
is_linear=0
shrinkage=0.03


Tree=17
num_leaves=7
num_cat=0
split_feature=3 35 4 289 1 302
split_gain=1.41414 0.727215 0.677405 0.432716 0.345366 0.23236
threshold=84.170000000000016 1.0000000180025095e-35 0.27650000000000008 1.0000000180025095e-35 2.6000000000000005 1.0000000180025095e-35
decision_type=8 2 8 2 8 2
left_child=-1 -2 3 -3 -4 -6
right_child=1 2 4 -5 5 -7
leaf_value=0.015024531288421714 0.014019178362055257 0.013089643098064698 0.0089744092044420527 0.0084823686168204199 0.0027470659066457302 0.0065731213884428147
leaf_weight=40 22 32 40 43 20 50
leaf_count=40 22 32 40 43 20 50
internal_value=0 0.00886283 0.00824964 0.0104481 0.00675067 0.00547996
internal_weight=0 207 185 75 110 70
internal_count=247 207 185 75 110 70
is_linear=0
shrinkage=0.03


Tree=18
num_leaves=9
num_cat=0
split_feature=290 304 4 6 6 525 1 525
split_gain=2.30619 3.11176 1.46206 1.0976 0.383208 0.168413 0.0866775 0.116121
threshold=1.0000000180025095e-35 1.0000000180025095e-35 0.17050000000000004 1.0000000180025095e-35 1.0000000180025095e-35 1.0000000180025095e-35 98.500000000000014 1.0000000180025095e-35
decision_type=2 2 8 10 10 2 8 2
left_child=2 3 -1 -2 6 -6 -4 -8
right_child=1 -3 4 -5 5 -7 7 -9
leaf_value=0.013268959062138142 0.024301642975104707 0.0068193629486486317 0.0065990834869444365 0.014910169318318367 0.006305841712683842 0.0031897033709618779 0.0075395673079682243 0.010186368776127122
leaf_weight=39 21 30 26 24 37 27 35 26
leaf_count=39 21 30 26 24 37 27 35 26
internal_value=0 0.0143035 0.00809071 0.0192929 0.00675328 0.00499122 0.0080495 0.00866771
internal_weight=0 75 190 45 151 64 87 61
internal_count=265 75 190 45 151 64 87 61
is_linear=0
shrinkage=0.03


Tree=19
num_leaves=8
num_cat=0
split_feature=3 18 289 2 304 3 4
split_gain=1.77298 1.30174 0.931259 0.729903 0.865953 0.515288 0.436723
threshold=84.170000000000016 1.0000000180025095e-35 1.0000000180025095e-35 inf 1.0000000180025095e-35 112.30000000000001 0.21950000000000003
decision_type=8 2 2 8 2 8 10
left_child=-1 2 3 4 -2 -4 -7
right_child=1 -3 5 -5 -6 6 -8
leaf_value=0.01591673279252763 0.012199960410653148 0.015713139814527138 0.0023177038226276634 0.015474287968661104 0.0047481677513569595 0.0062448395187301295 0.011009729747538981
leaf_weight=39 32 23 22 21 25 70 23
leaf_count=39 32 23 22 21 25 70 23
internal_value=0 0.00896675 0.00816277 0.0106931 0.00893163 0.00644654 0.00742325
internal_weight=0 216 193 78 57 115 93
internal_count=255 216 193 78 57 115 93
is_linear=0
shrinkage=0.03


Tree=20
num_leaves=9
num_cat=0
split_feature=290 439 439 3 4 4 3 525
split_gain=2.41996 1.15945 0.416406 1.47516 0.457581 0.688486 0.221898 0.145541
threshold=1.0000000180025095e-35 1.0000000180025095e-35 1.0000000180025095e-35 112.30000000000001 0.17050000000000004 0.21950000000000003 195.40000000000003 1.0000000180025095e-35
decision_type=2 2 2 8 8 10 8 2
left_child=2 -2 3 -1 -4 6 -6 -5
right_child=1 -3 4 7 5 -7 -8 -9
leaf_value=-4.6447317044322305e-05 0.017746749822351072 0.010184413805050221 0.012655417538647139 0.0068823925308559245 0.0038291771100977287 0.011930841287830844 0.0076157327988184975 0.01005434713512659
leaf_weight=26 36 37 21 23 26 24 30 30
leaf_count=26 36 37 21 23 26 24 30 30
internal_value=0 0.0139138 0.00743807 0.00580655 0.0087142 0.00767963 0.00585769 0.00867784
internal_weight=0 73 180 79 101 80 56 53
internal_count=253 73 180 79 101 80 56 53
is_linear=0
shrinkage=0.03


Tree=21
num_leaves=9
num_cat=0
split_feature=289 5 5 2 439 3 6 3
split_gain=3.10699 1.01308 0.544177 0.831452 0.651236 0.44154 0.38965 0.052226
threshold=1.0000000180025095e-35 -11.295 inf 1.0000000180025095e-35 1.0000000180025095e-35 195.40000000000003 59.865000000000002 112.30000000000001
decision_type=2 10 8 8 2 8 10 10
left_child=1 5 4 -4 7 -1 -6 -2
right_child=2 -3 3 -5 6 -7 -8 -9
leaf_value=0.013088567390417059 0.0042028408178261343 0.017245726604014633 0.007978005719281013 0.0010297768172477522 0.0078520287862368695 0.0077672723157371833 0.012909741873064868 0.0063449013889767224
leaf_weight=36 21 39 31 31 29 23 26 20
leaf_count=36 21 39 31 31 29 23 26 20
internal_value=0 0.0134941 0.00669469 0.00450389 0.00810958 0.0110142 0.0102429 0.00524775
internal_weight=0 98 158 62 96 59 55 41
internal_count=256 98 158 62 96 59 55 41
is_linear=0
shrinkage=0.03


Tree=22
num_leaves=10
num_cat=0
split_feature=289 304 439 439 7 2 2 3 3
split_gain=1.87332 2.29833 2.84598 0.54684 0.455655 0.532717 0.317944 0.265698 0.186564
threshold=1.0000000180025095e-35 1.0000000180025095e-35 1.0000000180025095e-35 1.0000000180025095e-35 1.0000000180025095e-35 1.0000000180025095e-35 inf 153.50000000000003 153.50000000000003
decision_type=2 2 2 2 10 8 8 10 8
left_child=1 2 -1 6 5 7 8 -5 -2
right_child=3 -3 -4 4 -6 -7 -8 -9 -10
leaf_value=0.022800031357910484 0.0039305522195670914 0.0051696558552794154 0.0096698752936936212 0.0061385641896935265 0.011144517692737282 0.0029498169585489313 0.001942880687049844 0.010805892215243407 0.0077948154867838399
leaf_weight=24 23 36 39 23 24 26 33 21 22
leaf_count=24 23 36 39 23 24 26 33 21 22
internal_value=0 0.0112165 0.0146718 0.0060365 0.00757739 0.00635437 0.00417953 0.00836615 0.00581975
internal_weight=0 99 63 172 94 70 78 44 45
internal_count=271 99 63 172 94 70 78 44 45
is_linear=0
shrinkage=0.03


Tree=23
num_leaves=9
num_cat=0
split_feature=53 4 16 2 3 2 3 16
split_gain=2.69757 1.25159 0.589643 0.72664 0.388065 0.32779 0.0661675 0.0569358
threshold=1.0000000180025095e-35 0.27650000000000008 1.0000000180025095e-35 inf 153.50000000000003 1.0000000180025095e-35 153.50000000000003 1.0000000180025095e-35
decision_type=2 8 2 8 8 8 10 2
left_child=1 2 -1 -4 7 6 -6 -3
right_child=-2 4 3 -5 5 -7 -8 -9
leaf_value=0.0068864498951006674 0.016076465915460306 0.0041345369294285778 0.0083347624239440143 0.015427421626205055 0.0094721620380878446 0.0043860097366728275 0.0071127763406737985 0.0019870260804891586
leaf_weight=36 35 20 26 26 20 38 23 25
leaf_count=36 35 20 26 26 20 38 23 25
internal_value=0 0.00709253 0.00983783 0.0118811 0.00517517 0.00641612 0.00821017 0.00294148
internal_weight=0 214 88 52 126 81 43 45
internal_count=249 214 88 52 126 81 43 45
is_linear=0
shrinkage=0.03


Tree=24
num_leaves=10
num_cat=0
split_feature=448 16 290 5 2 6 5 6 0
split_gain=1.48245 1.62238 0.94696 0.871991 0.911213 0.888281 0.550718 0.272166 0.308886
threshold=1.0000000180025095e-35 1.0000000180025095e-35 1.0000000180025095e-35 -11.295 inf 1.0000000180025095e-35 -23.949999999999996 59.865000000000002 1.0000000180025095e-35
decision_type=2 2 2 10 8 10 10 10 8
left_child=6 2 7 4 5 -3 -1 8 -2
right_child=1 3 -4 -5 -6 -7 -8 -9 -10
leaf_value=0.0012079232866545359 0.0055567729100584988 0.011190814157439903 0.011183273110968563 0.016168805104214697 0.014832530993108566 0.0035106663243926087 0.0071283907421233238 0.0071669017390481064 0.00041129093617200849
leaf_weight=31 21 33 26 30 26 23 26 21 21
leaf_count=31 21 33 26 30 26 23 26 21 21
internal_value=0 0.00938981 0.00636629 0.0117924 0.0101913 0.00803647 0.00390849 0.00437832 0.00298403
internal_weight=0 201 89 112 82 56 57 63 42
internal_count=258 201 89 112 82 56 57 63 42
is_linear=0
shrinkage=0.03


Tree=25
num_leaves=11
num_cat=0
split_feature=5 289 4 6 3 2 439 439 3 6
split_gain=1.0897 1.8557 0.534672 1.18289 0.499873 0.384021 0.164918 0.136368 0.0920909 0.023091
threshold=-11.295 1.0000000180025095e-35 0.27650000000000008 80.450000000000017 153.50000000000003 1.0000000180025095e-35 1.0000000180025095e-35 1.0000000180025095e-35 153.50000000000003 1.0000000180025095e-35
decision_type=10 2 8 8 8 8 2 2 10 10
left_child=2 -2 3 -1 9 -5 -6 -3 -8 -4
right_child=1 7 4 5 6 -7 8 -9 -10 -11
leaf_value=0.0033345824742438989 0.016043453452770005 0.0048845605844897878 0.0017539191087707878 0.008975468107706143 0.0080879790615290392 0.014460139654576779 0.0039775738475674935 0.0082282860344275836 0.0067225164471363475 0.0031955132028087972
leaf_weight=26 33 21 20 27 36 20 22 23 22 20
leaf_count=26 33 21 20 27 36 20 22 23 22 20
internal_value=0 0.0106657 0.00644455 0.00846904 0.00521298 0.0113094 0.00658212 0.00663242 0.00535005 0.00247472
internal_weight=0 77 193 73 120 47 80 44 44 40
internal_count=270 77 193 73 120 47 80 44 44 40
is_linear=0
shrinkage=0.03


Tree=26
num_leaves=9
num_cat=0
split_feature=51 304 6 18 4 16 6 439
split_gain=1.2988 1.09292 1.7979 0.422004 0.397069 0.380649 0.540297 0.527952
threshold=1.0000000180025095e-35 1.0000000180025095e-35 80.450000000000017 1.0000000180025095e-35 0.21950000000000003 1.0000000180025095e-35 59.865000000000002 1.0000000180025095e-35
decision_type=2 2 8 2 10 2 10 2
left_child=1 2 -1 4 5 7 -7 -2
right_child=3 -3 -4 -5 -6 6 -8 -9
leaf_value=0.0077225438750941648 0.007138470678549746 0.0058288266483162128 0.019375238745974806 0.010501681920950827 0.0094688779157068997 0.0093268518712228306 0.0042302051256410773 0.0012533889335634954
leaf_weight=22 23 21 26 23 27 39 36 34
leaf_count=22 23 21 26 23 27 39 36 34
internal_value=0 0.0115371 0.0140344 0.00670348 0.00615405 0.00547602 0.00688046 0.00362807
internal_weight=0 69 48 182 159 132 75 57
internal_count=251 69 48 182 159 132 75 57
is_linear=0
shrinkage=0.03


Tree=27
num_leaves=8
num_cat=0
split_feature=3 436 51 5 7 0 6
split_gain=1.6741 1.82312 0.634233 1.07713 0.395735 0.302425 0.21802
threshold=84.170000000000016 1.0000000180025095e-35 1.0000000180025095e-35 -11.295 0.16050000000000003 1.0000000180025095e-35 71.100000000000009
decision_type=8 2 2 10 10 10 10
left_child=1 -1 3 -2 5 6 -4
right_child=2 -3 4 -5 -6 -7 -8
leaf_value=0.019215689073981981 0.0055440693562598649 0.0068578658676282924 0.0076211689006556076 0.01334296359680593 0.0015425406422998223 0.00343251597660128 0.0044717387544612082
leaf_weight=21 37 22 74 28 21 32 27
leaf_count=21 37 22 74 28 21 32 27
internal_value=0 0.0128931 0.00641859 0.00890359 0.00536972 0.00597401 0.00677924
internal_weight=0 43 219 65 154 133 101
internal_count=262 43 219 65 154 133 101
is_linear=0
shrinkage=0.03


Tree=28
num_leaves=10
num_cat=0
split_feature=290 304 4 6 6 525 2 5 5
split_gain=1.11207 1.16932 0.946498 1.14722 0.265185 0.26053 0.548297 0.296443 2.45482e-06
threshold=1.0000000180025095e-35 1.0000000180025095e-35 0.27650000000000008 71.100000000000009 1.0000000180025095e-35 1.0000000180025095e-35 1.0000000180025095e-35 -23.949999999999996 -11.295
decision_type=2 2 8 10 10 2 8 10 10
left_child=2 4 3 8 -2 6 -4 -7 -1
right_child=1 -3 5 -5 -6 7 -8 -9 -10
leaf_value=0.0053143649601510596 0.015850708656013009 0.0056296024580951782 0.0028505486178760147 0.012930134446209957 0.011216058906912803 0.0009597882817444555 0.0086981844053500221 0.0054931892600974868 0.0053288705943019257
leaf_weight=21 20 30 31 31 25 34 27 21 21
leaf_count=21 20 30 31 31 25 34 27 21 21
internal_value=0 0.0102174 0.00589005 0.00855263 0.0132759 0.00416998 0.00557272 0.00269072 0.00532162
internal_weight=0 75 186 73 45 113 58 55 42
internal_count=261 75 186 73 45 113 58 55 42
is_linear=0
shrinkage=0.03


Tree=29
num_leaves=10
num_cat=0
split_feature=289 304 439 5 2 525 3 5 5
split_gain=1.94911 1.20775 2.00723 0.509604 0.504208 0.56199 0.257057 0.535732 0.251597
threshold=1.0000000180025095e-35 1.0000000180025095e-35 1.0000000180025095e-35 1.0000000180025095e-35 inf 1.0000000180025095e-35 195.40000000000003 -23.949999999999996 -1.0000000180025095e-35
decision_type=2 2 2 10 8 2 8 10 8
left_child=1 2 -1 4 6 -6 7 -2 -4
right_child=3 -3 8 -5 5 -7 -8 -9 -10
leaf_value=0.020333464342084797 -0.0013881955533109316 0.0056125704895159034 0.0067122250178363171 0.0090215399343934327 0.0091805947491031305 0.0035553982219989257 0.0053517664622631852 0.004897343552792849 0.011361363459039818
leaf_weight=22 26 29 20 27 33 31 24 23 22
leaf_count=22 26 29 20 27 33 31 24 23 22
internal_value=0 0.0106913 0.0129927 0.00525455 0.00451215 0.00645589 0.00280806 0.00156216 0.00914749
internal_weight=0 93 64 164 137 64 73 49 42
internal_count=257 93 64 164 137 64 73 49 42
is_linear=0
shrinkage=0.03


Tree=30
num_leaves=10
num_cat=0
split_feature=289 439 3 3 2 3 3 16 3
split_gain=1.34351 1.23253 0.787711 0.746369 0.560658 0.424692 0.229663 0.173559 0.146287
threshold=1.0000000180025095e-35 1.0000000180025095e-35 112.30000000000001 195.40000000000003 inf 84.170000000000016 112.30000000000001 1.0000000180025095e-35 153.50000000000003
decision_type=2 2 8 10 8 10 10 2 10
left_child=1 2 -1 5 -3 7 -7 -2 -8
right_child=3 4 -4 -5 -6 6 8 -9 -10
leaf_value=0.018196245472412557 0.0051247974605683018 0.0043941619514014504 0.010277034998513184 0.010221888827056521 0.010367819801187858 0.00062055036721920425 0.0058519245046549121 0.0083142929641430129 0.0025674040975939968
leaf_weight=20 34 31 26 27 26 22 26 28 23
leaf_count=20 34 31 26 27 26 22 26 28 23
internal_value=0 0.0100671 0.0137202 0.00567429 0.00711899 0.0047511 0.00316694 0.00656521 0.00431021
internal_weight=0 103 46 160 57 133 71 62 49
internal_count=263 103 46 160 57 133 71 62 49
is_linear=0
shrinkage=0.03


Tree=31
num_leaves=10
num_cat=0
split_feature=290 304 5 436 5 5 525 306 525
split_gain=1.01806 1.81311 0.489227 0.442906 0.42051 0.367299 0.367133 0.17833 0.156455
threshold=1.0000000180025095e-35 1.0000000180025095e-35 18.355000000000004 1.0000000180025095e-35 18.355000000000004 -1.0000000180025095e-35 1.0000000180025095e-35 1.0000000180025095e-35 1.0000000180025095e-35
decision_type=2 2 10 2 8 8 2 2 2
left_child=2 7 3 5 -5 6 -1 -2 -7
right_child=1 -3 -4 4 -6 8 -8 -9 -10
leaf_value=0.0037924061554738069 0.01593703676746892 0.0044893770340469572 0.010291252583265303 0.0054769348311755391 0.011216269845608622 0.00411374553096142 0.0082673821983520277 0.012151522568892686 0.0009674226365983487
leaf_weight=33 21 31 21 27 20 33 33 24 25
leaf_count=33 21 31 21 27 20 33 33 24 25
internal_value=0 0.0100722 0.00596995 0.00543927 0.00791921 0.00449929 0.00602989 0.0139181 0.00275757
internal_weight=0 76 192 171 47 124 66 45 58
internal_count=268 76 192 171 47 124 66 45 58
is_linear=0
shrinkage=0.03


Tree=32
num_leaves=8
num_cat=0
split_feature=448 4 304 0 16 4 2
split_gain=0.680686 0.87076 0.602957 1.03321 0.448916 0.187742 0.215406
threshold=1.0000000180025095e-35 1.0000000180025095e-35 1.0000000180025095e-35 1.0000000180025095e-35 1.0000000180025095e-35 0.21950000000000003 inf
decision_type=2 10 2 10 2 10 8
left_child=1 -1 3 5 -5 6 -2
right_child=2 -3 -4 4 -6 -7 -8
leaf_value=-0.00044519309214699796 0.00506219723002704 0.0063956776718524372 0.0027503437942571264 0.0082781422778964026 0.014227954292935984 0.0032380302396157511 0.0080693552817683676
leaf_weight=34 53 33 33 25 21 23 36
leaf_count=34 53 33 33 25 21 23 36
internal_value=0 0.00292419 0.00643859 0.00720891 0.0109944 0.00565418 0.00627858
internal_weight=0 67 191 158 46 112 89
internal_count=258 67 191 158 46 112 89
is_linear=0
shrinkage=0.03


Tree=33
num_leaves=9
num_cat=0
split_feature=5 306 525 1 5 6 3 5
split_gain=2.2456 0.901622 0.363597 0.47071 0.817491 0.377954 0.166697 0.0277384
threshold=1.0000000180025095e-35 1.0000000180025095e-35 1.0000000180025095e-35 inf -23.949999999999996 90.75500000000001 1.0000000180025095e-35 18.355000000000004
decision_type=10 2 2 8 10 8 10 10
left_child=1 2 5 -4 -5 -1 -7 -2
right_child=7 -3 3 4 -6 6 -8 -9
leaf_value=0.0050651513665562137 0.01281964447768405 0.010316929380808557 0.0019119715550914406 0.0087759577399929567 0.0018489692392556563 0.0031440101218010697 0.00018296132253784557 0.011258551155749176
leaf_weight=37 20 21 29 46 23 28 44 21
leaf_count=37 20 21 29 46 23 28 44 21
internal_value=0 0.00439393 0.00379305 0.00511906 0.00646696 0.00260085 0.00133448 0.0120201
internal_weight=0 228 207 98 69 109 72 41
internal_count=269 228 207 98 69 109 72 41
is_linear=0
shrinkage=0.03


Tree=34
num_leaves=8
num_cat=0
split_feature=3 7 436 290 2 3 4
split_gain=1.71637 1.01244 0.793715 0.472758 0.903053 0.249563 0.0470632
threshold=84.170000000000016 0.16050000000000003 1.0000000180025095e-35 1.0000000180025095e-35 1.0000000180025095e-35 112.30000000000001 0.27650000000000008
decision_type=8 10 2 2 8 10 8
left_child=6 2 3 4 -2 -4 -1
right_child=1 -3 5 -5 -6 -7 -8
leaf_value=0.011775528627913446 0.0054267212383759516 -0.001130512570463387 0.010737462008202619 0.0068046974311194693 -0.00029335825461084425 0.0062681351699258973 0.0097900035560385054
leaf_weight=21 54 28 22 36 46 23 22
leaf_count=21 54 28 22 36 46 23 22
internal_value=0 0.00417825 0.0049995 0.00385675 0.00279548 0.00845314 0.0107597
internal_weight=0 209 181 136 100 45 43
internal_count=252 209 181 136 100 45 43
is_linear=0
shrinkage=0.03


Tree=35
num_leaves=10
num_cat=0
split_feature=3 4 289 304 4 4 3 2 439
split_gain=1.89338 0.558988 0.542547 0.780285 0.750054 0.460915 0.591118 0.516522 0.122234
threshold=84.170000000000016 0.27650000000000008 1.0000000180025095e-35 1.0000000180025095e-35 0.21950000000000003 0.21950000000000003 195.40000000000003 1.0000000180025095e-35 1.0000000180025095e-35
decision_type=8 8 2 2 8 10 8 8 2
left_child=1 -1 3 4 -2 6 8 -8 -4
right_child=2 -3 5 -5 -6 -7 7 -9 -10
leaf_value=0.015695281159797951 0.013031410605001908 0.0089931437373161321 0.0023139195749536158 0.0031683537960634565 0.0060697291605174538 0.007466016296297312 0.0081485712830105719 0.0023253766718642926 -0.00065508365245477759
leaf_weight=21 26 24 26 28 30 30 29 26 24
leaf_count=21 26 24 26 28 30 30 29 26 24
internal_value=0 0.0121208 0.00536443 0.00725741 0.00930194 0.00418658 0.0032496 0.00539579 0.000888798
internal_weight=0 45 219 84 56 135 105 55 50
internal_count=264 45 219 84 56 135 105 55 50
is_linear=0
shrinkage=0.03


Tree=36
num_leaves=9
num_cat=0
split_feature=4 5 6 5 14 3 1 448
split_gain=1.2732 1.41083 1.09666 0.82397 0.812781 0.485657 0.332029 0.308965
threshold=0.27650000000000008 1.0000000180025095e-35 80.450000000000017 -11.295 1.0000000180025095e-35 112.30000000000001 inf 1.0000000180025095e-35
decision_type=8 10 8 10 2 10 8 2
left_child=2 4 -1 5 6 -4 -2 -8
right_child=1 -3 3 -5 -6 -7 7 -9
leaf_value=0.0037320173645045878 -0.0020810169714968649 0.010744693984410591 0.015987679185345768 0.0057949112978978789 0.0066354459179565305 0.0097156590342521668 -0.0011433529187925161 0.0032685383222065866
leaf_weight=38 24 21 20 26 30 25 20 50
leaf_count=38 24 21 20 26 30 25 20 50
internal_value=0 0.00355391 0.00784522 0.0100467 0.00233612 0.0125032 0.000963994 0.002008
internal_weight=0 145 109 71 124 45 94 70
internal_count=254 145 109 71 124 45 94 70
is_linear=0
shrinkage=0.03


Tree=37
num_leaves=9
num_cat=0
split_feature=448 51 304 3 1 7 3 14
split_gain=0.986512 0.548017 1.72928 0.347635 0.313945 0.61683 0.650902 0.0391477
threshold=1.0000000180025095e-35 1.0000000180025095e-35 1.0000000180025095e-35 112.30000000000001 98.500000000000014 1.0000000180025095e-35 84.170000000000016 1.0000000180025095e-35
decision_type=2 2 2 10 8 10 10 2
left_child=3 2 -2 -1 7 6 -6 -3
right_child=1 4 -4 -5 5 -7 -8 -9
leaf_value=0.00027715054721656166 0.013289356267432101 0.002606016191738573 0.0035969856716692446 0.0049155175107387971 0.011012491618611795 0.0025365170896053313 0.0052624888473970658 0.0044399035968817769
leaf_weight=33 37 22 30 26 34 25 37 20
leaf_count=33 37 22 30 26 34 25 37 20
internal_value=0 0.00672339 0.00894949 0.00232118 0.00564261 0.00658906 0.00801601 0.0034793
internal_weight=0 205 67 59 138 96 71 42
internal_count=264 205 67 59 138 96 71 42
is_linear=0
shrinkage=0.03


Tree=38
num_leaves=8
num_cat=0
split_feature=53 7 3 525 439 4 16
split_gain=1.68288 0.732274 0.377207 0.565998 0.69394 0.120872 0.104322
threshold=1.0000000180025095e-35 15.250000000000002 153.50000000000003 1.0000000180025095e-35 1.0000000180025095e-35 0.17050000000000004 1.0000000180025095e-35
decision_type=2 8 8 2 2 10 2
left_child=1 -1 3 4 -3 6 -4
right_child=-2 2 5 -5 -6 -7 -8
leaf_value=0.0080337230542388109 0.011441984484520027 0.0080032998594370755 0.0063600603207014496 -0.0008364212645877463 0.00046825546644289385 0.00307312703240783 0.004179542929274388
leaf_weight=39 34 22 40 36 22 31 39
leaf_count=39 34 22 40 36 22 31 39
internal_value=0 0.0042893 0.00352071 0.00195329 0.00423578 0.00466065 0.0052836
internal_weight=0 229 190 80 44 110 79
internal_count=263 229 190 80 44 110 79
is_linear=0
shrinkage=0.03


Tree=39
num_leaves=9
num_cat=0
split_feature=5 203 386 448 439 1 6 5
split_gain=1.8051 1.43213 0.313826 0.570638 0.68863 1.24614 0.072056 0.0619873
threshold=-11.295 1.0000000180025095e-35 1.0000000180025095e-35 1.0000000180025095e-35 1.0000000180025095e-35 21.500000000000004 59.865000000000002 -11.295
decision_type=10 2 2 2 2 8 10 8
left_child=2 -2 -1 7 -5 -6 -3 -4
right_child=1 6 3 4 5 -7 -8 -9
leaf_value=0.0017826563314619389 0.015697427233681081 0.005656638965820489 0.0035379350055312815 0.0038287932497072727 0.0037569375628266817 0.013546714263036845 0.0080872144510171235 0.0013998742214663741
leaf_weight=33 26 23 23 47 22 25 21 26
leaf_count=33 26 23 23 47 22 25 21 26
internal_value=0 0.0101152 0.00441972 0.00502827 0.00639653 0.00896427 0.00681669 0.00240345
internal_weight=0 70 176 143 94 47 44 49
internal_count=246 70 176 143 94 47 44 49
is_linear=0
shrinkage=0.03


Tree=40
num_leaves=9
num_cat=0
split_feature=53 304 4 14 439 6 3 1
split_gain=1.17453 1.53516 1.1579 0.841305 0.997563 0.196756 0.140765 0.406657
threshold=1.0000000180025095e-35 1.0000000180025095e-35 0.27650000000000008 1.0000000180025095e-35 1.0000000180025095e-35 80.450000000000017 112.30000000000001 1.0000000180025095e-35
decision_type=2 2 8 2 2 8 8 8
left_child=2 -2 3 4 -1 -4 -7 -8
right_child=1 -3 5 -5 -6 6 7 -9
leaf_value=0.0046050124758833339 0.015824272471480071 0.0040699400771409275 0.004858636563697543 0.001488642007112503 0.011692110151052475 2.9450418570866953e-05 0.0062630205411405761 0.0012910513342113087
leaf_weight=33 20 20 26 20 39 26 20 57
leaf_count=33 20 20 26 20 39 26 20 57
internal_value=0 0.00994711 0.0043605 0.00693185 0.00844386 0.00252667 0.00193802 0.00258247
internal_weight=0 40 221 92 72 129 103 77
internal_count=261 40 221 92 72 129 103 77
is_linear=0
shrinkage=0.03


Tree=41
num_leaves=10
num_cat=0
split_feature=289 304 439 6 18 439 2 6 6
split_gain=0.880937 1.13648 1.2933 1.29695 0.60574 0.474761 0.588086 0.267077 0.0270742
threshold=1.0000000180025095e-35 1.0000000180025095e-35 1.0000000180025095e-35 1.0000000180025095e-35 1.0000000180025095e-35 1.0000000180025095e-35 inf 90.75500000000001 1.0000000180025095e-35
decision_type=2 2 2 10 2 2 8 8 10
left_child=1 2 -1 -4 5 7 8 -2 -7
right_child=4 -3 3 -5 -6 6 -8 -9 -10
leaf_value=0.015256562036728219 -0.0021500473520295188 0.0022861849247816611 0.0010101729699156499 0.011094436782004776 0.00788350554310124 0.0029665910191833973 0.0074326313042146113 0.0020455188831935323 0.0015595376951387152
leaf_weight=21 22 33 22 24 22 20 29 36 32
leaf_count=21 22 33 22 24 22 20 29 36 32
internal_value=0 0.00684322 0.00908773 0.00627153 0.00325812 0.00252605 0.00400967 0.000454097 0.00210071
internal_weight=0 100 67 46 161 139 81 58 52
internal_count=261 100 67 46 161 139 81 58 52
is_linear=0
shrinkage=0.03


Tree=42
num_leaves=8
num_cat=0
split_feature=3 0 51 4 35 4 4
split_gain=0.946167 0.675427 1.11229 0.289642 0.265391 0.267701 0.107835
threshold=84.170000000000016 1.0000000180025095e-35 1.0000000180025095e-35 0.17050000000000004 1.0000000180025095e-35 0.17050000000000004 1.0000000180025095e-35
decision_type=8 10 2 10 2 10 10
left_child=6 2 -2 -3 -4 -6 -1
right_child=1 3 4 -5 5 -7 -8
leaf_value=0.0067645863589385277 0.0090817027290662124 -0.0011871778899380429 0.0062068738723173736 0.0033881088243797419 0.0014478844827906766 0.0049574060362970662 0.0096696231785513773
leaf_weight=23 36 33 20 20 71 27 23
leaf_count=23 36 33 20 20 71 27 23
internal_value=0 0.00346045 0.00446577 0.000539345 0.00305752 0.00241479 0.0082171
internal_weight=0 207 154 53 118 98 46
internal_count=253 207 154 53 118 98 46
is_linear=0
shrinkage=0.03


Tree=43
num_leaves=8
num_cat=0
split_feature=290 304 6 0 448 525 4
split_gain=1.04116 2.06436 0.503734 0.149623 0.063601 0.20806 0.011175
threshold=1.0000000180025095e-35 1.0000000180025095e-35 80.450000000000017 1.0000000180025095e-35 1.0000000180025095e-35 1.0000000180025095e-35 0.11600000000000001
decision_type=2 2 10 8 2 2 10
left_child=2 -2 3 4 -1 -6 -5
right_child=1 -3 -4 6 5 -7 -8
leaf_value=0.0019406885464559309 0.01199834580696188 0.0020217979970787252 0.0062777480115560258 0.00052623877342304452 0.0021245575411931463 0.0055326896373714719 0.0014340430887666744
leaf_weight=32 40 35 37 23 38 28 26
leaf_count=32 40 35 37 23 38 28 26
internal_value=0 0.00734262 0.003149 0.00236149 0.00303827 0.00357043 0.00100793
internal_weight=0 75 184 147 98 66 49
internal_count=259 75 184 147 98 66 49
is_linear=0
shrinkage=0.03


Tree=44
num_leaves=9
num_cat=0
split_feature=304 302 4 439 4 525 2 2
split_gain=0.794284 0.825452 0.480783 0.278573 0.197734 0.120501 0.641174 0.484012
threshold=1.0000000180025095e-35 1.0000000180025095e-35 0.27650000000000008 1.0000000180025095e-35 0.11600000000000001 1.0000000180025095e-35 1.0000000180025095e-35 1.0000000180025095e-35
decision_type=2 2 8 2 10 2 8 8
left_child=1 4 3 -3 -1 7 -7 -4
right_child=-2 2 5 -5 -6 6 -8 -9
leaf_value=0.010367177252940434 -0.00034402046416124162 0.0035723633853280371 0.00042625420762655824 0.0072875495722445728 0.0064184120714664457 0.0043306094594299793 -0.002658764806443027 0.0061610620241198278
leaf_weight=21 33 34 26 39 25 27 21 27
leaf_count=21 33 34 26 39 25 27 21 27
internal_value=0 0.00464713 0.00370229 0.00555719 0.00822111 0.00236162 0.00127276 0.00334776
internal_weight=0 220 174 73 46 101 48 53
internal_count=253 220 174 73 46 101 48 53
is_linear=0
shrinkage=0.03


Tree=45
num_leaves=9
num_cat=0
split_feature=290 304 3 3 4 3 436 0
split_gain=0.685063 1.41944 1.50951 0.433728 0.447912 0.144596 0.615412 0.0475082
threshold=1.0000000180025095e-35 1.0000000180025095e-35 112.30000000000001 195.40000000000003 0.21950000000000003 153.50000000000003 1.0000000180025095e-35 1.0000000180025095e-35
decision_type=2 2 10 10 10 8 2 8
left_child=3 2 -2 4 5 6 -1 -7
right_child=1 -3 -4 -5 -6 7 -8 -9
leaf_value=0.0033208445481517734 0.016623898294405082 0.0021557476551031631 0.0054643801343627271 0.0071503165859862095 0.0059739543664220135 0.0042913365926079711 -0.0024250270910561086 0.0024655747053253909
leaf_weight=51 20 31 24 28 38 29 25 23
leaf_count=51 20 31 24 28 38 29 25 23
internal_value=0 0.00707268 0.0105369 0.00369646 0.00311388 0.0022648 0.00143076 0.00348379
internal_weight=0 75 44 194 166 128 76 52
internal_count=269 75 44 194 166 128 76 52
is_linear=0
shrinkage=0.03


Tree=46
num_leaves=7
num_cat=0
split_feature=448 53 4 439 35 0
split_gain=0.85632 0.5595 0.728226 0.53758 0.450258 0.342035
threshold=1.0000000180025095e-35 1.0000000180025095e-35 0.11600000000000001 1.0000000180025095e-35 1.0000000180025095e-35 1.0000000180025095e-35
decision_type=2 2 8 2 2 8
left_child=3 2 -2 -1 -4 -6
right_child=1 -3 4 -5 5 -7
leaf_value=-0.0032614517854526637 0.0095793534591793999 0.0086582942660897982 0.0074354708960957146 0.0028729281737469134 0.0039582402784290021 0.0006888982296610872
leaf_weight=20 20 30 22 36 80 45
leaf_count=20 20 30 22 36 80 45
internal_value=0 0.00488617 0.00420855 0.000682078 0.00347782 0.00278128
internal_weight=0 197 167 56 147 125
internal_count=253 197 167 56 147 125
is_linear=0
shrinkage=0.03


Tree=47
num_leaves=9
num_cat=0
split_feature=448 439 290 439 7 4 436 445
split_gain=0.57514 0.96699 0.291536 0.617928 0.55929 0.591291 0.432574 0.145394
threshold=1.0000000180025095e-35 1.0000000180025095e-35 1.0000000180025095e-35 1.0000000180025095e-35 15.250000000000002 0.21950000000000003 1.0000000180025095e-35 1.0000000180025095e-35
decision_type=2 2 2 2 8 8 2 2
left_child=1 -1 4 -4 -2 -6 -7 -3
right_child=2 7 3 -5 5 6 -8 -9
leaf_value=-0.0039752643874713355 0.0079761886681713485 0.0021246491818138484 0.009100555515721101 0.0032497583849908549 -0.00050851893357255239 0.0024371087005628004 0.0072510034364781208 0.0055736864745532244
leaf_weight=21 23 22 33 32 33 42 28 22
leaf_count=21 23 22 33 32 33 42 28 22
internal_value=0 0.00132127 0.00458832 0.00622016 0.00374649 0.002802 0.00436267 0.00384917
internal_weight=0 65 191 65 126 103 70 44
internal_count=256 65 191 65 126 103 70 44
is_linear=0
shrinkage=0.03


Tree=48
num_leaves=9
num_cat=0
split_feature=5 4 4 6 525 290 5 1
split_gain=0.97782 0.49445 0.861801 1.00165 0.782415 0.768568 0.786534 0.161994
threshold=1.0000000180025095e-35 0.17050000000000004 0.27650000000000008 90.75500000000001 1.0000000180025095e-35 1.0000000180025095e-35 -1.0000000180025095e-35 inf
decision_type=10 10 10 8 2 2 8 8
left_child=1 4 3 -3 5 6 -1 -6
right_child=-2 2 -4 -5 7 -7 -8 -9
leaf_value=-0.0019617560609347289 0.0081021650450733979 0.0028481358736753459 0.00026395755420838079 0.012124483099380334 -0.0024394066149935776 0.0077137514732537734 0.0046324227159706558 0.00066743044690652329
leaf_weight=27 39 20 21 22 23 31 41 44
leaf_count=27 39 20 21 22 23 31 41 44
internal_value=0 0.00296329 0.0052261 0.00770717 0.00210451 0.00379887 0.00201415 -0.000399096
internal_weight=0 229 63 42 166 99 68 67
internal_count=268 229 63 42 166 99 68 67
is_linear=0
shrinkage=0.03


Tree=49
num_leaves=10
num_cat=0
split_feature=4 525 439 525 439 6 2 439 1
split_gain=0.904376 1.05997 1.04525 0.669575 1.60529 0.491579 0.362998 0.14119 0.000121346
threshold=0.27650000000000008 1.0000000180025095e-35 1.0000000180025095e-35 1.0000000180025095e-35 1.0000000180025095e-35 59.865000000000002 1.0000000180025095e-35 1.0000000180025095e-35 21.500000000000004
decision_type=8 2 2 2 2 10 8 2 8
left_child=3 2 -2 5 -5 -1 7 -3 -4
right_child=1 6 8 4 -6 -7 -8 -9 -10
leaf_value=0.0012590222544251726 0.008674325523181604 -0.00016455241944640875 0.0017635036256563451 0.0038508383151143787 0.014832923501001105 0.0068125675327610222 -0.0030288409708958603 0.0033181890523569153 0.0018667563570197671
leaf_weight=26 39 20 21 25 23 32 23 22 20
leaf_count=26 39 20 21 25 23 32 23 22 20
internal_value=0 0.0028463 0.00515834 0.00649212 0.00911309 0.00432305 7.0413e-07 0.00165974 0.00181387
internal_weight=0 145 80 106 48 58 65 42 41
internal_count=251 145 80 106 48 58 65 42 41
is_linear=0
shrinkage=0.03


Tree=50
num_leaves=8
num_cat=0
split_feature=5 2 5 1 525 6 5
split_gain=0.806107 0.616622 0.428971 0.417282 0.471199 0.328096 0.504639
threshold=1.0000000180025095e-35 inf -23.949999999999996 21.500000000000004 1.0000000180025095e-35 90.75500000000001 -23.949999999999996
decision_type=10 8 8 8 2 8 10
left_child=1 2 -1 -3 -5 -4 -7
right_child=-2 3 5 4 -6 6 -8
leaf_value=-0.002078160175078665 0.0075926897448261041 0.0017363003299882016 -2.6096620907386144e-05 0.0092510553384916143 0.0038138496765168384 0.0016074909517726842 0.0066561935614403668
leaf_weight=24 37 27 36 26 32 49 28
leaf_count=24 37 27 36 26 32 49 28
internal_value=0 0.0028098 0.00156442 0.00481707 0.00625122 0.00233806 0.00344338
internal_weight=0 222 137 85 58 113 77
internal_count=259 222 137 85 58 113 77
is_linear=0
shrinkage=0.03


Tree=51
num_leaves=7
num_cat=0
split_feature=3 4 290 6 4 6
split_gain=1.23788 0.460367 0.56392 0.399054 0.339206 0.292428
threshold=84.170000000000016 0.11600000000000001 1.0000000180025095e-35 71.100000000000009 0.17050000000000004 90.75500000000001
decision_type=8 8 2 8 10 8
left_child=-1 -2 3 -3 -5 -4
right_child=1 2 5 4 -6 -7
leaf_value=0.0081553137693554153 0.0066302749940327236 -0.0028685551831897881 0.00194904422994865 0.00064562339672883003 0.0042579917472903616 0.0063838351000595137
leaf_weight=40 21 21 23 87 32 32
leaf_count=40 21 21 23 87 32 32
internal_value=0 0.00240987 0.00195536 0.000944181 0.00161702 0.00452929
internal_weight=0 216 195 140 119 55
internal_count=256 216 195 140 119 55
is_linear=0
shrinkage=0.03


Tree=52
num_leaves=8
num_cat=0
split_feature=3 436 7 436 3 203 0
split_gain=0.690822 1.34962 0.466296 0.420617 0.660121 0.502169 0.219551
threshold=84.170000000000016 1.0000000180025095e-35 3.6500000000000008 1.0000000180025095e-35 195.40000000000003 1.0000000180025095e-35 1.0000000180025095e-35
decision_type=8 2 10 2 10 2 10
left_child=1 -1 3 4 6 -5 -2
right_child=2 -3 -4 5 -6 -7 -8
leaf_value=0.010699264267459511 0.0011741711906922447 0.00041226961897336875 -0.0026307286033406853 0.0080695862070258167 0.005402754080192796 0.0020992401248076929 -0.0016830948208157411
leaf_weight=24 84 22 20 21 29 32 34
leaf_count=24 84 22 20 21 29 32 34
internal_value=0 0.0057794 0.00173685 0.00217361 0.00134752 0.00446485 0.000350891
internal_weight=0 46 220 200 147 53 118
internal_count=266 46 220 200 147 53 118
is_linear=0
shrinkage=0.03


Tree=53
num_leaves=10
num_cat=0
split_feature=5 1 525 4 4 3 51 3 439
split_gain=0.531428 0.409381 0.423385 0.911084 0.333186 0.298376 0.0971553 0.152365 0.070643
threshold=1.0000000180025095e-35 21.500000000000004 1.0000000180025095e-35 0.27650000000000008 0.21950000000000003 195.40000000000003 1.0000000180025095e-35 195.40000000000003 1.0000000180025095e-35
decision_type=10 8 2 8 8 8 2 8 2
left_child=1 6 4 -4 -3 -5 -1 -8 -6
right_child=-2 2 3 5 8 -7 7 -9 -10
leaf_value=0.0016247530225664375 0.0057558381025955892 -0.0013807012766806615 0.0084859409835189564 -0.0010163223305717111 0.0017424734604860384 0.0041036869266203469 0.00085907753091305492 -0.0027996567897498603 0.0039104313222924243
leaf_weight=20 40 27 30 20 31 21 21 20 24
leaf_count=20 40 27 30 20 31 21 21 20 24
internal_value=0 0.0019886 0.00281711 0.00451309 0.00134864 0.00160612 -8.94663e-05 -0.000925671 0.00268849
internal_weight=0 214 153 71 82 41 61 41 55
internal_count=254 214 153 71 82 41 61 41 55
is_linear=0
shrinkage=0.03


Tree=54
num_leaves=8
num_cat=0
split_feature=304 290 3 4 4 436 53
split_gain=0.558925 1.10255 0.859409 0.557709 0.608938 0.478972 0.158903
threshold=1.0000000180025095e-35 1.0000000180025095e-35 112.30000000000001 0.27650000000000008 0.17050000000000004 1.0000000180025095e-35 1.0000000180025095e-35
decision_type=2 2 10 10 8 2 2
left_child=1 3 -3 4 -1 -6 -2
right_child=6 2 -4 -5 5 -7 -8
leaf_value=-0.00064644778197681574 -0.0025029936153441665 0.011803530891026769 0.0034094329558960767 -0.0023513840996152295 0.0026517453484306546 0.0069010959804290907 0.0010846423964831046
leaf_weight=37 20 21 23 22 94 32 25
leaf_count=37 20 21 23 22 94 32 25
internal_value=0 0.00314734 0.00741571 0.00213216 0.0027373 0.00373095 -0.000509862
internal_weight=0 229 44 185 163 126 45
internal_count=274 229 44 185 163 126 45
is_linear=0
shrinkage=0.03


Tree=55
num_leaves=7
num_cat=0
split_feature=53 6 35 7 16 0
split_gain=0.670672 0.705209 0.771868 0.808049 0.600348 0.489914
threshold=1.0000000180025095e-35 80.450000000000017 1.0000000180025095e-35 1.0000000180025095e-35 1.0000000180025095e-35 1.0000000180025095e-35
decision_type=2 10 2 10 2 8
left_child=1 2 -1 5 -3 -4
right_child=-2 4 3 -5 -6 -7
leaf_value=0.0077718933169608519 0.0077360980693054818 0.0031039140666169777 0.0041859952855859243 -0.0029480603405346089 0.010049579446204005 0.0004828050927094677
leaf_weight=23 38 21 87 26 24 51
leaf_count=23 38 21 87 26 24 51
internal_value=0 0.00343655 0.00262518 0.00190338 0.00680827 0.00281742
internal_weight=0 232 187 164 45 138
internal_count=270 232 187 164 45 138
is_linear=0
shrinkage=0.03


Tree=56
num_leaves=8
num_cat=0
split_feature=3 436 3 304 3 4 3
split_gain=0.943768 0.650474 1.30253 1.18346 1.00741 0.410897 0.0990939
threshold=84.170000000000016 1.0000000180025095e-35 195.40000000000003 1.0000000180025095e-35 112.30000000000001 0.21950000000000003 153.50000000000003
decision_type=8 2 10 2 10 10 8
left_child=-1 2 5 4 -3 6 -2
right_child=1 3 -4 -5 -6 -7 -8
leaf_value=0.0072821930620970352 -0.002338467127329475 0.012198809768472398 0.0066247930425790049 -0.0013343556993640959 0.0030125764452598311 0.0024553156573234149 -0.00037435153517872093
leaf_weight=37 43 21 31 20 22 37 50
leaf_count=37 43 21 31 20 22 37 50
internal_value=0 0.0021103 0.00109903 0.00469468 0.00749888 -0.000218654 -0.00128249
internal_weight=0 224 161 63 43 130 93
internal_count=261 224 161 63 43 130 93
is_linear=0
shrinkage=0.03


Tree=57
num_leaves=10
num_cat=0
split_feature=4 525 439 7 6 3 439 16 4
split_gain=1.04557 0.858935 1.16505 0.583968 0.298633 0.544568 0.167025 0.250375 0.160706
threshold=0.27650000000000008 1.0000000180025095e-35 1.0000000180025095e-35 0.058350000000000006 80.450000000000017 153.50000000000003 1.0000000180025095e-35 1.0000000180025095e-35 0.17050000000000004
decision_type=8 2 2 10 8 8 2 2 10
left_child=1 3 -3 8 -2 -6 -7 -8 -1
right_child=4 2 -4 -5 5 6 7 -9 -10
leaf_value=-0.00043383187614381313 0.0041234607802304833 0.0040962409633877022 0.013006324468553066 0.0073017702783857068 -0.0018715171931980876 0.0040161305269472954 -0.0012416990110650659 0.003396137063814835 0.0031597582955977745
leaf_weight=24 35 28 25 21 40 34 20 22 21
leaf_count=24 35 28 25 21 40 34 20 22 21
internal_value=0 0.0054549 0.00829911 0.00317091 0.00169464 0.0009618 0.00245302 0.00118764 0.00124318
internal_weight=0 119 53 66 151 116 76 42 45
internal_count=270 119 53 66 151 116 76 42 45
is_linear=0
shrinkage=0.03


Tree=58
num_leaves=10
num_cat=0
split_feature=7 5 4 4 4 0 525 5 525
split_gain=1.05167 0.489612 0.520921 0.41338 0.231328 0.146242 0.131749 0.0671979 0.0381104
threshold=1.0000000180025095e-35 -11.295 0.27650000000000008 0.11600000000000001 0.17050000000000004 1.0000000180025095e-35 1.0000000180025095e-35 1.0000000180025095e-35 1.0000000180025095e-35
decision_type=10 10 8 10 10 10 2 10 2
left_child=1 2 4 -3 -1 8 -2 -5 -4
right_child=6 3 5 7 -6 -7 -8 -9 -10
leaf_value=0.002061087293550372 -0.00094070986619797247 0.0074477398424441441 0.0017294959927147083 0.0039730917185079309 0.0063725668936967846 -0.0014514281175797804 -0.0041057504564523698 0.0015138621199876068 0.00039220904609571923
leaf_weight=21 29 29 44 20 24 26 20 20 34
leaf_count=21 29 29 44 20 24 26 20 20 34
internal_value=0 0.00263139 0.00166389 0.00472063 0.00436054 0.000497075 -0.00223256 0.00274348 0.00114658
internal_weight=0 218 149 69 45 104 49 40 78
internal_count=267 218 149 69 45 104 49 40 78
is_linear=0
shrinkage=0.03


Tree=59
num_leaves=10
num_cat=0
split_feature=3 0 1 525 439 439 439 3 3
split_gain=0.813141 0.587917 0.235747 0.217005 0.365614 0.364749 0.159056 0.134398 0.0409985
threshold=84.170000000000016 1.0000000180025095e-35 98.500000000000014 1.0000000180025095e-35 1.0000000180025095e-35 1.0000000180025095e-35 1.0000000180025095e-35 195.40000000000003 153.50000000000003
decision_type=8 8 8 2 2 2 2 8 10
left_child=6 3 -3 4 -2 -5 -1 -4 -6
right_child=1 2 7 5 8 -7 -8 -9 -10
leaf_value=0.0053614168106154965 0.0075598972888630146 0.0028201075949306998 -0.0027648700933371271 0.00029390683058987967 0.0023543886491097506 0.0049055763449648336 0.0089688625353102729 0.00067137624789029358 0.0041473348235542126
leaf_weight=22 28 21 21 33 24 29 22 20 22
leaf_count=22 28 21 21 33 24 29 22 20 22
internal_value=0 0.00265642 0.000235282 0.00376018 0.00485708 0.00245098 0.00716514 -0.00108865 0.00321188
internal_weight=0 198 62 136 74 62 44 41 46
internal_count=242 198 62 136 74 62 44 41 46
is_linear=0
shrinkage=0.03


Tree=60
num_leaves=9
num_cat=0
split_feature=4 3 6 0 525 16 289 448
split_gain=1.12591 1.16329 0.717999 0.942727 0.41423 0.515183 0.323503 0.123065
threshold=0.27650000000000008 84.170000000000016 80.450000000000017 1.0000000180025095e-35 1.0000000180025095e-35 1.0000000180025095e-35 1.0000000180025095e-35 1.0000000180025095e-35
decision_type=8 10 8 10 2 2 2 2
left_child=1 -1 -3 -4 5 -2 -7 -6
right_child=4 2 3 -5 7 6 -8 -9
leaf_value=0.011630252586677669 0.0050088677533265003 0.00073516480200591368 0.0090052470953806349 0.0007968829502351582 0.00075925822754820376 0.0028208485937544275 -0.0024449667414384226 -0.0019655263807092393
leaf_weight=20 38 42 34 20 26 21 21 35
leaf_count=20 38 42 34 20 26 21 21 35
internal_value=0 0.00504826 0.00367701 0.00596511 0.001058 0.00247788 0.000187941 -0.000804143
internal_weight=0 116 96 54 141 80 42 61
internal_count=257 116 96 54 141 80 42 61
is_linear=0
shrinkage=0.03


Tree=61
num_leaves=8
num_cat=0
split_feature=1 7 448 2 304 445 439
split_gain=0.634512 0.472626 0.521229 0.578236 0.794595 0.250943 0.139782
threshold=2.6000000000000005 0.16050000000000003 1.0000000180025095e-35 inf 1.0000000180025095e-35 1.0000000180025095e-35 1.0000000180025095e-35
decision_type=10 8 2 8 2 2 2
left_child=1 -1 5 4 -4 -3 -5
right_child=-2 2 3 6 -6 -7 -8
leaf_value=-0.00025594596143649968 -0.0010417946593628989 -0.000596158797852695 0.0053052149394560337 0.0060957026282059297 -0.00088435899466276157 0.003657881004664187 0.0093864828914117359
leaf_weight=23 27 24 84 21 24 26 26
leaf_count=23 27 24 84 21 24 26 26
internal_value=0 0.00382185 0.00427936 0.00513853 0.00392975 0.00161594 0.00791613
internal_weight=0 228 205 155 108 50 47
internal_count=255 228 205 155 108 50 47
is_linear=0
shrinkage=0.03


Tree=62
num_leaves=9
num_cat=0
split_feature=5 4 6 4 3 2 2 5
split_gain=0.865439 0.777792 0.325836 0.510588 0.271751 0.303407 0.238193 0.0580173
threshold=1.0000000180025095e-35 0.27650000000000008 80.450000000000017 0.17050000000000004 84.170000000000016 inf inf 18.355000000000004
decision_type=10 8 8 10 10 8 8 10
left_child=1 2 -1 -4 5 -3 -6 -2
right_child=7 4 3 -5 6 -7 -8 -9
leaf_value=0.00089148724658621678 0.0051739754880379355 0.0032528889557080611 0.002273425457670408 0.0075968732240219265 -0.0029593945605059461 -0.0011265725316479801 0.00076815162164469558 0.0074039776889341215
leaf_weight=27 21 35 34 31 36 24 27 21
leaf_count=27 21 35 34 31 36 24 27 21
internal_value=0 0.0015789 0.00366163 0.0048123 8.32182e-06 0.00147141 -0.00136187 0.00628898
internal_weight=0 214 92 65 122 59 63 42
internal_count=256 214 92 65 122 59 63 42
is_linear=0
shrinkage=0.03


Tree=63
num_leaves=9
num_cat=0
split_feature=306 439 16 6 3 3 3 3
split_gain=0.437307 0.474624 0.805024 0.696591 0.670495 0.418972 0.317997 0.300141
threshold=1.0000000180025095e-35 1.0000000180025095e-35 1.0000000180025095e-35 90.75500000000001 153.50000000000003 153.50000000000003 195.40000000000003 153.50000000000003
decision_type=2 2 2 8 8 8 8 10
left_child=1 2 5 7 -4 -1 -5 -3
right_child=-2 3 4 6 -6 -7 -8 -9
leaf_value=0.0064513812227440731 0.0061509922490751538 0.0081478316982975217 -0.0048597647410563447 -0.00072303060728770032 0.0012845198482635521 0.00059045309119898338 0.003108000406064093 0.0034954380743707028
leaf_weight=21 22 24 33 39 31 23 39 26
leaf_count=21 22 24 33 39 31 23 39 26
internal_value=0 0.0017286 0.000263957 0.0029644 -0.00188363 0.00338771 0.00119248 0.00572859
internal_weight=0 236 108 128 64 44 78 50
internal_count=258 236 108 128 64 44 78 50
is_linear=0
shrinkage=0.03


Tree=64
num_leaves=8
num_cat=0
split_feature=290 439 448 2 2 16 0
split_gain=0.720029 0.879699 0.259916 0.372336 0.308966 0.184365 0.120099
threshold=1.0000000180025095e-35 1.0000000180025095e-35 1.0000000180025095e-35 1.0000000180025095e-35 1.0000000180025095e-35 1.0000000180025095e-35 1.0000000180025095e-35
decision_type=2 2 2 8 8 2 10
left_child=2 -2 3 -1 6 -6 -4
right_child=1 -3 4 -5 5 -7 -8
leaf_value=0.0017044491553679108 0.0084229826378906438 0.0012760028864948019 -0.00044603033684367354 -0.0030326254921965298 0.0020516107970958248 0.0054453394711017605 0.0020271597534883765
leaf_weight=32 31 31 43 28 34 25 30
leaf_count=32 31 31 43 28 34 25 30
internal_value=0 0.00484949 0.001131 -0.000506186 0.00187518 0.00348963 0.000570349
internal_weight=0 62 192 60 132 59 73
internal_count=254 62 192 60 132 59 73
is_linear=0
shrinkage=0.03


Tree=65
num_leaves=6
num_cat=0
split_feature=4 53 5 445 1
split_gain=0.729541 0.966633 0.44309 0.351494 0.534064
threshold=0.11600000000000001 1.0000000180025095e-35 1.0000000180025095e-35 1.0000000180025095e-35 5.5000000000000009
decision_type=8 2 10 2 8
left_child=-1 2 3 4 -2
right_child=1 -3 -4 -5 -6
leaf_value=0.0063680364088765503 -0.002615958745213779 0.006260472968701393 0.0038775823371590026 -0.0034704935522345097 0.0015366719476466552
leaf_weight=29 37 31 31 23 113
leaf_count=29 37 31 31 23 113
internal_value=0 0.00132473 0.000574692 -1.71555e-05 0.000512356
internal_weight=0 235 204 173 150
internal_count=264 235 204 173 150
is_linear=0
shrinkage=0.03


Tree=66
num_leaves=11
num_cat=0
split_feature=4 14 5 6 436 16 6 3 525 6
split_gain=0.694699 0.643886 0.802969 0.503313 0.525336 0.457721 0.27998 0.206559 0.101345 0.0934807
threshold=0.27650000000000008 1.0000000180025095e-35 -1.0000000180025095e-35 71.100000000000009 1.0000000180025095e-35 1.0000000180025095e-35 71.100000000000009 112.30000000000001 1.0000000180025095e-35 71.100000000000009
decision_type=8 2 8 8 2 2 8 10 2 10
left_child=1 2 6 -2 7 -6 -1 8 -5 -8
right_child=3 -3 -4 4 5 -7 9 -9 -10 -11
leaf_value=0.0009154390236362814 0.0055390415070578451 0.00021578378755495779 0.010621678068169525 -0.00078464526101015505 0.0062874040493209448 0.00016143835048474693 0.0039074827548440383 0.00081449700546051764 -0.0034880751425113814 0.0067118674283847208
leaf_weight=20 20 27 21 24 21 23 23 35 26 20
leaf_count=20 20 27 21 24 21 23 23 35 26 20
internal_value=0 0.00424594 0.00554135 0.00111084 0.000424299 0.00308519 0.00384791 -0.000953106 -0.00219043 0.00521185
internal_weight=0 111 84 149 129 44 63 85 50 43
internal_count=260 111 84 149 129 44 63 85 50 43
is_linear=0
shrinkage=0.03


Tree=67
num_leaves=10
num_cat=0
split_feature=4 6 290 1 3 18 436 3 5
split_gain=1.13758 0.796638 0.561246 0.19316 0.401436 0.374644 0.211883 0.615691 0.184597
threshold=0.21950000000000003 80.450000000000017 1.0000000180025095e-35 2.6000000000000005 112.30000000000001 1.0000000180025095e-35 1.0000000180025095e-35 112.30000000000001 -23.949999999999996
decision_type=8 10 2 8 10 2 2 10 10
left_child=1 2 -1 4 -2 6 8 -8 -5
right_child=3 -3 -4 5 -6 -7 7 -9 -10
leaf_value=0.00033843488647387578 -0.0011044595443776676 0.0090343145645506995 0.0064216250979474612 -0.0010183543281164021 0.0047614436942551817 0.0030046393661557333 0.0041351902325238504 -0.0032195924017578361 -0.0041190675265776614
leaf_weight=39 21 23 21 48 21 23 21 20 27
leaf_count=39 21 23 21 48 21 23 21 20 27
internal_value=0 0.00428726 0.00246755 4.5606e-05 0.00182849 -0.000493108 -0.00118663 0.000547491 -0.00213461
internal_weight=0 83 60 181 42 139 116 41 75
internal_count=264 83 60 181 42 139 116 41 75
is_linear=0
shrinkage=0.03


Tree=68
num_leaves=7
num_cat=0
split_feature=5 448 53 35 16 3
split_gain=1.06402 0.618277 0.457739 0.498016 0.42058 0.218559
threshold=1.0000000180025095e-35 1.0000000180025095e-35 1.0000000180025095e-35 1.0000000180025095e-35 1.0000000180025095e-35 84.170000000000016
decision_type=10 2 2 2 2 8
left_child=1 4 3 -3 -1 -5
right_child=-2 2 -4 5 -6 -7
leaf_value=0.000275442239900048 0.0059355456941442468 0.0047201029429941067 0.0048758466009582793 -0.002728805743238848 -0.0051742739327251914 0.00052715584744873929
leaf_weight=26 38 23 28 23 25 96
leaf_count=26 38 23 28 23 25 96
internal_value=0 0.000501064 0.00137018 0.000678921 -0.00239599 -0.000102148
internal_weight=0 221 170 142 51 119
internal_count=259 221 170 142 51 119
is_linear=0
shrinkage=0.03


Tree=69
num_leaves=11
num_cat=0
split_feature=289 439 16 304 51 445 525 4 6 525
split_gain=0.897529 1.51138 1.10589 1.09981 0.614092 0.345174 0.385464 0.224729 0.123453 0.0266525
threshold=1.0000000180025095e-35 1.0000000180025095e-35 1.0000000180025095e-35 1.0000000180025095e-35 1.0000000180025095e-35 1.0000000180025095e-35 1.0000000180025095e-35 0.27650000000000008 90.75500000000001 1.0000000180025095e-35
decision_type=2 2 2 2 2 2 2 8 8 2
left_child=3 2 -2 4 8 6 7 -3 -1 -4
right_child=1 5 9 -5 -6 -7 -8 -9 -10 -11
leaf_value=0.0071707847162282888 0.0019255086614025961 -0.0015246884516723778 -0.0066400478993143353 -5.8449923115618087e-05 0.0023652687147259709 0.0065308342900659349 0.0054710631857493091 0.0027164409109602934 0.010464145900681614 -0.0051098162607522684
leaf_weight=21 27 23 21 34 20 21 21 22 20 20
leaf_count=21 27 23 21 34 20 21 21 22 20 20
internal_value=0 0.000561839 -0.00278895 0.00426513 0.006675 0.00318085 0.00211494 0.000548753 0.0087773 -0.00589359
internal_weight=0 155 68 95 61 87 66 45 41 41
internal_count=250 155 68 95 61 87 66 45 41 41
is_linear=0
shrinkage=0.03


Tree=70
num_leaves=7
num_cat=0
split_feature=3 436 5 5 386 525
split_gain=0.738595 0.602571 0.802154 0.395873 0.210725 0.28014
threshold=84.170000000000016 1.0000000180025095e-35 -1.0000000180025095e-35 1.0000000180025095e-35 1.0000000180025095e-35 1.0000000180025095e-35
decision_type=8 2 8 10 2 2
left_child=-1 3 -3 4 -2 -6
right_child=1 2 -4 -5 5 -7
leaf_value=0.0053015048160719187 -0.0035376317043910206 0.00027427487165456821 0.0075796929909847672 0.0031277601764752314 0.001280037924334465 -0.0019611405758769248
leaf_weight=39 23 31 24 26 48 48
leaf_count=39 23 31 24 26 48 48
internal_value=0 0.000788392 0.00346209 -0.00022577 -0.000958474 -0.000340551
internal_weight=0 200 55 145 119 96
internal_count=239 200 55 145 119 96
is_linear=0
shrinkage=0.03


end of trees

feature_importances:
feature3=81
feature4=65
feature5=49
feature6=45
feature439=42
feature2=30
feature304=28
feature525=26
feature16=20
feature290=20
feature1=18
feature289=18
feature436=17
feature448=17
feature0=14
feature7=14
feature53=13
feature51=7
feature35=6
feature14=5
feature18=5
feature445=4
feature306=3
feature386=3
feature203=2
feature302=2

parameters:
[boosting: gbdt]
[objective: regression]
[metric: rmse]
[tree_learner: serial]
[device_type: cpu]
[data: ]
[valid: ]
[num_iterations: 2000]
[learning_rate: 0.03]
[num_leaves: 12]
[num_threads: 12]
[deterministic: 0]
[force_col_wise: 0]
[force_row_wise: 0]
[histogram_pool_size: -1]
[max_depth: 5]
[min_data_in_leaf: 20]
[min_sum_hessian_in_leaf: 0.001]
[bagging_fraction: 0.7]
[pos_bagging_fraction: 1]
[neg_bagging_fraction: 1]
[bagging_freq: 1]
[bagging_seed: 400]
[feature_fraction: 0.7]
[feature_fraction_bynode: 1]
[feature_fraction_seed: 30056]
[extra_trees: 0]
[extra_seed: 12879]
[early_stopping_round: 300]
[first_metric_only: 0]
[max_delta_step: 0]
[lambda_l1: 0]
[lambda_l2: 0]
[linear_lambda: 0]
[min_gain_to_split: 0]
[drop_rate: 0.1]
[max_drop: 50]
[skip_drop: 0.5]
[xgboost_dart_mode: 0]
[uniform_drop: 0]
[drop_seed: 17869]
[top_rate: 0.2]
[other_rate: 0.1]
[min_data_per_group: 100]
[max_cat_threshold: 32]
[cat_l2: 10]
[cat_smooth: 10]
[max_cat_to_onehot: 4]
[top_k: 20]
[monotone_constraints: ]
[monotone_constraints_method: basic]
[monotone_penalty: 0]
[feature_contri: ]
[forcedsplits_filename: ]
[refit_decay_rate: 0.9]
[cegb_tradeoff: 1]
[cegb_penalty_split: 0]
[cegb_penalty_feature_lazy: ]
[cegb_penalty_feature_coupled: ]
[path_smooth: 0]
[interaction_constraints: ]
[verbosity: -1]
[saved_feature_importance_type: 0]
[linear_tree: 0]
[max_bin: 7]
[max_bin_by_feature: ]
[min_data_in_bin: 3]
[bin_construct_sample_cnt: 200000]
[data_random_seed: 175]
[is_enable_sparse: 1]
[enable_bundle: 1]
[use_missing: 1]
[zero_as_missing: 0]
[feature_pre_filter: 1]
[pre_partition: 0]
[two_round: 0]
[header: 0]
[label_column: ]
[weight_column: ]
[group_column: ]
[ignore_column: ]
[categorical_feature: ]
[forcedbins_filename: ]
[precise_float_parser: 0]
[objective_seed: 16083]
[num_class: 1]
[is_unbalance: 0]
[scale_pos_weight: 1]
[sigmoid: 1]
[boost_from_average: 0]
[reg_sqrt: 0]
[alpha: 0.9]
[fair_c: 1]
[poisson_max_delta_step: 0.7]
[tweedie_variance_power: 1.5]
[lambdarank_truncation_level: 30]
[lambdarank_norm: 1]
[label_gain: ]
[eval_at: ]
[multi_error_top_k: 1]
[auc_mu_weights: ]
[num_machines: 1]
[local_listen_port: 12400]
[time_out: 120]
[machine_list_filename: ]
[machines: ]
[gpu_platform_id: -1]
[gpu_device_id: -1]
[gpu_use_dp: 0]
[num_gpu: 1]

end of parameters

pandas_categorical:[]
