tree
version=v3
num_class=1
num_tree_per_iteration=1
label_index=0
max_feature_idx=525
objective=regression
feature_names=feature0 feature1 feature2 feature3 feature4 feature5 feature6 feature7 feature8 feature9 feature10 feature11 feature12 feature13 feature14 feature15 feature16 feature17 feature18 feature19 feature20 feature21 feature22 feature23 feature24 feature25 feature26 feature27 feature28 feature29 feature30 feature31 feature32 feature33 feature34 feature35 feature36 feature37 feature38 feature39 feature40 feature41 feature42 feature43 feature44 feature45 feature46 feature47 feature48 feature49 feature50 feature51 feature52 feature53 feature54 feature55 feature56 feature57 feature58 feature59 feature60 feature61 feature62 feature63 feature64 feature65 feature66 feature67 feature68 feature69 feature70 feature71 feature72 feature73 feature74 feature75 feature76 feature77 feature78 feature79 feature80 feature81 feature82 feature83 feature84 feature85 feature86 feature87 feature88 feature89 feature90 feature91 feature92 feature93 feature94 feature95 feature96 feature97 feature98 feature99 feature100 feature101 feature102 feature103 feature104 feature105 feature106 feature107 feature108 feature109 feature110 feature111 feature112 feature113 feature114 feature115 feature116 feature117 feature118 feature119 feature120 feature121 feature122 feature123 feature124 feature125 feature126 feature127 feature128 feature129 feature130 feature131 feature132 feature133 feature134 feature135 feature136 feature137 feature138 feature139 feature140 feature141 feature142 feature143 feature144 feature145 feature146 feature147 feature148 feature149 feature150 feature151 feature152 feature153 feature154 feature155 feature156 feature157 feature158 feature159 feature160 feature161 feature162 feature163 feature164 feature165 feature166 feature167 feature168 feature169 feature170 feature171 feature172 feature173 feature174 feature175 feature176 feature177 feature178 feature179 feature180 feature181 feature182 feature183 feature184 feature185 feature186 feature187 feature188 feature189 feature190 feature191 feature192 feature193 feature194 feature195 feature196 feature197 feature198 feature199 feature200 feature201 feature202 feature203 feature204 feature205 feature206 feature207 feature208 feature209 feature210 feature211 feature212 feature213 feature214 feature215 feature216 feature217 feature218 feature219 feature220 feature221 feature222 feature223 feature224 feature225 feature226 feature227 feature228 feature229 feature230 feature231 feature232 feature233 feature234 feature235 feature236 feature237 feature238 feature239 feature240 feature241 feature242 feature243 feature244 feature245 feature246 feature247 feature248 feature249 feature250 feature251 feature252 feature253 feature254 feature255 feature256 feature257 feature258 feature259 feature260 feature261 feature262 feature263 feature264 feature265 feature266 feature267 feature268 feature269 feature270 feature271 feature272 feature273 feature274 feature275 feature276 feature277 feature278 feature279 feature280 feature281 feature282 feature283 feature284 feature285 feature286 feature287 feature288 feature289 feature290 feature291 feature292 feature293 feature294 feature295 feature296 feature297 feature298 feature299 feature300 feature301 feature302 feature303 feature304 feature305 feature306 feature307 feature308 feature309 feature310 feature311 feature312 feature313 feature314 feature315 feature316 feature317 feature318 feature319 feature320 feature321 feature322 feature323 feature324 feature325 feature326 feature327 feature328 feature329 feature330 feature331 feature332 feature333 feature334 feature335 feature336 feature337 feature338 feature339 feature340 feature341 feature342 feature343 feature344 feature345 feature346 feature347 feature348 feature349 feature350 feature351 feature352 feature353 feature354 feature355 feature356 feature357 feature358 feature359 feature360 feature361 feature362 feature363 feature364 feature365 feature366 feature367 feature368 feature369 feature370 feature371 feature372 feature373 feature374 feature375 feature376 feature377 feature378 feature379 feature380 feature381 feature382 feature383 feature384 feature385 feature386 feature387 feature388 feature389 feature390 feature391 feature392 feature393 feature394 feature395 feature396 feature397 feature398 feature399 feature400 feature401 feature402 feature403 feature404 feature405 feature406 feature407 feature408 feature409 feature410 feature411 feature412 feature413 feature414 feature415 feature416 feature417 feature418 feature419 feature420 feature421 feature422 feature423 feature424 feature425 feature426 feature427 feature428 feature429 feature430 feature431 feature432 feature433 feature434 feature435 feature436 feature437 feature438 feature439 feature440 feature441 feature442 feature443 feature444 feature445 feature446 feature447 feature448 feature449 feature450 feature451 feature452 feature453 feature454 feature455 feature456 feature457 feature458 feature459 feature460 feature461 feature462 feature463 feature464 feature465 feature466 feature467 feature468 feature469 feature470 feature471 feature472 feature473 feature474 feature475 feature476 feature477 feature478 feature479 feature480 feature481 feature482 feature483 feature484 feature485 feature486 feature487 feature488 feature489 feature490 feature491 feature492 feature493 feature494 feature495 feature496 feature497 feature498 feature499 feature500 feature501 feature502 feature503 feature504 feature505 feature506 feature507 feature508 feature509 feature510 feature511 feature512 feature513 feature514 feature515 feature516 feature517 feature518 feature519 feature520 feature521 feature522 feature523 feature524 feature525
feature_infos=[0:1] [0:100] [0:1] [4.7300000000000004:3170] [0.012999999999999999:21.920000000000002] [-64.299999999999997:48.450000000000003] [0.46600000000000003:99.799999999999997] [0.0275:78.299999999999997] [0:46] none none none none none [0:1] none [0:1] none [0:1] none none none none none none none none none none none none none none none none [0:1] none none none none none none [0:1] none none none none none none none none [0:1] none [0:1] none none none none none none none none none none none none none none none none none none none none none none none none none none none none none none none none none none none none none none none none none none none none none none none none none none none none none none none none none none none none none none none none none none none none none none none none none none none none none none none none none none none none none none none none none none none none none none none none none none none none none none none none none none none none none none none none none none none none none none none none none none none none none none none none none none none none none none none none none none none none none none none none none none none none none [0:1] none none none none none none none none none none none none none none none none none none none none none none none none none none none none none none none none none none none none none none none none none none none none none none none none none none none none none none none none none none none none none none none none none none none none none none none none none none none none none none none none none none [0:1] none none [0:1] [0:1] none none none none none none none none none none none [0:1] none [0:1] none [0:1] none none none none none none none none none none none none none none none none none none none none none none none none none none none none none none none none none none none none none none none none none none none none none none none none none none none none none none none none none none none none none none none none none none none none none none none none none none none none none none none [0:1] none none none none none none none none none none none none none none none none none none none none none none none none none none none none none none none none none none none none none none none none none none none none none none none none none [0:1] none none [0:1] none none none none none [0:1] none none [0:1] none none none none none none none none none none none none none none none [0:1] none [0:1] none none none none none none none none none none none none none none none none none none none none none none none none none none none none none none none none none none none none none none none none none none none none none none none none none none none none none none none none none [0:1] [0:1]
tree_sizes=907 806 909 795 989 874 740 904 801 990 832 992 814 813 787 912 740 820 911 827 975 887 909 925 740 745 902 736 1005 870 736 919 834 910 837 1000 908 897 837 825 912 904 818 997 967

Tree=0
num_leaves=9
num_cat=0
split_feature=289 304 439 5 4 4 5 439
split_gain=5.98053 2.11412 3.63191 0.997027 1.15938 0.778515 0.743873 0.252191
threshold=1.0000000180025095e-35 1.0000000180025095e-35 1.0000000180025095e-35 1.0000000180025095e-35 0.17600000000000002 0.27350000000000008 -1.0000000180025095e-35 1.0000000180025095e-35
decision_type=2 2 2 10 10 8 8 2
left_child=1 2 -1 4 6 -4 -2 -8
right_child=3 -3 5 -5 -6 -7 7 -9
leaf_value=0.035917290635406968 0.0079434336261137543 0.016624651795460119 0.025481374785304069 0.019328910050292809 0.01743944600878938 0.017405901720578019 0.016009729589734758 0.011723249571397901
leaf_weight=24 38 27 21 27 37 22 21 30
leaf_count=24 38 27 21 27 37 22 21 30
internal_value=0 0.0237119 0.026568 0.0140973 0.0129763 0.0213497 0.0111208 0.0134883
internal_weight=0 94 67 153 126 43 89 51
internal_count=247 94 67 153 126 43 89 51
is_linear=0
shrinkage=0.03


Tree=1
num_leaves=8
num_cat=0
split_feature=53 6 5 290 439 16 5
split_gain=4.96325 1.22196 0.839221 0.727715 0.364467 0.400905 0.198268
threshold=1.0000000180025095e-35 80.38000000000001 -25.584999999999997 1.0000000180025095e-35 1.0000000180025095e-35 1.0000000180025095e-35 inf
decision_type=2 10 10 2 2 2 8
left_child=1 3 -3 4 6 -6 -1
right_child=-2 2 -4 -5 5 -7 -8
leaf_value=0.0077092938765417783 0.026624350573867556 0.013909793558663557 0.022294204206290569 0.016778856225071415 0.010999494286710924 0.014784303640481083 0.011395506508455708
leaf_weight=24 30 21 22 31 53 48 29
leaf_count=24 30 21 22 31 53 48 29
internal_value=0 0.013644 0.0181995 0.0125852 0.011741 0.0127982 0.00972628
internal_weight=0 228 43 185 154 101 53
internal_count=258 228 43 185 154 101 53
is_linear=0
shrinkage=0.03


Tree=2
num_leaves=9
num_cat=0
split_feature=290 439 6 386 524 439 16 16
split_gain=4.52498 1.67026 1.14333 0.896248 0.249027 0.225288 1.45827 0.790811
threshold=1.0000000180025095e-35 1.0000000180025095e-35 80.38000000000001 1.0000000180025095e-35 1.0000000180025095e-35 1.0000000180025095e-35 1.0000000180025095e-35 1.0000000180025095e-35
decision_type=2 2 10 2 2 2 2 2
left_child=2 -2 4 -3 5 6 -1 -7
right_child=1 3 -4 -5 -6 7 -8 -9
leaf_value=0.017541584015956947 0.029169220728799697 0.014645659523550422 0.01839662583289995 0.02332907803680586 0.0094625093202505804 0.010789165022125577 0.0072340405075810845 0.017127079802590449
leaf_weight=21 24 20 37 23 21 34 30 37
leaf_count=21 24 20 37 23 21 34 30 37
internal_value=0 0.022829 0.0136962 0.0192903 0.01248 0.0129994 0.0114783 0.014092
internal_weight=0 67 180 43 143 122 51 71
internal_count=247 67 180 43 143 122 51 71
is_linear=0
shrinkage=0.03


Tree=3
num_leaves=8
num_cat=0
split_feature=53 5 448 1 2 3 2
split_gain=3.5656 1.13761 0.899875 0.530399 0.428909 0.3414 0.0146056
threshold=1.0000000180025095e-35 1.0000000180025095e-35 1.0000000180025095e-35 98.500000000000014 1.0000000180025095e-35 193.87500000000003 inf
decision_type=2 10 2 8 8 8 8
left_child=1 2 5 6 -5 -1 -4
right_child=-2 -3 3 4 -6 -7 -8
leaf_value=0.012180041004612575 0.024576114970192842 0.018972165660502818 0.011194359177025034 0.014220683943284185 0.018303594388640841 0.007446717964485287 0.012340876509435475
leaf_weight=32 35 39 20 57 39 24 20
leaf_count=32 35 39 20 57 39 24 20
internal_value=0 0.014301 0.0133521 0.01467 0.0158794 0.0101515 0.0117676
internal_weight=0 231 192 136 96 56 40
internal_count=266 231 192 136 96 56 40
is_linear=0
shrinkage=0.03


Tree=4
num_leaves=10
num_cat=0
split_feature=4 6 290 4 53 3 448 436 6
split_gain=2.46307 1.30425 1.10789 0.735283 0.709274 0.719811 0.683588 0.365057 0.343154
threshold=0.27350000000000008 80.38000000000001 1.0000000180025095e-35 0.17600000000000002 1.0000000180025095e-35 150.20000000000002 1.0000000180025095e-35 1.0000000180025095e-35 1.0000000180025095e-35
decision_type=8 10 2 10 2 8 2 2 10
left_child=1 2 3 -1 5 8 -7 -8 -2
right_child=4 -3 -4 -5 -6 6 7 -9 -10
leaf_value=0.010739676185438167 0.0067950801942497493 0.025206414368003607 0.022544381595216691 0.017869223833084109 0.017766590653918682 0.010122207375076998 0.013917539260320126 0.019116193978115915 0.011932361869522455
leaf_weight=23 25 24 24 30 24 28 31 20 22
leaf_count=23 25 24 24 30 24 28 31 20 22
internal_value=0 0.0191001 0.0171968 0.0147753 0.0130398 0.0121395 0.0138885 0.0159562 0.00919977
internal_weight=0 101 77 53 150 126 79 51 47
internal_count=251 101 77 53 150 126 79 51 47
is_linear=0
shrinkage=0.03


Tree=5
num_leaves=9
num_cat=0
split_feature=448 1 3 3 436 4 4 3
split_gain=2.83502 1.08898 1.97189 1.48274 1.04495 1.00792 0.983695 0.0381958
threshold=1.0000000180025095e-35 inf 87.00500000000001 150.20000000000002 1.0000000180025095e-35 0.17600000000000002 0.17600000000000002 87.00500000000001
decision_type=2 8 8 8 2 8 10 10
left_child=6 3 -3 -2 5 -4 7 -1
right_child=1 2 4 -5 -6 -7 -8 -9
leaf_value=0.0077053776048123836 0.0086251712670283656 0.026091274689137935 0.019704817940409368 0.018303769212216138 0.02188129879677525 0.01242249930985272 0.014564576675386532 0.0058512950087897479
leaf_weight=20 28 25 26 29 26 50 23 20
leaf_count=20 28 25 26 29 26 50 23 20
internal_value=0 0.0169943 0.0185405 0.0135494 0.0166898 0.0149138 0.00962093 0.00677834
internal_weight=0 184 127 57 102 76 63 40
internal_count=247 184 127 57 102 76 63 40
is_linear=0
shrinkage=0.03


Tree=6
num_leaves=7
num_cat=0
split_feature=53 1 5 0 464 448
split_gain=1.51683 0.517797 0.590123 0.325362 0.261757 0.347639
threshold=1.0000000180025095e-35 98.500000000000014 -25.584999999999997 1.0000000180025095e-35 1.0000000180025095e-35 1.0000000180025095e-35
decision_type=2 8 10 10 2 2
left_child=1 2 -1 4 5 -3
right_child=-2 3 -4 -5 -6 -7
leaf_value=0.0082596079681945198 0.020222841314971447 0.011788050532341004 0.013891230035911906 0.016942097787414827 0.010452259816229343 0.01548362015436093
leaf_weight=34 32 36 33 31 21 63
leaf_count=34 32 36 33 31 21 63
internal_value=0 0.0132283 0.0110334 0.0142023 0.0134945 0.0141398
internal_weight=0 218 67 151 120 99
internal_count=250 218 67 151 120 99
is_linear=0
shrinkage=0.03


Tree=7
num_leaves=9
num_cat=0
split_feature=4 289 290 0 2 6 2 439
split_gain=2.13233 1.46586 0.785432 1.38159 0.522208 0.485263 0.285202 0.269082
threshold=0.21800000000000003 1.0000000180025095e-35 1.0000000180025095e-35 1.0000000180025095e-35 1.0000000180025095e-35 70.300000000000011 1.0000000180025095e-35 1.0000000180025095e-35
decision_type=8 2 2 8 8 10 8 2
left_child=1 -1 5 -4 -3 6 7 -2
right_child=2 4 3 -5 -6 -7 -8 -9
leaf_value=0.023474504981310138 0.01127827465161681 0.012345750667154789 0.01134146152685086 0.021744577545672654 0.01865346594048398 0.0075750758061901881 0.010063711636372513 0.015150185098605495
leaf_weight=31 30 27 27 20 21 26 37 35
leaf_count=31 30 27 27 20 21 26 37 35
internal_value=0 0.0183895 0.0124516 0.0157683 0.0151054 0.0112337 0.0121663 0.0133631
internal_weight=0 79 175 47 48 128 102 65
internal_count=254 79 175 47 48 128 102 65
is_linear=0
shrinkage=0.03


Tree=8
num_leaves=8
num_cat=0
split_feature=4 16 2 5 35 1 525
split_gain=1.6938 1.12132 0.482457 0.476068 0.221631 0.183404 0.113807
threshold=0.27350000000000008 1.0000000180025095e-35 inf -11.949999999999998 1.0000000180025095e-35 98.500000000000014 1.0000000180025095e-35
decision_type=8 2 8 10 2 8 2
left_child=1 -1 -3 4 -2 -6 -7
right_child=3 2 -4 -5 5 6 -8
leaf_value=0.011379610801216316 0.012454474784353806 0.015755122094415128 0.020889597145308341 0.013455523006044901 0.0071832448108629749 0.0086763501925201259 0.01135777507576027
leaf_weight=37 20 40 28 39 33 29 28
leaf_count=37 20 40 28 39 33 29 28
internal_value=0 0.0155825 0.0178693 0.0106076 0.00959789 0.0089631 0.00999354
internal_weight=0 105 68 149 110 90 57
internal_count=254 105 68 149 110 90 57
is_linear=0
shrinkage=0.03


Tree=9
num_leaves=10
num_cat=0
split_feature=289 439 304 439 6 16 3 16 3
split_gain=1.79155 1.41019 1.30255 1.75787 1.60889 0.617046 0.721271 0.379469 0.226874
threshold=1.0000000180025095e-35 1.0000000180025095e-35 1.0000000180025095e-35 1.0000000180025095e-35 58.150000000000013 1.0000000180025095e-35 115.05000000000001 1.0000000180025095e-35 115.05000000000001
decision_type=2 2 2 2 10 2 8 2 10
left_child=2 7 3 -1 -5 8 -7 -2 -3
right_child=1 5 -4 4 -6 6 -8 -9 -10
leaf_value=0.025342532501555978 0.0096259594670430361 0.0078443119861185545 0.010548352120094933 0.0095795384421944619 0.020995337035506961 0.019388875365257262 0.012033921561203897 0.0050232804464911554 0.012203715152361176
leaf_weight=20 28 21 32 25 20 20 30 38 22
leaf_count=20 28 21 32 25 20 20 30 38 22
internal_value=0 0.0103297 0.015503 0.0179422 0.0146532 0.0127098 0.0149759 0.00697593 0.0100747
internal_weight=0 159 97 65 45 93 50 66 43
internal_count=256 159 97 65 45 93 50 66 43
is_linear=0
shrinkage=0.03


Tree=10
num_leaves=8
num_cat=0
split_feature=53 4 5 289 386 7 0
split_gain=2.22407 1.71969 0.662495 0.885373 0.406601 0.290681 0.197295
threshold=1.0000000180025095e-35 0.11050000000000001 19.240000000000006 1.0000000180025095e-35 1.0000000180025095e-35 1.0000000180025095e-35 1.0000000180025095e-35
decision_type=2 8 10 2 2 10 10
left_child=1 -1 3 4 -3 -5 -2
right_child=6 2 -4 5 -6 -7 -8
leaf_value=0.018320972952577803 0.016774731146637353 0.009959214453754776 0.015438583072274923 0.0090108319600888838 0.01536775689186721 0.0052274707518517967 0.020988587602972984
leaf_weight=27 20 22 20 108 29 22 20
leaf_count=27 20 22 20 108 29 22 20
internal_value=0 0.0112122 0.0102573 0.00968476 0.0130347 0.00837057 0.0188817
internal_weight=0 228 201 181 51 130 40
internal_count=268 228 201 181 51 130 40
is_linear=0
shrinkage=0.03


Tree=11
num_leaves=10
num_cat=0
split_feature=289 304 53 3 3 448 3 3 16
split_gain=1.87094 1.72836 0.864762 0.466112 0.334758 0.511151 0.240464 0.0893755 0.022305
threshold=1.0000000180025095e-35 1.0000000180025095e-35 1.0000000180025095e-35 150.20000000000002 87.00500000000001 1.0000000180025095e-35 150.20000000000002 193.87500000000003 1.0000000180025095e-35
decision_type=2 2 2 10 10 2 8 10 2
left_child=1 2 6 4 5 -2 -1 -5 -6
right_child=3 -3 -4 7 8 -7 -8 -9 -10
leaf_value=0.013602262608205471 0.0065391555987298492 0.0087677748923346774 0.022980339104309678 0.010801270762458444 0.0061554041866805735 0.012428573734747867 0.017863825161687354 0.013276205171855038 0.0074533139085934423
leaf_weight=26 21 27 20 24 22 36 22 29 26
leaf_count=26 21 27 20 24 22 36 22 29 26
internal_value=0 0.0151895 0.0177393 0.009862 0.00870434 0.0102588 0.0155555 0.0121555 0.00685844
internal_weight=0 95 68 158 105 57 48 53 48
internal_count=253 95 68 158 105 57 48 53 48
is_linear=0
shrinkage=0.03


Tree=12
num_leaves=8
num_cat=0
split_feature=290 304 6 16 445 448 1
split_gain=2.17938 1.88131 1.12155 0.61835 0.168517 0.257172 0.106027
threshold=1.0000000180025095e-35 1.0000000180025095e-35 80.38000000000001 1.0000000180025095e-35 1.0000000180025095e-35 1.0000000180025095e-35 inf
decision_type=2 2 10 2 2 2 8
left_child=2 -2 4 -4 5 -1 -7
right_child=1 -3 3 -5 -6 6 -8
leaf_value=0.0058382741636079215 0.020546596884727479 0.010180697421400018 0.010619427428713867 0.017739613687457599 0.011125581461191178 0.0075235249546284858 0.0097714397246422974
leaf_weight=27 40 26 21 23 25 26 69
leaf_count=27 40 26 21 23 25 26 69
internal_value=0 0.0164631 0.0101394 0.0143413 0.00888173 0.00842192 0.00915622
internal_weight=0 66 191 44 147 122 95
internal_count=257 66 191 44 147 122 95
is_linear=0
shrinkage=0.03


Tree=13
num_leaves=8
num_cat=0
split_feature=51 6 5 6 35 1 3
split_gain=2.38956 1.96932 1.83319 1.00348 1.57142 0.132043 0.255718
threshold=1.0000000180025095e-35 80.38000000000001 -25.584999999999997 80.38000000000001 1.0000000180025095e-35 1.0000000180025095e-35 87.00500000000001
decision_type=2 8 10 10 2 8 10
left_child=1 -1 -3 4 -2 -6 -7
right_child=3 2 -4 -5 5 6 -8
leaf_value=0.011046547415056104 0.017140120446681974 0.015070850519197326 0.027761737916618585 0.014892623568255756 0.0098352642090999177 0.0092501969869148784 0.006089129348230712
leaf_weight=29 20 21 20 37 29 42 51
leaf_count=29 20 21 20 37 29 42 51
internal_value=0 0.0170296 0.0212615 0.0104922 0.00934563 0.00806784 0.00751671
internal_weight=0 70 41 179 142 122 93
internal_count=249 70 41 179 142 122 93
is_linear=0
shrinkage=0.03


Tree=14
num_leaves=8
num_cat=0
split_feature=53 5 1 2 5 6 3
split_gain=1.49942 0.964672 1.46141 1.51043 0.774446 0.327453 0.165448
threshold=1.0000000180025095e-35 19.240000000000006 21.500000000000004 inf -11.949999999999998 90.25500000000001 150.20000000000002
decision_type=2 10 8 8 8 8 8
left_child=1 2 6 5 -5 -4 -1
right_child=-2 -3 3 4 -6 -7 -8
leaf_value=0.005148626833476804 0.017970009452917358 0.017421116229146719 0.0072614674900507766 0.019638831708580256 0.012844060428130129 0.011047670547134026 0.008315199099274145
leaf_weight=33 33 20 34 26 36 52 27
leaf_count=33 33 20 34 26 36 52 27
internal_value=0 0.0111281 0.010523 0.0121241 0.0156935 0.0095508 0.00657358
internal_weight=0 228 208 148 62 86 60
internal_count=261 228 208 148 62 86 60
is_linear=0
shrinkage=0.03


Tree=15
num_leaves=9
num_cat=0
split_feature=289 304 439 16 16 525 2 6
split_gain=1.46679 1.39139 0.871954 1.62173 1.33175 0.831152 0.621436 0.465507
threshold=1.0000000180025095e-35 1.0000000180025095e-35 1.0000000180025095e-35 1.0000000180025095e-35 1.0000000180025095e-35 1.0000000180025095e-35 1.0000000180025095e-35 80.38000000000001
decision_type=2 2 2 2 2 2 8 8
left_child=1 7 3 -2 6 -6 -4 -1
right_child=2 -3 4 -5 5 -7 -8 -9
leaf_value=0.01359650644514029 0.012134135340053875 0.0081103733065538107 0.010401709485532982 0.0021810092060717151 0.011221186019448113 0.019057969050481915 0.0034778834218159318 0.018895926933735607
leaf_weight=26 26 24 28 34 29 21 20 35
leaf_count=26 26 24 28 34 29 21 20 35
internal_value=0 0.0142296 0.00934227 0.00649403 0.0110861 0.0145126 0.00751678 0.0166372
internal_weight=0 85 158 60 98 50 48 61
internal_count=243 85 158 60 98 50 48 61
is_linear=0
shrinkage=0.03


Tree=16
num_leaves=7
num_cat=0
split_feature=53 3 5 448 3 16
split_gain=2.98007 0.811418 0.581345 0.825254 0.68389 0.216047
threshold=1.0000000180025095e-35 87.00500000000001 19.240000000000006 1.0000000180025095e-35 150.20000000000002 1.0000000180025095e-35
decision_type=2 8 10 2 8 2
left_child=1 -1 3 5 -5 -3
right_child=-2 2 -4 4 -6 -7
leaf_value=0.013517620915766148 0.018676074971577951 0.0064710215851664539 0.012838560845702885 0.005629547971766442 0.010562947946545831 0.002162838775071908
leaf_weight=34 35 20 24 36 85 22
leaf_count=34 35 20 24 36 85 22
internal_value=0 0.00925449 0.00847937 0.00783753 0.00909516 0.00421435
internal_weight=0 221 187 163 121 42
internal_count=256 221 187 163 121 42
is_linear=0
shrinkage=0.03


Tree=17
num_leaves=8
num_cat=0
split_feature=4 6 3 290 525 5 16
split_gain=1.94967 1.31875 0.669615 0.651534 0.649474 0.24854 0.137463
threshold=0.27350000000000008 80.38000000000001 87.00500000000001 1.0000000180025095e-35 1.0000000180025095e-35 -1.0000000180025095e-35 1.0000000180025095e-35
decision_type=8 10 10 2 2 8 2
left_child=1 3 4 6 -2 -4 -1
right_child=2 -3 5 -5 -6 -7 -8
leaf_value=0.0069777029084174755 0.012102336744511766 0.018022666959600014 0.0040454252837589591 0.014845687318593263 0.0062037572324542059 0.0076242300687778385 0.010188577760543141
leaf_weight=21 42 33 40 24 28 31 28
leaf_count=21 42 33 40 24 28 31 28
internal_value=0 0.0130458 0.00766079 0.010796 0.0097429 0.005608 0.00881249
internal_weight=0 106 141 73 70 71 49
internal_count=247 106 141 73 70 71 49
is_linear=0
shrinkage=0.03


Tree=18
num_leaves=9
num_cat=0
split_feature=53 4 6 16 439 16 3 3
split_gain=2.67833 1.57206 1.09186 1.30873 0.213076 0.220228 0.159374 0.0308306
threshold=1.0000000180025095e-35 0.27350000000000008 80.38000000000001 1.0000000180025095e-35 1.0000000180025095e-35 1.0000000180025095e-35 1.0000000180025095e-35 193.87500000000003
decision_type=2 8 8 2 2 2 10 8
left_child=1 2 -1 -4 6 7 -3 -6
right_child=-2 4 3 -5 5 -7 -8 -9
leaf_value=0.0071644328058195804 0.017042477812013915 0.006405986347659068 0.0088696636656170769 0.017544837040717111 0.0064041351487061802 0.0087889645365066826 0.0029366049541232103 0.0047785195301652747
leaf_weight=39 37 22 29 34 21 36 26 21
leaf_count=39 37 22 29 34 21 36 26 21
internal_value=0 0.0083407 0.0111094 0.0135515 0.00609938 0.00706716 0.00452674 0.00559133
internal_weight=0 228 102 63 126 78 48 42
internal_count=265 228 102 63 126 78 48 42
is_linear=0
shrinkage=0.03


Tree=19
num_leaves=8
num_cat=0
split_feature=290 6 6 448 5 16 4
split_gain=1.50369 1.49474 1.09298 0.234874 0.575767 0.253223 0.23565
threshold=1.0000000180025095e-35 80.38000000000001 90.25500000000001 1.0000000180025095e-35 -1.0000000180025095e-35 1.0000000180025095e-35 0.11050000000000001
decision_type=2 10 8 2 8 2 10
left_child=1 3 -2 6 -5 -6 -1
right_child=2 -3 -4 4 5 -7 -8
leaf_value=0.0037986791303710027 0.0097919094033779627 0.013551787549115128 0.017968888216252837 0.0046833725880299293 0.0079451290844008322 0.011748147023698457 0.0077304572498668794
leaf_weight=34 31 38 28 35 40 26 23
leaf_count=34 31 38 28 35 40 26 23
internal_value=0 0.00820969 0.0136725 0.00692488 0.00779381 0.00944329 0.00538519
internal_weight=0 196 59 158 101 66 57
internal_count=255 196 59 158 101 66 57
is_linear=0
shrinkage=0.03


Tree=20
num_leaves=10
num_cat=0
split_feature=53 4 14 6 2 6 525 2 439
split_gain=1.98776 1.89175 1.42505 1.6956 1.64564 0.423104 0.28954 0.700466 0.249404
threshold=1.0000000180025095e-35 0.27350000000000008 1.0000000180025095e-35 80.38000000000001 1.0000000180025095e-35 70.300000000000011 1.0000000180025095e-35 inf 1.0000000180025095e-35
decision_type=2 8 2 8 8 10 2 8 2
left_child=1 2 3 -1 -5 6 7 -3 -8
right_child=-2 5 -4 4 -6 -7 8 -9 -10
leaf_value=0.0080495409714058039 0.01680098807979976 0.0055748307196931395 0.0055855978053063159 0.012212553587858563 0.023604242979948009 0.0022137701287865638 0.0030024998683644377 0.012310637184418738 0.0074204805760603888
leaf_weight=28 31 33 25 25 21 20 23 24 23
leaf_count=28 31 33 25 25 21 20 23 24 23
internal_value=0 0.00869126 0.0117781 0.0138701 0.0174131 0.00620674 0.00698207 0.00841096 0.00521149
internal_weight=0 222 99 74 46 123 103 57 46
internal_count=253 222 99 74 46 123 103 57 46
is_linear=0
shrinkage=0.03


Tree=21
num_leaves=9
num_cat=0
split_feature=51 304 5 0 439 5 3 3
split_gain=1.83314 2.19456 1.01053 0.418942 0.528919 0.751924 0.405617 0.385515
threshold=1.0000000180025095e-35 1.0000000180025095e-35 -11.949999999999998 1.0000000180025095e-35 1.0000000180025095e-35 inf 150.20000000000002 150.20000000000002
decision_type=2 2 10 10 2 8 8 8
left_child=1 2 -1 4 6 7 -2 -6
right_child=3 -3 -4 -5 5 -7 -8 -9
leaf_value=0.013297744871427616 0.0021593765776766385 0.0059431212158365682 0.021758182118646802 0.011300281259146604 0.0092118489643326033 0.0057305028315167879 0.007454705622978508 0.014326530572559152
leaf_weight=27 23 22 24 33 36 40 30 21
leaf_count=27 23 22 24 33 36 40 30 21
internal_value=0 0.0138628 0.0172791 0.00824 0.00756674 0.00888354 0.00515673 0.0110962
internal_weight=0 73 51 183 150 97 53 57
internal_count=256 73 51 183 150 97 53 57
is_linear=0
shrinkage=0.03


Tree=22
num_leaves=9
num_cat=0
split_feature=53 5 4 16 6 6 448 3
split_gain=1.33737 0.910502 0.783443 0.27473 0.919856 0.476635 0.246351 0.259974
threshold=1.0000000180025095e-35 19.240000000000006 1.0000000180025095e-35 1.0000000180025095e-35 80.38000000000001 58.150000000000013 1.0000000180025095e-35 193.87500000000003
decision_type=2 10 10 2 8 10 2 8
left_child=1 2 6 5 -5 -4 -1 -8
right_child=-2 -3 3 4 -6 -7 7 -9
leaf_value=0.0025934779354981306 0.013835966648424373 0.013286543792452324 0.0039453408390283584 0.0059428222262067716 0.013055634486954659 0.009803474186360836 0.0038311181445756259 0.0075117475539445873
leaf_weight=29 34 22 25 30 36 25 31 39
leaf_count=29 34 22 25 30 36 25 31 39
internal_value=0 0.00747361 0.0068788 0.00855179 0.00982254 0.00687441 0.00491852 0.00588175
internal_weight=0 237 215 116 66 50 99 70
internal_count=271 237 215 116 66 50 99 70
is_linear=0
shrinkage=0.03


Tree=23
num_leaves=9
num_cat=0
split_feature=448 304 203 16 439 5 14 5
split_gain=1.63756 0.842607 1.77814 0.498704 0.922569 0.698285 0.402807 0.275154
threshold=1.0000000180025095e-35 1.0000000180025095e-35 1.0000000180025095e-35 1.0000000180025095e-35 1.0000000180025095e-35 -11.949999999999998 1.0000000180025095e-35 -25.584999999999997
decision_type=2 2 2 2 2 10 2 10
left_child=7 2 6 5 -5 -4 -2 -1
right_child=1 -3 3 4 -6 -7 -8 -9
leaf_value=0.0011856741085648538 0.017506500084418803 0.0036956378549803048 0.0033570405597974722 0.0059938795643392946 0.013090934607693377 0.010206258794558899 0.011741816438734532 0.0053601667279791505
leaf_weight=30 24 24 37 32 34 21 20 27
leaf_count=30 24 24 37 32 34 21 20 27
internal_value=0 0.00895378 0.00970494 0.00786643 0.00964994 0.00583693 0.0148862 0.00316307
internal_weight=0 192 168 124 66 58 44 57
internal_count=249 192 168 124 66 58 44 57
is_linear=0
shrinkage=0.03


Tree=24
num_leaves=7
num_cat=0
split_feature=53 6 439 6 14 4
split_gain=1.02509 0.900765 0.960929 0.426401 0.196847 0.203987
threshold=1.0000000180025095e-35 80.38000000000001 1.0000000180025095e-35 70.300000000000011 1.0000000180025095e-35 0.21800000000000003
decision_type=2 10 2 8 2 8
left_child=1 3 -3 -1 5 -5
right_child=-2 2 -4 4 -6 -7
leaf_value=0.0093187858706170867 0.0127678871575876 0.005863722810521721 0.014473530388703302 0.008392882466925166 0.003116696208715439 0.0053798177447118845
leaf_weight=33 35 20 28 26 25 91
leaf_count=33 35 20 28 26 25 91
internal_value=0 0.00724551 0.0108861 0.00624695 0.00553307 0.00604939
internal_weight=0 223 48 175 142 117
internal_count=258 223 48 175 142 117
is_linear=0
shrinkage=0.03


Tree=25
num_leaves=7
num_cat=0
split_feature=53 3 5 5 436 5
split_gain=2.27865 1.24837 0.876873 0.774446 0.911419 0.29779
threshold=1.0000000180025095e-35 87.00500000000001 1.0000000180025095e-35 -11.949999999999998 1.0000000180025095e-35 -25.584999999999997
decision_type=2 8 10 10 2 10
left_child=1 5 3 4 -3 -1
right_child=-2 2 -4 -5 -6 -7
leaf_value=0.013859530285648677 0.015055284151652209 0.0048566827354287459 0.010795590492738743 0.00040794937974876825 0.01141321525564822 0.0089183658441262578
leaf_weight=23 36 112 28 27 23 21
leaf_count=23 36 112 28 27 23 21
internal_value=0 0.00694786 0.00589339 0.00504609 0.00597372 0.0115012
internal_weight=0 234 190 162 135 44
internal_count=270 234 190 162 135 44
is_linear=0
shrinkage=0.03


Tree=26
num_leaves=9
num_cat=0
split_feature=1 51 6 4 35 4 6 525
split_gain=1.21282 1.53247 1.25412 1.07045 0.730942 0.283041 0.453951 0.150543
threshold=4.1000000000000005 1.0000000180025095e-35 80.38000000000001 0.27350000000000008 1.0000000180025095e-35 0.11050000000000001 70.300000000000011 1.0000000180025095e-35
decision_type=10 2 8 8 2 10 10 2
left_child=1 2 -1 5 -5 -3 -7 -6
right_child=-2 3 -4 4 7 6 -8 -9
leaf_value=0.007114779764617031 0.00050399795168777932 0.012730524518061429 0.01641944809409324 0.01011163402441889 0.0024892212364952576 0.011295008602587935 0.0056332163572311396 0.0049995630710970521
leaf_weight=22 20 20 32 20 43 26 25 43
leaf_count=22 20 20 32 20 43 26 25 43
internal_value=0 0.0082048 0.0126287 0.00685515 0.00494576 0.00970579 0.00851962 0.00374439
internal_weight=0 231 54 177 106 71 51 86
internal_count=251 231 54 177 106 71 51 86
is_linear=0
shrinkage=0.03


Tree=27
num_leaves=7
num_cat=0
split_feature=53 1 436 3 3 5
split_gain=1.21171 0.541787 0.658579 1.05703 0.540279 0.000114337
threshold=1.0000000180025095e-35 1.0000000180025095e-35 1.0000000180025095e-35 1.0000000180025095e-35 87.00500000000001 inf
decision_type=2 10 2 10 10 8
left_child=1 2 3 -1 -5 -4
right_child=-2 -3 5 4 -6 -7
leaf_value=0.0016673881489911982 0.013555658694296594 0.0026446264390168443 0.011212655478157103 0.012056602044031025 0.0071152990426157766 0.011111214201897382
leaf_weight=29 31 21 20 24 117 20
leaf_count=29 31 21 20 24 117 20
internal_value=0 0.00723904 0.00769848 0.00688355 0.00795637 0.0111619
internal_weight=0 231 210 170 141 40
internal_count=262 231 210 170 141 40
is_linear=0
shrinkage=0.03


Tree=28
num_leaves=10
num_cat=0
split_feature=4 18 525 5 0 302 439 16 3
split_gain=1.39775 1.47276 0.776109 0.504195 0.433973 0.273777 0.435885 0.762367 0.036817
threshold=0.27350000000000008 1.0000000180025095e-35 1.0000000180025095e-35 -11.949999999999998 1.0000000180025095e-35 1.0000000180025095e-35 1.0000000180025095e-35 1.0000000180025095e-35 115.05000000000001
decision_type=8 2 2 8 10 2 2 2 10
left_child=2 5 4 -4 8 -2 -7 -8 -1
right_child=1 -3 3 -5 -6 6 7 -9 -10
leaf_value=0.0088017838607941344 0.0062818425950660773 0.012456482015126807 0.009736562457401305 0.016024125089382075 0.0048339665889008242 0.00027824780633372643 0.00086915275099902196 0.00778516443198896 0.01060029214527458
leaf_weight=21 35 22 24 22 28 31 26 32 20
leaf_count=21 35 22 24 22 28 31 26 32 20
internal_value=0 0.00530312 0.00972524 0.0127437 0.00771296 0.00403398 0.00314999 0.00468488 0.0096791
internal_weight=0 146 115 46 69 124 89 58 41
internal_count=261 146 115 46 69 124 89 58 41
is_linear=0
shrinkage=0.03


Tree=29
num_leaves=9
num_cat=0
split_feature=51 5 3 436 3 2 5 5
split_gain=1.7417 0.662238 0.567299 0.476893 0.437657 0.188917 0.492222 0.0662012
threshold=1.0000000180025095e-35 -11.949999999999998 87.00500000000001 1.0000000180025095e-35 115.05000000000001 inf -25.584999999999997 inf
decision_type=2 8 8 2 8 8 10 8
left_child=1 -1 -2 5 -3 6 -4 -7
right_child=2 4 3 -5 -6 7 -8 -9
leaf_value=0.0071497841295786197 0.0097563889206332306 0.0170507909366861 0.0030909046411899655 0.0087895705659062628 0.011358623898798419 0.0025245900262962093 0.0086182621634436837 0.0044698102255502047
leaf_weight=20 34 20 29 31 31 32 29 31
leaf_count=20 34 20 29 31 31 32 29 31
internal_value=0 0.0117765 0.00625328 0.00546969 0.0135908 0.00461915 0.00585458 0.00348176
internal_weight=0 71 186 152 51 121 58 63
internal_count=257 71 186 152 51 121 58 63
is_linear=0
shrinkage=0.03


Tree=30
num_leaves=7
num_cat=0
split_feature=53 6 3 302 6 3
split_gain=0.959841 0.97432 0.425554 0.335396 0.333786 0.328811
threshold=1.0000000180025095e-35 80.38000000000001 87.00500000000001 1.0000000180025095e-35 90.25500000000001 87.00500000000001
decision_type=2 10 8 2 10 10
left_child=1 2 -1 -4 -3 -5
right_child=-2 4 3 5 -6 -7
leaf_value=0.0088724324673414238 0.011366903757872549 0.012712801906695265 0.007567373643275992 0.0065679841099137611 0.007481519065664282 0.0030872159012707264
leaf_weight=25 38 23 29 33 21 94
leaf_count=25 38 23 29 33 21 94
internal_value=0 0.00621206 0.00523871 0.00465638 0.0102161 0.00399167
internal_weight=0 225 181 156 44 127
internal_count=263 225 181 156 44 127
is_linear=0
shrinkage=0.03


Tree=31
num_leaves=9
num_cat=0
split_feature=3 436 3 51 525 2 525 16
split_gain=1.0706 1.78258 0.637752 0.700238 0.178875 0.634352 0.0469329 0.00150958
threshold=87.00500000000001 1.0000000180025095e-35 150.20000000000002 1.0000000180025095e-35 1.0000000180025095e-35 1.0000000180025095e-35 1.0000000180025095e-35 1.0000000180025095e-35
decision_type=8 2 8 2 2 8 2 2
left_child=1 -1 3 -2 5 -4 -5 -6
right_child=2 -3 4 6 7 -7 -8 -9
leaf_value=0.015018744377921393 0.0075330208062097948 0.0037701164134445468 0.0054210439869543398 0.0027679353742860258 0.0055388641906902198 0.010801465183643525 0.0010008606499233733 0.0058711108082206915
leaf_weight=32 29 21 41 24 20 38 31 32
leaf_count=32 29 21 41 24 20 38 31 32
internal_value=0 0.0105617 0.00580133 0.00376089 0.0071097 0.00800909 0.00177195 0.00574332
internal_weight=0 53 215 84 131 79 55 52
internal_count=268 53 215 84 131 79 55 52
is_linear=0
shrinkage=0.03


Tree=32
num_leaves=8
num_cat=0
split_feature=53 2 5 5 51 16 448
split_gain=1.53614 0.633277 1.44257 0.742066 0.255244 0.336123 0.1943
threshold=1.0000000180025095e-35 1.0000000180025095e-35 -11.949999999999998 1.0000000180025095e-35 1.0000000180025095e-35 1.0000000180025095e-35 1.0000000180025095e-35
decision_type=2 8 8 10 2 2 2
left_child=1 3 -3 4 -1 -6 -4
right_child=-2 2 6 -5 5 -7 -8
leaf_value=0.00072563670761883255 0.01322181216695092 0.013899314221926033 0.0033261916817199175 0.0089347981068898328 0.002015327059573704 0.0059480296871361306 0.0069054341235627913
leaf_weight=20 33 28 21 33 31 53 39
leaf_count=20 33 28 21 33 31 53 39
internal_value=0 0.00629078 0.00827662 0.0050152 0.00377148 0.00449668 0.0056527
internal_weight=0 225 88 137 104 84 60
internal_count=258 225 88 137 104 84 60
is_linear=0
shrinkage=0.03


Tree=33
num_leaves=9
num_cat=0
split_feature=304 289 439 2 3 3 1 1
split_gain=0.849118 1.76393 1.98992 0.528831 0.423784 0.667842 0.286327 0.225285
threshold=1.0000000180025095e-35 1.0000000180025095e-35 1.0000000180025095e-35 1.0000000180025095e-35 87.00500000000001 193.87500000000003 98.500000000000014 5.5000000000000009
decision_type=2 2 2 8 8 8 8 8
left_child=1 2 -1 -4 -3 6 -6 -7
right_child=-2 4 3 -5 5 7 -8 -9
leaf_value=0.018520941649164471 0.0015149128232752123 0.0085695439328749966 0.0041695737895434317 0.010414495532615826 0.0054962873063050212 0.0043018833241425447 0.0012725028617737385 0.0078681623766368083
leaf_weight=21 31 27 23 26 20 25 52 44
leaf_count=21 31 27 23 26 20 25 52 44
internal_value=0 0.00679343 0.0107945 0.00748321 0.00512631 0.00446697 0.00244578 0.00657603
internal_weight=0 238 70 49 168 141 72 69
internal_count=269 238 70 49 168 141 72 69
is_linear=0
shrinkage=0.03


Tree=34
num_leaves=8
num_cat=0
split_feature=5 53 3 289 3 16 5
split_gain=1.17171 1.30126 0.737986 0.474964 0.267278 0.118177 0.0187356
threshold=1.0000000180025095e-35 1.0000000180025095e-35 1.0000000180025095e-35 1.0000000180025095e-35 87.00500000000001 1.0000000180025095e-35 -25.584999999999997
decision_type=10 2 10 2 10 2 10
left_child=1 2 -1 6 -5 -2 -4
right_child=5 -3 3 4 -6 -7 -8
leaf_value=0.0071955190684932927 0.0083646814738001125 0.010208904985338449 0.0057804676182568078 0.0041474929702994615 0.00043269817115894208 0.011510983793572946 0.0045372098032385108
leaf_weight=39 21 31 20 23 72 22 24
leaf_count=39 21 31 20 23 72 22 24
internal_value=0 0.0045366 0.00354873 0.00252553 0.00133207 0.00997442 0.00510233
internal_weight=0 209 178 139 95 43 44
internal_count=252 209 178 139 95 43 44
is_linear=0
shrinkage=0.03


Tree=35
num_leaves=10
num_cat=0
split_feature=4 6 386 4 5 5 3 439 289
split_gain=1.58244 2.29469 0.637782 0.533916 0.468857 0.135636 0.158023 0.115791 0.0943348
threshold=0.27350000000000008 80.38000000000001 1.0000000180025095e-35 0.17600000000000002 -11.949999999999998 -11.949999999999998 150.20000000000002 1.0000000180025095e-35 1.0000000180025095e-35
decision_type=8 10 2 10 8 10 8 2 2
left_child=1 2 -1 -4 -2 6 -6 -8 -7
right_child=4 -3 3 -5 5 8 7 -9 -10
leaf_value=0.010299816686336113 0.00026180283580389289 0.015660163467749955 0.0018298048763112588 0.0073596154928673059 0.0019296719402074811 0.0075026960279792549 0.0063107556536793705 0.0035247215066618958 0.0046559055278670375
leaf_weight=23 27 30 33 30 25 20 25 29 22
leaf_count=23 27 30 33 30 25 20 25 29 22
internal_value=0 0.00851614 0.00602404 0.00446305 0.00383635 0.00463398 0.00390162 0.00481455 0.00601152
internal_weight=0 116 86 63 148 121 79 54 42
internal_count=264 116 86 63 148 121 79 54 42
is_linear=0
shrinkage=0.03


Tree=36
num_leaves=9
num_cat=0
split_feature=289 304 4 7 1 4 525 525
split_gain=0.898396 1.42679 1.00238 0.436328 0.599674 0.266278 0.222006 0.00679207
threshold=1.0000000180025095e-35 1.0000000180025095e-35 0.21800000000000003 1.0000000180025095e-35 inf 0.17600000000000002 1.0000000180025095e-35 1.0000000180025095e-35
decision_type=2 2 8 10 8 10 2 2
left_child=1 2 -1 4 -2 6 -6 -4
right_child=3 -3 7 -5 5 -7 -8 -9
leaf_value=0.014073306580207178 0.0013141636288185653 0.0017630067769566484 0.0071268664965672144 0.0003822737970742686 0.0033641735430022602 0.0085979058430530123 0.0069220124490352135 0.0063638612335281709
leaf_weight=28 38 29 21 29 38 23 27 21
leaf_count=28 38 29 21 29 38 23 27 21
internal_value=0 0.00735843 0.00967654 0.00370006 0.00446367 0.00582369 0.00484205 0.00674536
internal_weight=0 99 70 155 126 88 65 42
internal_count=254 99 70 155 126 88 65 42
is_linear=0
shrinkage=0.03


Tree=37
num_leaves=9
num_cat=0
split_feature=448 0 6 5 2 4 4 16
split_gain=0.764128 0.910904 0.548108 0.66229 0.484844 0.479809 0.438115 0.252816
threshold=1.0000000180025095e-35 1.0000000180025095e-35 70.300000000000011 -11.949999999999998 inf 0.27350000000000008 0.17600000000000002 1.0000000180025095e-35
decision_type=2 10 8 10 8 8 10 2
left_child=6 2 -2 4 -4 -3 7 -1
right_child=1 5 3 -5 -6 -7 -8 -9
leaf_value=0.0027994693328160791 0.0087356493482366199 0.0114981514909728 0.0033510342917918248 1.5742733714080624e-05 0.0081936197914183138 0.0062560169454663984 0.0060368223544210193 -0.001610045248049904
leaf_weight=25 24 33 49 31 30 30 20 22
leaf_count=25 24 33 49 31 30 30 20 22
internal_value=0 0.00602676 0.00462801 0.00373179 0.00518999 0.0090019 0.00231794 0.000735441
internal_weight=0 197 134 110 79 63 67 47
internal_count=264 197 134 110 79 63 67 47
is_linear=0
shrinkage=0.03


Tree=38
num_leaves=8
num_cat=0
split_feature=1 6 53 436 439 0 6
split_gain=1.25887 1.35859 1.54465 0.517454 0.757891 0.0944256 0.0291602
threshold=21.500000000000004 80.38000000000001 1.0000000180025095e-35 1.0000000180025095e-35 1.0000000180025095e-35 1.0000000180025095e-35 1.0000000180025095e-35
decision_type=8 10 2 2 2 8 10
left_child=5 2 3 4 -2 6 -1
right_child=1 -3 -4 -5 -6 -7 -8
leaf_value=0.0030761376344438257 -0.0020078326257961716 0.011755397132132202 0.012224066383205353 0.0073493370270326487 0.0042795296841650265 0.00010253086982464248 0.0015871167127043007
leaf_weight=29 22 35 24 31 80 22 20
leaf_count=29 22 35 24 31 80 22 20
internal_value=0 0.0064106 0.00521909 0.00395503 0.00292343 0.0017353 0.00246837
internal_weight=0 192 157 133 102 71 49
internal_count=263 192 157 133 102 71 49
is_linear=0
shrinkage=0.03


Tree=39
num_leaves=8
num_cat=0
split_feature=5 4 6 53 4 0 16
split_gain=1.10325 0.782201 1.1482 0.667888 0.663657 0.556198 0.249214
threshold=1.0000000180025095e-35 0.21800000000000003 80.38000000000001 1.0000000180025095e-35 0.17600000000000002 1.0000000180025095e-35 1.0000000180025095e-35
decision_type=10 8 8 2 10 8 2
left_child=1 2 -1 5 -2 6 -3
right_child=4 3 -4 -5 -6 -7 -8
leaf_value=0.0029972836095839739 0.014240657077836137 0.0059169220664771274 0.01084015543273251 0.008838364973198622 0.006784652330997315 -0.00038633839555338699 0.0025680998117895795
leaf_weight=28 21 40 42 20 22 33 40
leaf_count=28 21 40 42 20 22 33 40
internal_value=0 0.00513611 0.00770301 0.00378511 0.010426 0.00289072 0.00424251
internal_weight=0 203 70 133 43 113 80
internal_count=246 203 70 133 43 113 80
is_linear=0
shrinkage=0.03


Tree=40
num_leaves=9
num_cat=0
split_feature=53 4 0 5 3 448 525 3
split_gain=1.55358 1.60857 0.891479 0.69788 0.663882 0.279384 0.146937 0.113552
threshold=1.0000000180025095e-35 0.27350000000000008 1.0000000180025095e-35 -25.584999999999997 150.20000000000002 1.0000000180025095e-35 1.0000000180025095e-35 150.20000000000002
decision_type=2 8 8 10 8 2 2 10
left_child=1 2 3 -1 6 -6 -3 -7
right_child=-2 4 -4 -5 5 7 -8 -9
leaf_value=0.0052131121918559077 0.010690958304575792 0.0010639609531922774 0.0026256938092410562 0.011634062275720329 0.0010705879527953444 0.0060067467277985995 -0.0022389064077287914 0.0033083201956003905
leaf_weight=25 38 22 27 39 26 32 27 25
leaf_count=25 38 22 27 39 26 32 27 25
internal_value=0 0.00412855 0.00719725 0.00912588 0.002013 0.0036477 -0.000755986 0.00482323
internal_weight=0 223 91 64 132 83 49 57
internal_count=261 223 91 64 132 83 49 57
is_linear=0
shrinkage=0.03


Tree=41
num_leaves=9
num_cat=0
split_feature=5 7 289 6 439 1 6 5
split_gain=1.26453 0.232479 0.386987 0.321489 0.277598 0.210794 0.163233 0.151562
threshold=1.0000000180025095e-35 0.053450000000000004 1.0000000180025095e-35 70.300000000000011 1.0000000180025095e-35 inf 1.0000000180025095e-35 19.240000000000006
decision_type=10 10 2 10 2 8 10 10
left_child=1 2 4 5 -1 -4 -6 -2
right_child=7 -3 3 -5 6 -7 -8 -9
leaf_value=0.0071778977077337908 0.0070634776353836054 0.0054145969205668994 0.00040797753554735599 -0.0011440605877174272 0.0011802991423755882 0.003528845836117398 0.005013178951106965 0.010626596619508096
leaf_weight=24 22 35 28 27 20 64 20 21
leaf_count=24 22 35 28 27 20 64 20 21
internal_value=0 0.00317445 0.00274601 0.00173428 0.00462717 0.00257902 0.00309674 0.00880361
internal_weight=0 218 183 119 64 92 40 43
internal_count=261 218 183 119 64 92 40 43
is_linear=0
shrinkage=0.03


Tree=42
num_leaves=8
num_cat=0
split_feature=290 304 3 436 3 4 5
split_gain=0.739894 0.996507 0.662877 0.452078 0.845842 0.716334 0.468051
threshold=1.0000000180025095e-35 1.0000000180025095e-35 193.87500000000003 1.0000000180025095e-35 87.00500000000001 0.21800000000000003 inf
decision_type=2 2 10 2 8 10 8
left_child=2 -2 3 4 -1 -6 -5
right_child=1 -3 -4 6 5 -7 -8
leaf_value=0.0086471070691477511 0.011307831576748474 0.0031257291447504289 0.0092690357007086267 0.003385124842503241 0.00049157214833906403 0.0059861440905209238 0.0097190529054829045
leaf_weight=20 37 21 23 21 81 29 21
leaf_count=20 37 21 23 21 81 29 21
internal_value=0 0.00834535 0.00448581 0.00384619 0.00297198 0.00194014 0.00655209
internal_weight=0 58 195 172 130 110 42
internal_count=253 58 195 172 130 110 42
is_linear=0
shrinkage=0.03


Tree=43
num_leaves=10
num_cat=0
split_feature=53 4 16 6 3 16 3 6 14
split_gain=0.954553 0.719191 0.955894 1.10374 0.514855 0.118648 0.030709 0.0240455 0.00599552
threshold=1.0000000180025095e-35 0.27350000000000008 1.0000000180025095e-35 80.38000000000001 150.20000000000002 1.0000000180025095e-35 87.00500000000001 90.25500000000001 1.0000000180025095e-35
decision_type=2 8 2 8 8 2 10 8 2
left_child=1 2 7 -4 6 8 -3 -1 -6
right_child=-2 4 3 -5 5 -7 -8 -9 -10
leaf_value=0.0032607873519882556 0.0094629825568100547 0.0011381224519573152 0.0034152945753356274 0.012090276169844648 0.0056861656866967671 0.002961845325457083 -0.0003126110989150816 0.0017897021987009793 0.0049515929454937574
leaf_weight=20 34 24 22 33 20 37 29 20 20
leaf_count=20 34 24 22 33 20 37 29 20 20
internal_value=0 0.00406986 0.00605395 0.00862028 0.00261994 0.00418628 0.000344325 0.00252524 0.00531888
internal_weight=0 225 95 55 130 77 53 40 40
internal_count=259 225 95 55 130 77 53 40 40
is_linear=0
shrinkage=0.03


Tree=44
num_leaves=10
num_cat=0
split_feature=289 304 1 4 1 16 439 2 2
split_gain=0.913227 1.78846 1.17014 0.495314 0.359346 0.588149 1.03694 0.294167 0.179569
threshold=1.0000000180025095e-35 1.0000000180025095e-35 21.500000000000004 0.21800000000000003 inf 1.0000000180025095e-35 1.0000000180025095e-35 inf 1.0000000180025095e-35
decision_type=2 2 8 8 8 2 2 8 8
left_child=1 2 -1 -4 7 8 -7 -2 -6
right_child=4 -3 3 -5 5 6 -8 -9 -10
leaf_value=0.0039299244832779676 0.0033576691203883713 0.00080863085508878739 0.015874703228473664 0.009680089366693909 0.00529912370774481 -0.0016155722679506088 0.006276563563564372 -0.0013394092515643153 0.0089979669478322775
leaf_weight=21 28 28 21 26 27 29 31 21 21
leaf_count=21 28 28 21 26 27 29 31 21 21
internal_value=0 0.0071898 0.00981735 0.0124479 0.00347543 0.00444218 0.00246203 0.00134464 0.00691737
internal_weight=0 96 68 47 157 108 60 49 48
internal_count=253 96 68 47 157 108 60 49 48
is_linear=0
shrinkage=0.03


end of trees

feature_importances:
feature3=42
feature5=39
feature6=34
feature4=30
feature16=26
feature53=21
feature439=20
feature1=16
feature2=16
feature448=13
feature289=12
feature304=11
feature525=11
feature0=9
feature290=8
feature436=8
feature51=6
feature14=4
feature7=3
feature35=3
feature386=3
feature302=2
feature18=1
feature203=1
feature445=1
feature464=1
feature524=1

parameters:
[boosting: gbdt]
[objective: regression]
[metric: rmse]
[tree_learner: serial]
[device_type: cpu]
[data: ]
[valid: ]
[num_iterations: 2000]
[learning_rate: 0.03]
[num_leaves: 12]
[num_threads: 12]
[deterministic: 0]
[force_col_wise: 0]
[force_row_wise: 0]
[histogram_pool_size: -1]
[max_depth: 5]
[min_data_in_leaf: 20]
[min_sum_hessian_in_leaf: 0.001]
[bagging_fraction: 0.7]
[pos_bagging_fraction: 1]
[neg_bagging_fraction: 1]
[bagging_freq: 1]
[bagging_seed: 400]
[feature_fraction: 0.7]
[feature_fraction_bynode: 1]
[feature_fraction_seed: 30056]
[extra_trees: 0]
[extra_seed: 12879]
[early_stopping_round: 300]
[first_metric_only: 0]
[max_delta_step: 0]
[lambda_l1: 0]
[lambda_l2: 0]
[linear_lambda: 0]
[min_gain_to_split: 0]
[drop_rate: 0.1]
[max_drop: 50]
[skip_drop: 0.5]
[xgboost_dart_mode: 0]
[uniform_drop: 0]
[drop_seed: 17869]
[top_rate: 0.2]
[other_rate: 0.1]
[min_data_per_group: 100]
[max_cat_threshold: 32]
[cat_l2: 10]
[cat_smooth: 10]
[max_cat_to_onehot: 4]
[top_k: 20]
[monotone_constraints: ]
[monotone_constraints_method: basic]
[monotone_penalty: 0]
[feature_contri: ]
[forcedsplits_filename: ]
[refit_decay_rate: 0.9]
[cegb_tradeoff: 1]
[cegb_penalty_split: 0]
[cegb_penalty_feature_lazy: ]
[cegb_penalty_feature_coupled: ]
[path_smooth: 0]
[interaction_constraints: ]
[verbosity: -1]
[saved_feature_importance_type: 0]
[linear_tree: 0]
[max_bin: 7]
[max_bin_by_feature: ]
[min_data_in_bin: 3]
[bin_construct_sample_cnt: 200000]
[data_random_seed: 175]
[is_enable_sparse: 1]
[enable_bundle: 1]
[use_missing: 1]
[zero_as_missing: 0]
[feature_pre_filter: 1]
[pre_partition: 0]
[two_round: 0]
[header: 0]
[label_column: ]
[weight_column: ]
[group_column: ]
[ignore_column: ]
[categorical_feature: ]
[forcedbins_filename: ]
[precise_float_parser: 0]
[objective_seed: 16083]
[num_class: 1]
[is_unbalance: 0]
[scale_pos_weight: 1]
[sigmoid: 1]
[boost_from_average: 0]
[reg_sqrt: 0]
[alpha: 0.9]
[fair_c: 1]
[poisson_max_delta_step: 0.7]
[tweedie_variance_power: 1.5]
[lambdarank_truncation_level: 30]
[lambdarank_norm: 1]
[label_gain: ]
[eval_at: ]
[multi_error_top_k: 1]
[auc_mu_weights: ]
[num_machines: 1]
[local_listen_port: 12400]
[time_out: 120]
[machine_list_filename: ]
[machines: ]
[gpu_platform_id: -1]
[gpu_device_id: -1]
[gpu_use_dp: 0]
[num_gpu: 1]

end of parameters

pandas_categorical:[]
