tree
version=v3
num_class=1
num_tree_per_iteration=1
label_index=0
max_feature_idx=525
objective=regression
feature_names=feature0 feature1 feature2 feature3 feature4 feature5 feature6 feature7 feature8 feature9 feature10 feature11 feature12 feature13 feature14 feature15 feature16 feature17 feature18 feature19 feature20 feature21 feature22 feature23 feature24 feature25 feature26 feature27 feature28 feature29 feature30 feature31 feature32 feature33 feature34 feature35 feature36 feature37 feature38 feature39 feature40 feature41 feature42 feature43 feature44 feature45 feature46 feature47 feature48 feature49 feature50 feature51 feature52 feature53 feature54 feature55 feature56 feature57 feature58 feature59 feature60 feature61 feature62 feature63 feature64 feature65 feature66 feature67 feature68 feature69 feature70 feature71 feature72 feature73 feature74 feature75 feature76 feature77 feature78 feature79 feature80 feature81 feature82 feature83 feature84 feature85 feature86 feature87 feature88 feature89 feature90 feature91 feature92 feature93 feature94 feature95 feature96 feature97 feature98 feature99 feature100 feature101 feature102 feature103 feature104 feature105 feature106 feature107 feature108 feature109 feature110 feature111 feature112 feature113 feature114 feature115 feature116 feature117 feature118 feature119 feature120 feature121 feature122 feature123 feature124 feature125 feature126 feature127 feature128 feature129 feature130 feature131 feature132 feature133 feature134 feature135 feature136 feature137 feature138 feature139 feature140 feature141 feature142 feature143 feature144 feature145 feature146 feature147 feature148 feature149 feature150 feature151 feature152 feature153 feature154 feature155 feature156 feature157 feature158 feature159 feature160 feature161 feature162 feature163 feature164 feature165 feature166 feature167 feature168 feature169 feature170 feature171 feature172 feature173 feature174 feature175 feature176 feature177 feature178 feature179 feature180 feature181 feature182 feature183 feature184 feature185 feature186 feature187 feature188 feature189 feature190 feature191 feature192 feature193 feature194 feature195 feature196 feature197 feature198 feature199 feature200 feature201 feature202 feature203 feature204 feature205 feature206 feature207 feature208 feature209 feature210 feature211 feature212 feature213 feature214 feature215 feature216 feature217 feature218 feature219 feature220 feature221 feature222 feature223 feature224 feature225 feature226 feature227 feature228 feature229 feature230 feature231 feature232 feature233 feature234 feature235 feature236 feature237 feature238 feature239 feature240 feature241 feature242 feature243 feature244 feature245 feature246 feature247 feature248 feature249 feature250 feature251 feature252 feature253 feature254 feature255 feature256 feature257 feature258 feature259 feature260 feature261 feature262 feature263 feature264 feature265 feature266 feature267 feature268 feature269 feature270 feature271 feature272 feature273 feature274 feature275 feature276 feature277 feature278 feature279 feature280 feature281 feature282 feature283 feature284 feature285 feature286 feature287 feature288 feature289 feature290 feature291 feature292 feature293 feature294 feature295 feature296 feature297 feature298 feature299 feature300 feature301 feature302 feature303 feature304 feature305 feature306 feature307 feature308 feature309 feature310 feature311 feature312 feature313 feature314 feature315 feature316 feature317 feature318 feature319 feature320 feature321 feature322 feature323 feature324 feature325 feature326 feature327 feature328 feature329 feature330 feature331 feature332 feature333 feature334 feature335 feature336 feature337 feature338 feature339 feature340 feature341 feature342 feature343 feature344 feature345 feature346 feature347 feature348 feature349 feature350 feature351 feature352 feature353 feature354 feature355 feature356 feature357 feature358 feature359 feature360 feature361 feature362 feature363 feature364 feature365 feature366 feature367 feature368 feature369 feature370 feature371 feature372 feature373 feature374 feature375 feature376 feature377 feature378 feature379 feature380 feature381 feature382 feature383 feature384 feature385 feature386 feature387 feature388 feature389 feature390 feature391 feature392 feature393 feature394 feature395 feature396 feature397 feature398 feature399 feature400 feature401 feature402 feature403 feature404 feature405 feature406 feature407 feature408 feature409 feature410 feature411 feature412 feature413 feature414 feature415 feature416 feature417 feature418 feature419 feature420 feature421 feature422 feature423 feature424 feature425 feature426 feature427 feature428 feature429 feature430 feature431 feature432 feature433 feature434 feature435 feature436 feature437 feature438 feature439 feature440 feature441 feature442 feature443 feature444 feature445 feature446 feature447 feature448 feature449 feature450 feature451 feature452 feature453 feature454 feature455 feature456 feature457 feature458 feature459 feature460 feature461 feature462 feature463 feature464 feature465 feature466 feature467 feature468 feature469 feature470 feature471 feature472 feature473 feature474 feature475 feature476 feature477 feature478 feature479 feature480 feature481 feature482 feature483 feature484 feature485 feature486 feature487 feature488 feature489 feature490 feature491 feature492 feature493 feature494 feature495 feature496 feature497 feature498 feature499 feature500 feature501 feature502 feature503 feature504 feature505 feature506 feature507 feature508 feature509 feature510 feature511 feature512 feature513 feature514 feature515 feature516 feature517 feature518 feature519 feature520 feature521 feature522 feature523 feature524 feature525
feature_infos=[0:1] [0:100] [0:1] [4.7300000000000004:3170] [0.012999999999999999:18.600000000000001] [-64.299999999999997:48.450000000000003] [0.46600000000000003:99.799999999999997] [0.0275:78.299999999999997] [0:46] none none none none none [0:1] none [0:1] none [0:1] none none none none none none none none none none none none none none none none [0:1] none none none none none none [0:1] none none none none none none none none [0:1] none [0:1] none none none none none none none none none none none none none none none none none none none none none none none none none none none none none none none none none none none none none none none none none none none none none none none none none none none none none none none none none none none none none none none none none none none none none none none none none none none none none none none none none none none none none none none none none none none none none none none none none none none none none none none none none none none none none none none none none none none none none none none none none none none none none none none none none none none none none none none none none none none none none none none none none none none none none [0:1] none none none none none none none none none none none none none none none none none none none none none none none none none none none none none none none none none none none none none none none none none none none none none none none none none none none none none none none none none none none none none none none none none none none none none none none none none none none none none none none none none none [0:1] none none [0:1] [0:1] none none none none none none none none none none none [0:1] none [0:1] none [0:1] none none none none none none none none none none none none none none none none none none none none none none none none none none none none none none none none none none none none none none none none none none none none none none none none none none none none none none none none none none none none none none none none none none none none none none none none none none none none none none none [0:1] none none none none none none none none none none none none none none none none none none none none none none none none none none none none none none none none none none none none none none none none none none none none none none none none none [0:1] none none [0:1] [0:1] none none none none [0:1] none none [0:1] none none none none none none none none none none none none none none none [0:1] none [0:1] none none none none none none none none none none none none none none none none none none none none none none none none none none none none none none none none none none none none none none none none none none none none none none none none none none none none none none none none none [0:1] [0:1]
tree_sizes=977 885 983 986 1000 895 741 744 1002 990 919 869 902 908 910 898 983 813 914 994 1091 979 998 901 748 738 839 749 834 893 903 930 753 1012 997 996 898 826 911 1009 918 1023 746 930 891 760 933 912 756 836 840 907 1003 1008 757 902 990 1003 996 920 838 935 983 906 902 928 829 835 926 910 666 925 748 923 665 834 837 748 752 667 766 1095 923 916 850 1011 1019 836 715 1032 751 752 929 926 919 753 754 833 853 678 742 839 941 844 822 834 679 919 1015 1037 1009 902 933 762 838 839 936 761 1014 1008 1029 825 811 761 930 816 765 1011 846 1019 1102 759 856 843 758 849 938 758 821 819 843 1012 1115 942 1036 850 758 672 771 1000 925 837 815 1001 1018 1020 1008 939 829 845 931 1025 1014 931 923 760 924 1027 927 1016 924 929 753 862 924 925 663 912 1026 938 943 751 1026 840 938 842 1019 837 1003 1008 928 1028 852 766 863 906 932 992 661 1024 759 1041 826 676 1019 1016 1013 854 935 906 812 840 834 850 841 933 929 927 843 945 994 1092 850 852 766 920 894 948 932 836 945 1005 943 846 831 930 937 766 918 673 850 1008 928 1021 1019 1023 911 766 927 924 935 934 995 1031 736 920 946 1028 1006 829 843 880 850 854 831 763 829 932 770 1008 826 941 922 1016 933 833 832 989 1030 935 993 845 852 761 998 912 931 1016 838 925

Tree=0
num_leaves=10
num_cat=0
split_feature=51 5 4 3 5 4 7 436 3
split_gain=3.79426 1.16785 1.08078 0.877282 0.472688 0.601417 0.417574 0.369969 0.309772
threshold=1.0000000180025095e-35 -11.749999999999998 0.26950000000000007 110.55000000000003 -25.049999999999997 0.17600000000000002 1.0000000180025095e-35 1.0000000180025095e-35 1.0000000180025095e-35
decision_type=2 8 8 8 8 10 10 2 10
left_child=1 -1 4 -3 -2 -6 7 8 -4
right_child=2 3 6 -5 5 -7 -8 -9 -10
leaf_value=0.016219512647949158 0.012143087016418575 0.028940095262868063 0.008154465590603649 0.020888772835505418 0.014182452936139371 0.020262098216917365 0.0075223501883447163 0.015893524143844841 0.012859740957398624
leaf_weight=24 20 21 20 29 27 32 20 20 34
leaf_count=24 20 21 20 29 27 32 20 20 34
internal_value=0 0.0216593 0.0135423 0.0242703 0.0161288 0.0174799 0.0113685 0.012408 0.011117
internal_weight=0 74 173 50 79 59 94 74 54
internal_count=247 74 173 50 79 59 94 74 54
is_linear=0
shrinkage=0.03


Tree=1
num_leaves=9
num_cat=0
split_feature=290 304 6 2 3 5 525 16
split_gain=4.18784 1.73469 0.82502 0.484103 0.49379 0.356372 0.288492 0.11388
threshold=1.0000000180025095e-35 1.0000000180025095e-35 80.38000000000001 inf 110.55000000000003 -1.0000000180025095e-35 1.0000000180025095e-35 1.0000000180025095e-35
decision_type=2 2 10 8 8 8 2 2
left_child=2 6 3 4 -1 -6 -2 -5
right_child=1 -3 -4 7 5 -7 -8 -9
leaf_value=0.0091160136491060251 0.026698180523514747 0.015494131371378898 0.016530196922166007 0.010197147224945101 0.01139352842958437 0.015854179843772725 0.021864146523177624 0.0073282710257917636
leaf_weight=25 25 33 35 33 27 40 20 20
leaf_count=25 25 33 35 33 27 40 20 20
internal_value=0 0.0207185 0.0123962 0.0113984 0.0127141 0.0140566 0.0245497 0.00911455
internal_weight=0 78 180 145 92 67 45 53
internal_count=258 78 180 145 92 67 45 53
is_linear=0
shrinkage=0.03


Tree=2
num_leaves=10
num_cat=0
split_feature=290 304 5 4 0 3 4 3 16
split_gain=6.07478 2.97941 1.14418 0.745676 1.01089 0.724585 0.252319 0.187038 0.117646
threshold=1.0000000180025095e-35 1.0000000180025095e-35 -25.049999999999997 0.26950000000000007 1.0000000180025095e-35 110.55000000000003 0.12250000000000001 188.25000000000003 1.0000000180025095e-35
decision_type=2 2 10 8 10 10 10 8 2
left_child=2 5 6 4 -4 -2 7 -1 -9
right_child=1 -3 3 -5 -6 -7 -8 8 -10
leaf_value=0.012646220318339247 0.031212460438587837 0.014678678770017412 0.020557187212438419 0.010785238676305327 0.012029187258502298 0.023581890761852263 0.0069303846266120664 0.0081051460085436698 0.011113137713929808
leaf_weight=27 21 28 29 28 22 24 21 25 22
leaf_count=27 21 28 29 28 22 24 21 25 22
internal_value=0 0.0223621 0.0120511 0.0147188 0.0168784 0.0271428 0.00983267 0.0106563 0.00951314
internal_weight=0 73 174 79 51 45 95 74 47
internal_count=247 73 174 79 51 45 95 74 47
is_linear=0
shrinkage=0.03


Tree=3
num_leaves=10
num_cat=0
split_feature=289 5 304 439 6 445 448 3 6
split_gain=3.92305 1.10725 1.09181 1.81431 0.85757 0.538977 0.342919 0.26472 0.243257
threshold=1.0000000180025095e-35 -25.049999999999997 1.0000000180025095e-35 1.0000000180025095e-35 58.150000000000013 1.0000000180025095e-35 1.0000000180025095e-35 188.25000000000003 90.25500000000001
decision_type=2 10 2 2 10 2 2 8 8
left_child=2 6 3 -1 -5 8 -2 -8 -3
right_child=1 5 -4 4 -6 -7 7 -9 -10
leaf_value=0.028732203058898446 0.0066683835995894284 0.014661807464953098 0.014483244714581154 0.014713996885151698 0.022788951605558393 0.018381023593246937 0.0088128862429452549 0.012905506857438014 0.010670878137295533
leaf_weight=20 31 27 33 29 20 20 33 25 28
leaf_count=20 31 27 33 29 20 20 33 25 28
internal_value=0 0.0114784 0.0189713 0.0211178 0.0180099 0.0141637 0.00921554 0.0105769 0.0126301
internal_weight=0 164 102 69 49 75 89 58 55
internal_count=266 164 102 69 49 75 89 58 55
is_linear=0
shrinkage=0.03


Tree=4
num_leaves=10
num_cat=0
split_feature=289 304 439 3 16 4 439 448 3
split_gain=3.63209 1.27945 1.52316 0.899604 0.371031 0.327088 0.715871 0.570344 0.426258
threshold=1.0000000180025095e-35 1.0000000180025095e-35 1.0000000180025095e-35 188.25000000000003 1.0000000180025095e-35 0.26950000000000007 1.0000000180025095e-35 1.0000000180025095e-35 1.0000000180025095e-35
decision_type=2 2 2 10 2 8 2 2 10
left_child=1 2 -1 5 -4 6 -2 -7 -9
right_child=3 -3 4 -5 -6 7 -8 8 -10
leaf_value=0.028255977981856889 0.008401089811697602 0.014086485384032128 0.016043844584701584 0.017844994469429363 0.021212427252531051 0.0060466644968837496 0.015636285310029051 0.014864831202264343 0.0093642195650318165
leaf_weight=21 20 30 25 20 25 25 32 21 32
leaf_count=21 20 30 25 20 25 25 32 21 32
internal_value=0 0.019281 0.0214758 0.0119218 0.0186281 0.0110105 0.0128535 0.00978183 0.0115437
internal_weight=0 101 71 150 50 130 52 78 53
internal_count=251 101 71 150 50 130 52 78 53
is_linear=0
shrinkage=0.03


Tree=5
num_leaves=9
num_cat=0
split_feature=289 304 5 448 5 16 439 2
split_gain=3.51579 2.54608 1.71604 0.588623 0.910071 0.722113 0.650449 0.0916387
threshold=1.0000000180025095e-35 1.0000000180025095e-35 -25.049999999999997 1.0000000180025095e-35 -25.049999999999997 1.0000000180025095e-35 1.0000000180025095e-35 inf
decision_type=2 2 10 2 10 2 2 8
left_child=1 2 -1 4 -2 7 -7 -5
right_child=3 -3 -4 5 -6 6 -8 -9
leaf_value=0.016866102330386639 0.0043577891746535901 0.011805347853463473 0.026853330882440785 0.010604656913450786 0.012723954568871043 0.011138835340738297 0.017242358472536908 0.0077672082167118787
leaf_weight=30 25 34 32 21 22 30 33 20
leaf_count=30 25 34 32 21 22 30 33 20
internal_value=0 0.0184028 0.0220208 0.0110601 0.00827387 0.0123193 0.0143359 0.00922054
internal_weight=0 96 62 151 47 104 63 41
internal_count=247 96 62 151 47 104 63 41
is_linear=0
shrinkage=0.03


Tree=6
num_leaves=7
num_cat=0
split_feature=290 3 3 464 5 439
split_gain=2.19421 1.13696 0.490032 0.209256 0.186598 0.243018
threshold=1.0000000180025095e-35 188.25000000000003 146.25000000000003 1.0000000180025095e-35 -11.749999999999998 1.0000000180025095e-35
decision_type=2 10 10 2 10 2
left_child=1 3 -2 4 5 -1
right_child=2 -3 -4 -5 -6 -7
leaf_value=0.0071753859855234626 0.019548831426195405 0.016192876105346986 0.014318433254957198 0.012753414485603571 0.011379592020461774 0.010160457760988114
leaf_weight=45 38 31 28 20 34 54
leaf_count=45 38 31 28 20 34 54
internal_value=0 0.0109539 0.0173299 0.00989236 0.00946213 0.00880361
internal_weight=0 184 66 153 133 99
internal_count=250 184 66 153 133 99
is_linear=0
shrinkage=0.03


Tree=7
num_leaves=7
num_cat=0
split_feature=53 464 5 4 448 5
split_gain=2.80005 0.833844 0.827528 0.60649 0.811576 0.202086
threshold=1.0000000180025095e-35 1.0000000180025095e-35 1.0000000180025095e-35 0.17600000000000002 1.0000000180025095e-35 -25.049999999999997
decision_type=2 2 10 10 2 10
left_child=1 2 3 4 -1 -5
right_child=-2 -3 -4 5 -6 -7
leaf_value=0.0051331215131689206 0.020730961727330813 0.01653715715711487 0.015829729757304969 0.011368107653182484 0.010685540681837925 0.015491409447044135
leaf_weight=33 37 29 28 23 84 20
leaf_count=33 37 29 28 23 84 20
internal_value=0 0.0118022 0.0110718 0.0102392 0.00911947 0.0132859
internal_weight=0 217 188 160 117 43
internal_count=254 217 188 160 117 43
is_linear=0
shrinkage=0.03


Tree=8
num_leaves=10
num_cat=0
split_feature=51 304 0 439 16 16 2 4 0
split_gain=2.16897 1.81185 0.847205 0.669726 1.89226 1.07308 0.53657 0.216341 0.0894758
threshold=1.0000000180025095e-35 1.0000000180025095e-35 1.0000000180025095e-35 1.0000000180025095e-35 1.0000000180025095e-35 1.0000000180025095e-35 1.0000000180025095e-35 1.0000000180025095e-35 1.0000000180025095e-35
decision_type=2 2 10 2 2 2 8 10 8
left_child=1 2 -1 5 8 -2 -6 -7 -5
right_child=3 -3 -4 4 6 7 -8 -9 -10
leaf_value=0.023324980936371361 0.012112285784678533 0.0096989038556814199 0.015325936507433652 0.0060395273669726314 0.013185780567045394 0.0070349483378231523 0.01922962088137865 0.0027779417688196355 0.0086869670483283694
leaf_weight=26 32 25 22 27 39 21 20 22 20
leaf_count=26 32 25 22 27 39 21 20 22 20
internal_value=0 0.0162478 0.0196588 0.010122 0.011657 0.00795256 0.0152345 0.00485694 0.0071661
internal_weight=0 73 48 181 106 75 59 43 47
internal_count=254 73 48 181 106 75 59 43 47
is_linear=0
shrinkage=0.03


Tree=9
num_leaves=10
num_cat=0
split_feature=51 304 6 3 4 6 3 4 439
split_gain=3.8629 2.88283 0.76687 0.445575 0.12309 0.272365 0.195848 0.0403731 0.020803
threshold=1.0000000180025095e-35 1.0000000180025095e-35 80.38000000000001 188.25000000000003 0.17600000000000002 58.150000000000013 84.170000000000016 1.0000000180025095e-35 1.0000000180025095e-35
decision_type=2 2 8 10 10 10 10 10 2
left_child=1 2 -1 4 6 -6 8 -8 -2
right_child=3 -3 -4 -5 5 -7 7 -9 -10
leaf_value=0.018223279026675629 0.0091252300509347996 0.010092090651806856 0.025833633430302143 0.012989453925666482 0.0079259085925295954 0.012712782890252445 0.0062440821947529913 0.0080452680547854726 0.010243070773093121
leaf_weight=22 29 27 26 33 20 23 24 21 31
leaf_count=22 29 27 26 33 20 23 24 21 31
internal_value=0 0.0179343 0.0223456 0.00983724 0.00913438 0.0104863 0.00858072 0.00708464 0.00970278
internal_weight=0 75 48 181 148 43 105 45 60
internal_count=256 75 48 181 148 43 105 45 60
is_linear=0
shrinkage=0.03


Tree=10
num_leaves=9
num_cat=0
split_feature=290 5 304 5 5 448 436 0
split_gain=2.17622 1.11797 0.905564 0.22986 0.350592 0.269707 0.178145 0.00989246
threshold=1.0000000180025095e-35 15.755000000000001 1.0000000180025095e-35 -25.049999999999997 -11.749999999999998 1.0000000180025095e-35 1.0000000180025095e-35 1.0000000180025095e-35
decision_type=2 10 2 10 10 2 2 10
left_child=1 3 -2 5 -5 -1 -7 -6
right_child=2 -3 -4 4 7 6 -8 -9
leaf_value=0.0065731235653967469 0.019074200767685068 0.017000676378607749 0.012379915201736072 0.013525872487160895 0.0086297550431918349 0.010825643946578645 0.0075920182628476107 0.0095733234921935931
leaf_weight=37 44 20 31 27 20 46 23 20
leaf_count=37 44 20 31 27 20 46 23 20
internal_value=0 0.0102854 0.0163072 0.00950903 0.0108845 0.00863964 0.00974777 0.00910154
internal_weight=0 193 75 173 67 106 69 40
internal_count=268 193 75 173 67 106 69 40
is_linear=0
shrinkage=0.03


Tree=11
num_leaves=9
num_cat=0
split_feature=306 289 2 6 2 3 4 16
split_gain=2.77397 0.80196 1.26518 0.273222 0.261466 0.289 0.488498 0.184311
threshold=1.0000000180025095e-35 1.0000000180025095e-35 inf 58.150000000000013 inf 84.170000000000016 0.17600000000000002 1.0000000180025095e-35
decision_type=2 2 8 10 8 10 10 2
left_child=1 2 3 -1 5 -3 -7 -6
right_child=-2 4 -4 -5 7 6 -8 -9
leaf_value=0.0084449745537354959 0.020576913737459106 0.011727091209454969 0.018201882208333065 0.01275775671377778 0.0083036148715764282 0.0062583249417511979 0.011745249554514885 0.0046391450464060265
leaf_weight=39 24 33 23 20 30 40 23 21
leaf_count=39 24 33 23 20 30 40 23 21
internal_value=0 0.00985655 0.0122336 0.00990693 0.0085306 0.00945279 0.00826149 0.00679472
internal_weight=0 229 82 59 147 96 63 51
internal_count=253 229 82 59 147 96 63 51
is_linear=0
shrinkage=0.03


Tree=12
num_leaves=9
num_cat=0
split_feature=53 4 7 6 5 525 2 2
split_gain=1.75411 1.43814 1.60639 0.587927 0.362294 0.306742 0.201248 0.114803
threshold=1.0000000180025095e-35 0.26950000000000007 16.405000000000005 90.25500000000001 -11.749999999999998 1.0000000180025095e-35 1.0000000180025095e-35 1.0000000180025095e-35
decision_type=2 8 8 8 10 2 8 8
left_child=1 2 -1 -4 5 7 -7 -3
right_child=-2 4 3 -5 -6 6 -8 -9
leaf_value=0.020602927588624878 0.01799549593042684 0.0077912050654942331 0.0086636545423131716 0.013980205620949466 0.011509847732053862 0.0076154230611229475 0.0034574136512819675 0.010428963450507986
leaf_weight=21 32 33 39 36 27 22 20 27
leaf_count=21 32 33 39 36 27 22 20 27
internal_value=0 0.0104888 0.0132691 0.0112156 0.00841973 0.00760176 0.00563542 0.0089782
internal_weight=0 225 96 75 129 102 42 60
internal_count=257 225 96 75 129 102 42 60
is_linear=0
shrinkage=0.03


Tree=13
num_leaves=9
num_cat=0
split_feature=290 304 3 4 6 6 448 5
split_gain=1.88173 1.59104 0.448282 0.464273 0.469002 0.34057 0.273584 0.193354
threshold=1.0000000180025095e-35 1.0000000180025095e-35 188.25000000000003 0.17600000000000002 90.25500000000001 90.25500000000001 1.0000000180025095e-35 -1.0000000180025095e-35
decision_type=2 2 10 10 8 8 2 8
left_child=2 5 3 6 -5 -2 -1 -8
right_child=1 -3 -4 4 -6 -7 7 -9
leaf_value=0.0056023560779018171 0.015827521266415713 0.0095979052542805154 0.013283331915736198 0.0083136406414476872 0.014732767475768923 0.021180305659932931 0.0068071443972113578 0.0099097264076408453
leaf_weight=37 20 29 22 21 20 23 29 48
leaf_count=37 20 29 22 21 20 23 29 48
internal_value=0 0.0150283 0.00927591 0.00870712 0.0114449 0.0186906 0.00772247 0.00874122
internal_weight=0 72 177 155 41 43 114 77
internal_count=249 72 177 155 41 43 114 77
is_linear=0
shrinkage=0.03


Tree=14
num_leaves=9
num_cat=0
split_feature=289 304 439 6 4 439 448 3
split_gain=2.58342 1.37008 2.04825 1.17284 0.395449 0.618116 0.109709 0.215626
threshold=1.0000000180025095e-35 1.0000000180025095e-35 1.0000000180025095e-35 58.150000000000013 0.26950000000000007 1.0000000180025095e-35 1.0000000180025095e-35 146.25000000000003
decision_type=2 2 2 10 8 2 2 8
left_child=1 2 -1 -4 5 -2 -6 -8
right_child=4 -3 3 -5 6 -7 7 -9
leaf_value=0.024804498009722339 0.0070049953018315137 0.010008481514329712 0.010068380473181605 0.019447251208126543 0.0059317664762332644 0.013040851975564618 0.0060326959893107412 0.0096594316896516826
leaf_weight=22 26 36 30 20 29 37 25 36
leaf_count=22 26 36 30 20 29 37 25 36
internal_value=0 0.014787 0.0171763 0.0138199 0.00872693 0.0105499 0.00745087 0.00817306
internal_weight=0 108 72 50 153 63 90 61
internal_count=261 108 72 50 153 63 90 61
is_linear=0
shrinkage=0.03


Tree=15
num_leaves=9
num_cat=0
split_feature=290 304 6 6 2 439 448 525
split_gain=2.33352 1.55551 0.306287 0.271426 0.203701 0.170702 0.107724 0.0766236
threshold=1.0000000180025095e-35 1.0000000180025095e-35 80.38000000000001 80.38000000000001 inf 1.0000000180025095e-35 1.0000000180025095e-35 1.0000000180025095e-35
decision_type=2 2 10 8 8 2 2 2
left_child=2 3 4 -2 5 -1 -6 -7
right_child=1 -3 -4 -5 6 7 -8 -9
leaf_value=0.0065193141138713273 0.015959077994339169 0.0093817498425728292 0.010909104074742043 0.020842384380354944 0.0044519551457571135 0.0084574910493668259 0.0072534679193049668 0.010582620435251065
leaf_weight=28 20 29 31 21 21 37 30 26
leaf_count=28 20 29 31 21 21 37 30 26
internal_value=0 0.0146992 0.00820748 0.0184603 0.00761768 0.00846831 0.0060999 0.00933453
internal_weight=0 70 173 41 142 91 51 63
internal_count=243 70 173 41 142 91 51 63
is_linear=0
shrinkage=0.03


Tree=16
num_leaves=10
num_cat=0
split_feature=290 304 4 1 4 4 3 439 16
split_gain=1.42701 0.968598 0.500772 0.230031 0.228052 0.175771 0.193913 0.166913 0.0760196
threshold=1.0000000180025095e-35 1.0000000180025095e-35 0.17600000000000002 inf 0.12250000000000001 0.26950000000000007 146.25000000000003 1.0000000180025095e-35 1.0000000180025095e-35
decision_type=2 2 10 8 10 10 10 2 2
left_child=2 4 3 -1 -2 6 -4 -5 -9
right_child=1 -3 5 7 -6 -7 -8 8 -10
leaf_value=0.0045837942259095146 0.017921161180628198 0.0085737423569863212 0.013006467537156173 0.0059786994592286643 0.013444999850031308 0.0075772421930118336 0.0090590253498521629 0.0075477521248161795 0.0099961575391768875
leaf_weight=36 21 29 21 38 20 21 24 25 21
leaf_count=36 21 29 21 38 20 21 24 25 21
internal_value=0 0.0127698 0.0077446 0.00659017 0.0157377 0.00984355 0.0109012 0.00745004 0.0086655
internal_weight=0 70 186 120 41 66 45 84 46
internal_count=256 70 186 120 41 66 45 84 46
is_linear=0
shrinkage=0.03


Tree=17
num_leaves=8
num_cat=0
split_feature=290 304 1 7 448 3 3
split_gain=1.24919 1.07305 0.309147 0.417246 0.609862 0.434579 0.0911929
threshold=1.0000000180025095e-35 1.0000000180025095e-35 inf 1.0000000180025095e-35 1.0000000180025095e-35 84.170000000000016 110.55000000000003
decision_type=2 2 8 10 2 10 10
left_child=2 -2 6 4 -4 -6 -1
right_child=1 -3 3 -5 5 -7 -8
leaf_value=0.0043643964489921928 0.016184878145098027 0.0085308613425877401 0.005790671694421155 0.004429748333059251 0.013287388237804407 0.0087141954203446698 0.0069267959922552106
leaf_weight=25 34 32 34 20 32 45 25
leaf_count=25 34 32 34 20 32 45 25
internal_value=0 0.0124738 0.00765245 0.00841842 0.0091371 0.0106147 0.0056456
internal_weight=0 66 181 131 111 77 50
internal_count=247 66 181 131 111 77 50
is_linear=0
shrinkage=0.03


Tree=18
num_leaves=9
num_cat=0
split_feature=289 4 6 4 448 439 4 16
split_gain=0.745736 0.369208 0.351157 0.285621 0.221141 0.206306 0.143025 0.0950551
threshold=1.0000000180025095e-35 0.17600000000000002 80.38000000000001 0.26950000000000007 1.0000000180025095e-35 1.0000000180025095e-35 0.17600000000000002 1.0000000180025095e-35
decision_type=2 8 8 8 2 2 10 2
left_child=1 -1 -3 6 -5 -4 -2 -6
right_child=3 2 5 4 7 -7 -8 -9
leaf_value=0.014358649956328528 0.0075141163284424689 0.0071986731793731449 0.013307193505391479 0.0046807052668284728 0.0087875178360169934 0.0093238777718083424 0.010301536135753062 0.0064906009656431922
leaf_weight=21 30 28 25 37 31 22 37 34
leaf_count=21 30 28 25 37 31 22 37 34
internal_value=0 0.0108427 0.00985824 0.00753172 0.00653215 0.0114427 0.00905344 0.00758605
internal_weight=0 96 75 169 102 47 67 65
internal_count=265 96 75 169 102 47 67 65
is_linear=0
shrinkage=0.03


Tree=19
num_leaves=10
num_cat=0
split_feature=51 4 304 3 4 525 4 2 3
split_gain=2.08804 1.46227 1.27316 0.393413 0.352607 0.328557 0.22789 0.0633633 0.0139577
threshold=1.0000000180025095e-35 0.26950000000000007 1.0000000180025095e-35 188.25000000000003 0.17600000000000002 1.0000000180025095e-35 0.26950000000000007 1.0000000180025095e-35 84.170000000000016
decision_type=2 8 2 10 10 2 8 8 10
left_child=2 4 6 5 -2 7 -1 -3 -7
right_child=1 3 -4 -5 -6 8 -8 -9 -10
leaf_value=0.014623753298074006 0.0088081774061545721 0.0056752772789332084 0.0087294905390269267 0.0093329531521252965 0.013445956782670691 0.0023988754282306349 0.01875797394197434 0.0077960474150521415 0.0035062537137418985
leaf_weight=24 25 32 29 23 36 21 24 21 20
leaf_count=24 25 32 29 23 36 21 24 21 20
internal_value=0 0.00777946 0.0136924 0.00581611 0.0115452 0.00495561 0.0166909 0.00651558 0.00293906
internal_weight=0 178 77 117 61 94 48 53 41
internal_count=255 178 77 117 61 94 48 53 41
is_linear=0
shrinkage=0.03


Tree=20
num_leaves=11
num_cat=0
split_feature=289 0 439 4 3 439 386 448 3 3
split_gain=1.3902 1.01753 0.899882 0.799554 0.637002 0.379603 0.333771 0.237156 0.0504119 0.0161236
threshold=1.0000000180025095e-35 1.0000000180025095e-35 1.0000000180025095e-35 0.26950000000000007 146.25000000000003 1.0000000180025095e-35 1.0000000180025095e-35 1.0000000180025095e-35 1.0000000180025095e-35 110.55000000000003
decision_type=2 8 2 8 10 2 2 2 10 10
left_child=2 3 9 5 8 -2 -4 -3 -5 -1
right_child=1 7 6 4 -6 -7 -8 -9 -10 -11
leaf_value=0.016333943770400115 0.0094207897237502045 0.0017429021308198571 0.0067898896113038057 0.0062397457299521192 0.011654672339558601 0.014965862318873405 0.011648115302835192 0.0059603341373149306 0.0041586787408133116 0.015143743315245956
leaf_weight=21 20 20 20 20 20 25 35 30 22 20
leaf_count=21 20 20 20 20 20 25 35 30 22 20
internal_value=0 0.00780643 0.0123893 0.0094574 0.00724805 0.0125014 0.00988149 0.00427336 0.00514966 0.0157534
internal_weight=0 157 96 107 62 45 55 50 42 41
internal_count=253 157 96 107 62 45 55 50 42 41
is_linear=0
shrinkage=0.03


Tree=21
num_leaves=10
num_cat=0
split_feature=386 439 439 16 16 2 6 1 6
split_gain=1.74678 1.12606 0.359313 0.938652 0.63675 0.52208 0.343428 0.273596 0.124107
threshold=1.0000000180025095e-35 1.0000000180025095e-35 1.0000000180025095e-35 1.0000000180025095e-35 1.0000000180025095e-35 inf 58.150000000000013 63.500000000000007 90.25500000000001
decision_type=2 2 2 2 2 8 10 8 8
left_child=1 -1 4 7 -2 6 -5 -4 -6
right_child=2 -3 3 5 8 -7 -8 -9 -10
leaf_value=0.01625519107060077 0.0091293062118749171 0.0077668250695040282 0.0030152660535405513 0.011626070665195583 0.0016486808889603708 0.014327542518731206 0.0061943483877588395 0.0072517952272969791 0.0048799623974153522
leaf_weight=39 29 22 23 20 20 24 22 34 23
leaf_count=39 29 22 23 20 20 24 22 34 23
internal_value=0 0.0131938 0.00737709 0.00836236 0.00569393 0.0107978 0.00878088 0.00554232 0.00337704
internal_weight=0 61 195 123 72 66 42 57 43
internal_count=256 61 195 123 72 66 42 57 43
is_linear=0
shrinkage=0.03


Tree=22
num_leaves=10
num_cat=0
split_feature=289 304 439 6 6 2 4 3 0
split_gain=0.996287 0.631147 0.912581 1.13198 0.251341 0.219373 0.352276 0.360558 0.0670712
threshold=1.0000000180025095e-35 1.0000000180025095e-35 1.0000000180025095e-35 58.150000000000013 80.38000000000001 1.0000000180025095e-35 0.21950000000000003 188.25000000000003 1.0000000180025095e-35
decision_type=2 2 2 10 10 8 10 8 8
left_child=1 2 -1 -4 5 6 7 -2 -7
right_child=4 -3 3 -5 -6 8 -8 -9 -10
leaf_value=0.017383928434415295 0.0040214707631218644 0.0073903265425137111 0.0061116899909185512 0.01545641898550093 0.0092042653279079643 0.0035469677837681956 0.010399950627698159 0.0085448772916249145 0.005899280212819576
leaf_weight=22 35 35 28 20 35 24 23 29 20
leaf_count=22 35 35 28 20 35 24 23 29 20
internal_value=0 0.0106797 0.0123243 0.0100053 0.00694587 0.00634248 0.00721554 0.00607114 0.0046162
internal_weight=0 105 70 48 166 131 87 64 44
internal_count=271 105 70 48 166 131 87 64 44
is_linear=0
shrinkage=0.03


Tree=23
num_leaves=9
num_cat=0
split_feature=53 4 5 2 5 3 3 3
split_gain=3.26511 0.807076 0.639574 0.419755 0.275525 0.245434 0.132176 0.0241664
threshold=1.0000000180025095e-35 0.21950000000000003 -25.049999999999997 1.0000000180025095e-35 15.755000000000001 146.25000000000003 188.25000000000003 84.170000000000016
decision_type=2 8 10 8 8 10 8 10
left_child=1 2 -1 4 5 -3 -5 -6
right_child=-2 3 -4 6 7 -7 -8 -9
leaf_value=0.005714021256274503 0.016799165031817907 0.0069969851006903951 0.012021651041622346 0.005055203005945909 0.0091678580380976198 0.0027343519935384393 0.0021654768959330074 0.007768757739686407
leaf_weight=23 34 31 39 28 25 20 29 20
leaf_count=23 34 31 39 28 25 20 29 20
internal_value=0 0.00679431 0.00968172 0.00562425 0.00683505 0.00532536 0.00358499 0.00854604
internal_weight=0 215 62 153 96 51 57 45
internal_count=249 215 62 153 96 51 57 45
is_linear=0
shrinkage=0.03


Tree=24
num_leaves=7
num_cat=0
split_feature=53 5 290 5 5 5
split_gain=2.00225 1.03304 0.45585 0.421124 0.527682 0.0178323
threshold=1.0000000180025095e-35 1.0000000180025095e-35 1.0000000180025095e-35 -11.749999999999998 -25.049999999999997 15.755000000000001
decision_type=2 10 2 10 10 10
left_child=1 2 3 4 -1 -3
right_child=-2 5 -4 -5 -6 -7
leaf_value=0.0048071265896298702 0.014177641130395624 0.010447717202827334 0.0088796390586203949 0.0010916847948517117 0.010020705319475381 0.011714567752322181
leaf_weight=104 38 20 34 21 21 20
leaf_count=104 38 20 34 21 21 20
internal_value=0 0.00672025 0.00575116 0.00502261 0.00568301 0.0110811
internal_weight=0 220 180 146 125 40
internal_count=258 220 180 146 125 40
is_linear=0
shrinkage=0.03


Tree=25
num_leaves=7
num_cat=0
split_feature=53 5 4 6 5 1
split_gain=1.3185 0.743805 0.584981 0.527005 0.285509 0.118877
threshold=1.0000000180025095e-35 1.0000000180025095e-35 0.26950000000000007 90.25500000000001 -25.049999999999997 1.0000000180025095e-35
decision_type=2 10 8 8 10 8
left_child=1 2 3 -1 5 -4
right_child=-2 -3 4 -5 -6 -7
leaf_value=0.0054437704891075979 0.01278365969657898 0.010782071288849693 0.0037265659576015812 0.010523905104026197 0.002423975668762895 0.0063133749652327271
leaf_weight=34 39 36 21 40 33 67
leaf_count=34 39 36 21 40 33 67
internal_value=0 0.0068201 0.00608866 0.00818979 0.00480368 0.00569607
internal_weight=0 231 195 74 121 88
internal_count=270 231 195 74 121 88
is_linear=0
shrinkage=0.03


Tree=26
num_leaves=8
num_cat=0
split_feature=53 6 439 302 16 4 16
split_gain=0.709023 0.61672 0.507719 0.441372 0.300088 0.138784 0.0615518
threshold=1.0000000180025095e-35 58.150000000000013 1.0000000180025095e-35 1.0000000180025095e-35 1.0000000180025095e-35 1.0000000180025095e-35 1.0000000180025095e-35
decision_type=2 10 2 2 2 10 2
left_child=1 3 -3 -1 -4 6 -5
right_child=-2 2 4 5 -6 -7 -8
leaf_value=0.00136380546502769 0.010747873692307621 0.0052813462928433209 0.0074761009003434858 0.0073035032993980812 0.012220217009806739 0.0043419745704159135 0.0055065072469156363
leaf_weight=25 36 31 21 42 28 39 29
leaf_count=25 36 31 21 42 28 39 29
internal_value=0 0.00619886 0.00828607 0.00496199 0.010187 0.00577975 0.00656952
internal_weight=0 215 80 135 49 110 71
internal_count=251 215 80 135 49 110 71
is_linear=0
shrinkage=0.03


Tree=27
num_leaves=7
num_cat=0
split_feature=306 5 3 5 4 3
split_gain=1.70023 0.87125 0.528129 0.598039 0.556993 0.082788
threshold=1.0000000180025095e-35 1.0000000180025095e-35 84.170000000000016 -11.749999999999998 0.26950000000000007 1.0000000180025095e-35
decision_type=2 10 10 10 8 10
left_child=1 2 5 4 -4 -1
right_child=-2 -3 3 -5 -6 -7
leaf_value=0.0068104315412844093 0.015077645968362365 0.010838762080141654 0.0076712429782168729 0.00031773757975315673 0.0032297507987095742 0.0087819788919296111
leaf_weight=41 23 36 54 24 48 36
leaf_count=41 23 36 54 24 48 36
internal_value=0 0.00653755 0.00577478 0.00457858 0.00558113 0.00773219
internal_weight=0 239 203 126 102 77
internal_count=262 239 203 126 102 77
is_linear=0
shrinkage=0.03


Tree=28
num_leaves=8
num_cat=0
split_feature=306 18 4 4 5 7 5
split_gain=0.522415 0.393473 0.311716 0.530895 0.37461 0.396175 0.231624
threshold=1.0000000180025095e-35 1.0000000180025095e-35 0.17600000000000002 0.26950000000000007 -11.749999999999998 1.0000000180025095e-35 -11.749999999999998
decision_type=2 2 10 10 10 10 10
left_child=1 2 4 6 5 -1 -4
right_child=-2 -3 3 -5 -6 -7 -8
leaf_value=0.0049886089960100907 0.011241270187776537 0.0098404944664798686 0.01150428310846505 0.0038000743380626257 0.0022095387145368889 0.0094563144860281174 0.0071464961368058405
leaf_weight=95 20 24 23 23 33 22 21
leaf_count=95 20 24 23 23 33 22 21
internal_value=0 0.00619552 0.00579239 0.00749368 0.00503248 0.00582869 0.00942443
internal_weight=0 241 217 67 150 117 44
internal_count=261 241 217 67 150 117 44
is_linear=0
shrinkage=0.03


Tree=29
num_leaves=9
num_cat=0
split_feature=289 304 5 3 2 3 2 3
split_gain=1.33159 0.619754 0.564996 0.473503 0.347655 0.0815382 0.078738 0.00525221
threshold=1.0000000180025095e-35 1.0000000180025095e-35 15.755000000000001 146.25000000000003 1.0000000180025095e-35 146.25000000000003 inf 188.25000000000003
decision_type=2 2 8 8 8 8 8 8
left_child=1 3 5 -1 7 6 -2 -4
right_child=2 -3 4 -5 -6 -7 -8 -9
leaf_value=0.013210273150665064 0.0046816985434270462 0.0059050134269465855 0.0080707804373066332 0.0081070715133100754 0.0042804523844097277 0.0017663149757949025 0.0023175931376005921 0.0087340736052614037
leaf_weight=36 32 34 21 30 32 29 21 22
leaf_count=36 32 34 21 30 32 29 21 22
internal_value=0 0.00919552 0.00476635 0.0108906 0.00664814 0.00304521 0.00374498 0.00841014
internal_weight=0 100 157 66 75 82 53 43
internal_count=257 100 157 66 75 82 53 43
is_linear=0
shrinkage=0.03


Tree=30
num_leaves=9
num_cat=0
split_feature=290 3 53 2 525 4 3 525
split_gain=1.41258 0.670918 0.584619 0.409396 0.334121 0.297696 0.431262 0.246928
threshold=1.0000000180025095e-35 188.25000000000003 1.0000000180025095e-35 inf 1.0000000180025095e-35 0.21950000000000003 84.170000000000016 1.0000000180025095e-35
decision_type=2 10 2 8 2 10 10 2
left_child=1 3 7 5 -5 6 -1 -2
right_child=2 -3 -4 4 -6 -7 -8 -9
leaf_value=0.0071876834252656528 0.0049017965268682356 0.0091192131895177914 0.012344855636358261 0.0039943658430129283 -0.00040237118623086385 0.0084072423577308663 0.0025540945795364677 0.009507595622912049
leaf_weight=29 22 26 35 35 28 20 48 20
leaf_count=29 22 26 35 35 28 20 48 20
internal_value=0 0.00464957 0.00948132 0.00392325 0.00204026 0.00514623 0.00429921 0.00709503
internal_weight=0 186 77 160 63 97 77 42
internal_count=263 186 77 160 63 97 77 42
is_linear=0
shrinkage=0.03


Tree=31
num_leaves=9
num_cat=0
split_feature=5 53 0 525 448 290 2 439
split_gain=1.29352 1.01043 1.3639 0.851337 0.665302 0.209111 0.0770087 0.00638708
threshold=-25.049999999999997 1.0000000180025095e-35 1.0000000180025095e-35 1.0000000180025095e-35 1.0000000180025095e-35 1.0000000180025095e-35 1.0000000180025095e-35 1.0000000180025095e-35
decision_type=10 2 8 2 2 2 8 2
left_child=4 2 3 -2 -1 6 7 -6
right_child=1 -3 -4 -5 5 -7 -8 -9
leaf_value=0.00071538175682404209 0.012729364792130103 0.01416431746567073 0.002580526237426376 0.0060301490551641877 0.0036693369342873875 0.0078884543448686593 0.0059059068596651471 0.0043638732466338703
leaf_weight=35 38 23 37 31 26 25 31 22
leaf_count=35 38 23 37 31 26 25 31 22
internal_value=0 0.00846441 0.00722764 0.00971957 0.0042931 0.00549714 0.00474039 0.00398767
internal_weight=0 129 106 69 139 104 79 48
internal_count=268 129 106 69 139 104 79 48
is_linear=0
shrinkage=0.03


Tree=32
num_leaves=7
num_cat=0
split_feature=448 1 53 4 0 16
split_gain=1.13422 0.741903 0.614083 0.837857 0.393451 0.172167
threshold=1.0000000180025095e-35 1.0000000180025095e-35 1.0000000180025095e-35 0.17600000000000002 1.0000000180025095e-35 1.0000000180025095e-35
decision_type=2 10 2 8 10 2
left_child=5 2 3 -2 -5 -1
right_child=1 -3 -4 4 -6 -7
leaf_value=0.0044469941999912919 0.011480407327568779 0.0023646489230238579 0.012465057292809853 0.0053168139880738 0.0095013962043091083 0.0011489538398796115
leaf_weight=28 36 22 26 91 26 29
leaf_count=28 36 22 26 91 26 29
internal_value=0 0.00756356 0.00820253 0.00747818 0.00624672 0.00276904
internal_weight=0 201 179 153 117 57
internal_count=258 201 179 153 117 57
is_linear=0
shrinkage=0.03


Tree=33
num_leaves=10
num_cat=0
split_feature=5 6 290 5 7 290 1 3 5
split_gain=1.07939 0.85982 0.515584 0.389285 0.256102 0.384171 0.489965 0.258713 0.0327221
threshold=-25.049999999999997 80.38000000000001 1.0000000180025095e-35 1.0000000180025095e-35 1.0000000180025095e-35 1.0000000180025095e-35 1.0000000180025095e-35 84.170000000000016 -11.749999999999998
decision_type=10 10 2 10 10 2 8 10 10
left_child=4 2 3 8 5 6 -1 -8 -2
right_child=1 -3 -4 -5 -6 -7 7 -9 -10
leaf_value=-0.00038986613762310963 0.0038930641310289497 0.012537044926474873 0.0091498520874883967 0.0077172163856000855 0.00079630782295550615 0.0077754571696277705 0.0066154218886924137 0.0029410654354308334 0.0021975190884300638
leaf_weight=22 20 26 40 26 21 24 34 35 21
leaf_count=22 20 26 40 26 21 24 34 35 21
internal_value=0 0.00764371 0.00645468 0.00484562 0.00384278 0.00439909 0.00350862 0.00475162 0.00302461
internal_weight=0 133 107 67 136 115 91 69 41
internal_count=269 133 107 67 136 115 91 69 41
is_linear=0
shrinkage=0.03


Tree=34
num_leaves=10
num_cat=0
split_feature=290 7 53 3 5 4 5 2 5
split_gain=1.28662 0.624305 0.551424 0.2878 0.233367 0.257304 0.167483 0.211985 0.137365
threshold=1.0000000180025095e-35 16.405000000000005 1.0000000180025095e-35 146.25000000000003 -25.049999999999997 0.17600000000000002 -1.0000000180025095e-35 1.0000000180025095e-35 -1.0000000180025095e-35
decision_type=2 8 2 8 8 10 8 8 8
left_child=3 -2 -3 4 -1 8 -5 -8 -6
right_child=1 2 -4 6 5 -7 7 -9 -10
leaf_value=0.00045895319525152443 0.0049552345102919001 0.0082649529414872327 0.014663316975771026 0.0038446367395527916 0.0046388618141412737 0.0070160216577351093 0.0081283960392964736 0.0045114244513213631 0.001579372714872339
leaf_weight=20 21 27 22 29 25 20 35 25 28
leaf_count=20 21 27 22 29 25 20 35 25 28
internal_value=0 0.00928295 0.0111377 0.00449707 0.00333004 0.00411664 0.00571656 0.00662132 0.00302253
internal_weight=0 70 49 182 93 73 89 60 53
internal_count=252 70 49 182 93 73 89 60 53
is_linear=0
shrinkage=0.03


Tree=35
num_leaves=10
num_cat=0
split_feature=289 304 439 0 3 448 0 2 3
split_gain=0.881333 1.30812 2.27175 0.666106 0.396886 0.252714 0.339931 0.141104 0.000124317
threshold=1.0000000180025095e-35 1.0000000180025095e-35 1.0000000180025095e-35 1.0000000180025095e-35 188.25000000000003 1.0000000180025095e-35 1.0000000180025095e-35 inf 84.170000000000016
decision_type=2 2 2 10 10 2 10 8 10
left_child=1 2 -1 -4 5 8 7 -7 -2
right_child=4 -3 3 -5 -6 6 -8 -9 -10
leaf_value=0.018947488876126174 0.0023139660526067017 0.0034221928757192056 0.010051092547064105 0.0031311217003634996 0.0087925096093676991 0.0050202247496618294 0.0081932368502020819 0.0022504907380789516 0.0022081904048100111
leaf_weight=21 20 33 31 21 20 49 24 25 20
leaf_count=21 20 33 31 21 20 49 24 25 20
internal_value=0 0.00837893 0.0106197 0.00725649 0.00484294 0.00427054 0.00509072 0.0040845 0.00226108
internal_weight=0 106 73 52 158 138 98 74 40
internal_count=264 106 73 52 158 138 98 74 40
is_linear=0
shrinkage=0.03


Tree=36
num_leaves=9
num_cat=0
split_feature=5 5 448 1 3 4 5 4
split_gain=1.39184 0.398363 0.242656 0.311001 0.459051 0.290958 0.228664 0.0324069
threshold=15.755000000000001 -25.049999999999997 1.0000000180025095e-35 inf 84.170000000000016 1.0000000180025095e-35 -25.049999999999997 0.12250000000000001
decision_type=10 8 2 8 10 10 10 10
left_child=1 7 5 6 -5 -3 -4 -1
right_child=-2 2 3 4 -6 -7 -8 -9
leaf_value=0.00097713904618285607 0.012531726986968092 0.00042450777813792223 0.0057075913410101608 0.0089303489122539766 0.0048939867367880649 0.0054804654552468223 0.0013310309584167869 0.002628323150312771
leaf_weight=20 21 20 21 42 64 21 22 23
leaf_count=20 21 20 21 42 64 21 22 23
internal_value=0 0.00446784 0.00505796 0.00562035 0.0064933 0.00301414 0.00346842 0.00186033
internal_weight=0 233 190 149 106 41 43 43
internal_count=254 233 190 149 106 41 43 43
is_linear=0
shrinkage=0.03


Tree=37
num_leaves=8
num_cat=0
split_feature=51 304 6 7 6 448 1
split_gain=0.675066 0.555232 0.517869 0.255048 0.242797 0.109279 0.305443
threshold=1.0000000180025095e-35 1.0000000180025095e-35 80.38000000000001 16.405000000000005 80.38000000000001 1.0000000180025095e-35 63.500000000000007
decision_type=2 2 8 8 8 2 8
left_child=1 2 -1 -2 -5 -6 -7
right_child=3 -3 -4 4 5 6 -8
leaf_value=0.0059680436505004765 0.0066880241474560039 0.0041632645047054847 0.012337217202099661 0.0016233270056545733 0.0030115029774606225 0.0024162492235856397 0.0062211283779963532
leaf_weight=20 33 26 27 36 35 28 59
leaf_count=20 33 26 27 36 35 28 59
internal_value=0 0.00768097 0.00962693 0.00428926 0.00378825 0.00442708 0.00499657
internal_weight=0 73 47 191 158 122 87
internal_count=264 73 47 191 158 122 87
is_linear=0
shrinkage=0.03


Tree=38
num_leaves=9
num_cat=0
split_feature=290 304 6 4 6 0 3 3
split_gain=1.30754 0.886333 0.852252 0.301139 0.490629 0.350654 0.488052 0.267968
threshold=1.0000000180025095e-35 1.0000000180025095e-35 80.38000000000001 0.17600000000000002 80.38000000000001 1.0000000180025095e-35 146.25000000000003 84.170000000000016
decision_type=2 2 8 10 8 10 10 10
left_child=3 2 -2 5 -5 6 7 -1
right_child=1 -3 -4 4 -6 -7 -8 -9
leaf_value=0.004034693951834924 0.0072754419632256031 0.0049217995866201814 0.015928556469402142 0.0025556201627478002 0.0081247118599712832 0.00048998213583423245 0.0077752865619957435 6.0908479749092036e-05
leaf_weight=56 20 30 21 24 35 31 25 21
leaf_count=56 20 30 21 24 35 31 25 21
internal_value=0 0.00884032 0.0117075 0.00407549 0.00585932 0.00328416 0.00413337 0.00295093
internal_weight=0 71 41 192 59 133 102 77
internal_count=263 71 41 192 59 133 102 77
is_linear=0
shrinkage=0.03


Tree=39
num_leaves=10
num_cat=0
split_feature=289 0 439 1 5 436 53 6 448
split_gain=1.16921 0.664816 0.597316 0.526435 0.495716 0.248772 0.199208 0.104617 0.0537161
threshold=1.0000000180025095e-35 1.0000000180025095e-35 1.0000000180025095e-35 63.500000000000007 -25.049999999999997 1.0000000180025095e-35 1.0000000180025095e-35 80.38000000000001 1.0000000180025095e-35
decision_type=2 10 2 8 10 2 2 8 2
left_child=1 4 5 -4 -1 -2 -3 -5 -9
right_child=2 6 3 7 -6 -7 -8 8 -10
leaf_value=0.0074165490431630085 -0.00068250787237452131 0.0036168293869122859 0.0017885784142547183 0.0051264965551143342 0.013645126919221618 0.0030837035943803034 0.0076337708286009723 0.0065782230254262681 0.0087506283507017158
leaf_weight=23 27 25 27 22 23 38 20 20 21
leaf_count=23 27 25 27 22 23 38 20 20 21
internal_value=0 0.00799467 0.00371068 0.00529336 0.0105308 0.00151928 0.00540214 0.00679541 0.00769092
internal_weight=0 91 155 90 46 65 45 63 41
internal_count=246 91 155 90 46 65 45 63 41
is_linear=0
shrinkage=0.03


Tree=40
num_leaves=9
num_cat=0
split_feature=4 14 6 3 14 304 7 3
split_gain=0.981274 0.630199 0.839134 1.08131 0.546812 0.481232 0.496916 0.648449
threshold=0.26950000000000007 1.0000000180025095e-35 80.38000000000001 110.55000000000003 1.0000000180025095e-35 1.0000000180025095e-35 1.0000000180025095e-35 110.55000000000003
decision_type=8 2 8 10 2 2 10 8
left_child=1 2 -1 -4 5 6 7 -2
right_child=4 -3 3 -5 -6 -7 -8 -9
leaf_value=0.0045426631090231236 0.0090343613310583989 0.0026398647627369925 0.0069354219381408443 0.015755485494367102 0.0068319597873117092 -0.0014298289678180995 -0.00048654884018975751 0.0028527594384338173
leaf_weight=32 21 22 29 22 33 23 23 56
leaf_count=32 21 22 29 22 33 23 23 56
internal_value=0 0.00715419 0.00835076 0.0107402 0.00340291 0.00248292 0.00338285 0.00453865
internal_weight=0 105 83 51 156 123 100 77
internal_count=261 105 83 51 156 123 100 77
is_linear=0
shrinkage=0.03


Tree=41
num_leaves=10
num_cat=0
split_feature=289 304 439 6 439 16 16 448 6
split_gain=0.561439 0.678531 0.727839 0.251263 0.201307 0.390423 0.313893 0.167713 0.00332616
threshold=1.0000000180025095e-35 1.0000000180025095e-35 1.0000000180025095e-35 1.0000000180025095e-35 1.0000000180025095e-35 1.0000000180025095e-35 1.0000000180025095e-35 1.0000000180025095e-35 58.150000000000013
decision_type=2 2 2 10 2 2 2 2 10
left_child=1 2 -1 -4 5 -2 7 -6 -8
right_child=4 -3 3 -5 6 -7 8 -9 -10
leaf_value=0.012843074535951019 0.0050727635913062835 0.0030268527348648365 0.0040282863378524776 0.0082850394526030862 0.0044822833341147221 0.00015975643603785618 0.006298901263455098 0.00081118437461555001 0.005793123054876924
leaf_weight=20 24 38 26 24 21 37 22 24 25
leaf_count=20 24 38 26 24 21 37 22 24 25
internal_value=0 0.00625424 0.00800626 0.00607153 0.00342913 0.00209274 0.00431522 0.00252436 0.00602987
internal_weight=0 108 70 50 153 61 92 45 47
internal_count=261 108 70 50 153 61 92 45 47
is_linear=0
shrinkage=0.03


Tree=42
num_leaves=7
num_cat=0
split_feature=290 304 51 3 3 4
split_gain=1.75028 0.534359 0.32229 0.159014 0.0819435 0.165443
threshold=1.0000000180025095e-35 1.0000000180025095e-35 1.0000000180025095e-35 84.170000000000016 188.25000000000003 0.17600000000000002
decision_type=2 2 2 8 10 10
left_child=2 -2 -1 -4 5 -5
right_child=1 -3 3 4 -6 -7
leaf_value=-0.00093501762353948188 0.01044192634918727 0.004436161036603152 0.0049863710217177863 0.0015649861545466324 0.0038923282735049726 0.004385603875853121
leaf_weight=21 40 20 30 85 33 24
leaf_count=21 40 20 30 85 33 24
internal_value=0 0.00844 0.00257348 0.00300184 0.00258257 0.00218604
internal_weight=0 60 193 172 142 109
internal_count=253 60 193 172 142 109
is_linear=0
shrinkage=0.03


Tree=43
num_leaves=9
num_cat=0
split_feature=289 304 6 4 445 4 525 525
split_gain=0.845607 0.769273 0.326201 0.1774 0.136151 0.104459 0.0511901 0.0303813
threshold=1.0000000180025095e-35 1.0000000180025095e-35 58.150000000000013 1.0000000180025095e-35 1.0000000180025095e-35 1.0000000180025095e-35 1.0000000180025095e-35 1.0000000180025095e-35
decision_type=2 2 10 10 2 10 2 2
left_child=1 2 3 -1 5 6 -2 -7
right_child=4 -3 -4 -5 -6 7 -8 -9
leaf_value=0.0090808845134451987 0.0023030324916287165 0.0030198820420510824 0.011451391741633414 0.0050851355586200948 0.0015702562253441541 0.0041837922669947149 0.003949951943780841 0.0055717597029764539
leaf_weight=20 41 31 25 20 31 40 29 22
leaf_count=20 41 31 25 20 31 40 29 22
internal_value=0 0.00690856 0.00876316 0.00708301 0.00335939 0.00377957 0.00298533 0.0046763
internal_weight=0 96 65 40 163 132 70 62
internal_count=259 96 65 40 163 132 70 62
is_linear=0
shrinkage=0.03


Tree=44
num_leaves=9
num_cat=0
split_feature=5 4 1 5 525 5 5 5
split_gain=0.458138 1.68508 0.512145 0.34962 0.311839 0.70598 0.286365 0.204929
threshold=1.0000000180025095e-35 0.17600000000000002 inf -11.749999999999998 1.0000000180025095e-35 -25.049999999999997 -11.749999999999998 -25.049999999999997
decision_type=10 10 8 8 2 10 8 8
left_child=2 -2 3 -1 5 7 -6 -4
right_child=1 -3 4 -5 6 -7 -8 -9
leaf_value=0.0046953627683355339 0.013916645554360002 0.002233688724786043 0.0015977307327557355 -0.00020095946852649962 0.0012826045043766499 0.0095461810150128945 0.0052267905789100235 0.0054927707317795962
leaf_weight=21 20 25 20 35 30 34 37 31
leaf_count=21 20 25 20 35 30 34 37 31
internal_value=0 0.00742611 0.00408769 0.00163516 0.00499125 0.00619765 0.00346074 0.0039653
internal_weight=0 45 208 56 152 85 67 51
internal_count=253 45 208 56 152 85 67 51
is_linear=0
shrinkage=0.03


Tree=45
num_leaves=7
num_cat=0
split_feature=286 1 290 304 6 0
split_gain=0.585423 0.475292 0.435868 0.386489 0.324527 0.319739
threshold=1.0000000180025095e-35 2.1000000000000005 1.0000000180025095e-35 1.0000000180025095e-35 71.080000000000013 1.0000000180025095e-35
decision_type=2 10 2 2 8 8
left_child=1 2 4 -4 -1 -6
right_child=-2 -3 3 -5 5 -7
leaf_value=0.0059422699429864147 0.0081586870767006818 -0.0013819356404710559 0.0074691416242306952 0.0026063196395989504 0.0029151215659515392 -0.00038809500601408732
leaf_weight=23 22 20 38 24 107 35
leaf_count=23 22 20 38 24 107 35
internal_value=0 0.00305161 0.00344223 0.00558676 0.00263641 0.00210095
internal_weight=0 247 227 62 165 142
internal_count=269 247 227 62 165 142
is_linear=0
shrinkage=0.03


Tree=46
num_leaves=9
num_cat=0
split_feature=51 0 53 439 16 16 4 4
split_gain=0.508265 0.923603 0.996461 0.269082 0.838169 0.523026 0.255203 0.243483
threshold=1.0000000180025095e-35 1.0000000180025095e-35 1.0000000180025095e-35 1.0000000180025095e-35 1.0000000180025095e-35 1.0000000180025095e-35 1.0000000180025095e-35 0.17600000000000002
decision_type=2 10 2 2 2 2 10 10
left_child=1 -1 -3 4 -2 6 -5 -7
right_child=3 2 -4 5 -6 7 -8 -9
leaf_value=0.0097334919545195384 0.0060148974699899558 -0.0010308847171456917 0.0078997535341080623 0.00012536955390325081 -0.0010957983136255722 0.0077862523645162579 0.0043411774875130506 0.0037586429981853477
leaf_weight=37 25 23 22 28 37 35 24 22
leaf_count=37 25 23 22 28 37 35 24 22
internal_value=0 0.00622224 0.00333521 0.00334933 0.00177142 0.00424686 0.00207113 0.00623174
internal_weight=0 82 45 171 62 109 52 57
internal_count=253 82 45 171 62 109 52 57
is_linear=0
shrinkage=0.03


Tree=47
num_leaves=9
num_cat=0
split_feature=1 51 6 4 7 439 14 6
split_gain=0.907939 0.936313 0.461131 0.451632 0.279517 0.242003 0.13686 0.106764
threshold=4.3500000000000005 1.0000000180025095e-35 80.38000000000001 0.26950000000000007 1.0000000180025095e-35 1.0000000180025095e-35 1.0000000180025095e-35 90.25500000000001
decision_type=10 2 8 8 10 2 2 8
left_child=1 2 -1 5 6 -3 -5 -7
right_child=-2 3 -4 4 -6 7 -8 -9
leaf_value=0.0052736635576002295 -0.001453728465246968 0.0033224254819963659 0.010672742434910365 0.002958931253506587 -0.00020510609427999173 0.0083794327412864984 0.0056964127968107776 0.0055095696249045428
leaf_weight=24 20 21 35 65 21 28 22 20
leaf_count=24 20 21 35 65 21 28 22 20
internal_value=0 0.00520358 0.00847651 0.0041126 0.00290134 0.0060085 0.00365117 0.00718366
internal_weight=0 236 59 177 108 69 87 48
internal_count=256 236 59 177 108 69 87 48
is_linear=0
shrinkage=0.03


Tree=48
num_leaves=7
num_cat=0
split_feature=286 5 7 290 439 4
split_gain=0.835872 0.626804 0.539242 0.655256 0.981215 0.696349
threshold=1.0000000180025095e-35 15.755000000000001 16.405000000000005 1.0000000180025095e-35 1.0000000180025095e-35 0.17600000000000002
decision_type=2 10 8 2 2 10
left_child=1 2 -1 5 -5 -4
right_child=-2 -3 3 4 -6 -7
leaf_value=-0.00025507131533231581 0.0097959424408950984 0.0086528513669036321 0.0013468840847024692 0.011627488524786064 0.0032287430150374288 0.0060730608558962835
leaf_weight=36 21 20 100 21 31 39
leaf_count=36 21 20 100 21 31 39
internal_value=0 0.00356146 0.00311288 0.00374768 0.00662054 0.00267293
internal_weight=0 247 227 191 52 139
internal_count=268 247 227 191 52 139
is_linear=0
shrinkage=0.03


Tree=49
num_leaves=8
num_cat=0
split_feature=3 1 203 6 4 2 0
split_gain=1.0293 0.738123 1.36654 0.646002 0.246805 0.322929 0.119536
threshold=1.0000000180025095e-35 1.0000000180025095e-35 1.0000000180025095e-35 80.38000000000001 0.21950000000000003 1.0000000180025095e-35 1.0000000180025095e-35
decision_type=10 10 2 8 10 8 8
left_child=6 2 3 -2 5 -4 -1
right_child=1 -3 4 -5 -6 -7 -8
leaf_value=-0.0016532993246801196 0.0056873831136719042 0.00027356914525236269 0.0015421301328831097 0.012323139127824576 0.0061480618338100607 0.0051109535404695915 0.0014459885457264526
leaf_weight=24 23 28 55 31 30 39 21
leaf_count=24 23 28 55 31 30 39 21
internal_value=0 0.00480133 0.00551356 0.0094968 0.00377892 0.00302281 -0.000206965
internal_weight=0 206 178 54 124 94 45
internal_count=251 206 178 54 124 94 45
is_linear=0
shrinkage=0.03


Tree=50
num_leaves=8
num_cat=0
split_feature=1 2 5 304 290 525 5
split_gain=0.547794 0.549109 0.572339 0.490173 0.59827 0.410446 0.314034
threshold=2.1000000000000005 1.0000000180025095e-35 -25.049999999999997 1.0000000180025095e-35 1.0000000180025095e-35 1.0000000180025095e-35 15.755000000000001
decision_type=10 8 8 2 2 2 8
left_child=1 2 -1 4 -4 6 -3
right_child=-2 5 3 -5 -6 -7 -8
leaf_value=-0.0020069609715470246 -0.0010957076388876886 0.010109694014702525 0.0031623674097123098 -0.00019173532258719205 0.0089424562649801365 0.0029616158605131203 0.0053264309633523224
leaf_weight=21 24 21 83 28 20 32 30
leaf_count=21 24 21 83 28 20 32 30
internal_value=0 0.00366246 0.00259086 0.00332792 0.00428471 0.00562492 0.00729601
internal_weight=0 235 152 131 103 83 51
internal_count=259 235 152 131 103 83 51
is_linear=0
shrinkage=0.03


Tree=51
num_leaves=9
num_cat=0
split_feature=1 5 51 304 6 6 3 3
split_gain=0.745905 0.564936 1.34692 0.885768 0.372305 0.144165 0.145472 0.0262408
threshold=4.3500000000000005 -11.749999999999998 1.0000000180025095e-35 1.0000000180025095e-35 80.38000000000001 71.080000000000013 146.25000000000003 110.55000000000003
decision_type=10 8 2 2 8 10 10 10
left_child=1 4 3 -3 -1 6 -4 -6
right_child=-2 2 5 -5 7 -7 -8 -9
leaf_value=-0.0010817791666236838 -0.0020450918482882636 0.013005010909214616 0.0028803925481388124 0.0045346391983330254 0.0040991667120463468 0.0013532847678288816 0.005418592755712809 0.0025977260896470396
leaf_weight=28 21 25 59 20 22 30 31 20
leaf_count=28 21 25 59 20 22 30 31 20
internal_value=0 0.0038561 0.00481416 0.0092404 0.00159781 0.00315432 0.00375466 0.00338419
internal_weight=0 235 165 45 70 120 90 42
internal_count=256 235 165 45 70 120 90 42
is_linear=0
shrinkage=0.03


Tree=52
num_leaves=10
num_cat=0
split_feature=53 4 16 6 6 6 3 16 2
split_gain=0.552351 0.381176 0.511852 0.531904 0.506956 0.228425 0.0785523 0.0835882 0.0678684
threshold=1.0000000180025095e-35 0.26950000000000007 1.0000000180025095e-35 80.38000000000001 58.150000000000013 71.080000000000013 188.25000000000003 1.0000000180025095e-35 1.0000000180025095e-35
decision_type=2 8 2 8 10 10 8 2 8
left_child=1 2 4 -4 -1 6 7 -3 -8
right_child=-2 5 3 -5 -6 -7 8 -9 -10
leaf_value=-0.00199798570596613 0.0064443379217708433 0.0026123191164806481 0.0025374115351587531 0.008529365391470492 0.0046758238633628933 -0.00089359292198486369 0.0036775855700418884 1.0272243618965148e-05 0.0016310155749320984
leaf_weight=20 37 20 24 30 21 29 35 25 25
leaf_count=20 37 20 24 30 21 29 35 25 25
internal_value=0 0.00249385 0.00394749 0.00586627 0.00142031 0.00146328 0.00211423 0.00116674 0.00282485
internal_weight=0 229 95 54 41 134 105 45 60
internal_count=266 229 95 54 41 134 105 45 60
is_linear=0
shrinkage=0.03


Tree=53
num_leaves=10
num_cat=0
split_feature=5 51 3 0 4 439 5 0 3
split_gain=1.23568 0.957412 0.835544 0.774958 0.47299 0.287693 0.257896 0.224424 0.0120468
threshold=15.755000000000001 1.0000000180025095e-35 110.55000000000003 1.0000000180025095e-35 1.0000000180025095e-35 1.0000000180025095e-35 -11.749999999999998 1.0000000180025095e-35 188.25000000000003
decision_type=10 2 8 10 10 2 8 8 8
left_child=1 2 -1 -4 7 -6 -7 8 -3
right_child=-2 4 3 -5 5 6 -8 -9 -10
leaf_value=0.0096642720975125065 0.01037638235092163 -0.00087249115503464753 0.0064419350568205112 -0.00063437823833038028 0.00046339944340288637 0.0066881232568994165 0.0020898306482870664 0.0020481019746512175 -0.0017418721252761315
leaf_weight=26 20 26 30 26 25 23 21 25 32
leaf_count=26 20 26 30 26 25 23 21 25 32
internal_value=0 0.00260731 0.00521994 0.0031565 0.00119787 0.00303331 0.00449348 -0.000327977 -0.00135215
internal_weight=0 234 82 56 152 69 44 83 58
internal_count=254 234 82 56 152 69 44 83 58
is_linear=0
shrinkage=0.03


Tree=54
num_leaves=7
num_cat=0
split_feature=306 304 290 3 16 3
split_gain=0.926804 0.555037 0.70713 0.77817 0.45241 0.322436
threshold=1.0000000180025095e-35 1.0000000180025095e-35 1.0000000180025095e-35 188.25000000000003 1.0000000180025095e-35 84.170000000000016
decision_type=2 2 2 8 2 10
left_child=1 2 3 5 -5 -1
right_child=-2 -3 -4 4 -6 -7
leaf_value=0.0029100719671846637 0.0082546574724635668 -0.0013773332355317266 0.0071942063263542456 0.0021702177554834634 0.0068253281656721169 -0.00069387525203637771
leaf_weight=31 23 38 26 42 34 80
leaf_count=31 23 38 26 42 34 80
internal_value=0 0.00196264 0.00255851 0.00191397 0.00425277 0.000312633
internal_weight=0 251 213 187 76 111
internal_count=274 251 213 187 76 111
is_linear=0
shrinkage=0.03


Tree=55
num_leaves=9
num_cat=0
split_feature=1 51 6 3 0 3 6 16
split_gain=0.672286 0.960012 1.52931 0.281778 0.244968 0.152405 0.148432 0.082444
threshold=2.1000000000000005 1.0000000180025095e-35 80.38000000000001 188.25000000000003 1.0000000180025095e-35 110.55000000000003 80.38000000000001 1.0000000180025095e-35
decision_type=10 2 8 8 10 10 8 2
left_child=1 2 -1 4 6 -4 -3 -5
right_child=-2 3 5 7 -6 -7 -8 -9
leaf_value=0.00177847059071064 -0.001381506697760652 -0.0007141237074625678 0.012476912582559245 0.0033615586906671521 0.0049227387635037301 0.0088176960276905442 0.0019839510854090686 0.005550635456107557
leaf_weight=30 23 25 21 32 20 20 69 30
leaf_count=30 23 25 21 32 20 20 69 30
internal_value=0 0.003981 0.00692568 0.00279309 0.00190784 0.0106919 0.00126638 0.00442079
internal_weight=0 247 71 176 114 41 94 62
internal_count=270 247 71 176 114 41 94 62
is_linear=0
shrinkage=0.03


Tree=56
num_leaves=10
num_cat=0
split_feature=5 4 5 386 2 3 51 3 289
split_gain=0.800306 1.38873 0.783153 0.583319 0.467559 0.228923 0.151451 0.0994236 0.0729858
threshold=-25.049999999999997 0.17600000000000002 1.0000000180025095e-35 1.0000000180025095e-35 inf 110.55000000000003 1.0000000180025095e-35 84.170000000000016 1.0000000180025095e-35
decision_type=10 10 10 2 8 10 2 10 2
left_child=4 2 3 -2 6 -6 -1 -8 -3
right_child=1 8 -4 -5 5 -7 7 -9 -10
leaf_value=-0.0018289427676195786 0.0095984618814492755 -0.0001384754036553204 0.012665608110172408 0.00325268324213539 0.0023358371014412685 0.0060783612891100345 0.0024071249241630235 -0.00019204941237918461 0.0022172496544903722
leaf_weight=22 22 20 21 32 38 24 27 26 29
leaf_count=22 22 20 21 32 38 24 27 26 29
internal_value=0 0.00518355 0.00774973 0.005838 0.00185697 0.00378456 0.000263498 0.00113206 0.00125573
internal_weight=0 124 75 54 137 62 75 53 49
internal_count=261 124 75 54 137 62 75 53 49
is_linear=0
shrinkage=0.03


Tree=57
num_leaves=10
num_cat=0
split_feature=3 290 6 6 439 16 4 3 4
split_gain=0.834702 0.691681 0.685109 0.625431 0.353497 0.63433 0.410586 0.663277 0.274591
threshold=188.25000000000003 1.0000000180025095e-35 90.25500000000001 1.0000000180025095e-35 1.0000000180025095e-35 1.0000000180025095e-35 0.21950000000000003 84.170000000000016 0.12250000000000001
decision_type=10 2 8 10 2 2 10 10 10
left_child=1 4 -3 -2 5 -1 7 -6 -7
right_child=3 2 -4 -5 6 8 -8 -9 -10
leaf_value=0.0033215482036421931 0.00268725955998525 0.0015351491768298478 0.0079501513085297997 0.009870436949422582 0.0040001708910935305 -0.00032023721225559707 0.0061354046054184434 -0.0017675436968805597 -0.0048622823126978519
leaf_weight=26 20 29 31 24 38 25 20 34 23
leaf_count=26 20 29 31 24 38 25 20 34 23
internal_value=0 0.002089 0.00484957 0.00660536 0.0010912 -0.000452408 0.00233281 0.00127653 -0.00249663
internal_weight=0 226 60 44 166 74 92 72 48
internal_count=270 226 60 44 166 74 92 72 48
is_linear=0
shrinkage=0.03


Tree=58
num_leaves=10
num_cat=0
split_feature=306 5 1 436 1 0 4 0 525
split_gain=0.614871 0.572636 0.421124 0.372744 0.243244 0.256674 0.212888 0.084147 0.0615044
threshold=1.0000000180025095e-35 15.755000000000001 7.0000000000000009 1.0000000180025095e-35 inf 1.0000000180025095e-35 0.12250000000000001 1.0000000180025095e-35 1.0000000180025095e-35
decision_type=2 8 8 2 8 8 10 8 2
left_child=1 4 -3 7 8 6 -6 -4 -1
right_child=-2 2 3 -5 5 -7 -8 -9 -10
leaf_value=-0.0019294782484648751 0.0078853189067116802 0.0072985358680099513 0.00079165632453034895 0.0061341471092775466 0.0016149962322254264 -0.00018430822890349514 0.0051604920915431438 0.0030588578517871117 0.00042326376819983122
leaf_weight=20 21 28 34 25 35 31 27 26 20
leaf_count=20 21 28 34 25 35 31 27 26 20
internal_value=0 0.00253732 0.0041076 0.00305647 0.00120316 0.00204457 0.003159 0.00177411 -0.000753107
internal_weight=0 246 113 85 133 93 62 60 40
internal_count=267 246 113 85 133 93 62 60 40
is_linear=0
shrinkage=0.03


Tree=59
num_leaves=9
num_cat=0
split_feature=3 436 7 0 436 6 1 3
split_gain=0.417254 0.789981 0.663013 0.561516 0.862002 0.489678 0.445078 0.342923
threshold=84.170000000000016 1.0000000180025095e-35 3.7350000000000008 1.0000000180025095e-35 1.0000000180025095e-35 58.150000000000013 1.0000000180025095e-35 188.25000000000003
decision_type=8 2 8 8 2 10 8 8
left_child=1 -1 -2 4 6 7 -4 -5
right_child=2 -3 3 5 -6 -7 -8 -9
leaf_value=0.0097630351368337854 0.0081609922908246514 0.0018702746443679122 0.0053666254050201839 -0.0046100689036538828 0.0085193039598659825 0.0032950437339303753 0.00063441171906097741 0.00087885105130096363
leaf_weight=25 20 21 27 20 26 29 53 21
leaf_count=25 20 21 27 20 26 29 53 21
internal_value=0 0.00615982 0.00298498 0.00239679 0.00377382 0.000311582 0.00223153 -0.00179867
internal_weight=0 46 196 176 106 70 80 41
internal_count=242 46 196 176 106 70 80 41
is_linear=0
shrinkage=0.03


Tree=60
num_leaves=8
num_cat=0
split_feature=3 6 7 3 7 1 0
split_gain=0.663022 0.400631 0.8401 0.302159 0.402998 0.335921 0.0533613
threshold=1.0000000180025095e-35 80.38000000000001 1.0000000180025095e-35 84.170000000000016 0.053450000000000004 1.0000000180025095e-35 1.0000000180025095e-35
decision_type=10 10 10 10 10 8 8
left_child=6 3 -3 -2 5 -5 -1
right_child=1 2 -4 4 -6 -7 -8
leaf_value=-0.0013572500948794187 0.0057180964047854237 0.0016247340837227447 0.0097640165474207601 0.0060700904153287404 -0.0015257325662033899 0.0021391425099476086 0.00066490162012126789
leaf_weight=24 28 21 25 25 21 90 23
leaf_count=24 28 21 25 25 21 90 23
internal_value=0 0.0035741 0.00604826 0.00288013 0.00229584 0.0029937 -0.000367686
internal_weight=0 210 46 164 136 115 47
internal_count=257 210 46 164 136 115 47
is_linear=0
shrinkage=0.03


Tree=61
num_leaves=9
num_cat=0
split_feature=1 290 439 439 16 436 6 525
split_gain=0.684466 0.398133 0.697167 0.313071 0.392178 0.235933 0.0819153 0.12163
threshold=4.3500000000000005 1.0000000180025095e-35 1.0000000180025095e-35 1.0000000180025095e-35 1.0000000180025095e-35 1.0000000180025095e-35 71.080000000000013 1.0000000180025095e-35
decision_type=10 2 2 2 2 2 10 2
left_child=1 3 -3 4 -1 -6 7 -5
right_child=-2 2 -4 6 5 -7 -8 -9
leaf_value=0.0030427568793296813 -0.0036403164154035039 0.0074865964562632137 0.0010713550172025159 0.0022290466646866301 -0.0039829227481303475 0.00016309087397530674 0.0012245671833516099 0.0049411424427208573
leaf_weight=25 20 30 31 46 21 30 30 22
leaf_count=25 20 30 31 46 21 30 30 22
internal_value=0 0.00214089 0.00422639 0.00140976 -3.52596e-05 -0.00154409 0.00253039 0.00310649
internal_weight=0 235 61 174 76 51 98 68
internal_count=255 235 61 174 76 51 98 68
is_linear=0
shrinkage=0.03


Tree=62
num_leaves=10
num_cat=0
split_feature=5 290 439 6 1 3 1 3 3
split_gain=0.522392 0.368177 0.473308 0.507972 0.451185 0.321493 0.171833 0.332152 0.157667
threshold=15.755000000000001 1.0000000180025095e-35 1.0000000180025095e-35 80.38000000000001 63.500000000000007 146.25000000000003 inf 146.25000000000003 188.25000000000003
decision_type=10 2 2 10 8 8 8 10 8
left_child=1 2 3 5 -4 -1 -3 -8 -6
right_child=-2 6 4 -5 8 -7 7 -9 -10
leaf_value=-0.0055977322821590039 0.0062090517267246129 0.00087063309084624058 -0.00091739809548016635 0.0027731928415596482 0.0023957428033463657 -0.00075153031669157946 0.0062216203521680211 0.0011961882524192335 0.0055794118344783782
leaf_weight=22 22 20 32 20 42 28 29 20 21
leaf_count=22 22 20 32 20 42 28 29 20 21
internal_value=0 0.00137379 0.000604261 -0.00126756 0.0019835 -0.00288386 0.00321396 0.00417042 0.00345697
internal_weight=0 234 165 70 95 50 69 49 63
internal_count=256 234 165 70 95 50 69 49 63
is_linear=0
shrinkage=0.03


Tree=63
num_leaves=9
num_cat=0
split_feature=3 6 1 0 3 3 3 3
split_gain=0.985511 1.27156 1.11368 0.92807 0.691637 0.123501 0.0742886 0.0665056
threshold=84.170000000000016 58.150000000000013 1.0000000180025095e-35 1.0000000180025095e-35 146.25000000000003 188.25000000000003 188.25000000000003 110.55000000000003
decision_type=8 10 8 10 10 8 10 8
left_child=-1 2 -2 5 7 -4 -6 -3
right_child=1 4 3 -5 6 -7 -8 -9
leaf_value=0.0073116077311768581 0.0058197742503566232 0.003505005473592158 0.0026496720376822987 -0.004920909854054854 0.0065220038511324668 -4.8309682264319952e-05 0.0090767603660268439 0.0012882052016045366
leaf_weight=41 26 29 26 37 20 37 21 21
leaf_count=41 26 29 26 37 20 37 21 21
internal_value=0 0.00224006 0.000288448 -0.0011497 0.0049423 0.00106514 0.00783054 0.00257395
internal_weight=0 217 126 100 91 63 41 50
internal_count=258 217 126 100 91 63 41 50
is_linear=0
shrinkage=0.03


Tree=64
num_leaves=9
num_cat=0
split_feature=51 2 439 2 16 525 16 0
split_gain=0.578067 0.846763 0.493941 0.454527 0.397853 0.163151 0.162006 0.0058641
threshold=1.0000000180025095e-35 inf 1.0000000180025095e-35 inf 1.0000000180025095e-35 1.0000000180025095e-35 1.0000000180025095e-35 1.0000000180025095e-35
decision_type=2 8 2 8 2 2 2 8
left_child=1 2 -1 4 -2 -6 7 -5
right_child=3 -3 -4 6 5 -7 -8 -9
leaf_value=0.0048755869184969923 -9.6938837827606622e-05 0.0093817057244648984 -0.00081782245077192787 0.0011427918209561279 0.0027613898792437142 0.0057852360137397993 -0.0020081705542500405 0.00042501510120928287
leaf_weight=32 33 22 24 21 42 26 34 20
leaf_count=32 33 22 24 21 42 26 34 20
internal_value=0 0.00439473 0.00243555 0.00129214 0.0026059 0.00391757 -0.000477052 0.000792657
internal_weight=0 78 56 176 101 68 75 41
internal_count=254 78 56 176 101 68 75 41
is_linear=0
shrinkage=0.03


Tree=65
num_leaves=9
num_cat=0
split_feature=290 203 53 0 448 5 6 4
split_gain=0.450537 0.3648 0.357571 0.202421 0.322358 0.371486 0.162702 0.123222
threshold=1.0000000180025095e-35 1.0000000180025095e-35 1.0000000180025095e-35 1.0000000180025095e-35 1.0000000180025095e-35 -25.049999999999997 80.38000000000001 0.26950000000000007
decision_type=2 2 2 10 2 10 10 8
left_child=1 -1 7 4 5 -3 -6 -2
right_child=2 3 -4 -5 6 -7 -8 -9
leaf_value=-0.0022293923585675656 0.0038422887186918939 0.00052480729744554711 0.0065899934632510969 0.003792120711056187 -0.00068312541559862434 0.0055961238965392106 0.0024168043471290731 0.00055201446439605197
leaf_weight=24 21 26 29 34 64 26 20 20
leaf_count=24 21 26 29 34 64 26 20 20
internal_value=0 0.00123292 0.00404055 0.00172172 0.00120412 0.00306047 5.49531e-05 0.00223728
internal_weight=0 194 70 170 136 52 84 41
internal_count=264 194 70 170 136 52 84 41
is_linear=0
shrinkage=0.03


Tree=66
num_leaves=8
num_cat=0
split_feature=1 290 6 5 6 448 3
split_gain=0.420631 0.585303 0.604482 0.24325 0.347763 0.278159 0.372411
threshold=4.3500000000000005 1.0000000180025095e-35 90.25500000000001 -25.049999999999997 58.150000000000013 1.0000000180025095e-35 146.25000000000003
decision_type=10 2 8 10 10 2 8
left_child=1 3 -3 5 -5 -1 -7
right_child=-2 2 -4 4 -6 6 -8
leaf_value=-0.0023333621726903532 -0.0021891792100327818 0.0018416637302884323 0.0078346298122778536 0.00045697234427699676 0.0044895636327687257 -0.0012705698179742021 0.0031102026868611572
leaf_weight=28 23 33 28 39 38 31 40
leaf_count=28 23 33 28 39 38 31 40
internal_value=0 0.00206015 0.00459253 0.00118245 0.00244708 0.000198852 0.00119747
internal_weight=0 237 61 176 77 99 71
internal_count=260 237 61 176 77 99 71
is_linear=0
shrinkage=0.03


Tree=67
num_leaves=8
num_cat=0
split_feature=5 1 51 304 6 5 1
split_gain=0.455864 0.269778 0.407304 0.934937 0.599833 0.180921 0.151717
threshold=15.755000000000001 2.1000000000000005 1.0000000180025095e-35 1.0000000180025095e-35 80.38000000000001 -11.749999999999998 1.0000000180025095e-35
decision_type=10 10 2 2 8 10 8
left_child=1 2 3 4 -1 6 -4
right_child=-2 -3 5 -5 -6 -7 -8
leaf_value=0.0024083317476989966 0.0057013316134689376 -0.00234826057869941 -0.0010638075225055217 -0.0012450947704089161 0.0095787079865112899 -0.0013885969220585113 0.0015657170316293596
leaf_weight=21 20 20 25 26 21 37 94
leaf_count=21 20 20 25 26 21 37 94
internal_value=0 0.000990141 0.00128821 0.00322581 0.00599352 0.000443616 0.0010133
internal_weight=0 244 224 68 42 156 119
internal_count=264 244 224 68 42 156 119
is_linear=0
shrinkage=0.03


Tree=68
num_leaves=9
num_cat=0
split_feature=6 7 3 1 0 436 302 3
split_gain=0.503172 1.10127 0.663624 0.391195 0.339712 0.522188 0.249088 0.0683405
threshold=80.38000000000001 1.0000000180025095e-35 84.170000000000016 4.3500000000000005 1.0000000180025095e-35 1.0000000180025095e-35 1.0000000180025095e-35 146.25000000000003
decision_type=10 10 8 8 10 2 2 10
left_child=2 -2 -1 7 5 -5 -6 -4
right_child=1 -3 3 4 6 -7 -8 -9
leaf_value=0.0046998549049991805 6.6643579361530449e-05 0.008978361282497644 0.0014731617565266787 -0.00089171376770536882 -0.0048898798154424069 0.0043786460918414849 -0.00037079253832676581 0.0038961916931095236
leaf_weight=36 26 24 20 64 23 23 21 22
leaf_count=36 26 24 20 64 23 23 21 22
internal_value=0 0.00434427 0.000994065 0.000222918 -0.000584845 0.0005016 -0.00273304 0.00274237
internal_weight=0 50 209 173 131 87 44 42
internal_count=259 50 209 173 131 87 44 42
is_linear=0
shrinkage=0.03


Tree=69
num_leaves=9
num_cat=0
split_feature=4 7 7 436 6 3 302 16
split_gain=0.5265 0.89715 0.547202 0.375713 0.50821 0.246593 0.169337 0.0922
threshold=0.21950000000000003 16.405000000000005 0.053450000000000004 1.0000000180025095e-35 71.080000000000013 84.170000000000016 1.0000000180025095e-35 1.0000000180025095e-35
decision_type=8 8 10 2 8 10 2 2
left_child=1 -1 3 4 -2 -5 -3 -6
right_child=2 6 -4 5 7 -7 -8 -9
leaf_value=0.0095700238030403846 0.004845775617635808 0.0043278039589693595 -0.0034176630553390298 0.0055582031486555933 0.00057374846695789261 0.0015239566873759031 0.0010205297339952698 -0.0015472305487268245
leaf_weight=20 20 22 21 30 35 25 38 39
leaf_count=20 20 22 21 30 35 25 38 39
internal_value=0 0.0040674 0.00111605 0.00175503 0.00060271 0.00372445 0.0022332 -0.000544065
internal_weight=0 80 170 149 94 55 60 74
internal_count=250 80 170 149 94 55 60 74
is_linear=0
shrinkage=0.03


Tree=70
num_leaves=6
num_cat=0
split_feature=5 3 5 386 5
split_gain=0.451135 0.632335 0.262057 0.268562 0.386228
threshold=1.0000000180025095e-35 84.170000000000016 -11.749999999999998 1.0000000180025095e-35 -25.049999999999997
decision_type=10 8 10 2 10
left_child=1 -1 3 -3 -5
right_child=-2 2 -4 4 -6
leaf_value=0.0051031566348725133 0.005254941207531374 -0.0016493639396503567 -0.0017698152753837348 0.00092967547657950723 0.0051396663643419743
leaf_weight=35 32 24 32 91 25
leaf_count=35 32 24 32 91 25
internal_value=0 0.00142746 0.000679496 0.00123934 0.001837
internal_weight=0 207 172 140 116
internal_count=239 207 172 140 116
is_linear=0
shrinkage=0.03


Tree=71
num_leaves=9
num_cat=0
split_feature=1 5 525 439 3 6 0 16
split_gain=0.504121 0.294908 0.382015 0.423816 0.383631 0.18932 0.167971 0.0637414
threshold=2.1000000000000005 -25.049999999999997 1.0000000180025095e-35 1.0000000180025095e-35 146.25000000000003 71.080000000000013 1.0000000180025095e-35 1.0000000180025095e-35
decision_type=10 10 2 2 10 10 8 2
left_child=1 5 4 -4 -3 6 7 -1
right_child=-2 2 3 -5 -6 -7 -8 -9
leaf_value=-0.00012276620417833327 -0.002405146513483487 0.0069884793315192354 -0.0019270033655422074 0.0036297993194311855 0.0022465457733986632 -0.00097695944943176254 0.0035199643773111428 0.0018170276635716999
leaf_weight=30 24 34 21 30 28 29 33 31
leaf_count=30 24 34 21 30 28 29 33 31
internal_value=0 0.00215852 0.00326494 0.0013417 0.00484696 0.00114205 0.00179578 0.000863031
internal_weight=0 236 113 51 62 123 94 61
internal_count=260 236 113 51 62 123 94 61
is_linear=0
shrinkage=0.03


Tree=72
num_leaves=7
num_cat=0
split_feature=3 5 6 5 290 5
split_gain=0.720037 0.374665 0.469867 0.303527 0.532468 0.0533473
threshold=84.170000000000016 -25.049999999999997 58.150000000000013 -11.749999999999998 1.0000000180025095e-35 -1.0000000180025095e-35
decision_type=8 8 8 8 2 8
left_child=5 -2 -3 -4 -5 -1
right_child=1 2 3 4 -6 -7
leaf_value=0.0064600107233439173 -0.0015825859106783019 -0.0024474213082742477 0.0054357639234513038 0.00063716758670431838 0.0055923023723065853 0.0043460793221708049
leaf_weight=21 38 21 24 89 25 22
leaf_count=21 38 21 24 89 25 22
internal_value=0 0.0010936 0.00173319 0.00236938 0.00172382 0.00537846
internal_weight=0 197 159 138 114 43
internal_count=240 197 159 138 114 43
is_linear=0
shrinkage=0.03


Tree=73
num_leaves=9
num_cat=0
split_feature=290 304 6 1 4 448 6 4
split_gain=0.420789 0.37785 0.26619 0.145308 0.309467 0.276767 0.220208 0.119771
threshold=1.0000000180025095e-35 1.0000000180025095e-35 80.38000000000001 1.0000000180025095e-35 0.12250000000000001 1.0000000180025095e-35 58.150000000000013 0.12250000000000001
decision_type=2 2 10 8 10 2 10 10
left_child=2 7 3 -1 5 -5 -6 -2
right_child=1 -3 -4 4 6 -7 -8 -9
leaf_value=0.0023924425969432507 0.0070339699648320677 0.00064839623544527133 0.0032846510565529264 -0.001314300060686138 -0.0034668472846969959 0.0024056918412033055 0.00053861212317964861 0.0038298991801483289
leaf_weight=28 21 23 36 27 30 54 21 21
leaf_count=28 21 23 36 27 30 54 21 21
internal_value=0 0.0037393 0.00095389 0.000429469 1.3081e-05 0.00116569 -0.00181754 0.00543193
internal_weight=0 65 196 160 132 81 51 42
internal_count=261 65 196 160 132 81 51 42
is_linear=0
shrinkage=0.03


Tree=74
num_leaves=6
num_cat=0
split_feature=4 53 6 1 4
split_gain=0.397539 0.245711 0.169491 0.413654 0.362276
threshold=0.26950000000000007 1.0000000180025095e-35 71.080000000000013 7.0000000000000009 1.0000000180025095e-35
decision_type=10 2 8 8 10
left_child=1 2 -1 -4 -5
right_child=-2 -3 3 4 -6
leaf_value=0.0035421056689863856 -0.0018414609511900278 0.0043208854227725947 -0.0018092874903231858 0.00069177481908254423 0.0040124786144588136
leaf_weight=33 27 35 33 77 48
leaf_count=33 27 35 33 77 48
internal_value=0 0.00201009 0.00158664 0.00117822 0.00196693
internal_weight=0 226 191 158 125
internal_count=253 226 191 158 125
is_linear=0
shrinkage=0.03


Tree=75
num_leaves=8
num_cat=0
split_feature=1 5 3 4 3 436 6
split_gain=0.425003 0.422046 0.683841 0.477261 0.387884 0.712353 0.111767
threshold=1.0000000180025095e-35 -11.749999999999998 84.170000000000016 0.26950000000000007 188.25000000000003 1.0000000180025095e-35 58.150000000000013
decision_type=10 8 8 8 10 2 10
left_child=1 3 -3 6 5 -4 -1
right_child=-2 2 4 -5 -6 -7 -8
leaf_value=0.00088355371861585544 -0.0016501195405402944 0.0079892397548436481 0.00017087700729600234 -0.0026252994192431543 0.0060020074485377835 0.0057397626952401231 0.0039787210111639328
leaf_weight=21 27 23 79 28 22 28 21
leaf_count=21 27 23 79 28 22 28 21
internal_value=0 0.00233608 0.00322375 0.000408563 0.00237408 0.00162816 0.00243114
internal_weight=0 222 152 70 129 107 42
internal_count=249 222 152 70 129 107 42
is_linear=0
shrinkage=0.03


Tree=76
num_leaves=8
num_cat=0
split_feature=53 0 7 4 448 289 6
split_gain=0.15536 0.338278 0.302991 0.232339 0.277954 0.184603 0.0476159
threshold=1.0000000180025095e-35 1.0000000180025095e-35 3.7350000000000008 0.12250000000000001 1.0000000180025095e-35 1.0000000180025095e-35 58.150000000000013
decision_type=2 8 8 10 2 2 10
left_child=1 2 -1 4 -4 -3 -5
right_child=-2 5 3 6 -6 -7 -8
leaf_value=-0.0012890086155992163 0.003219699087057961 0.0012417882286871855 -0.001635545637225732 0.005029004659584683 0.0024943772032856937 -0.0020216748609135928 0.0031867935297071066
leaf_weight=23 36 26 20 23 55 39 28
leaf_count=23 36 26 20 23 55 39 28
internal_value=0 0.00108958 0.00187738 0.00245537 0.00139306 -0.00071629 0.00401759
internal_weight=0 214 149 126 75 65 51
internal_count=250 214 149 126 75 65 51
is_linear=0
shrinkage=0.03


Tree=77
num_leaves=7
num_cat=0
split_feature=304 5 4 6 7 436
split_gain=0.600864 0.550822 0.39042 0.727194 0.714615 0.362092
threshold=1.0000000180025095e-35 -25.049999999999997 0.26950000000000007 80.38000000000001 1.0000000180025095e-35 1.0000000180025095e-35
decision_type=2 8 8 8 10 2
left_child=1 -1 3 -3 5 -4
right_child=-2 2 4 -5 -6 -7
leaf_value=-0.0013986832853954505 -0.0021784889012205358 0.0013151084206765517 0.001655921200695245 0.0075722322416092672 -0.003301037327785577 0.0057538093414364585
leaf_weight=34 34 32 69 35 21 27
leaf_count=34 34 32 69 35 21 27
internal_value=0 0.00210939 0.00275762 0.00458376 0.00171188 0.00280845
internal_weight=0 218 184 67 117 96
internal_count=252 218 184 67 117 96
is_linear=0
shrinkage=0.03


Tree=78
num_leaves=7
num_cat=0
split_feature=6 4 7 1 5 0
split_gain=0.667068 0.816464 0.732846 0.384133 0.291714 0.160867
threshold=80.38000000000001 0.21950000000000003 1.0000000180025095e-35 1.0000000180025095e-35 -25.049999999999997 1.0000000180025095e-35
decision_type=10 8 10 10 8 10
left_child=2 -2 3 4 -1 -6
right_child=1 -3 -4 -5 5 -7
leaf_value=-0.0013058035878930241 0.0091291957553476088 0.0013039305731654168 -0.0033178225456019085 -0.002526917620911263 0.0018208554291843692 0.0042394726731899111
leaf_weight=22 20 30 36 20 99 33
leaf_count=22 20 30 36 20 99 33
internal_value=0 0.00443404 0.000578379 0.00138449 0.00189246 0.00242551
internal_weight=0 50 210 174 154 132
internal_count=260 50 210 174 154 132
is_linear=0
shrinkage=0.03


Tree=79
num_leaves=6
num_cat=0
split_feature=5 304 5 5 3
split_gain=0.658369 0.493454 0.316471 0.412935 0.399544
threshold=15.755000000000001 1.0000000180025095e-35 -25.049999999999997 1.0000000180025095e-35 84.170000000000016
decision_type=10 2 8 10 8
left_child=1 2 -1 4 -4
right_child=-2 -3 3 -5 -6
leaf_value=-0.0010547120987366024 0.006351393572986125 -0.0024799086825389944 0.0060827195881574874 -0.001778888963466591 0.0018365153780806871
leaf_weight=39 21 35 24 23 118
leaf_count=39 21 35 24 23 118
internal_value=0 0.000811084 0.00137572 0.00195018 0.00255418
internal_weight=0 239 204 165 142
internal_count=260 239 204 165 142
is_linear=0
shrinkage=0.03


Tree=80
num_leaves=7
num_cat=0
split_feature=306 4 7 439 290 436
split_gain=0.42833 0.251372 0.222248 0.531488 0.186132 0.0761394
threshold=1.0000000180025095e-35 0.12250000000000001 1.0000000180025095e-35 1.0000000180025095e-35 1.0000000180025095e-35 1.0000000180025095e-35
decision_type=2 8 10 2 2 2
left_child=1 -1 4 -4 5 -3
right_child=-2 2 3 -5 -6 -7
leaf_value=0.0037405523724737574 0.005127133382079394 3.7765665514830577e-05 -0.0046919813870706338 0.0019023606471124696 0.0029466108742303081 0.0016944038216024637
leaf_weight=24 23 94 22 22 35 34
leaf_count=24 23 94 22 22 35 34
internal_value=0 0.000834167 0.000497195 -0.00139481 0.00100792 0.00047781
internal_weight=0 231 207 44 163 128
internal_count=254 231 207 44 163 128
is_linear=0
shrinkage=0.03


Tree=81
num_leaves=11
num_cat=0
split_feature=8 4 16 439 439 525 7 302 0 2
split_gain=0.362694 0.413339 0.25755 0.427687 0.421884 0.468965 0.17684 0.397866 0.0811202 0.00433411
threshold=inf 0.26950000000000007 1.0000000180025095e-35 1.0000000180025095e-35 1.0000000180025095e-35 1.0000000180025095e-35 16.405000000000005 1.0000000180025095e-35 1.0000000180025095e-35 1.0000000180025095e-35
decision_type=8 8 2 2 2 2 8 2 10 8
left_child=-1 6 3 -3 5 -4 -2 -8 -9 -5
right_child=1 2 4 9 -6 -7 7 8 -10 -11
leaf_value=-0.0017647008340805769 0.0059753427017962425 0.0054888359474251046 0.00094083133991807691 0.00082644920493476094 0.0020774846022518782 -0.0055558466333895922 0.0058898177155508437 0.0023308701896348791 -0.00010021662905013986 0.00020937376738792019
leaf_weight=25 21 25 20 20 39 20 26 30 21 21
leaf_count=25 21 25 20 20 39 20 26 30 21 21
internal_value=0 0.00203007 0.00101289 0.00239616 -0.000142765 -0.00230751 0.00353509 0.00286957 0.00132983 0.000510386
internal_weight=0 243 145 66 79 40 98 77 51 41
internal_count=268 243 145 66 79 40 98 77 51 41
is_linear=0
shrinkage=0.03


Tree=82
num_leaves=9
num_cat=0
split_feature=3 6 3 0 3 16 7 439
split_gain=0.344842 0.326652 0.405547 0.351401 0.163162 0.204401 0.039015 0.00130252
threshold=84.170000000000016 58.150000000000013 146.25000000000003 1.0000000180025095e-35 146.25000000000003 1.0000000180025095e-35 1.0000000180025095e-35 1.0000000180025095e-35
decision_type=8 10 10 10 8 2 10 2
left_child=7 3 6 4 -2 -6 -3 -1
right_child=1 2 -4 -5 5 -7 -8 -9
leaf_value=0.0039186113863252103 0.0032125588490938147 0.0016445001444247152 0.005051237681570152 -0.0021446894591029444 0.0020638931147507664 -0.0012766736070625483 -2.3052128760711005e-05 0.0042421339781555743
leaf_weight=24 27 28 36 39 34 32 23 21
leaf_count=24 27 28 36 39 34 32 23 21
internal_value=0 0.00118619 0.00261334 0.000245568 0.00124793 0.000444224 0.000892467 0.00406959
internal_weight=0 219 87 132 93 66 51 45
internal_count=264 219 87 132 93 66 51 45
is_linear=0
shrinkage=0.03


Tree=83
num_leaves=9
num_cat=0
split_feature=2 289 304 3 525 5 448 436
split_gain=0.494655 0.721038 0.467285 0.373718 0.323869 0.289191 0.150107 0.0565134
threshold=inf 1.0000000180025095e-35 1.0000000180025095e-35 146.25000000000003 1.0000000180025095e-35 15.755000000000001 1.0000000180025095e-35 1.0000000180025095e-35
decision_type=8 2 2 10 2 8 2 2
left_child=2 -2 3 5 -3 6 -1 -7
right_child=1 4 -4 -5 -6 7 -8 -9
leaf_value=-0.0017851126673631369 0.0068510677168766654 0.0030098913659987207 -0.0034010805335128679 -0.0017072772958490533 -0.0013356703842572612 0.0025603781421871287 0.0014902910253936973 0.0047408599429763854
leaf_weight=20 27 33 30 40 29 23 34 20
leaf_count=20 27 33 30 40 29 23 34 20
internal_value=0 0.00275922 -9.88006e-06 0.000732719 0.00097729 0.0017389 0.000277179 0.00357456
internal_weight=0 89 167 137 62 97 54 43
internal_count=256 89 167 137 62 97 54 43
is_linear=0
shrinkage=0.03


Tree=84
num_leaves=8
num_cat=0
split_feature=53 386 439 0 6 3 4
split_gain=0.352354 0.263774 0.213957 0.287198 0.196261 0.175034 0.400208
threshold=1.0000000180025095e-35 1.0000000180025095e-35 1.0000000180025095e-35 1.0000000180025095e-35 1.0000000180025095e-35 188.25000000000003 0.17600000000000002
decision_type=2 2 2 8 10 10 10
left_child=1 -1 3 4 -3 6 -4
right_child=-2 2 5 -5 -6 -7 -8
leaf_value=-0.0024347672789641049 0.0038083154382184147 0.00013186128973029554 -0.00013506916912200934 0.0027525025508366528 -0.0035515595988734904 0.0039841436214745037 0.0041550560989084525
leaf_weight=23 36 30 65 20 23 25 28
leaf_count=23 36 30 65 20 23 25 28
internal_value=0 0.000600402 0.000965894 -0.000310685 -0.0014666 0.00175564 0.00115658
internal_weight=0 214 191 73 53 118 93
internal_count=250 214 191 73 53 118 93
is_linear=0
shrinkage=0.03


Tree=85
num_leaves=10
num_cat=0
split_feature=4 448 14 3 16 4 3 3 16
split_gain=0.500215 0.382936 0.357068 0.349844 0.248142 0.177803 0.683308 0.169839 0.0361361
threshold=0.26950000000000007 1.0000000180025095e-35 1.0000000180025095e-35 188.25000000000003 1.0000000180025095e-35 0.12250000000000001 146.25000000000003 188.25000000000003 1.0000000180025095e-35
decision_type=8 2 2 8 2 10 10 8 2
left_child=2 7 5 4 -3 -1 -7 -2 -5
right_child=1 3 -4 8 -6 6 -8 -9 -10
leaf_value=0.0010077585631774531 -0.001156154804284597 0.0012938550171320853 -0.0012484862048983234 0.001430000091038112 -0.0027407887078451871 0.0064634390081620358 -0.00012132688344496747 -0.0048993797153234478 0.0030892859689063495
leaf_weight=27 24 23 22 21 34 37 23 20 27
leaf_count=27 24 23 22 21 34 37 23 20 27
internal_value=0 -0.000508206 0.00216605 0.00047631 -0.00111277 0.0030295 0.00393928 -0.00285762 0.00236335
internal_weight=0 149 109 105 57 87 60 44 48
internal_count=258 149 109 105 57 87 60 44 48
is_linear=0
shrinkage=0.03


Tree=86
num_leaves=10
num_cat=0
split_feature=4 448 16 16 4 290 4 2 5
split_gain=0.263928 0.20933 0.409897 0.321695 0.354862 0.407571 0.13993 0.137657 0.140182
threshold=0.26950000000000007 1.0000000180025095e-35 1.0000000180025095e-35 1.0000000180025095e-35 0.12250000000000001 1.0000000180025095e-35 0.17600000000000002 1.0000000180025095e-35 -25.049999999999997
decision_type=10 2 2 2 10 2 10 8 10
left_child=1 2 -1 7 5 -5 -6 8 -3
right_child=-2 3 -4 4 6 -7 -8 -9 -10
leaf_value=0.0027298295812681313 -0.001552843926474452 -0.0023955260720103979 -0.0026502285994446048 -0.00012209017162344285 0.0070453281830996275 0.0044562056437134744 0.0037075719629557661 0.0021527886525210408 0.0011564306672662496
leaf_weight=25 25 20 26 42 20 30 26 27 20
leaf_count=25 25 20 26 42 20 30 26 27 20
internal_value=0 0.00168875 -1.29452e-05 0.00215787 0.00310052 0.00178553 0.00515877 0.000497662 -0.000619548
internal_weight=0 236 51 185 118 72 46 67 40
internal_count=261 236 51 185 118 72 46 67 40
is_linear=0
shrinkage=0.03


Tree=87
num_leaves=8
num_cat=0
split_feature=286 1 3 3 0 3 6
split_gain=0.339762 0.303992 0.890659 0.290905 0.305847 0.350825 0.104177
threshold=1.0000000180025095e-35 4.3500000000000005 110.55000000000003 146.25000000000003 1.0000000180025095e-35 110.55000000000003 58.150000000000013
decision_type=2 8 10 10 10 8 10
left_child=1 2 -1 4 5 -3 -5
right_child=-2 3 -4 6 -6 -7 -8
leaf_value=-0.0021367033916924682 0.0045160162299871442 -0.0001696460329927504 0.006036389782758696 -0.0031308334046043452 -0.0019017345326081396 0.0035259839412106505 -0.00053632830341274922
leaf_weight=21 20 50 28 30 31 43 26
leaf_count=21 20 50 28 30 31 43 26
internal_value=0 0.000438689 0.00253364 -0.000131602 0.000678881 0.00153909 -0.00192624
internal_weight=0 229 49 180 124 93 56
internal_count=249 229 49 180 124 93 56
is_linear=0
shrinkage=0.03


Tree=88
num_leaves=7
num_cat=0
split_feature=304 8 289 6 6 1
split_gain=0.441881 0.717296 1.15087 1.01584 0.133723 0.181995
threshold=1.0000000180025095e-35 inf 1.0000000180025095e-35 80.38000000000001 71.080000000000013 inf
decision_type=2 8 2 8 8 8
left_child=1 -1 3 -3 -4 -6
right_child=-2 2 4 -5 5 -7
leaf_value=-0.0035393655560910699 -0.0015003675987898576 0.0013406330975703896 0.0033070477405562995 0.0094522844966162325 -0.0011759911323232311 0.0013582527623920543
leaf_weight=20 41 24 20 33 35 94
leaf_count=20 41 24 20 33 35 94
internal_value=0 0.00188482 0.00241144 0.00603685 0.00102454 0.000670667
internal_weight=0 226 206 57 149 129
internal_count=267 226 206 57 149 129
is_linear=0
shrinkage=0.03


Tree=89
num_leaves=10
num_cat=0
split_feature=304 51 16 439 16 16 1 525 525
split_gain=0.499428 0.979852 0.450947 0.245804 0.568263 0.406696 0.269575 0.14577 0.0586914
threshold=1.0000000180025095e-35 1.0000000180025095e-35 1.0000000180025095e-35 1.0000000180025095e-35 1.0000000180025095e-35 1.0000000180025095e-35 63.500000000000007 1.0000000180025095e-35 1.0000000180025095e-35
decision_type=2 2 2 2 2 2 8 2 2
left_child=1 2 -1 5 6 -3 -5 -6 -7
right_child=-2 3 -4 4 7 8 -8 -9 -10
leaf_value=0.0022299944087862968 -0.0025383720866075771 0.0018573735291803522 0.0079280806951224792 -0.0037680235784500835 0.0019815812924164622 -0.0038000067477316959 0.00064592645715244796 0.0049992570315487679 -0.0016568228857510763
leaf_weight=25 34 28 25 20 34 23 33 25 23
leaf_count=25 34 28 25 20 34 23 33 25 23
internal_value=0 0.00135068 0.00507904 0.000348439 0.00123491 -0.000993252 -0.00101972 0.00326026 -0.00272841
internal_weight=0 236 50 186 112 74 53 59 46
internal_count=270 236 50 186 112 74 53 59 46
is_linear=0
shrinkage=0.03


Tree=90
num_leaves=7
num_cat=0
split_feature=5 1 7 4 448 525
split_gain=0.520243 0.302513 0.394167 0.270085 0.413649 0.335002
threshold=15.755000000000001 4.3500000000000005 0.17700000000000002 0.17600000000000002 1.0000000180025095e-35 1.0000000180025095e-35
decision_type=10 10 10 10 2 2
left_child=1 2 3 4 -1 -5
right_child=-2 -3 -4 5 -6 -7
leaf_value=-0.0025902213650459251 0.0060243879478763451 -0.0023270623655989764 0.004997480004094541 0.00062158847380487713 0.0012517341142672628 0.0050733897260165422
leaf_weight=33 22 20 26 32 107 29
leaf_count=33 22 20 26 32 107 29
internal_value=0 0.00121 0.00152164 0.00107203 0.00034613 0.00273802
internal_weight=0 247 227 201 140 61
internal_count=269 247 227 201 140 61
is_linear=0
shrinkage=0.03


Tree=91
num_leaves=7
num_cat=0
split_feature=466 5 1 304 7 4
split_gain=0.255409 0.335785 0.506654 0.333945 0.417235 0.0851686
threshold=1.0000000180025095e-35 1.0000000180025095e-35 inf 1.0000000180025095e-35 1.0000000180025095e-35 1.0000000180025095e-35
decision_type=2 10 8 2 10 10
left_child=1 2 5 4 -4 -1
right_child=-2 -3 3 -5 -6 -7
leaf_value=-0.0039094882106615438 0.0038517395506746004 0.003054759048488146 0.0022515720429361285 -0.0025471126998815202 -0.002157435023691505 -0.0013265551915392279
leaf_weight=27 21 36 99 23 24 20
leaf_count=27 21 36 99 23 24 20
internal_value=0 0.000394881 -0.000101263 0.000770847 0.00139128 -0.00281037
internal_weight=0 229 193 146 123 47
internal_count=250 229 193 146 123 47
is_linear=0
shrinkage=0.03


Tree=92
num_leaves=9
num_cat=0
split_feature=5 302 4 1 2 525 525 439
split_gain=0.246466 0.313922 0.380407 0.283909 0.225743 0.329047 0.237661 0.18081
threshold=-25.049999999999997 1.0000000180025095e-35 0.26950000000000007 63.500000000000007 1.0000000180025095e-35 1.0000000180025095e-35 1.0000000180025095e-35 1.0000000180025095e-35
decision_type=10 2 8 8 8 2 2 2
left_child=4 2 -2 -3 5 -1 -6 -5
right_child=1 3 -4 7 6 -7 -8 -9
leaf_value=-0.002439972671929227 0.0015446934882890092 0.0041187318713803373 0.0071896287745663095 -0.0020968354290181938 0.0034960495134476908 0.0014475991912574196 -0.00019332305714488029 0.0013375284115947482
leaf_weight=43 22 21 21 22 33 36 30 37
leaf_count=43 22 21 21 22 33 36 30 37
internal_value=0 0.00223428 0.00430152 0.00112314 0.000399751 -0.000668421 0.00173921 5.69182e-05
internal_weight=0 123 43 80 142 79 63 59
internal_count=265 123 43 80 142 79 63 59
is_linear=0
shrinkage=0.03


Tree=93
num_leaves=9
num_cat=0
split_feature=304 51 5 6 5 5 16 5
split_gain=0.417993 0.886158 0.613402 0.13915 0.331149 0.327291 0.233155 0.0463561
threshold=1.0000000180025095e-35 1.0000000180025095e-35 -11.749999999999998 58.150000000000013 15.755000000000001 -11.749999999999998 1.0000000180025095e-35 -25.049999999999997
decision_type=2 2 10 10 8 8 2 10
left_child=1 2 -1 4 -3 -5 -6 -2
right_child=7 3 -4 5 6 -7 -8 -9
leaf_value=0.0024273941164406443 -0.0025465320479124785 -0.00073341216561139419 0.0094156871549785134 0.0020488916454656468 0.0012552896063268261 -0.0020808631095748683 0.0049217831736637482 -0.00055093518034978351
leaf_weight=26 20 38 20 31 37 39 27 22
leaf_count=26 20 38 20 31 37 39 27 22
internal_value=0 0.00176721 0.00546578 0.000778059 0.00148494 -0.000251972 0.00280209 -0.00150122
internal_weight=0 218 46 172 102 70 64 42
internal_count=260 218 46 172 102 70 64 42
is_linear=0
shrinkage=0.03


Tree=94
num_leaves=9
num_cat=0
split_feature=18 0 7 203 439 203 53 2
split_gain=0.180693 0.2009 0.242542 0.29982 0.473905 0.182634 0.280462 0.013932
threshold=1.0000000180025095e-35 1.0000000180025095e-35 3.7350000000000008 1.0000000180025095e-35 1.0000000180025095e-35 1.0000000180025095e-35 1.0000000180025095e-35 inf
decision_type=2 8 8 2 2 2 2 8
left_child=1 2 -1 -4 -5 6 -3 -7
right_child=-2 5 3 4 -6 7 -8 -9
leaf_value=-0.0032371263155205679 0.0029420123430382874 -0.0025239766454324126 0.0028508003442227069 -0.0035385076506909995 0.00091165302207715988 0.0023241595669242087 0.0022862369567155836 0.0033822419081947631
leaf_weight=22 27 20 29 33 62 24 24 21
leaf_count=22 27 20 29 33 62 24 24 21
internal_value=0 0.000350661 -0.000334191 0.000180846 -0.000634192 0.00147412 9.97762e-05 0.00281793
internal_weight=0 235 146 124 95 89 44 45
internal_count=262 235 146 124 95 89 44 45
is_linear=0
shrinkage=0.03


Tree=95
num_leaves=7
num_cat=0
split_feature=3 5 5 386 5 5
split_gain=0.335492 0.787979 0.3233 0.415468 0.219962 0.107794
threshold=84.170000000000016 1.0000000180025095e-35 -11.749999999999998 1.0000000180025095e-35 -25.049999999999997 -25.049999999999997
decision_type=8 10 10 2 10 10
left_child=5 2 3 -2 -5 -1
right_child=1 -3 -4 4 -6 -7
leaf_value=0.0046265408113742102 -0.0031374684434384106 0.0045570231529858873 -0.0027470937789090578 0.00041605435917785815 0.0034416228682467979 0.0018070806004106999
leaf_weight=26 25 37 37 95 28 23
leaf_count=26 25 37 37 95 28 23
internal_value=0 0.000560456 -0.000238857 0.000388202 0.0011048 0.00330312
internal_weight=0 222 185 148 123 49
internal_count=271 222 185 148 123 49
is_linear=0
shrinkage=0.03


Tree=96
num_leaves=7
num_cat=0
split_feature=448 53 4 7 436 6
split_gain=0.535594 0.410618 0.310382 0.228616 0.292656 0.181647
threshold=1.0000000180025095e-35 1.0000000180025095e-35 0.17600000000000002 16.405000000000005 1.0000000180025095e-35 58.150000000000013
decision_type=2 2 10 8 2 10
left_child=2 3 -1 -2 5 -5
right_child=1 -3 -4 4 -6 -7
leaf_value=-0.0034211427807558053 0.0031302112283551 0.0042947139919680705 0.0010638719358082329 -0.001917822511232872 0.0022191258978896907 0.00081089011569683621
leaf_weight=41 28 34 21 54 42 37
leaf_count=41 28 34 21 54 42 37
internal_value=0 0.00129903 -0.00190202 0.000666396 0.000147698 -0.000808346
internal_weight=0 195 62 161 133 91
internal_count=257 195 62 161 133 91
is_linear=0
shrinkage=0.03


Tree=97
num_leaves=8
num_cat=0
split_feature=3 5 5 6 3 5 525
split_gain=0.385323 0.166588 0.172143 0.667865 0.136458 0.33897 0.0682534
threshold=84.170000000000016 15.755000000000001 -11.749999999999998 58.150000000000013 146.25000000000003 -25.049999999999997 1.0000000180025095e-35
decision_type=8 10 10 10 8 10 2
left_child=-1 2 4 -4 5 -2 -6
right_child=1 -3 3 -5 6 -7 -8
leaf_value=0.0041700955910601873 0.00038172322385493789 0.0033444556433030151 -0.0046092295893322439 0.0019679596715352753 0.0011623916195162994 0.0053181564834501064 -0.00047916926722973589
leaf_weight=37 31 22 24 33 53 21 40
leaf_count=37 31 22 24 33 53 21 40
internal_value=0 0.000865419 0.000595425 -0.000801383 0.00114452 0.00237528 0.000456344
internal_weight=0 224 202 57 145 52 93
internal_count=261 224 202 57 145 52 93
is_linear=0
shrinkage=0.03


Tree=98
num_leaves=8
num_cat=0
split_feature=5 4 14 1 464 525 1
split_gain=0.487053 0.438708 0.310986 0.306542 0.172051 0.271758 0.147517
threshold=1.0000000180025095e-35 0.17600000000000002 1.0000000180025095e-35 1.0000000180025095e-35 1.0000000180025095e-35 1.0000000180025095e-35 4.3500000000000005
decision_type=10 10 2 8 2 2 8
left_child=2 -2 3 -1 5 -5 -4
right_child=1 -3 6 4 -6 -7 -8
leaf_value=-0.0038018070550804783 0.0064596989264954687 0.00060020530434406322 0.0039795012512932656 -0.0020034951324447649 0.0022098001994443339 0.00095249406708477937 0.00061731152527499944
leaf_weight=22 23 23 23 55 26 57 24
leaf_count=22 23 23 23 55 26 57 24
internal_value=0 0.00352995 0.000117193 -0.000513031 1.12662e-05 -0.000499108 0.00226264
internal_weight=0 46 207 160 138 112 47
internal_count=253 46 207 160 138 112 47
is_linear=0
shrinkage=0.03


Tree=99
num_leaves=6
num_cat=0
split_feature=464 7 53 436 3
split_gain=0.292899 0.495704 0.103681 0.180809 0.379017
threshold=1.0000000180025095e-35 16.405000000000005 1.0000000180025095e-35 1.0000000180025095e-35 1.0000000180025095e-35
decision_type=2 8 2 2 10
left_child=1 -1 3 4 -3
right_child=-2 2 -4 -5 -6
leaf_value=-0.0025231422181241211 0.0040692599659311011 -0.0024211860625073314 0.0032491111543706871 0.0029198131564929074 0.0014023243264029068
leaf_weight=36 26 30 22 37 105
leaf_count=36 26 30 22 37 105
internal_value=0 0.000709952 0.00130991 0.00106187 0.000552655
internal_weight=0 230 194 172 135
internal_count=256 230 194 172 135
is_linear=0
shrinkage=0.03


Tree=100
num_leaves=7
num_cat=0
split_feature=18 8 35 6 5 525
split_gain=0.330714 0.177011 0.160972 0.171816 0.26467 0.0950027
threshold=1.0000000180025095e-35 inf 1.0000000180025095e-35 80.38000000000001 -11.749999999999998 1.0000000180025095e-35
decision_type=2 8 2 8 8 2
left_child=1 -1 -3 5 -5 -4
right_child=-2 2 3 4 -6 -7
leaf_value=-0.0025960854962468146 0.003873305875382831 0.0027857369133694604 -0.0023474620232908899 0.0026703615815708093 -0.00022773940090859389 0.00013317945646122099
leaf_weight=20 23 22 33 41 92 24
leaf_count=20 23 22 33 41 92 24
internal_value=0 0.000101842 0.000356364 7.50677e-05 0.00066566 -0.00130298
internal_weight=0 232 212 190 133 57
internal_count=255 232 212 190 133 57
is_linear=0
shrinkage=0.03


Tree=101
num_leaves=8
num_cat=0
split_feature=6 53 3 16 464 6 5
split_gain=0.268434 0.220951 0.499092 0.205341 0.157675 0.14604 0.0798149
threshold=71.080000000000013 1.0000000180025095e-35 188.25000000000003 1.0000000180025095e-35 1.0000000180025095e-35 90.25500000000001 -11.749999999999998
decision_type=8 2 8 2 2 8 8
left_child=6 2 4 -4 5 -2 -1
right_child=1 -3 3 -5 -6 -7 -8
leaf_value=0.0010919277504685201 -0.00057551957666873927 0.0024791102774441242 4.1505737305694332e-05 0.0034130643911916632 0.00062434710538946086 -0.003168366716126911 0.0036500193743521101
leaf_weight=21 29 25 37 29 20 60 23
leaf_count=21 29 25 37 29 20 60 23
internal_value=0 -0.000159064 -0.000535946 0.00152295 -0.00178262 -0.00232351 0.00242911
internal_weight=0 200 175 66 109 89 44
internal_count=244 200 175 66 109 89 44
is_linear=0
shrinkage=0.03


Tree=102
num_leaves=9
num_cat=0
split_feature=3 6 304 51 6 525 439 448
