tree
version=v3
num_class=1
num_tree_per_iteration=1
label_index=0
max_feature_idx=525
objective=regression
feature_names=feature0 feature1 feature2 feature3 feature4 feature5 feature6 feature7 feature8 feature9 feature10 feature11 feature12 feature13 feature14 feature15 feature16 feature17 feature18 feature19 feature20 feature21 feature22 feature23 feature24 feature25 feature26 feature27 feature28 feature29 feature30 feature31 feature32 feature33 feature34 feature35 feature36 feature37 feature38 feature39 feature40 feature41 feature42 feature43 feature44 feature45 feature46 feature47 feature48 feature49 feature50 feature51 feature52 feature53 feature54 feature55 feature56 feature57 feature58 feature59 feature60 feature61 feature62 feature63 feature64 feature65 feature66 feature67 feature68 feature69 feature70 feature71 feature72 feature73 feature74 feature75 feature76 feature77 feature78 feature79 feature80 feature81 feature82 feature83 feature84 feature85 feature86 feature87 feature88 feature89 feature90 feature91 feature92 feature93 feature94 feature95 feature96 feature97 feature98 feature99 feature100 feature101 feature102 feature103 feature104 feature105 feature106 feature107 feature108 feature109 feature110 feature111 feature112 feature113 feature114 feature115 feature116 feature117 feature118 feature119 feature120 feature121 feature122 feature123 feature124 feature125 feature126 feature127 feature128 feature129 feature130 feature131 feature132 feature133 feature134 feature135 feature136 feature137 feature138 feature139 feature140 feature141 feature142 feature143 feature144 feature145 feature146 feature147 feature148 feature149 feature150 feature151 feature152 feature153 feature154 feature155 feature156 feature157 feature158 feature159 feature160 feature161 feature162 feature163 feature164 feature165 feature166 feature167 feature168 feature169 feature170 feature171 feature172 feature173 feature174 feature175 feature176 feature177 feature178 feature179 feature180 feature181 feature182 feature183 feature184 feature185 feature186 feature187 feature188 feature189 feature190 feature191 feature192 feature193 feature194 feature195 feature196 feature197 feature198 feature199 feature200 feature201 feature202 feature203 feature204 feature205 feature206 feature207 feature208 feature209 feature210 feature211 feature212 feature213 feature214 feature215 feature216 feature217 feature218 feature219 feature220 feature221 feature222 feature223 feature224 feature225 feature226 feature227 feature228 feature229 feature230 feature231 feature232 feature233 feature234 feature235 feature236 feature237 feature238 feature239 feature240 feature241 feature242 feature243 feature244 feature245 feature246 feature247 feature248 feature249 feature250 feature251 feature252 feature253 feature254 feature255 feature256 feature257 feature258 feature259 feature260 feature261 feature262 feature263 feature264 feature265 feature266 feature267 feature268 feature269 feature270 feature271 feature272 feature273 feature274 feature275 feature276 feature277 feature278 feature279 feature280 feature281 feature282 feature283 feature284 feature285 feature286 feature287 feature288 feature289 feature290 feature291 feature292 feature293 feature294 feature295 feature296 feature297 feature298 feature299 feature300 feature301 feature302 feature303 feature304 feature305 feature306 feature307 feature308 feature309 feature310 feature311 feature312 feature313 feature314 feature315 feature316 feature317 feature318 feature319 feature320 feature321 feature322 feature323 feature324 feature325 feature326 feature327 feature328 feature329 feature330 feature331 feature332 feature333 feature334 feature335 feature336 feature337 feature338 feature339 feature340 feature341 feature342 feature343 feature344 feature345 feature346 feature347 feature348 feature349 feature350 feature351 feature352 feature353 feature354 feature355 feature356 feature357 feature358 feature359 feature360 feature361 feature362 feature363 feature364 feature365 feature366 feature367 feature368 feature369 feature370 feature371 feature372 feature373 feature374 feature375 feature376 feature377 feature378 feature379 feature380 feature381 feature382 feature383 feature384 feature385 feature386 feature387 feature388 feature389 feature390 feature391 feature392 feature393 feature394 feature395 feature396 feature397 feature398 feature399 feature400 feature401 feature402 feature403 feature404 feature405 feature406 feature407 feature408 feature409 feature410 feature411 feature412 feature413 feature414 feature415 feature416 feature417 feature418 feature419 feature420 feature421 feature422 feature423 feature424 feature425 feature426 feature427 feature428 feature429 feature430 feature431 feature432 feature433 feature434 feature435 feature436 feature437 feature438 feature439 feature440 feature441 feature442 feature443 feature444 feature445 feature446 feature447 feature448 feature449 feature450 feature451 feature452 feature453 feature454 feature455 feature456 feature457 feature458 feature459 feature460 feature461 feature462 feature463 feature464 feature465 feature466 feature467 feature468 feature469 feature470 feature471 feature472 feature473 feature474 feature475 feature476 feature477 feature478 feature479 feature480 feature481 feature482 feature483 feature484 feature485 feature486 feature487 feature488 feature489 feature490 feature491 feature492 feature493 feature494 feature495 feature496 feature497 feature498 feature499 feature500 feature501 feature502 feature503 feature504 feature505 feature506 feature507 feature508 feature509 feature510 feature511 feature512 feature513 feature514 feature515 feature516 feature517 feature518 feature519 feature520 feature521 feature522 feature523 feature524 feature525
feature_infos=[0:1] [0:100] [0:1] [4.7300000000000004:2640] [0.012999999999999999:21.920000000000002] [-64.299999999999997:48.450000000000003] [0.46600000000000003:99.799999999999997] [0.0275:78.299999999999997] [0:46] none none none none none [0:1] none [0:1] none [0:1] none none none none none none none none none none none none none none none none [0:1] none none none none none none [0:1] none none none none none none none none [0:1] none [0:1] none none none none none none none none none none none none none none none none none none none none none none none none none none none none none none none none none none none none none none none none none none none none none none none none none none none none none none none none none none none none none none none none none none none none none none none none none none none none none none none none none none none none none none none none none none none none none none none none none none none none none none none none none none none none none none none none none none none none none none none none none none none none none none none none none none none none none none none none none none none none none none none none none none none none none [0:1] none none none none none none none none none none none none none none none none none none none none none none none none none none none none none none none none none none none none none none none none none none none none none none none none none none none none none none none none none none none none none none none none none none none none none none none none none none none none none none none none none none [0:1] none none [0:1] [0:1] none none none none none none none none none none none [0:1] none [0:1] none [0:1] none none none none none none none none none none none none none none none none none none none none none none none none none none none none none none none none none none none none none none none none none none none none none none none none none none none none none none none none none none none none none none none none none none none none none none none none none none none none none none none [0:1] none none none none none none none none none none none none none none none none none none none none none none none none none none none none none none none none none none none none none none none none none none none none none none none none none [0:1] none none [0:1] [0:1] none none none none [0:1] none none [0:1] none none none none none none none none none none none none none none none [0:1] none [0:1] none none none [0:1] none none none none none none none none none none none none none none none none none none none none none none none none none none none none none none none none none none none none none none none none none none none none none none none none none none none none none [0:1] [0:1]
tree_sizes=892 985 734 907 796 882 902 988 997 913 904 656 891 997 984 906 902 915 889 825 998 911 816 994 975 906 833 664 663 739 839

Tree=0
num_leaves=9
num_cat=0
split_feature=3 51 304 3 4 436 4 6
split_gain=4.64459 2.40006 1.57045 0.981563 0.780376 0.467542 0.162755 0.131325
threshold=88.200000000000017 1.0000000180025095e-35 1.0000000180025095e-35 151.55000000000004 0.17600000000000002 1.0000000180025095e-35 0.12250000000000001 80.450000000000017
decision_type=8 2 2 10 10 2 10 8
left_child=-1 2 7 4 5 -3 -5 -2
right_child=1 3 -4 6 -6 -7 -8 -9
leaf_value=0.029074924367089423 0.023388038884316172 0.0099191204034205938 0.015382433203049004 0.019804594487599705 0.018123248884454369 0.014881367442011833 0.016425293680151991 0.026784780632704494
leaf_weight=31 21 54 24 23 20 25 29 20
leaf_count=31 21 54 24 23 20 25 29 20
internal_value=0 0.0166574 0.0214773 0.0145826 0.0128296 0.0114895 0.01792 0.025045
internal_weight=0 216 65 151 99 79 52 41
internal_count=247 216 65 151 99 79 52 41
is_linear=0
shrinkage=0.03


Tree=1
num_leaves=10
num_cat=0
split_feature=289 4 304 2 0 2 3 3 6
split_gain=5.89287 1.40509 1.07229 0.901184 0.771626 0.730242 0.441076 0.343136 0.171039
threshold=1.0000000180025095e-35 1.0000000180025095e-35 1.0000000180025095e-35 1.0000000180025095e-35 1.0000000180025095e-35 1.0000000180025095e-35 112.50000000000001 190.28000000000003 80.450000000000017
decision_type=2 10 2 8 10 8 10 8 8
left_child=2 3 4 7 5 -1 -3 -2 -8
right_child=1 6 -4 -5 -6 -7 8 -9 -10
leaf_value=0.01818292445540428 0.010016221995107256 0.017986716885458338 0.017246384241152553 0.0057928777330380401 0.028377090703857979 0.025771387772900719 0.011611563679964645 0.01517215426212975 0.015311543281105431
leaf_weight=25 26 33 32 32 23 21 23 21 22
leaf_count=25 26 33 32 32 23 21 23 21 22
internal_value=0 0.0124961 0.0217854 0.00967606 0.0238905 0.0216472 0.0153523 0.0123199 0.0134204
internal_weight=0 157 101 79 69 46 78 47 45
internal_count=258 157 101 79 69 46 78 47 45
is_linear=0
shrinkage=0.03


Tree=2
num_leaves=7
num_cat=0
split_feature=51 3 5 5 6 436
split_gain=2.5925 1.59402 0.804168 0.536999 0.773922 0.529709
threshold=1.0000000180025095e-35 88.200000000000017 -25.584999999999997 1.0000000180025095e-35 61.610000000000007 1.0000000180025095e-35
decision_type=2 8 10 10 10 2
left_child=2 -2 -1 4 5 -3
right_child=1 3 -4 -5 -6 -7
leaf_value=0.017334284372627736 0.020330606833290816 0.012448752277881885 0.024069512503651469 0.016780067025683819 0.0086940773683958326 0.018074790269136429
leaf_weight=27 33 61 39 28 39 20
leaf_count=27 33 61 39 28 39 20
internal_value=0 0.0143685 0.0213142 0.0130391 0.0121662 0.0138379
internal_weight=0 181 66 148 120 81
internal_count=247 181 66 148 120 81
is_linear=0
shrinkage=0.03


Tree=3
num_leaves=9
num_cat=0
split_feature=4 289 439 436 289 2 4 290
split_gain=1.83816 0.952957 1.23219 0.839029 0.630564 0.817003 0.197387 0.143678
threshold=0.27250000000000008 1.0000000180025095e-35 1.0000000180025095e-35 1.0000000180025095e-35 1.0000000180025095e-35 1.0000000180025095e-35 0.17600000000000002 1.0000000180025095e-35
decision_type=8 2 2 2 2 8 10 2
left_child=1 6 -3 4 -2 -6 -1 -5
right_child=3 2 -4 7 5 -7 -8 -9
leaf_value=0.023882040622728792 0.014622993503625576 0.01173090074211359 0.01969944768631831 0.015067658305422151 0.012681648985083614 0.0055808917891234152 0.019764112881850451 0.01824194426482011
leaf_weight=22 39 31 40 33 35 25 20 21
leaf_count=22 39 31 40 33 35 25 20 21
internal_value=0 0.0183391 0.0162202 0.0132941 0.0116533 0.009723 0.0219211 0.0163021
internal_weight=0 113 71 153 99 60 42 54
internal_count=266 113 71 153 99 60 42 54
is_linear=0
shrinkage=0.03


Tree=4
num_leaves=8
num_cat=0
split_feature=3 4 289 448 2 3 203
split_gain=3.88911 1.66581 1.25103 0.985202 0.785826 0.44118 0.285579
threshold=88.200000000000017 0.27250000000000008 1.0000000180025095e-35 1.0000000180025095e-35 inf 151.55000000000004 1.0000000180025095e-35
decision_type=8 8 2 2 8 10 2
left_child=-1 2 -2 -3 6 -4 -5
right_child=1 3 5 4 -6 -7 -8
leaf_value=0.025469071824635776 0.022012812224896372 0.0083968733895668068 0.012425497793592512 0.014954706797003746 0.018943370180609435 0.017821597717702389 0.010826199165986556
leaf_weight=35 37 38 30 25 23 25 38
leaf_count=35 37 38 30 25 23 25 38
internal_value=0 0.014689 0.0177476 0.0124197 0.0141972 0.0148783 0.0124645
internal_weight=0 216 92 124 86 55 63
internal_count=251 216 92 124 86 55 63
is_linear=0
shrinkage=0.03


Tree=5
num_leaves=9
num_cat=0
split_feature=448 53 2 4 5 4 0 5
split_gain=2.79914 2.07498 1.41586 1.85907 1.08003 0.466532 0.371118 0.0631225
threshold=1.0000000180025095e-35 1.0000000180025095e-35 inf 0.21550000000000002 -25.584999999999997 0.17600000000000002 1.0000000180025095e-35 -11.949999999999998
decision_type=2 2 8 8 10 10 10 10
left_child=4 2 5 -4 -1 6 -2 -7
right_child=1 -3 3 -5 -6 7 -8 -9
leaf_value=0.0057331736639625588 0.013711566443393088 0.023981936769771641 0.025918292570859192 0.014716198009205981 0.014544690103669251 0.017472150899469852 0.0088984544575214392 0.015117206381899969
leaf_weight=31 46 33 24 30 21 20 21 21
leaf_count=31 46 33 24 30 21 20 21 21
internal_value=0 0.0171253 0.0157286 0.0196949 0.00929167 0.0137454 0.012203 0.016266
internal_weight=0 195 162 54 52 108 67 41
internal_count=247 195 162 54 52 108 67 41
is_linear=0
shrinkage=0.03


Tree=6
num_leaves=9
num_cat=0
split_feature=289 304 2 448 4 4 6 16
split_gain=1.40506 1.63441 0.539267 1.13344 0.649605 0.476795 0.382942 0.0700324
threshold=1.0000000180025095e-35 1.0000000180025095e-35 1.0000000180025095e-35 1.0000000180025095e-35 0.21550000000000002 0.27250000000000008 90.25500000000001 1.0000000180025095e-35
decision_type=2 2 8 2 10 8 8 2
left_child=1 5 4 -4 6 -1 -2 -8
right_child=2 -3 3 -5 -6 -7 7 -9
leaf_value=0.023094781494953413 0.0088382256667440141 0.011220618914389476 0.0038790313719904842 0.012523832879244134 0.017284286713600158 0.017357613486237822 0.011980296049415218 0.014224930604727104
leaf_weight=22 27 33 21 39 25 32 22 29
leaf_count=22 27 33 21 39 25 32 22 29
internal_value=0 0.0164806 0.011759 0.00949815 0.013076 0.019695 0.0117272 0.0132567
internal_weight=0 87 163 60 103 54 78 51
internal_count=250 87 163 60 103 54 78 51
is_linear=0
shrinkage=0.03


Tree=7
num_leaves=10
num_cat=0
split_feature=51 304 4 436 6 3 439 16 2
split_gain=1.87138 1.51831 0.888442 0.803391 0.559717 0.52784 0.51038 0.601397 0.25131
threshold=1.0000000180025095e-35 1.0000000180025095e-35 0.27250000000000008 1.0000000180025095e-35 80.450000000000017 112.50000000000001 1.0000000180025095e-35 1.0000000180025095e-35 1.0000000180025095e-35
decision_type=2 2 8 2 8 10 2 2 8
left_child=1 4 6 5 -1 8 -2 -8 -4
right_child=2 -3 3 -5 -6 -7 7 -9 -10
leaf_value=0.018073111860589547 0.012215167961728115 0.013141804839814862 0.0096337080959762837 0.015361094726891867 0.024519409326215585 0.01224821424617299 0.01404248214592891 0.021311392497969789 0.0050455421743787485
leaf_weight=22 26 31 21 29 27 35 21 20 22
leaf_count=22 26 31 21 29 27 35 21 20 22
internal_value=0 0.0183379 0.0127942 0.0110978 0.0216252 0.00951279 0.0155032 0.0175883 0.00728627
internal_weight=0 80 174 107 49 78 67 41 43
internal_count=254 80 174 107 49 78 67 41 43
is_linear=0
shrinkage=0.03


Tree=8
num_leaves=10
num_cat=0
split_feature=53 448 4 16 525 16 525 4 5
split_gain=2.75466 0.984943 0.532752 0.712952 0.545173 0.679785 0.457352 0.349724 0.298484
threshold=1.0000000180025095e-35 1.0000000180025095e-35 1.0000000180025095e-35 1.0000000180025095e-35 1.0000000180025095e-35 1.0000000180025095e-35 1.0000000180025095e-35 0.12250000000000001 15.755000000000001
decision_type=2 2 10 2 2 2 2 10 8
left_child=1 7 4 -4 5 -3 -5 8 -1
right_child=-2 2 3 6 -6 -7 -8 -9 -10
leaf_value=0.0045703209629282355 0.0212389644540169 0.017022279568693854 0.011192957862513139 0.014190343438551344 0.00781408873350861 0.0095644801232794459 0.019616090340746774 0.012052512336988003 0.0095814652230752553
leaf_weight=20 33 22 32 29 26 22 27 20 23
leaf_count=20 33 22 32 29 26 22 27 20 23
internal_value=0 0.0119468 0.0132114 0.0147651 0.0112582 0.0132934 0.0168063 0.00877509 0.0072507
internal_weight=0 221 158 88 70 44 56 63 43
internal_count=254 221 158 88 70 44 56 63 43
is_linear=0
shrinkage=0.03


Tree=9
num_leaves=9
num_cat=0
split_feature=4 53 525 4 525 5 525 5
split_gain=1.50331 0.823231 0.763948 0.600725 0.274847 0.232954 0.21558 0.169209
threshold=0.21550000000000002 1.0000000180025095e-35 1.0000000180025095e-35 0.21550000000000002 1.0000000180025095e-35 -1.0000000180025095e-35 1.0000000180025095e-35 -11.949999999999998
decision_type=8 2 2 10 2 8 2 10
left_child=2 3 7 5 -5 -2 -7 -1
right_child=1 -3 -4 4 -6 6 -8 -9
leaf_value=0.010494115243532828 0.0059753591092885474 0.015048485513275058 0.018399521830890858 0.013976597622450853 0.0096550786122679699 0.01067950236695734 0.0071955068374893842 0.014302479784403528
leaf_weight=21 36 26 35 27 26 33 31 21
leaf_count=21 36 26 35 27 26 33 31 21
internal_value=0 0.0101132 0.0151261 0.00927449 0.0118566 0.00790597 0.00899194 0.0123983
internal_weight=0 179 77 153 53 100 64 42
internal_count=256 179 77 153 53 100 64 42
is_linear=0
shrinkage=0.03


Tree=10
num_leaves=9
num_cat=0
split_feature=290 304 3 5 6 1 439 6
split_gain=2.30022 2.27619 1.29698 1.34603 0.65847 0.511702 0.274122 0.25953
threshold=1.0000000180025095e-35 1.0000000180025095e-35 88.200000000000017 1.0000000180025095e-35 1.0000000180025095e-35 42.500000000000007 1.0000000180025095e-35 80.450000000000017
decision_type=2 2 8 10 10 8 2 8
left_child=2 7 -1 4 6 -6 -4 -2
right_child=1 -3 3 -5 5 -7 -8 -9
leaf_value=0.016159179891600567 0.019334309052675962 0.010957934427042973 0.012503313053931507 0.015952603319393736 0.010151019958779215 0.0041950629290029712 0.0088234761482300725 0.024007038299156271
leaf_weight=38 20 29 35 28 20 37 38 23
leaf_count=38 20 29 35 28 20 37 38 23
internal_value=0 0.0174532 0.011183 0.00998619 0.00870112 0.00628487 0.0105878 0.0218337
internal_weight=0 72 196 158 130 57 73 43
internal_count=268 72 196 158 130 57 73 43
is_linear=0
shrinkage=0.03


Tree=11
num_leaves=6
num_cat=0
split_feature=53 5 3 3 5
split_gain=2.78594 1.31312 0.551938 0.599859 0.425308
threshold=1.0000000180025095e-35 1.0000000180025095e-35 88.200000000000017 112.50000000000001 -11.949999999999998
decision_type=2 10 8 8 10
left_child=1 2 -1 -4 -5
right_child=-2 -3 3 4 -6
leaf_value=0.013784423887522684 0.019937455194691815 0.015911828477222185 0.004981461006145064 0.010798531745772954 0.0062034012241797016
leaf_weight=27 36 39 26 103 22
leaf_count=27 36 39 26 103 22
internal_value=0 0.0109262 0.00983383 0.00912743 0.00998979
internal_weight=0 217 178 151 125
internal_count=253 217 178 151 125
is_linear=0
shrinkage=0.03


Tree=12
num_leaves=9
num_cat=0
split_feature=4 2 289 304 2 3 4 436
split_gain=1.26817 0.524081 0.318654 0.626625 0.257023 0.703159 0.249344 0.398348
threshold=0.27250000000000008 inf 1.0000000180025095e-35 1.0000000180025095e-35 1.0000000180025095e-35 190.28000000000003 0.12250000000000001 1.0000000180025095e-35
decision_type=8 8 2 2 8 8 10 2
left_child=1 6 3 -2 5 -4 -1 -8
right_child=2 -3 4 -5 -6 -7 7 -9
leaf_value=0.009647537112236022 0.013779065071915586 0.017149182654496643 0.0065664351640815103 0.0075209476443706073 0.0064445003326982263 0.013431993471086024 0.011696938035405568 0.016951952453702689
leaf_weight=20 36 31 29 24 35 25 37 20
leaf_count=20 36 31 29 24 35 25 37 20
internal_value=0 0.0138556 0.00958613 0.0112758 0.00844701 0.00974493 0.0125296 0.0135408
internal_weight=0 108 149 60 89 54 77 57
internal_count=257 108 149 60 89 54 77 57
is_linear=0
shrinkage=0.03


Tree=13
num_leaves=10
num_cat=0
split_feature=289 304 439 448 3 6 525 2 6
split_gain=2.66243 2.8934 5.13765 1.14549 1.37246 0.879363 0.808534 0.772531 0.168772
threshold=1.0000000180025095e-35 1.0000000180025095e-35 1.0000000180025095e-35 1.0000000180025095e-35 88.200000000000017 1.0000000180025095e-35 1.0000000180025095e-35 1.0000000180025095e-35 61.610000000000007
decision_type=2 2 2 2 10 10 2 8 10
left_child=1 2 -1 7 6 -4 -5 -2 -6
right_child=3 -3 5 4 8 -7 -8 -9 -10
leaf_value=0.032393168348819015 0.0094118432458848329 0.0086192982631825635 0.0096166866059814188 0.011469697294523939 0.0068182320753112429 0.018107670125672999 0.019341058082392684 0.001773452323607423 0.01002773578464985
leaf_weight=20 26 31 21 24 29 23 23 22 30
leaf_count=20 26 31 21 24 29 23 23 22 30
internal_value=0 0.016142 0.0197858 0.00975586 0.011497 0.0140552 0.0153216 0.00591091 0.00845018
internal_weight=0 95 64 154 106 44 47 48 59
internal_count=249 95 64 154 106 44 47 48 59
is_linear=0
shrinkage=0.03


Tree=14
num_leaves=10
num_cat=0
split_feature=290 3 53 4 439 6 5 3 525
split_gain=3.24062 1.45027 1.38805 1.1093 1.6567 1.02595 0.389168 0.323996 0.418041
threshold=1.0000000180025095e-35 190.28000000000003 1.0000000180025095e-35 0.27250000000000008 1.0000000180025095e-35 71.52500000000002 -1.0000000180025095e-35 151.55000000000004 1.0000000180025095e-35
decision_type=2 8 2 8 2 10 8 10 2
left_child=3 2 -2 4 -1 -6 -5 8 -8
right_child=1 -3 -4 6 5 -7 7 -9 -10
leaf_value=0.0081683916780589654 0.016396968510340559 0.012225370429780173 0.027316950224339959 0.0059931496651295353 0.012687739636749028 0.021656774937767874 0.010564294372064371 0.012658775398135183 0.0053152270444711165
leaf_weight=33 22 23 20 34 24 22 36 25 22
leaf_count=33 22 23 20 34 24 22 36 25 22
internal_value=0 0.0182809 0.021597 0.010551 0.0132976 0.0169773 0.00869646 0.00980384 0.00857327
internal_weight=0 65 42 196 79 46 117 83 58
internal_count=261 65 42 196 79 46 117 83 58
is_linear=0
shrinkage=0.03


Tree=15
num_leaves=9
num_cat=0
split_feature=3 289 5 304 5 6 5 5
split_gain=1.62223 1.63396 1.31121 1.00522 0.546376 0.529626 0.332745 0.250846
threshold=88.200000000000017 1.0000000180025095e-35 1.0000000180025095e-35 1.0000000180025095e-35 -25.584999999999997 71.52500000000002 -1.0000000180025095e-35 -1.0000000180025095e-35
decision_type=8 2 10 2 10 10 8 8
left_child=6 3 5 4 -2 7 -1 -3
right_child=1 2 -4 -5 -6 -7 -8 -9
leaf_value=0.01932722967583686 0.012195961688246045 0.0062647761071040744 0.014874953607266598 0.0089234795392705828 0.018284927186323328 0.0032812623049332094 0.014156308908547674 0.0099960880660835433
leaf_weight=24 21 31 22 26 36 28 21 34
leaf_count=24 21 31 22 26 36 28 21 34
internal_value=0 0.010604 0.00828869 0.0138118 0.0160416 0.00673065 0.0169141 0.00821654
internal_weight=0 198 115 83 57 93 45 65
internal_count=243 198 115 83 57 93 45 65
is_linear=0
shrinkage=0.03


Tree=16
num_leaves=9
num_cat=0
split_feature=290 3 286 4 5 6 3 2
split_gain=1.99693 1.84533 1.29258 0.574985 0.322269 0.318461 0.265209 0.243982
threshold=1.0000000180025095e-35 151.55000000000004 1.0000000180025095e-35 0.17600000000000002 15.755000000000001 71.52500000000002 112.50000000000001 1.0000000180025095e-35
decision_type=2 8 2 10 8 10 8 8
left_child=2 -2 3 4 6 -5 -1 -6
right_child=1 -3 -4 5 7 -7 -8 -9
leaf_value=0.0072733322765606524 0.019401344661223324 0.0097197544269318533 0.015854365069951328 0.012753787928127815 0.010136411716380425 0.0079304883671416481 0.0030656152638506942 0.0063081977173188248
leaf_weight=26 37 34 21 28 31 22 28 29
leaf_count=26 37 34 21 28 31 22 28 29
internal_value=0 0.0147651 0.00884664 0.00794931 0.0067729 0.0106315 0.00509155 0.00828611
internal_weight=0 71 185 164 114 50 54 60
internal_count=256 71 185 164 114 50 54 60
is_linear=0
shrinkage=0.03


Tree=17
num_leaves=9
num_cat=0
split_feature=290 304 4 6 3 16 439 14
split_gain=0.92591 1.16995 0.713211 0.993515 0.25412 0.155686 0.312162 0.0285932
threshold=1.0000000180025095e-35 1.0000000180025095e-35 1.0000000180025095e-35 80.450000000000017 112.50000000000001 1.0000000180025095e-35 1.0000000180025095e-35 1.0000000180025095e-35
decision_type=2 2 10 8 10 2 2 2
left_child=2 -2 5 -4 -5 7 -7 -1
right_child=1 -3 3 4 -6 6 -8 -9
leaf_value=0.0066881782301193606 0.016034195216043906 0.0079060016605071726 0.0063476712043147258 0.01452986590830343 0.010368557137157767 0.0023147949948906896 0.0072146026586182412 0.0082554730488918707
leaf_weight=22 34 30 41 28 25 22 25 20
leaf_count=22 34 30 41 28 25 22 25 20
internal_value=0 0.0122241 0.00803194 0.00985431 0.012567 0.00610719 0.00492108 0.00743451
internal_weight=0 64 183 94 53 89 47 42
internal_count=247 64 183 94 53 89 47 42
is_linear=0
shrinkage=0.03


Tree=18
num_leaves=9
num_cat=0
split_feature=53 4 3 6 3 1 448 16
split_gain=1.96463 0.556814 0.851608 0.660951 0.247297 0.157981 0.107549 0.0875577
threshold=1.0000000180025095e-35 0.27250000000000008 112.50000000000001 90.25500000000001 151.55000000000004 inf 1.0000000180025095e-35 1.0000000180025095e-35
decision_type=2 8 10 8 10 8 2 2
left_child=1 2 -1 -4 5 -3 -7 -6
right_child=-2 4 3 -5 7 6 -8 -9
leaf_value=0.014538414445255072 0.015851567522083162 0.004570071066801365 0.0060541964150392091 0.012381785522447898 0.010767479404807091 0.0058858261372034364 0.0084179299690974093 0.0080248523048463867
leaf_weight=31 41 26 39 24 20 26 36 22
leaf_count=31 41 26 39 24 20 26 36 22
internal_value=0 0.00870876 0.0104677 0.00846471 0.00743689 0.00653294 0.00735608 0.00933087
internal_weight=0 224 94 63 130 88 62 42
internal_count=265 224 94 63 130 88 62 42
is_linear=0
shrinkage=0.03


Tree=19
num_leaves=8
num_cat=0
split_feature=53 5 4 2 5 4 1
split_gain=1.99919 1.24505 0.588539 0.718418 0.17029 0.142386 0.127257
threshold=1.0000000180025095e-35 1.0000000180025095e-35 0.21550000000000002 1.0000000180025095e-35 -1.0000000180025095e-35 0.21550000000000002 2.1000000000000005
decision_type=2 10 8 8 8 10 8
left_child=1 2 3 -1 5 -4 -6
right_child=-2 -3 4 -5 6 -7 -8
leaf_value=0.0069345852321878601 0.015883288450146978 0.01360588065029255 0.0037135819460963827 0.014090285758163941 0.0052881605811417095 0.0066881886736622877 0.0080966318194877433
leaf_weight=28 38 35 30 23 20 28 53
leaf_count=28 38 35 30 23 20 28 53
internal_value=0 0.00842402 0.00742751 0.0101617 0.00636306 0.0051496 0.00732719
internal_weight=0 217 182 51 131 58 73
internal_count=255 217 182 51 131 58 73
is_linear=0
shrinkage=0.03


Tree=20
num_leaves=10
num_cat=0
split_feature=4 6 448 51 289 16 5 289 525
split_gain=1.45327 2.08529 0.847547 0.471784 0.405956 0.382477 0.15906 0.135833 0.0399102
threshold=0.27250000000000008 80.450000000000017 1.0000000180025095e-35 1.0000000180025095e-35 1.0000000180025095e-35 1.0000000180025095e-35 15.755000000000001 1.0000000180025095e-35 1.0000000180025095e-35
decision_type=8 8 2 2 2 2 8 2 2
left_child=1 7 5 -4 -3 -2 -5 -1 -6
right_child=2 4 3 6 8 -7 -8 -9 -10
leaf_value=0.0088063252078635339 0.0071590452566742896 0.018494910205900668 0.011899658983041133 0.0056339618784841151 0.01278476402036507 0.0015417194482870399 0.008738052178030975 0.005469171954318881 0.014636426241137087
leaf_weight=21 20 25 35 24 22 24 39 23 20
leaf_count=21 20 25 35 24 22 24 39 23 20
internal_value=0 0.0121359 0.00755401 0.00910701 0.0154682 0.00409505 0.00755554 0.0070619 0.0136665
internal_weight=0 111 142 98 67 44 63 44 42
internal_count=253 111 142 98 67 44 63 44 42
is_linear=0
shrinkage=0.03


Tree=21
num_leaves=9
num_cat=0
split_feature=3 5 289 1 448 5 0 5
split_gain=2.30834 1.94733 1.61602 1.26219 0.456529 0.541774 0.448768 0.415843
threshold=88.200000000000017 1.0000000180025095e-35 1.0000000180025095e-35 98.500000000000014 1.0000000180025095e-35 -1.0000000180025095e-35 1.0000000180025095e-35 -25.584999999999997
decision_type=8 10 2 8 2 8 10 10
left_child=7 2 3 -2 -4 -6 -5 -1
right_child=1 -3 4 6 5 -7 -8 -9
leaf_value=0.019047975524195602 0.017012909875251354 0.014955121298484942 0.0018653194758702408 0.010531366245821117 0.0037776834815570221 0.0088995639256865926 0.0048902880772948264 0.013077743649482726
leaf_weight=21 20 34 33 30 41 34 22 21
leaf_count=21 20 34 33 30 41 34 22 21
internal_value=0 0.00837049 0.00712673 0.0106081 0.00480579 0.0060996 0.00814476 0.0160629
internal_weight=0 214 180 72 108 75 52 42
internal_count=256 214 180 72 108 75 52 42
is_linear=0
shrinkage=0.03


Tree=22
num_leaves=8
num_cat=0
split_feature=53 5 7 5 4 6 6
split_gain=1.84421 0.839514 0.597137 0.375155 0.508283 1.05667 0.453793
threshold=1.0000000180025095e-35 -25.584999999999997 0.35650000000000009 -25.584999999999997 0.27250000000000008 80.450000000000017 90.25500000000001
decision_type=2 10 10 8 8 8 8
left_child=2 -2 3 -1 5 -5 -6
right_child=1 -3 -4 4 6 -7 -8
leaf_value=0.0046855660174684281 0.0099349134592339391 0.01862722510099411 0.0030210208197912342 0.0060951347359352644 0.010576794852192203 0.013994114907857564 0.0061247348978087819
leaf_weight=29 20 20 26 27 27 35 87
leaf_count=29 20 20 26 27 27 35 87
internal_value=0 0.0142811 0.00730397 0.00784717 0.00836811 0.0105542 0.00717917
internal_weight=0 40 231 205 176 62 114
internal_count=271 40 231 205 176 62 114
is_linear=0
shrinkage=0.03


Tree=23
num_leaves=10
num_cat=0
split_feature=3 5 6 448 436 4 290 51 3
split_gain=2.62749 0.843029 1.48567 0.883503 0.624308 0.402009 0.192121 0.0882917 0.0325431
threshold=88.200000000000017 -25.584999999999997 80.450000000000017 1.0000000180025095e-35 1.0000000180025095e-35 0.27250000000000008 1.0000000180025095e-35 1.0000000180025095e-35 88.200000000000017
decision_type=8 10 8 2 2 8 2 2 10
left_child=4 3 7 -2 -1 -4 8 -3 -5
right_child=1 2 5 6 -6 -7 -8 -9 -10
leaf_value=0.017444790335228808 0.00030931234449869206 0.0059739635023288423 0.014045045758267084 0.0060663350671529767 0.01039464986231178 0.0087424919538369242 0.0085534320911392573 0.0033226656992561541 0.0045197524446062738
leaf_weight=26 31 20 31 24 20 22 24 26 25
leaf_count=26 31 20 31 24 20 22 24 26 25
internal_value=0 0.0064387 0.0084202 0.00455247 0.0143795 0.011844 0.00635436 0.0044754 0.00527726
internal_weight=0 203 99 104 46 53 73 46 49
internal_count=249 203 99 104 46 53 73 46 49
is_linear=0
shrinkage=0.03


Tree=24
num_leaves=10
num_cat=0
split_feature=53 0 5 2 6 6 3 2 5
split_gain=1.13479 0.727793 0.95205 0.758312 0.344035 0.308556 0.115843 0.139068 0.06792
threshold=1.0000000180025095e-35 1.0000000180025095e-35 1.0000000180025095e-35 1.0000000180025095e-35 61.610000000000007 61.610000000000007 151.55000000000004 inf 15.755000000000001
decision_type=2 8 10 8 10 10 10 8 8
left_child=1 2 3 5 -5 -1 7 -3 -2
right_child=8 6 -4 4 -6 -7 -8 -9 -10
leaf_value=0.0076769135823967502 0.014820252374878952 0.0028556633527789797 0.014549383813372023 0.0090913781049312085 0.014107106688141356 0.0035811381965875624 0.0071850658490438942 0.0063511106986552475 0.012377455601468683
leaf_weight=49 21 21 26 32 20 25 24 20 20
leaf_count=49 21 21 26 32 20 25 24 20 20
internal_value=0 0.00818654 0.00932268 0.00824415 0.0110205 0.00629321 0.00552973 0.00456076 0.0136286
internal_weight=0 217 152 126 52 74 65 41 41
internal_count=258 217 152 126 52 74 65 41 41
is_linear=0
shrinkage=0.03


Tree=25
num_leaves=9
num_cat=0
split_feature=289 304 439 18 439 2 2 1
split_gain=1.84046 2.33645 2.75146 0.319542 0.345347 0.177822 0.0562091 0.110643
threshold=1.0000000180025095e-35 1.0000000180025095e-35 1.0000000180025095e-35 1.0000000180025095e-35 1.0000000180025095e-35 inf 1.0000000180025095e-35 5.5000000000000009
decision_type=2 2 2 2 2 8 8 8
left_child=1 2 -1 4 5 -2 7 -6
right_child=3 -3 -4 -5 6 -7 -8 -9
leaf_value=0.022720438479445874 0.0055975459658197668 0.0053644646180327979 0.010150147718460565 0.0099871849170885974 0.0095593237909488375 0.0023777694588352459 0.0061281076845313819 0.0067621775729847797
leaf_weight=25 38 36 42 20 20 26 28 35
leaf_count=25 38 36 42 20 20 26 28 35
internal_value=0 0.0115285 0.0148406 0.00642947 0.00594543 0.00428951 0.00722229 0.00777932
internal_weight=0 103 67 167 147 64 83 55
internal_count=270 103 67 167 147 64 83 55
is_linear=0
shrinkage=0.03


Tree=26
num_leaves=8
num_cat=0
split_feature=18 53 4 14 14 6 3
split_gain=0.82195 0.753525 0.43656 0.558912 0.548974 0.614521 0.187475
threshold=1.0000000180025095e-35 1.0000000180025095e-35 0.27250000000000008 1.0000000180025095e-35 1.0000000180025095e-35 80.450000000000017 1.0000000180025095e-35
decision_type=2 2 8 2 2 8 10
left_child=1 2 4 6 5 -1 -4
right_child=-2 -3 3 -5 -6 -7 -8
leaf_value=0.0063823174408251604 0.013105278618705387 0.012381937904655933 0.0064093607391363808 0.0095147454142570486 0.0042650612988191739 0.012118002254690508 0.0034028697570985447
leaf_weight=29 26 25 28 25 22 40 56
leaf_count=29 26 25 28 25 22 40 56
internal_value=0 0.00747146 0.00685765 0.00557699 0.00839163 0.00970735 0.00440503
internal_weight=0 225 200 109 91 69 84
internal_count=251 225 200 109 91 69 84
is_linear=0
shrinkage=0.03


Tree=27
num_leaves=6
num_cat=0
split_feature=53 4 290 7 4
split_gain=1.82077 0.808507 0.562488 0.609776 0.536936
threshold=1.0000000180025095e-35 0.12250000000000001 1.0000000180025095e-35 0.064850000000000019 0.21550000000000002
decision_type=2 8 2 10 10
left_child=1 -1 3 4 -3
right_child=-2 2 -4 -5 -6
leaf_value=0.012410250214338505 0.014038226806093007 0.0056842714006177563 0.010182393759248717 0.0015603960642329184 0.010454189090344767
leaf_weight=23 40 116 31 26 26
leaf_count=23 40 116 31 26 26
internal_value=0 0.00708489 0.00646939 0.00578425 0.00655764
internal_weight=0 222 199 168 142
internal_count=262 222 199 168 142
is_linear=0
shrinkage=0.03


Tree=28
num_leaves=6
num_cat=0
split_feature=5 445 6 304 386
split_gain=1.56922 0.783176 0.771733 0.680858 1.10002
threshold=15.755000000000001 1.0000000180025095e-35 71.52500000000002 1.0000000180025095e-35 1.0000000180025095e-35
decision_type=10 2 8 2 2
left_child=1 2 -1 4 -4
right_child=-2 -3 3 -5 -6
leaf_value=0.010432616085080164 0.013765545169007964 0.001185367213562131 0.012213254300877451 0.0010728705194420539 0.0051871689930453237
leaf_weight=35 24 30 24 26 122
leaf_count=35 24 30 24 26 122
internal_value=0 0.0057154 0.00637193 0.00554562 0.00634214
internal_weight=0 237 207 172 146
internal_count=261 237 207 172 146
is_linear=0
shrinkage=0.03


Tree=29
num_leaves=7
num_cat=0
split_feature=306 5 4 4 6 525
split_gain=1.42096 1.7315 1.42117 0.897783 2.04989 0.41463
threshold=1.0000000180025095e-35 1.0000000180025095e-35 0.12250000000000001 0.17600000000000002 90.25500000000001 1.0000000180025095e-35
decision_type=2 10 8 10 8 2
left_child=1 2 -1 5 -5 -4
right_child=-2 -3 3 4 -6 -7
leaf_value=0.013144519463181495 0.014648505835370583 0.012632330214806101 0.004829659492997321 0.0017382443547248839 0.013557097562921365 0.0013416280188701217
leaf_weight=20 22 37 71 25 28 54
leaf_count=20 22 37 71 25 28 54
internal_value=0 0.0066753 0.00556212 0.00471016 0.00798217 0.00332283
internal_weight=0 235 198 178 53 125
internal_count=257 235 198 178 53 125
is_linear=0
shrinkage=0.03


Tree=30
num_leaves=8
num_cat=0
split_feature=289 304 4 14 4 525 525
split_gain=0.888267 1.63071 0.537398 0.518759 0.588789 0.612372 0.0427881
threshold=1.0000000180025095e-35 1.0000000180025095e-35 0.17600000000000002 1.0000000180025095e-35 0.27250000000000008 1.0000000180025095e-35 1.0000000180025095e-35
decision_type=2 2 10 2 8 2 2
left_child=1 2 -1 4 5 -2 -6
right_child=3 -3 -4 -5 6 -7 -8
leaf_value=0.014497347155452837 0.0060499691833475876 0.004583159439970513 0.0088699052936863157 0.0028825256119792658 0.0057288266544377334 0.012269937963835124 0.0041986926211493797
leaf_weight=42 28 37 24 36 38 29 29
leaf_count=42 28 37 24 36 38 29 29
internal_value=0 0.00962469 0.012451 0.00605285 0.00697326 0.00921451 0.00506653
internal_weight=0 103 66 160 124 57 67
internal_count=263 103 66 160 124 57 67
is_linear=0
shrinkage=0.03


end of trees

feature_importances:
feature4=33
feature5=29
feature3=26
feature6=23
feature2=16
feature289=13
feature304=12
feature53=11
feature525=11
feature448=9
feature439=8
feature16=7
feature290=7
feature436=6
feature1=5
feature51=5
feature0=4
feature14=4
feature7=2
feature18=2
feature203=1
feature286=1
feature306=1
feature386=1
feature445=1

parameters:
[boosting: gbdt]
[objective: regression]
[metric: rmse]
[tree_learner: serial]
[device_type: cpu]
[data: ]
[valid: ]
[num_iterations: 2000]
[learning_rate: 0.03]
[num_leaves: 12]
[num_threads: 12]
[deterministic: 0]
[force_col_wise: 0]
[force_row_wise: 0]
[histogram_pool_size: -1]
[max_depth: 5]
[min_data_in_leaf: 20]
[min_sum_hessian_in_leaf: 0.001]
[bagging_fraction: 0.7]
[pos_bagging_fraction: 1]
[neg_bagging_fraction: 1]
[bagging_freq: 1]
[bagging_seed: 400]
[feature_fraction: 0.7]
[feature_fraction_bynode: 1]
[feature_fraction_seed: 30056]
[extra_trees: 0]
[extra_seed: 12879]
[early_stopping_round: 300]
[first_metric_only: 0]
[max_delta_step: 0]
[lambda_l1: 0]
[lambda_l2: 0]
[linear_lambda: 0]
[min_gain_to_split: 0]
[drop_rate: 0.1]
[max_drop: 50]
[skip_drop: 0.5]
[xgboost_dart_mode: 0]
[uniform_drop: 0]
[drop_seed: 17869]
[top_rate: 0.2]
[other_rate: 0.1]
[min_data_per_group: 100]
[max_cat_threshold: 32]
[cat_l2: 10]
[cat_smooth: 10]
[max_cat_to_onehot: 4]
[top_k: 20]
[monotone_constraints: ]
[monotone_constraints_method: basic]
[monotone_penalty: 0]
[feature_contri: ]
[forcedsplits_filename: ]
[refit_decay_rate: 0.9]
[cegb_tradeoff: 1]
[cegb_penalty_split: 0]
[cegb_penalty_feature_lazy: ]
[cegb_penalty_feature_coupled: ]
[path_smooth: 0]
[interaction_constraints: ]
[verbosity: -1]
[saved_feature_importance_type: 0]
[linear_tree: 0]
[max_bin: 7]
[max_bin_by_feature: ]
[min_data_in_bin: 3]
[bin_construct_sample_cnt: 200000]
[data_random_seed: 175]
[is_enable_sparse: 1]
[enable_bundle: 1]
[use_missing: 1]
[zero_as_missing: 0]
[feature_pre_filter: 1]
[pre_partition: 0]
[two_round: 0]
[header: 0]
[label_column: ]
[weight_column: ]
[group_column: ]
[ignore_column: ]
[categorical_feature: ]
[forcedbins_filename: ]
[precise_float_parser: 0]
[objective_seed: 16083]
[num_class: 1]
[is_unbalance: 0]
[scale_pos_weight: 1]
[sigmoid: 1]
[boost_from_average: 0]
[reg_sqrt: 0]
[alpha: 0.9]
[fair_c: 1]
[poisson_max_delta_step: 0.7]
[tweedie_variance_power: 1.5]
[lambdarank_truncation_level: 30]
[lambdarank_norm: 1]
[label_gain: ]
[eval_at: ]
[multi_error_top_k: 1]
[auc_mu_weights: ]
[num_machines: 1]
[local_listen_port: 12400]
[time_out: 120]
[machine_list_filename: ]
[machines: ]
[gpu_platform_id: -1]
[gpu_device_id: -1]
[gpu_use_dp: 0]
[num_gpu: 1]

end of parameters

pandas_categorical:[]
