tree
version=v3
num_class=1
num_tree_per_iteration=1
label_index=0
max_feature_idx=525
objective=regression
feature_names=feature0 feature1 feature2 feature3 feature4 feature5 feature6 feature7 feature8 feature9 feature10 feature11 feature12 feature13 feature14 feature15 feature16 feature17 feature18 feature19 feature20 feature21 feature22 feature23 feature24 feature25 feature26 feature27 feature28 feature29 feature30 feature31 feature32 feature33 feature34 feature35 feature36 feature37 feature38 feature39 feature40 feature41 feature42 feature43 feature44 feature45 feature46 feature47 feature48 feature49 feature50 feature51 feature52 feature53 feature54 feature55 feature56 feature57 feature58 feature59 feature60 feature61 feature62 feature63 feature64 feature65 feature66 feature67 feature68 feature69 feature70 feature71 feature72 feature73 feature74 feature75 feature76 feature77 feature78 feature79 feature80 feature81 feature82 feature83 feature84 feature85 feature86 feature87 feature88 feature89 feature90 feature91 feature92 feature93 feature94 feature95 feature96 feature97 feature98 feature99 feature100 feature101 feature102 feature103 feature104 feature105 feature106 feature107 feature108 feature109 feature110 feature111 feature112 feature113 feature114 feature115 feature116 feature117 feature118 feature119 feature120 feature121 feature122 feature123 feature124 feature125 feature126 feature127 feature128 feature129 feature130 feature131 feature132 feature133 feature134 feature135 feature136 feature137 feature138 feature139 feature140 feature141 feature142 feature143 feature144 feature145 feature146 feature147 feature148 feature149 feature150 feature151 feature152 feature153 feature154 feature155 feature156 feature157 feature158 feature159 feature160 feature161 feature162 feature163 feature164 feature165 feature166 feature167 feature168 feature169 feature170 feature171 feature172 feature173 feature174 feature175 feature176 feature177 feature178 feature179 feature180 feature181 feature182 feature183 feature184 feature185 feature186 feature187 feature188 feature189 feature190 feature191 feature192 feature193 feature194 feature195 feature196 feature197 feature198 feature199 feature200 feature201 feature202 feature203 feature204 feature205 feature206 feature207 feature208 feature209 feature210 feature211 feature212 feature213 feature214 feature215 feature216 feature217 feature218 feature219 feature220 feature221 feature222 feature223 feature224 feature225 feature226 feature227 feature228 feature229 feature230 feature231 feature232 feature233 feature234 feature235 feature236 feature237 feature238 feature239 feature240 feature241 feature242 feature243 feature244 feature245 feature246 feature247 feature248 feature249 feature250 feature251 feature252 feature253 feature254 feature255 feature256 feature257 feature258 feature259 feature260 feature261 feature262 feature263 feature264 feature265 feature266 feature267 feature268 feature269 feature270 feature271 feature272 feature273 feature274 feature275 feature276 feature277 feature278 feature279 feature280 feature281 feature282 feature283 feature284 feature285 feature286 feature287 feature288 feature289 feature290 feature291 feature292 feature293 feature294 feature295 feature296 feature297 feature298 feature299 feature300 feature301 feature302 feature303 feature304 feature305 feature306 feature307 feature308 feature309 feature310 feature311 feature312 feature313 feature314 feature315 feature316 feature317 feature318 feature319 feature320 feature321 feature322 feature323 feature324 feature325 feature326 feature327 feature328 feature329 feature330 feature331 feature332 feature333 feature334 feature335 feature336 feature337 feature338 feature339 feature340 feature341 feature342 feature343 feature344 feature345 feature346 feature347 feature348 feature349 feature350 feature351 feature352 feature353 feature354 feature355 feature356 feature357 feature358 feature359 feature360 feature361 feature362 feature363 feature364 feature365 feature366 feature367 feature368 feature369 feature370 feature371 feature372 feature373 feature374 feature375 feature376 feature377 feature378 feature379 feature380 feature381 feature382 feature383 feature384 feature385 feature386 feature387 feature388 feature389 feature390 feature391 feature392 feature393 feature394 feature395 feature396 feature397 feature398 feature399 feature400 feature401 feature402 feature403 feature404 feature405 feature406 feature407 feature408 feature409 feature410 feature411 feature412 feature413 feature414 feature415 feature416 feature417 feature418 feature419 feature420 feature421 feature422 feature423 feature424 feature425 feature426 feature427 feature428 feature429 feature430 feature431 feature432 feature433 feature434 feature435 feature436 feature437 feature438 feature439 feature440 feature441 feature442 feature443 feature444 feature445 feature446 feature447 feature448 feature449 feature450 feature451 feature452 feature453 feature454 feature455 feature456 feature457 feature458 feature459 feature460 feature461 feature462 feature463 feature464 feature465 feature466 feature467 feature468 feature469 feature470 feature471 feature472 feature473 feature474 feature475 feature476 feature477 feature478 feature479 feature480 feature481 feature482 feature483 feature484 feature485 feature486 feature487 feature488 feature489 feature490 feature491 feature492 feature493 feature494 feature495 feature496 feature497 feature498 feature499 feature500 feature501 feature502 feature503 feature504 feature505 feature506 feature507 feature508 feature509 feature510 feature511 feature512 feature513 feature514 feature515 feature516 feature517 feature518 feature519 feature520 feature521 feature522 feature523 feature524 feature525
feature_infos=[0:1] [0:100] [0:1] [7.2000000000000002:3170] [0.024:21.920000000000002] [-64.299999999999997:48.450000000000003] [0.46600000000000003:99.799999999999997] [0.0275:78.299999999999997] [0:46] none none none none none [0:1] none [0:1] none [0:1] none none none none none none none none none none none none none none none none [0:1] none none none none none none [0:1] none none none none none none none none [0:1] none [0:1] none none none none none none none none none none none none none none none none none none none none none none none none none none none none none none none none none none none none none none none none none none none none none none none none none none none none none none none none none none none none none none none none none none none none none none none none none none none none none none none none none none none none none none none none none none none none none none none none none none none none none none none none none none none none none none none none none none none none none none none none none none none none none none none none none none none none none none none none none none none none none none none none none none none none none [0:1] none none none none none none none none none none none none none none none none none none none none none none none none none none none none none none none none none none none none none none none none none none none none none none none none none none none none none none none none none none none none none none none none none none none none none none none none none none none none none none none none none none [0:1] none none [0:1] [0:1] none none none none none none none none none none none [0:1] none [0:1] none [0:1] none none none none none none none none none none none none none none none none none none none none none none none none none none none none none none none none none none none none none none none none none none none none none none none none none none none none none none none none none none none none none none none none none none none none none none none none none none none none none none none [0:1] none none none none none none none none none none none none none none none none none none none none none none none none none none none none none none none none none none none none none none none none none none none none none none none none none [0:1] none none [0:1] [0:1] none none none none [0:1] none none [0:1] none none none none none none none none none none none none none none none [0:1] none [0:1] none none none none none none none none none none none none none none none none none none none none none none none none none none none none none none none none none none none none none none none none none none none none none none none none none none none none none none none none none [0:1] [0:1]
tree_sizes=979 981 910 815 912 731 806 875 973 654 1081 733 736 902 974 804 744 664 911 986 889 890 918 914 1074 831 913 896 895 663 910 1071 1076 741 904

Tree=0
num_leaves=10
num_cat=0
split_feature=51 3 4 0 5 436 3 3 525
split_gain=4.53943 2.2223 1.30587 0.684836 0.49169 0.351787 0.332244 0.305953 0.224449
threshold=1.0000000180025095e-35 114.50000000000001 0.28400000000000009 1.0000000180025095e-35 -23.949999999999996 1.0000000180025095e-35 150.70000000000002 114.50000000000001 1.0000000180025095e-35
decision_type=2 8 8 10 10 2 10 10 2
left_child=1 -1 4 -3 -2 7 -6 8 -4
right_child=2 3 5 -5 6 -7 -8 -9 -10
leaf_value=0.02987619820695657 0.013596755085005002 0.022249999360314434 0.01148742741253227 0.015263547526429529 0.016709892498329281 0.014480683354195207 0.021945360090583562 0.013151781940832734 0.0071842867415398363
leaf_weight=26 22 28 20 23 24 32 20 28 24
leaf_count=26 22 28 20 23 24 32 20 28 24
internal_value=0 0.0227382 0.0139581 0.0190992 0.0172587 0.0118635 0.0190897 0.0107003 0.00914026
internal_weight=0 77 170 51 66 104 44 72 44
internal_count=247 77 170 51 66 104 44 72 44
is_linear=0
shrinkage=0.03


Tree=1
num_leaves=10
num_cat=0
split_feature=290 4 6 304 4 5 3 525 4
split_gain=3.44866 2.69911 3.25585 1.75003 0.636762 0.485188 0.535745 0.322715 0.000209495
threshold=1.0000000180025095e-35 0.28400000000000009 80.915000000000006 1.0000000180025095e-35 0.17600000000000002 19.240000000000006 150.70000000000002 1.0000000180025095e-35 0.28400000000000009
decision_type=2 8 10 2 10 8 10 2 8
left_child=1 2 4 8 -1 -3 7 -7 -2
right_child=3 5 -4 -5 -6 6 -8 -9 -10
leaf_value=0.011281788592370084 0.026318452634981702 0.0081020909221842883 0.02774800743162632 0.016755171167696342 0.017747338086623571 0.013007789911903642 0.016942741546779869 0.0084825485337363636 0.026454119972884653
leaf_weight=26 21 28 25 29 29 37 20 23 20
leaf_count=26 21 28 25 29 29 37 20 23 20
internal_value=0 0.0145947 0.0187712 0.0223953 0.0146909 0.0115009 0.0126905 0.0112731 0.0263846
internal_weight=0 188 80 70 55 108 80 60 41
internal_count=258 188 80 70 55 108 80 60 41
is_linear=0
shrinkage=0.03


Tree=2
num_leaves=9
num_cat=0
split_feature=289 304 290 3 6 5 5 0
split_gain=2.75872 2.74391 1.20459 0.876504 0.854607 0.69237 0.337631 0.318506
threshold=1.0000000180025095e-35 1.0000000180025095e-35 1.0000000180025095e-35 86.220000000000013 1.0000000180025095e-35 1.0000000180025095e-35 -23.949999999999996 1.0000000180025095e-35
decision_type=2 2 2 8 10 10 8 8
left_child=1 2 -1 -2 -4 6 -5 -8
right_child=3 -3 4 5 -6 -7 7 -9
leaf_value=0.018838160316459834 0.019516810187604278 0.012825502047780902 0.031187124654650691 0.0084164563770702267 0.022522061254296986 0.017575814977965572 0.013852158189485115 0.0097214412014000103
leaf_weight=30 20 32 20 22 21 22 56 24
leaf_count=30 20 32 20 22 21 22 56 24
internal_value=0 0.0201191 0.0234063 0.0136889 0.0267489 0.0127489 0.0117078 0.0126129
internal_weight=0 103 71 144 41 124 102 80
internal_count=247 103 71 144 41 124 102 80
is_linear=0
shrinkage=0.03


Tree=3
num_leaves=8
num_cat=0
split_feature=290 3 5 3 2 3 448
split_gain=4.57231 1.9766 1.57627 0.608373 0.604648 0.332135 0.190744
threshold=1.0000000180025095e-35 150.70000000000002 1.0000000180025095e-35 86.220000000000013 1.0000000180025095e-35 86.220000000000013 1.0000000180025095e-35
decision_type=2 8 10 8 8 10 2
left_child=2 -2 3 -1 5 -5 -6
right_child=1 -3 -4 4 6 -7 -8
leaf_value=0.016210932839661834 0.027475389419375235 0.017376535796475683 0.018934049058173384 0.016620198408141731 0.0072837581610880218 0.012004343869778862 0.010768070565935622
leaf_weight=30 37 33 42 20 26 47 31
leaf_count=30 37 33 42 20 26 47 31
internal_value=0 0.0227145 0.0137824 0.0123774 0.01145 0.0133822 0.00917874
internal_weight=0 70 196 154 124 67 57
internal_count=266 70 196 154 124 67 57
is_linear=0
shrinkage=0.03


Tree=4
num_leaves=9
num_cat=0
split_feature=290 439 3 14 4 2 4 2
split_gain=3.42835 1.76486 0.741747 0.277019 0.275957 0.195046 0.107377 0.0596809
threshold=1.0000000180025095e-35 1.0000000180025095e-35 86.220000000000013 1.0000000180025095e-35 1.0000000180025095e-35 1.0000000180025095e-35 1.0000000180025095e-35 1.0000000180025095e-35
decision_type=2 2 8 2 10 8 10 8
left_child=2 -2 -1 4 7 -6 -5 -4
right_child=1 -3 3 6 5 -7 -8 -9
leaf_value=0.017076233997941018 0.025627625157463956 0.015739799772854893 0.012092338375582852 0.011623015971388666 0.01583427517164138 0.012140800292519006 0.0086991769170316931 0.010113670389147717
leaf_weight=30 33 32 34 20 31 22 26 23
leaf_count=30 33 32 34 20 31 22 26 23
internal_value=0 0.0207598 0.0127561 0.0119253 0.0127429 0.0143011 0.00997041 0.0112939
internal_weight=0 65 186 156 110 53 46 57
internal_count=251 65 186 156 110 53 46 57
is_linear=0
shrinkage=0.03


Tree=5
num_leaves=7
num_cat=0
split_feature=53 5 3 289 448 6
split_gain=2.66252 1.49119 0.969966 0.658187 0.510927 0.41471
threshold=1.0000000180025095e-35 1.0000000180025095e-35 86.220000000000013 1.0000000180025095e-35 1.0000000180025095e-35 90.25500000000001
decision_type=2 10 8 2 2 8
left_child=1 2 -1 5 -5 -4
right_child=-2 -3 3 4 -6 -7
leaf_value=0.017015404314867085 0.022497171588086833 0.019325429951772093 0.017689433209598062 0.0072966517074461515 0.011765007801949365 0.011782678440213202
leaf_weight=35 36 35 20 37 61 23
leaf_count=35 36 35 20 37 61 23
internal_value=0 0.01367 0.0125453 0.0114357 0.010078 0.01453
internal_weight=0 211 176 141 98 43
internal_count=247 211 176 141 98 43
is_linear=0
shrinkage=0.03


Tree=6
num_leaves=8
num_cat=0
split_feature=448 203 5 5 3 3 1
split_gain=1.97439 1.33784 2.2445 1.19815 0.8051 0.502945 0.777582
threshold=1.0000000180025095e-35 1.0000000180025095e-35 -11.749999999999998 -23.949999999999996 86.220000000000013 150.70000000000002 11.500000000000002
decision_type=2 2 10 10 8 8 8
left_child=3 2 -2 -1 -3 -6 -7
right_child=1 4 -4 -5 5 6 -8
leaf_value=0.0070028949884305657 0.014616179725585075 0.019280217420309779 0.025004077817623815 0.015360633121588483 0.0098479847137912593 0.010075925781524607 0.017303589716352319
leaf_weight=38 39 24 36 26 29 21 37
leaf_count=38 39 24 36 26 29 21 37
internal_value=0 0.0165071 0.0196024 0.0103982 0.0144157 0.0130738 0.0146867
internal_weight=0 186 75 64 111 87 58
internal_count=250 186 75 64 111 87 58
is_linear=0
shrinkage=0.03


Tree=7
num_leaves=9
num_cat=0
split_feature=51 304 3 5 2 525 3 4
split_gain=3.30508 4.0393 2.61828 1.11337 1.85037 0.465637 0.409935 0.119676
threshold=1.0000000180025095e-35 1.0000000180025095e-35 114.50000000000001 -23.949999999999996 inf 1.0000000180025095e-35 189.28000000000003 0.28400000000000009
decision_type=2 2 8 8 8 2 8 8
left_child=1 2 -1 -2 6 -6 7 -5
right_child=3 -3 -4 4 5 -7 -8 -9
leaf_value=0.032087875875559717 0.018089514901595456 0.011359156289407493 0.018462168958038091 0.013138754692944612 0.0087071410827338682 0.0030335428881580412 0.016247229444441097 0.010472182132569806
leaf_weight=22 21 38 30 33 30 23 29 28
leaf_count=22 21 38 30 33 30 23 29 28
internal_value=0 0.0187938 0.0242269 0.0116392 0.010692 0.00624501 0.0133108 0.0119148
internal_weight=0 90 52 164 143 53 90 61
internal_count=254 90 52 164 143 53 90 61
is_linear=0
shrinkage=0.03


Tree=8
num_leaves=10
num_cat=0
split_feature=290 304 5 6 1 439 3 6 4
split_gain=3.52446 2.48765 1.6343 0.737295 0.588294 0.937633 0.929726 0.321663 0.296783
threshold=1.0000000180025095e-35 1.0000000180025095e-35 19.240000000000006 1.0000000180025095e-35 inf 1.0000000180025095e-35 114.50000000000001 1.0000000180025095e-35 0.28400000000000009
decision_type=2 2 10 10 8 2 8 10 8
left_child=2 3 4 -2 7 6 -6 -1 -7
right_child=1 -3 -4 -5 5 8 -8 -9 -10
leaf_value=0.0053737126063141552 0.027724992541596293 0.011122340561652726 0.018859707664536395 0.019997062388062477 0.0040254937063740649 0.016522920924425123 0.012042499797418714 0.010260534669187936 0.012291700305870255
leaf_weight=27 20 22 23 25 23 25 30 22 37
leaf_count=27 20 22 23 25 23 25 30 22 37
internal_value=0 0.0193898 0.0113707 0.0234317 0.0103204 0.0114933 0.00856342 0.0075678 0.0139978
internal_weight=0 67 187 45 164 115 53 49 62
internal_count=254 67 187 45 164 115 53 49 62
is_linear=0
shrinkage=0.03


Tree=9
num_leaves=6
num_cat=0
split_feature=306 53 4 7 4
split_gain=2.60469 1.51781 1.568 0.343755 0.361527
threshold=1.0000000180025095e-35 1.0000000180025095e-35 0.12250000000000001 0.34685000000000005 0.17600000000000002
decision_type=2 2 8 10 10
left_child=1 2 -1 4 -4
right_child=-2 -3 3 -5 -6
leaf_value=0.018949981496802396 0.022869200249287215 0.018625825249723026 0.0097427521159074142 0.0068676190371827588 0.012710430831449277
leaf_weight=21 22 28 105 23 57
leaf_count=21 22 28 105 23 57
internal_value=0 0.0120723 0.0111815 0.0102997 0.0107869
internal_weight=0 234 206 185 162
internal_count=256 234 206 185 162
is_linear=0
shrinkage=0.03


Tree=10
num_leaves=11
num_cat=0
split_feature=289 304 5 0 5 5 16 386 5 5
split_gain=2.86686 1.90699 1.48899 0.822516 0.931952 0.254406 0.456875 0.0415156 0.00786503 0.0053183
threshold=1.0000000180025095e-35 1.0000000180025095e-35 -11.749999999999998 1.0000000180025095e-35 1.0000000180025095e-35 -11.749999999999998 1.0000000180025095e-35 1.0000000180025095e-35 -23.949999999999996 -23.949999999999996
decision_type=2 2 10 8 10 8 2 2 10 10
left_child=1 2 7 4 5 8 -7 -1 -2 -5
right_child=3 -3 -4 9 -6 6 -8 -9 -10 -11
leaf_value=0.017177070982754231 0.012548883968917653 0.010495716240899317 0.025166188461913 0.0069898486470005338 0.017453078312630002 0.011563180975599921 0.0057529104873538014 0.015308188505308785 0.011780181624319243 0.0076214124182505272
leaf_weight=20 25 29 27 28 22 29 21 23 23 21
leaf_count=20 25 29 27 28 22 29 21 23 23 21
internal_value=0 0.0169646 0.0196445 0.0105358 0.0118731 0.0106205 0.00912287 0.0161774 0.0121805 0.00726052
internal_weight=0 99 70 169 120 98 50 43 48 49
internal_count=268 99 70 169 120 98 50 43 48 49
is_linear=0
shrinkage=0.03


Tree=11
num_leaves=7
num_cat=0
split_feature=53 4 289 6 0 4
split_gain=2.1764 1.96477 0.752523 1.8494 0.374438 0.42967
threshold=1.0000000180025095e-35 0.12250000000000001 1.0000000180025095e-35 59.865000000000002 1.0000000180025095e-35 0.28400000000000009
decision_type=2 8 2 10 8 8
left_child=1 -1 3 -3 5 -4
right_child=-2 2 4 -5 -6 -7
leaf_value=0.019572862763016018 0.01944250992188851 0.0093917839440542297 0.01282486293464899 0.020714693882502615 0.0066348585490292556 0.008728037485207096
leaf_weight=24 36 37 36 20 36 64
leaf_count=24 36 37 36 20 36 64
internal_value=0 0.0114778 0.0104712 0.0133647 0.00925841 0.0102029
internal_weight=0 217 193 57 136 100
internal_count=253 217 193 57 136 100
is_linear=0
shrinkage=0.03


Tree=12
num_leaves=7
num_cat=0
split_feature=3 436 3 5 51 3
split_gain=1.39272 1.20977 1.18308 1.05028 0.452715 0.117535
threshold=86.220000000000013 1.0000000180025095e-35 114.50000000000001 1.0000000180025095e-35 1.0000000180025095e-35 114.50000000000001
decision_type=8 2 10 10 2 10
left_child=-1 3 -3 4 -2 -6
right_child=1 2 -4 -5 5 -7
leaf_value=0.017193967875777164 0.011520768518282756 0.019816961064934729 0.010491923348745331 0.014601285843288197 0.0065433592999235117 0.0086329303435748444
leaf_weight=40 37 25 24 34 47 50
leaf_count=40 37 25 24 34 47 50
internal_value=0 0.011102 0.0152496 0.00989224 0.00869741 0.00762046
internal_weight=0 217 49 168 134 97
internal_count=257 217 49 168 134 97
is_linear=0
shrinkage=0.03


Tree=13
num_leaves=9
num_cat=0
split_feature=4 6 3 290 448 525 3 16
split_gain=1.89874 1.68831 0.923276 1.14546 0.718201 0.605209 0.635068 0.425257
threshold=0.28400000000000009 80.915000000000006 114.50000000000001 1.0000000180025095e-35 1.0000000180025095e-35 1.0000000180025095e-35 189.28000000000003 1.0000000180025095e-35
decision_type=8 10 10 2 2 2 8 2
left_child=1 2 -1 -4 -2 7 -7 -6
right_child=4 -3 3 -5 5 6 -8 -9
leaf_value=0.017371250127827555 0.006766494713374413 0.021502947289496661 0.0068084574717193324 0.016140902202576399 0.016047124995304078 0.004880968045588816 0.012350587929998125 0.01099303557447368
leaf_weight=29 40 30 29 20 29 20 21 31
leaf_count=29 40 30 29 20 29 20 21 31
internal_value=0 0.0154548 0.0131286 0.0106176 0.0101687 0.0115162 0.00870687 0.0134358
internal_weight=0 108 78 49 141 101 41 60
internal_count=249 108 78 49 141 101 41 60
is_linear=0
shrinkage=0.03


Tree=14
num_leaves=10
num_cat=0
split_feature=289 304 439 4 2 4 4 3 439
split_gain=3.01435 3.10733 3.3038 1.70246 1.50234 0.923312 0.299452 0.669635 0.209176
threshold=1.0000000180025095e-35 1.0000000180025095e-35 1.0000000180025095e-35 0.12250000000000001 inf 0.22500000000000003 0.17600000000000002 86.220000000000013 1.0000000180025095e-35
decision_type=2 2 2 8 8 8 10 10 2
left_child=1 2 -1 -2 6 -4 7 -5 -6
right_child=3 -3 5 4 8 -7 -8 -9 -10
leaf_value=0.029400929215956818 0.017541710244757789 0.0082728343895869336 0.019821632489562032 0.013327543577179312 0.0032668053177786209 0.011008082285685384 0.013553920663893224 0.0063119779832661151 0.0066508361349281453
leaf_weight=22 21 30 20 24 31 23 30 25 35
leaf_count=22 21 30 20 24 31 23 30 25 35
internal_value=0 0.0162592 0.0199452 0.00955846 0.00840226 0.0151074 0.0111934 0.00974817 0.00506137
internal_weight=0 95 65 166 145 43 79 49 66
internal_count=261 95 65 166 145 43 79 49 66
is_linear=0
shrinkage=0.03


Tree=15
num_leaves=8
num_cat=0
split_feature=53 6 7 203 2 5 439
split_gain=2.05159 1.08145 0.740417 0.635104 0.597944 0.274881 0.381728
threshold=1.0000000180025095e-35 59.865000000000002 0.34685000000000005 1.0000000180025095e-35 inf -23.949999999999996 1.0000000180025095e-35
decision_type=2 10 10 2 8 10 2
left_child=1 3 4 -1 -3 6 -5
right_child=-2 2 -4 5 -6 -7 -8
leaf_value=0.0045469345399381028 0.018622815534206374 0.01272139340977777 0.008964961134302226 0.01183014586083591 0.018944773888797499 0.012089272343008288 0.0071480410487856716
leaf_weight=23 35 33 23 25 24 38 42
leaf_count=23 35 33 23 25 24 38 42
internal_value=0 0.0107722 0.0135084 0.00906206 0.0153418 0.0100511 0.0088951
internal_weight=0 208 80 128 57 105 67
internal_count=243 208 80 128 57 105 67
is_linear=0
shrinkage=0.03


Tree=16
num_leaves=7
num_cat=0
split_feature=53 4 436 439 3 1
split_gain=1.89349 0.602391 0.665976 0.775757 0.597346 0.586221
threshold=1.0000000180025095e-35 0.12250000000000001 1.0000000180025095e-35 1.0000000180025095e-35 150.70000000000002 70.500000000000014
decision_type=2 8 2 2 8 8
left_child=1 -1 3 -3 -4 -5
right_child=-2 2 4 5 -6 -7
leaf_value=0.013476746475530994 0.016390971002401784 0.0034305730443447827 0.0082655486263101922 0.0061519011265287792 0.015429170400496912 0.010516782596823759
leaf_weight=27 40 30 20 45 22 72
leaf_count=27 40 30 20 45 22 72
internal_value=0 0.00928512 0.00868632 0.00773443 0.0120179 0.00883798
internal_weight=0 216 189 147 42 117
internal_count=256 216 189 147 42 117
is_linear=0
shrinkage=0.03


Tree=17
num_leaves=6
num_cat=0
split_feature=53 4 286 7 290
split_gain=2.0544 1.27767 0.952064 0.412674 0.334717
threshold=1.0000000180025095e-35 0.12250000000000001 1.0000000180025095e-35 0.34685000000000005 1.0000000180025095e-35
decision_type=2 8 2 10 2
left_child=1 -1 3 4 -3
right_child=-2 2 -4 -5 -6
leaf_value=0.016407120223157108 0.018254919469356538 0.0083268002072526583 0.015097628150667463 0.0046821044523676393 0.012337264121637086
leaf_weight=24 30 126 21 24 22
leaf_count=24 30 126 21 24 22
internal_value=0 0.00987921 0.00906745 0.0083312 0.00892295
internal_weight=0 217 193 172 148
internal_count=247 217 193 172 148
is_linear=0
shrinkage=0.03


Tree=18
num_leaves=9
num_cat=0
split_feature=304 51 6 4 16 436 16 6
split_gain=0.781096 2.01537 0.988898 0.473007 0.596835 0.336728 0.159321 0.112003
threshold=1.0000000180025095e-35 1.0000000180025095e-35 90.25500000000001 0.28400000000000009 1.0000000180025095e-35 1.0000000180025095e-35 1.0000000180025095e-35 59.865000000000002
decision_type=2 2 8 8 2 2 2 10
left_child=1 2 -1 4 -3 6 -5 -6
right_child=-2 3 -4 5 7 -7 -8 -9
leaf_value=0.011196706035733223 0.0053376243814924045 0.0070902342313239651 0.019722196193179116 0.0047682088954790836 0.01417321217805147 0.010039634071290493 0.0075338480407623832 0.01116119499974884
leaf_weight=25 38 31 24 38 20 27 37 25
leaf_count=25 38 31 24 38 20 27 37 25
internal_value=0 0.00998483 0.0153725 0.00850172 0.0102933 0.00716681 0.00613259 0.0124999
internal_weight=0 227 49 178 76 102 75 45
internal_count=265 227 49 178 76 102 75 45
is_linear=0
shrinkage=0.03


Tree=19
num_leaves=10
num_cat=0
split_feature=1 4 7 525 3 6 3 6 439
split_gain=0.812899 0.849315 1.01766 0.978675 0.334419 0.185626 0.120462 0.0915751 0.000833493
threshold=11.500000000000002 0.28400000000000009 0.34685000000000005 1.0000000180025095e-35 114.50000000000001 59.865000000000002 114.50000000000001 80.915000000000006 1.0000000180025095e-35
decision_type=8 8 10 2 10 10 10 8 2
left_child=4 2 3 7 -1 6 8 -2 -3
right_child=1 5 -4 -5 -6 -7 -8 -9 -10
leaf_value=0.0046813550075008106 0.0098314469531178474 0.008678753345232942 0.0066850689277052882 0.018264618252287618 0.0088908524111445467 0.010983908646132634 0.0062077489122748372 0.012636288589035921 0.0089370407841422323
leaf_weight=33 20 23 20 32 35 23 25 22 22
leaf_count=33 20 23 20 32 35 23 25 22 22
internal_value=0 0.0106783 0.0126893 0.0143121 0.00684801 0.0086457 0.00787743 0.0113006 0.00880503
internal_weight=0 187 94 74 68 93 70 42 45
internal_count=255 187 94 74 68 93 70 42 45
is_linear=0
shrinkage=0.03


Tree=20
num_leaves=9
num_cat=0
split_feature=290 4 1 3 286 2 525 4
split_gain=1.8418 1.12748 0.796723 2.16653 0.681613 0.552885 0.352505 0.331491
threshold=1.0000000180025095e-35 0.12250000000000001 11.500000000000002 150.70000000000002 1.0000000180025095e-35 inf 1.0000000180025095e-35 0.22500000000000003
decision_type=2 8 8 8 2 8 2 10
left_child=1 -1 -2 -4 5 7 -7 -3
right_child=2 4 3 -5 -6 6 -8 -9
leaf_value=0.015205660533159972 0.0096975779533386239 0.0073209806495025511 0.022012988647652998 0.0091650813871196335 0.012693246730736324 0.0067075233743526036 0.0019531190514564514 0.011616543373939666
leaf_weight=20 24 61 27 21 21 32 25 22
leaf_count=20 24 61 27 21 21 32 25 22
internal_value=0 0.00848776 0.0141605 0.016392 0.00765323 0.00689723 0.00462226 0.00845956
internal_weight=0 181 72 48 161 140 57 83
internal_count=253 181 72 48 161 140 57 83
is_linear=0
shrinkage=0.03


Tree=21
num_leaves=9
num_cat=0
split_feature=289 439 3 3 2 5 448 3
split_gain=2.72728 1.16462 1.76968 1.05055 0.756197 0.476227 0.524106 0.348171
threshold=1.0000000180025095e-35 1.0000000180025095e-35 114.50000000000001 86.220000000000013 inf 1.0000000180025095e-35 1.0000000180025095e-35 189.28000000000003
decision_type=2 2 8 8 8 10 2 8
left_child=1 2 -1 -2 -3 6 -5 -8
right_child=3 4 -4 5 -6 -7 7 -9
leaf_value=0.02386823844909668 0.013718284171074629 0.0075456444605914571 0.012184137044740573 0.002721879708652313 0.014483235608786345 0.010255983883272047 0.0050910136159005998 0.0093643436525599096
leaf_weight=20 20 31 28 39 26 23 37 32
leaf_count=20 20 31 28 39 26 23 37 32
internal_value=0 0.0136095 0.0170525 0.00731413 0.0107102 0.00633639 0.00550166 0.00707285
internal_weight=0 105 48 151 57 131 108 69
internal_count=256 105 48 151 57 131 108 69
is_linear=0
shrinkage=0.03


Tree=22
num_leaves=9
num_cat=0
split_feature=290 304 6 6 4 525 3 439
split_gain=1.41407 1.24717 0.87656 0.851082 0.892373 0.2208 0.273526 0.187799
threshold=1.0000000180025095e-35 1.0000000180025095e-35 1.0000000180025095e-35 80.915000000000006 0.17600000000000002 1.0000000180025095e-35 1.0000000180025095e-35 1.0000000180025095e-35
decision_type=2 2 10 10 8 2 10 2
left_child=3 2 -2 4 -1 6 -6 -7
right_child=1 -3 -4 -5 5 7 -8 -9
leaf_value=0.0011253178693975011 0.019377314271405339 0.0068893323546468186 0.011329307251706205 0.01109124585471459 0.011020978308198127 0.0037880582725745623 0.0069943615705801206 0.0072827690905861312
leaf_weight=27 21 29 29 38 22 25 49 31
leaf_count=27 21 29 29 38 22 25 49 31
internal_value=0 0.0118388 0.0147095 0.00707033 0.00607816 0.00713112 0.00824205 0.00572263
internal_weight=0 79 50 192 154 127 71 56
internal_count=271 79 50 192 154 127 71 56
is_linear=0
shrinkage=0.03


Tree=23
num_leaves=9
num_cat=0
split_feature=5 4 16 7 386 1 16 51
split_gain=1.12697 0.984701 0.648544 0.407154 0.484654 0.300918 0.19839 0.119514
threshold=1.0000000180025095e-35 0.28400000000000009 1.0000000180025095e-35 1.0000000180025095e-35 1.0000000180025095e-35 70.500000000000014 1.0000000180025095e-35 1.0000000180025095e-35
decision_type=10 8 2 10 2 8 2 2
left_child=1 2 -1 4 -3 -6 -2 -4
right_child=6 3 7 -5 5 -7 -8 -9
leaf_value=0.0067931632510566664 0.01094321583630517 0.010881207540049216 0.010662536083587578 0.0021003389711092627 0.0029985851020767136 0.0068436546269203379 0.01511813639709726 0.013680125246238376
leaf_weight=31 21 20 21 21 26 62 20 27
leaf_count=31 21 20 21 21 26 62 20 27
internal_value=0 0.00753782 0.0101755 0.00592249 0.00666568 0.00570761 0.0129798 0.0123599
internal_weight=0 208 79 129 108 88 41 48
internal_count=249 208 79 129 108 88 41 48
is_linear=0
shrinkage=0.03


Tree=24
num_leaves=11
num_cat=0
split_feature=51 304 16 5 436 6 1 5 0 5
split_gain=1.21018 2.5537 0.49134 0.803462 0.39672 0.380335 0.177558 0.0384398 0.0193847 0.0103385
threshold=1.0000000180025095e-35 1.0000000180025095e-35 1.0000000180025095e-35 -11.749999999999998 1.0000000180025095e-35 90.25500000000001 70.500000000000014 -23.949999999999996 1.0000000180025095e-35 -11.749999999999998
decision_type=2 2 2 8 2 8 8 10 8 10
left_child=1 5 4 7 6 -1 -2 -4 -8 -5
right_child=2 -3 3 9 -6 -7 8 -9 -10 -11
leaf_value=0.01323186201351096 0.0019700902770273384 0.0056073065933126675 0.010592055005952715 0.005337428005519681 0.0086038847733289001 0.018816011377164849 0.0058875268721021706 0.012452050432562829 0.0045825031446292989 0.0062323869282512783
leaf_weight=21 24 39 20 26 23 23 20 20 21 21
leaf_count=21 24 39 20 26 23 23 20 20 21 21
internal_value=0 0.0111967 0.00679823 0.00839696 0.00521767 0.0161508 0.00401947 0.0115221 0.0052191 0.0057373
internal_weight=0 83 175 87 88 44 65 40 41 47
internal_count=258 83 175 87 88 44 65 40 41 47
is_linear=0
shrinkage=0.03


Tree=25
num_leaves=8
num_cat=0
split_feature=3 53 0 3 18 4 5
split_gain=1.25787 0.628775 0.543754 0.877366 0.508265 0.414804 0.409344
threshold=86.220000000000013 1.0000000180025095e-35 1.0000000180025095e-35 150.70000000000002 1.0000000180025095e-35 0.17600000000000002 -1.0000000180025095e-35
decision_type=8 2 8 8 2 10 8
left_child=6 2 4 -4 5 -2 -1
right_child=1 -3 3 -5 -6 -7 -8
leaf_value=0.016557130360510201 0.0060764095409271811 0.011380589556020159 -0.00043327631335705522 0.0075297415899959483 0.012522058181930333 0.0098339735479094081 0.010627006068296561
leaf_weight=20 78 37 20 33 20 40 22
leaf_count=20 78 37 20 33 20 40 22
internal_value=0 0.00780113 0.00710773 0.00452483 0.00809971 0.00735016 0.0134509
internal_weight=0 228 191 53 138 118 42
internal_count=270 228 191 53 138 118 42
is_linear=0
shrinkage=0.03


Tree=26
num_leaves=9
num_cat=0
split_feature=51 304 6 6 1 4 16 439
split_gain=1.96557 3.03483 1.00548 0.779963 0.487484 0.351862 0.161296 0.00743169
threshold=1.0000000180025095e-35 1.0000000180025095e-35 80.915000000000006 90.25500000000001 1.0000000180025095e-35 0.17600000000000002 1.0000000180025095e-35 1.0000000180025095e-35
decision_type=2 2 8 8 8 10 2 2
left_child=1 2 -1 5 -5 -2 7 -6
right_child=3 -3 -4 4 6 -7 -8 -9
leaf_value=0.011898239124566317 0.012415833710879086 0.0034480493042792658 0.020582208189048937 0.0022378944437349995 0.0050565549846657591 0.0075968226306140424 0.0079588720787848732 0.0057786659433923917
leaf_weight=21 25 22 28 31 23 30 42 29
leaf_count=21 25 22 28 31 23 30 42 29
internal_value=0 0.0127045 0.0168605 0.00681017 0.00550024 0.00978728 0.00657611 0.00545927
internal_weight=0 71 49 180 125 55 94 52
internal_count=251 71 49 180 125 55 94 52
is_linear=0
shrinkage=0.03


Tree=27
num_leaves=9
num_cat=0
split_feature=4 290 3 4 5 5 3 3
split_gain=1.7557 1.54197 1.90874 0.510717 0.846708 0.410708 0.410963 0.153573
threshold=0.12250000000000001 1.0000000180025095e-35 114.50000000000001 0.17600000000000002 19.240000000000006 -23.949999999999996 150.70000000000002 189.28000000000003
decision_type=8 2 8 10 8 10 10 8
left_child=-1 3 -3 4 -2 -5 -7 -6
right_child=1 2 -4 5 7 6 -8 -9
leaf_value=0.014391059459209623 0.00046159610409583703 0.017468501594848931 0.006605406539464319 0.0039106266209855672 0.003898361609982593 0.011979698647681454 0.0061124300797070772 0.0069742647930979727
leaf_weight=31 38 24 37 20 21 22 21 48
leaf_count=31 38 24 37 20 21 22 21 48
internal_value=0 0.00678763 0.0108794 0.0053194 0.00405767 0.00746233 0.00911429 0.00603812
internal_weight=0 231 61 170 107 63 43 69
internal_count=262 231 61 170 107 63 43 69
is_linear=0
shrinkage=0.03


Tree=28
num_leaves=9
num_cat=0
split_feature=53 5 6 4 5 5 439 525
split_gain=1.03105 0.75614 0.756129 0.460286 0.457862 0.334042 0.0887319 0.00551991
threshold=1.0000000180025095e-35 inf 59.865000000000002 0.12250000000000001 -11.749999999999998 -11.749999999999998 1.0000000180025095e-35 1.0000000180025095e-35
decision_type=2 8 10 10 10 10 2 2
left_child=1 2 4 -4 -1 -5 7 -3
right_child=-2 6 3 5 -6 -7 -8 -9
leaf_value=0.0074268844425130418 0.011377678015402385 0.0029724662112338204 0.012532720930981808 0.0051958116721361877 0.0025387902156050715 0.01032822161646826 0.0045672475979771721 0.002284618030701365
leaf_weight=34 35 21 26 25 35 21 43 21
leaf_count=34 35 21 26 25 35 21 43 21
internal_value=0 0.00584425 0.00719156 0.0093422 0.00494742 0.00753887 0.0036093 0.00262854
internal_weight=0 226 141 72 69 46 85 42
internal_count=261 226 141 72 69 46 85 42
is_linear=0
shrinkage=0.03


Tree=29
num_leaves=6
num_cat=0
split_feature=53 3 3 436 439
split_gain=1.01818 0.630506 0.70551 0.787487 0.569579
threshold=1.0000000180025095e-35 189.28000000000003 86.220000000000013 1.0000000180025095e-35 1.0000000180025095e-35
decision_type=2 10 8 2 2
left_child=1 2 -1 4 -4
right_child=-2 -3 3 -5 -6
leaf_value=0.010117132267491384 0.0123772268014198 0.010860046398793828 0.00016455344706773757 0.0093629411087535752 0.0052125000854438735
leaf_weight=33 33 29 25 34 103
leaf_count=33 33 29 25 34 103
internal_value=0 0.0067328 0.00611901 0.00530458 0.00422657
internal_weight=0 224 195 162 128
internal_count=257 224 195 162 128
is_linear=0
shrinkage=0.03


Tree=30
num_leaves=9
num_cat=0
split_feature=289 4 3 3 1 439 3 4
split_gain=0.707689 0.852943 0.663708 0.466283 0.324783 0.5593 0.994485 0.287541
threshold=1.0000000180025095e-35 0.22500000000000003 114.50000000000001 150.70000000000002 1.0000000180025095e-35 1.0000000180025095e-35 114.50000000000001 1.0000000180025095e-35
decision_type=2 10 8 10 8 2 8 10
left_child=1 2 -1 -4 -2 6 -6 -7
right_child=4 -3 3 -5 5 7 -8 -9
leaf_value=0.013590721079822756 0.0080854153205555945 0.0030080889067612589 0.0055893489700974894 0.0108904673039381 -0.0019214190557599066 0.0041772151584378798 0.0061205708454813686 0.0082501632953062651
leaf_weight=29 33 20 32 28 25 26 31 39
leaf_count=29 33 20 32 28 25 26 31 39
internal_value=0 0.00860628 0.00986431 0.0080632 0.0054473 0.00472782 0.0025304 0.00662098
internal_weight=0 109 89 60 154 121 56 65
internal_count=263 109 89 60 154 121 56 65
is_linear=0
shrinkage=0.03


Tree=31
num_leaves=11
num_cat=0
split_feature=51 304 16 439 2 5 5 5 448 2
split_gain=1.12953 1.71196 0.425031 0.57269 1.11737 0.35539 0.34734 0.345405 0.143848 0.0027673
threshold=1.0000000180025095e-35 1.0000000180025095e-35 1.0000000180025095e-35 1.0000000180025095e-35 inf -11.749999999999998 -23.949999999999996 -11.749999999999998 1.0000000180025095e-35 1.0000000180025095e-35
decision_type=2 2 2 2 8 10 10 10 2 8
left_child=1 5 7 -4 6 -1 -5 8 -2 -10
right_child=2 -3 3 4 -6 -7 -8 -9 9 -11
leaf_value=0.011071070211215152 0.0049314542660223587 0.0046800923648783388 0.0040968667768787491 0.0030623909643036312 0.014401518947311809 0.016145800196606181 0.0085865453477682804 0.0072350025270134207 0.0016157417781651018 0.0021147978175431489
leaf_weight=27 21 34 38 20 21 23 21 23 20 20
leaf_count=27 21 34 38 20 21 23 21 23 20 20
internal_value=0 0.00987376 0.0056753 0.00699678 0.00877415 0.0134054 0.00589184 0.0041021 0.00292084 0.00186527
internal_weight=0 84 184 100 62 50 41 84 61 40
internal_count=268 84 184 100 62 50 41 84 61 40
is_linear=0
shrinkage=0.03


Tree=32
num_leaves=11
num_cat=0
split_feature=448 289 304 1 6 2 525 6 16 6
split_gain=1.40505 0.785378 1.41613 0.727574 0.677941 0.621129 0.321646 0.549794 0.206653 0.181189
threshold=1.0000000180025095e-35 1.0000000180025095e-35 1.0000000180025095e-35 inf 90.25500000000001 1.0000000180025095e-35 1.0000000180025095e-35 71.080000000000013 1.0000000180025095e-35 1.0000000180025095e-35
decision_type=2 2 2 8 8 8 2 10 2 10
left_child=5 2 3 -2 -5 -1 7 8 -3 -8
right_child=1 6 -4 4 -6 -7 9 -9 -10 -11
leaf_value=0.0054029231466120103 0.0074645050065591922 0.0086116000408814706 0.004155375347140112 0.011047957053780555 0.018458302245475351 -0.00071542009395281117 0.0061382038465567995 0.00055675761541351676 0.0044996698029254644 0.010128038660623133
leaf_weight=32 20 22 28 25 20 28 21 20 22 20
leaf_count=32 20 22 28 25 20 28 21 20 22 20
internal_value=0 0.00778814 0.00979576 0.0122255 0.0143414 0.0025477 0.00600996 0.00468099 0.00655563 0.00808446
internal_weight=0 198 93 65 45 60 105 64 44 41
internal_count=258 198 93 65 45 60 105 64 44 41
is_linear=0
shrinkage=0.03


Tree=33
num_leaves=7
num_cat=0
split_feature=5 1 3 7 290 6
split_gain=1.2964 0.560256 0.956567 0.531945 0.485985 0.175219
threshold=1.0000000180025095e-35 11.500000000000002 86.220000000000013 3.8850000000000002 1.0000000180025095e-35 1.0000000180025095e-35
decision_type=10 8 8 8 2 10
left_child=1 5 -3 -4 -5 -1
right_child=-2 2 3 4 -6 -7
leaf_value=0.0013335606122078995 0.010989536699373276 0.011091988239038203 0.0093004928055134672 0.003019686830065706 0.0073091941767118185 0.0046028622837737199
leaf_weight=36 40 28 22 85 33 25
leaf_count=36 40 28 22 85 33 25
internal_value=0 0.005136 0.00603014 0.00501777 0.00421929 0.00267344
internal_weight=0 229 168 140 118 61
internal_count=269 229 168 140 118 61
is_linear=0
shrinkage=0.03


Tree=34
num_leaves=9
num_cat=0
split_feature=1 3 6 14 436 525 4 3
split_gain=1.05023 0.886647 0.589089 0.551028 0.517825 0.973922 0.860426 0.779672
threshold=inf 86.220000000000013 1.0000000180025095e-35 1.0000000180025095e-35 1.0000000180025095e-35 1.0000000180025095e-35 0.22500000000000003 150.70000000000002
decision_type=8 8 10 2 2 2 10 10
left_child=2 -2 3 -1 6 -6 7 -3
right_child=1 4 -4 -5 5 -7 -8 -9
leaf_value=0.0034826492518186566 0.011290725576541117 0.00094622542303525567 0.0058185383517088164 -0.0033112844295932775 0.012385069039463997 0.0037303896396505558 0.0096604322334346553 0.0071349745819212062
leaf_weight=22 31 53 27 21 25 22 23 28
leaf_count=22 31 53 27 21 25 22 23 28
internal_value=0 0.00666938 0.00234545 0.000164682 0.00572063 0.00833394 0.00453961 0.00308555
internal_weight=0 182 70 43 151 47 104 81
internal_count=252 182 70 43 151 47 104 81
is_linear=0
shrinkage=0.03


end of trees

feature_importances:
feature3=42
feature4=32
feature5=32
feature6=23
feature439=14
feature1=12
feature304=12
feature2=11
feature290=11
feature16=10
feature525=10
feature53=9
feature51=8
feature289=8
feature436=7
feature448=7
feature0=6
feature7=6
feature14=2
feature203=2
feature286=2
feature386=2
feature18=1
feature306=1

parameters:
[boosting: gbdt]
[objective: regression]
[metric: rmse]
[tree_learner: serial]
[device_type: cpu]
[data: ]
[valid: ]
[num_iterations: 2000]
[learning_rate: 0.03]
[num_leaves: 12]
[num_threads: 12]
[deterministic: 0]
[force_col_wise: 0]
[force_row_wise: 0]
[histogram_pool_size: -1]
[max_depth: 5]
[min_data_in_leaf: 20]
[min_sum_hessian_in_leaf: 0.001]
[bagging_fraction: 0.7]
[pos_bagging_fraction: 1]
[neg_bagging_fraction: 1]
[bagging_freq: 1]
[bagging_seed: 400]
[feature_fraction: 0.7]
[feature_fraction_bynode: 1]
[feature_fraction_seed: 30056]
[extra_trees: 0]
[extra_seed: 12879]
[early_stopping_round: 300]
[first_metric_only: 0]
[max_delta_step: 0]
[lambda_l1: 0]
[lambda_l2: 0]
[linear_lambda: 0]
[min_gain_to_split: 0]
[drop_rate: 0.1]
[max_drop: 50]
[skip_drop: 0.5]
[xgboost_dart_mode: 0]
[uniform_drop: 0]
[drop_seed: 17869]
[top_rate: 0.2]
[other_rate: 0.1]
[min_data_per_group: 100]
[max_cat_threshold: 32]
[cat_l2: 10]
[cat_smooth: 10]
[max_cat_to_onehot: 4]
[top_k: 20]
[monotone_constraints: ]
[monotone_constraints_method: basic]
[monotone_penalty: 0]
[feature_contri: ]
[forcedsplits_filename: ]
[refit_decay_rate: 0.9]
[cegb_tradeoff: 1]
[cegb_penalty_split: 0]
[cegb_penalty_feature_lazy: ]
[cegb_penalty_feature_coupled: ]
[path_smooth: 0]
[interaction_constraints: ]
[verbosity: -1]
[saved_feature_importance_type: 0]
[linear_tree: 0]
[max_bin: 7]
[max_bin_by_feature: ]
[min_data_in_bin: 3]
[bin_construct_sample_cnt: 200000]
[data_random_seed: 175]
[is_enable_sparse: 1]
[enable_bundle: 1]
[use_missing: 1]
[zero_as_missing: 0]
[feature_pre_filter: 1]
[pre_partition: 0]
[two_round: 0]
[header: 0]
[label_column: ]
[weight_column: ]
[group_column: ]
[ignore_column: ]
[categorical_feature: ]
[forcedbins_filename: ]
[precise_float_parser: 0]
[objective_seed: 16083]
[num_class: 1]
[is_unbalance: 0]
[scale_pos_weight: 1]
[sigmoid: 1]
[boost_from_average: 0]
[reg_sqrt: 0]
[alpha: 0.9]
[fair_c: 1]
[poisson_max_delta_step: 0.7]
[tweedie_variance_power: 1.5]
[lambdarank_truncation_level: 30]
[lambdarank_norm: 1]
[label_gain: ]
[eval_at: ]
[multi_error_top_k: 1]
[auc_mu_weights: ]
[num_machines: 1]
[local_listen_port: 12400]
[time_out: 120]
[machine_list_filename: ]
[machines: ]
[gpu_platform_id: -1]
[gpu_device_id: -1]
[gpu_use_dp: 0]
[num_gpu: 1]

end of parameters

pandas_categorical:[]
