tree
version=v3
num_class=1
num_tree_per_iteration=1
label_index=0
max_feature_idx=525
objective=regression
feature_names=feature0 feature1 feature2 feature3 feature4 feature5 feature6 feature7 feature8 feature9 feature10 feature11 feature12 feature13 feature14 feature15 feature16 feature17 feature18 feature19 feature20 feature21 feature22 feature23 feature24 feature25 feature26 feature27 feature28 feature29 feature30 feature31 feature32 feature33 feature34 feature35 feature36 feature37 feature38 feature39 feature40 feature41 feature42 feature43 feature44 feature45 feature46 feature47 feature48 feature49 feature50 feature51 feature52 feature53 feature54 feature55 feature56 feature57 feature58 feature59 feature60 feature61 feature62 feature63 feature64 feature65 feature66 feature67 feature68 feature69 feature70 feature71 feature72 feature73 feature74 feature75 feature76 feature77 feature78 feature79 feature80 feature81 feature82 feature83 feature84 feature85 feature86 feature87 feature88 feature89 feature90 feature91 feature92 feature93 feature94 feature95 feature96 feature97 feature98 feature99 feature100 feature101 feature102 feature103 feature104 feature105 feature106 feature107 feature108 feature109 feature110 feature111 feature112 feature113 feature114 feature115 feature116 feature117 feature118 feature119 feature120 feature121 feature122 feature123 feature124 feature125 feature126 feature127 feature128 feature129 feature130 feature131 feature132 feature133 feature134 feature135 feature136 feature137 feature138 feature139 feature140 feature141 feature142 feature143 feature144 feature145 feature146 feature147 feature148 feature149 feature150 feature151 feature152 feature153 feature154 feature155 feature156 feature157 feature158 feature159 feature160 feature161 feature162 feature163 feature164 feature165 feature166 feature167 feature168 feature169 feature170 feature171 feature172 feature173 feature174 feature175 feature176 feature177 feature178 feature179 feature180 feature181 feature182 feature183 feature184 feature185 feature186 feature187 feature188 feature189 feature190 feature191 feature192 feature193 feature194 feature195 feature196 feature197 feature198 feature199 feature200 feature201 feature202 feature203 feature204 feature205 feature206 feature207 feature208 feature209 feature210 feature211 feature212 feature213 feature214 feature215 feature216 feature217 feature218 feature219 feature220 feature221 feature222 feature223 feature224 feature225 feature226 feature227 feature228 feature229 feature230 feature231 feature232 feature233 feature234 feature235 feature236 feature237 feature238 feature239 feature240 feature241 feature242 feature243 feature244 feature245 feature246 feature247 feature248 feature249 feature250 feature251 feature252 feature253 feature254 feature255 feature256 feature257 feature258 feature259 feature260 feature261 feature262 feature263 feature264 feature265 feature266 feature267 feature268 feature269 feature270 feature271 feature272 feature273 feature274 feature275 feature276 feature277 feature278 feature279 feature280 feature281 feature282 feature283 feature284 feature285 feature286 feature287 feature288 feature289 feature290 feature291 feature292 feature293 feature294 feature295 feature296 feature297 feature298 feature299 feature300 feature301 feature302 feature303 feature304 feature305 feature306 feature307 feature308 feature309 feature310 feature311 feature312 feature313 feature314 feature315 feature316 feature317 feature318 feature319 feature320 feature321 feature322 feature323 feature324 feature325 feature326 feature327 feature328 feature329 feature330 feature331 feature332 feature333 feature334 feature335 feature336 feature337 feature338 feature339 feature340 feature341 feature342 feature343 feature344 feature345 feature346 feature347 feature348 feature349 feature350 feature351 feature352 feature353 feature354 feature355 feature356 feature357 feature358 feature359 feature360 feature361 feature362 feature363 feature364 feature365 feature366 feature367 feature368 feature369 feature370 feature371 feature372 feature373 feature374 feature375 feature376 feature377 feature378 feature379 feature380 feature381 feature382 feature383 feature384 feature385 feature386 feature387 feature388 feature389 feature390 feature391 feature392 feature393 feature394 feature395 feature396 feature397 feature398 feature399 feature400 feature401 feature402 feature403 feature404 feature405 feature406 feature407 feature408 feature409 feature410 feature411 feature412 feature413 feature414 feature415 feature416 feature417 feature418 feature419 feature420 feature421 feature422 feature423 feature424 feature425 feature426 feature427 feature428 feature429 feature430 feature431 feature432 feature433 feature434 feature435 feature436 feature437 feature438 feature439 feature440 feature441 feature442 feature443 feature444 feature445 feature446 feature447 feature448 feature449 feature450 feature451 feature452 feature453 feature454 feature455 feature456 feature457 feature458 feature459 feature460 feature461 feature462 feature463 feature464 feature465 feature466 feature467 feature468 feature469 feature470 feature471 feature472 feature473 feature474 feature475 feature476 feature477 feature478 feature479 feature480 feature481 feature482 feature483 feature484 feature485 feature486 feature487 feature488 feature489 feature490 feature491 feature492 feature493 feature494 feature495 feature496 feature497 feature498 feature499 feature500 feature501 feature502 feature503 feature504 feature505 feature506 feature507 feature508 feature509 feature510 feature511 feature512 feature513 feature514 feature515 feature516 feature517 feature518 feature519 feature520 feature521 feature522 feature523 feature524 feature525
feature_infos=[0:1] [0:100] [0:1] [4.7300000000000004:3170] [0.012999999999999999:21.920000000000002] [-64.299999999999997:48.450000000000003] [0.46600000000000003:99.799999999999997] [0.0275:78.299999999999997] [0:46] none none none none none [0:1] none [0:1] none [0:1] none none none none none none none none none none none none none none none none [0:1] none none none none none none [0:1] none none none none none none none none [0:1] none [0:1] none none none none none none none none none none none none none none none none none none none none none none none none none none none none none none none none none none none none none none none none none none none none none none none none none none none none none none none none none none none none none none none none none none none none none none none none none none none none none none none none none none none none none none none none none none none none none none none none none none none none none none none none none none none none none none none none none none none none none none none none none none none none none none none none none none none none none none none none none none none none none none none none none none none none none [0:1] none none none none none none none none none none none none none none none none none none none none none none none none none none none none none none none none none none none none none none none none none none none none none none none none none none none none none none none none none none none none none none none none none none none none none none none none none none none none none none none none none none [0:1] none none [0:1] [0:1] none none none none none none none none none none none [0:1] none [0:1] none [0:1] none none none none none none none none none none none none none none none none none none none none none none none none none none none none none none none none none none none none none none none none none none none none none none none none none none none none none none none none none none none none none none none none none none none none none none none none none none none none none none none [0:1] none none none none none none none none none none none none none none none none none none none none none none none none none none none none none none none none none none none none none none none none none none none none none none none none none [0:1] none none [0:1] [0:1] none none none none [0:1] none none [0:1] none none none none none none none none none none none none none none none [0:1] none [0:1] none none none none none none none none none none none none none none none none none none none none none none none none none none none none none none none none none none none none none none none none none none none none none none none none none none none none none none none none none [0:1] [0:1]
tree_sizes=717 901 747 969 1004 827 824 741 900 905 827 740 886 825 901 996 906 911 1092 896 834 910 997 1001 707 904 897 831 834 917 917 1014 913 833 785 821 820 1009 816 1004 886 834 1010 929 812 918 907 913 661 1008 980 991 920 925 819 845 750 838 762 995 835 921 898 910 1013 760 748 842 911 928 846 842 915 829 920 1000 910 941 999 753 912 994 754 911 938 842 989 922 835 673 945 753 1017 847 836 983 1006 892 1017 1020 911 830 916 826 978 829 765 833 841 841 1069 832 758 1022 673 997 861 923 1016 1033 680 934 747 835 752 917 934 929 683 1005 1021 936 921 845 1010 1014 846 1017 910 852 834 1015 772 755 945 931 864 1013 739 913 846 933 1020 905 1009 771 1026 1028 939 849 926 944 850 909 857 946 986 828 853 931 845 757 1114 925 766 840 923 935 842 939 930 675 744 836 1037 929 838 848 943 1016 843 843 930 1124 927 844 767 853 941 929 1013 912 833 1089 1110 836 849 857 1015 1111 1028 763 934 855 945 992 668 859 929 1108 762 941 934 929 943 942 769 927 846 835 860 934 773 850 913 677 847 764 851 1187 840 848 826 1103 1079 937 1018 678 935 1019 939 664 937 929 838 1020 936 740 937 943 1001 776 922 816 917 929 1028 652 846 850 1121 1018 857 859 998 1034 933 1030 850 998 922 907 1027 848 843 922 936 1017 916 934 913 935 1022 744 1019 1004 937 797 741 929 935 1020 756 1007 936 1030 927 946 830 929 948 924 1022 1026 1095 933 933 937 1009 760 1015 917 775 764 772 1019 679 727 684 1013 762 928 826 845 845 936 941 1027 923 1009 848 918 935 930 836 857 819 914 1022 768 916 937 1038 745 775 939 771 1029 827 842 939 926 774 1029 948 1027 753 996 823 926 855 1035 1106 1003 932 940 846 932 1097 677 1135 891 770 865 851 941 938 907 916 1019 826 1020 768 938 839 928 839 736 1040 923 831 1029 857 1014 942 1011 683 858 1036 1026 1003 768 762 1124 950 913 920 927 857 1029 933 838 942 774 810 930 942 859 1016 922 848 854 858 929 939 1036 1035 939 927 999 922 843 847 859 938 912 826 857 839 1021 920 848 897 941 848 849 950 1114 1023 848 753 936 941 761 933 852 939 1028 749 908 1040 1020 849 927 927 916 946 941 1028 850 926 840 1024 938 936 915 661 759 855 1121 1024 904 1026 891 953 939 837 868 1005 664 923 850 931 1122 1025 1016 826 1119 1115 1037 851 761 775 851 1005 1111 1021 1036 1000 1035 928 763 1045 851 932 907 935 928 840 932 933 941 770 858 1027 934 945 923 1037 835 853 854 945 1029 946 930 1011 771 832 906 947 757 1028 849 1026 766 853 943 1033 848 1016 769 913 784 1107 859 778 766 912 861 1017 931 680 772 781 937 926 917 936 943 856 936 931 1087 922 693 863 1000 948 762 832 738 1036 1014 860 1089 947 1027 846 940 757 934 943 938 919 1034 858 939 841 847 906 1021 937 855 939 927 892 918 1032 858 857 1006 679 1012 853 899 1017 843 745 854 779 768 946 946 846 680 771 946 854 848 768 919 935 760 823 759 914 777 1028 988 936 1025 919 953 941 956 1047 840 1005 1023 773 945 1019 1013 930 760 742 945 1010 1021 903 760 829 1025 1006 839 860 1031 1114 914 912 865 1034 679 873 1036 845 953 914 853 1015 677 843 933 919 949 768 1032 915 855 1030 937 940 862 755 939 859 942 932 772 1014 775 1026 949 1005 928 954 851 1031 939 1045 1028 1020 856 764 853 1024 1105 1039 1033 766 1028 846 935 946 684 955 952 836 938 943 1035 859 931 1034 1024 942 856 757 926 951 1028 959 859 853 849 920 860 1035 956 1027 853 769 1120 856 923 681 860 936 942 1119 847 677 916 939 1133 760 1045 846 855 945 850 775 933 772 684 761 1027 921 832 923 853 852 666 945 929 944 940 929 942 913 1024 1097 1037 857 950 1029 856 761 941 824 941 942 853 672 830 846 764 1035 767 932 1025 942 669 866 929 935 663 905 917 917 1034 1119 923 934 936 1026 777 677 941 925 1024 849 679 833 927 1100 870 939 941 937 685 932 947 1011 930 855 1017 1017 857 1038 766 852 762 944 858 1030 906 946 945 860 1019 942 935 768 836 950 1034 836 1026 993 1114 836 1133 942 847 837 1026 930 1047 838 769 952 859 856 842 669 1029 777 1038 948 653 922 931 833 834 860 946 947 817 773 937 840 854 1023 859 852 1033 768 948 838 772 1031 761 1014 1125 925 750 851 942 918 1011 935 769 1027 1035 946 955 1038 775 863 855 829 751 765 855 939 954 857 773 934 949 764 1009 946 941 852 935 940 861 1083 867 827 763 772 1007 950 852 940 940 923 1018 1010 1040 1021 926 911 857 849 947 941 856 689 773 850 856 947 905 935 935 765 864 943 1139 767 945 934 857 867 920 774 864 773 1049 943 929 1016 853 933 914 764 858 949 847 685 1043 1022 936 831 1035 917 763 1043 950 933 864 915 945 1032 918 843 947 859 932 1009 761 946 1034 922 929 906 856 946 958 944 777 1027 1026 853 896 864 923 1032 675 1005 984 1009 780 1118 848 1049 862 935 1018 879 956 763 769 1011 903 1126 759 760 1033 1031 926 945 1018 1036 936 845 935 954 857 1021 1042 1033 859 1026 1012 1021 1127 949 1118 1123 835 947 937 938 865 941 752 1018 921 1003 945 757 865 857 1027 919 858 931 855 881 1054 939 1052 772 842 776 865 941 860 946 850 936 764 1019 830 855 936 1036 1015 858 1019 913 940 1114 843 942 768 1132 928 945 855 922 1047 945 1031 1032 857 860 1049 848 952 761 923 851 938 941 859 864 943 945 1029 946 921 923 774 848 859 771 856 837 942 1046 1036 851 838 1108 919 1028 850 924 860 1022 853 936 940 1106 854 933 768 951 929 676 945 939 1033 861 946 954 765 934 1030 946 1040 766 748 1029 1007 1022 1037 856 1007 991 941 1037 836 1024 921 829 1032 908 1033 1038 1034 852 926 850 951 692 923 859 942 934 1016 946 1023 937 777 1132 933 945 921 681 924 679 839 941 921 769 926 774 1037 941 948 1025 857 1022 849 1032 946 945 946 1037 957 850 774 1033 859 931 1028 920 950 773 948 867 1036 1043 760 780 698 853 1026 956 771 1018 850 780 939 939 1018 1047 1033 845 856 864 1042 865 924 936 686 922 1017 1019 840 842 1034 862 765 863 953 769 1034 865 926 1037 950 868 1016 763 767 755 950 860 943 1003 1125 1037 929 948 1027 688 944 943 940 849 1030 832 920 944 928 842 1034 1020 870 1042 940 1039 752 947 852 844 756 948 776 1028 943 944 762 845 861 947 842 1124 840 855 945 948 931 774 942 944 949 924 844 1122 861 950 869 1026 938 875 834 845 941 1031 853 1021 784 940 941 936 781 778 913 950 953 1037 868 1201 778 949 938 770 1022 1049 778 942 1016 1120 1036 1045 948 1015 756 946 1018 1047 1044 933 957 825 1032 770 692 863 1015 859 1040 946 857 1044 1122 944 865 1036 951 1131 1040 1122 928 1043 1024 1108 1038 780 866 1100 937 874 859 1125

Tree=0
num_leaves=7
num_cat=0
split_feature=5 35 53 1 439 3
split_gain=1.37334 1.24788 1.54771 1.13698 1.62194 0.389529
threshold=16.700000000000003 1.0000000180025095e-35 1.0000000180025095e-35 inf 1.0000000180025095e-35 150.70000000000002
decision_type=10 2 2 8 2 8
left_child=1 -1 3 5 -5 -3
right_child=-2 2 -4 4 -6 -7
leaf_value=0.02137077260348532 0.023020341440063454 0.0070709584753673805 0.021026264946641664 0.011030586390899351 0.018091700298906263 0.012371059339493513
leaf_weight=27 23 26 28 52 67 24
leaf_count=27 23 26 28 52 67 24
internal_value=0 0.0153225 0.0144935 0.0134112 0.0150062 0.00961501
internal_weight=0 224 197 169 119 50
internal_count=247 224 197 169 119 50
is_linear=0
shrinkage=0.03


Tree=1
num_leaves=9
num_cat=0
split_feature=5 290 304 4 3 16 439 5
split_gain=2.3244 2.89941 1.07367 0.600968 0.433158 0.693274 0.174278 0.0934885
threshold=16.700000000000003 1.0000000180025095e-35 1.0000000180025095e-35 0.17050000000000004 150.70000000000002 1.0000000180025095e-35 1.0000000180025095e-35 -12.229999999999999
decision_type=10 2 2 10 8 2 2 8
left_child=1 3 -3 4 6 -6 -1 -5
right_child=-2 2 -4 7 5 -7 -8 -9
leaf_value=0.0070385393070486876 0.0244052003962653 0.022429257250176023 0.014949422276789141 0.016114500265406527 0.015553371686255559 0.0092584835984293491 0.010345235529821365 0.013409599565455448
leaf_weight=26 21 39 31 23 32 31 32 23
leaf_count=26 21 39 31 23 32 31 32 23
internal_value=0 0.0139916 0.0191168 0.0118433 0.0107336 0.0124559 0.00886292 0.014762
internal_weight=0 237 70 167 121 63 58 46
internal_count=258 237 70 167 121 63 58 46
is_linear=0
shrinkage=0.03


Tree=2
num_leaves=7
num_cat=0
split_feature=290 5 304 18 289 525
split_gain=3.35909 1.60902 1.10543 0.567327 0.450049 0.277213
threshold=1.0000000180025095e-35 -27.339999999999996 1.0000000180025095e-35 1.0000000180025095e-35 1.0000000180025095e-35 1.0000000180025095e-35
decision_type=2 8 2 2 2 2
left_child=1 -1 -2 4 -3 -6
right_child=2 3 -4 -5 5 -7
leaf_value=0.018706160767469556 0.023739325186380972 0.014271484718698522 0.015842632191876569 0.015516494766343385 0.011015502341508276 0.007865694196273882
leaf_weight=32 39 23 27 24 57 45
leaf_count=32 39 23 27 24 57 45
internal_value=0 0.0126026 0.0205089 0.0112918 0.0104807 0.00962588
internal_weight=0 181 66 149 125 102
internal_count=247 181 66 149 125 102
is_linear=0
shrinkage=0.03


Tree=3
num_leaves=10
num_cat=0
split_feature=290 304 4 439 5 3 3 2 6
split_gain=1.70508 1.75704 1.46536 0.602706 0.737556 0.448428 0.339577 0.110775 0.067798
threshold=1.0000000180025095e-35 1.0000000180025095e-35 0.11600000000000001 1.0000000180025095e-35 1.0000000180025095e-35 85.295000000000016 109.85000000000001 inf 58.675000000000004
decision_type=2 2 8 2 10 10 10 8 10
left_child=2 8 -1 6 5 -5 7 -4 -2
right_child=1 -3 3 4 -6 -7 -8 -9 -10
leaf_value=0.020249075492843983 0.020864819407995255 0.01267526597766846 0.012229066584259271 0.014261310402102568 0.017980820502747189 0.009824949217626177 0.006406236980533735 0.0092593158769304872 0.023305420808494091
leaf_weight=20 21 32 26 37 22 46 22 20 20
leaf_count=20 21 32 26 37 22 46 22 20 20
internal_value=0 0.0179435 0.0125609 0.0116721 0.0130971 0.0118026 0.00947175 0.0109379 0.0220554
internal_weight=0 73 193 173 105 83 68 46 41
internal_count=266 73 193 173 105 83 68 46 41
is_linear=0
shrinkage=0.03


Tree=4
num_leaves=10
num_cat=0
split_feature=4 525 289 304 439 16 289 525 525
split_gain=1.52874 1.90534 0.893984 0.787109 0.461705 0.704784 0.416956 0.39513 0.198438
threshold=0.21800000000000003 1.0000000180025095e-35 1.0000000180025095e-35 1.0000000180025095e-35 1.0000000180025095e-35 1.0000000180025095e-35 1.0000000180025095e-35 1.0000000180025095e-35 1.0000000180025095e-35
decision_type=8 2 2 2 2 2 2 2 2
left_child=1 6 3 7 8 -6 -1 -2 -4
right_child=2 -3 4 -5 5 -7 -8 -9 -10
leaf_value=0.016106648244895039 0.020220272064674645 0.022542847753925756 0.0097857931974743087 0.010357901901006697 0.0088953363793817432 0.015366439788277991 0.010623131947448619 0.014394018920985135 0.0056103678010404109
leaf_weight=24 20 33 21 24 33 28 26 22 20
leaf_count=24 20 33 21 24 33 28 26 22 20
internal_value=0 0.0169479 0.0119713 0.0146919 0.0102109 0.0118657 0.0132552 0.0171684 0.007749
internal_weight=0 83 168 66 102 61 50 42 41
internal_count=251 83 168 66 102 61 50 42 41
is_linear=0
shrinkage=0.03


Tree=5
num_leaves=8
num_cat=0
split_feature=53 4 289 6 439 16 16
split_gain=2.2382 0.959854 0.632104 0.661227 0.33358 1.42812 0.800928
threshold=1.0000000180025095e-35 0.11600000000000001 1.0000000180025095e-35 1.0000000180025095e-35 1.0000000180025095e-35 1.0000000180025095e-35 1.0000000180025095e-35
decision_type=2 8 2 10 2 2 2
left_child=1 -1 3 -3 5 -4 -6
right_child=-2 2 4 -5 6 -7 -8
leaf_value=0.018608085436862893 0.021245416691663729 0.011590828602867467 0.01564401138706931 0.018054150619126599 0.0092274948745034637 0.0058489591355209009 0.015471895226816598
leaf_weight=24 34 28 21 29 36 37 38
leaf_count=24 34 28 21 29 36 37 38
internal_value=0 0.0129566 0.012239 0.0148792 0.0110989 0.00939544 0.0124341
internal_weight=0 213 189 57 132 58 74
internal_count=247 213 189 57 132 58 74
is_linear=0
shrinkage=0.03


Tree=6
num_leaves=8
num_cat=0
split_feature=448 5 2 3 386 436 5
split_gain=1.53324 1.10357 1.17747 1.44466 0.589817 1.04388 0.300009
threshold=1.0000000180025095e-35 1.0000000180025095e-35 1.0000000180025095e-35 85.295000000000016 1.0000000180025095e-35 1.0000000180025095e-35 -27.339999999999996
decision_type=2 10 8 10 2 2 10
left_child=6 2 4 -4 -2 -6 -1
right_child=1 -3 3 -5 5 -7 -8
leaf_value=0.0068266433179378508 0.014044166340215786 0.018931244874838739 0.023122906356118619 0.013205855786800384 0.013298236313793394 0.0049560392265104586 0.011034996536289973
leaf_weight=30 37 39 20 39 27 27 31
leaf_count=30 37 39 20 39 27 27 31
internal_value=0 0.0144355 0.0132666 0.0165676 0.0111264 0.00912714 0.00896531
internal_weight=0 189 150 59 91 54 61
internal_count=250 189 150 59 91 54 61
is_linear=0
shrinkage=0.03


Tree=7
num_leaves=7
num_cat=0
split_feature=5 448 4 53 35 16
split_gain=1.2642 1.43156 0.653038 0.725461 0.83045 0.131505
threshold=16.700000000000003 1.0000000180025095e-35 0.11600000000000001 1.0000000180025095e-35 1.0000000180025095e-35 1.0000000180025095e-35
decision_type=10 2 8 2 2 2
left_child=1 5 -3 4 -4 -1
right_child=-2 2 3 -5 -6 -7
leaf_value=0.0086664728522300727 0.018795067991899408 0.017745504749938846 0.016517483138225295 0.016818151450715958 0.010164450224106891 0.0054813993130145323
leaf_weight=20 23 20 22 24 117 28
leaf_count=20 23 20 22 24 117 28
internal_value=0 0.0114198 0.0126293 0.0120016 0.01117 0.00680851
internal_weight=0 231 183 163 139 48
internal_count=254 231 183 163 139 48
is_linear=0
shrinkage=0.03


Tree=8
num_leaves=9
num_cat=0
split_feature=5 448 6 3 290 304 4 525
split_gain=1.91653 1.59126 1.34947 1.16669 0.439002 0.418858 0.197292 0.192789
threshold=16.700000000000003 1.0000000180025095e-35 90.260000000000005 109.85000000000001 1.0000000180025095e-35 1.0000000180025095e-35 0.21800000000000003 1.0000000180025095e-35
decision_type=10 2 8 8 2 2 8 2
left_child=1 7 3 -3 -5 6 -4 -1
right_child=-2 2 5 4 -6 -7 -8 -9
leaf_value=0.009393417369574308 0.020639196297526356 0.022227684896947309 0.014100767479695636 0.01101578627480194 0.016753831757232544 0.0074490382408045905 0.011033024332589573 0.005786028637317941
leaf_weight=24 25 22 29 24 24 22 54 30
leaf_count=24 25 22 29 24 24 22 54 30
internal_value=0 0.0118912 0.0132804 0.0165069 0.0138848 0.0111294 0.0121049 0.00738931
internal_weight=0 229 175 70 48 105 83 54
internal_count=254 229 175 70 48 105 83 54
is_linear=0
shrinkage=0.03


Tree=9
num_leaves=9
num_cat=0
split_feature=290 304 3 6 4 525 525 4
split_gain=1.61684 1.46398 1.45827 0.356685 0.533888 0.47063 0.221132 0.0269871
threshold=1.0000000180025095e-35 1.0000000180025095e-35 85.295000000000016 80.38000000000001 0.27250000000000008 1.0000000180025095e-35 1.0000000180025095e-35 0.11600000000000001
decision_type=2 2 8 8 8 2 2 10
left_child=2 7 -1 6 -5 -6 -4 -2
right_child=1 -3 3 4 5 -7 -8 -9
leaf_value=0.017227101750191178 0.019496402811259032 0.011477715323582806 0.0098165603866800649 0.014144634115920566 0.011803150422666676 0.0070668226166495252 0.0056011633521744182 0.021036210932901925
leaf_weight=31 20 29 24 34 41 35 21 21
leaf_count=31 20 29 24 34 41 35 21 21
internal_value=0 0.0166363 0.0112874 0.0100994 0.0110199 0.00962195 0.00784938 0.0202851
internal_weight=0 70 186 155 110 76 45 41
internal_count=256 70 186 155 110 76 45 41
is_linear=0
shrinkage=0.03


Tree=10
num_leaves=8
num_cat=0
split_feature=290 5 304 5 5 7 5
split_gain=2.70632 1.62146 1.11306 0.715108 0.408306 0.408473 0.135181
threshold=1.0000000180025095e-35 16.700000000000003 1.0000000180025095e-35 -12.229999999999999 -27.339999999999996 1.0000000180025095e-35 -1.0000000180025095e-35
decision_type=2 10 2 10 8 10 8
left_child=1 4 3 -2 -1 6 -6
right_child=2 -3 -4 -5 5 -7 -8
leaf_value=0.011823605434170791 0.016156920418143272 0.017282098168507218 0.012375596272177063 0.023737426400184631 0.007601294572680042 0.0048093626687589746 0.0098228798655153656
leaf_weight=35 24 24 32 21 39 26 67
leaf_count=35 24 24 32 21 39 26 67
internal_value=0 0.0099907 0.0166529 0.0196945 0.00894283 0.00817899 0.0090055
internal_weight=0 191 77 45 167 132 106
internal_count=268 191 77 45 167 132 106
is_linear=0
shrinkage=0.03


Tree=11
num_leaves=7
num_cat=0
split_feature=53 35 3 289 4 4
split_gain=1.68516 0.572165 0.50796 0.447064 0.556465 0.0287741
threshold=1.0000000180025095e-35 1.0000000180025095e-35 193.87500000000003 1.0000000180025095e-35 0.11600000000000001 0.11600000000000001
decision_type=2 2 10 2 10 10
left_child=1 -1 3 5 -5 -3
right_child=-2 2 -4 4 -6 -7
leaf_value=0.014200049179047346 0.016786736675145988 0.012216537427157163 0.012954465171787888 0.00593133192424747 0.0100589911243439 0.010626564496862036
leaf_weight=25 38 20 30 66 53 21
leaf_count=25 38 20 30 66 53 21
internal_value=0 0.00993357 0.00937219 0.00870052 0.0077697 0.0114022
internal_weight=0 215 190 160 119 41
internal_count=253 215 190 160 119 41
is_linear=0
shrinkage=0.03


Tree=12
num_leaves=9
num_cat=0
split_feature=5 2 302 3 4 7 4 436
split_gain=1.56453 0.626211 0.822682 0.844855 0.533546 0.235242 0.402443 0.232114
threshold=1.0000000180025095e-35 inf 1.0000000180025095e-35 85.295000000000016 0.17050000000000004 17.610000000000003 0.11600000000000001 1.0000000180025095e-35
decision_type=10 8 2 10 10 8 10 2
left_child=1 5 -3 -4 -2 -1 7 -7
right_child=4 2 3 -5 -6 6 -8 -9
leaf_value=0.006121575427427888 0.019408812810383414 0.01739541924186051 0.014270131690427661 0.0075736917116535967 0.013190873244570361 0.0094606429262942549 0.012124291942454873 0.0056724657025188207
leaf_weight=25 23 20 30 39 27 37 32 24
leaf_count=25 23 20 30 39 27 37 32 24
internal_value=0 0.0101381 0.012038 0.0104852 0.0160511 0.00870508 0.00939957 0.00797021
internal_weight=0 207 89 69 50 118 93 61
internal_count=257 207 89 69 50 118 93 61
is_linear=0
shrinkage=0.03


Tree=13
num_leaves=8
num_cat=0
split_feature=290 3 6 448 5 3 6
split_gain=2.57178 0.941211 0.340425 0.243123 0.349317 0.20512 0.229707
threshold=1.0000000180025095e-35 85.295000000000016 1.0000000180025095e-35 1.0000000180025095e-35 -27.339999999999996 109.85000000000001 58.675000000000004
decision_type=2 8 10 2 10 10 10
left_child=1 -1 -2 4 -3 -5 -7
right_child=2 3 -4 5 -6 6 -8
leaf_value=0.012587879059234789 0.012947526190691859 0.0034936001524329186 0.017224858580704997 0.0098841889833177748 0.0083144771459046762 0.0049970180323968333 0.0088752083001392215
leaf_weight=36 33 31 34 36 24 27 28
leaf_count=36 33 31 34 36 24 27 28
internal_value=0 0.00824324 0.0151181 0.00717195 0.00559726 0.00812369 0.00697137
internal_weight=0 182 67 146 55 91 55
internal_count=249 182 67 146 55 91 55
is_linear=0
shrinkage=0.03


Tree=14
num_leaves=9
num_cat=0
split_feature=290 304 4 439 3 1 3 6
split_gain=1.22114 1.1903 0.981485 0.234684 0.37189 0.321032 0.372268 0.0360323
threshold=1.0000000180025095e-35 1.0000000180025095e-35 0.11600000000000001 1.0000000180025095e-35 150.70000000000002 11.500000000000002 109.85000000000001 90.260000000000005
decision_type=2 2 8 2 8 8 10 8
left_child=2 7 -1 4 -4 -5 -7 -2
right_child=1 -3 3 5 -6 6 -8 -9
leaf_value=0.015410448757133315 0.0179399640688842 0.0090285521585287323 0.0050267417102253867 0.0069932681888874087 0.0097634052381349295 0.012732361815246155 0.0084957814905574202 0.01618056135851657
leaf_weight=21 22 27 35 35 26 35 40 20
leaf_count=21 22 27 35 35 26 35 40 20
internal_value=0 0.0139429 0.00928975 0.00853809 0.00704565 0.00936571 0.0104729 0.0171022
internal_weight=0 69 192 171 61 110 75 42
internal_count=261 69 192 171 61 110 75 42
is_linear=0
shrinkage=0.03


Tree=15
num_leaves=10
num_cat=0
split_feature=2 5 290 5 439 6 5 439 51
split_gain=0.884384 1.60947 1.39534 1.73202 0.618558 0.57775 0.613779 0.604047 0.0915811
threshold=1.0000000180025095e-35 16.700000000000003 1.0000000180025095e-35 -27.339999999999996 1.0000000180025095e-35 58.675000000000004 -12.229999999999999 1.0000000180025095e-35 1.0000000180025095e-35
decision_type=8 10 2 10 2 10 8 2 2
left_child=1 5 3 4 -2 7 -7 8 -1
right_child=2 -3 -4 -5 -6 6 -8 -9 -10
leaf_value=0.0047670393045991652 0.0097820405680686222 0.016396059712395071 0.019038354155740567 0.0045256765175947979 0.01668981151256178 0.0060323410124983635 0.013083307009935378 0.0085107136648651712 0.0019912953615067123
leaf_weight=20 20 20 21 29 28 20 25 37 23
leaf_count=20 20 20 21 29 28 20 25 37 23
internal_value=0 0.0084944 0.0121837 0.0103143 0.0138116 0.00723013 0.00994954 0.00570046 0.00328234
internal_weight=0 145 98 77 48 125 45 80 43
internal_count=243 145 98 77 48 125 45 80 43
is_linear=0
shrinkage=0.03


Tree=16
num_leaves=9
num_cat=0
split_feature=289 439 16 3 16 436 3 0
split_gain=0.657642 0.847418 1.5026 1.40297 1.23544 0.631122 0.25041 0.242596
threshold=1.0000000180025095e-35 1.0000000180025095e-35 1.0000000180025095e-35 109.85000000000001 1.0000000180025095e-35 1.0000000180025095e-35 150.70000000000002 1.0000000180025095e-35
decision_type=2 2 2 8 2 2 8 8
left_child=5 4 7 -4 -2 6 -1 -3
right_child=1 2 3 -5 -6 -7 -8 -9
leaf_value=0.0079287615194916731 0.010544233252408696 0.003912505584091625 0.019440410480919209 0.0093937677753575394 0.0021918678172919868 0.015263470751715117 0.011595238082012847 0.00842042472745691
leaf_weight=30 28 22 22 29 37 29 38 21
leaf_count=30 28 22 22 29 37 29 38 21
internal_value=0 0.00842358 0.0102448 0.0137276 0.00578981 0.011558 0.00997767 0.00611405
internal_weight=0 159 94 51 65 97 68 43
internal_count=256 159 94 51 65 97 68 43
is_linear=0
shrinkage=0.03


Tree=17
num_leaves=9
num_cat=0
split_feature=18 4 525 439 289 525 3 3
split_gain=1.22053 1.06232 1.49073 1.6909 0.394707 0.288222 0.213958 0.139448
threshold=1.0000000180025095e-35 0.27250000000000008 1.0000000180025095e-35 1.0000000180025095e-35 1.0000000180025095e-35 1.0000000180025095e-35 109.85000000000001 193.87500000000003
decision_type=2 8 2 2 2 2 10 8
left_child=1 2 6 -4 5 -3 -1 -6
right_child=-2 4 3 -5 7 -7 -8 -9
leaf_value=0.010064132881483862 0.015093201105948537 0.011205410533875693 0.0092133924674375773 0.021252264218471411 0.0041199266649537564 0.0065560356481000779 0.0061905276809226381 0.006744521291826718
leaf_weight=21 30 24 21 21 38 24 33 35
leaf_count=21 30 24 21 21 38 24 33 35
internal_value=0 0.00863734 0.0109939 0.0152328 0.00676769 0.00888072 0.00769693 0.00537829
internal_weight=0 217 96 42 121 48 54 73
internal_count=247 217 96 42 121 48 54 73
is_linear=0
shrinkage=0.03


Tree=18
num_leaves=11
num_cat=0
split_feature=290 439 6 18 439 16 4 1 6 4
split_gain=1.79309 0.851869 0.552221 0.37116 0.530495 0.4028 0.507709 0.475003 0.357015 0.0130723
threshold=1.0000000180025095e-35 1.0000000180025095e-35 1.0000000180025095e-35 1.0000000180025095e-35 1.0000000180025095e-35 1.0000000180025095e-35 0.27250000000000008 98.500000000000014 1.0000000180025095e-35 1.0000000180025095e-35
decision_type=2 2 10 2 2 2 8 8 10 10
left_child=3 -2 -3 4 8 7 -7 -6 9 -1
right_child=1 2 -4 -5 5 6 -8 -9 -10 -11
leaf_value=0.0059682959384684047 0.016702128852378914 0.0068085447592394687 0.013537236791428016 0.01102691482650116 0.0028687993213534356 0.013684482496570458 0.0078356153778183987 0.0090183977120054451 0.0016020363466814158 0.00703997343359515
leaf_weight=21 33 21 23 25 20 22 34 26 20 20
leaf_count=21 33 21 23 25 20 22 34 26 20 20
internal_value=0 0.0130585 0.0103258 0.00762325 0.00710122 0.00842474 0.0101334 0.00634466 0.00488811 0.00649107
internal_weight=0 77 44 188 163 102 56 46 61 41
internal_count=265 77 44 188 163 102 56 46 61 41
is_linear=0
shrinkage=0.03


Tree=19
num_leaves=9
num_cat=0
split_feature=4 525 439 2 6 289 439 3
split_gain=0.996523 0.807957 0.803488 0.786066 0.659894 0.302245 0.321211 0.127159
threshold=0.27250000000000008 1.0000000180025095e-35 1.0000000180025095e-35 inf 80.38000000000001 1.0000000180025095e-35 1.0000000180025095e-35 193.87500000000003
decision_type=8 2 2 8 10 2 2 8
left_child=4 3 -3 7 5 -1 -7 -2
right_child=1 2 -4 -5 -6 6 -8 -9
leaf_value=0.011514573357999323 0.0079371026717126366 0.00049276087743540598 0.0073807238510676795 0.012890276605712956 0.014828003783606819 0.005319601179141065 0.010232104850560426 0.0049327696574619035
leaf_weight=36 32 27 35 29 27 23 25 21
leaf_count=36 32 27 35 29 27 23 25 21
internal_value=0 0.00696544 0.00438113 0.00891943 0.0107481 0.00943664 0.0078782 0.00674671
internal_weight=0 144 62 82 111 84 48 53
internal_count=255 144 62 82 111 84 48 53
is_linear=0
shrinkage=0.03


Tree=20
num_leaves=8
num_cat=0
split_feature=290 439 439 3 448 525 3
split_gain=1.27666 1.17203 1.10466 0.56252 0.242531 0.17681 0.149914
threshold=1.0000000180025095e-35 1.0000000180025095e-35 1.0000000180025095e-35 85.295000000000016 1.0000000180025095e-35 1.0000000180025095e-35 150.70000000000002
decision_type=2 2 2 10 2 2 10
left_child=2 -2 4 -4 -1 -6 -5
right_child=1 -3 3 6 5 -7 -8
leaf_value=0.0017160372699145227 0.016216696176852563 0.0083762823050287927 0.012235077690660349 0.0060972416273228107 0.0069548501971396894 0.0036684208927461161 0.0089433254006629197
leaf_weight=20 32 37 37 31 34 26 36
leaf_count=20 32 37 37 31 34 26 36
internal_value=0 0.0120124 0.00722737 0.00926608 0.00457706 0.00553073 0.00762648
internal_weight=0 69 184 104 80 60 67
internal_count=253 69 184 104 80 60 67
is_linear=0
shrinkage=0.03


Tree=21
num_leaves=9
num_cat=0
split_feature=5 289 3 6 1 5 16 3
split_gain=1.11688 0.645421 0.665646 0.386891 0.426672 0.194951 0.101564 0.00198721
threshold=1.0000000180025095e-35 1.0000000180025095e-35 85.295000000000016 1.0000000180025095e-35 98.500000000000014 -27.339999999999996 1.0000000180025095e-35 150.70000000000002
decision_type=10 2 10 10 8 10 2 8
left_child=1 3 6 4 -1 -4 -3 -2
right_child=7 2 5 -5 -6 -7 -8 -9
leaf_value=0.011258617815716207 0.012839269641794089 0.010063749137851928 0.0057939508077106431 0.011774020232260228 0.0056728878406283913 0.0026860065873274032 0.0074101211071014401 0.013262174630159279
leaf_weight=20 20 27 39 39 32 34 25 20
leaf_count=20 20 27 39 39 32 34 25 20
internal_value=0 0.00759331 0.0061941 0.00951529 0.00782125 0.00434642 0.00878797 0.0130507
internal_weight=0 216 125 91 52 73 52 40
internal_count=256 216 125 91 52 73 52 40
is_linear=0
shrinkage=0.03


Tree=22
num_leaves=10
num_cat=0
split_feature=3 289 436 3 6 2 0 4 525
split_gain=0.792171 1.43003 1.10958 0.4592 0.423812 0.350839 0.306198 0.20018 0.0593154
threshold=85.295000000000016 1.0000000180025095e-35 1.0000000180025095e-35 150.70000000000002 71.180000000000021 1.0000000180025095e-35 1.0000000180025095e-35 1.0000000180025095e-35 1.0000000180025095e-35
decision_type=8 2 2 8 10 8 8 10 2
left_child=7 2 5 4 -3 -2 8 -1 -5
right_child=1 3 -4 6 -6 -7 -8 -9 -10
leaf_value=0.0098242209576394242 0.0062180606982755382 0.0010432086416102689 0.015613946725303926 0.0049904975225217637 0.0062176952053726248 0.01087775445301444 0.0098603123635053625 0.013740838024532421 0.0069545282766222951
leaf_weight=23 33 29 27 31 28 26 25 24 25
leaf_count=23 33 29 27 31 28 26 25 24 25
internal_value=0 0.00754026 0.0105767 0.00564801 0.00358506 0.00827149 0.00709971 0.0118242 0.0058673
internal_weight=0 224 86 138 57 59 81 47 56
internal_count=271 224 86 138 57 59 81 47 56
is_linear=0
shrinkage=0.03


Tree=23
num_leaves=10
num_cat=0
split_feature=290 304 5 4 0 3 3 3 4
split_gain=1.44901 1.02225 0.726194 0.578038 0.707891 0.851907 0.120953 0.0702219 0.00496939
threshold=1.0000000180025095e-35 1.0000000180025095e-35 16.700000000000003 0.17050000000000004 1.0000000180025095e-35 85.295000000000016 1.0000000180025095e-35 150.70000000000002 0.11600000000000001
decision_type=2 2 10 10 8 10 10 10 10
left_child=2 8 3 4 6 -6 -1 -5 -2
right_child=1 -3 -4 7 5 -7 -8 -9 -10
leaf_value=0.0010290246067399327 0.014790258288214153 0.0069100451526733541 0.011840080939193285 0.0097735104593448339 0.011843804650178008 0.0032888887133449315 0.0036826090407199581 0.0073980465933813572 0.014136870665475726
leaf_weight=22 22 26 20 24 22 20 52 21 20
leaf_count=22 22 26 20 24 22 20 52 21 20
internal_value=0 0.0115851 0.00644862 0.00577888 0.00465927 0.00777004 0.00289371 0.00866496 0.0144791
internal_weight=0 68 181 161 116 42 74 45 42
internal_count=249 68 181 161 116 42 74 45 42
is_linear=0
shrinkage=0.03


Tree=24
num_leaves=7
num_cat=0
split_feature=6 35 53 2 6 1
split_gain=0.816143 0.743198 0.924064 0.380823 0.171479 0.231986
threshold=80.38000000000001 1.0000000180025095e-35 1.0000000180025095e-35 inf 71.180000000000021 inf
decision_type=10 2 2 8 8 8
left_child=1 -1 4 -2 -3 -6
right_child=3 2 -4 -5 5 -7
leaf_value=0.012629703110083938 0.0092064668336284475 0.007515125413808753 0.011288074407606355 0.014626594090950676 0.0030801739062493046 0.0059342197248230819
leaf_weight=20 28 34 31 20 36 89
leaf_count=20 28 34 31 20 36 89
internal_value=0 0.00712891 0.00654988 0.0114649 0.00562608 0.00511225
internal_weight=0 210 190 48 159 125
internal_count=258 210 190 48 159 125
is_linear=0
shrinkage=0.03


Tree=25
num_leaves=9
num_cat=0
split_feature=4 5 4 51 3 3 5 2
split_gain=0.695028 0.592193 0.712082 0.386698 0.369324 0.124269 0.29437 0.168585
threshold=0.11600000000000001 -12.229999999999999 0.21800000000000003 1.0000000180025095e-35 150.70000000000002 193.87500000000003 -12.229999999999999 1.0000000180025095e-35
decision_type=8 10 10 2 10 8 8 8
left_child=-1 3 4 -2 -3 6 -5 -7
right_child=1 2 -4 5 -6 7 -8 -9
leaf_value=0.011736983383598271 0.0085808175802230824 0.013793339847157207 0.0053407140738480456 0.0057681787106056885 0.0086325285537168367 0.008162632438799609 0.0016208781115710736 0.0047727638068458733
leaf_weight=32 39 26 28 43 24 23 24 31
leaf_count=32 39 26 28 43 24 23 24 31
internal_value=0 0.00702785 0.00917112 0.00598301 0.0113162 0.00514569 0.00428258 0.0062166
internal_weight=0 238 78 160 50 121 67 54
internal_count=270 238 78 160 50 121 67 54
is_linear=0
shrinkage=0.03


Tree=26
num_leaves=9
num_cat=0
split_feature=18 439 290 16 6 2 6 4
split_gain=0.964492 0.569948 0.910414 0.721962 1.00462 0.960724 0.352802 0.111395
threshold=1.0000000180025095e-35 1.0000000180025095e-35 1.0000000180025095e-35 1.0000000180025095e-35 90.260000000000005 inf 58.675000000000004 0.21800000000000003
decision_type=2 2 2 2 8 8 10 8
left_child=1 2 7 4 -3 6 -5 -1
right_child=-2 3 -4 5 -6 -7 -8 -9
leaf_value=0.0041446682391688226 0.011805952001013793 0.0097654666698404717 0.0090068478633960093 0.0095339691850902693 0.0012101222309283913 0.014635181560773741 0.0047685613620948664 0.001498479988062527
leaf_weight=22 32 21 27 29 30 22 27 41
leaf_count=22 32 21 27 29 30 22 27 41
internal_value=0 0.00623011 0.00439784 0.00750844 0.00473291 0.00932321 0.00723636 0.00242255
internal_weight=0 219 90 129 51 78 56 63
internal_count=251 219 90 129 51 78 56 63
is_linear=0
shrinkage=0.03


Tree=27
num_leaves=8
num_cat=0
split_feature=5 4 290 5 0 6 16
split_gain=1.09755 1.56826 0.607362 0.803388 0.548909 0.301788 0.225627
threshold=1.0000000180025095e-35 0.17050000000000004 1.0000000180025095e-35 -27.339999999999996 1.0000000180025095e-35 71.180000000000021 1.0000000180025095e-35
decision_type=10 10 2 8 10 10 2
left_child=2 -2 3 -1 -4 6 -5
right_child=1 -3 4 5 -6 -7 -8
leaf_value=0.0084383056282198842 0.016920611654408276 0.0058369651436805722 0.01016627409423773 0.0059312403676296142 0.0044717273036018008 0.00087622751084649383 0.0027754656758836723
leaf_weight=35 20 27 39 38 25 34 44
leaf_count=35 20 27 39 38 25 34 44
internal_value=0 0.0105534 0.00549264 0.00445457 0.00794184 0.00325258 0.0042379
internal_weight=0 47 215 151 64 116 82
internal_count=262 47 215 151 64 116 82
is_linear=0
shrinkage=0.03


Tree=28
num_leaves=8
num_cat=0
split_feature=290 5 16 386 5 6 5
split_gain=1.58998 0.855557 0.848088 0.787125 0.636359 0.248836 0.167731
threshold=1.0000000180025095e-35 16.700000000000003 1.0000000180025095e-35 1.0000000180025095e-35 -27.339999999999996 80.38000000000001 -1.0000000180025095e-35
decision_type=2 10 2 2 8 10 8
left_child=1 4 -2 -4 -1 6 -6
right_child=2 -3 3 -5 5 -7 -8
leaf_value=0.0086794273795620085 0.015074261723516077 0.011396048884838819 0.0055900948217392638 0.013019831856446607 0.0028635623747188792 0.00090580356373850786 0.0053331258666290066
leaf_weight=31 26 20 33 21 38 21 71
leaf_count=31 26 20 33 21 38 21 71
internal_value=0 0.00554405 0.0106228 0.00847944 0.00481709 0.00389607 0.00447218
internal_weight=0 181 80 54 161 130 109
internal_count=261 181 80 54 161 130 109
is_linear=0
shrinkage=0.03


Tree=29
num_leaves=9
num_cat=0
split_feature=53 35 439 3 3 525 3 5
split_gain=0.916126 1.24767 2.20788 0.888097 0.538253 0.407832 0.0818812 0.0625867
threshold=1.0000000180025095e-35 1.0000000180025095e-35 1.0000000180025095e-35 109.85000000000001 193.87500000000003 1.0000000180025095e-35 109.85000000000001 -1.0000000180025095e-35
decision_type=2 2 2 8 10 2 8 8
left_child=1 -1 6 5 -5 -4 -3 -2
right_child=7 2 3 4 -6 -7 -8 -9
leaf_value=0.012057209118668522 0.0099013433349318791 -0.00042085757326836194 0.0082061892303172488 0.0044531088709052593 0.01012433732044883 0.014192086005849498 0.0017312909058499627 0.012274696986190974
leaf_weight=28 20 26 20 61 20 21 41 20
leaf_count=28 20 26 20 61 20 21 41 20
internal_value=0 0.00614713 0.00527156 0.00767446 0.00585341 0.0112721 0.000896129 0.011088
internal_weight=0 217 189 122 81 41 67 40
internal_count=257 217 189 122 81 41 67 40
is_linear=0
shrinkage=0.03


Tree=30
num_leaves=9
num_cat=0
split_feature=290 16 4 286 3 525 2 4
split_gain=1.12017 0.8603 0.625259 0.214522 0.250551 0.245866 0.213702 0.171002
threshold=1.0000000180025095e-35 1.0000000180025095e-35 0.11600000000000001 1.0000000180025095e-35 150.70000000000002 1.0000000180025095e-35 1.0000000180025095e-35 0.27250000000000008
decision_type=2 2 8 2 8 2 8 8
left_child=2 -2 -1 4 5 -4 -6 -3
right_child=1 7 3 -5 6 -7 -8 -9
leaf_value=0.009819426528199322 0.013686829396627015 0.0086920766026014461 0.0042508697119192224 0.007357120273634791 0.0065219892780094034 0.00062288154751576226 0.0033582287285984914 0.005030365147712555
leaf_weight=22 27 24 40 20 46 29 33 22
leaf_count=22 27 24 40 20 46 29 33 22
internal_value=0 0.00943592 0.00506369 0.00444092 0.00404683 0.00272606 0.00520042 0.00694082
internal_weight=0 73 190 168 148 69 79 46
internal_count=263 73 190 168 148 69 79 46
is_linear=0
shrinkage=0.03


Tree=31
num_leaves=10
num_cat=0
split_feature=5 448 2 5 304 289 289 289 5
split_gain=1.23667 0.772384 1.23817 1.07545 0.588072 1.49403 0.311535 0.266429 0.0726365
threshold=1.0000000180025095e-35 1.0000000180025095e-35 1.0000000180025095e-35 -27.339999999999996 1.0000000180025095e-35 1.0000000180025095e-35 1.0000000180025095e-35 1.0000000180025095e-35 -1.0000000180025095e-35
decision_type=10 2 8 8 2 2 2 2 8
left_child=1 8 4 -4 5 -3 -5 -2 -1
right_child=7 2 3 6 -6 -7 -8 -9 -10
leaf_value=0.0004097908605427409 0.012797366626560688 0.011059770395804662 0.014699894026620313 0.009103815130656584 -0.00058506267712168068 0.0019538005644455553 0.0045181193985044952 0.0083561542317751921 0.0028145746467635032
leaf_weight=26 20 24 20 24 23 50 30 31 20
leaf_count=26 20 24 20 24 23 50 30 31 20
internal_value=0 0.00490621 0.00583451 0.0087572 0.00360483 0.00490709 0.00655621 0.0100978 0.00145535
internal_weight=0 217 171 74 97 74 54 51 46
internal_count=268 217 171 74 97 74 54 51 46
is_linear=0
shrinkage=0.03


Tree=32
num_leaves=9
num_cat=0
split_feature=289 304 16 4 1 6 525 2
split_gain=0.829616 1.27935 0.959563 0.51139 0.169261 0.161674 0.13028 0.0313346
threshold=1.0000000180025095e-35 1.0000000180025095e-35 1.0000000180025095e-35 0.17050000000000004 98.500000000000014 80.38000000000001 1.0000000180025095e-35 1.0000000180025095e-35
decision_type=2 2 2 8 8 8 2 8
left_child=1 2 -1 -2 -5 -6 -4 -7
right_child=3 -3 6 4 5 7 -8 -9
leaf_value=0.015900574948755093 0.0082444360811496156 0.0036217654597781156 0.010015327972825616 0.002224627732956183 0.0025667374255135653 0.0048695563632798824 0.0067369032790884371 0.0061789800412952898
leaf_weight=22 32 34 20 35 24 38 24 29
leaf_count=22 32 34 20 35 24 38 24 29
internal_value=0 0.00834945 0.0107849 0.00485772 0.0039976 0.00467951 0.0082271 0.00543632
internal_weight=0 100 66 158 126 91 44 67
internal_count=258 100 66 158 126 91 44 67
is_linear=0
shrinkage=0.03


Tree=33
num_leaves=8
num_cat=0
split_feature=5 3 5 53 35 5 6
split_gain=1.27309 0.409096 1.08363 0.273485 0.316277 0.343505 0.127353
threshold=1.0000000180025095e-35 85.295000000000016 -1.0000000180025095e-35 1.0000000180025095e-35 1.0000000180025095e-35 -12.229999999999999 58.675000000000004
decision_type=10 8 8 2 2 10 10
left_child=1 2 -1 4 -3 -6 -2
right_child=6 3 -4 -5 5 -7 -8
leaf_value=0.012439249493181705 0.012238440992576734 0.0073744402275478932 0.0026819658894091845 0.0069862828310579064 0.0040753594886175255 0.00023438209567057828 0.0090071297274983437
leaf_weight=21 21 20 20 30 108 26 23
leaf_count=21 21 20 20 30 108 26 23
internal_value=0 0.00496966 0.0076796 0.00436582 0.00385533 0.0033301 0.0105493
internal_weight=0 225 41 184 154 134 44
internal_count=269 225 41 184 154 134 44
is_linear=0
shrinkage=0.03


Tree=34
num_leaves=8
num_cat=0
split_feature=5 2 1 53 4 6 1
split_gain=1.38704 0.622425 0.892923 0.689708 0.560778 0.24236 0.189724
threshold=16.700000000000003 inf 98.500000000000014 1.0000000180025095e-35 0.11600000000000001 71.180000000000021 inf
decision_type=10 8 8 2 10 8 8
left_child=1 3 -3 5 -4 -1 -7
right_child=-2 2 4 -5 -6 6 -8
leaf_value=0.0063248555122409015 0.013528935799132223 0.0029790517244407018 0.012599690318202192 0.0089118698051398881 0.0065333016589283937 0.0009805374704943649 0.0038786504744990342
leaf_weight=25 23 23 32 28 24 29 68
leaf_count=25 23 23 32 28 24 29 68
internal_value=0 0.00580063 0.00795579 0.00466558 0.00999981 0.00369103 0.0030122
internal_weight=0 229 79 150 56 122 97
internal_count=252 229 79 150 56 122 97
is_linear=0
shrinkage=0.03


Tree=35
num_leaves=8
num_cat=0
split_feature=8 4 290 439 16 16 3
split_gain=0.361466 0.596418 0.330974 0.362645 0.947527 0.667926 0.157122
threshold=inf 0.11600000000000001 1.0000000180025095e-35 1.0000000180025095e-35 1.0000000180025095e-35 1.0000000180025095e-35 109.85000000000001
decision_type=8 8 2 2 2 2 10
left_child=-1 -2 3 4 -3 -5 -4
right_child=1 2 6 5 -6 -7 -8
leaf_value=0.0015122039387510579 0.0098212992319335717 0.0072650350050793748 0.0091007313553497868 0.0030878342327196151 0.00018529008152773198 0.0080669558648856325 0.0055907770805060861
leaf_weight=22 26 27 22 48 46 49 24
leaf_count=22 26 27 22 48 46 49 24
internal_value=0 0.00552861 0.0050119 0.00440104 0.00280383 0.00560306 0.00726945
internal_weight=0 242 216 170 73 97 46
internal_count=264 242 216 170 73 97 46
is_linear=0
shrinkage=0.03


Tree=36
num_leaves=8
num_cat=0
split_feature=289 6 439 6 5 3 3
split_gain=0.52022 0.678274 0.393106 0.575677 0.526611 0.354837 0.28168
threshold=1.0000000180025095e-35 58.675000000000004 1.0000000180025095e-35 80.38000000000001 16.700000000000003 150.70000000000002 150.70000000000002
decision_type=2 10 2 10 8 10 8
left_child=1 5 6 4 -4 -1 -2
right_child=2 -3 3 -5 -6 -7 -8
leaf_value=0.0065732764835868566 -8.9198045817942453e-05 0.010095206953804283 0.001298796766236223 0.0092717379121028867 0.0063268978831260217 0.0016405585554561445 0.0038596615749033722
leaf_weight=35 29 34 37 23 38 21 37
leaf_count=35 29 34 37 23 38 21 37
internal_value=0 0.00675282 0.00391432 0.00511967 0.00384637 0.00472351 0.00212456
internal_weight=0 90 164 98 75 56 66
internal_count=254 90 164 98 75 56 66
is_linear=0
shrinkage=0.03


Tree=37
num_leaves=10
num_cat=0
split_feature=289 3 1 6 16 525 439 0 0
split_gain=1.25073 0.573188 0.262697 0.674171 0.263199 0.551514 0.37857 0.24181 0.0728537
threshold=1.0000000180025095e-35 150.70000000000002 1.0000000180025095e-35 80.38000000000001 1.0000000180025095e-35 1.0000000180025095e-35 1.0000000180025095e-35 1.0000000180025095e-35 1.0000000180025095e-35
decision_type=2 8 8 10 2 2 2 8 10
left_child=1 8 -2 4 5 -4 -6 -3 -1
right_child=2 7 3 -5 6 -7 -8 -9 -10
leaf_value=0.0096082828938961022 0.0067456009747603757 0.0076877696490696354 0.0064616902987472708 0.0077153919952818086 -0.0011552312748972326 0.00037134631091485852 0.0037718167075887318 0.003456721007823944 0.01197896616719663
leaf_weight=28 26 31 32 27 32 23 25 20 20
leaf_count=28 26 31 32 27 32 23 25 20 20
internal_value=0 0.0082431 0.00397784 0.00346013 0.00243431 0.00391482 0.00100575 0.00602853 0.0105961
internal_weight=0 99 165 139 112 55 57 51 48
internal_count=264 99 165 139 112 55 57 51 48
is_linear=0
shrinkage=0.03


Tree=38
num_leaves=8
num_cat=0
split_feature=3 6 53 4 3 0 6
split_gain=1.00329 0.928113 0.41547 0.350677 0.166485 0.28751 0.207113
threshold=109.85000000000001 90.260000000000005 1.0000000180025095e-35 0.17050000000000004 150.70000000000002 1.0000000180025095e-35 90.260000000000005
decision_type=8 8 2 10 8 8 8
left_child=1 -1 4 -3 -2 6 -6
right_child=2 3 -4 -5 5 -7 -8
leaf_value=0.011613611538301814 0.0012443997140009222 0.003494502957134197 0.0069803508486727187 0.0083726076435829914 -4.4952269643545149e-05 0.00586292247527412 0.0035288335600246984
leaf_weight=33 35 36 29 21 20 35 54
leaf_count=33 35 36 29 21 20 35 54
internal_value=0 0.00760973 0.0037043 0.0052917 0.00304454 0.00362257 0.00256295
internal_weight=0 90 173 57 144 109 74
internal_count=263 90 173 57 144 109 74
is_linear=0
shrinkage=0.03


Tree=39
num_leaves=10
num_cat=0
split_feature=5 290 1 6 5 6 14 439 5
split_gain=0.846498 0.608959 0.33272 0.308464 0.0642997 0.126934 0.039609 0.119575 0.0302524
threshold=16.700000000000003 1.0000000180025095e-35 98.500000000000014 58.675000000000004 -1.0000000180025095e-35 80.38000000000001 1.0000000180025095e-35 1.0000000180025095e-35 -27.339999999999996
decision_type=10 2 8 10 8 8 2 2 10
left_child=1 4 -3 -4 5 -1 7 -6 -7
right_child=-2 2 3 -5 6 8 -8 -9 -10
leaf_value=0.0014694807266816495 0.0095868342067114993 0.0086618821143817446 0.0017525973862835339 0.0067815390812314075 0.00084644064074382178 0.0032204061473852822 0.00093814856737204212 0.0036874464219436047 0.0047155302940418238
leaf_weight=25 24 26 21 23 24 21 23 30 29
leaf_count=25 24 26 21 23 24 21 23 30 29
internal_value=0 0.00365595 0.00597127 0.00438136 0.00258968 0.00321488 0.00198072 0.00242478 0.00408758
internal_weight=0 222 70 44 152 75 77 54 50
internal_count=246 222 70 44 152 75 77 54 50
is_linear=0
shrinkage=0.03


Tree=40
num_leaves=9
num_cat=0
split_feature=290 2 304 2 3 439 6 6
split_gain=0.87475 0.668098 0.626224 0.446698 0.502936 0.223573 0.214314 0.163075
threshold=1.0000000180025095e-35 inf 1.0000000180025095e-35 inf 150.70000000000002 1.0000000180025095e-35 58.675000000000004 1.0000000180025095e-35
decision_type=2 8 2 8 8 2 10 10
left_child=3 2 -2 4 5 -1 -6 -5
right_child=1 -3 -4 7 6 -7 -8 -9
leaf_value=0.00051793239207472645 0.0080975821674801399 0.011313571720991445 0.0015960344113409518 0.0024613994202975715 0.0049144523820051772 0.0040962918703867628 0.0086735246969120838 -0.0006752001243428542
leaf_weight=30 30 23 24 35 39 33 21 26
leaf_count=30 30 23 24 35 39 33 21 26
internal_value=0 0.00703175 0.00520801 0.00322346 0.00426442 0.00239231 0.00623013 0.00112449
internal_weight=0 77 54 184 123 63 60 61
internal_count=261 77 54 184 123 63 60 61
is_linear=0
shrinkage=0.03


Tree=41
num_leaves=8
num_cat=0
split_feature=6 18 6 290 439 16 6
split_gain=0.573954 0.572553 0.434632 0.309791 0.114594 0.417502 0.11016
threshold=80.38000000000001 1.0000000180025095e-35 90.260000000000005 1.0000000180025095e-35 1.0000000180025095e-35 1.0000000180025095e-35 71.180000000000021
decision_type=10 2 10 2 2 2 8
left_child=1 3 -2 4 -1 -6 -5
right_child=2 -3 -4 6 5 -7 -8
leaf_value=0.00091845029096861001 0.0094369033188111372 0.0078754060928310655 0.0038383626502763949 0.0063215881053890503 0.00043910860598911171 0.004774926663234421 0.0034885796578601001
leaf_weight=59 26 21 24 21 39 41 30
leaf_count=59 26 21 24 21 39 41 30
internal_value=0 0.00317479 0.0067496 0.00265524 0.00192148 0.00266122 0.00465511
internal_weight=0 211 50 190 139 80 51
internal_count=261 211 50 190 139 80 51
is_linear=0
shrinkage=0.03


Tree=42
num_leaves=10
num_cat=0
split_feature=448 4 3 439 290 6 51 4 6
split_gain=0.922898 0.797259 0.95026 0.732915 0.643813 0.589141 0.467689 0.0974757 0.00656317
threshold=1.0000000180025095e-35 0.21800000000000003 109.85000000000001 1.0000000180025095e-35 1.0000000180025095e-35 71.180000000000021 1.0000000180025095e-35 0.21800000000000003 1.0000000180025095e-35
decision_type=2 8 10 2 2 8 2 10 10
left_child=3 2 -2 -1 -4 -3 -7 -8 -5
right_child=1 5 4 8 -6 6 7 -9 -10
leaf_value=-0.0028192333009263333 0.013032101046480237 0.0086415927630403757 0.0020788264896889979 0.0043387639522552484 0.0093366220187057151 0.0065832926239818334 0.0027037288583815098 0.00022563126264140009 0.0035794082488864662
leaf_weight=22 25 23 22 21 22 28 50 20 20
leaf_count=22 25 23 22 21 22 28 50 20 20
internal_value=0 0.00578805 0.00836148 0.00159808 0.00570772 0.00432056 0.00330644 0.0019957 0.00396835
internal_weight=0 190 69 63 44 121 98 70 41
internal_count=253 190 69 63 44 121 98 70 41
is_linear=0
shrinkage=0.03


Tree=43
num_leaves=9
num_cat=0
split_feature=290 6 4 525 525 6 304 448
split_gain=0.66763 0.353151 0.298917 0.606323 0.539764 0.434813 0.218087 0.00311493
threshold=1.0000000180025095e-35 58.675000000000004 0.27250000000000008 1.0000000180025095e-35 1.0000000180025095e-35 58.675000000000004 1.0000000180025095e-35 1.0000000180025095e-35
decision_type=2 10 8 2 2 10 2 2
left_child=2 6 4 -4 5 -1 -2 -5
right_child=1 -3 3 7 -6 -7 -8 -9
leaf_value=0.00013627972863614559 0.0072568865865468976 0.0097503648346289988 0.0045946341990825848 0.0003467022837139666 0.0080324948597699387 0.0056774409688436066 0.0030706189619377254 -0.00011905826096023831
leaf_weight=25 24 25 56 24 30 26 21 28
leaf_count=25 24 25 56 24 30 26 21 28
internal_value=0 0.00689153 0.00346181 0.00242858 0.00483945 0.00296119 0.0053033 9.59081e-05
internal_weight=0 70 189 108 81 51 45 52
internal_count=259 70 189 108 81 51 45 52
is_linear=0
shrinkage=0.03


Tree=44
num_leaves=8
num_cat=0
split_feature=448 6 4 53 1 2 4
split_gain=0.646762 0.560945 1.17781 0.643049 0.553611 0.196283 0.173313
threshold=1.0000000180025095e-35 90.260000000000005 0.17050000000000004 1.0000000180025095e-35 98.500000000000014 inf 0.27250000000000008
decision_type=2 8 10 2 8 8 8
left_child=6 2 -2 4 -3 -6 -1
right_child=1 3 -4 -5 5 -7 -8
leaf_value=0.0036324660397473382 0.011197051427272313 -0.00017117267319311698 0.0034622607957508814 0.0085796867789966723 0.0030139311860936384 0.0063629890372976661 0.00030235517393940913
leaf_weight=22 34 36 37 21 36 28 39
leaf_count=22 34 36 37 21 36 28 39
internal_value=0 0.00504937 0.00716625 0.00380724 0.00280503 0.00447914 0.00150338
internal_weight=0 192 71 121 100 64 61
internal_count=253 192 71 121 100 64 61
is_linear=0
shrinkage=0.03


Tree=45
num_leaves=9
num_cat=0
split_feature=289 436 3 304 3 3 4 3
split_gain=0.550237 0.637428 0.907726 0.431863 0.639668 0.252898 0.347309 0.028186
threshold=1.0000000180025095e-35 1.0000000180025095e-35 85.295000000000016 1.0000000180025095e-35 109.85000000000001 193.87500000000003 0.11600000000000001 150.70000000000002
decision_type=2 2 8 2 8 10 10 10
left_child=3 2 -2 4 -1 6 -4 -6
right_child=1 -3 5 -5 7 -7 -8 -9
leaf_value=0.011027982498386076 0.0088991868082919836 -0.0010157665187337747 -0.00039726643170025656 0.0026004142865228156 0.0055010032296180719 0.0052448890996830803 0.0035075673229833381 0.0040764370858669277
leaf_weight=21 23 36 41 36 25 21 41 25
leaf_count=21 23 36 41 36 25 21 41 25
internal_value=0 0.00250481 0.00351068 0.005277 0.00663414 0.00230743 0.00155515 0.00478872
internal_weight=0 162 126 107 71 103 82 50
internal_count=269 162 126 107 71 103 82 50
is_linear=0
shrinkage=0.03


Tree=46
num_leaves=9
num_cat=0
split_feature=18 439 290 16 2 0 1 4
split_gain=0.637706 0.44569 1.12527 0.665554 1.22703 0.320237 0.217546 0.10072
threshold=1.0000000180025095e-35 1.0000000180025095e-35 1.0000000180025095e-35 1.0000000180025095e-35 inf 1.0000000180025095e-35 1.0000000180025095e-35 0.27250000000000008
decision_type=2 2 2 2 8 8 8 8
left_child=1 2 7 5 6 -3 -5 -1
right_child=-2 3 -4 4 -6 -7 -8 -9
leaf_value=0.0011407415265217422 0.0080355492072375183 -0.00067683810530149411 0.0072955482080578806 0.0055054233459612498 0.011493265434271758 0.0039065963915302692 0.0015859733909368513 -0.0013110750805782644
leaf_weight=25 31 23 24 26 27 34 25 38
leaf_count=25 31 23 24 26 27 34 25 38
internal_value=0 0.00344215 0.00176771 0.00452123 0.0063219 0.00205714 0.00358412 -0.000338132
internal_weight=0 222 87 135 78 57 51 63
internal_count=253 222 87 135 78 57 51 63
is_linear=0
shrinkage=0.03


Tree=47
num_leaves=9
num_cat=0
split_feature=448 6 4 4 51 4 1 6
split_gain=1.09199 0.602797 0.735049 0.388938 0.357318 0.285266 0.255562 0.209075
threshold=1.0000000180025095e-35 90.260000000000005 0.11600000000000001 0.17050000000000004 1.0000000180025095e-35 1.0000000180025095e-35 98.500000000000014 71.180000000000021
decision_type=2 8 10 8 2 10 8 10
left_child=5 2 -2 -3 -5 -1 -6 -4
right_child=1 3 7 4 6 -7 -8 -9
leaf_value=-0.0014757724171504379 0.011553175019100309 0.00068215638721505034 0.0068589592654386472 0.0074090240173973138 0.00071476369444280869 0.002696887377713775 0.0047904884967332082 0.0028718631290830673
leaf_weight=30 25 26 29 32 20 29 45 20
leaf_count=30 25 26 29 32 20 29 45 20
internal_value=0 0.00522776 0.00736725 0.00394059 0.00481398 0.000575196 0.00353642 0.00523157
internal_weight=0 197 74 123 97 59 65 49
internal_count=256 197 74 123 97 59 65 49
is_linear=0
shrinkage=0.03


Tree=48
num_leaves=6
num_cat=0
split_feature=5 445 6 1 6
split_gain=0.409661 0.490567 0.432427 0.328167 0.455953
threshold=16.700000000000003 1.0000000180025095e-35 71.180000000000021 4.7500000000000009 80.38000000000001
decision_type=10 2 8 8 10
left_child=1 2 -1 -4 -5
right_child=-2 -3 3 4 -6
leaf_value=0.0061573755409783468 0.0068542066320776938 -0.00099130920444925625 0.00035177248862705058 0.0025366975085536411 0.0069579817318859002
leaf_weight=39 25 27 42 109 26
leaf_count=39 25 27 42 109 26
internal_value=0 0.00282121 0.00329778 0.00266769 0.0033882
internal_weight=0 243 216 177 135
internal_count=268 243 216 177 135
is_linear=0
shrinkage=0.03


Tree=49
num_leaves=10
num_cat=0
split_feature=4 525 525 3 439 439 3 2 3
split_gain=0.850537 1.63736 0.601815 0.589923 0.534773 0.376487 0.116886 0.0928553 0.0292854
threshold=0.21800000000000003 1.0000000180025095e-35 1.0000000180025095e-35 85.295000000000016 1.0000000180025095e-35 1.0000000180025095e-35 193.87500000000003 1.0000000180025095e-35 85.295000000000016
decision_type=8 2 2 10 2 2 8 8 10
left_child=1 7 4 -4 8 -5 -6 -1 -2
right_child=2 -3 3 5 6 -7 -8 -9 -10
leaf_value=0.0013389874197542665 0.005765215312795979 0.011209374486523515 -0.0028234157189726827 -1.9395044275923913e-05 0.00088393283585901366 0.0055364324564912484 0.0037643527066601175 0.0039802476596188449 0.0073495692972626002
leaf_weight=25 21 34 30 23 32 21 21 23 21
leaf_count=25 21 34 30 23 32 21 21 23 21
internal_value=0 0.00617243 0.0024489 0.000420494 0.00402892 0.00263225 0.00202523 0.00260459 0.00655739
internal_weight=0 82 169 74 95 44 53 48 42
internal_count=251 82 169 74 95 44 53 48 42
is_linear=0
shrinkage=0.03


Tree=50
num_leaves=10
num_cat=0
split_feature=2 5 290 5 7 3 3 386 16
split_gain=0.423236 0.721445 0.699387 0.699 0.416205 0.318833 0.278023 0.235523 0.15169
threshold=inf 16.700000000000003 1.0000000180025095e-35 -27.339999999999996 17.610000000000003 150.70000000000002 85.295000000000016 1.0000000180025095e-35 1.0000000180025095e-35
decision_type=8 10 2 10 8 8 10 2 2
left_child=1 4 3 6 -1 7 -2 -6 -7
right_child=2 -3 -4 -5 5 8 -8 -9 -10
leaf_value=-0.001253567688690964 0.0078099791374471456 0.0078444271199405186 0.0098537031042256508 -0.00031116883521183178 0.0034439024450760121 0.0022855040812018242 0.0032075122185051441 -0.00053974311702939515 0.0054825056245660078
leaf_weight=32 27 20 21 26 22 22 21 34 34
leaf_count=32 27 20 21 26 22 22 21 34 34
internal_value=0 0.00250534 0.00502173 0.0036505 0.0017638 0.0026259 0.0057964 0.00102526 0.00422654
internal_weight=0 164 95 74 144 112 48 56 56
internal_count=259 164 95 74 144 112 48 56 56
is_linear=0
shrinkage=0.03


Tree=51
num_leaves=10
num_cat=0
split_feature=18 3 5 0 448 4 6 6 5
split_gain=0.643954 0.787304 0.669698 0.561543 0.531931 0.246965 0.397697 0.328714 0.0239434
threshold=1.0000000180025095e-35 85.295000000000016 inf 1.0000000180025095e-35 1.0000000180025095e-35 0.11600000000000001 80.38000000000001 1.0000000180025095e-35 -12.229999999999999
decision_type=2 10 8 8 2 10 8 10 8
left_child=1 2 -1 -4 8 7 -7 -6 -3
right_child=-2 4 3 -5 5 6 -8 -9 -10
leaf_value=0.0093450386675439125 0.007502875421823073 -0.00086062137898989025 -6.9580100476741788e-06 0.0064174791550613008 -0.0015687751390326479 0.0010679668339435011 0.0056351232635662761 0.0034137907285581933 -0.0023110006922589877
leaf_weight=23 26 20 25 24 26 32 37 22 21
leaf_count=23 26 20 25 24 26 32 37 22 21
internal_value=0 0.00252186 0.00512196 0.00313971 0.001337 0.00236743 0.00351702 0.000714901 -0.0016035
internal_weight=0 230 72 49 158 117 69 48 41
internal_count=256 230 72 49 158 117 69 48 41
is_linear=0
shrinkage=0.03


Tree=52
num_leaves=9
num_cat=0
split_feature=18 4 0 203 3 0 6 3
split_gain=0.564623 0.626784 0.27356 0.44722 0.321751 0.228168 0.401098 0.25615
threshold=1.0000000180025095e-35 0.27250000000000008 1.0000000180025095e-35 1.0000000180025095e-35 150.70000000000002 1.0000000180025095e-35 1.0000000180025095e-35 109.85000000000001
decision_type=2 8 8 2 10 10 10 10
left_child=1 5 3 -3 -5 7 -7 -1
right_child=-2 2 -4 4 -6 6 -8 -9
leaf_value=0.0049196620997307549 0.0068520830470069696 0.0039848789466278896 0.0031692273952066896 -0.0028959697772547401 0.0013244273719088785 0.0030916477806333985 0.0090279213096946479 0.0012060494576871859
leaf_weight=35 31 21 40 37 29 21 20 32
leaf_count=35 31 21 40 37 29 21 20 32
internal_value=0 0.00254457 0.00111582 0.000171724 -0.00104155 0.00422467 0.00598739 0.003146
internal_weight=0 235 127 87 66 108 41 67
internal_count=266 235 127 87 66 108 41 67
is_linear=0
shrinkage=0.03


Tree=53
num_leaves=9
num_cat=0
split_feature=448 4 3 1 439 5 0 3
split_gain=0.573665 0.496125 0.331549 0.417613 0.241606 0.201203 0.148073 0.0229878
threshold=1.0000000180025095e-35 0.21800000000000003 109.85000000000001 98.500000000000014 1.0000000180025095e-35 -1.0000000180025095e-35 1.0000000180025095e-35 109.85000000000001
decision_type=2 10 8 8 2 8 8 10
left_child=4 2 5 -4 -1 -2 -5 -3
right_child=1 7 3 6 -6 -7 -8 -9
leaf_value=-0.0028907511153956874 0.0080220498889684664 -0.00034830276668071743 0.006283871465259128 0.00094943823749009436 0.0011828822196510277 0.0040501277780276724 0.0036540765121001106 0.0010162541395984589
leaf_weight=20 24 20 27 49 38 22 29 25
leaf_count=20 24 20 27 49 38 22 29 25
internal_value=0 0.00317463 0.00399859 0.00306814 -0.000221819 0.00612243 0.00195501 0.000409784
internal_weight=0 196 151 105 58 46 78 45
internal_count=254 196 151 105 58 46 78 45
is_linear=0
shrinkage=0.03


Tree=54
num_leaves=8
num_cat=0
split_feature=2 3 4 304 386 3 436
split_gain=0.470729 0.758191 0.570683 0.445125 0.512762 0.787183 0.241992
threshold=inf 109.85000000000001 0.11600000000000001 1.0000000180025095e-35 1.0000000180025095e-35 193.87500000000003 1.0000000180025095e-35
decision_type=8 8 10 2 2 8 2
left_child=3 -2 -3 4 -1 6 -6
right_child=1 2 -4 -5 5 -7 -8
leaf_value=0.005611833399161696 0.0085184139413759102 0.005317126471549272 -0.00037370566150237772 -0.0015874686216314634 0.001121707461377392 0.0057701287828385833 -0.0024342840239114593
leaf_weight=38 30 35 29 27 61 30 24
leaf_count=38 30 35 29 27 61 30 24
internal_value=0 0.00458313 0.00273847 0.00196385 0.00259055 0.00159222 0.000117663
internal_weight=0 94 64 180 153 115 85
internal_count=274 94 64 180 153 115 85
is_linear=0
shrinkage=0.03


Tree=55
num_leaves=8
num_cat=0
split_feature=3 7 290 304 16 439 439
split_gain=0.39936 0.770791 0.535814 0.411591 0.397733 0.455604 0.13886
threshold=85.295000000000016 0.34685000000000005 1.0000000180025095e-35 1.0000000180025095e-35 1.0000000180025095e-35 1.0000000180025095e-35 1.0000000180025095e-35
decision_type=8 10 2 2 2 2 2
left_child=-1 2 4 -4 5 -2 -6
right_child=1 -3 3 -5 6 -7 -8
leaf_value=0.0058498758116089129 0.0076892638104883101 -0.0016941557035315782 0.0085556544303627951 0.0031394353921970594 -0.00054030161263654011 0.0025241483791786081 0.0021419032813834124
leaf_weight=46 22 30 28 23 32 51 38
leaf_count=46 22 30 28 23 32 51 38
internal_value=0 0.00278098 0.00347301 0.00611305 0.00253145 0.00408076 0.000915752
internal_weight=0 224 194 51 143 73 70
internal_count=270 224 194 51 143 73 70
is_linear=0
shrinkage=0.03


Tree=56
num_leaves=7
num_cat=0
split_feature=304 4 436 16 3 7
split_gain=0.928826 0.660568 0.569573 1.12189 0.378831 0.252525
threshold=1.0000000180025095e-35 0.11600000000000001 1.0000000180025095e-35 1.0000000180025095e-35 85.295000000000016 17.610000000000003
decision_type=2 8 2 2 8 8
left_child=1 -1 4 -4 -3 -6
right_child=-2 2 3 -5 5 -7
leaf_value=0.0089117610268294803 -0.0013445608026813715 0.006134795356880534 0.011367499226970331 0.0018726767682528589 0.0046885404836211819 0.0013001879757533954
leaf_weight=21 36 22 21 24 24 113
leaf_count=21 36 22 21 24 24 113
internal_value=0 0.00384542 0.00332389 0.00630359 0.00248058 0.00189377
internal_weight=0 225 204 45 159 137
internal_count=261 225 204 45 159 137
is_linear=0
shrinkage=0.03


Tree=57
num_leaves=8
num_cat=0
split_feature=4 525 35 7 3 51 2
split_gain=1.29454 1.36996 0.152956 0.170042 0.144111 0.0828055 0.119767
threshold=0.21800000000000003 1.0000000180025095e-35 1.0000000180025095e-35 4.3750000000000009 150.70000000000002 1.0000000180025095e-35 1.0000000180025095e-35
decision_type=8 2 2 8 10 2 8
left_child=1 4 -2 -4 -1 -5 -7
right_child=2 -3 3 5 -6 6 -8
leaf_value=0.0035901350647004112 0.0031925260262297729 0.0097661690837076778 -0.0016599932801909744 0.0024162030359730123 0.00023027179471682757 0.0016232349017733022 -0.0005028134709928276
leaf_weight=27 28 39 22 36 20 57 41
leaf_count=27 28 39 22 36 20 57 41
internal_value=0 0.00560953 0.00115089 0.000784439 0.00216041 0.00118576 0.000733766
internal_weight=0 86 184 156 47 134 98
internal_count=270 86 184 156 47 134 98
is_linear=0
shrinkage=0.03


Tree=58
num_leaves=7
num_cat=0
split_feature=5 448 35 5 304 445
split_gain=0.477488 0.357852 0.477288 0.601712 0.169484 0.154081
threshold=16.700000000000003 1.0000000180025095e-35 1.0000000180025095e-35 -27.339999999999996 1.0000000180025095e-35 1.0000000180025095e-35
decision_type=10 2 2 8 2 2
left_child=1 5 -3 -4 -5 -1
right_child=-2 2 3 4 -6 -7
leaf_value=-0.0022025017067790033 0.0058966080801968928 0.0059388522585280814 0.0052405895217088978 0.0012564040365752439 -0.001288591905825254 0.00097375469332161753
leaf_weight=27 25 26 32 98 31 28
leaf_count=27 25 26 32 98 31 28
internal_value=0 0.00154169 0.00216733 0.00155826 0.000644816 -0.000585498
internal_weight=0 242 187 161 129 55
internal_count=267 242 187 161 129 55
is_linear=0
shrinkage=0.03


Tree=59
num_leaves=10
num_cat=0
split_feature=7 6 0 0 525 16 1 3 448
split_gain=0.351324 0.289657 0.842915 0.789727 0.73195 1.13242 0.201032 0.105572 0.0612541
threshold=0.34685000000000005 58.675000000000004 1.0000000180025095e-35 1.0000000180025095e-35 1.0000000180025095e-35 1.0000000180025095e-35 inf 150.70000000000002 1.0000000180025095e-35
decision_type=10 10 10 10 2 2 8 8 2
left_child=1 2 4 7 5 -1 -4 -3 -6
right_child=-2 3 6 -5 8 -7 -8 -9 -10
leaf_value=0.010781681677326559 -0.00071973416756372893 0.0010333028058188835 0.00086993499525955744 0.0091975416615605356 -0.00048373958095908163 0.0019010830816945856 -0.003076509161843345 0.0038870949953561645 0.0017642520024674013
leaf_weight=24 30 28 21 21 20 28 26 20 24
leaf_count=24 30 28 21 21 20 28 26 20 24
internal_value=0 0.00274887 0.00197858 0.00434526 0.00359019 0.00599982 -0.0013132 0.00222238 0.000742438
internal_weight=0 212 143 69 96 52 47 48 44
internal_count=242 212 143 69 96 52 47 48 44
is_linear=0
shrinkage=0.03


Tree=60
num_leaves=8
num_cat=0
split_feature=6 7 4 35 51 525 3
split_gain=0.75046 0.803329 0.777674 0.549427 0.444605 0.336313 0.334588
threshold=80.38000000000001 0.34685000000000005 0.27250000000000008 1.0000000180025095e-35 1.0000000180025095e-35 1.0000000180025095e-35 150.70000000000002
decision_type=10 10 8 2 2 2 10
left_child=1 3 -2 -1 5 -5 -6
right_child=2 -3 -4 4 6 -7 -8
leaf_value=0.0065657370808185076 0.0096711422142107036 -0.0038603550009429456 0.001862382501607168 0.0021784111413245019 -0.00044205410099482231 0.0069633007408847324 0.0033745356599268104
leaf_weight=24 24 21 22 39 79 20 28
leaf_count=24 24 21 22 39 79 20 28
internal_value=0 0.00170758 0.00593652 0.00232298 0.00170957 0.00380041 0.00055668
internal_weight=0 211 46 190 166 59 107
internal_count=257 211 46 190 166 59 107
is_linear=0
shrinkage=0.03


Tree=61
num_leaves=9
num_cat=0
split_feature=6 7 2 6 51 304 439 16
split_gain=0.873447 0.342745 0.310094 0.389682 0.270085 0.63114 0.154031 0.55046
threshold=90.260000000000005 4.3750000000000009 1.0000000180025095e-35 71.180000000000021 1.0000000180025095e-35 1.0000000180025095e-35 1.0000000180025095e-35 1.0000000180025095e-35
decision_type=8 8 8 10 2 2 2 2
left_child=1 -1 3 -3 5 -2 -6 -8
right_child=4 2 -4 -5 6 -7 7 -9
leaf_value=0.0014590756528778002 0.0065157735904678698 0.0074377245066518131 0.0085272721938179953 0.0020589764379999702 -0.0010592236665175542 -0.00022529891375452278 -0.0011796179609863382 0.0040747312729603009
leaf_weight=20 25 22 26 27 38 25 38 34
leaf_count=20 25 22 26 27 38 25 38 34
internal_value=0 0.00494856 0.00587909 0.00447392 0.00131704 0.00314524 0.000486044 0.0013016
internal_weight=0 95 75 49 160 50 110 72
internal_count=255 95 75 49 160 50 110 72
is_linear=0
shrinkage=0.03


Tree=62
num_leaves=9
num_cat=0
split_feature=5 4 3 4 5 2 5 2
split_gain=0.698825 0.785786 0.320627 0.495079 0.45368 0.42953 0.358087 0.17346
threshold=1.0000000180025095e-35 0.17050000000000004 109.85000000000001 0.17050000000000004 -12.229999999999999 inf -12.229999999999999 1.0000000180025095e-35
decision_type=10 10 10 10 10 8 8 8
left_child=2 -2 3 6 5 -4 -1 -8
right_child=1 -3 4 -5 -6 -7 7 -9
leaf_value=-0.0017381861107423899 0.0097997022234485483 0.0013901396272704004 -0.00087628733465680846 0.0065197352373174257 -0.003375796421896666 0.0037100307679707729 0.0036971739714228829 0.00066302857174637851
leaf_weight=24 20 20 40 21 26 34 43 28
leaf_count=24 20 20 40 21 26 34 43 28
internal_value=0 0.00559492 0.00127806 0.00235122 3.31885e-05 0.00123094 0.00142976 0.00250061
internal_weight=0 40 216 116 100 74 95 71
internal_count=256 40 216 116 100 74 95 71
is_linear=0
shrinkage=0.03


Tree=63
num_leaves=9
num_cat=0
split_feature=53 8 439 16 6 3 16 6
split_gain=0.357511 0.444102 0.517554 0.607749 0.561983 0.559837 0.453695 0.0413214
threshold=1.0000000180025095e-35 inf 1.0000000180025095e-35 1.0000000180025095e-35 58.675000000000004 109.85000000000001 1.0000000180025095e-35 58.675000000000004
decision_type=2 8 2 2 10 8 2 10
left_child=1 -1 6 4 -4 -5 -3 -8
right_child=-2 2 3 5 -6 -7 7 -9
leaf_value=-0.0032345171379191532 0.0041395995280860617 0.0025741718663915016 -0.0020448168979859665 0.0073030982778460206 0.0039801586804572827 0.0020395873078483747 -0.0035131206950577702 -0.0016486125094816088
leaf_weight=21 36 23 38 31 22 44 23 20
leaf_count=21 36 23 38 31 22 44 23 20
internal_value=0 0.000916691 0.0013504 0.0024148 0.000164341 0.00421517 -0.000826789 -0.00264591
internal_weight=0 222 201 135 60 75 66 43
internal_count=258 222 201 135 60 75 66 43
is_linear=0
shrinkage=0.03


Tree=64
num_leaves=10
num_cat=0
split_feature=2 290 445 525 448 289 16 436 203
split_gain=0.422279 0.591391 0.387853 0.395288 0.244798 0.17156 0.129258 0.0925479 0.233593
threshold=inf 1.0000000180025095e-35 1.0000000180025095e-35 1.0000000180025095e-35 1.0000000180025095e-35 1.0000000180025095e-35 1.0000000180025095e-35 1.0000000180025095e-35 1.0000000180025095e-35
decision_type=8 2 2 2 2 2 2 2 2
left_child=2 4 3 7 -2 -5 -6 8 -1
right_child=1 -3 -4 5 6 -7 -8 -9 -10
leaf_value=-0.0030234996099025011 0.00061115613486617808 0.0091534676056887424 0.0059865150973200795 0.0054000523645430804 0.0031846114582028879 0.0020832325407536701 0.0061961476403571986 0.0015907801849947821 0.0011094782549116644
leaf_weight=20 20 21 21 25 29 32 23 31 32
leaf_count=20 20 21 21 25 29 32 23 31 32
internal_value=0 0.00472377 0.00218465 0.00161437 0.00343178 0.00353798 0.00451664 0.000293343 -0.000480129
internal_weight=0 93 161 140 72 57 52 83 52
internal_count=254 93 161 140 72 57 52 83 52
is_linear=0
shrinkage=0.03


Tree=65
num_leaves=7
num_cat=0
split_feature=53 3 1 6 4 290
split_gain=0.52683 0.517677 0.548109 0.222954 0.191175 0.206542
threshold=1.0000000180025095e-35 85.295000000000016 1.0000000180025095e-35 1.0000000180025095e-35 0.21800000000000003 1.0000000180025095e-35
decision_type=2 8 8 10 10 2
left_child=1 3 -3 -1 5 -4
right_child=-2 2 4 -5 -6 -7
leaf_value=0.0021750419640115329 0.0054003890967843204 0.0043979690726846455 -0.0011286040642343967 0.0065465772125337801 0.001934918734111956 0.0021358294400020635
leaf_weight=21 33 30 103 21 35 21
leaf_count=21 33 30 103 21 35 21
internal_value=0 0.00134814 0.000678664 0.00436081 -2.30921e-05 -0.000575756
internal_weight=0 231 189 42 159 124
internal_count=264 231 189 42 159 124
is_linear=0
shrinkage=0.03


Tree=66
num_leaves=7
num_cat=0
split_feature=7 304 51 1 6 5
split_gain=0.435349 0.486173 0.752779 0.341113 0.428879 0.24606
threshold=0.34685000000000005 1.0000000180025095e-35 1.0000000180025095e-35 98.500000000000014 80.38000000000001 16.700000000000003
decision_type=10 2 2 8 10 8
left_child=1 2 -1 5 -5 -4
right_child=-2 -3 3 4 -6 -7
leaf_value=0.0068774772436008781 -0.0010179576421664518 -0.00095799625048349649 -0.0023320144973695278 0.0022821221910417078 0.007115611687302589 0.002207978352565657
leaf_weight=40 33 29 21 95 20 22
leaf_count=40 33 29 21 95 20 22
internal_value=0 0.00266975 0.00320109 0.00227036 0.00312273 -9.22746e-06
internal_weight=0 227 198 158 115 43
internal_count=260 227 198 158 115 43
is_linear=0
shrinkage=0.03


Tree=67
num_leaves=8
num_cat=0
split_feature=4 6 6 35 3 436 525
split_gain=0.494768 1.00728 0.496193 0.41421 0.303687 0.148109 0.0656197
threshold=0.17050000000000004 1.0000000180025095e-35 71.180000000000021 1.0000000180025095e-35 85.295000000000016 1.0000000180025095e-35 1.0000000180025095e-35
decision_type=8 10 10 2 8 2 2
left_child=1 -1 3 -2 -5 -6 -4
right_child=2 -3 6 4 5 -7 -8
leaf_value=-0.00054136584851552133 0.006097313158214092 0.0076969665184836167 -0.0025297416457906365 -0.0014447974119908534 0.0014137572468607684 0.0037091636879218589 -0.00022427024133503436
leaf_weight=22 20 34 25 26 80 37 20
leaf_count=22 20 34 25 26 80 37 20
internal_value=0 0.00446048 0.00128362 0.0020535 0.00148794 0.00213966 -0.00150509
internal_weight=0 56 208 163 143 117 45
internal_count=264 56 208 163 143 117 45
is_linear=0
shrinkage=0.03


Tree=68
num_leaves=9
num_cat=0
split_feature=53 8 439 16 16 3 6 436
split_gain=0.430614 0.484528 0.443272 1.14792 0.460392 0.649563 0.437222 0.251657
threshold=1.0000000180025095e-35 inf 1.0000000180025095e-35 1.0000000180025095e-35 1.0000000180025095e-35 109.85000000000001 58.675000000000004 1.0000000180025095e-35
decision_type=2 8 2 2 2 8 10 2
left_child=1 -1 3 -3 6 -6 -4 -5
right_child=-2 2 4 7 5 -7 -8 -9
leaf_value=-0.0033233882460211002 0.004430945452947456 0.0046657605452212281 -0.0015957395699532592 -0.005530379872718847 0.0077418449401323291 0.0017199535307621486 0.0035722499140180071 -0.0011309821106493471
leaf_weight=21 39 26 34 22 28 38 26 25
leaf_count=21 39 26 34 22 28 38 26 25
internal_value=0 0.00101059 0.00146794 -0.000392235 0.00254566 0.0042747 0.000643723 -0.00319027
internal_weight=0 220 199 73 126 66 60 47
internal_count=259 220 199 73 126 66 60 47
is_linear=0
shrinkage=0.03


Tree=69
num_leaves=9
num_cat=0
split_feature=289 3 436 3 439 3 525 6
split_gain=0.59453 0.549869 0.472365 0.297263 0.251469 0.172126 0.168733 0.0439405
threshold=1.0000000180025095e-35 150.70000000000002 1.0000000180025095e-35 85.295000000000016 1.0000000180025095e-35 193.87500000000003 1.0000000180025095e-35 1.0000000180025095e-35
decision_type=2 10 2 10 2 10 2 10
left_child=1 2 7 4 -2 6 -5 -1
right_child=3 -3 -4 5 -6 -7 -8 -9
leaf_value=0.004953880023211241 0.00076548728160560128 0.001110238065943122 0.0096062162742018703 0.00086111762585412504 0.0049410300619072379 0.0022615400916681837 -0.0019478209203897187 0.0029652512432076037
leaf_weight=20 25 35 20 38 27 26 39 20
leaf_count=20 25 35 20 38 27 26 39 20
internal_value=0 0.00409858 0.00584178 0.00108453 0.00293356 0.000151044 -0.000561592 0.00395957
internal_weight=0 95 60 155 52 103 77 40
internal_count=250 95 60 155 52 103 77 40
is_linear=0
shrinkage=0.03


Tree=70
num_leaves=8
num_cat=0
split_feature=5 14 51 5 3 439 525
split_gain=1.22284 0.679662 0.788193 0.458226 0.516118 0.424803 0.143565
threshold=16.700000000000003 1.0000000180025095e-35 1.0000000180025095e-35 -1.0000000180025095e-35 109.85000000000001 1.0000000180025095e-35 1.0000000180025095e-35
decision_type=10 2 2 8 10 2 2
left_child=1 3 -3 4 -1 -5 -6
right_child=-2 2 -4 5 6 -7 -8
leaf_value=0.0039819383145751133 0.0084860646352171894 0.0085509842466562971 0.0010454767802730203 -0.0049727252955870851 -0.0018137296695600856 -4.6998729463666676e-05 0.0011360010840386773
leaf_weight=38 21 20 34 26 33 40 27
leaf_count=38 21 20 34 26 33 40 27
internal_value=0 0.00090609 0.00382529 -5.5111e-05 0.00124625 -0.00198744 -0.000486351
internal_weight=0 218 54 164 98 66 60
internal_count=239 218 54 164 98 66 60
is_linear=0
shrinkage=0.03


Tree=71
num_leaves=8
num_cat=0
split_feature=5 4 448 4 35 0 3
split_gain=1.49738 0.741426 0.303576 0.388798 0.531574 0.311283 0.196368
threshold=1.0000000180025095e-35 0.17050000000000004 1.0000000180025095e-35 0.21800000000000003 1.0000000180025095e-35 1.0000000180025095e-35 109.85000000000001
decision_type=10 10 2 10 2 10 10
left_child=2 -2 6 4 -4 -6 -1
right_child=1 -3 3 -5 5 -7 -8
leaf_value=0.00034411710783325389 0.010878849135977881 0.003160115957725793 0.0063900569520358528 -0.0020714134141802789 2.1557637263794201e-05 0.0032079379848966539 -0.0034145305146971211
leaf_weight=29 21 24 21 25 74 44 22
leaf_count=29 21 24 21 25 74 44 22
internal_value=0 0.00676219 0.000744233 0.00137287 0.00199234 0.0012097 -0.00127726
internal_weight=0 45 215 164 139 118 51
internal_count=260 45 215 164 139 118 51
is_linear=0
shrinkage=0.03


Tree=72
num_leaves=9
num_cat=0
split_feature=1 6 16 439 289 3 3 3
split_gain=0.460901 0.450424 0.559733 1.72773 0.319241 0.609353 0.319145 0.268381
threshold=11.500000000000002 80.38000000000001 1.0000000180025095e-35 1.0000000180025095e-35 1.0000000180025095e-35 150.70000000000002 150.70000000000002 109.85000000000001
decision_type=8 10 2 2 2 8 8 10
left_child=6 2 3 -2 5 -4 -1 -6
right_child=1 -3 4 -5 7 -7 -8 -9
leaf_value=-0.0030893835907971319 0.010510735558345913 0.0063379491707642689 0.0064815463442355397 0.00030170129612088202 -0.002733618811029812 -0.00083528177080942052 0.0015478467722149455 0.0015551265663816594
leaf_weight=22 25 28 20 37 29 21 34 24
leaf_count=22 25 28 20 37 29 21 34 24
internal_value=0 0.00283441 0.00220557 0.00441825 0.00074615 0.0027339 -0.000273922 -0.000791545
internal_weight=0 184 156 62 94 41 56 53
internal_count=240 184 156 62 94 41 56 53
is_linear=0
shrinkage=0.03


Tree=73
num_leaves=8
num_cat=0
split_feature=290 2 304 18 6 4 6
split_gain=0.735394 0.335864 0.271057 0.168155 0.228779 0.180646 0.214203
threshold=1.0000000180025095e-35 inf 1.0000000180025095e-35 1.0000000180025095e-35 80.38000000000001 0.17050000000000004 1.0000000180025095e-35
decision_type=2 8 2 2 10 8 10
left_child=3 2 -2 4 5 -1 -7
right_child=1 -3 -4 -5 -6 6 -8
leaf_value=-0.0024527218169532717 0.0040630524630912322 0.0067293318646790626 -0.00023591544140468942 -0.0023562270559539852 0.002803816662635654 0.0012916515801886194 -0.00163428202009527
leaf_weight=24 33 22 22 22 30 76 32
leaf_count=24 33 22 22 22 30 76 32
internal_value=0 0.00359657 0.00234347 0.000104786 0.000438998 -9.84608e-05 0.000424708
internal_weight=0 77 55 184 162 132 108
internal_count=261 77 55 184 162 132 108
is_linear=0
shrinkage=0.03


Tree=74
num_leaves=9
num_cat=0
split_feature=524 16 439 2 289 6 51 6
split_gain=0.301955 0.311553 0.624308 0.955763 0.752645 0.493936 0.289707 0.120478
threshold=1.0000000180025095e-35 1.0000000180025095e-35 1.0000000180025095e-35 inf 1.0000000180025095e-35 58.675000000000004 1.0000000180025095e-35 1.0000000180025095e-35
decision_type=2 2 2 8 2 10 2 10
left_child=1 6 4 5 -3 -4 -1 -8
right_child=-2 2 3 -5 -6 -7 7 -9
leaf_value=0.00198524741618894 0.0044464229363948109 0.0026228438566128411 0.0033867127192206679 0.0076404347439789225 -0.0043374793990194026 -0.0021801302983210638 -0.0029769225030516584 -0.00040276135038584465
leaf_weight=25 20 27 32 28 29 26 36 30
leaf_count=25 20 27 32 28 29 26 36 30
internal_value=0 0.00060529 0.00148348 0.00308865 -0.000981609 0.000891231 -0.000765064 -0.00180685
internal_weight=0 233 142 86 56 58 91 66
internal_count=253 233 142 86 56 58 91 66
is_linear=0
shrinkage=0.03


Tree=75
num_leaves=10
num_cat=0
split_feature=1 6 5 3 2 289 436 3 439
split_gain=0.662636 0.994523 0.32177 0.348058 0.627484 0.0819825 0.0775381 0.0343182 0.0261658
threshold=98.500000000000014 58.675000000000004 1.0000000180025095e-35 150.70000000000002 inf 1.0000000180025095e-35 1.0000000180025095e-35 109.85000000000001 1.0000000180025095e-35
decision_type=8 10 10 8 8 2 2 10 2
left_child=1 7 3 4 6 -5 -2 -1 -7
right_child=2 -3 -4 5 -6 8 -8 -9 -10
leaf_value=0.0059496616819144591 -0.0018437854901421813 -0.001184806709310838 0.0031635505779067405 -0.00025853934651240705 0.0049198315262087974 -0.0030606851813250353 0.0006289529108575412 0.0076270603228892593 -0.0015630922519734927
leaf_weight=23 25 21 37 30 29 21 21 21 21
leaf_count=23 25 21 37 30 29 21 21 21 21
internal_value=0 0.00418661 0.000662958 3.35577e-05 0.00146385 -0.00145633 -0.000714927 0.00675024 -0.00231189
internal_weight=0 65 184 147 75 72 46 44 42
internal_count=249 65 184 147 75 72 46 44 42
is_linear=0
shrinkage=0.03


Tree=76
num_leaves=9
num_cat=0
split_feature=4 448 5 6 3 3 6 5
split_gain=0.380033 0.300352 0.261746 0.315126 0.460624 0.216077 0.153271 0.136182
threshold=0.11600000000000001 1.0000000180025095e-35 -1.0000000180025095e-35 90.260000000000005 150.70000000000002 109.85000000000001 58.675000000000004 16.700000000000003
decision_type=8 2 8 8 8 10 10 8
left_child=-1 7 5 -4 -5 -3 -7 -2
right_child=1 2 3 4 -6 6 -8 -9
leaf_value=0.0057583066389303317 -0.002238993079933737 0.0030854690689914701 0.0061944126471877095 -0.0014383864761995417 0.0039059065270455593 -0.0016089712147568833 0.0015964064645930193 0.00088990833790552237
leaf_weight=22 21 29 25 21 47 29 25 31
leaf_count=22 21 29 25 21 47 29 25 31
internal_value=0 0.00162951 0.00222137 0.00331432 0.00225546 0.00099673 -0.000125 -0.000373686
internal_weight=0 228 176 93 68 83 54 52
internal_count=250 228 176 93 68 83 54 52
is_linear=0
shrinkage=0.03


Tree=77
num_leaves=9
num_cat=0
split_feature=304 436 4 4 5 0 525 6
split_gain=0.322813 0.504607 0.727245 0.511791 0.525196 0.231256 0.116305 0.100505
threshold=1.0000000180025095e-35 1.0000000180025095e-35 1.0000000180025095e-35 0.17050000000000004 1.0000000180025095e-35 1.0000000180025095e-35 1.0000000180025095e-35 58.675000000000004
decision_type=2 2 10 10 10 8 2 10
left_child=1 3 -3 5 6 7 -5 -1
right_child=-2 2 -4 4 -6 -7 -8 -9
leaf_value=-0.00055439979895570521 -0.0017209747389835468 0.0075212296273989166 -8.7969169020652777e-05 0.0032822743047145196 -0.00095883594293679506 0.0020694818883202973 0.0065176164060831068 -0.0027369807352910615
leaf_weight=59 34 26 20 20 21 24 20 28
leaf_count=59 34 26 20 20 21 24 20 28
internal_value=0 0.00142191 0.00421288 0.000675493 0.00288299 -0.000537635 0.00489995 -0.00125684
internal_weight=0 218 46 172 61 111 40 87
internal_count=252 218 46 172 61 111 40 87
is_linear=0
shrinkage=0.03


Tree=78
num_leaves=10
num_cat=0
split_feature=4 525 51 6 6 525 2 2 5
split_gain=0.412987 1.20623 0.319505 0.351691 0.241961 0.194241 0.117719 0.0799037 0.0264347
threshold=0.17050000000000004 1.0000000180025095e-35 1.0000000180025095e-35 71.180000000000021 80.38000000000001 1.0000000180025095e-35 1.0000000180025095e-35 1.0000000180025095e-35 inf
decision_type=8 2 2 10 8 2 8 8 8
left_child=1 -1 4 5 -2 7 -5 -4 -7
right_child=2 -3 3 6 -6 8 -8 -9 -10
leaf_value=0.00018934872280806301 0.00078593486803583794 0.009017781984920684 0.0017685565443966407 -0.00018498173781803675 0.0046144141407253644 0.00076437241997544844 -0.0034009480881504713 0.0041363477698810715 -0.00066365092433989044
leaf_weight=30 24 26 29 21 39 28 20 23 20
leaf_count=30 24 26 29 21 39 28 20 23 20
internal_value=0 0.00428826 0.00137978 0.00058617 0.00315595 0.00154554 -0.00175375 0.00281585 0.000169363
internal_weight=0 56 204 141 63 100 41 52 48
internal_count=260 56 204 141 63 100 41 52 48
is_linear=0
shrinkage=0.03


Tree=79
num_leaves=7
num_cat=0
split_feature=53 35 3 16 3 448
split_gain=0.365513 0.309932 0.286206 0.19279 0.5765 0.536341
threshold=1.0000000180025095e-35 1.0000000180025095e-35 193.87500000000003 1.0000000180025095e-35 150.70000000000002 1.0000000180025095e-35
decision_type=2 2 10 2 8 2
left_child=1 -1 3 4 -3 -5
right_child=-2 2 -4 5 -6 -7
leaf_value=0.0038680922902527858 0.0044040981458651051 -0.0034043738475212685 0.0035792155191302299 -0.0025006478093331677 0.00182313141413033 0.0027045304664681034
leaf_weight=33 37 39 27 25 37 62
leaf_count=33 37 39 27 25 37 62
internal_value=0 0.00118447 0.000718362 0.000244478 -0.000859404 0.00120879
internal_weight=0 223 190 163 76 87
internal_count=260 223 190 163 76 87
is_linear=0
shrinkage=0.03


Tree=80
num_leaves=9
num_cat=0
split_feature=448 2 4 5 439 436 5 4
split_gain=0.431489 0.358323 0.805415 0.324486 0.911483 0.391395 0.277221 0.0367159
threshold=1.0000000180025095e-35 inf 0.11600000000000001 -12.229999999999999 1.0000000180025095e-35 1.0000000180025095e-35 -12.229999999999999 1.0000000180025095e-35
decision_type=2 8 10 10 2 2 8 10
left_child=7 3 -3 5 -5 6 -2 -1
right_child=1 2 -4 4 -6 -7 -8 -9
leaf_value=-0.0014641020582480864 -0.00051449377671815462 0.0071381964555749773 0.0006082931533455848 0.0073893388198769611 -0.001152013204780153 -0.0024787816456095738 0.0040452867158455768 2.7611282421275972e-05
leaf_weight=33 24 34 34 23 22 33 24 27
leaf_count=33 24 34 34 23 22 33 24 27
internal_value=0 0.0021182 0.00387324 0.00117103 0.00321357 3.62869e-05 0.0017654 -0.000792831
internal_weight=0 194 68 126 45 81 48 60
internal_count=254 194 68 126 45 81 48 60
is_linear=0
shrinkage=0.03


Tree=81
num_leaves=10
num_cat=0
split_feature=2 16 439 6 302 6 4 525 6
split_gain=0.343694 0.437677 1.24845 0.366816 0.287986 0.412695 0.287653 0.203357 0.034682
threshold=inf 1.0000000180025095e-35 1.0000000180025095e-35 80.38000000000001 1.0000000180025095e-35 1.0000000180025095e-35 0.17050000000000004 1.0000000180025095e-35 90.260000000000005
decision_type=8 2 2 8 2 10 8 2 8
left_child=4 2 -2 -3 5 -1 -6 8 -8
right_child=1 3 -4 -5 6 -7 7 -9 -10
leaf_value=-0.0035039602866505878 0.010106910546310246 -0.0024480628019331817 0.0005022355798503449 0.0028385113526342644 -0.0016663129813969135 0.0015735696064308284 0.0016122277081012726 0.0036157088535837831 -2.6950019483382885e-05
leaf_weight=34 21 21 29 27 24 25 21 40 26
leaf_count=34 21 21 29 27 24 25 21 40 26
internal_value=0 0.00257184 0.0045362 0.000525635 0.000341162 -0.00135246 0.00124138 0.0020435 0.000705449
internal_weight=0 98 50 48 170 59 111 87 47
internal_count=268 98 50 48 170 59 111 87 47
is_linear=0
shrinkage=0.03


Tree=82
num_leaves=7
num_cat=0
split_feature=304 3 290 6 3 16
split_gain=0.559425 0.711416 0.73521 0.302822 0.129262 0.0357083
threshold=1.0000000180025095e-35 85.295000000000016 1.0000000180025095e-35 80.38000000000001 109.85000000000001 1.0000000180025095e-35
decision_type=2 8 2 8 8 2
left_child=1 -1 3 5 -5 -3
right_child=-2 2 -4 4 -6 -7
leaf_value=0.005870971868893033 -0.0017631561824908624 -0.00056453419051000046 0.0053587506799136885 0.0033715204878345781 0.00082656780871131065 -0.0022139687235984535
leaf_weight=38 39 21 34 23 82 27
leaf_count=38 39 21 34 23 82 27
internal_value=0 0.00212882 0.00136839 0.000481642 0.00138403 -0.00149234
internal_weight=0 225 187 153 105 48
internal_count=264 225 187 153 105 48
is_linear=0
shrinkage=0.03


Tree=83
num_leaves=9
num_cat=0
split_feature=18 53 6 3 5 3 5 5
split_gain=0.581504 0.332689 0.342081 0.289919 0.425927 0.222305 0.158663 0.0536381
threshold=1.0000000180025095e-35 1.0000000180025095e-35 90.260000000000005 150.70000000000002 -1.0000000180025095e-35 109.85000000000001 -1.0000000180025095e-35 inf
decision_type=2 2 8 8 8 10 8 8
left_child=1 2 5 4 -4 -1 -7 -5
right_child=-2 -3 3 7 -6 6 -8 -9
leaf_value=0.0043142961814999579 0.0053584514962958874 0.0038480755506918349 -0.00013535641734243223 0.002138782314956188 -0.0053805489046499129 -0.00064843278394878967 0.0027560737949203361 0.00025825799724390341
leaf_weight=25 29 29 38 20 22 28 22 43
leaf_count=25 29 29 38 20 22 28 22 43
internal_value=0 0.000847111 0.000407576 -0.000566137 -0.00205859 0.00200447 0.00084955 0.00085525
internal_weight=0 227 198 123 60 75 50 63
internal_count=256 227 198 123 60 75 50 63
is_linear=0
shrinkage=0.03


Tree=84
num_leaves=9
num_cat=0
split_feature=4 525 439 525 439 203 3 3
split_gain=0.780758 0.962797 0.531156 0.523393 0.351061 0.235396 0.0674872 0.0245489
threshold=0.27250000000000008 1.0000000180025095e-35 1.0000000180025095e-35 1.0000000180025095e-35 1.0000000180025095e-35 1.0000000180025095e-35 109.85000000000001 193.87500000000003
decision_type=8 2 2 2 2 2 10 8
left_child=1 6 -3 5 -5 -2 -1 -7
right_child=3 2 -4 4 -6 7 -8 -9
leaf_value=0.0017639897828516753 0.0037805489418299303 0.0031906328655572401 0.0093946309517259196 -0.0053125023841857901 -0.00067791824523163471 0.00081304775937460357 -0.00027543737366795537 -0.0004915803795059522
leaf_weight=23 23 27 23 24 38 25 40 27
leaf_count=23 23 27 23 24 38 25 40 27
internal_value=0 0.00293609 0.00604447 -0.000432517 -0.00247195 0.00125342 0.000469115 0.000135645
internal_weight=0 113 50 137 62 75 63 52
internal_count=250 113 50 137 62 75 63 52
is_linear=0
shrinkage=0.03


Tree=85
num_leaves=8
num_cat=0
split_feature=18 290 436 14 1 3 3
split_gain=0.166344 0.222343 0.597774 0.345801 0.324684 0.267012 0.0248067
threshold=1.0000000180025095e-35 1.0000000180025095e-35 1.0000000180025095e-35 1.0000000180025095e-35 98.500000000000014 109.85000000000001 150.70000000000002
decision_type=2 2 2 2 8 8 10
left_child=1 2 3 5 -3 -1 -5
right_child=-2 4 -4 6 -6 -7 -8
leaf_value=0.0047396743651479485 0.0032641265795312143 0.0054548696132207461 -0.0029367984746381439 -0.0016146750006425595 0.0008288974827155471 0.001263551517563351 -0.00013837972213514148
leaf_weight=30 33 22 37 21 36 59 20
leaf_count=30 33 22 37 21 36 59 20
internal_value=0 0.000983333 0.00042756 0.00138511 0.00258358 0.00243528 -0.000894531
internal_weight=0 225 167 130 58 89 41
internal_count=258 225 167 130 58 89 41
is_linear=0
shrinkage=0.03


Tree=86
num_leaves=10
num_cat=0
split_feature=3 2 5 35 53 4 5 14 4
split_gain=0.306019 0.759372 0.317483 0.224833 0.342068 0.52394 0.204347 0.159955 0.127598
threshold=109.85000000000001 inf -12.229999999999999 1.0000000180025095e-35 1.0000000180025095e-35 0.27250000000000008 -12.229999999999999 1.0000000180025095e-35 0.27250000000000008
decision_type=8 8 10 2 2 8 8 2 8
left_child=1 2 8 -2 5 6 -5 -7 -1
right_child=3 -3 -4 4 -6 7 -8 -9 -10
leaf_value=-0.0027661628555506468 0.0029571781307458876 0.006794964775908738 0.0031377458137770492 -0.00165066403551133 0.0029148716991767285 -0.00036536901084295776 -0.0057879796650792872 0.0026834357423441749 0.00054470045153390278
leaf_weight=20 21 24 27 22 24 59 21 21 22
leaf_count=20 21 24 27 22 24 59 21 21 22
internal_value=0 0.00219848 0.0005997 5.3517e-05 -0.000361292 -0.00100054 -0.00367121 0.000434942 -0.0010319
internal_weight=0 93 69 168 147 123 43 80 42
internal_count=261 93 69 168 147 123 43 80 42
is_linear=0
shrinkage=0.03


Tree=87
num_leaves=9
num_cat=0
split_feature=3 2 6 525 3 1 4 3
split_gain=0.537089 0.49204 0.266459 0.20133 0.156745 0.174852 0.131493 0.0100272
threshold=85.295000000000016 1.0000000180025095e-35 1.0000000180025095e-35 1.0000000180025095e-35 193.87500000000003 11.500000000000002 0.21800000000000003 150.70000000000002
decision_type=8 8 10 2 10 8 8 8
left_child=3 4 -3 -1 5 -2 -7 -4
right_child=1 2 7 -5 -6 6 -8 -9
leaf_value=0.0017774858849588782 -0.0017610720757927213 -0.0038623343969640483 -0.00072818801688429502 0.0057997112455112588 0.0035285042918154169 -0.00036048888714566569 0.0021136239085924524 0.00021040717838332056
leaf_weight=24 21 34 21 21 21 29 58 20
leaf_count=24 21 34 21 21 21 29 58 20
internal_value=0 3.35731e-05 -0.00189871 0.00365452 0.00115699 0.000695866 0.00128892 -0.000270337
internal_weight=0 204 75 45 129 108 87 41
internal_count=249 204 75 45 129 108 87 41
is_linear=0
shrinkage=0.03


Tree=88
num_leaves=8
num_cat=0
split_feature=524 0 6 51 1 35 445
split_gain=0.355337 0.335226 0.425424 0.414026 0.200786 0.185872 0.151495
threshold=1.0000000180025095e-35 1.0000000180025095e-35 58.675000000000004 1.0000000180025095e-35 inf 1.0000000180025095e-35 1.0000000180025095e-35
decision_type=2 8 10 2 8 2 2
left_child=1 3 4 -1 -3 -5 -7
right_child=-2 2 -4 5 -6 6 -8
leaf_value=0.0049987717930759703 0.0047661257442086933 -0.00049614811316132544 0.0021133214361283791 0.0034179666265845301 -0.0045534847212105019 -6.9912118775831473e-05 0.0024535363865184731
leaf_weight=28 24 21 28 24 23 91 28
leaf_count=28 24 21 28 24 23 91 28
internal_value=0 0.000939743 -0.000777448 0.00166277 -0.00261703 0.00100957 0.00052384
internal_weight=0 243 72 171 44 143 119
internal_count=267 243 72 171 44 143 119
is_linear=0
shrinkage=0.03


Tree=89
num_leaves=6
num_cat=0
split_feature=8 304 18 1 6
split_gain=0.35647 0.618304 0.582557 0.269075 0.238346
threshold=1.0000000180025095e-35 1.0000000180025095e-35 1.0000000180025095e-35 2.1000000000000005 80.38000000000001
decision_type=10 2 2 8 10
left_child=1 2 3 -1 -5
right_child=-2 -3 -4 4 -6
leaf_value=0.0022375020356132434 0.0042084787519914759 -0.0041482655269404253 0.0043375221733003852 -0.0011072046996184414 0.0020519676030828402
leaf_weight=39 21 27 33 124 26
leaf_count=39 21 27 33 124 26
internal_value=0 0.000138375 0.000659723 1.7568e-05 -0.000559615
internal_weight=0 249 222 189 150
internal_count=270 249 222 189 150
is_linear=0
shrinkage=0.03


Tree=90
num_leaves=9
num_cat=0
split_feature=4 525 5 2 14 439 436 525
split_gain=0.393478 0.619431 0.346802 0.177915 0.118332 0.28967 0.160933 0.0520942
threshold=0.21800000000000003 1.0000000180025095e-35 1.0000000180025095e-35 1.0000000180025095e-35 1.0000000180025095e-35 1.0000000180025095e-35 1.0000000180025095e-35 1.0000000180025095e-35
decision_type=8 2 10 8 2 2 2 2
left_child=1 3 4 -1 5 6 -2 -7
right_child=2 -3 -4 -5 -6 7 -8 -9
leaf_value=-0.0011917175510898232 -0.0046022085186892322 0.0052740260360296812 0.0029740882911719383 0.0022737167170271276 0.0010410210648842621 -0.00030855434294790028 -0.0013140953573826195 0.0015456884214654564
leaf_weight=30 21 40 30 24 32 30 37 25
leaf_count=30 21 40 30 24 32 30 37 25
internal_value=0 0.00244445 3.80171e-05 0.000348475 -0.000569446 -0.00102551 -0.00250462 0.000534283
internal_weight=0 94 175 54 145 113 58 55
internal_count=269 94 175 54 145 113 58 55
is_linear=0
shrinkage=0.03


Tree=91
num_leaves=7
num_cat=0
split_feature=5 445 6 4 1 5
split_gain=0.662477 0.420801 0.49501 0.316033 0.320482 0.239214
threshold=16.700000000000003 1.0000000180025095e-35 71.180000000000021 0.17050000000000004 1.0000000180025095e-35 -12.229999999999999
decision_type=10 2 8 8 8 8
left_child=1 2 5 -4 -5 -1
right_child=-2 -3 3 4 -6 -7
leaf_value=0.0011755072642117737 0.0054126617571581964 -0.0037773023318985232 -0.003068049182665759 -0.0021355518204269602 0.0012318105216709767 0.0058154667435446747
leaf_weight=20 23 23 29 34 101 20
leaf_count=20 23 23 29 34 101 20
internal_value=0 6.94811e-05 0.000503187 -0.000226642 0.000383734 0.00349549
internal_weight=0 227 204 164 135 40
internal_count=250 227 204 164 135 40
is_linear=0
shrinkage=0.03


Tree=92
num_leaves=10
num_cat=0
split_feature=5 4 525 525 4 439 2 5 4
split_gain=0.365026 0.240106 1.01205 0.508487 0.363368 0.429731 0.184086 0.362494 0.0043279
threshold=16.700000000000003 0.21800000000000003 1.0000000180025095e-35 1.0000000180025095e-35 0.21800000000000003 1.0000000180025095e-35 1.0000000180025095e-35 -27.339999999999996 0.11600000000000001
decision_type=10 8 2 2 10 2 8 10 10
left_child=1 2 8 4 5 -3 7 -5 -1
right_child=-2 3 -4 6 -6 -7 -8 -9 -10
leaf_value=-0.0013791894586756826 0.004891568242826245 0.0058485648082569237 0.0058168123388738441 0.0022658503843147465 -0.0011721541134951015 0.00084180762836088738 -0.0033718801310826689 -0.003120598388751122 -0.00075508138071745637
leaf_weight=20 22 27 37 23 27 36 31 22 20
leaf_count=20 22 27 37 23 27 36 31 22 20
internal_value=0 0.000856123 0.00224074 0.000213863 0.00173965 0.00298756 -0.00159299 -0.000367525 -0.00106714
internal_weight=0 243 77 166 90 63 76 45 40
internal_count=265 243 77 166 90 63 76 45 40
is_linear=0
shrinkage=0.03


Tree=93
num_leaves=8
num_cat=0
split_feature=6 525 5 304 436 525 3
split_gain=0.216583 0.845889 0.562544 0.24495 0.492551 0.0842915 0.0814799
threshold=80.38000000000001 1.0000000180025095e-35 -12.229999999999999 1.0000000180025095e-35 1.0000000180025095e-35 1.0000000180025095e-35 85.295000000000016
decision_type=10 2 8 2 2 2 10
left_child=2 -2 5 4 6 -1 -4
right_child=1 -3 3 -5 -6 -7 -8
leaf_value=-0.0008535976007941269 -0.00048883116128103389 0.0070130967092700298 0.0020510870100636232 -0.00079454077035188671 0.0052904965696678333 -0.0031948938958346841 0.00018292150321476001
leaf_weight=31 31 24 38 30 34 25 47
leaf_count=31 31 24 38 30 34 25 47
internal_value=0 0.00278474 0.000664612 0.00162805 0.00223879 -0.00189882 0.0010181
internal_weight=0 55 205 149 119 56 85
internal_count=260 55 205 149 119 56 85
is_linear=0
shrinkage=0.03


Tree=94
num_leaves=8
num_cat=0
split_feature=53 14 7 2 525 445 0
split_gain=0.973643 0.51044 0.293476 0.493074 0.196884 0.182578 0.0575255
threshold=1.0000000180025095e-35 1.0000000180025095e-35 0.34685000000000005 inf 1.0000000180025095e-35 1.0000000180025095e-35 1.0000000180025095e-35
decision_type=2 2 10 8 2 2 10
left_child=1 2 3 5 -5 -1 -3
right_child=-2 6 -4 4 -6 -7 -8
leaf_value=-0.0004948741380268564 0.0057282765791751445 -0.0013935947796329857 -0.0020956090718507766 0.0018394096341216937 0.0055738399035504286 0.0025466722995042801 -0.0033734810962674344
leaf_weight=78 32 25 25 24 27 23 28
leaf_count=78 32 25 25 24 27 23 28
internal_value=0 0.000143153 0.000916512 0.00141193 0.00381646 0.000197755 -0.00243957
internal_weight=0 230 177 152 51 101 53
internal_count=262 230 177 152 51 101 53
is_linear=0
shrinkage=0.03


Tree=95
num_leaves=10
num_cat=0
split_feature=2 3 5 436 436 3 290 5 6
split_gain=0.227378 0.526535 0.432042 0.504534 0.34816 0.263237 0.121842 0.0983113 0.0347418
threshold=inf 109.85000000000001 -12.229999999999999 1.0000000180025095e-35 1.0000000180025095e-35 85.295000000000016 1.0000000180025095e-35 inf 58.675000000000004
decision_type=8 8 10 2 2 10 2 8 10
left_child=2 -2 4 -4 5 -1 7 -3 -7
right_child=1 6 3 -5 -6 8 -8 -9 -10
leaf_value=0.0024302199113714908 0.0053933901434564694 -0.0015342951648367139 -0.00012415870092809199 0.0052710019757684599 -0.0034208672337007482 -0.00046221943239548372 0.0025200839806348084 0.0011005281250923873 -0.0021878686627107005
leaf_weight=28 28 26 39 26 37 21 20 25 21
leaf_count=28 28 26 39 26 37 21 20 25 21
internal_value=0 0.00190948 0.000104803 0.00203391 -0.00106708 0.000177062 0.000535538 -0.000242715 -0.00132504
internal_weight=0 99 172 65 107 70 71 51 42
internal_count=271 99 172 65 107 70 71 51 42
is_linear=0
shrinkage=0.03


Tree=96
num_leaves=10
num_cat=0
split_feature=4 525 439 3 6 1 51 6 16
split_gain=0.611393 1.06778 0.516167 0.338624 0.247751 0.126032 0.0954092 0.0599251 0.0472638
