tree
version=v3
num_class=1
num_tree_per_iteration=1
label_index=0
max_feature_idx=525
objective=regression
feature_names=feature0 feature1 feature2 feature3 feature4 feature5 feature6 feature7 feature8 feature9 feature10 feature11 feature12 feature13 feature14 feature15 feature16 feature17 feature18 feature19 feature20 feature21 feature22 feature23 feature24 feature25 feature26 feature27 feature28 feature29 feature30 feature31 feature32 feature33 feature34 feature35 feature36 feature37 feature38 feature39 feature40 feature41 feature42 feature43 feature44 feature45 feature46 feature47 feature48 feature49 feature50 feature51 feature52 feature53 feature54 feature55 feature56 feature57 feature58 feature59 feature60 feature61 feature62 feature63 feature64 feature65 feature66 feature67 feature68 feature69 feature70 feature71 feature72 feature73 feature74 feature75 feature76 feature77 feature78 feature79 feature80 feature81 feature82 feature83 feature84 feature85 feature86 feature87 feature88 feature89 feature90 feature91 feature92 feature93 feature94 feature95 feature96 feature97 feature98 feature99 feature100 feature101 feature102 feature103 feature104 feature105 feature106 feature107 feature108 feature109 feature110 feature111 feature112 feature113 feature114 feature115 feature116 feature117 feature118 feature119 feature120 feature121 feature122 feature123 feature124 feature125 feature126 feature127 feature128 feature129 feature130 feature131 feature132 feature133 feature134 feature135 feature136 feature137 feature138 feature139 feature140 feature141 feature142 feature143 feature144 feature145 feature146 feature147 feature148 feature149 feature150 feature151 feature152 feature153 feature154 feature155 feature156 feature157 feature158 feature159 feature160 feature161 feature162 feature163 feature164 feature165 feature166 feature167 feature168 feature169 feature170 feature171 feature172 feature173 feature174 feature175 feature176 feature177 feature178 feature179 feature180 feature181 feature182 feature183 feature184 feature185 feature186 feature187 feature188 feature189 feature190 feature191 feature192 feature193 feature194 feature195 feature196 feature197 feature198 feature199 feature200 feature201 feature202 feature203 feature204 feature205 feature206 feature207 feature208 feature209 feature210 feature211 feature212 feature213 feature214 feature215 feature216 feature217 feature218 feature219 feature220 feature221 feature222 feature223 feature224 feature225 feature226 feature227 feature228 feature229 feature230 feature231 feature232 feature233 feature234 feature235 feature236 feature237 feature238 feature239 feature240 feature241 feature242 feature243 feature244 feature245 feature246 feature247 feature248 feature249 feature250 feature251 feature252 feature253 feature254 feature255 feature256 feature257 feature258 feature259 feature260 feature261 feature262 feature263 feature264 feature265 feature266 feature267 feature268 feature269 feature270 feature271 feature272 feature273 feature274 feature275 feature276 feature277 feature278 feature279 feature280 feature281 feature282 feature283 feature284 feature285 feature286 feature287 feature288 feature289 feature290 feature291 feature292 feature293 feature294 feature295 feature296 feature297 feature298 feature299 feature300 feature301 feature302 feature303 feature304 feature305 feature306 feature307 feature308 feature309 feature310 feature311 feature312 feature313 feature314 feature315 feature316 feature317 feature318 feature319 feature320 feature321 feature322 feature323 feature324 feature325 feature326 feature327 feature328 feature329 feature330 feature331 feature332 feature333 feature334 feature335 feature336 feature337 feature338 feature339 feature340 feature341 feature342 feature343 feature344 feature345 feature346 feature347 feature348 feature349 feature350 feature351 feature352 feature353 feature354 feature355 feature356 feature357 feature358 feature359 feature360 feature361 feature362 feature363 feature364 feature365 feature366 feature367 feature368 feature369 feature370 feature371 feature372 feature373 feature374 feature375 feature376 feature377 feature378 feature379 feature380 feature381 feature382 feature383 feature384 feature385 feature386 feature387 feature388 feature389 feature390 feature391 feature392 feature393 feature394 feature395 feature396 feature397 feature398 feature399 feature400 feature401 feature402 feature403 feature404 feature405 feature406 feature407 feature408 feature409 feature410 feature411 feature412 feature413 feature414 feature415 feature416 feature417 feature418 feature419 feature420 feature421 feature422 feature423 feature424 feature425 feature426 feature427 feature428 feature429 feature430 feature431 feature432 feature433 feature434 feature435 feature436 feature437 feature438 feature439 feature440 feature441 feature442 feature443 feature444 feature445 feature446 feature447 feature448 feature449 feature450 feature451 feature452 feature453 feature454 feature455 feature456 feature457 feature458 feature459 feature460 feature461 feature462 feature463 feature464 feature465 feature466 feature467 feature468 feature469 feature470 feature471 feature472 feature473 feature474 feature475 feature476 feature477 feature478 feature479 feature480 feature481 feature482 feature483 feature484 feature485 feature486 feature487 feature488 feature489 feature490 feature491 feature492 feature493 feature494 feature495 feature496 feature497 feature498 feature499 feature500 feature501 feature502 feature503 feature504 feature505 feature506 feature507 feature508 feature509 feature510 feature511 feature512 feature513 feature514 feature515 feature516 feature517 feature518 feature519 feature520 feature521 feature522 feature523 feature524 feature525
feature_infos=[0:1] [0:100] [0:1] [4.7300000000000004:3170] [0.012999999999999999:21.920000000000002] [-64.299999999999997:48.450000000000003] [0.46600000000000003:99.799999999999997] [0.0275:78.299999999999997] [0:46] none none none none none [0:1] none [0:1] none [0:1] none none none none none none none none none none none none none none none none [0:1] none none none none none none [0:1] none none none none none none none none [0:1] none [0:1] none none none none none none none none none none none none none none none none none none none none none none none none none none none none none none none none none none none none none none none none none none none none none none none none none none none none none none none none none none none none none none none none none none none none none none none none none none none none none none none none none none none none none none none none none none none none none none none none none none none none none none none none none none none none none none none none none none none none none none none none none none none none none none none none none none none none none none none none none none none none none none none none none none none none none [0:1] none none none none none none none none none none none none none none none none none none none none none none none none none none none none none none none none none none none none none none none none none none none none none none none none none none none none none none none none none none none none none none none none none none none none none none none none none none none none none none none none none none [0:1] none none [0:1] [0:1] none none none none none none none none none none none [0:1] none [0:1] none [0:1] none none none none none none none none none none none none none none none none none none none none none none none none none none none none none none none none none none none none none none none none none none none none none none none none none none none none none none none none none none none none none none none none none none none none none none none none none none none none none none none [0:1] none none none none none none none none none none none none none none none none none none none none none none none none none none none none none none none none none none none none none none none none none none none none none none none none none [0:1] none none [0:1] none none none none none [0:1] none none [0:1] none none none none none none none none none none none none none none none [0:1] [0:1] [0:1] none none none none none none none none none none none none none none none none none none none none none none none none none none none none none none none none none none none none none none none none none none none none none none none none none none none none none none none none none [0:1] [0:1]
tree_sizes=904 732 894 991 991 967 882 909 887 1001 913 830 815 811 984 884 1006 746 1005 832 992 911 906 905 896 1003 909 905 1010 978 914 1001 1005 893 957 1003 1002 832 1088 734 831 843 998 1017 986 930 840 840 1092 750 1054

Tree=0
num_leaves=9
num_cat=0
split_feature=51 5 35 5 4 53 5 436
split_gain=4.71524 1.74268 0.962739 0.987332 0.713605 0.612593 0.176301 0.223361
threshold=1.0000000180025095e-35 -24.599999999999998 1.0000000180025095e-35 -11.799999999999999 0.21800000000000003 1.0000000180025095e-35 1.0000000180025095e-35 1.0000000180025095e-35
decision_type=2 10 2 8 8 2 10 2
left_child=1 -1 -2 4 -4 -3 7 -5
right_child=2 5 3 6 -6 -7 -8 -9
leaf_value=0.017521080949902533 0.020131236301816027 0.023812874805182217 0.021032051115550777 0.0099236188802335947 0.01396731581058233 0.031149129633392607 0.014019808873820762 0.013210468882694839
leaf_weight=25 23 20 22 49 31 21 26 30
leaf_count=25 23 20 22 49 31 21 26 30
internal_value=0 0.0237639 0.0143967 0.0135619 0.0168998 0.0275705 0.011877 0.0111718
internal_weight=0 66 181 158 53 41 105 79
internal_count=247 66 181 158 53 41 105 79
is_linear=0
shrinkage=0.03


Tree=1
num_leaves=7
num_cat=0
split_feature=290 5 3 6 4 525
split_gain=2.0419 1.54506 1.30144 0.557701 0.315236 0.209905
threshold=1.0000000180025095e-35 1.0000000180025095e-35 145.35000000000002 80.450000000000017 0.17600000000000002 1.0000000180025095e-35
decision_type=2 10 8 10 8 2
left_child=1 3 -2 4 -1 -6
right_child=2 -3 -4 -5 5 -7
leaf_value=0.0089004386855023251 0.02463608660351704 0.020328750800002706 0.016335486995384976 0.016588500300970147 0.01412206858508931 0.011374224318530073
leaf_weight=21 34 33 34 34 58 44
leaf_count=21 34 33 34 34 58 44
internal_value=0 0.014428 0.0204858 0.0131877 0.0122476 0.0129367
internal_weight=0 190 68 157 123 102
internal_count=258 190 68 157 123 102
is_linear=0
shrinkage=0.03


Tree=2
num_leaves=9
num_cat=0
split_feature=289 304 3 3 5 4 448 3
split_gain=3.65253 3.83578 1.92353 1.43107 0.766013 0.922199 0.804903 0.476283
threshold=1.0000000180025095e-35 1.0000000180025095e-35 110.95000000000002 86.010000000000019 -24.599999999999998 0.17600000000000002 1.0000000180025095e-35 186.11000000000004
decision_type=2 2 8 8 10 10 2 8
left_child=1 2 -1 -2 6 -6 -5 -8
right_child=3 -3 -4 4 5 -7 7 -9
leaf_value=0.032525288814213127 0.020455258974286079 0.012951748387647732 0.021676801501920348 0.0068206172311745051 0.011122605401853268 0.019397042815883954 0.0096860509578670772 0.015576772714965046
leaf_weight=24 26 31 38 28 22 27 21 30
leaf_count=24 26 31 38 28 22 27 21 30
internal_value=0 0.0215681 0.0258762 0.0140386 0.0127352 0.015682 0.0109074 0.0131512
internal_weight=0 93 62 154 128 49 79 51
internal_count=247 93 62 154 128 49 79 51
is_linear=0
shrinkage=0.03


Tree=3
num_leaves=10
num_cat=0
split_feature=4 386 6 3 290 439 3 448 439
split_gain=2.31398 1.43304 1.26388 0.727089 0.714948 0.421203 0.383698 0.128712 0.0903005
threshold=0.26950000000000007 1.0000000180025095e-35 80.450000000000017 145.35000000000002 1.0000000180025095e-35 1.0000000180025095e-35 110.95000000000002 1.0000000180025095e-35 1.0000000180025095e-35
decision_type=8 2 10 8 2 2 10 2 2
left_child=2 -2 4 8 6 -5 -1 -7 -3
right_child=1 3 -4 5 -6 7 -8 -9 -10
leaf_value=0.018017698042094708 0.018999823254022385 0.0072826538234949112 0.024132999205781568 0.016654475003597326 0.020644493721933527 0.010286984070325675 0.013063370134024059 0.013577664359472691 0.010003595147788039
leaf_weight=24 31 21 31 26 33 23 34 20 23
leaf_count=24 31 21 31 26 33 23 34 20 23
internal_value=0 0.013286 0.0189014 0.0117185 0.0171192 0.0136401 0.0151134 0.0118175 0.00870496
internal_weight=0 144 122 113 91 69 58 43 44
internal_count=266 144 122 113 91 69 58 43 44
is_linear=0
shrinkage=0.03


Tree=4
num_leaves=10
num_cat=0
split_feature=289 304 439 4 16 3 2 439 16
split_gain=2.82373 1.82814 3.43393 1.44689 0.489751 0.399601 0.705359 0.088835 0.269413
threshold=1.0000000180025095e-35 1.0000000180025095e-35 1.0000000180025095e-35 0.17600000000000002 1.0000000180025095e-35 110.95000000000002 1.0000000180025095e-35 1.0000000180025095e-35 1.0000000180025095e-35
decision_type=2 2 2 8 2 10 8 2 2
left_child=1 2 -1 -2 -4 7 -7 -5 -9
right_child=3 -3 4 5 -6 6 -8 8 -10
leaf_value=0.03267897003463336 0.019224713640287518 0.013816134023269819 0.014942637844335126 0.014875263440608978 0.021133626481599135 0.012490284547612474 0.00549753724783659 0.010233069136738777 0.015098236980848013
leaf_weight=21 30 31 23 25 23 37 20 21 20
leaf_count=21 30 31 23 25 23 37 20 21 20
internal_value=0 0.0198399 0.0226271 0.0133175 0.0180381 0.0118767 0.0100367 0.0134658 0.0126063
internal_weight=0 98 67 153 46 123 57 66 41
internal_count=251 98 67 153 46 123 57 66 41
is_linear=0
shrinkage=0.03


Tree=5
num_leaves=10
num_cat=0
split_feature=289 304 439 448 5 3 6 6 5
split_gain=3.38218 2.97784 3.0972 0.880761 1.03038 0.810735 0.580195 0.278518 0.113282
threshold=1.0000000180025095e-35 1.0000000180025095e-35 1.0000000180025095e-35 1.0000000180025095e-35 -24.599999999999998 86.010000000000019 58.675000000000004 80.450000000000017 inf
decision_type=2 2 2 2 10 10 10 8 8
left_child=1 2 -1 4 -2 8 -4 -7 -5
right_child=3 -3 6 5 -6 7 -8 -9 -10
leaf_value=0.033611455075442789 0.0058259009259977726 0.012639926182455383 0.015539416618645189 0.019113531097769736 0.014435741220685567 0.0096662166696041829 0.022765591017901897 0.013812126766358103 0.016056445809081197
leaf_weight=20 29 32 20 20 22 25 20 35 24
leaf_count=20 29 32 20 20 22 25 20 35 24
internal_value=0 0.0200305 0.0239722 0.0127693 0.00953995 0.0143529 0.0191525 0.0120847 0.017446
internal_weight=0 92 60 155 51 104 40 60 44
internal_count=247 92 60 155 51 104 40 60 44
is_linear=0
shrinkage=0.03


Tree=6
num_leaves=9
num_cat=0
split_feature=290 5 448 1 2 3 3 5
split_gain=2.40203 1.18435 0.877673 0.500379 0.449306 0.321477 0.279605 0.165294
threshold=1.0000000180025095e-35 15.755000000000001 1.0000000180025095e-35 11.500000000000002 inf 86.010000000000019 110.95000000000002 -1.0000000180025095e-35
decision_type=2 10 2 8 8 10 10 8
left_child=1 2 7 -4 6 -5 -2 -1
right_child=4 -3 3 5 -6 -7 -8 -9
leaf_value=0.0089884871697944145 0.018221562043763698 0.01739473072245069 0.008320109931352947 0.015359890236248891 0.021151030813767149 0.011371295859359882 0.013592708564322927 0.0056542857104795981
leaf_weight=23 24 23 28 31 22 44 23 32
leaf_count=23 24 23 28 31 22 44 23 32
internal_value=0 0.0110343 0.0101084 0.0117423 0.0176126 0.0130199 0.0159564 0.00704859
internal_weight=0 181 158 103 69 75 47 55
internal_count=250 181 158 103 69 75 47 55
is_linear=0
shrinkage=0.03


Tree=7
num_leaves=9
num_cat=0
split_feature=53 4 304 289 16 4 5 436
split_gain=3.07863 1.91172 1.81456 1.1124 0.801378 0.402271 0.320967 0.379688
threshold=1.0000000180025095e-35 0.26950000000000007 1.0000000180025095e-35 1.0000000180025095e-35 1.0000000180025095e-35 0.17600000000000002 -1.0000000180025095e-35 1.0000000180025095e-35
decision_type=2 8 2 2 2 10 8 2
left_child=1 4 -2 -3 -1 -6 -5 -8
right_child=2 3 -4 6 5 -7 7 -9
leaf_value=0.012457191900350153 0.028048403263092041 0.01533905126982265 0.015422170957816499 0.0054222766078601123 0.020472950600087643 0.015431678877378415 0.0077851344126143619 0.012580293961193251
leaf_weight=40 20 27 21 24 29 28 42 23
leaf_count=40 20 27 21 24 29 28 42 23
internal_value=0 0.0126042 0.0215813 0.0100053 0.0157123 0.0179965 0.00838716 0.00948188
internal_weight=0 213 41 116 97 57 89 65
internal_count=254 213 41 116 97 57 89 65
is_linear=0
shrinkage=0.03


Tree=8
num_leaves=9
num_cat=0
split_feature=4 5 51 1 3 3 439 0
split_gain=2.33041 1.5397 1.36135 0.719139 0.646969 0.431083 0.279682 0.192704
threshold=0.21800000000000003 1.0000000180025095e-35 1.0000000180025095e-35 inf 145.35000000000002 1.0000000180025095e-35 1.0000000180025095e-35 1.0000000180025095e-35
decision_type=8 10 2 8 10 10 2 8
left_child=2 3 -1 7 -4 -5 -7 -2
right_child=1 -3 4 5 -6 6 -8 -9
leaf_value=0.021958208272940125 0.0079445661318355374 0.016631837060314514 0.011533145628248653 0.014006021761645874 0.018158965983561107 0.0077022139141336076 0.011809907588892832 0.0041428815413798604
leaf_weight=29 28 31 36 27 21 35 26 21
leaf_count=29 28 31 36 27 21 35 26 21
internal_value=0 0.0105942 0.0166665 0.00922807 0.0139742 0.01085 0.00945303 0.00631527
internal_weight=0 168 86 137 57 88 61 49
internal_count=254 168 86 137 57 88 61 49
is_linear=0
shrinkage=0.03


Tree=9
num_leaves=10
num_cat=0
split_feature=51 304 6 4 439 448 525 525 439
split_gain=3.12293 3.52618 1.75716 0.748185 0.852405 0.478237 0.382294 0.07736 0.0142274
threshold=1.0000000180025095e-35 1.0000000180025095e-35 80.450000000000017 0.21800000000000003 1.0000000180025095e-35 1.0000000180025095e-35 1.0000000180025095e-35 1.0000000180025095e-35 1.0000000180025095e-35
decision_type=2 2 8 8 2 2 2 2 2
left_child=1 2 -1 4 -2 7 8 -5 -7
right_child=3 -3 -4 5 -6 6 -8 -9 -10
leaf_value=0.015856030531493683 0.0091977359522134074 0.008846050792001188 0.027095302228605556 0.0058755176869983022 0.017193383947131224 0.013218054105730161 0.0085817606337368485 0.0083913587838072672 0.012202687458031707
leaf_weight=21 20 25 31 22 30 23 35 22 27
leaf_count=21 20 25 31 22 30 23 35 22 27
internal_value=0 0.018105 0.0225564 0.0108798 0.0139951 0.00967225 0.0109865 0.00713344 0.0126698
internal_weight=0 77 52 179 50 129 85 44 50
internal_count=256 77 52 179 50 129 85 44 50
is_linear=0
shrinkage=0.03


Tree=10
num_leaves=9
num_cat=0
split_feature=290 304 5 5 5 16 448 0
split_gain=3.12048 1.66699 1.48496 1.35493 0.179831 0.232951 0.0569081 0.0215752
threshold=1.0000000180025095e-35 1.0000000180025095e-35 1.0000000180025095e-35 -11.799999999999999 -11.799999999999999 1.0000000180025095e-35 1.0000000180025095e-35 1.0000000180025095e-35
decision_type=2 2 10 10 8 2 2 8
left_child=2 3 4 -2 6 7 -1 -6
right_child=1 -3 -4 -5 5 -7 -8 -9
leaf_value=0.0097175129103873464 0.017147484181076287 0.012261868606751354 0.016481939330697058 0.027623605705797673 0.010836610103837706 0.0072840494536903014 0.011630200799554586 0.009648055553053772
leaf_weight=21 25 26 36 20 27 43 42 28
leaf_count=21 25 26 36 20 27 43 42 28
internal_value=0 0.0183094 0.0109738 0.0218035 0.00974214 0.00893825 0.0109926 0.0102315
internal_weight=0 71 197 45 161 98 63 55
internal_count=268 71 197 45 161 98 63 55
is_linear=0
shrinkage=0.03


Tree=11
num_leaves=8
num_cat=0
split_feature=4 51 304 35 16 448 1
split_gain=2.45633 2.76636 1.47313 0.352111 0.283857 0.454524 0.124455
threshold=0.12250000000000001 1.0000000180025095e-35 1.0000000180025095e-35 1.0000000180025095e-35 1.0000000180025095e-35 1.0000000180025095e-35 4.3500000000000005
decision_type=8 2 2 2 2 2 8
left_child=-1 2 -2 -3 6 -6 -5
right_child=1 3 -4 4 5 -7 -8
leaf_value=0.020791161401818196 0.020694247920664825 0.012732414595190098 0.011266990561539736 0.0090418924763798706 0.0066843170508742332 0.011672820291714741 0.0063769289014263724
leaf_weight=27 35 22 26 24 25 48 46
leaf_count=27 35 22 26 24 25 48 46
internal_value=0 0.0112173 0.0166761 0.00919915 0.00865558 0.00996443 0.00729063
internal_weight=0 226 61 165 143 73 70
internal_count=253 226 61 165 143 73 70
is_linear=0
shrinkage=0.03


Tree=12
num_leaves=8
num_cat=0
split_feature=53 4 5 7 1 0 6
split_gain=1.57488 0.774155 0.834522 0.736086 0.574615 0.437119 0.638449
threshold=1.0000000180025095e-35 0.12250000000000001 -24.599999999999998 1.0000000180025095e-35 84.000000000000014 1.0000000180025095e-35 71.080000000000013
decision_type=2 8 10 10 8 8 10
left_child=1 -1 3 4 -3 6 -4
right_child=-2 2 5 -5 -6 -7 -8
leaf_value=0.016078971039131282 0.017726293044949049 0.0059980206871810158 0.016444111186130022 0.0038528746228827077 0.01166034095480831 0.0093585235215557193 0.010499049546518202
leaf_weight=25 38 23 37 23 54 28 29
leaf_count=25 38 23 37 23 54 28 29
internal_value=0 0.0111103 0.01047 0.00856229 0.009969 0.0124994 0.0138319
internal_weight=0 219 194 100 77 94 66
internal_count=257 219 194 100 77 94 66
is_linear=0
shrinkage=0.03


Tree=13
num_leaves=8
num_cat=0
split_feature=290 3 4 4 5 6 448
split_gain=1.76231 1.15584 1.11616 0.446241 0.983163 0.60388 0.382149
threshold=1.0000000180025095e-35 145.35000000000002 0.12250000000000001 0.17600000000000002 15.755000000000001 80.450000000000017 1.0000000180025095e-35
decision_type=2 8 8 10 8 8 2
left_child=2 -2 -1 4 -4 -5 -6
right_child=1 -3 3 5 6 -7 -8
leaf_value=0.017013298973049262 0.019614564875418392 0.012212646401210411 0.0042766675116110804 0.0075927147069679846 0.0076608926351384625 0.013931719413590862 0.012611386878803992
leaf_weight=21 39 37 34 21 23 38 36
leaf_count=21 39 37 34 21 23 38 36
internal_value=0 0.016011 0.0105303 0.00963467 0.00833997 0.0116755 0.0106815
internal_weight=0 76 173 152 93 59 59
internal_count=249 76 173 152 93 59 59
is_linear=0
shrinkage=0.03


Tree=14
num_leaves=10
num_cat=0
split_feature=51 304 4 439 6 4 3 2 3
split_gain=1.93013 2.7984 0.616551 1.05583 1.40303 0.39113 0.194449 0.225988 0.125358
threshold=1.0000000180025095e-35 1.0000000180025095e-35 0.26950000000000007 1.0000000180025095e-35 90.25500000000001 0.12250000000000001 186.11000000000004 1.0000000180025095e-35 86.010000000000019
decision_type=2 2 8 2 8 10 8 8 10
left_child=1 5 3 -2 -5 -1 8 -8 -4
right_child=2 -3 6 4 -6 -7 7 -9 -10
leaf_value=0.017536319055361675 0.0078511808363986631 0.0075492720857262604 0.0086453846013173456 0.019087231036844766 0.0086037174034863714 0.023216833574697376 0.011263507901337639 0.0075496108325896786 0.0055580705918114757
leaf_weight=24 37 25 20 27 20 20 29 30 29
leaf_count=24 37 25 20 27 20 20 29 30 29
internal_value=0 0.0155643 0.0097143 0.0116419 0.0146262 0.0201184 0.00821502 0.00937509 0.0068182
internal_weight=0 69 192 84 47 44 108 59 49
internal_count=261 69 192 84 47 44 108 59 49
is_linear=0
shrinkage=0.03


Tree=15
num_leaves=9
num_cat=0
split_feature=448 1 6 51 2 6 525 6
split_gain=1.40768 1.03406 1.57383 2.32387 0.814555 0.62409 0.206271 0.0340226
threshold=1.0000000180025095e-35 11.500000000000002 80.450000000000017 1.0000000180025095e-35 inf 1.0000000180025095e-35 1.0000000180025095e-35 71.080000000000013
decision_type=2 8 8 2 8 10 2 10
left_child=6 5 7 -4 -5 -2 -1 -3
right_child=1 2 3 4 -6 -7 -8 -9
leaf_value=0.0091947244876064357 0.0056332762815201505 0.01046156933531165 0.023330484288744627 0.009754394729097839 0.017358267927442547 0.012206421643495559 0.005515523433568887 0.0088934803381562223
leaf_weight=24 26 33 29 32 21 26 32 20
leaf_count=24 26 33 29 32 21 26 32 20
internal_value=0 0.0125143 0.0138989 0.016503 0.0127673 0.00891985 0.00709232 0.00986984
internal_weight=0 187 135 82 53 52 56 53
internal_count=243 187 135 82 53 52 56 53
is_linear=0
shrinkage=0.03


Tree=16
num_leaves=10
num_cat=0
split_feature=289 304 439 16 439 16 4 3 4
split_gain=1.49737 1.87839 2.66791 0.530121 0.457866 0.791141 0.767853 0.631037 0.119364
threshold=1.0000000180025095e-35 1.0000000180025095e-35 1.0000000180025095e-35 1.0000000180025095e-35 1.0000000180025095e-35 1.0000000180025095e-35 0.26950000000000007 86.010000000000019 1.0000000180025095e-35
decision_type=2 2 2 2 2 2 8 10 10
left_child=1 2 -1 -4 7 8 -7 -2 -6
right_child=4 -3 3 -5 5 6 -8 -9 -10
leaf_value=0.024958702046424149 0.0094992189832469997 0.0071419106165487916 0.0092433305808271356 0.015495867482993912 0.0055425328727472904 0.017151209872215984 0.009332455842970655 0.0035810839117414524 0.0086676217759536073
leaf_weight=21 34 31 26 23 22 20 26 31 22
leaf_count=21 34 31 26 23 22 20 26 31 22
internal_value=0 0.0132897 0.0160123 0.0121782 0.00859535 0.00998102 0.0127319 0.00667672 0.00710508
internal_weight=0 101 70 49 155 90 46 65 44
internal_count=256 101 70 49 155 90 46 65 44
is_linear=0
shrinkage=0.03


Tree=17
num_leaves=7
num_cat=0
split_feature=53 436 3 439 4 14
split_gain=1.36142 0.800297 0.825763 0.681079 1.12905 0.41658
threshold=1.0000000180025095e-35 1.0000000180025095e-35 145.35000000000002 1.0000000180025095e-35 0.21800000000000003 1.0000000180025095e-35
decision_type=2 2 8 2 10 2
left_child=1 3 -3 -1 5 -5
right_child=-2 2 -4 4 -6 -7
leaf_value=0.0031562495363298159 0.015088938729717366 0.0086532184553586612 0.01637850878667086 0.0076174944547385401 0.012524779882067098 0.0030455868272110821
leaf_weight=29 31 33 20 71 39 24
leaf_count=29 31 33 20 71 39 24
internal_value=0 0.00836602 0.0115684 0.00732475 0.00822689 0.00646249
internal_weight=0 216 53 163 134 95
internal_count=247 216 53 163 134 95
is_linear=0
shrinkage=0.03


Tree=18
num_leaves=10
num_cat=0
split_feature=290 304 4 525 4 6 525 16 448
split_gain=2.21042 1.3003 1.01272 1.06328 0.796127 0.51825 0.44398 0.256291 0.0831937
threshold=1.0000000180025095e-35 1.0000000180025095e-35 0.26950000000000007 1.0000000180025095e-35 0.17600000000000002 1.0000000180025095e-35 1.0000000180025095e-35 1.0000000180025095e-35 1.0000000180025095e-35
decision_type=2 2 8 2 10 10 2 2 2
left_child=2 5 3 4 -1 -2 7 -4 -8
right_child=1 -3 6 -5 -6 -7 8 -9 -10
leaf_value=0.0036200150807521171 0.021553426316007974 0.0097953516022494889 0.0099091812562854854 0.014952715840087928 0.011185271522450831 0.014723896414507181 0.0030135692368544963 0.0060333464274715098 0.0055136449813842766
leaf_weight=21 20 29 34 34 31 20 23 28 25
leaf_count=21 20 29 34 34 31 20 23 28 25
internal_value=0 0.0146321 0.00838855 0.0108274 0.00813007 0.0181387 0.00648181 0.0081588 0.00431569
internal_weight=0 69 196 86 52 40 110 62 48
internal_count=265 69 196 86 52 40 110 62 48
is_linear=0
shrinkage=0.03


Tree=19
num_leaves=8
num_cat=0
split_feature=3 1 302 304 3 4 439
split_gain=1.79503 0.634499 0.463156 0.775289 0.282262 0.643723 0.0830369
threshold=86.010000000000019 1.0000000180025095e-35 1.0000000180025095e-35 1.0000000180025095e-35 186.11000000000004 0.21800000000000003 1.0000000180025095e-35
decision_type=8 10 2 2 10 10 2
left_child=6 2 3 -2 5 -4 -1
right_child=1 -3 4 -5 -6 -7 -8
leaf_value=0.013024754944656576 0.013719466028735042 0.0029778417159104717 0.0052838178556911374 0.0064853816200047725 0.010167019299697131 0.010608707668466701 0.015692608920591215
leaf_weight=21 30 24 84 24 24 27 21
leaf_count=21 30 24 84 24 24 27 21
internal_value=0 0.0075727 0.00815618 0.0105043 0.00721692 0.00657906 0.0143587
internal_weight=0 213 189 54 135 111 42
internal_count=255 213 189 54 135 111 42
is_linear=0
shrinkage=0.03


Tree=20
num_leaves=10
num_cat=0
split_feature=289 1 3 0 7 448 2 2 3
split_gain=1.70167 1.16592 2.99142 0.64243 0.425435 0.386457 0.752367 0.482398 0.285974
threshold=1.0000000180025095e-35 11.500000000000002 110.95000000000002 1.0000000180025095e-35 0.23435000000000003 1.0000000180025095e-35 1.0000000180025095e-35 1.0000000180025095e-35 145.35000000000002
decision_type=2 8 8 10 10 2 8 8 8
left_child=1 -1 -3 -4 5 7 8 -2 -7
right_child=4 2 3 -5 -6 6 -8 -9 -10
leaf_value=0.0081220153568248299 0.0092403671166135203 0.024654174883450779 0.014423195144838906 0.0070873966287555434 0.0041347374022006984 0.0054870217342561636 0.013236978638118931 0.0033279725018402805 0.0099014423288404929
leaf_weight=29 27 21 22 21 22 28 35 23 25
leaf_count=29 27 21 22 21 22 28 35 23 25
internal_value=0 0.0131121 0.0153732 0.0108406 0.00800915 0.00862681 0.00982349 0.00652067 0.0075693
internal_weight=0 93 64 43 160 138 88 50 53
internal_count=253 93 64 43 160 138 88 50 53
is_linear=0
shrinkage=0.03


Tree=21
num_leaves=9
num_cat=0
split_feature=3 5 7 436 5 3 439 16
split_gain=1.74741 1.22864 1.00399 0.675854 0.583766 0.398949 0.24183 0.147702
threshold=86.010000000000019 -24.599999999999998 0.059900000000000002 1.0000000180025095e-35 1.0000000180025095e-35 186.11000000000004 1.0000000180025095e-35 1.0000000180025095e-35
decision_type=8 10 10 2 10 8 2 2
left_child=-1 5 3 4 -3 6 -2 -7
right_child=1 2 -4 -5 -6 7 -8 -9
leaf_value=0.014509212638323122 0.0055748067682608957 0.0070972623896192423 0.0045540967670967799 0.015310361221033547 0.013592674881219863 0.005791078755632042 0.0014423880554162538 0.008776173746356598
leaf_weight=39 25 33 24 28 20 35 26 26
leaf_count=39 25 33 24 28 20 35 26 26
internal_value=0 0.00761195 0.00994335 0.0115402 0.00954836 0.00542625 0.00346808 0.00706341
internal_weight=0 217 105 81 53 112 51 61
internal_count=256 217 105 81 53 112 51 61
is_linear=0
shrinkage=0.03


Tree=22
num_leaves=9
num_cat=0
split_feature=4 14 6 3 290 3 2 436
split_gain=1.01295 0.642972 0.699063 0.604266 0.510181 0.207288 0.37821 0.04636
threshold=0.26950000000000007 1.0000000180025095e-35 80.450000000000017 110.95000000000002 1.0000000180025095e-35 186.11000000000004 1.0000000180025095e-35 1.0000000180025095e-35
decision_type=8 2 8 10 2 8 8 2
left_child=1 2 -1 -4 5 7 -7 -2
right_child=4 -3 3 -5 -6 6 -8 -9
leaf_value=0.0083435595568946818 0.0050359308956698934 0.0066469935387853656 0.01059185906779021 0.017256206899741663 0.0096369468984439186 0.0089808979222331855 0.004359451401978731 0.0032813798435761231
leaf_weight=33 33 31 24 25 38 34 30 23
leaf_count=33 33 31 24 25 38 34 30 23
internal_value=0 0.0103275 0.0117189 0.013992 0.00660757 0.00564826 0.00681459 0.00431531
internal_weight=0 113 82 49 158 120 64 56
internal_count=271 113 82 49 158 120 64 56
is_linear=0
shrinkage=0.03


Tree=23
num_leaves=9
num_cat=0
split_feature=3 7 0 4 448 3 2 3
split_gain=2.26352 1.45956 1.31066 1.47307 0.397504 0.302955 0.11017 1.20507e-06
threshold=86.010000000000019 0.23435000000000003 1.0000000180025095e-35 0.26950000000000007 1.0000000180025095e-35 145.35000000000002 1.0000000180025095e-35 145.35000000000002
decision_type=8 10 8 8 2 8 8 10
left_child=-1 2 3 6 -5 -4 -2 -7
right_child=1 -3 5 4 -6 7 -8 -9
leaf_value=0.015116032890793753 0.013250828439207827 0.00060446281582117076 0.0023770917400717734 0.0048609066388702821 0.0094135985573132828 0.0065535425953567022 0.016295280610676855 0.0065433677980168293
leaf_weight=41 23 25 25 28 45 20 20 22
leaf_count=41 23 25 25 28 45 20 20 22
internal_value=0 0.00740363 0.00833248 0.010262 0.00766736 0.00499182 0.0146669 0.00654821
internal_weight=0 208 183 116 73 67 43 42
internal_count=249 208 183 116 73 67 43 42
is_linear=0
shrinkage=0.03


Tree=24
num_leaves=9
num_cat=0
split_feature=290 304 5 5 5 6 1 16
split_gain=3.06785 1.13273 0.890067 0.498356 0.426745 0.502103 0.334419 0.357879
threshold=1.0000000180025095e-35 1.0000000180025095e-35 1.0000000180025095e-35 -11.799999999999999 -11.799999999999999 80.450000000000017 inf 1.0000000180025095e-35
decision_type=2 2 10 10 8 10 8 2
left_child=2 3 4 -2 5 -1 -6 -8
right_child=1 -3 -4 -5 6 -7 7 -9
leaf_value=0.0045484083628674092 0.013120570059159193 0.0083702934623485614 0.010112013070444974 0.019188876428774426 0.00053997260661652448 0.010164403789879187 0.0069603096025771102 0.0021131731750658497
leaf_weight=38 29 31 35 21 26 23 29 26
leaf_count=38 29 31 35 21 26 23 29 26
internal_value=0 0.0128758 0.00582696 0.0156693 0.00477079 0.00666591 0.00334359 0.00466894
internal_weight=0 81 177 50 142 61 81 55
internal_count=258 81 177 50 142 61 81 55
is_linear=0
shrinkage=0.03


Tree=25
num_leaves=10
num_cat=0
split_feature=289 5 4 439 16 3 16 2 5
split_gain=1.47442 0.935779 1.05146 0.647135 1.6606 0.991993 0.609585 0.208518 0.146809
threshold=1.0000000180025095e-35 -11.799999999999999 1.0000000180025095e-35 1.0000000180025095e-35 1.0000000180025095e-35 110.95000000000002 1.0000000180025095e-35 1.0000000180025095e-35 -24.599999999999998
decision_type=2 10 10 2 2 8 2 8 10
left_child=1 2 -1 6 7 -6 -2 -5 -8
right_child=3 -3 -4 4 5 -7 8 -9 -10
leaf_value=0.0044323909559170717 0.0069156781541964705 0.014233361016958952 0.012064466909928755 0.0051935251777131966 0.016087305881215298 0.0075745495219182758 0.0031283912602812049 0.0011190589349716902 -0.00050655052252113815
leaf_weight=32 31 38 33 26 22 28 20 20 20
leaf_count=32 31 38 33 26 22 28 20 20 20
internal_value=0 0.0104935 0.00830714 0.0059296 0.00753563 0.0113202 0.00375807 0.00342202 0.00131092
internal_weight=0 103 65 167 96 50 71 46 40
internal_count=270 103 65 167 96 50 71 46 40
is_linear=0
shrinkage=0.03


Tree=26
num_leaves=9
num_cat=0
split_feature=448 16 6 6 439 4 6 439
split_gain=1.20571 1.10507 1.38967 0.803352 0.739583 0.550538 0.52704 0.20528
threshold=1.0000000180025095e-35 1.0000000180025095e-35 80.450000000000017 90.25500000000001 1.0000000180025095e-35 0.26950000000000007 58.675000000000004 1.0000000180025095e-35
decision_type=2 2 10 8 2 8 10 2
left_child=5 3 6 -2 -5 -1 7 -3
right_child=1 2 -4 4 -6 -7 -8 -9
leaf_value=0.0079827923395416958 0.010258907226680387 0.013066242577221531 0.018206068793311714 0.0071577736525796345 -0.00018278987279960086 0.0020194834134369894 0.0061339468598879615 0.0095250988163067679
leaf_weight=22 31 26 20 30 21 38 29 34
leaf_count=22 31 26 20 30 21 38 29 34
internal_value=0 0.00908116 0.0110604 0.00645025 0.00413519 0.00420603 0.00945461 0.0110596
internal_weight=0 191 109 82 51 60 89 60
internal_count=251 191 109 82 51 60 89 60
is_linear=0
shrinkage=0.03


Tree=27
num_leaves=9
num_cat=0
split_feature=51 304 5 3 4 6 5 1
split_gain=1.81926 1.24712 0.886329 0.716664 0.440179 0.620295 0.58764 0.0109048
threshold=1.0000000180025095e-35 1.0000000180025095e-35 -11.799999999999999 86.010000000000019 1.0000000180025095e-35 80.450000000000017 15.755000000000001 84.000000000000014
decision_type=2 2 10 8 10 8 8 8
left_child=1 2 -1 -2 6 -6 -5 -8
right_child=3 -3 -4 4 5 -7 7 -9
leaf_value=0.010883754220604896 0.010126573619312577 0.0067529761386103931 0.019356809735298155 -0.00044891070331568305 0.0042079930623563433 0.0097093534469604482 0.0046556435174508288 0.0055074778150178885
leaf_weight=25 31 30 20 23 39 35 21 38
leaf_count=25 31 30 20 23 39 35 21 38
internal_value=0 0.0114909 0.0146496 0.00596038 0.00513248 0.00680999 0.00361863 0.00520428
internal_weight=0 75 45 187 156 74 82 59
internal_count=262 75 45 187 156 74 82 59
is_linear=0
shrinkage=0.03


Tree=28
num_leaves=10
num_cat=0
split_feature=290 304 448 2 306 6 439 5 436
split_gain=1.65914 0.860526 0.288113 0.495053 0.267377 0.260905 0.664825 0.367149 0.126888
threshold=1.0000000180025095e-35 1.0000000180025095e-35 1.0000000180025095e-35 1.0000000180025095e-35 1.0000000180025095e-35 58.675000000000004 1.0000000180025095e-35 15.755000000000001 1.0000000180025095e-35
decision_type=2 2 2 8 2 10 2 8 2
left_child=2 4 3 -1 -2 7 -7 -4 -9
right_child=1 -3 5 -5 -6 6 -8 8 -10
leaf_value=0.0066464819888850399 0.011283364266984992 0.0062488515907898542 0.0022182758152484894 0.001143308289709591 0.015859887954778971 0.0039130066617508417 0.010395788921841554 0.0049592188080506668 0.0081224431604146954
leaf_weight=28 27 24 26 31 20 24 35 21 25
leaf_count=28 27 24 26 31 20 24 35 21 25
internal_value=0 0.0108707 0.00549573 0.00375498 0.0132308 0.00627973 0.00775872 0.00506778 0.00667836
internal_weight=0 71 190 59 47 131 59 72 46
internal_count=261 71 190 59 47 131 59 72 46
is_linear=0
shrinkage=0.03


Tree=29
num_leaves=10
num_cat=0
split_feature=289 304 439 3 0 439 3 3 2
split_gain=1.58941 1.39346 3.07386 0.731691 0.834298 0.287692 1.2945 1.13421 0.201034
threshold=1.0000000180025095e-35 1.0000000180025095e-35 1.0000000180025095e-35 186.11000000000004 1.0000000180025095e-35 1.0000000180025095e-35 145.35000000000002 110.95000000000002 inf
decision_type=2 2 2 10 10 2 8 8 8
left_child=1 2 -1 4 5 6 -2 -7 -4
right_child=3 -3 8 -5 -6 7 -8 -9 -10
leaf_value=0.02373391244933009 -0.0015507792058185889 0.0062805460648791443 0.0073381564287202695 0.011769871878038558 0.010881660244194791 0.01081398518393851 0.0084636102936097562 0.0030681323583754104 0.011540802704170346
leaf_weight=20 26 31 21 21 24 27 21 46 20
leaf_count=20 26 31 21 21 24 27 21 46 20
internal_value=0 0.0114597 0.0140917 0.00653851 0.0057756 0.00475439 0.00292374 0.00593304 0.00938823
internal_weight=0 92 61 165 144 120 47 73 41
internal_count=257 92 61 165 144 120 47 73 41
is_linear=0
shrinkage=0.03


Tree=30
num_leaves=9
num_cat=0
split_feature=3 3 386 4 439 439 4 53
split_gain=1.55275 1.0971 0.666915 0.543076 0.531459 0.427241 0.406584 0.0538687
threshold=86.010000000000019 186.11000000000004 1.0000000180025095e-35 0.21800000000000003 1.0000000180025095e-35 1.0000000180025095e-35 0.26950000000000007 1.0000000180025095e-35
decision_type=8 10 2 10 2 2 8 2
left_child=5 2 7 4 -4 -1 -3 -2
right_child=1 6 3 -5 -6 -7 -8 -9
leaf_value=0.0093305321645457302 0.0072191934739904741 0.013303029941661017 0.0057549623199380359 0.0074725455268015778 0.0013619626957840998 0.015531471812864765 0.0074671062344515869 0.0093679879397885607
leaf_weight=20 21 21 39 31 68 20 22 21
leaf_count=20 21 21 39 31 68 20 22 21
internal_value=0 0.006012 0.00498354 0.00397613 0.00296315 0.012431 0.0103172 0.00829359
internal_weight=0 223 180 138 107 40 43 42
internal_count=263 223 180 138 107 40 43 42
is_linear=0
shrinkage=0.03


Tree=31
num_leaves=10
num_cat=0
split_feature=53 5 436 2 0 14 2 5 525
split_gain=1.94169 0.429277 0.698397 0.525313 0.277423 0.176324 0.139518 0.551349 0.000559732
threshold=1.0000000180025095e-35 inf 1.0000000180025095e-35 1.0000000180025095e-35 1.0000000180025095e-35 1.0000000180025095e-35 1.0000000180025095e-35 1.0000000180025095e-35 1.0000000180025095e-35
decision_type=2 8 2 8 8 2 8 10 2
left_child=1 4 3 -3 6 -6 7 -1 -2
right_child=8 2 -4 -5 5 -7 -8 -9 -10
leaf_value=0.0044872113561275628 0.012233054600656032 0.0049784502256661652 0.0077199348832734599 -0.0013874066534585185 0.0060492178483929652 0.0022925023368620514 0.0083666076697409154 0.010246709531971385 0.012454812185838819
leaf_weight=52 21 20 22 28 22 23 39 21 20
leaf_count=52 21 20 22 28 22 23 39 21 20
internal_value=0 0.00524751 0.00329372 0.00126503 0.00611862 0.00412912 0.00691798 0.00614405 0.0123412
internal_weight=0 227 70 48 157 45 112 73 41
internal_count=268 227 70 48 157 45 112 73 41
is_linear=0
shrinkage=0.03


Tree=32
num_leaves=10
num_cat=0
split_feature=289 304 6 4 6 1 2 16 4
split_gain=1.18072 1.32385 0.569164 0.904203 0.427042 0.590422 0.237611 0.498094 0.218078
threshold=1.0000000180025095e-35 1.0000000180025095e-35 80.450000000000017 1.0000000180025095e-35 71.080000000000013 1.0000000180025095e-35 1.0000000180025095e-35 1.0000000180025095e-35 0.17600000000000002
decision_type=2 2 8 10 10 8 8 2 10
left_child=1 2 -1 -4 5 -2 7 -7 -6
right_child=4 -3 3 -5 8 6 -8 -9 -10
leaf_value=0.0080840305984020231 0.0098978433675634171 0.0038667487623170018 0.0092107590017840267 0.018231751900166272 0.00069614325560486082 0.0033990137840235798 0.0027885757934521223 0.0093107556986986948 0.0047064181328143762
leaf_weight=27 26 30 20 20 26 29 34 23 23
leaf_count=27 26 30 20 20 26 29 34 23 23
internal_value=0 0.00910435 0.0114495 0.0137213 0.00491442 0.00593638 0.00473873 0.00601382 0.00257852
internal_weight=0 97 67 40 161 112 86 52 49
internal_count=258 97 67 40 161 112 86 52 49
is_linear=0
shrinkage=0.03


Tree=33
num_leaves=9
num_cat=0
split_feature=290 3 5 3 3 5 6 5
split_gain=1.56575 0.677248 0.535443 0.745369 0.604186 0.347174 0.456212 0.112169
threshold=1.0000000180025095e-35 110.95000000000002 inf 86.010000000000019 1.0000000180025095e-35 1.0000000180025095e-35 90.25500000000001 -24.599999999999998
decision_type=2 8 8 10 10 10 8 10
left_child=2 -2 3 -1 -4 6 -5 -3
right_child=1 7 4 5 -6 -7 -8 -9
leaf_value=0.0097743459281045934 0.013861754429729088 0.0062573784247040749 0.0051029169788076112 0.00049770074295661139 -0.00072963714719780028 0.0070860336354837336 0.005495305227647935 0.008939324138723349
leaf_weight=30 23 25 33 31 31 29 35 32
leaf_count=30 23 25 33 31 31 29 35 32
internal_value=0 0.00951641 0.00450935 0.00565192 0.00227777 0.0043501 0.00314795 0.00776303
internal_weight=0 80 189 125 64 95 66 57
internal_count=269 80 189 125 64 95 66 57
is_linear=0
shrinkage=0.03


Tree=34
num_leaves=10
num_cat=0
split_feature=448 1 6 2 6 3 5 5 525
split_gain=1.58999 1.17054 1.7777 1.35513 0.585239 0.583368 0.455836 0.356417 0.0966204
threshold=1.0000000180025095e-35 inf 80.450000000000017 inf 90.25500000000001 145.35000000000002 -24.599999999999998 -24.599999999999998 1.0000000180025095e-35
decision_type=2 8 8 8 8 10 10 10 2
left_child=7 4 5 6 -2 -3 -4 -1 -6
right_child=1 2 3 -5 8 -7 -8 -9 -10
leaf_value=-4.8860583839745358e-05 0.0086817060518078505 0.0081515958075496289 0.0072373176826273687 0.017737446358570687 0.003870948969852179 0.0013184042874237764 0.012310907811857759 0.0046963985841388684 0.00092207891622092574
leaf_weight=29 20 22 34 26 20 23 30 28 20
leaf_count=29 20 22 34 26 20 23 30 28 20
internal_value=0 0.00797807 0.00952762 0.0119619 0.00449158 0.00465908 0.00961556 0.00228214 0.00239651
internal_weight=0 195 135 90 60 45 64 57 40
internal_count=252 195 135 90 60 45 64 57 40
is_linear=0
shrinkage=0.03


Tree=35
num_leaves=10
num_cat=0
split_feature=53 304 35 4 16 2 3 439 3
split_gain=1.37979 1.17601 0.489351 0.747264 0.63315 0.33884 0.284331 0.231839 0.0317317
threshold=1.0000000180025095e-35 1.0000000180025095e-35 1.0000000180025095e-35 0.21800000000000003 1.0000000180025095e-35 1.0000000180025095e-35 110.95000000000002 1.0000000180025095e-35 110.95000000000002
decision_type=2 2 2 8 2 8 8 2 10
left_child=2 -2 -1 4 -4 6 -5 -7 -6
right_child=1 -3 3 5 8 7 -8 -9 -10
leaf_value=0.008093173139375345 0.015649990461766718 0.00536209801241057 0.0024003827172730651 0.0012765473514222182 0.0096205951725798003 -0.0016752297846999551 0.0050837687088589349 0.0024072631430481712 0.0079509073309600355
leaf_weight=29 20 20 21 26 21 21 55 31 20
leaf_count=29 20 20 21 26 21 21 55 31 20
internal_value=0 0.010506 0.00445716 0.00391642 0.00663643 0.00264844 0.0038617 0.000758564 0.00880611
internal_weight=0 40 224 195 62 133 81 52 41
internal_count=264 40 224 195 62 133 81 52 41
is_linear=0
shrinkage=0.03


Tree=36
num_leaves=10
num_cat=0
split_feature=5 289 6 448 5 0 3 4 1
split_gain=0.997619 0.691555 0.548693 0.395467 0.221447 0.510992 0.175491 0.146797 0.0197311
threshold=-24.599999999999998 1.0000000180025095e-35 58.675000000000004 1.0000000180025095e-35 -24.599999999999998 1.0000000180025095e-35 145.35000000000002 0.17600000000000002 1.0000000180025095e-35
decision_type=10 2 10 2 8 8 8 10 8
left_child=4 2 -2 -3 7 8 -5 -1 -6
right_child=1 3 -4 6 5 -7 -8 -9 -10
leaf_value=-0.00029787491513574919 0.0066766920648515223 0.0086261306488886469 0.012631019742872852 0.0051058376650325952 0.0015339783977251498 0.0071898581907153128 0.0016251933917572551 0.0032533552162349222 0.0027351596477092244
leaf_weight=22 30 20 26 32 20 30 22 20 32
leaf_count=22 30 20 26 32 20 30 22 20 32
internal_value=0 0.00692593 0.0094412 0.00502248 0.00316463 0.00407196 0.0036878 0.00139319 0.00227317
internal_weight=0 130 56 74 124 82 54 42 52
internal_count=254 130 56 74 124 82 54 42 52
is_linear=0
shrinkage=0.03


Tree=37
num_leaves=8
num_cat=0
split_feature=448 1 304 51 3 3 6
split_gain=1.25165 0.705878 0.789005 1.20499 1.14959 0.336638 0.149808
threshold=1.0000000180025095e-35 11.500000000000002 1.0000000180025095e-35 1.0000000180025095e-35 86.010000000000019 145.35000000000002 1.0000000180025095e-35
decision_type=2 8 2 2 10 8 10
left_child=6 5 3 -3 -5 -2 -1
right_child=1 2 -4 4 -6 -7 -8
leaf_value=0.0028750972148469263 0.00068221446126699443 0.01324933602164189 0.0028850779560609507 0.010345905383412794 0.0034013515037174024 0.0054616808728314937 -0.00018408595025539397
leaf_weight=34 21 36 26 41 45 36 25
leaf_count=34 21 36 26 41 45 36 25
internal_value=0 0.00653745 0.00762994 0.00864114 0.00671213 0.00370082 0.00157883
internal_weight=0 205 148 122 86 57 59
internal_count=264 205 148 122 86 57 59
is_linear=0
shrinkage=0.03


Tree=38
num_leaves=11
num_cat=0
split_feature=53 304 3 525 439 3 6 4 16 3
split_gain=2.11106 1.48572 0.590377 0.341359 0.55584 0.329417 0.277215 0.242852 0.0517345 0.00115633
threshold=1.0000000180025095e-35 1.0000000180025095e-35 186.11000000000004 1.0000000180025095e-35 1.0000000180025095e-35 110.95000000000002 90.25500000000001 0.17600000000000002 1.0000000180025095e-35 110.95000000000002
decision_type=2 2 10 2 2 10 8 10 2 8
left_child=2 -2 3 4 9 -6 -4 8 -5 -1
right_child=1 -3 6 7 5 -7 -8 -9 -10 -11
leaf_value=0.0073394586295554677 0.017767792141065001 0.0063427681901625215 0.010304063031915575 0.0020859115277058801 0.0051100325243813643 0.00086333425835736339 0.0053091294527985149 0.0050104879382997748 0.00021099955535545532 0.0076506849121175356
leaf_weight=21 20 21 20 26 35 31 20 20 27 22
leaf_count=21 20 21 20 26 35 31 20 20 27 22
internal_value=0 0.011916 0.00450659 0.00378131 0.00484457 0.00311537 0.0078066 0.0021937 0.00113077 0.00749869
internal_weight=0 41 222 182 109 66 40 73 53 43
internal_count=263 41 222 182 109 66 40 73 53 43
is_linear=0
shrinkage=0.03


Tree=39
num_leaves=7
num_cat=0
split_feature=53 7 1 203 6 0
split_gain=1.72311 0.850373 0.646076 0.759 0.519551 0.369331
threshold=1.0000000180025095e-35 0.23435000000000003 inf 1.0000000180025095e-35 1.0000000180025095e-35 1.0000000180025095e-35
decision_type=2 10 8 2 10 8
left_child=1 2 4 -4 -1 -5
right_child=-2 -3 3 5 -6 -7
leaf_value=-0.0002183409624690698 0.011301400719210505 -0.00075488107678081304 0.010547652345849201 0.0036901850095423668 0.0053930686703986585 0.0078288325522508882
leaf_weight=33 35 28 27 69 27 27
leaf_count=33 35 28 27 69 27 27
internal_value=0 0.00411402 0.00485899 0.00610397 0.00230679 0.00485418
internal_weight=0 211 183 123 60 96
internal_count=246 211 183 123 60 96
is_linear=0
shrinkage=0.03


Tree=40
num_leaves=8
num_cat=0
split_feature=3 7 439 0 203 6 6
split_gain=0.739968 0.910873 0.507774 0.479124 1.14277 1.13606 0.198852
threshold=86.010000000000019 0.23435000000000003 1.0000000180025095e-35 1.0000000180025095e-35 1.0000000180025095e-35 58.675000000000004 71.080000000000013
decision_type=8 10 2 10 2 10 10
left_child=2 3 -1 4 -2 -5 -6
right_child=1 -3 -4 5 6 -7 -8
leaf_value=0.0053386007444086404 0.01077492754929699 -0.00057882936478688798 0.011713704682238724 -0.00039265406162788469 0.0051424224961549043 0.0083874117010938262 0.0017757394909858704
leaf_weight=22 35 29 23 36 75 21 20
leaf_count=22 35 29 23 36 75 21 20
internal_value=0 0.00436821 0.00859699 0.0051354 0.00614091 0.00284211 0.00443365
internal_weight=0 216 45 187 130 57 95
internal_count=261 216 45 187 130 57 95
is_linear=0
shrinkage=0.03


Tree=41
num_leaves=8
num_cat=0
split_feature=53 1 448 2 6 439 7
split_gain=0.757185 0.894436 0.363143 0.730303 0.298413 0.316421 0.305588
threshold=1.0000000180025095e-35 1.0000000180025095e-35 1.0000000180025095e-35 1.0000000180025095e-35 58.675000000000004 1.0000000180025095e-35 0.059900000000000002
decision_type=2 10 2 8 10 2 10
left_child=1 2 3 -1 5 -4 -6
right_child=-2 -3 4 -5 6 -7 -8
leaf_value=0.0062187274959352281 0.0088551992013190806 -0.0014187262291935356 0.0069721186414746375 -0.00089705156330019224 0.0087554993307484043 0.003047341516460566 0.0046170956068314036
leaf_weight=27 39 22 29 25 42 51 26
leaf_count=27 39 22 29 25 42 51 26
internal_value=0 0.00432274 0.0049543 0.00279768 0.00571204 0.00447007 0.00717317
internal_weight=0 222 200 52 148 80 68
internal_count=261 222 200 52 148 80 68
is_linear=0
shrinkage=0.03


Tree=42
num_leaves=10
num_cat=0
split_feature=3 439 4 6 3 290 4 3 1
split_gain=0.694441 0.708234 0.262198 0.463328 0.427004 0.143339 0.135225 0.093632 0.0248836
threshold=86.010000000000019 1.0000000180025095e-35 1.0000000180025095e-35 90.25500000000001 186.11000000000004 1.0000000180025095e-35 0.17600000000000002 145.35000000000002 1.0000000180025095e-35
decision_type=8 2 10 8 8 2 10 10 8
left_child=1 -1 4 5 -2 7 -5 -4 -6
right_child=2 -3 3 6 8 -7 -8 -9 -10
leaf_value=0.0044009465631097552 0.0002830919716361677 0.011944926801536764 0.0036814378786154769 0.0053392211195420133 0.0036314636029835257 0.0051443255146074547 0.008564123749919236 0.00099794126080814745 0.0049779200926423073
leaf_weight=24 40 21 22 22 21 23 25 25 30
leaf_count=24 40 21 22 22 21 23 25 25 30
internal_value=0 0.00792147 0.00381129 0.00475065 0.00260354 0.00320371 0.00705459 0.00225405 0.0044235
internal_weight=0 45 208 117 91 70 47 47 51
internal_count=253 45 208 117 91 70 47 47 51
is_linear=0
shrinkage=0.03


Tree=43
num_leaves=10
num_cat=0
split_feature=289 6 304 4 436 386 6 4 525
split_gain=0.512076 0.870615 0.681417 0.38839 0.524049 0.380431 0.264702 0.149336 0.0481024
threshold=1.0000000180025095e-35 71.080000000000013 1.0000000180025095e-35 0.17600000000000002 1.0000000180025095e-35 1.0000000180025095e-35 90.25500000000001 1.0000000180025095e-35 1.0000000180025095e-35
decision_type=2 10 2 10 2 2 8 10 2
left_child=1 2 5 4 7 -1 -5 8 -2
right_child=3 -3 -4 6 -6 -7 -8 -9 -10
leaf_value=0.0095622805525947905 0.0034110970981419087 0.011237676819520337 0.00070675942211829382 0.0034337332552193752 -0.00097637318300881546 0.0042603308320495071 0.0077959890503968513 0.0054929018182599022 0.0015213241267801178
leaf_weight=21 27 21 29 31 35 29 21 23 22
leaf_count=21 27 21 29 31 35 29 21 23 22
internal_value=0 0.00580845 0.00436523 0.00306852 0.00203488 0.00648715 0.00519541 0.00349869 0.00256263
internal_weight=0 100 79 159 107 50 52 72 49
internal_count=259 100 79 159 107 50 52 72 49
is_linear=0
shrinkage=0.03


Tree=44
num_leaves=10
num_cat=0
split_feature=4 6 525 525 439 6 16 448 5
split_gain=1.45255 1.13449 1.64896 0.331694 0.510773 0.355216 0.312595 0.311757 0.294961
threshold=0.21800000000000003 80.450000000000017 1.0000000180025095e-35 1.0000000180025095e-35 1.0000000180025095e-35 58.675000000000004 1.0000000180025095e-35 1.0000000180025095e-35 inf
decision_type=8 10 2 2 2 10 2 2 8
left_child=1 2 -1 4 8 7 -6 -5 -2
right_child=3 -3 -4 5 6 -7 -8 -9 -10
leaf_value=0.0023376404363662003 0.00965924892341718 0.013835988478816072 0.012284371274290605 0.0030533492449571244 0.00041539977653883394 0.0047218938387930389 0.0050307163394987583 -0.0018203434513674841 0.0045069167566252873
leaf_weight=40 20 23 24 21 28 25 25 27 20
leaf_count=40 20 23 24 21 28 25 25 27 20
internal_value=0 0.00812136 0.00606766 0.00333579 0.0045239 0.00182217 0.00259244 0.000311897 0.00708308
internal_weight=0 87 64 166 93 73 53 48 40
internal_count=253 87 64 166 93 73 53 48 40
is_linear=0
shrinkage=0.03


Tree=45
num_leaves=9
num_cat=0
split_feature=289 304 4 18 4 0 6 6
split_gain=0.933948 1.35122 0.809034 0.23915 0.231991 0.308685 0.0701657 0.0160498
threshold=1.0000000180025095e-35 1.0000000180025095e-35 0.21800000000000003 1.0000000180025095e-35 0.21800000000000003 1.0000000180025095e-35 71.080000000000013 1.0000000180025095e-35
decision_type=2 2 8 2 10 10 10 10
left_child=1 2 -1 4 5 6 -2 -4
right_child=3 -3 7 -5 -6 -7 -8 -9
leaf_value=0.012165109988834176 0.00083045479865208013 0.00077358492737403131 0.0049952643577541624 0.0051516897036609317 0.0038450763112789876 0.0041758498189586176 -0.0010401436170706382 0.0061681654846428751
leaf_weight=28 59 32 21 22 37 23 26 21
leaf_count=28 59 32 21 22 37 23 26 21
internal_value=0 0.00588049 0.00821507 0.00223714 0.00179493 0.00109257 0.000258272 0.00558171
internal_weight=0 102 70 167 145 108 85 42
internal_count=269 102 70 167 145 108 85 42
is_linear=0
shrinkage=0.03


Tree=46
num_leaves=8
num_cat=0
split_feature=51 439 439 16 4 2 4
split_gain=1.07526 0.800258 0.692144 1.09351 0.444377 0.294029 0.0431164
threshold=1.0000000180025095e-35 1.0000000180025095e-35 1.0000000180025095e-35 1.0000000180025095e-35 0.17600000000000002 1.0000000180025095e-35 0.21800000000000003
decision_type=2 2 2 2 8 8 10
left_child=1 -1 3 -2 -4 6 -6
right_child=2 -3 4 -5 5 -7 -8
leaf_value=0.0099507041441808837 0.0045755718612382488 0.004021608169307001 0.0084164766166359185 -0.0031617321568940364 0.0039685387046436869 0.00099445532782581336 0.0056430408664047711
leaf_weight=42 31 40 20 35 31 29 25
leaf_count=42 31 40 20 35 31 29 25
internal_value=0 0.00705846 0.00287983 0.000472456 0.00439304 0.00344635 0.00471608
internal_weight=0 82 171 66 105 85 56
internal_count=253 82 171 66 105 85 56
is_linear=0
shrinkage=0.03


Tree=47
num_leaves=8
num_cat=0
split_feature=448 304 0 14 6 1 445
split_gain=0.456996 0.449125 0.820906 0.916061 0.580492 0.797039 0.396605
threshold=1.0000000180025095e-35 1.0000000180025095e-35 1.0000000180025095e-35 1.0000000180025095e-35 71.080000000000013 11.500000000000002 1.0000000180025095e-35
decision_type=2 2 10 2 8 8 2
left_child=6 2 4 -4 -2 -6 -1
right_child=1 -3 3 -5 5 -7 -8
leaf_value=-0.00057364798350525753 0.008718514692570482 0.0014419357412649937 0.013218136539925698 0.0051378695161214899 -0.0016519646751491919 0.0047739052915499658 0.0042165927248341692
leaf_weight=28 21 27 23 28 23 71 35
leaf_count=28 21 27 23 28 23 71 35
internal_value=0 0.00503031 0.00561397 0.00878191 0.00420905 0.00320162 0.0020876
internal_weight=0 193 166 51 115 94 63
internal_count=256 193 166 51 115 94 63
is_linear=0
shrinkage=0.03


Tree=48
num_leaves=11
num_cat=0
split_feature=4 439 525 6 525 5 439 6 439 5
split_gain=1.32369 0.695578 1.86278 1.59353 0.364565 0.512509 0.156568 0.0651604 0.0584542 0.0142718
threshold=0.26950000000000007 1.0000000180025095e-35 1.0000000180025095e-35 90.25500000000001 1.0000000180025095e-35 -24.599999999999998 1.0000000180025095e-35 80.450000000000017 1.0000000180025095e-35 15.755000000000001
decision_type=8 2 2 8 2 10 2 8 2 8
left_child=1 3 7 -1 5 8 -6 -3 -2 -8
right_child=4 2 -4 -5 6 -7 9 -9 -10 -11
leaf_value=-0.0013037841383797617 0.00095021003857254983 0.003730756246617862 0.015630410800010642 0.0095367145638421934 -0.0017261657975614069 0.0070011694707836098 0.00094581701393638335 0.0060421073938841403 0.0027758374874247236 0.002051843963563442
leaf_weight=26 27 21 22 23 20 26 21 23 38 21
leaf_count=26 27 21 22 23 20 26 21 23 38 21
internal_value=0 0.00649243 0.00850278 0.00378461 0.00223265 0.00344141 0.000458509 0.00493896 0.0020175 0.00149883
internal_weight=0 115 66 49 153 91 62 44 65 42
internal_count=268 115 66 49 153 91 62 44 65 42
is_linear=0
shrinkage=0.03


Tree=49
num_leaves=7
num_cat=0
split_feature=53 3 35 4 439 6
split_gain=1.16652 0.847236 1.30459 1.01141 0.232922 0.123002
threshold=1.0000000180025095e-35 186.11000000000004 1.0000000180025095e-35 0.17600000000000002 1.0000000180025095e-35 58.675000000000004
decision_type=2 10 2 10 2 10
left_child=1 2 -1 4 -4 -5
right_child=-2 -3 3 5 -6 -7
leaf_value=0.0096925919403188995 0.0095927682281895122 0.0075472140636366715 -0.0014077361882664262 0.0035847840551286934 0.0014068413795903323 0.0065115932564783312
leaf_weight=21 33 39 51 24 55 28
leaf_count=21 33 39 51 24 55 28
internal_value=0 0.00354049 0.00266752 0.0017338 5.26578e-05 0.00516076
internal_weight=0 218 179 158 106 52
internal_count=251 218 179 158 106 52
is_linear=0
shrinkage=0.03


Tree=50
num_leaves=11
num_cat=0
split_feature=5 2 6 525 525 436 5 6 3 1
split_gain=1.4678 0.491795 0.680004 0.38621 0.372828 0.246792 0.223645 0.191744 0.119359 0.020602
threshold=15.755000000000001 inf 71.080000000000013 1.0000000180025095e-35 1.0000000180025095e-35 1.0000000180025095e-35 -11.799999999999999 80.450000000000017 1.0000000180025095e-35 inf
decision_type=10 8 10 2 2 2 8 8 10 8
left_child=1 3 4 5 8 7 -5 -1 -3 -8
right_child=-2 2 -4 6 -6 -7 9 -9 -10 -11
leaf_value=0.0016653177675629114 0.011527616365679673 0.0068021484604105353 0.0093475494952872402 0.00142538606794551 0.00036988571691124334 0.0028251232756805176 0.0046462772718884725 -0.0020026088093311107 0.0035245992243289944 0.0059766541225835679
leaf_weight=23 21 20 24 20 23 37 22 29 20 20
leaf_count=23 21 20 24 20 23 37 22 29 20 20
internal_value=0 0.00325378 0.00505039 0.00221864 0.00341337 0.000952317 0.00403643 -0.000380257 0.00516337 0.00527979
internal_weight=0 238 87 151 63 89 62 52 40 42
internal_count=259 238 87 151 63 89 62 52 40 42
is_linear=0
shrinkage=0.03


end of trees

feature_importances:
feature3=53
feature4=44
feature6=44
feature5=40
feature439=34
feature304=22
feature448=20
feature2=19
feature1=18
feature16=18
feature525=16
feature0=12
feature289=12
feature53=11
feature290=11
feature51=9
feature436=9
feature7=7
feature14=4
feature35=4
feature386=3
feature203=2
feature18=1
feature302=1
feature306=1
feature445=1

parameters:
[boosting: gbdt]
[objective: regression]
[metric: rmse]
[tree_learner: serial]
[device_type: cpu]
[data: ]
[valid: ]
[num_iterations: 2000]
[learning_rate: 0.03]
[num_leaves: 12]
[num_threads: 12]
[deterministic: 0]
[force_col_wise: 0]
[force_row_wise: 0]
[histogram_pool_size: -1]
[max_depth: 5]
[min_data_in_leaf: 20]
[min_sum_hessian_in_leaf: 0.001]
[bagging_fraction: 0.7]
[pos_bagging_fraction: 1]
[neg_bagging_fraction: 1]
[bagging_freq: 1]
[bagging_seed: 400]
[feature_fraction: 0.7]
[feature_fraction_bynode: 1]
[feature_fraction_seed: 30056]
[extra_trees: 0]
[extra_seed: 12879]
[early_stopping_round: 300]
[first_metric_only: 0]
[max_delta_step: 0]
[lambda_l1: 0]
[lambda_l2: 0]
[linear_lambda: 0]
[min_gain_to_split: 0]
[drop_rate: 0.1]
[max_drop: 50]
[skip_drop: 0.5]
[xgboost_dart_mode: 0]
[uniform_drop: 0]
[drop_seed: 17869]
[top_rate: 0.2]
[other_rate: 0.1]
[min_data_per_group: 100]
[max_cat_threshold: 32]
[cat_l2: 10]
[cat_smooth: 10]
[max_cat_to_onehot: 4]
[top_k: 20]
[monotone_constraints: ]
[monotone_constraints_method: basic]
[monotone_penalty: 0]
[feature_contri: ]
[forcedsplits_filename: ]
[refit_decay_rate: 0.9]
[cegb_tradeoff: 1]
[cegb_penalty_split: 0]
[cegb_penalty_feature_lazy: ]
[cegb_penalty_feature_coupled: ]
[path_smooth: 0]
[interaction_constraints: ]
[verbosity: -1]
[saved_feature_importance_type: 0]
[linear_tree: 0]
[max_bin: 7]
[max_bin_by_feature: ]
[min_data_in_bin: 3]
[bin_construct_sample_cnt: 200000]
[data_random_seed: 175]
[is_enable_sparse: 1]
[enable_bundle: 1]
[use_missing: 1]
[zero_as_missing: 0]
[feature_pre_filter: 1]
[pre_partition: 0]
[two_round: 0]
[header: 0]
[label_column: ]
[weight_column: ]
[group_column: ]
[ignore_column: ]
[categorical_feature: ]
[forcedbins_filename: ]
[precise_float_parser: 0]
[objective_seed: 16083]
[num_class: 1]
[is_unbalance: 0]
[scale_pos_weight: 1]
[sigmoid: 1]
[boost_from_average: 0]
[reg_sqrt: 0]
[alpha: 0.9]
[fair_c: 1]
[poisson_max_delta_step: 0.7]
[tweedie_variance_power: 1.5]
[lambdarank_truncation_level: 30]
[lambdarank_norm: 1]
[label_gain: ]
[eval_at: ]
[multi_error_top_k: 1]
[auc_mu_weights: ]
[num_machines: 1]
[local_listen_port: 12400]
[time_out: 120]
[machine_list_filename: ]
[machines: ]
[gpu_platform_id: -1]
[gpu_device_id: -1]
[gpu_use_dp: 0]
[num_gpu: 1]

end of parameters

pandas_categorical:[]
